/* Species #0 : (Size 6) (AF 7.336) (Age 65)  */
/* Organism #3 Fitness: 9.558 Error: 0.864 */
genomestart 3
trait 1 0.9766624793912377 0.21163071305546877 0.16018449968999085 0 0 0 0.837517758685778 0 
node 1 1 1 3
node 2 1 1 1
node 3 1 1 1
node 4 1 1 1
node 5 1 1 1
node 6 1 1 1
node 7 1 1 1
node 8 1 1 1
node 9 1 1 1
node 10 1 1 1
node 11 1 1 1
node 12 1 0 0
node 13 1 0 2
node 14 1 0 2
node 271 1 0 0
gene 1 1 12 0.7423740983219493 false 1 0.7423740983219493 true
gene 1 2 12 2.971645605821368 false 2 2.971645605821368 true
gene 1 3 12 0.6275362625501424 false 3 0.6275362625501424 true
gene 1 4 12 -1.0782772270672043 false 4 -1.0782772270672043 true
gene 1 5 12 0.978487983871429 false 5 0.978487983871429 true
gene 1 6 12 1.4903155137962445 false 6 1.4903155137962445 true
gene 1 7 12 -1.4365418812005888 false 7 -1.4365418812005888 true
gene 1 8 12 -1.4869039475057235 false 8 -1.4869039475057235 true
gene 1 9 12 -0.6058816392206336 false 9 -0.6058816392206336 true
gene 1 10 12 2.702235047392599 false 10 2.702235047392599 true
gene 1 11 12 -1.7305585558445036 false 11 -1.7305585558445036 true
gene 1 12 13 0.3528810091613326 false 12 0.3528810091613326 true
gene 1 12 14 1.197191882136853 false 13 1.197191882136853 true
gene 1 10 14 11.81826788488378 false 1227 11.81826788488378 true
gene 1 2 271 0.4517429923455426 false 1343 0.4517429923455426 true
gene 1 271 12 0.47420081651511686 false 1344 0.47420081651511686 true
gene 1 271 14 -9.907708716464686 false 1771 -9.907708716464686 true
genomeend 3
/* Organism #4 Fitness: 9.156 Error: 0.757 */
genomestart 4
trait 1 0.9766624793912377 0.21163071305546877 0.16018449968999085 0 0 0 0.837517758685778 0 
node 1 1 1 3
node 2 1 1 1
node 3 1 1 1
node 4 1 1 1
node 5 1 1 1
node 6 1 1 1
node 7 1 1 1
node 8 1 1 1
node 9 1 1 1
node 10 1 1 1
node 11 1 1 1
node 12 1 0 0
node 13 1 0 2
node 14 1 0 2
node 271 1 0 0
node 375 1 0 0
gene 1 1 12 -1.3986049949835067 false 1 -1.3986049949835067 true
gene 1 2 12 2.3639147484694014 false 2 2.3639147484694014 true
gene 1 3 12 -0.13917797735993492 false 3 -0.13917797735993492 true
gene 1 4 12 -1.0782772270672043 false 4 -1.0782772270672043 true
gene 1 5 12 1.0021860459333787 false 5 1.0021860459333787 true
gene 1 6 12 1.2969575724360367 false 6 1.2969575724360367 true
gene 1 7 12 -0.9504905660803454 false 7 -0.9504905660803454 true
gene 1 8 12 -2.0160666327421253 false 8 -2.0160666327421253 true
gene 1 9 12 -0.3552500782883974 false 9 -0.3552500782883974 true
gene 1 10 12 2.3339570058366483 false 10 2.3339570058366483 true
gene 1 11 12 -1.0520231786191543 false 11 -1.0520231786191543 true
gene 1 12 13 -1.8565015510887597 false 12 -1.8565015510887597 true
gene 1 12 14 0.7149875563185788 false 13 0.7149875563185788 true
gene 1 10 14 11.93734943076432 false 1227 11.93734943076432 true
gene 1 2 271 -0.34951426612919195 false 1343 -0.34951426612919195 false
gene 1 271 12 0.020569323050550994 false 1344 0.020569323050550994 true
gene 1 2 375 1 false 1839 0 true
gene 1 375 271 -0.34951426612919195 false 1840 0 true
genomeend 4
/* Organism #1 Fitness: 7.108 Error: 0.815 */
genomestart 1
trait 1 0.9766624793912377 0.21163071305546877 0.16018449968999085 0 0 0 0.837517758685778 0 
node 1 1 1 3
node 2 1 1 1
node 3 1 1 1
node 4 1 1 1
node 5 1 1 1
node 6 1 1 1
node 7 1 1 1
node 8 1 1 1
node 9 1 1 1
node 10 1 1 1
node 11 1 1 1
node 12 1 0 0
node 13 1 0 2
node 14 1 0 2
node 271 1 0 0
gene 1 1 12 -1.3891722721721762 false 1 -1.3891722721721762 true
gene 1 2 12 1.797427264563399 false 2 1.797427264563399 true
gene 1 3 12 0.08281228140773317 false 3 0.08281228140773317 true
gene 1 4 12 -2.583480038034892 false 4 -2.583480038034892 true
gene 1 5 12 -0.0282920547074772 false 5 -0.0282920547074772 true
gene 1 6 12 0.3249144326713771 false 6 0.3249144326713771 true
gene 1 7 12 -1.4094201685890675 false 7 -1.4094201685890675 true
gene 1 8 12 -1.3441632586710597 false 8 -1.3441632586710597 true
gene 1 9 12 -0.5445975216033698 false 9 -0.5445975216033698 true
gene 1 10 12 2.474825173430308 false 10 2.474825173430308 true
gene 1 11 12 -0.5084851187091134 false 11 -0.5084851187091134 true
gene 1 12 13 -1.8565015510887597 false 12 -1.8565015510887597 true
gene 1 12 14 -0.0033676592460387123 false 13 -0.0033676592460387123 true
gene 1 10 14 11.93734943076432 false 1227 11.93734943076432 true
gene 1 2 271 -0.34951426612919195 false 1343 -0.34951426612919195 true
gene 1 271 12 0.020569323050550994 false 1344 0.020569323050550994 true
gene 1 2 13 4.182434519974106 false 1837 4.182434519974106 true
genomeend 1
/* Organism #5 Fitness: 6.749 Error: 0.837 */
genomestart 5
trait 1 0.9766624793912377 0.21163071305546877 0.16018449968999085 0 0 0 0.837517758685778 0 
node 1 1 1 3
node 2 1 1 1
node 3 1 1 1
node 4 1 1 1
node 5 1 1 1
node 6 1 1 1
node 7 1 1 1
node 8 1 1 1
node 9 1 1 1
node 10 1 1 1
node 11 1 1 1
node 12 1 0 0
node 13 1 0 2
node 14 1 0 2
node 271 1 0 0
gene 1 1 12 -0.8209027250534249 false 1 -0.8209027250534249 true
gene 1 2 12 2.4255557385756066 false 2 2.4255557385756066 true
gene 1 3 12 0.2347525546748112 false 3 0.2347525546748112 true
gene 1 4 12 -1.0155294441563751 false 4 -1.0155294441563751 true
gene 1 5 12 1.0021860459333787 false 5 1.0021860459333787 true
gene 1 6 12 0.7823053553040699 false 6 0.7823053553040699 true
gene 1 7 12 -0.8206726895685748 false 7 -0.8206726895685748 true
gene 1 8 12 -1.9083806294047416 false 8 -1.9083806294047416 true
gene 1 9 12 -0.17398784535464565 false 9 -0.17398784535464565 true
gene 1 10 12 2.740547497527052 false 10 2.740547497527052 true
gene 1 11 12 -1.0520231786191543 false 11 -1.0520231786191543 true
gene 1 12 13 0.020956210168604467 false 12 0.020956210168604467 true
gene 1 12 14 0.7149875563185788 false 13 0.7149875563185788 true
gene 1 10 14 -0.384012540751086 false 1227 -0.384012540751086 true
gene 1 2 271 -0.36935909724707605 false 1343 -0.36935909724707605 true
gene 1 271 12 0.2465466106575535 false 1344 0.2465466106575535 true
gene 1 271 14 -8.920888537057102 false 1771 -8.920888537057102 true
genomeend 5
/* Organism #0 Fitness: 5.722 Error: 0.990 */
genomestart 0
trait 1 0.9766624793912377 0.21163071305546877 0.16018449968999085 0 0 0 0.837517758685778 0 
node 1 1 1 3
node 2 1 1 1
node 3 1 1 1
node 4 1 1 1
node 5 1 1 1
node 6 1 1 1
node 7 1 1 1
node 8 1 1 1
node 9 1 1 1
node 10 1 1 1
node 11 1 1 1
node 12 1 0 0
node 13 1 0 2
node 14 1 0 2
node 271 1 0 0
gene 1 1 12 -1.3891722721721762 false 1 -1.3891722721721762 true
gene 1 2 12 1.797427264563399 false 2 1.797427264563399 true
gene 1 3 12 0.08281228140773317 false 3 0.08281228140773317 true
gene 1 4 12 -2.583480038034892 false 4 -2.583480038034892 true
gene 1 5 12 -0.0282920547074772 false 5 -0.0282920547074772 true
gene 1 6 12 0.3249144326713771 false 6 0.3249144326713771 true
gene 1 7 12 -1.4094201685890675 false 7 -1.4094201685890675 true
gene 1 8 12 -1.3441632586710597 false 8 -1.3441632586710597 true
gene 1 9 12 -0.5445975216033698 false 9 -0.5445975216033698 true
gene 1 10 12 2.474825173430308 false 10 2.474825173430308 true
gene 1 11 12 -0.5084851187091134 false 11 -0.5084851187091134 true
gene 1 12 13 -1.8565015510887597 false 12 -1.8565015510887597 true
gene 1 12 14 -0.0033676592460387123 false 13 -0.0033676592460387123 true
gene 1 10 14 11.93734943076432 false 1227 11.93734943076432 true
gene 1 2 271 -0.34951426612919195 false 1343 -0.34951426612919195 true
gene 1 271 12 0.020569323050550994 false 1344 0.020569323050550994 true
genomeend 0
/* Organism #2 Fitness: 5.722 Error: 0.990 */
genomestart 2
trait 1 0.9766624793912377 0.21163071305546877 0.16018449968999085 0 0 0 0.837517758685778 0 
node 1 1 1 3
node 2 1 1 1
node 3 1 1 1
node 4 1 1 1
node 5 1 1 1
node 6 1 1 1
node 7 1 1 1
node 8 1 1 1
node 9 1 1 1
node 10 1 1 1
node 11 1 1 1
node 12 1 0 0
node 13 1 0 2
node 14 1 0 2
node 271 1 0 0
gene 1 1 12 -1.3891722721721762 false 1 -1.3891722721721762 true
gene 1 2 12 1.797427264563399 false 2 1.797427264563399 true
gene 1 3 12 0.08281228140773317 false 3 0.08281228140773317 true
gene 1 4 12 -2.583480038034892 false 4 -2.583480038034892 true
gene 1 5 12 -0.0282920547074772 false 5 -0.0282920547074772 true
gene 1 6 12 0.3249144326713771 false 6 0.3249144326713771 true
gene 1 7 12 -1.4094201685890675 false 7 -1.4094201685890675 true
gene 1 8 12 -1.3441632586710597 false 8 -1.3441632586710597 true
gene 1 9 12 -0.5445975216033698 false 9 -0.5445975216033698 true
gene 1 10 12 2.474825173430308 false 10 2.474825173430308 true
gene 1 11 12 -0.5084851187091134 false 11 -0.5084851187091134 true
gene 1 12 13 -1.8565015510887597 false 12 -1.8565015510887597 true
gene 1 12 14 -0.0033676592460387123 false 13 -0.0033676592460387123 true
gene 1 10 14 11.93734943076432 false 1227 11.93734943076432 true
gene 1 2 271 -0.34951426612919195 false 1343 -0.34951426612919195 true
gene 1 271 12 0.020569323050550994 false 1344 0.020569323050550994 true
gene 1 9 14 8.787563236372684 false 1838 8.787563236372684 true
genomeend 2
/* Species #2 : (Size 10) (AF 10.408) (Age 62)  */
/* Organism #11 Fitness: 17.513 Error: 0.517 */
genomestart 11
trait 1 0.05320739746093751 0.75351616022885 0.2201075064405816 0.12500340924951395 0.4711853881770554 0.305216162043611 0.49448200430968237 0.7467295075915369 
node 1 1 1 3
node 2 1 1 1
node 3 1 1 1
node 4 1 1 1
node 5 1 1 1
node 6 1 1 1
node 7 1 1 1
node 8 1 1 1
node 9 1 1 1
node 10 1 1 1
node 11 1 1 1
node 12 1 0 0
node 13 1 0 2
node 14 1 0 2
node 17 1 0 0
node 155 1 0 0
node 232 1 0 0
node 266 1 0 0
node 288 1 0 0
gene 1 1 12 -0.23731251706202572 false 1 -0.23731251706202572 true
gene 1 2 12 1.256892083311034 false 2 1.256892083311034 true
gene 1 3 12 0.1586444671293326 false 3 0.1586444671293326 true
gene 1 4 12 -0.22813175900583438 false 4 -0.22813175900583438 true
gene 1 5 12 -0.993602600562839 false 5 -0.993602600562839 true
gene 1 6 12 -0.5462710057152196 false 6 -0.5462710057152196 true
gene 1 7 12 0.425474823067294 false 7 0.425474823067294 true
gene 1 8 12 -0.48384887206321964 false 8 -0.48384887206321964 true
gene 1 9 12 -2.5779063160169713 false 9 -2.5779063160169713 true
gene 1 10 12 0.7227875285697165 false 10 0.7227875285697165 true
gene 1 11 12 -0.6148223835488144 false 11 -0.6148223835488144 true
gene 1 12 13 -3.772812912752518 false 12 -3.772812912752518 true
gene 1 12 14 -0.2352912694630133 false 13 -0.2352912694630133 true
gene 1 2 17 -0.009409920641298156 false 37 -0.009409920641298156 true
gene 1 17 12 -0.267428374917857 false 38 -0.267428374917857 true
gene 1 8 17 0.7730130597509828 false 239 0.7730130597509828 true
gene 1 6 14 -1.635298520639147 false 268 -1.635298520639147 true
gene 1 14 14 0.4047596314534978 true 365 0.4047596314534978 true
gene 1 7 155 0.19236059143223339 false 746 0.19236059143223339 true
gene 1 155 12 -0.8298148351920692 false 747 -0.8298148351920692 true
gene 1 7 14 1.826793435415664 false 820 1.826793435415664 true
gene 1 2 155 1.0977067511613818 false 935 1.0977067511613818 true
gene 1 8 13 -0.3350736468400921 false 1053 -0.3350736468400921 true
gene 1 14 232 -1.2205106220782167 true 1135 -1.2205106220782167 true
gene 1 232 14 -0.5243642521345702 false 1136 -0.5243642521345702 true
gene 1 3 266 -0.6387348314872274 false 1308 -0.6387348314872274 true
gene 1 266 12 0.1909918380405068 false 1309 0.1909918380405068 true
gene 1 8 288 1.602547741127048 false 1414 1.602547741127048 true
gene 1 288 13 -0.5592143225206451 false 1415 -0.5592143225206451 true
genomeend 11
/* Organism #10 Fitness: 17.513 Error: 0.517 */
genomestart 10
trait 1 0.05320739746093751 0.75351616022885 0.2201075064405816 0.12500340924951395 0.4711853881770554 0.305216162043611 0.49448200430968237 0.7467295075915369 
node 1 1 1 3
node 2 1 1 1
node 3 1 1 1
node 4 1 1 1
node 5 1 1 1
node 6 1 1 1
node 7 1 1 1
node 8 1 1 1
node 9 1 1 1
node 10 1 1 1
node 11 1 1 1
node 12 1 0 0
node 13 1 0 2
node 14 1 0 2
node 17 1 0 0
node 155 1 0 0
node 232 1 0 0
node 266 1 0 0
node 288 1 0 0
gene 1 1 12 -0.23731251706202572 false 1 -0.23731251706202572 true
gene 1 2 12 1.256892083311034 false 2 1.256892083311034 true
gene 1 3 12 0.1586444671293326 false 3 0.1586444671293326 true
gene 1 4 12 -0.22813175900583438 false 4 -0.22813175900583438 true
gene 1 5 12 -0.993602600562839 false 5 -0.993602600562839 true
gene 1 6 12 -0.5462710057152196 false 6 -0.5462710057152196 true
gene 1 7 12 0.425474823067294 false 7 0.425474823067294 true
gene 1 8 12 -0.48384887206321964 false 8 -0.48384887206321964 true
gene 1 9 12 -2.5779063160169713 false 9 -2.5779063160169713 true
gene 1 10 12 0.7227875285697165 false 10 0.7227875285697165 true
gene 1 11 12 -0.6148223835488144 false 11 -0.6148223835488144 true
gene 1 12 13 -3.772812912752518 false 12 -3.772812912752518 true
gene 1 12 14 -0.2352912694630133 false 13 -0.2352912694630133 true
gene 1 2 17 -0.009409920641298156 false 37 -0.009409920641298156 true
gene 1 17 12 -0.267428374917857 false 38 -0.267428374917857 true
gene 1 8 17 0.7730130597509828 false 239 0.7730130597509828 true
gene 1 6 14 -1.635298520639147 false 268 -1.635298520639147 true
gene 1 14 14 0.4047596314534978 true 365 0.4047596314534978 true
gene 1 7 155 0.19236059143223339 false 746 0.19236059143223339 true
gene 1 155 12 -0.8298148351920692 false 747 -0.8298148351920692 true
gene 1 7 14 1.826793435415664 false 820 1.826793435415664 true
gene 1 2 155 1.0977067511613818 false 935 1.0977067511613818 true
gene 1 8 13 -0.3350736468400921 false 1053 -0.3350736468400921 true
gene 1 14 232 -1.2205106220782167 true 1135 -1.2205106220782167 true
gene 1 232 14 -0.5243642521345702 false 1136 -0.5243642521345702 true
gene 1 3 266 -0.6387348314872274 false 1308 -0.6387348314872274 true
gene 1 266 12 0.1909918380405068 false 1309 0.1909918380405068 true
gene 1 8 288 1.602547741127048 false 1414 1.602547741127048 true
gene 1 288 13 -0.5592143225206451 false 1415 -0.5592143225206451 true
genomeend 10
/* Organism #6 Fitness: 17.513 Error: 0.517 */
genomestart 6
trait 1 0.05320739746093751 0.75351616022885 0.2201075064405816 0.12500340924951395 0.4711853881770554 0.305216162043611 0.49448200430968237 0.7467295075915369 
node 1 1 1 3
node 2 1 1 1
node 3 1 1 1
node 4 1 1 1
node 5 1 1 1
node 6 1 1 1
node 7 1 1 1
node 8 1 1 1
node 9 1 1 1
node 10 1 1 1
node 11 1 1 1
node 12 1 0 0
node 13 1 0 2
node 14 1 0 2
node 17 1 0 0
node 155 1 0 0
node 232 1 0 0
node 266 1 0 0
node 288 1 0 0
gene 1 1 12 -0.23731251706202572 false 1 -0.23731251706202572 true
gene 1 2 12 1.256892083311034 false 2 1.256892083311034 true
gene 1 3 12 0.1586444671293326 false 3 0.1586444671293326 true
gene 1 4 12 -0.22813175900583438 false 4 -0.22813175900583438 true
gene 1 5 12 -0.993602600562839 false 5 -0.993602600562839 true
gene 1 6 12 -0.5462710057152196 false 6 -0.5462710057152196 true
gene 1 7 12 0.425474823067294 false 7 0.425474823067294 true
gene 1 8 12 -0.48384887206321964 false 8 -0.48384887206321964 true
gene 1 9 12 -2.5779063160169713 false 9 -2.5779063160169713 true
gene 1 10 12 0.7227875285697165 false 10 0.7227875285697165 true
gene 1 11 12 -0.6148223835488144 false 11 -0.6148223835488144 true
gene 1 12 13 -3.772812912752518 false 12 -3.772812912752518 true
gene 1 12 14 -0.2352912694630133 false 13 -0.2352912694630133 true
gene 1 2 17 -0.009409920641298156 false 37 -0.009409920641298156 true
gene 1 17 12 -0.267428374917857 false 38 -0.267428374917857 true
gene 1 8 17 0.7730130597509828 false 239 0.7730130597509828 true
gene 1 6 14 -1.635298520639147 false 268 -1.635298520639147 true
gene 1 14 14 0.4047596314534978 true 365 0.4047596314534978 true
gene 1 7 155 0.19236059143223339 false 746 0.19236059143223339 true
gene 1 155 12 -0.8298148351920692 false 747 -0.8298148351920692 true
gene 1 7 14 1.826793435415664 false 820 1.826793435415664 true
gene 1 2 155 1.0977067511613818 false 935 1.0977067511613818 true
gene 1 8 13 -0.3350736468400921 false 1053 -0.3350736468400921 true
gene 1 14 232 -1.2205106220782167 true 1135 -1.2205106220782167 true
gene 1 232 14 -0.5243642521345702 false 1136 -0.5243642521345702 true
gene 1 3 266 -0.6387348314872274 false 1308 -0.6387348314872274 true
gene 1 266 12 0.1909918380405068 false 1309 0.1909918380405068 true
gene 1 8 288 1.602547741127048 false 1414 1.602547741127048 true
gene 1 288 13 -0.5592143225206451 false 1415 -0.5592143225206451 true
genomeend 6
/* Organism #12 Fitness: 11.337 Error: 0.712 */
genomestart 12
trait 1 0.05320739746093751 0.75351616022885 0.2201075064405816 0.12500340924951395 0.4711853881770554 0.305216162043611 0.49448200430968237 0.7467295075915369 
node 1 1 1 3
node 2 1 1 1
node 3 1 1 1
node 4 1 1 1
node 5 1 1 1
node 6 1 1 1
node 7 1 1 1
node 8 1 1 1
node 9 1 1 1
node 10 1 1 1
node 11 1 1 1
node 12 1 0 0
node 13 1 0 2
node 14 1 0 2
node 17 1 0 0
node 155 1 0 0
node 232 1 0 0
node 266 1 0 0
node 288 1 0 0
gene 1 1 12 0.005384509946277483 false 1 0.005384509946277483 true
gene 1 2 12 1.5273766193555618 false 2 1.5273766193555618 true
gene 1 3 12 0.07143311793446853 false 3 0.07143311793446853 true
gene 1 4 12 -0.19635494614790733 false 4 -0.19635494614790733 true
gene 1 5 12 -0.5272966386893723 false 5 -0.5272966386893723 true
gene 1 6 12 -0.24851256615476608 false 6 -0.24851256615476608 true
gene 1 7 12 0.8727467436308738 false 7 0.8727467436308738 true
gene 1 8 12 -0.5079666911668106 false 8 -0.5079666911668106 true
gene 1 9 12 -2.621172758039782 false 9 -2.621172758039782 true
gene 1 10 12 1.0806587343177665 false 10 1.0806587343177665 true
gene 1 11 12 -0.24044295103847785 false 11 -0.24044295103847785 true
gene 1 12 13 -4.376273865490221 false 12 -4.376273865490221 true
gene 1 12 14 -0.08992953284657981 false 13 -0.08992953284657981 true
gene 1 2 17 0.32211601842691684 false 37 0.32211601842691684 true
gene 1 17 12 -0.33311884926804824 false 38 -0.33311884926804824 true
gene 1 8 17 0.9651094183517622 false 239 0.9651094183517622 true
gene 1 6 14 -1.129349770226473 false 268 -1.129349770226473 true
gene 1 14 14 0.9713212365852743 true 365 0.9713212365852743 true
gene 1 7 155 -0.5607410449118716 false 746 -0.5607410449118716 true
gene 1 155 12 -1.514897100430752 false 747 -1.514897100430752 true
gene 1 7 14 1.2497706952428236 false 820 1.2497706952428236 true
gene 1 2 155 1.8579405419605335 false 935 1.8579405419605335 true
gene 1 8 13 -0.5084658726480188 false 1053 -0.5084658726480188 true
gene 1 14 232 -1.05020070608026 true 1135 -1.05020070608026 true
gene 1 232 14 -0.02309583986377628 false 1136 -0.02309583986377628 true
gene 1 3 266 -0.08900842797621744 false 1308 -0.08900842797621744 true
gene 1 266 12 -0.37862972365643344 false 1309 -0.37862972365643344 true
gene 1 8 288 1.166254259568417 false 1414 1.166254259568417 true
gene 1 288 13 -0.5592143225206451 false 1415 -0.5592143225206451 true
genomeend 12
/* Organism #13 Fitness: 10.313 Error: 0.688 */
genomestart 13
trait 1 0.05320739746093751 0.75351616022885 0.2201075064405816 0.12500340924951395 0.4711853881770554 0.305216162043611 0.49448200430968237 0.7467295075915369 
node 1 1 1 3
node 2 1 1 1
node 3 1 1 1
node 4 1 1 1
node 5 1 1 1
node 6 1 1 1
node 7 1 1 1
node 8 1 1 1
node 9 1 1 1
node 10 1 1 1
node 11 1 1 1
node 12 1 0 0
node 13 1 0 2
node 14 1 0 2
node 17 1 0 0
node 155 1 0 0
node 232 1 0 0
node 266 1 0 0
node 288 1 0 0
gene 1 1 12 0.42205013129902147 false 1 0.42205013129902147 true
gene 1 2 12 0.5845498226830496 false 2 0.5845498226830496 true
gene 1 3 12 -0.7036756677672404 false 3 -0.7036756677672404 true
gene 1 4 12 -0.5811900521941515 false 4 -0.5811900521941515 true
gene 1 5 12 0.5111921077114948 false 5 0.5111921077114948 true
gene 1 6 12 -0.9052963408685828 false 6 -0.9052963408685828 true
gene 1 7 12 -0.7519741518315255 false 7 -0.7519741518315255 true
gene 1 8 12 -0.48384887206321964 false 8 -0.48384887206321964 true
gene 1 9 12 -2.6297495973170166 false 9 -2.6297495973170166 true
gene 1 10 12 0.0013198158207559478 false 10 0.0013198158207559478 true
gene 1 11 12 0.5305053539099694 false 11 0.5305053539099694 true
gene 1 12 13 0.6237200019370289 false 12 0.6237200019370289 true
gene 1 12 14 -0.1949779645377966 false 13 -0.1949779645377966 true
gene 1 2 17 -0.009409920641298156 false 37 -0.009409920641298156 true
gene 1 17 12 -0.267428374917857 false 38 -0.267428374917857 true
gene 1 8 17 0.7730130597509828 false 239 0.7730130597509828 true
gene 1 6 14 -0.5757100397209058 false 268 -0.5757100397209058 true
gene 1 14 14 0.13166297968670154 true 365 0.13166297968670154 true
gene 1 7 155 0.06057816735702009 false 746 0.06057816735702009 true
gene 1 155 12 -1.4002094260012767 false 747 -1.4002094260012767 true
gene 1 7 14 1.3606440659778944 false 820 1.3606440659778944 true
gene 1 2 155 1.0516075040061432 false 935 1.0516075040061432 true
gene 1 8 13 -0.7148547890050312 false 1053 -0.7148547890050312 true
gene 1 14 232 -1.415532059890973 true 1135 -1.415532059890973 true
gene 1 232 14 -0.7656124063471319 false 1136 -0.7656124063471319 true
gene 1 3 266 -0.6387348314872274 false 1308 -0.6387348314872274 true
gene 1 266 12 0.8813560650563524 false 1309 0.8813560650563524 true
gene 1 8 288 2.0268420359141732 false 1414 2.0268420359141732 true
gene 1 288 13 -0.6876810694050327 false 1415 -0.6876810694050327 true
genomeend 13
/* Organism #7 Fitness: 9.606 Error: 0.628 */
genomestart 7
trait 1 0.05320739746093751 0.75351616022885 0.2201075064405816 0.12500340924951395 0.4711853881770554 0.305216162043611 0.49448200430968237 0.7467295075915369 
node 1 1 1 3
node 2 1 1 1
node 3 1 1 1
node 4 1 1 1
node 5 1 1 1
node 6 1 1 1
node 7 1 1 1
node 8 1 1 1
node 9 1 1 1
node 10 1 1 1
node 11 1 1 1
node 12 1 0 0
node 13 1 0 2
node 14 1 0 2
node 17 1 0 0
node 155 1 0 0
node 232 1 0 0
node 266 1 0 0
node 288 1 0 0
gene 1 1 12 0.380699813302392 false 1 0.380699813302392 true
gene 1 2 12 0.17839830455866348 false 2 0.17839830455866348 true
gene 1 3 12 -0.6499187819704391 false 3 -0.6499187819704391 true
gene 1 4 12 -0.15373067894702608 false 4 -0.15373067894702608 true
gene 1 5 12 -1.7027548942402904 false 5 -1.7027548942402904 true
gene 1 6 12 -0.8283221639816749 false 6 -0.8283221639816749 true
gene 1 7 12 0.6609928226436818 false 7 0.6609928226436818 true
gene 1 8 12 -0.3019247677423586 false 8 -0.3019247677423586 true
gene 1 9 12 0.027432489926708534 false 9 0.027432489926708534 true
gene 1 10 12 0.7929764287794632 false 10 0.7929764287794632 true
gene 1 11 12 -0.5519638518411807 false 11 -0.5519638518411807 true
gene 1 12 13 -2.9833411330743678 false 12 -2.9833411330743678 true
gene 1 12 14 -0.5594782177086768 false 13 -0.5594782177086768 true
gene 1 2 17 -0.009409920641298156 false 37 -0.009409920641298156 true
gene 1 17 12 -0.09444797904525981 false 38 -0.09444797904525981 true
gene 1 8 17 1.1387049288720479 false 239 1.1387049288720479 true
gene 1 6 14 -1.635298520639147 false 268 -1.635298520639147 true
gene 1 14 14 0.9398491137333016 true 365 0.9398491137333016 true
gene 1 7 155 0.7579186878354323 false 746 0.7579186878354323 true
gene 1 155 12 -0.9438288317469343 false 747 -0.9438288317469343 true
gene 1 7 14 1.3645275212565735 false 820 1.3645275212565735 true
gene 1 2 155 -0.015300886843838124 false 935 -0.015300886843838124 true
gene 1 8 13 -0.3484680832046927 false 1053 -0.3484680832046927 true
gene 1 14 232 -1.7917755100755388 true 1135 -1.7917755100755388 true
gene 1 232 14 -0.36146108316579373 false 1136 -0.36146108316579373 true
gene 1 3 266 -0.5079768445603783 false 1308 -0.5079768445603783 true
gene 1 266 12 -0.4016240576913426 false 1309 -0.4016240576913426 true
gene 1 8 288 0.6809579314964641 false 1414 0.6809579314964641 true
gene 1 288 13 0.5663076677633047 false 1415 0.5663076677633047 true
genomeend 7
/* Organism #8 Fitness: 7.893 Error: 0.859 */
genomestart 8
trait 1 0.05320739746093751 0.75351616022885 0.2201075064405816 0.12500340924951395 0.4711853881770554 0.305216162043611 0.49448200430968237 0.7467295075915369 
node 1 1 1 3
node 2 1 1 1
node 3 1 1 1
node 4 1 1 1
node 5 1 1 1
node 6 1 1 1
node 7 1 1 1
node 8 1 1 1
node 9 1 1 1
node 10 1 1 1
node 11 1 1 1
node 12 1 0 0
node 13 1 0 2
node 14 1 0 2
node 17 1 0 0
node 155 1 0 0
node 232 1 0 0
node 266 1 0 0
node 288 1 0 0
gene 1 1 12 -0.20269206302348186 false 1 -0.20269206302348186 true
gene 1 2 12 0.7465792334921041 false 2 0.7465792334921041 true
gene 1 3 12 0.23980517124343734 false 3 0.23980517124343734 true
gene 1 4 12 -0.8608636269803148 false 4 -0.8608636269803148 true
gene 1 5 12 -1.6807811828592074 false 5 -1.6807811828592074 true
gene 1 6 12 -0.7636659413545918 false 6 -0.7636659413545918 true
gene 1 7 12 0.808044393856173 false 7 0.808044393856173 true
gene 1 8 12 -0.39231721260016483 false 8 -0.39231721260016483 true
gene 1 9 12 -3.177190924002653 false 9 -3.177190924002653 true
gene 1 10 12 1.3355511567303857 false 10 1.3355511567303857 true
gene 1 11 12 -1.2225487413467522 false 11 -1.2225487413467522 true
gene 1 12 13 -3.0805230884474795 false 12 -3.0805230884474795 true
gene 1 12 14 -0.1975371725663218 false 13 -0.1975371725663218 true
gene 1 2 17 -0.6020666396708747 false 37 -0.6020666396708747 true
gene 1 17 12 0.41359115879920527 false 38 0.41359115879920527 true
gene 1 8 17 0.8725550239626378 false 239 0.8725550239626378 true
gene 1 6 14 -2.042816526273997 false 268 -2.042816526273997 true
gene 1 14 14 0.2497704516983206 true 365 0.2497704516983206 true
gene 1 7 155 0.14427278105767405 false 746 0.14427278105767405 true
gene 1 155 12 -1.2993637356919492 false 747 -1.2993637356919492 true
gene 1 7 14 2.1611309139985955 false 820 2.1611309139985955 true
gene 1 2 155 1.3459471848155167 false 935 1.3459471848155167 true
gene 1 8 13 0.2787153471054288 false 1053 0.2787153471054288 true
gene 1 14 232 -0.6828858307876099 true 1135 -0.6828858307876099 true
gene 1 232 14 -0.5243642521345702 false 1136 -0.5243642521345702 true
gene 1 3 266 -0.8171985578823587 false 1308 -0.8171985578823587 true
gene 1 266 12 0.6999112596743458 false 1309 0.6999112596743458 true
gene 1 8 288 -0.3067377153136492 false 1414 -0.3067377153136492 true
gene 1 288 13 0.08058031801811094 false 1415 0.08058031801811094 true
genomeend 8
/* Organism #15 Fitness: 6.178 Error: 0.825 */
genomestart 15
trait 1 0.05320739746093751 0.75351616022885 0.2201075064405816 0.12500340924951395 0.4711853881770554 0.305216162043611 0.49448200430968237 0.7467295075915369 
node 1 1 1 3
node 2 1 1 1
node 3 1 1 1
node 4 1 1 1
node 5 1 1 1
node 6 1 1 1
node 7 1 1 1
node 8 1 1 1
node 9 1 1 1
node 10 1 1 1
node 11 1 1 1
node 12 1 0 0
node 13 1 0 2
node 14 1 0 2
node 17 1 0 0
node 155 1 0 0
node 232 1 0 0
node 266 1 0 0
node 288 1 0 0
gene 1 1 12 -1.0212459542356578 false 1 -1.0212459542356578 true
gene 1 2 12 1.3400475047076013 false 2 1.3400475047076013 true
gene 1 3 12 -0.3048735758173948 false 3 -0.3048735758173948 true
gene 1 4 12 -0.598284683395921 false 4 -0.598284683395921 true
gene 1 5 12 -0.5885056499776775 false 5 -0.5885056499776775 true
gene 1 6 12 -0.4192587134449559 false 6 -0.4192587134449559 true
gene 1 7 12 1.2054960471783145 false 7 1.2054960471783145 true
gene 1 8 12 -0.4261345727451888 false 8 -0.4261345727451888 true
gene 1 9 12 -2.2811579649462237 false 9 -2.2811579649462237 true
gene 1 10 12 0.4858231392086192 false 10 0.4858231392086192 true
gene 1 11 12 -1.3916312452946618 false 11 -1.3916312452946618 true
gene 1 12 13 -4.405314285552846 false 12 -4.405314285552846 true
gene 1 12 14 0.12808888807530275 false 13 0.12808888807530275 true
gene 1 2 17 -0.6083970398690928 false 37 -0.6083970398690928 true
gene 1 17 12 -0.6557265528431708 false 38 -0.6557265528431708 true
gene 1 8 17 0.03346724102939003 false 239 0.03346724102939003 true
gene 1 6 14 -1.0614922061568244 false 268 -1.0614922061568244 true
gene 1 14 14 -0.11207507114081916 true 365 -0.11207507114081916 true
gene 1 7 155 0.17801156212722466 false 746 0.17801156212722466 true
gene 1 155 12 -0.29079314498608144 false 747 -0.29079314498608144 true
gene 1 7 14 2.098312186205809 false 820 2.098312186205809 true
gene 1 2 155 1.3418991517746843 false 935 1.3418991517746843 true
gene 1 8 13 0.42436807323229164 false 1053 0.42436807323229164 true
gene 1 14 232 -1.2052974875275273 true 1135 -1.2052974875275273 true
gene 1 232 14 -0.5596837961713105 false 1136 -0.5596837961713105 true
gene 1 3 266 0.01992178398938016 false 1308 0.01992178398938016 true
gene 1 266 12 0.1909918380405068 false 1309 0.1909918380405068 true
gene 1 8 288 1.602547741127048 false 1414 1.602547741127048 true
gene 1 288 13 0.664958337181841 false 1415 0.664958337181841 true
genomeend 15
/* Organism #9 Fitness: 5.412 Error: 0.990 */
genomestart 9
trait 1 0.05320739746093751 0.75351616022885 0.2201075064405816 0.12500340924951395 0.4711853881770554 0.305216162043611 0.49448200430968237 0.7467295075915369 
node 1 1 1 3
node 2 1 1 1
node 3 1 1 1
node 4 1 1 1
node 5 1 1 1
node 6 1 1 1
node 7 1 1 1
node 8 1 1 1
node 9 1 1 1
node 10 1 1 1
node 11 1 1 1
node 12 1 0 0
node 13 1 0 2
node 14 1 0 2
node 17 1 0 0
node 155 1 0 0
node 232 1 0 0
node 266 1 0 0
node 288 1 0 0
gene 1 1 12 -0.23731251706202572 false 1 -0.23731251706202572 true
gene 1 2 12 0.2869975193481772 false 2 0.2869975193481772 true
gene 1 3 12 0.3633888633669857 false 3 0.3633888633669857 true
gene 1 4 12 -0.19061339991361737 false 4 -0.19061339991361737 true
gene 1 5 12 -1.175467279498999 false 5 -1.175467279498999 true
gene 1 6 12 -0.2608011103758996 false 6 -0.2608011103758996 true
gene 1 7 12 0.2687335583062712 false 7 0.2687335583062712 true
gene 1 8 12 -0.6166468446461011 false 8 -0.6166468446461011 true
gene 1 9 12 -2.441060596709448 false 9 -2.441060596709448 true
gene 1 10 12 0.28270294607922813 false 10 0.28270294607922813 true
gene 1 11 12 -0.35279557794777955 false 11 -0.35279557794777955 true
gene 1 12 13 -3.772812912752518 false 12 -3.772812912752518 true
gene 1 12 14 -0.43976896250303765 false 13 -0.43976896250303765 true
gene 1 2 17 0.7514282410493824 false 37 0.7514282410493824 true
gene 1 17 12 -0.267428374917857 false 38 -0.267428374917857 true
gene 1 8 17 0.05117675420959222 false 239 0.05117675420959222 true
gene 1 6 14 -1.635298520639147 false 268 -1.635298520639147 true
gene 1 14 14 0.8034939720325762 true 365 0.8034939720325762 true
gene 1 7 155 0.5612279118667763 false 746 0.5612279118667763 true
gene 1 155 12 -0.23795033011135436 false 747 -0.23795033011135436 true
gene 1 7 14 -0.4430859611539371 false 820 -0.4430859611539371 true
gene 1 2 155 0.5615511735095872 false 935 0.5615511735095872 true
gene 1 8 13 0.13736574818192493 false 1053 0.13736574818192493 true
gene 1 14 232 -0.944058014360384 true 1135 -0.944058014360384 true
gene 1 232 14 -1.2405432103936793 false 1136 -1.2405432103936793 true
gene 1 3 266 -0.05733861809631968 false 1308 -0.05733861809631968 true
gene 1 266 12 -0.025734168994687168 false 1309 -0.025734168994687168 true
gene 1 8 288 0.16319064996242222 false 1414 0.16319064996242222 true
gene 1 288 13 0.10787127013948683 false 1415 0.10787127013948683 true
genomeend 9
/* Organism #14 Fitness: 0.803 Error: 0.782 */
genomestart 14
trait 1 0.05320739746093751 0.75351616022885 0.2201075064405816 0.12500340924951395 0.4711853881770554 0.305216162043611 0.49448200430968237 0.7467295075915369 
node 1 1 1 3
node 2 1 1 1
node 3 1 1 1
node 4 1 1 1
node 5 1 1 1
node 6 1 1 1
node 7 1 1 1
node 8 1 1 1
node 9 1 1 1
node 10 1 1 1
node 11 1 1 1
node 12 1 0 0
node 13 1 0 2
node 14 1 0 2
node 17 1 0 0
node 155 1 0 0
node 232 1 0 0
node 266 1 0 0
node 288 1 0 0
gene 1 1 12 -1.0015927141389827 false 1 -1.0015927141389827 true
gene 1 2 12 0.9502011680161262 false 2 0.9502011680161262 true
gene 1 3 12 0.5650311933331584 false 3 0.5650311933331584 true
gene 1 4 12 0.11633939795876957 false 4 0.11633939795876957 true
gene 1 5 12 -1.3472587300293082 false 5 -1.3472587300293082 true
gene 1 6 12 -0.8632335970858536 false 6 -0.8632335970858536 true
gene 1 7 12 -0.17444598279862955 false 7 -0.17444598279862955 true
gene 1 8 12 -0.8071639761574596 false 8 -0.8071639761574596 true
gene 1 9 12 -2.160814322634599 false 9 -2.160814322634599 true
gene 1 10 12 0.3379343110050188 false 10 0.3379343110050188 true
gene 1 11 12 -0.6254359698740494 false 11 -0.6254359698740494 true
gene 1 12 13 -4.57150840239523 false 12 -4.57150840239523 true
gene 1 12 14 0.3701982361793438 false 13 0.3701982361793438 true
gene 1 2 17 -0.23840437921761826 false 37 -0.23840437921761826 true
gene 1 17 12 0.3915034974723395 false 38 0.3915034974723395 true
gene 1 8 17 0.7423236852981258 false 239 0.7423236852981258 true
gene 1 6 14 -1.275167373917668 false 268 -1.275167373917668 true
gene 1 14 14 1.1965999964870377 true 365 1.1965999964870377 false
gene 1 7 155 -0.4709503048171352 false 746 -0.4709503048171352 true
gene 1 155 12 -0.2728330887911373 false 747 -0.2728330887911373 true
gene 1 7 14 2.382817865058528 false 820 2.382817865058528 true
gene 1 2 155 1.7691522066035001 false 935 1.7691522066035001 true
gene 1 8 13 -0.9606919955247618 false 1053 -0.9606919955247618 true
gene 1 14 232 -1.5875420017879718 true 1135 -1.5875420017879718 true
gene 1 232 14 -0.5243642521345702 false 1136 -0.5243642521345702 true
gene 1 3 266 -0.41171104406863707 false 1308 -0.41171104406863707 true
gene 1 266 12 0.1909918380405068 false 1309 0.1909918380405068 true
gene 1 8 288 2.3937263090432865 false 1414 2.3937263090432865 true
gene 1 288 13 -0.2579276873652013 false 1415 -0.2579276873652013 true
genomeend 14
/* Species #3 : (Size 8) (AF 8.128) (Age 61)  */
/* Organism #22 Fitness: 12.488 Error: 0.550 */
genomestart 22
trait 1 0.3013190869505586 0.4673979238882304 0.026400421767915162 0.07891655197066379 0.23260938434125883 0 0 0 
node 1 1 1 3
node 2 1 1 1
node 3 1 1 1
node 4 1 1 1
node 5 1 1 1
node 6 1 1 1
node 7 1 1 1
node 8 1 1 1
node 9 1 1 1
node 10 1 1 1
node 11 1 1 1
node 12 1 0 0
node 13 1 0 2
node 14 1 0 2
gene 1 1 12 0.0789095175635357 false 1 0.0789095175635357 true
gene 1 2 12 2.366065795297294 false 2 2.366065795297294 true
gene 1 3 12 -1.009778517822452 false 3 -1.009778517822452 true
gene 1 4 12 -0.8161802786812816 false 4 -0.8161802786812816 true
gene 1 5 12 1.578143039268781 false 5 1.578143039268781 true
gene 1 6 12 1.1787872028855824 false 6 1.1787872028855824 true
gene 1 7 12 1.628625301041724 false 7 1.628625301041724 true
gene 1 8 12 1.9735884990640422 false 8 1.9735884990640422 true
gene 1 9 12 1.988969686245084 false 9 1.988969686245084 true
gene 1 10 12 -3.778132423034097 false 10 -3.778132423034097 true
gene 1 11 12 1.4400600181230316 false 11 1.4400600181230316 true
gene 1 12 13 -0.04450304563499552 false 12 -0.04450304563499552 true
gene 1 12 14 0.4816125381045253 false 13 0.4816125381045253 true
gene 1 13 13 1.3981761570312614 true 45 1.3981761570312614 true
gene 1 2 14 -1.5223639350576272 false 67 -1.5223639350576272 true
gene 1 8 14 0.28183331936523603 false 103 0.28183331936523603 true
gene 1 4 14 1.033386898099061 false 161 1.033386898099061 true
gene 1 6 14 -1.7451559383550186 false 268 -1.7451559383550186 true
gene 1 5 13 -1.2257815050173466 false 687 -1.2257815050173466 true
gene 1 11 13 -1.288817493344398 false 714 -1.288817493344398 true
gene 1 7 14 0.8224410497763186 false 1086 0.8224410497763186 true
gene 1 11 14 -1.6296982189969382 false 1238 -1.6296982189969382 true
gene 1 7 13 0.27453678819061733 false 1281 0.27453678819061733 true
gene 1 14 12 -0.6823874197716308 true 1325 -0.6823874197716308 true
gene 1 5 14 -7.200717225093857 false 1833 0 true
genomeend 22
/* Organism #23 Fitness: 10.556 Error: 0.726 */
genomestart 23
trait 1 0.3013190869505586 0.4673979238882304 0.026400421767915162 0.07891655197066379 0.23260938434125883 0 0 0 
node 1 1 1 3
node 2 1 1 1
node 3 1 1 1
node 4 1 1 1
node 5 1 1 1
node 6 1 1 1
node 7 1 1 1
node 8 1 1 1
node 9 1 1 1
node 10 1 1 1
node 11 1 1 1
node 12 1 0 0
node 13 1 0 2
node 14 1 0 2
gene 1 1 12 0.5178885974554225 false 1 0.5178885974554225 true
gene 1 2 12 1.8059418735089663 false 2 1.8059418735089663 true
gene 1 3 12 -0.9777571143671241 false 3 -0.9777571143671241 true
gene 1 4 12 -1.0065823483265373 false 4 -1.0065823483265373 true
gene 1 5 12 2.3122621881876815 false 5 2.3122621881876815 true
gene 1 6 12 1.1147253414667906 false 6 1.1147253414667906 true
gene 1 7 12 1.6660643622313187 false 7 1.6660643622313187 true
gene 1 8 12 1.9550189122061137 false 8 1.9550189122061137 true
gene 1 9 12 2.705230545696588 false 9 2.705230545696588 true
gene 1 10 12 -3.5065096444671893 false 10 -3.5065096444671893 true
gene 1 11 12 1.6549428932156602 false 11 1.6549428932156602 true
gene 1 12 13 -0.6461093685023691 false 12 -0.6461093685023691 true
gene 1 12 14 0.09486994421591843 false 13 0.09486994421591843 true
gene 1 13 13 2.0365997260713113 true 45 2.0365997260713113 true
gene 1 2 14 -1.5954061500349257 false 67 -1.5954061500349257 true
gene 1 8 14 0.904988618585671 false 103 0.904988618585671 true
gene 1 4 14 1.1033502958556523 false 161 1.1033502958556523 true
gene 1 6 14 -1.6925806748257977 false 268 -1.6925806748257977 true
gene 1 5 13 -1.6797517811114404 false 687 -1.6797517811114404 true
gene 1 11 13 -1.1126588643205464 false 714 -1.1126588643205464 true
gene 1 7 14 0.8224410497763186 false 1086 0.8224410497763186 true
gene 1 11 14 -1.6947365363398308 false 1238 -1.6947365363398308 true
gene 1 7 13 -0.7869360130279247 false 1281 -0.7869360130279247 true
gene 1 14 12 -0.12411003791248876 true 1325 -0.12411003791248876 true
genomeend 23
/* Organism #16 Fitness: 10.325 Error: 0.592 */
genomestart 16
trait 1 0.3013190869505586 0.4673979238882304 0.026400421767915162 0.07891655197066379 0.23260938434125883 0 0 0 
node 1 1 1 3
node 2 1 1 1
node 3 1 1 1
node 4 1 1 1
node 5 1 1 1
node 6 1 1 1
node 7 1 1 1
node 8 1 1 1
node 9 1 1 1
node 10 1 1 1
node 11 1 1 1
node 12 1 0 0
node 13 1 0 2
node 14 1 0 2
gene 1 1 12 0.0789095175635357 false 1 0.0789095175635357 true
gene 1 2 12 2.366065795297294 false 2 2.366065795297294 true
gene 1 3 12 -1.009778517822452 false 3 -1.009778517822452 true
gene 1 4 12 -0.8161802786812816 false 4 -0.8161802786812816 true
gene 1 5 12 1.578143039268781 false 5 1.578143039268781 true
gene 1 6 12 1.1787872028855824 false 6 1.1787872028855824 true
gene 1 7 12 1.628625301041724 false 7 1.628625301041724 true
gene 1 8 12 1.9735884990640422 false 8 1.9735884990640422 true
gene 1 9 12 1.988969686245084 false 9 1.988969686245084 true
gene 1 10 12 -3.778132423034097 false 10 -3.778132423034097 true
gene 1 11 12 1.4400600181230316 false 11 1.4400600181230316 true
gene 1 12 13 -0.04450304563499552 false 12 -0.04450304563499552 true
gene 1 12 14 0.4816125381045253 false 13 0.4816125381045253 true
gene 1 13 13 1.3981761570312614 true 45 1.3981761570312614 true
gene 1 2 14 -1.5223639350576272 false 67 -1.5223639350576272 true
gene 1 8 14 0.28183331936523603 false 103 0.28183331936523603 true
gene 1 4 14 1.033386898099061 false 161 1.033386898099061 true
gene 1 6 14 -1.7451559383550186 false 268 -1.7451559383550186 true
gene 1 5 13 -1.2257815050173466 false 687 -1.2257815050173466 true
gene 1 11 13 -1.288817493344398 false 714 -1.288817493344398 true
gene 1 7 14 0.8224410497763186 false 1086 0.8224410497763186 true
gene 1 11 14 -1.6296982189969382 false 1238 -1.6296982189969382 true
gene 1 7 13 0.27453678819061733 false 1281 0.27453678819061733 true
gene 1 14 12 -0.6823874197716308 true 1325 -0.6823874197716308 true
genomeend 16
/* Organism #21 Fitness: 10.248 Error: 0.592 */
genomestart 21
trait 1 0.3013190869505586 0.4673979238882304 0.026400421767915162 0.07891655197066379 0.23260938434125883 0 0 0 
node 1 1 1 3
node 2 1 1 1
node 3 1 1 1
node 4 1 1 1
node 5 1 1 1
node 6 1 1 1
node 7 1 1 1
node 8 1 1 1
node 9 1 1 1
node 10 1 1 1
node 11 1 1 1
node 12 1 0 0
node 13 1 0 2
node 14 1 0 2
gene 1 1 12 0.0789095175635357 false 1 0.0789095175635357 true
gene 1 2 12 2.366065795297294 false 2 2.366065795297294 true
gene 1 3 12 -1.009778517822452 false 3 -1.009778517822452 true
gene 1 4 12 -0.8161802786812816 false 4 -0.8161802786812816 true
gene 1 5 12 1.578143039268781 false 5 1.578143039268781 true
gene 1 6 12 1.1787872028855824 false 6 1.1787872028855824 true
gene 1 7 12 1.628625301041724 false 7 1.628625301041724 true
gene 1 8 12 1.9735884990640422 false 8 1.9735884990640422 true
gene 1 9 12 1.988969686245084 false 9 1.988969686245084 true
gene 1 10 12 -3.778132423034097 false 10 -3.778132423034097 true
gene 1 11 12 1.4400600181230316 false 11 1.4400600181230316 true
gene 1 12 13 -0.04450304563499552 false 12 -0.04450304563499552 true
gene 1 12 14 0.4816125381045253 false 13 0.4816125381045253 true
gene 1 13 13 1.3981761570312614 true 45 1.3981761570312614 true
gene 1 2 14 -1.5223639350576272 false 67 -1.5223639350576272 true
gene 1 8 14 0.28183331936523603 false 103 0.28183331936523603 true
gene 1 4 14 1.033386898099061 false 161 1.033386898099061 true
gene 1 6 14 -1.7451559383550186 false 268 -1.7451559383550186 true
gene 1 5 13 -1.2257815050173466 false 687 -1.2257815050173466 true
gene 1 11 13 -1.288817493344398 false 714 -1.288817493344398 true
gene 1 7 14 0.8224410497763186 false 1086 0.8224410497763186 true
gene 1 11 14 -1.6296982189969382 false 1238 -1.6296982189969382 true
gene 1 7 13 0.27453678819061733 false 1281 0.27453678819061733 true
gene 1 14 12 -0.6823874197716308 true 1325 -0.6823874197716308 true
gene 1 12 12 3.3841515968239912 true 1844 3.3841515968239912 true
genomeend 21
/* Organism #20 Fitness: 8.458 Error: 0.888 */
genomestart 20
trait 1 0.3013190869505586 0.4673979238882304 0.026400421767915162 0.07891655197066379 0.23260938434125883 0 0 0 
node 1 1 1 3
node 2 1 1 1
node 3 1 1 1
node 4 1 1 1
node 5 1 1 1
node 6 1 1 1
node 7 1 1 1
node 8 1 1 1
node 9 1 1 1
node 10 1 1 1
node 11 1 1 1
node 12 1 0 0
node 13 1 0 2
node 14 1 0 2
gene 1 1 12 -0.6427017367260432 false 1 -0.6427017367260432 true
gene 1 2 12 2.724685287270942 false 2 2.724685287270942 true
gene 1 3 12 -1.7839922121645226 false 3 -1.7839922121645226 true
gene 1 4 12 -0.5219545926258473 false 4 -0.5219545926258473 true
gene 1 5 12 1.3078994006702584 false 5 1.3078994006702584 true
gene 1 6 12 1.931508669650341 false 6 1.931508669650341 true
gene 1 7 12 1.418723549071263 false 7 1.418723549071263 true
gene 1 8 12 2.3626154114826234 false 8 2.3626154114826234 true
gene 1 9 12 1.7926751487013899 false 9 1.7926751487013899 true
gene 1 10 12 -4.402278536053163 false 10 -4.402278536053163 true
gene 1 11 12 2.212893517887472 false 11 2.212893517887472 true
gene 1 12 13 -0.24871755963522768 false 12 -0.24871755963522768 true
gene 1 12 14 0.29792546069751735 false 13 0.29792546069751735 true
gene 1 13 13 0.7350388795868367 true 45 0.7350388795868367 true
gene 1 2 14 -2.037820771821022 false 67 -2.037820771821022 true
gene 1 8 14 0.6832440100004726 false 103 0.6832440100004726 true
gene 1 4 14 1.1110281099081856 false 161 1.1110281099081856 true
gene 1 6 14 -1.034664644071837 false 268 -1.034664644071837 true
gene 1 5 13 -1.2830170309716502 false 687 -1.2830170309716502 true
gene 1 11 13 -1.7233860654747766 false 714 -1.7233860654747766 true
gene 1 7 14 0.5387377610453301 false 1086 0.5387377610453301 true
gene 1 11 14 -1.6296982189969382 false 1238 -1.6296982189969382 true
gene 1 7 13 0.4497252849756726 false 1281 0.4497252849756726 true
gene 1 14 12 -0.6823874197716308 true 1325 -0.6823874197716308 true
genomeend 20
/* Organism #19 Fitness: 6.565 Error: 0.844 */
genomestart 19
trait 1 0.8129376886381403 0.4430990789165151 0.026400421767915162 0.669560377091098 0.4562853615326718 0.8900709121399973 0.5507859281826013 0 
node 1 1 1 3
node 2 1 1 1
node 3 1 1 1
node 4 1 1 1
node 5 1 1 1
node 6 1 1 1
node 7 1 1 1
node 8 1 1 1
node 9 1 1 1
node 10 1 1 1
node 11 1 1 1
node 12 1 0 0
node 13 1 0 2
node 14 1 0 2
gene 1 1 12 -0.11914635514396599 false 1 -0.11914635514396599 true
gene 1 2 12 1.6715215184032106 false 2 1.6715215184032106 true
gene 1 3 12 -0.40435102186672955 false 3 -0.40435102186672955 true
gene 1 4 12 -0.7298147474338914 false 4 -0.7298147474338914 true
gene 1 5 12 1.578143039268781 false 5 1.578143039268781 true
gene 1 6 12 1.756232557963307 false 6 1.756232557963307 true
gene 1 7 12 1.0545721761508893 false 7 1.0545721761508893 true
gene 1 8 12 1.4404518271920508 false 8 1.4404518271920508 true
gene 1 9 12 2.1792300197058214 false 9 2.1792300197058214 true
gene 1 10 12 0.20363424206811215 false 10 0.20363424206811215 true
gene 1 11 12 2.167134605955031 false 11 2.167134605955031 true
gene 1 12 13 0.6515554083317587 false 12 0.6515554083317587 true
gene 1 12 14 -0.047744872455765086 false 13 -0.047744872455765086 true
gene 1 13 13 0.8771499541784206 true 45 0.8771499541784206 true
gene 1 2 14 -1.6932644687129257 false 67 -1.6932644687129257 true
gene 1 8 14 -0.1491185963782824 false 103 -0.1491185963782824 true
gene 1 4 14 0.6644950421972992 false 161 0.6644950421972992 true
gene 1 6 14 -0.4943604154675054 false 268 -0.4943604154675054 true
gene 1 5 13 0.5760507997136838 false 687 0.5760507997136838 true
gene 1 11 13 -1.8266515808927721 false 714 -1.8266515808927721 true
gene 1 7 14 1.3049230973900485 false 1086 1.3049230973900485 true
gene 1 11 14 -2.4226667735638507 false 1238 -2.4226667735638507 true
gene 1 7 13 -0.12116383883475207 false 1281 -0.12116383883475207 true
gene 1 14 12 -0.9941865169126849 true 1325 -0.9941865169126849 true
genomeend 19
/* Organism #17 Fitness: 5.260 Error: 0.990 */
genomestart 17
trait 1 0.3013190869505586 0.4673979238882304 0.026400421767915162 0.07891655197066379 0.23260938434125883 0 0 0 
node 1 1 1 3
node 2 1 1 1
node 3 1 1 1
node 4 1 1 1
node 5 1 1 1
node 6 1 1 1
node 7 1 1 1
node 8 1 1 1
node 9 1 1 1
node 10 1 1 1
node 11 1 1 1
node 12 1 0 0
node 13 1 0 2
node 14 1 0 2
gene 1 1 12 -0.43375860872502914 false 1 -0.43375860872502914 true
gene 1 2 12 2.0049205103879144 false 2 2.0049205103879144 true
gene 1 3 12 -0.5858508109184408 false 3 -0.5858508109184408 true
gene 1 4 12 -1.0877459121613997 false 4 -1.0877459121613997 true
gene 1 5 12 1.6911451219848983 false 5 1.6911451219848983 true
gene 1 6 12 0.8987309424917185 false 6 0.8987309424917185 true
gene 1 7 12 0.9532240208731508 false 7 0.9532240208731508 true
gene 1 8 12 2.3722501637232374 false 8 2.3722501637232374 true
gene 1 9 12 1.9358938598602065 false 9 1.9358938598602065 true
gene 1 10 12 -3.747207493245915 false 10 -3.747207493245915 true
gene 1 11 12 1.640925951103109 false 11 1.640925951103109 true
gene 1 12 13 0.49651295543126084 false 12 0.49651295543126084 true
gene 1 12 14 -0.09365899602613659 false 13 -0.09365899602613659 true
gene 1 13 13 1.3645880641743011 true 45 1.3645880641743011 true
gene 1 2 14 -1.5223639350576272 false 67 -1.5223639350576272 true
gene 1 8 14 0.028556854518253322 false 103 0.028556854518253322 true
gene 1 4 14 1.0612993009460026 false 161 1.0612993009460026 true
gene 1 6 14 -2.392679980507286 false 268 -2.392679980507286 true
gene 1 5 13 -0.6058327636412264 false 687 -0.6058327636412264 true
gene 1 11 13 -0.9030898182780689 false 714 -0.9030898182780689 true
gene 1 7 14 0.19233203974222957 false 1086 0.19233203974222957 true
gene 1 11 14 -1.6296982189969382 false 1238 -1.6296982189969382 true
gene 1 7 13 -0.04448564499884722 false 1281 -0.04448564499884722 true
gene 1 14 12 -0.5398259918887759 true 1325 -0.5398259918887759 true
genomeend 17
/* Organism #18 Fitness: 1.125 Error: 0.790 */
genomestart 18
trait 1 0.3013190869505586 0.4673979238882304 0.026400421767915162 0.07891655197066379 0.23260938434125883 0 0 0 
node 1 1 1 3
node 2 1 1 1
node 3 1 1 1
node 4 1 1 1
node 5 1 1 1
node 6 1 1 1
node 7 1 1 1
node 8 1 1 1
node 9 1 1 1
node 10 1 1 1
node 11 1 1 1
node 12 1 0 0
node 13 1 0 2
node 14 1 0 2
gene 1 1 12 -0.4412444306387102 false 1 -0.4412444306387102 true
gene 1 2 12 2.26288675978586 false 2 2.26288675978586 true
gene 1 3 12 -1.2332716235033199 false 3 -1.2332716235033199 true
gene 1 4 12 -0.3578718073656536 false 4 -0.3578718073656536 true
gene 1 5 12 2.0541377995918544 false 5 2.0541377995918544 true
gene 1 6 12 0.5282770172211326 false 6 0.5282770172211326 true
gene 1 7 12 1.3822870303610815 false 7 1.3822870303610815 true
gene 1 8 12 2.388604622587728 false 8 2.388604622587728 true
gene 1 9 12 2.0568238124099083 false 9 2.0568238124099083 true
gene 1 10 12 -3.9388192608339807 false 10 -3.9388192608339807 true
gene 1 11 12 1.76342421728897 false 11 1.76342421728897 true
gene 1 12 13 0.1354147797589869 false 12 0.1354147797589869 true
gene 1 12 14 1.2330537535803154 false 13 1.2330537535803154 true
gene 1 13 13 1.1100492463299345 true 45 1.1100492463299345 true
gene 1 2 14 -0.8595702162342088 false 67 -0.8595702162342088 true
gene 1 8 14 0.7973642396187149 false 103 0.7973642396187149 true
gene 1 4 14 1.6960370287272637 false 161 1.6960370287272637 true
gene 1 6 14 -1.8273165654010437 false 268 -1.8273165654010437 true
gene 1 5 13 -0.6734933285832455 false 687 -0.6734933285832455 true
gene 1 11 13 -1.8225217985499005 false 714 -1.8225217985499005 true
gene 1 7 14 1.4603568140978185 false 1086 1.4603568140978185 true
gene 1 11 14 0.00017303287686023188 false 1238 0.00017303287686023188 true
gene 1 7 13 0.27453678819061733 false 1281 0.27453678819061733 true
gene 1 14 12 -0.6823874197716308 true 1325 -0.6823874197716308 true
genomeend 18
/* Species #4 : (Size 12) (AF 9.062) (Age 58)  */
/* Organism #29 Fitness: 35.703 Error: 0.284 */
genomestart 29
trait 1 0.17770361116198596 0.1793216517885068 0 0.0639405099252359 0 0.03655578561910253 0.15790618710799129 0.10658584634672569 
node 1 1 1 3
node 2 1 1 1
node 3 1 1 1
node 4 1 1 1
node 5 1 1 1
node 6 1 1 1
node 7 1 1 1
node 8 1 1 1
node 9 1 1 1
node 10 1 1 1
node 11 1 1 1
node 12 1 0 0
node 13 1 0 2
node 14 1 0 2
node 17 1 0 0
node 24 1 0 0
node 363 1 0 0
gene 1 1 12 -0.7384385438558321 false 1 -0.7384385438558321 true
gene 1 2 12 -1.4792567147008262 false 2 -1.4792567147008262 true
gene 1 3 12 -0.3439950793020774 false 3 -0.3439950793020774 true
gene 1 4 12 1.0831962051284993 false 4 1.0831962051284993 true
gene 1 5 12 1.1645084110439161 false 5 1.1645084110439161 true
gene 1 6 12 -1.4402609554047836 false 6 -1.4402609554047836 true
gene 1 7 12 0.39160365695560373 false 7 0.39160365695560373 true
gene 1 8 12 1.5203822544405756 false 8 1.5203822544405756 true
gene 1 9 12 -0.4778411194810006 false 9 -0.4778411194810006 true
gene 1 10 12 -1.2538824102189507 false 10 -1.2538824102189507 true
gene 1 11 12 -1.2152999176387225 false 11 -1.2152999176387225 true
gene 1 12 13 0.16794685029964176 false 12 0.16794685029964176 true
gene 1 12 14 2.3377743253498378 false 13 2.3377743253498378 true
gene 1 2 17 -0.10767082670343742 false 37 -0.10767082670343742 true
gene 1 17 12 0.9344121981204491 false 38 0.9344121981204491 true
gene 1 11 24 -0.44262575485354994 false 87 -0.44262575485354994 true
gene 1 24 12 0.18457339412790896 false 88 0.18457339412790896 true
gene 1 9 14 -2.3248768192390266 false 151 -2.3248768192390266 true
gene 1 6 17 5.008718051595649 false 230 5.008718051595649 true
gene 1 8 17 -0.3252860656591979 false 1014 -0.3252860656591979 true
gene 1 2 363 1 false 1772 0 true
gene 1 363 17 -0.10767082670343742 false 1773 0 true
gene 1 14 363 3.077222430250181 true 1827 3.077222430250181 true
genomeend 29
/* Organism #24 Fitness: 35.703 Error: 0.284 */
genomestart 24
trait 1 0.17770361116198596 0.1793216517885068 0 0.0639405099252359 0 0.03655578561910253 0.15790618710799129 0.10658584634672569 
node 1 1 1 3
node 2 1 1 1
node 3 1 1 1
node 4 1 1 1
node 5 1 1 1
node 6 1 1 1
node 7 1 1 1
node 8 1 1 1
node 9 1 1 1
node 10 1 1 1
node 11 1 1 1
node 12 1 0 0
node 13 1 0 2
node 14 1 0 2
node 17 1 0 0
node 24 1 0 0
node 363 1 0 0
gene 1 1 12 -0.7384385438558321 false 1 -0.7384385438558321 true
gene 1 2 12 -1.4792567147008262 false 2 -1.4792567147008262 true
gene 1 3 12 -0.3439950793020774 false 3 -0.3439950793020774 true
gene 1 4 12 1.0831962051284993 false 4 1.0831962051284993 true
gene 1 5 12 1.1645084110439161 false 5 1.1645084110439161 true
gene 1 6 12 -1.4402609554047836 false 6 -1.4402609554047836 true
gene 1 7 12 0.39160365695560373 false 7 0.39160365695560373 true
gene 1 8 12 1.5203822544405756 false 8 1.5203822544405756 true
gene 1 9 12 -0.4778411194810006 false 9 -0.4778411194810006 true
gene 1 10 12 -1.2538824102189507 false 10 -1.2538824102189507 true
gene 1 11 12 -1.2152999176387225 false 11 -1.2152999176387225 true
gene 1 12 13 0.16794685029964176 false 12 0.16794685029964176 true
gene 1 12 14 2.3377743253498378 false 13 2.3377743253498378 true
gene 1 2 17 -0.10767082670343742 false 37 -0.10767082670343742 true
gene 1 17 12 0.9344121981204491 false 38 0.9344121981204491 true
gene 1 11 24 -0.44262575485354994 false 87 -0.44262575485354994 true
gene 1 24 12 0.18457339412790896 false 88 0.18457339412790896 true
gene 1 9 14 -2.3248768192390266 false 151 -2.3248768192390266 true
gene 1 6 17 5.008718051595649 false 230 5.008718051595649 true
gene 1 8 17 -0.3252860656591979 false 1014 -0.3252860656591979 true
gene 1 2 363 1 false 1772 0 true
gene 1 363 17 -0.10767082670343742 false 1773 0 true
gene 1 14 363 3.077222430250181 true 1827 3.077222430250181 true
genomeend 24
/* Organism #26 Fitness: 17.254 Error: 0.520 */
genomestart 26
trait 1 0.17770361116198596 0.1793216517885068 0 0.0639405099252359 0 0.03655578561910253 0.15790618710799129 0.10658584634672569 
node 1 1 1 3
node 2 1 1 1
node 3 1 1 1
node 4 1 1 1
node 5 1 1 1
node 6 1 1 1
node 7 1 1 1
node 8 1 1 1
node 9 1 1 1
node 10 1 1 1
node 11 1 1 1
node 12 1 0 0
node 13 1 0 2
node 14 1 0 2
node 17 1 0 0
node 24 1 0 0
node 363 1 0 0
gene 1 1 12 -0.8885572553725632 false 1 -0.8885572553725632 true
gene 1 2 12 -1.5192601093629148 false 2 -1.5192601093629148 true
gene 1 3 12 0.16979268242885348 false 3 0.16979268242885348 true
gene 1 4 12 0.8863785291400377 false 4 0.8863785291400377 true
gene 1 5 12 1.7792579605953318 false 5 1.7792579605953318 true
gene 1 6 12 -0.8434565706819389 false 6 -0.8434565706819389 true
gene 1 7 12 -0.23896706658644917 false 7 -0.23896706658644917 true
gene 1 8 12 0.8245750225609785 false 8 0.8245750225609785 true
gene 1 9 12 -0.9877873980540081 false 9 -0.9877873980540081 true
gene 1 10 12 -0.2595216846701082 false 10 -0.2595216846701082 true
gene 1 11 12 -1.5165864341014186 false 11 -1.5165864341014186 true
gene 1 12 13 0.16808143741019443 false 12 0.16808143741019443 true
gene 1 12 14 2.3377743253498378 false 13 2.3377743253498378 true
gene 1 2 17 -0.1090010504418964 false 37 -0.1090010504418964 true
gene 1 17 12 1.5987202707828156 false 38 1.5987202707828156 true
gene 1 11 24 -0.8490969337772796 false 87 -0.8490969337772796 true
gene 1 24 12 0.7163135858725389 false 88 0.7163135858725389 true
gene 1 9 14 -2.7618346948168053 false 151 -2.7618346948168053 true
gene 1 6 17 5.672132332241858 false 230 5.672132332241858 true
gene 1 8 17 0.0812036905137023 false 1014 0.0812036905137023 true
gene 1 2 363 0.2456345116130555 false 1772 0.2456345116130555 true
gene 1 363 17 -0.07100045091131743 false 1773 -0.07100045091131743 true
gene 1 14 363 3.2831294088578327 true 1827 3.2831294088578327 true
genomeend 26
/* Organism #27 Fitness: 7.163 Error: 0.843 */
genomestart 27
trait 1 0.17770361116198596 0.1793216517885068 0 0.0639405099252359 0 0.03655578561910253 0.15790618710799129 0.10658584634672569 
node 1 1 1 3
node 2 1 1 1
node 3 1 1 1
node 4 1 1 1
node 5 1 1 1
node 6 1 1 1
node 7 1 1 1
node 8 1 1 1
node 9 1 1 1
node 10 1 1 1
node 11 1 1 1
node 12 1 0 0
node 13 1 0 2
node 14 1 0 2
node 17 1 0 0
node 24 1 0 0
node 363 1 0 0
gene 1 1 12 -1.0214683246298448 false 1 -1.0214683246298448 true
gene 1 2 12 -2.1693943465649985 false 2 -2.1693943465649985 true
gene 1 3 12 -0.7898203651154481 false 3 -0.7898203651154481 true
gene 1 4 12 1.509022819285067 false 4 1.509022819285067 true
gene 1 5 12 0.4803376269135168 false 5 0.4803376269135168 true
gene 1 6 12 -1.6984595380636105 false 6 -1.6984595380636105 true
gene 1 7 12 0.9444918578086097 false 7 0.9444918578086097 true
gene 1 8 12 1.1769248726560446 false 8 1.1769248726560446 true
gene 1 9 12 -0.4778411194810006 false 9 -0.4778411194810006 true
gene 1 10 12 -0.2083150426030702 false 10 -0.2083150426030702 true
gene 1 11 12 -0.5211023116559266 false 11 -0.5211023116559266 true
gene 1 12 13 0.858449747854796 false 12 0.858449747854796 true
gene 1 12 14 1.5652535796741316 false 13 1.5652535796741316 true
gene 1 2 17 -0.14502910797103483 false 37 -0.14502910797103483 true
gene 1 17 12 1.1657419618060034 false 38 1.1657419618060034 true
gene 1 11 24 -0.44262575485354994 false 87 -0.44262575485354994 true
gene 1 24 12 0.9218315614713734 false 88 0.9218315614713734 true
gene 1 9 14 0.5437467650717162 false 151 0.5437467650717162 true
gene 1 6 17 4.3050619282782545 false 230 4.3050619282782545 true
gene 1 8 17 -0.5111894582303547 false 1014 -0.5111894582303547 true
gene 1 2 363 1.6755370541115857 false 1772 1.6755370541115857 true
gene 1 363 17 -0.6801177050913624 false 1773 -0.6801177050913624 true
gene 1 14 363 3.1093019040544356 true 1827 3.1093019040544356 true
genomeend 27
/* Organism #35 Fitness: 6.489 Error: 0.822 */
genomestart 35
trait 1 0.17770361116198596 0.1793216517885068 0 0.0639405099252359 0 0.03655578561910253 0.15790618710799129 0.10658584634672569 
node 1 1 1 3
node 2 1 1 1
node 3 1 1 1
node 4 1 1 1
node 5 1 1 1
node 6 1 1 1
node 7 1 1 1
node 8 1 1 1
node 9 1 1 1
node 10 1 1 1
node 11 1 1 1
node 12 1 0 0
node 13 1 0 2
node 14 1 0 2
node 17 1 0 0
node 24 1 0 0
node 363 1 0 0
gene 1 1 12 -1.3092115488266554 false 1 -1.3092115488266554 true
gene 1 2 12 -0.9827700242030866 false 2 -0.9827700242030866 true
gene 1 3 12 0.30726669441081333 false 3 0.30726669441081333 true
gene 1 4 12 1.399040787163721 false 4 1.399040787163721 true
gene 1 5 12 1.179863666303647 false 5 1.179863666303647 true
gene 1 6 12 -1.5392461547885785 false 6 -1.5392461547885785 true
gene 1 7 12 -0.23537782520601958 false 7 -0.23537782520601958 true
gene 1 8 12 0.886010826992331 false 8 0.886010826992331 true
gene 1 9 12 0.041448640775427426 false 9 0.041448640775427426 true
gene 1 10 12 -1.4616153624592267 false 10 -1.4616153624592267 true
gene 1 11 12 -0.6676703797472154 false 11 -0.6676703797472154 true
gene 1 12 13 0.8520459053939731 false 12 0.8520459053939731 true
gene 1 12 14 2.1777719740847177 false 13 2.1777719740847177 true
gene 1 2 17 0.4801468550060526 false 37 0.4801468550060526 true
gene 1 17 12 0.35565971956834186 false 38 0.35565971956834186 true
gene 1 11 24 0.17430899235066843 false 87 0.17430899235066843 true
gene 1 24 12 -0.6095454406166197 false 88 -0.6095454406166197 true
gene 1 9 14 -2.910833471002746 false 151 -2.910833471002746 true
gene 1 6 17 5.339697652923694 false 230 5.339697652923694 true
gene 1 8 17 -0.3252860656591979 false 1014 -0.3252860656591979 true
gene 1 2 363 0.3230953104344583 false 1772 0.3230953104344583 true
gene 1 363 17 -0.5050754208104289 false 1773 -0.5050754208104289 true
gene 1 14 363 3.077222430250181 true 1827 3.077222430250181 true
genomeend 35
/* Organism #34 Fitness: 1.075 Error: 0.787 */
genomestart 34
trait 1 0.17770361116198596 0.1793216517885068 0 0.0639405099252359 0 0.03655578561910253 0.15790618710799129 0.10658584634672569 
node 1 1 1 3
node 2 1 1 1
node 3 1 1 1
node 4 1 1 1
node 5 1 1 1
node 6 1 1 1
node 7 1 1 1
node 8 1 1 1
node 9 1 1 1
node 10 1 1 1
node 11 1 1 1
node 12 1 0 0
node 13 1 0 2
node 14 1 0 2
node 17 1 0 0
node 24 1 0 0
node 363 1 0 0
gene 1 1 12 -0.3955997212343382 false 1 -0.3955997212343382 true
gene 1 2 12 -1.491482248556354 false 2 -1.491482248556354 true
gene 1 3 12 -0.18437835977799513 false 3 -0.18437835977799513 true
gene 1 4 12 1.3720500731230294 false 4 1.3720500731230294 true
gene 1 5 12 1.0276883620023956 false 5 1.0276883620023956 true
gene 1 6 12 -1.3485887589635546 false 6 -1.3485887589635546 true
gene 1 7 12 1.06713324815976 false 7 1.06713324815976 true
gene 1 8 12 1.74156923933568 false 8 1.74156923933568 true
gene 1 9 12 0.21478902804527 false 9 0.21478902804527 true
gene 1 10 12 -1.6537053888392395 false 10 -1.6537053888392395 true
gene 1 11 12 -1.5863822044121165 false 11 -1.5863822044121165 true
gene 1 12 13 0.9579353844263789 false 12 0.9579353844263789 true
gene 1 12 14 2.5159974055229424 false 13 2.5159974055229424 true
gene 1 2 17 -0.2998712371237039 false 37 -0.2998712371237039 true
gene 1 17 12 0.4336216387214529 false 38 0.4336216387214529 true
gene 1 11 24 -0.1410671279557641 false 87 -0.1410671279557641 true
gene 1 24 12 0.3342816739202483 false 88 0.3342816739202483 true
gene 1 9 14 -3.097812094214712 false 151 -3.097812094214712 true
gene 1 6 17 4.539265301532973 false 230 4.539265301532973 true
gene 1 8 17 -0.3252860656591979 false 1014 -0.3252860656591979 true
gene 1 2 363 0.8279118872435423 false 1772 0.8279118872435423 true
gene 1 363 17 -0.10767082670343742 false 1773 -0.10767082670343742 true
genomeend 34
/* Organism #33 Fitness: 1.002 Error: 0.785 */
genomestart 33
trait 1 0.17770361116198596 0.1793216517885068 0 0.0639405099252359 0 0.03655578561910253 0.15790618710799129 0.10658584634672569 
node 1 1 1 3
node 2 1 1 1
node 3 1 1 1
node 4 1 1 1
node 5 1 1 1
node 6 1 1 1
node 7 1 1 1
node 8 1 1 1
node 9 1 1 1
node 10 1 1 1
node 11 1 1 1
node 12 1 0 0
node 13 1 0 2
node 14 1 0 2
node 17 1 0 0
node 24 1 0 0
node 363 1 0 0
gene 1 1 12 -1.352945731208263 false 1 -1.352945731208263 true
gene 1 2 12 -1.6965855678725001 false 2 -1.6965855678725001 true
gene 1 3 12 0.24046719530416982 false 3 0.24046719530416982 true
gene 1 4 12 1.6202795008961117 false 4 1.6202795008961117 true
gene 1 5 12 1.3785041564379634 false 5 1.3785041564379634 true
gene 1 6 12 -0.9008675168257355 false 6 -0.9008675168257355 true
gene 1 7 12 0.3959380163385336 false 7 0.3959380163385336 true
gene 1 8 12 0.8379971834998517 false 8 0.8379971834998517 true
gene 1 9 12 -0.22806736744633266 false 9 -0.22806736744633266 true
gene 1 10 12 -1.5329554970218313 false 10 -1.5329554970218313 true
gene 1 11 12 -0.7239975042261784 false 11 -0.7239975042261784 true
gene 1 12 13 -0.43431905141413885 false 12 -0.43431905141413885 true
gene 1 12 14 2.8393794275110125 false 13 2.8393794275110125 true
gene 1 2 17 -0.4704185675494994 false 37 -0.4704185675494994 true
gene 1 17 12 1.5879275495777336 false 38 1.5879275495777336 true
gene 1 11 24 -1.1715155450774732 false 87 -1.1715155450774732 false
gene 1 24 12 0.6019323327577895 false 88 0.6019323327577895 true
gene 1 9 14 -2.9272809597533507 false 151 -2.9272809597533507 true
gene 1 6 17 4.6848594230655305 false 230 4.6848594230655305 true
gene 1 8 17 0.06439012161138624 false 1014 0.06439012161138624 true
gene 1 2 363 0.47236116411456763 false 1772 0.47236116411456763 true
gene 1 363 17 -0.10767082670343742 false 1773 -0.10767082670343742 true
gene 1 14 363 2.450504525162956 true 1827 2.450504525162956 true
genomeend 33
/* Organism #31 Fitness: 0.934 Error: 0.781 */
genomestart 31
trait 1 0.17770361116198596 0.1793216517885068 0 0.0639405099252359 0 0.03655578561910253 0.15790618710799129 0.10658584634672569 
node 1 1 1 3
node 2 1 1 1
node 3 1 1 1
node 4 1 1 1
node 5 1 1 1
node 6 1 1 1
node 7 1 1 1
node 8 1 1 1
node 9 1 1 1
node 10 1 1 1
node 11 1 1 1
node 12 1 0 0
node 13 1 0 2
node 14 1 0 2
node 17 1 0 0
node 24 1 0 0
node 363 1 0 0
node 376 1 0 0
gene 1 1 12 -0.7384385438558321 false 1 -0.7384385438558321 true
gene 1 2 12 -1.4792567147008262 false 2 -1.4792567147008262 true
gene 1 3 12 -0.3439950793020774 false 3 -0.3439950793020774 true
gene 1 4 12 1.0831962051284993 false 4 1.0831962051284993 true
gene 1 5 12 1.1645084110439161 false 5 1.1645084110439161 true
gene 1 6 12 -1.4402609554047836 false 6 -1.4402609554047836 true
gene 1 7 12 0.39160365695560373 false 7 0.39160365695560373 true
gene 1 8 12 1.5203822544405756 false 8 1.5203822544405756 true
gene 1 9 12 -0.4778411194810006 false 9 -0.4778411194810006 true
gene 1 10 12 -1.2538824102189507 false 10 -1.2538824102189507 true
gene 1 11 12 -1.2152999176387225 false 11 -1.2152999176387225 true
gene 1 12 13 0.16794685029964176 false 12 0.16794685029964176 true
gene 1 12 14 2.3377743253498378 false 13 2.3377743253498378 true
gene 1 2 17 -0.10767082670343742 false 37 -0.10767082670343742 true
gene 1 17 12 0.9344121981204491 false 38 0.9344121981204491 true
gene 1 11 24 -0.44262575485354994 false 87 -0.44262575485354994 true
gene 1 24 12 0.18457339412790896 false 88 0.18457339412790896 true
gene 1 9 14 -2.3248768192390266 false 151 -2.3248768192390266 false
gene 1 6 17 5.008718051595649 false 230 5.008718051595649 true
gene 1 8 17 -0.3252860656591979 false 1014 -0.3252860656591979 true
gene 1 2 363 1 false 1772 0 true
gene 1 363 17 -0.10767082670343742 false 1773 0 true
gene 1 9 376 1 false 1846 0 true
gene 1 376 14 -2.3248768192390266 false 1847 0 true
genomeend 31
/* Organism #28 Fitness: 0.931 Error: 0.781 */
genomestart 28
trait 1 0.17770361116198596 0.1793216517885068 0 0.0639405099252359 0 0.1994404130116474 0.4973499364288121 0 
node 1 1 1 3
node 2 1 1 1
node 3 1 1 1
node 4 1 1 1
node 5 1 1 1
node 6 1 1 1
node 7 1 1 1
node 8 1 1 1
node 9 1 1 1
node 10 1 1 1
node 11 1 1 1
node 12 1 0 0
node 13 1 0 2
node 14 1 0 2
node 17 1 0 0
node 24 1 0 0
node 363 1 0 0
gene 1 1 12 -1.3976227828891852 false 1 -1.3976227828891852 true
gene 1 2 12 -1.569606407969288 false 2 -1.569606407969288 true
gene 1 3 12 -0.8025953355654203 false 3 -0.8025953355654203 true
gene 1 4 12 1.3687862153684631 false 4 1.3687862153684631 true
gene 1 5 12 1.9393609533044462 false 5 1.9393609533044462 true
gene 1 6 12 -0.6500816086832181 false 6 -0.6500816086832181 true
gene 1 7 12 -0.30565896378268265 false 7 -0.30565896378268265 true
gene 1 8 12 1.9619822720040418 false 8 1.9619822720040418 true
gene 1 9 12 0.16470601014264885 false 9 0.16470601014264885 true
gene 1 10 12 -1.9922914942614836 false 10 -1.9922914942614836 true
gene 1 11 12 -0.8968945613000578 false 11 -0.8968945613000578 true
gene 1 12 13 -0.42703130423492086 false 12 -0.42703130423492086 true
gene 1 12 14 2.9095717769670433 false 13 2.9095717769670433 true
gene 1 2 17 -0.6216895716544577 false 37 -0.6216895716544577 true
gene 1 17 12 1.5144640542237955 false 38 1.5144640542237955 true
gene 1 11 24 -0.7609995775757612 false 87 -0.7609995775757612 true
gene 1 24 12 0.4255856695084056 false 88 0.4255856695084056 true
gene 1 9 14 -2.8908576112645905 false 151 -2.8908576112645905 true
gene 1 6 17 4.960542527355246 false 230 4.960542527355246 true
gene 1 8 17 -0.2769952439929587 false 1014 -0.2769952439929587 true
gene 1 2 363 0.7461366556819529 false 1772 0.7461366556819529 true
gene 1 363 17 -0.5535812815263939 false 1773 -0.5535812815263939 true
genomeend 28
/* Organism #30 Fitness: 0.870 Error: 0.781 */
genomestart 30
trait 1 0.17770361116198596 0.1793216517885068 0 0.0639405099252359 0 0.03655578561910253 0.15790618710799129 0.10658584634672569 
node 1 1 1 3
node 2 1 1 1
node 3 1 1 1
node 4 1 1 1
node 5 1 1 1
node 6 1 1 1
node 7 1 1 1
node 8 1 1 1
node 9 1 1 1
node 10 1 1 1
node 11 1 1 1
node 12 1 0 0
node 13 1 0 2
node 14 1 0 2
node 17 1 0 0
node 24 1 0 0
node 363 1 0 0
gene 1 1 12 -0.23670668910209636 false 1 -0.23670668910209636 true
gene 1 2 12 -0.7733740321908863 false 2 -0.7733740321908863 true
gene 1 3 12 -0.12380470522748593 false 3 -0.12380470522748593 true
gene 1 4 12 1.4334009001287717 false 4 1.4334009001287717 true
gene 1 5 12 -0.7387099492458762 false 5 -0.7387099492458762 true
gene 1 6 12 -0.25465214983747564 false 6 -0.25465214983747564 true
gene 1 7 12 -0.07517084899517662 false 7 -0.07517084899517662 true
gene 1 8 12 0.8610065059857391 false 8 0.8610065059857391 true
gene 1 9 12 -0.13326865950034544 false 9 -0.13326865950034544 true
gene 1 10 12 0.6825705492929626 false 10 0.6825705492929626 true
gene 1 11 12 -0.9885744965070357 false 11 -0.9885744965070357 true
gene 1 12 13 -0.16911297866695066 false 12 -0.16911297866695066 true
gene 1 12 14 0.27112184370680203 false 13 0.27112184370680203 true
gene 1 2 17 -0.0722257966922253 false 37 -0.0722257966922253 true
gene 1 17 12 0.4329475900597559 false 38 0.4329475900597559 true
gene 1 11 24 -0.44262575485354994 false 87 -0.44262575485354994 true
gene 1 24 12 -0.39992548771862024 false 88 -0.39992548771862024 true
gene 1 9 14 -2.747285855062916 false 151 -2.747285855062916 true
gene 1 6 17 5.5801652705758 false 230 5.5801652705758 true
gene 1 8 17 -0.03953244981671755 false 1014 -0.03953244981671755 true
gene 1 2 363 0.20095420774102246 false 1772 0.20095420774102246 true
gene 1 363 17 0.08756492063880514 false 1773 0.08756492063880514 true
genomeend 30
/* Organism #25 Fitness: 0.835 Error: 0.784 */
genomestart 25
trait 1 0.17770361116198596 0.1793216517885068 0 0.0639405099252359 0 0.03655578561910253 0.15790618710799129 0.10658584634672569 
node 1 1 1 3
node 2 1 1 1
node 3 1 1 1
node 4 1 1 1
node 5 1 1 1
node 6 1 1 1
node 7 1 1 1
node 8 1 1 1
node 9 1 1 1
node 10 1 1 1
node 11 1 1 1
node 12 1 0 0
node 13 1 0 2
node 14 1 0 2
node 17 1 0 0
node 24 1 0 0
node 363 1 0 0
gene 1 1 12 -0.4765629456744612 false 1 -0.4765629456744612 true
gene 1 2 12 -0.8753063522259383 false 2 -0.8753063522259383 true
gene 1 3 12 -0.31674968193170266 false 3 -0.31674968193170266 true
gene 1 4 12 0.7789386417808053 false 4 0.7789386417808053 true
gene 1 5 12 1.0663260597076638 false 5 1.0663260597076638 true
gene 1 6 12 -1.1173374728989693 false 6 -1.1173374728989693 true
gene 1 7 12 -0.28840697923891867 false 7 -0.28840697923891867 true
gene 1 8 12 1.0029268179414705 false 8 1.0029268179414705 true
gene 1 9 12 0.14844347022341142 false 9 0.14844347022341142 true
gene 1 10 12 -1.4012010467071478 false 10 -1.4012010467071478 true
gene 1 11 12 -0.5255555314867384 false 11 -0.5255555314867384 true
gene 1 12 13 -0.05869390065700883 false 12 -0.05869390065700883 true
gene 1 12 14 3.0219416702952913 false 13 3.0219416702952913 true
gene 1 2 17 0.3246859201532047 false 37 0.3246859201532047 true
gene 1 17 12 0.8056131243641843 false 38 0.8056131243641843 true
gene 1 11 24 -1.1523144907456533 false 87 -1.1523144907456533 true
gene 1 24 12 -0.0053048137054598765 false 88 -0.0053048137054598765 true
gene 1 9 14 -3.1073137305306995 false 151 -3.1073137305306995 true
gene 1 6 17 5.294898241339287 false 230 5.294898241339287 true
gene 1 8 17 -0.3252860656591979 false 1014 -0.3252860656591979 true
gene 1 2 363 0.545964476195615 false 1772 0.545964476195615 true
gene 1 363 17 -0.10767082670343742 false 1773 -0.10767082670343742 true
genomeend 25
/* Organism #32 Fitness: 0.788 Error: 0.782 */
genomestart 32
trait 1 0.17770361116198596 0.1793216517885068 0 0.0639405099252359 0 0.03655578561910253 0.15790618710799129 0.10658584634672569 
node 1 1 1 3
node 2 1 1 1
node 3 1 1 1
node 4 1 1 1
node 5 1 1 1
node 6 1 1 1
node 7 1 1 1
node 8 1 1 1
node 9 1 1 1
node 10 1 1 1
node 11 1 1 1
node 12 1 0 0
node 13 1 0 2
node 14 1 0 2
node 17 1 0 0
node 24 1 0 0
node 363 1 0 0
gene 1 1 12 -1.0829567594728773 false 1 -1.0829567594728773 true
gene 1 2 12 -0.7104012431134221 false 2 -0.7104012431134221 true
gene 1 3 12 -0.638851036573923 false 3 -0.638851036573923 true
gene 1 4 12 0.6657729998612114 false 4 0.6657729998612114 true
gene 1 5 12 0.42667976247883754 false 5 0.42667976247883754 true
gene 1 6 12 -1.1712137560322915 false 6 -1.1712137560322915 true
gene 1 7 12 0.3293699929509786 false 7 0.3293699929509786 true
gene 1 8 12 0.9464258344651508 false 8 0.9464258344651508 true
gene 1 9 12 -0.11970810183027758 false 9 -0.11970810183027758 true
gene 1 10 12 0.160226441506227 false 10 0.160226441506227 true
gene 1 11 12 -1.9321656076402856 false 11 -1.9321656076402856 true
gene 1 12 13 -0.2617662158118804 false 12 -0.2617662158118804 true
gene 1 12 14 2.3224989341713647 false 13 2.3224989341713647 true
gene 1 2 17 0.07296516870692321 false 37 0.07296516870692321 true
gene 1 17 12 0.8405589324880636 false 38 0.8405589324880636 true
gene 1 11 24 -0.33835731830474824 false 87 -0.33835731830474824 true
gene 1 24 12 0.44538095152181 false 88 0.44538095152181 true
gene 1 9 14 -2.3248768192390266 false 151 -2.3248768192390266 true
gene 1 6 17 5.067311124075857 false 230 5.067311124075857 true
gene 1 8 17 0.22825716620705233 false 1014 0.22825716620705233 true
gene 1 2 363 0.3183309629408435 false 1772 0.3183309629408435 true
gene 1 363 17 0.2781646213640303 false 1773 0.2781646213640303 true
genomeend 32
/* Species #5 : (Size 8) (AF 11.619) (Age 57)  */
/* Organism #36 Fitness: 28.800 Error: 0.354 */
genomestart 36
trait 1 1.5844216566593663 0.9363172623399976 0.8229914313108873 1.16481048378725 1.0859666771061385 0 0 0.5698483910975917 
node 1 1 1 3
node 2 1 1 1
node 3 1 1 1
node 4 1 1 1
node 5 1 1 1
node 6 1 1 1
node 7 1 1 1
node 8 1 1 1
node 9 1 1 1
node 10 1 1 1
node 11 1 1 1
node 12 1 0 0
node 13 1 0 2
node 14 1 0 2
node 72 1 0 0
node 185 1 0 0
gene 1 1 12 -0.8159046669068433 false 1 -0.8159046669068433 true
gene 1 2 12 1.3451551146701237 false 2 1.3451551146701237 true
gene 1 3 12 1.1253084761299237 false 3 1.1253084761299237 true
gene 1 4 12 0.4242955055514343 false 4 0.4242955055514343 true
gene 1 5 12 0.20559664547926937 false 5 0.20559664547926937 true
gene 1 6 12 0.12344903587558465 false 6 0.12344903587558465 true
gene 1 7 12 0.8127334735493155 false 7 0.8127334735493155 true
gene 1 8 12 -3.461393300754513 false 8 -3.461393300754513 true
gene 1 9 12 -0.7925177733276176 false 9 -0.7925177733276176 true
gene 1 10 12 -1.4294685465150396 false 10 -1.4294685465150396 true
gene 1 11 12 -1.534838631736455 false 11 -1.534838631736455 true
gene 1 12 13 -1.0874661230489187 false 12 -1.0874661230489187 true
gene 1 12 14 1.343015742158936 false 13 1.343015742158936 true
gene 1 13 13 -1.7419761752773777 true 45 -1.7419761752773777 true
gene 1 2 14 -1.6593028384895763 false 67 -1.6593028384895763 true
gene 1 8 14 0.5101256116597587 false 103 0.5101256116597587 true
gene 1 3 13 0.9104145416611498 false 119 0.9104145416611498 true
gene 1 11 13 0.529430370976703 false 295 0.529430370976703 true
gene 1 9 72 -0.6946903919267287 false 328 -0.6946903919267287 true
gene 1 72 12 0.44476689387801244 false 329 0.44476689387801244 true
gene 1 12 185 1.8485916676143153 false 917 1.8485916676143153 true
gene 1 185 14 -0.762374135934885 false 918 -0.762374135934885 true
gene 1 14 13 0.5365202760349865 false 1485 0 true
genomeend 36
/* Organism #40 Fitness: 15.521 Error: 0.382 */
genomestart 40
trait 1 1.5844216566593663 0.6141155294313811 0.4654925924553034 0.4674441824830925 1.1427605239631584 0 0.01850649959485804 0.5698483910975917 
node 1 1 1 3
node 2 1 1 1
node 3 1 1 1
node 4 1 1 1
node 5 1 1 1
node 6 1 1 1
node 7 1 1 1
node 8 1 1 1
node 9 1 1 1
node 10 1 1 1
node 11 1 1 1
node 12 1 0 0
node 13 1 0 2
node 14 1 0 2
node 72 1 0 0
node 185 1 0 0
gene 1 1 12 -0.7818116773927205 false 1 -0.7818116773927205 true
gene 1 2 12 2.2478364485919657 false 2 2.2478364485919657 true
gene 1 3 12 1.9610853053741342 false 3 1.9610853053741342 true
gene 1 4 12 -0.48111828683996527 false 4 -0.48111828683996527 true
gene 1 5 12 -0.0546232862350243 false 5 -0.0546232862350243 true
gene 1 6 12 0.09409116874803743 false 6 0.09409116874803743 true
gene 1 7 12 -0.1554983876274041 false 7 -0.1554983876274041 true
gene 1 8 12 -3.4609650330608703 false 8 -3.4609650330608703 true
gene 1 9 12 -1.6563653226158421 false 9 -1.6563653226158421 true
gene 1 10 12 -1.1406159591576008 false 10 -1.1406159591576008 true
gene 1 11 12 -2.702379994633347 false 11 -2.702379994633347 true
gene 1 12 13 0.7876517326054233 false 12 0.7876517326054233 true
gene 1 12 14 2.414374694684306 false 13 2.414374694684306 true
gene 1 13 13 -2.359910568815084 true 45 -2.359910568815084 true
gene 1 2 14 -0.010827258850435797 false 67 -0.010827258850435797 true
gene 1 8 14 -0.5362879986427558 false 103 -0.5362879986427558 true
gene 1 3 13 0.8182119445875249 false 119 0.8182119445875249 true
gene 1 11 13 1.1066283871926927 false 295 1.1066283871926927 true
gene 1 9 72 -0.49540333363103317 false 328 -0.49540333363103317 true
gene 1 72 12 0.44771377840740495 false 329 0.44771377840740495 true
gene 1 12 185 3.18554423863278 false 917 3.18554423863278 true
gene 1 185 14 -0.3282201856424557 false 918 -0.3282201856424557 true
gene 1 14 13 -0.05392594048386157 false 1485 -0.05392594048386157 true
genomeend 40
/* Organism #42 Fitness: 11.559 Error: 0.913 */
genomestart 42
trait 1 1.5844216566593663 0.6141155294313811 0.4654925924553034 0.4674441824830925 1.1427605239631584 0 0.01850649959485804 0.5698483910975917 
node 1 1 1 3
node 2 1 1 1
node 3 1 1 1
node 4 1 1 1
node 5 1 1 1
node 6 1 1 1
node 7 1 1 1
node 8 1 1 1
node 9 1 1 1
node 10 1 1 1
node 11 1 1 1
node 12 1 0 0
node 13 1 0 2
node 14 1 0 2
node 72 1 0 0
node 185 1 0 0
gene 1 1 12 -1.6128035876140014 false 1 -1.6128035876140014 true
gene 1 2 12 1.5010255995639192 false 2 1.5010255995639192 true
gene 1 3 12 2.9064836158566845 false 3 2.9064836158566845 true
gene 1 4 12 0.7092627930452327 false 4 0.7092627930452327 true
gene 1 5 12 -0.4637833392902486 false 5 -0.4637833392902486 true
gene 1 6 12 -0.12748023599861658 false 6 -0.12748023599861658 true
gene 1 7 12 -0.04181786293925033 false 7 -0.04181786293925033 true
gene 1 8 12 -2.7184983188554583 false 8 -2.7184983188554583 true
gene 1 9 12 -2.4569258370948712 false 9 -2.4569258370948712 true
gene 1 10 12 -0.1702499307501883 false 10 -0.1702499307501883 true
gene 1 11 12 -1.9692845056039718 false 11 -1.9692845056039718 true
gene 1 12 13 -0.5397250567357703 false 12 -0.5397250567357703 true
gene 1 12 14 1.2608594677356153 false 13 1.2608594677356153 true
gene 1 13 13 -2.5316176310477814 true 45 -2.5316176310477814 true
gene 1 2 14 -1.7760114305039707 false 67 -1.7760114305039707 true
gene 1 8 14 1.0974291371937102 false 103 1.0974291371937102 true
gene 1 3 13 0.7586476184960121 false 119 0.7586476184960121 true
gene 1 11 13 0.3916058202061271 false 295 0.3916058202061271 true
gene 1 9 72 0.1284166553004102 false 328 0.1284166553004102 true
gene 1 72 12 -0.0013689745248717244 false 329 -0.0013689745248717244 true
gene 1 12 185 2.596922171451555 false 917 2.596922171451555 true
gene 1 185 14 -1.001927732812763 false 918 -1.001927732812763 true
gene 1 14 13 -0.04213667328741234 false 1485 -0.04213667328741234 true
genomeend 42
/* Organism #38 Fitness: 9.747 Error: 0.608 */
genomestart 38
trait 1 1.5844216566593663 0.7752163958856894 0.6442420118830954 0.8161273331351713 1.1143636005346484 0 0.00925324979742902 0.5698483910975917 
node 1 1 1 3
node 2 1 1 1
node 3 1 1 1
node 4 1 1 1
node 5 1 1 1
node 6 1 1 1
node 7 1 1 1
node 8 1 1 1
node 9 1 1 1
node 10 1 1 1
node 11 1 1 1
node 12 1 0 0
node 13 1 0 2
node 14 1 0 2
node 72 1 0 0
node 185 1 0 0
gene 1 1 12 -1.6478361603504874 false 1 -1.6478361603504874 true
gene 1 2 12 1.8904010964715536 false 2 1.8904010964715536 true
gene 1 3 12 1.4184638614880842 false 3 1.4184638614880842 true
gene 1 4 12 0.3494322344638546 false 4 0.3494322344638546 true
gene 1 5 12 0.47122789571913404 false 5 0.47122789571913404 true
gene 1 6 12 1.0050281647649473 false 6 1.0050281647649473 true
gene 1 7 12 0.9362816559630551 false 7 0.9362816559630551 true
gene 1 8 12 -3.297714815150913 false 8 -3.297714815150913 true
gene 1 9 12 -0.6168837407787463 false 9 -0.6168837407787463 true
gene 1 10 12 -1.551732818502126 false 10 -1.551732818502126 true
gene 1 11 12 -2.2060689481076676 false 11 -2.2060689481076676 true
gene 1 12 13 -0.851848060738148 false 12 -0.851848060738148 true
gene 1 12 14 2.1981291090577737 false 13 2.1981291090577737 true
gene 1 13 13 -1.8803981265355163 true 45 -1.8803981265355163 true
gene 1 2 14 -1.9040177324776772 false 67 -1.9040177324776772 true
gene 1 8 14 0.17006789808455958 false 103 0.17006789808455958 true
gene 1 3 13 1.3455534256523642 false 119 1.3455534256523642 true
gene 1 11 13 0.22150488188179335 false 295 0.22150488188179335 true
gene 1 9 72 -0.8233617688462743 false 328 -0.8233617688462743 true
gene 1 72 12 0.11302705356013831 false 329 0.11302705356013831 true
gene 1 12 185 -0.6000824984649912 false 917 -0.6000824984649912 true
gene 1 185 14 -0.5452971607886703 false 918 -0.5452971607886703 true
gene 1 14 13 0.05440395696186793 false 1485 0.05440395696186793 true
genomeend 38
/* Organism #41 Fitness: 8.361 Error: 0.897 */
genomestart 41
trait 1 1.5844216566593663 0.9363172623399976 0.8229914313108873 1.16481048378725 1.0859666771061385 0 0 0.5698483910975917 
node 1 1 1 3
node 2 1 1 1
node 3 1 1 1
node 4 1 1 1
node 5 1 1 1
node 6 1 1 1
node 7 1 1 1
node 8 1 1 1
node 9 1 1 1
node 10 1 1 1
node 11 1 1 1
node 12 1 0 0
node 13 1 0 2
node 14 1 0 2
node 72 1 0 0
node 185 1 0 0
gene 1 1 12 -0.24976244497659195 false 1 -0.24976244497659195 true
gene 1 2 12 1.5222857554977542 false 2 1.5222857554977542 true
gene 1 3 12 1.1990468787094928 false 3 1.1990468787094928 true
gene 1 4 12 1.1368944677031954 false 4 1.1368944677031954 true
gene 1 5 12 -0.3712032803501697 false 5 -0.3712032803501697 true
gene 1 6 12 -0.3854475297546409 false 6 -0.3854475297546409 true
gene 1 7 12 1.22760900353557 false 7 1.22760900353557 true
gene 1 8 12 -2.8304607089107257 false 8 -2.8304607089107257 true
gene 1 9 12 -1.4418517919670657 false 9 -1.4418517919670657 true
gene 1 10 12 -1.2344417875681146 false 10 -1.2344417875681146 true
gene 1 11 12 -1.2966542455657595 false 11 -1.2966542455657595 true
gene 1 12 13 -0.9012218930098935 false 12 -0.9012218930098935 true
gene 1 12 14 0.8077320539391756 false 13 0.8077320539391756 true
gene 1 13 13 -2.3660249905138704 true 45 -2.3660249905138704 true
gene 1 2 14 -0.95349866658546 false 67 -0.95349866658546 true
gene 1 8 14 1.0898430811602124 false 103 1.0898430811602124 true
gene 1 3 13 0.5515634485036899 false 119 0.5515634485036899 true
gene 1 11 13 0.07393632721587473 false 295 0.07393632721587473 true
gene 1 9 72 -1.3802642171669168 false 328 -1.3802642171669168 true
gene 1 72 12 0.44476689387801244 false 329 0.44476689387801244 true
gene 1 12 185 1.8485916676143153 false 917 1.8485916676143153 true
gene 1 185 14 -0.762374135934885 false 918 -0.762374135934885 true
gene 1 14 13 -0.6694546116934048 false 1485 -0.6694546116934048 true
genomeend 41
/* Organism #39 Fitness: 8.038 Error: 0.726 */
genomestart 39
trait 1 1.5844216566593663 0.6141155294313811 0.4654925924553034 0.4674441824830925 1.1427605239631584 0 0.01850649959485804 0.5698483910975917 
node 1 1 1 3
node 2 1 1 1
node 3 1 1 1
node 4 1 1 1
node 5 1 1 1
node 6 1 1 1
node 7 1 1 1
node 8 1 1 1
node 9 1 1 1
node 10 1 1 1
node 11 1 1 1
node 12 1 0 0
node 13 1 0 2
node 14 1 0 2
node 72 1 0 0
node 185 1 0 0
gene 1 1 12 -0.43673088089775636 false 1 -0.43673088089775636 true
gene 1 2 12 2.484606084272556 false 2 2.484606084272556 true
gene 1 3 12 3.111716725928354 false 3 3.111716725928354 true
gene 1 4 12 0.8187797700872792 false 4 0.8187797700872792 true
gene 1 5 12 0.7701717436963226 false 5 0.7701717436963226 true
gene 1 6 12 0.9549392493644053 false 6 0.9549392493644053 true
gene 1 7 12 -0.2944964466517443 false 7 -0.2944964466517443 true
gene 1 8 12 -2.928168108598007 false 8 -2.928168108598007 true
gene 1 9 12 -2.09370946999652 false 9 -2.09370946999652 true
gene 1 10 12 -0.7377411436439558 false 10 -0.7377411436439558 true
gene 1 11 12 -1.2927356328227049 false 11 -1.2927356328227049 true
gene 1 12 13 -1.6470023536642628 false 12 -1.6470023536642628 true
gene 1 12 14 1.9247336976926575 false 13 1.9247336976926575 true
gene 1 13 13 -1.8713739354699566 true 45 -1.8713739354699566 true
gene 1 2 14 -1.474915454342247 false 67 -1.474915454342247 true
gene 1 8 14 -0.09859895303105004 false 103 -0.09859895303105004 true
gene 1 3 13 1.860289774496119 false 119 1.860289774496119 true
gene 1 11 13 0.9229765331705304 false 295 0.9229765331705304 true
gene 1 9 72 0.7321676775132517 false 328 0.7321676775132517 true
gene 1 72 12 0.2448032982462353 false 329 0.2448032982462353 true
gene 1 12 185 3.547435455504798 false 917 3.547435455504798 true
gene 1 185 14 0.29606598422085817 false 918 0.29606598422085817 true
gene 1 14 13 0.03255540180998018 false 1485 0.03255540180998018 true
genomeend 39
/* Organism #43 Fitness: 7.995 Error: 0.925 */
genomestart 43
trait 1 1.5844216566593663 0.7752163958856894 0.6442420118830954 0.8161273331351713 1.1143636005346484 0 0.00925324979742902 0.5698483910975917 
node 1 1 1 3
node 2 1 1 1
node 3 1 1 1
node 4 1 1 1
node 5 1 1 1
node 6 1 1 1
node 7 1 1 1
node 8 1 1 1
node 9 1 1 1
node 10 1 1 1
node 11 1 1 1
node 12 1 0 0
node 13 1 0 2
node 14 1 0 2
node 72 1 0 0
node 185 1 0 0
gene 1 1 12 -0.35912593760079514 false 1 -0.35912593760079514 true
gene 1 2 12 0.8609433181718993 false 2 0.8609433181718993 true
gene 1 3 12 1.723648070186042 false 3 1.723648070186042 true
gene 1 4 12 0.12455359656294246 false 4 0.12455359656294246 true
gene 1 5 12 -0.531088405358485 false 5 -0.531088405358485 true
gene 1 6 12 0.36537771224767734 false 6 0.36537771224767734 true
gene 1 7 12 0.3025309056018043 false 7 0.3025309056018043 true
gene 1 8 12 -3.775589031864208 false 8 -3.775589031864208 false
gene 1 9 12 -1.7656457610151124 false 9 -1.7656457610151124 true
gene 1 10 12 -1.7441933171715511 false 10 -1.7441933171715511 true
gene 1 11 12 -1.643714269146327 false 11 -1.643714269146327 true
gene 1 12 13 -1.1199699448114857 false 12 -1.1199699448114857 true
gene 1 12 14 -0.0936937498375786 false 13 -0.0936937498375786 true
gene 1 13 13 -2.022559272338097 true 45 -2.022559272338097 true
gene 1 2 14 -2.0615910451059216 false 67 -2.0615910451059216 true
gene 1 8 14 1.2967186047687371 false 103 1.2967186047687371 true
gene 1 3 13 -0.7304618145483048 false 119 -0.7304618145483048 true
gene 1 11 13 1.2592259193897841 false 295 1.2592259193897841 true
gene 1 9 72 -0.4388194467725422 false 328 -0.4388194467725422 true
gene 1 72 12 0.4886417860103709 false 329 0.4886417860103709 true
gene 1 12 185 0.18776122451326352 false 917 0.18776122451326352 true
gene 1 185 14 -0.5460941065845001 false 918 -0.5460941065845001 true
gene 1 14 13 0.7985418191324946 false 1485 0.7985418191324946 true
genomeend 43
/* Organism #37 Fitness: 2.932 Error: 0.790 */
genomestart 37
trait 1 1.5844216566593663 0.7752163958856894 0.6442420118830954 0.8161273331351713 1.1143636005346484 0 0.00925324979742902 0.5698483910975917 
node 1 1 1 3
node 2 1 1 1
node 3 1 1 1
node 4 1 1 1
node 5 1 1 1
node 6 1 1 1
node 7 1 1 1
node 8 1 1 1
node 9 1 1 1
node 10 1 1 1
node 11 1 1 1
node 12 1 0 0
node 13 1 0 2
node 14 1 0 2
node 72 1 0 0
node 185 1 0 0
gene 1 1 12 0.5996849340915201 false 1 0.5996849340915201 true
gene 1 2 12 -0.5128816123778929 false 2 -0.5128816123778929 true
gene 1 3 12 0.8881753358456841 false 3 0.8881753358456841 true
gene 1 4 12 0.013597167545086053 false 4 0.013597167545086053 true
gene 1 5 12 0.08043524137086255 false 5 0.08043524137086255 true
gene 1 6 12 -0.43805692000417507 false 6 -0.43805692000417507 true
gene 1 7 12 1.2291904935566564 false 7 1.2291904935566564 true
gene 1 8 12 -3.5143570004755857 false 8 -3.5143570004755857 true
gene 1 9 12 -2.1228743853662784 false 9 -2.1228743853662784 true
gene 1 10 12 -2.0072548240473593 false 10 -2.0072548240473593 true
gene 1 11 12 -2.320959270530475 false 11 -2.320959270530475 true
gene 1 12 13 -1.2183630125888611 false 12 -1.2183630125888611 true
gene 1 12 14 1.2372580780578686 false 13 1.2372580780578686 true
gene 1 13 13 -1.6560380829483772 true 45 -1.6560380829483772 true
gene 1 2 14 -1.374561932210928 false 67 -1.374561932210928 true
gene 1 8 14 1.0354141898296536 false 103 1.0354141898296536 true
gene 1 3 13 1.2683787460472609 false 119 1.2683787460472609 true
gene 1 11 13 0.4400022559652981 false 295 0.4400022559652981 true
gene 1 9 72 0.465462642137227 false 328 0.465462642137227 true
gene 1 72 12 0.21419731040231327 false 329 0.21419731040231327 true
gene 1 12 185 1.5370523395320477 false 917 1.5370523395320477 true
gene 1 185 14 0.34314586384445467 false 918 0.34314586384445467 true
gene 1 14 13 0.004760063069901732 false 1485 0.004760063069901732 true
genomeend 37
/* Species #6 : (Size 8) (AF 9.835) (Age 56)  */
/* Organism #44 Fitness: 20.561 Error: 0.402 */
genomestart 44
trait 1 0 0.4520376789823079 0 0.7090318392021591 0.47572709458359275 0 0.5488183562505488 0 
node 1 1 1 3
node 2 1 1 1
node 3 1 1 1
node 4 1 1 1
node 5 1 1 1
node 6 1 1 1
node 7 1 1 1
node 8 1 1 1
node 9 1 1 1
node 10 1 1 1
node 11 1 1 1
node 12 1 0 0
node 13 1 0 2
node 14 1 0 2
node 49 1 0 0
node 137 1 0 0
gene 1 1 12 -0.3443827245928666 false 1 -0.3443827245928666 true
gene 1 2 12 0.31242828436981973 false 2 0.31242828436981973 true
gene 1 3 12 -2.779179148263076 false 3 -2.779179148263076 true
gene 1 4 12 0.9668941857748596 false 4 0.9668941857748596 true
gene 1 5 12 -1.484247734141267 false 5 -1.484247734141267 true
gene 1 6 12 0.6225557927752249 false 6 0.6225557927752249 true
gene 1 7 12 0.7435737143327568 false 7 0.7435737143327568 true
gene 1 8 12 0.7122231359548623 false 8 0.7122231359548623 true
gene 1 9 12 1.1186738897807644 false 9 1.1186738897807644 true
gene 1 10 12 -1.9951222552769539 false 10 -1.9951222552769539 true
gene 1 11 12 0.8878879957965647 false 11 0.8878879957965647 true
gene 1 12 13 0.8028365511819462 false 12 0.8028365511819462 true
gene 1 12 14 -0.43538280332734636 false 13 -0.43538280332734636 true
gene 1 2 14 0.4307318702187062 false 78 0.4307318702187062 true
gene 1 10 14 -0.5682368798652475 false 168 -0.5682368798652475 true
gene 1 6 49 -1.0604390627281024 false 215 -1.0604390627281024 true
gene 1 49 12 -0.027616517215004688 false 216 -0.027616517215004688 true
gene 1 5 49 -5.13071548095291 false 460 -5.13071548095291 true
gene 1 8 137 1 false 657 0 true
gene 1 137 12 0.7122231359548623 false 658 0 true
genomeend 44
/* Organism #49 Fitness: 13.781 Error: 0.879 */
genomestart 49
trait 1 0.032868010545624216 0.4520376789823079 0 0.6875247432837026 0.47572709458359275 0 0.5488183562505488 0 
node 1 1 1 3
node 2 1 1 1
node 3 1 1 1
node 4 1 1 1
node 5 1 1 1
node 6 1 1 1
node 7 1 1 1
node 8 1 1 1
node 9 1 1 1
node 10 1 1 1
node 11 1 1 1
node 12 1 0 0
node 13 1 0 2
node 14 1 0 2
node 49 1 0 0
node 137 1 0 0
gene 1 1 12 -0.3797426983266587 false 1 -0.3797426983266587 true
gene 1 2 12 0.8336231224722882 false 2 0.8336231224722882 true
gene 1 3 12 -2.6818803725541915 false 3 -2.6818803725541915 true
gene 1 4 12 0.8824630877824109 false 4 0.8824630877824109 true
gene 1 5 12 -0.7616157880280388 false 5 -0.7616157880280388 true
gene 1 6 12 0.016940077005116905 false 6 0.016940077005116905 true
gene 1 7 12 0.5154865585442537 false 7 0.5154865585442537 true
gene 1 8 12 0.4802810898915346 false 8 0.4802810898915346 true
gene 1 9 12 0.5205391133347903 false 9 0.5205391133347903 true
gene 1 10 12 -2.5566802260804913 false 10 -2.5566802260804913 true
gene 1 11 12 1.3961633888568206 false 11 1.3961633888568206 true
gene 1 12 13 1.375748119821063 false 12 1.375748119821063 true
gene 1 12 14 -1.2300285429668794 false 13 -1.2300285429668794 true
gene 1 2 14 1.1667365923131927 false 78 1.1667365923131927 true
gene 1 10 14 -1.1664562030221237 false 168 -1.1664562030221237 true
gene 1 6 49 -0.9729647386072657 false 215 -0.9729647386072657 true
gene 1 49 12 -1.0968795579345225 false 216 -1.0968795579345225 true
gene 1 5 49 -5.13071548095291 false 460 -5.13071548095291 true
gene 1 8 137 0.8040302257650944 false 657 0.8040302257650944 true
gene 1 137 12 1.1896071618080741 false 658 1.1896071618080741 true
genomeend 49
/* Organism #50 Fitness: 13.396 Error: 0.880 */
genomestart 50
trait 1 0.032868010545624216 0.4520376789823079 0 0.6875247432837026 0.47572709458359275 0 0.5488183562505488 0 
node 1 1 1 3
node 2 1 1 1
node 3 1 1 1
node 4 1 1 1
node 5 1 1 1
node 6 1 1 1
node 7 1 1 1
node 8 1 1 1
node 9 1 1 1
node 10 1 1 1
node 11 1 1 1
node 12 1 0 0
node 13 1 0 2
node 14 1 0 2
node 49 1 0 0
node 137 1 0 0
gene 1 1 12 0.15920428590044572 false 1 0.15920428590044572 true
gene 1 2 12 1.5890925755730645 false 2 1.5890925755730645 true
gene 1 3 12 -3.247421993239868 false 3 -3.247421993239868 true
gene 1 4 12 0.15806058523917343 false 4 0.15806058523917343 true
gene 1 5 12 -0.47945199507680725 false 5 -0.47945199507680725 true
gene 1 6 12 -0.27725915485027425 false 6 -0.27725915485027425 true
gene 1 7 12 0.1400894562780513 false 7 0.1400894562780513 true
gene 1 8 12 0.6199975723339023 false 8 0.6199975723339023 true
gene 1 9 12 1.2601276466644458 false 9 1.2601276466644458 true
gene 1 10 12 -3.226586809973989 false 10 -3.226586809973989 true
gene 1 11 12 1.5394243884491532 false 11 1.5394243884491532 true
gene 1 12 13 1.36978960601276 false 12 1.36978960601276 true
gene 1 12 14 -1.2470863435597916 false 13 -1.2470863435597916 true
gene 1 2 14 1.3629244854560656 false 78 1.3629244854560656 true
gene 1 10 14 -1.9266782530048943 false 168 -1.9266782530048943 true
gene 1 6 49 -1.252714363126669 false 215 -1.252714363126669 true
gene 1 49 12 -1.4027684535946214 false 216 -1.4027684535946214 true
gene 1 5 49 -0.19993615985685836 false 460 -0.19993615985685836 true
gene 1 8 137 0.8040302257650944 false 657 0.8040302257650944 true
gene 1 137 12 0.44415276011286053 false 658 0.44415276011286053 true
genomeend 50
/* Organism #51 Fitness: 9.840 Error: 0.990 */
genomestart 51
trait 1 0.032868010545624216 0.4520376789823079 0 0.6875247432837026 0.47572709458359275 0 0.5488183562505488 0 
node 1 1 1 3
node 2 1 1 1
node 3 1 1 1
node 4 1 1 1
node 5 1 1 1
node 6 1 1 1
node 7 1 1 1
node 8 1 1 1
node 9 1 1 1
node 10 1 1 1
node 11 1 1 1
node 12 1 0 0
node 13 1 0 2
node 14 1 0 2
node 49 1 0 0
node 137 1 0 0
gene 1 1 12 0.20552276898663208 false 1 0.20552276898663208 true
gene 1 2 12 1.435010629214161 false 2 1.435010629214161 true
gene 1 3 12 -0.4442089316205506 false 3 -0.4442089316205506 true
gene 1 4 12 0.9936419155515563 false 4 0.9936419155515563 true
gene 1 5 12 -0.7616157880280388 false 5 -0.7616157880280388 true
gene 1 6 12 -0.6834267953600097 false 6 -0.6834267953600097 true
gene 1 7 12 0.7705437675013509 false 7 0.7705437675013509 true
gene 1 8 12 -0.007104584437501671 false 8 -0.007104584437501671 true
gene 1 9 12 1.2613844478900682 false 9 1.2613844478900682 true
gene 1 10 12 -2.2146412122030164 false 10 -2.2146412122030164 true
gene 1 11 12 0.8897407478475948 false 11 0.8897407478475948 true
gene 1 12 13 -0.035377545355893956 false 12 -0.035377545355893956 true
gene 1 12 14 -0.4489121862214015 false 13 -0.4489121862214015 true
gene 1 2 14 1.1667365923131927 false 78 1.1667365923131927 true
gene 1 10 14 -1.520695988668972 false 168 -1.520695988668972 true
gene 1 6 49 -0.9729647386072657 false 215 -0.9729647386072657 true
gene 1 49 12 -0.4482027502140017 false 216 -0.4482027502140017 true
gene 1 5 49 -4.954206125401375 false 460 -4.954206125401375 true
gene 1 8 137 0.16630745532491376 false 657 0.16630745532491376 true
gene 1 137 12 1.7692310730690233 false 658 1.7692310730690233 true
genomeend 51
/* Organism #48 Fitness: 9.538 Error: 0.686 */
genomestart 48
trait 1 0.016434005272812108 0.4520376789823079 0 0.6982782912429308 0.47572709458359275 0 0.5488183562505488 0 
node 1 1 1 3
node 2 1 1 1
node 3 1 1 1
node 4 1 1 1
node 5 1 1 1
node 6 1 1 1
node 7 1 1 1
node 8 1 1 1
node 9 1 1 1
node 10 1 1 1
node 11 1 1 1
node 12 1 0 0
node 13 1 0 2
node 14 1 0 2
node 49 1 0 0
node 137 1 0 0
gene 1 1 12 -1.1284339609865022 false 1 -1.1284339609865022 true
gene 1 2 12 -0.6256508923147791 false 2 -0.6256508923147791 true
gene 1 3 12 -2.356204965551193 false 3 -2.356204965551193 true
gene 1 4 12 1.3907757884040752 false 4 1.3907757884040752 true
gene 1 5 12 0.07578708366926258 false 5 0.07578708366926258 true
gene 1 6 12 0.3197479348901709 false 6 0.3197479348901709 true
gene 1 7 12 0.6372975985627185 false 7 0.6372975985627185 true
gene 1 8 12 0.20780990107221525 false 8 0.20780990107221525 true
gene 1 9 12 0.9965385815817511 false 9 0.9965385815817511 true
gene 1 10 12 0.1805728462418083 false 10 0.1805728462418083 true
gene 1 11 12 1.5787121436641576 false 11 1.5787121436641576 true
gene 1 12 13 -0.4931750343988808 false 12 -0.4931750343988808 true
gene 1 12 14 -1.580386508925756 false 13 -1.580386508925756 true
gene 1 2 14 0.5264033296058457 false 78 0.5264033296058457 true
gene 1 10 14 -0.4842960732487025 false 168 -0.4842960732487025 true
gene 1 6 49 -1.2099804310609574 false 215 -1.2099804310609574 true
gene 1 49 12 -1.0127907505275668 false 216 -1.0127907505275668 true
gene 1 5 49 -5.13071548095291 false 460 -5.13071548095291 true
gene 1 8 137 0.60384860385923 false 657 0.60384860385923 true
gene 1 137 12 1.058624465277021 false 658 1.058624465277021 true
genomeend 48
/* Organism #45 Fitness: 5.574 Error: 0.990 */
genomestart 45
trait 1 0.016434005272812108 0.4520376789823079 0 0.6982782912429308 0.47572709458359275 0 0.5488183562505488 0 
node 1 1 1 3
node 2 1 1 1
node 3 1 1 1
node 4 1 1 1
node 5 1 1 1
node 6 1 1 1
node 7 1 1 1
node 8 1 1 1
node 9 1 1 1
node 10 1 1 1
node 11 1 1 1
node 12 1 0 0
node 13 1 0 2
node 14 1 0 2
node 49 1 0 0
node 137 1 0 0
gene 1 1 12 -0.3797426983266587 false 1 -0.3797426983266587 true
gene 1 2 12 0.31242828436981973 false 2 0.31242828436981973 true
gene 1 3 12 -2.779179148263076 false 3 -2.779179148263076 true
gene 1 4 12 0.8824630877824109 false 4 0.8824630877824109 true
gene 1 5 12 -1.484247734141267 false 5 -1.484247734141267 true
gene 1 6 12 0.6225557927752249 false 6 0.6225557927752249 true
gene 1 7 12 0.5154865585442537 false 7 0.5154865585442537 true
gene 1 8 12 0.7122231359548623 false 8 0.7122231359548623 true
gene 1 9 12 1.1186738897807644 false 9 1.1186738897807644 true
gene 1 10 12 -1.9951222552769539 false 10 -1.9951222552769539 true
gene 1 11 12 1.3961633888568206 false 11 1.3961633888568206 true
gene 1 12 13 1.375748119821063 false 12 1.375748119821063 true
gene 1 12 14 -1.2300285429668794 false 13 -1.2300285429668794 true
gene 1 2 14 0.4307318702187062 false 78 0.4307318702187062 true
gene 1 10 14 -1.1664562030221237 false 168 -1.1664562030221237 true
gene 1 6 49 -1.0604390627281024 false 215 -1.0604390627281024 true
gene 1 49 12 -0.027616517215004688 false 216 -0.027616517215004688 true
gene 1 5 49 -5.13071548095291 false 460 -5.13071548095291 true
gene 1 8 137 1 false 657 0 true
gene 1 137 12 0.7122231359548623 false 658 0 true
genomeend 45
/* Organism #46 Fitness: 5.176 Error: 0.990 */
genomestart 46
trait 1 0 0.4520376789823079 0 0.7090318392021591 0.47572709458359275 0 0.5488183562505488 0 
node 1 1 1 3
node 2 1 1 1
node 3 1 1 1
node 4 1 1 1
node 5 1 1 1
node 6 1 1 1
node 7 1 1 1
node 8 1 1 1
node 9 1 1 1
node 10 1 1 1
node 11 1 1 1
node 12 1 0 0
node 13 1 0 2
node 14 1 0 2
node 49 1 0 0
node 137 1 0 0
gene 1 1 12 0.31012641946920055 false 1 0.31012641946920055 true
gene 1 2 12 0.20847070976866686 false 2 0.20847070976866686 true
gene 1 3 12 -3.5639070611823125 false 3 -3.5639070611823125 true
gene 1 4 12 1.3164381350092291 false 4 1.3164381350092291 true
gene 1 5 12 -1.7604455193026243 false 5 -1.7604455193026243 true
gene 1 6 12 1.0138269133719646 false 6 1.0138269133719646 true
gene 1 7 12 1.199016727996364 false 7 1.199016727996364 true
gene 1 8 12 0.14575330157790278 false 8 0.14575330157790278 true
gene 1 9 12 1.5517575504618673 false 9 1.5517575504618673 true
gene 1 10 12 -2.222379454212243 false 10 -2.222379454212243 true
gene 1 11 12 0.8726402740663123 false 11 0.8726402740663123 true
gene 1 12 13 0.34726182910507647 false 12 0.34726182910507647 true
gene 1 12 14 -0.4485748340926205 false 13 -0.4485748340926205 true
gene 1 2 14 0.4774724770146947 false 78 0.4774724770146947 true
gene 1 10 14 -0.06359104919222358 false 168 -0.06359104919222358 true
gene 1 6 49 -0.950865111416863 false 215 -0.950865111416863 true
gene 1 49 12 0.15356897780454215 false 216 0.15356897780454215 true
gene 1 5 49 -5.13071548095291 false 460 -5.13071548095291 true
gene 1 8 137 -0.2657576322401873 false 657 -0.2657576322401873 true
gene 1 137 12 -0.1833043179208377 false 658 -0.1833043179208377 true
genomeend 46
/* Organism #47 Fitness: 0.815 Error: 0.783 */
genomestart 47
trait 1 0 0.4520376789823079 0 0.7090318392021591 0.47572709458359275 0 0.5488183562505488 0 
node 1 1 1 3
node 2 1 1 1
node 3 1 1 1
node 4 1 1 1
node 5 1 1 1
node 6 1 1 1
node 7 1 1 1
node 8 1 1 1
node 9 1 1 1
node 10 1 1 1
node 11 1 1 1
node 12 1 0 0
node 13 1 0 2
node 14 1 0 2
node 49 1 0 0
node 137 1 0 0
gene 1 1 12 0.11068337023979874 false 1 0.11068337023979874 true
gene 1 2 12 0.656297961879129 false 2 0.656297961879129 true
gene 1 3 12 -2.7683780654619805 false 3 -2.7683780654619805 true
gene 1 4 12 1.026810198628382 false 4 1.026810198628382 true
gene 1 5 12 -0.9166319140923723 false 5 -0.9166319140923723 true
