/* Species #0 : (Size 250) (AF 2.105) (Age 1)  */
/* Organism #42 Fitness: 24.003 Error: 0.561 */
genomestart 42
trait 1 0.1 0 0 0 0 0 0 0 
node 1 0 1 3
node 2 0 1 1
node 3 0 1 1
node 4 0 1 1
node 5 0 1 1
node 6 0 1 1
node 7 0 1 1
node 8 0 1 1
node 9 0 1 1
node 10 0 1 1
node 11 0 1 1
node 12 0 0 0
node 13 0 0 2
node 14 0 0 2
gene 1 1 12 -0.6198385678161913 false 1 -0.6198385678161913 true
gene 1 2 12 -0.9268610888938683 false 2 -0.9268610888938683 true
gene 1 3 12 0.9690395301543191 false 3 0.9690395301543191 true
gene 1 4 12 -0.5236304020312688 false 4 -0.5236304020312688 true
gene 1 5 12 0.47193695069073355 false 5 0.47193695069073355 true
gene 1 6 12 0.6673582353257594 false 6 0.6673582353257594 true
gene 1 7 12 -0.9505062478630771 false 7 -0.9505062478630771 true
gene 1 8 12 -0.32259685613821387 false 8 -0.32259685613821387 true
gene 1 9 12 0.9658352380575282 false 9 0.9658352380575282 true
gene 1 10 12 0.1874604518393401 false 10 0.1874604518393401 true
gene 1 11 12 0.08921125020808297 false 11 0.08921125020808297 true
gene 1 12 13 -0.04926593556783081 false 12 -0.04926593556783081 true
gene 1 12 14 -0.5268107888233723 false 13 -0.5268107888233723 true
genomeend 42
/* Organism #233 Fitness: 22.509 Error: 0.574 */
genomestart 233
trait 1 0.1 0 0 0 0 0 0 0 
node 1 0 1 3
node 2 0 1 1
node 3 0 1 1
node 4 0 1 1
node 5 0 1 1
node 6 0 1 1
node 7 0 1 1
node 8 0 1 1
node 9 0 1 1
node 10 0 1 1
node 11 0 1 1
node 12 0 0 0
node 13 0 0 2
node 14 0 0 2
gene 1 1 12 0.5255607344334026 false 1 0.5255607344334026 true
gene 1 2 12 0.24793212813324722 false 2 0.24793212813324722 true
gene 1 3 12 0.6907548306313712 false 3 0.6907548306313712 true
gene 1 4 12 0.9321747594811057 false 4 0.9321747594811057 true
gene 1 5 12 -0.9170164647462139 false 5 -0.9170164647462139 true
gene 1 6 12 0.5732184714504881 false 6 0.5732184714504881 true
gene 1 7 12 0 false 7 0 true
gene 1 8 12 -0.6277167105745102 false 8 -0.6277167105745102 true
gene 1 9 12 0 false 9 0 true
gene 1 10 12 0.7480359661920365 false 10 0.7480359661920365 true
gene 1 11 12 0.47272546594705867 false 11 0.47272546594705867 true
gene 1 12 13 -0.0035408326212306193 false 12 -0.0035408326212306193 true
gene 1 12 14 -0.5980643482621961 false 13 -0.5980643482621961 true
genomeend 233
/* Organism #137 Fitness: 14.056 Error: 0.913 */
genomestart 137
trait 1 0.1 0 0 0 0 0 0 0 
node 1 0 1 3
node 2 0 1 1
node 3 0 1 1
node 4 0 1 1
node 5 0 1 1
node 6 0 1 1
node 7 0 1 1
node 8 0 1 1
node 9 0 1 1
node 10 0 1 1
node 11 0 1 1
node 12 0 0 0
node 13 0 0 2
node 14 0 0 2
gene 1 1 12 -0.7184997774227915 false 1 -0.7184997774227915 true
gene 1 2 12 0 false 2 0 true
gene 1 3 12 0.1285174901391881 false 3 0.1285174901391881 true
gene 1 4 12 0.17802698934913608 false 4 0.17802698934913608 true
gene 1 5 12 -0.6537987536478815 false 5 -0.6537987536478815 true
gene 1 6 12 0.06519818145141074 false 6 0.06519818145141074 true
gene 1 7 12 0.5745319741488186 false 7 0.5745319741488186 true
gene 1 8 12 -0.44078520958515965 false 8 -0.44078520958515965 true
gene 1 9 12 -0.22563588192446948 false 9 -0.22563588192446948 true
gene 1 10 12 0 false 10 0 true
gene 1 11 12 -0.8703311741445773 false 11 -0.8703311741445773 true
gene 1 12 13 0.28755434072344216 false 12 0.28755434072344216 true
gene 1 12 14 -0.9850903166107028 false 13 -0.9850903166107028 true
genomeend 137
/* Organism #78 Fitness: 13.146 Error: 0.832 */
genomestart 78
trait 1 0.1 0 0 0 0 0 0 0 
node 1 0 1 3
node 2 0 1 1
node 3 0 1 1
node 4 0 1 1
node 5 0 1 1
node 6 0 1 1
node 7 0 1 1
node 8 0 1 1
node 9 0 1 1
node 10 0 1 1
node 11 0 1 1
node 12 0 0 0
node 13 0 0 2
node 14 0 0 2
gene 1 1 12 0 false 1 0 true
gene 1 2 12 0.4443785745176103 false 2 0.4443785745176103 true
gene 1 3 12 0.5624843906226829 false 3 0.5624843906226829 true
gene 1 4 12 -0.7374624618584084 false 4 -0.7374624618584084 true
gene 1 5 12 0 false 5 0 true
gene 1 6 12 -0.8865486754051694 false 6 -0.8865486754051694 true
gene 1 7 12 0.10666363610760345 false 7 0.10666363610760345 true
gene 1 8 12 0.48064829386715696 false 8 0.48064829386715696 true
gene 1 9 12 0.6952145640682255 false 9 0.6952145640682255 true
gene 1 10 12 0.4292999668693661 false 10 0.4292999668693661 true
gene 1 11 12 -0.6164084750149028 false 11 -0.6164084750149028 true
gene 1 12 13 -0.8901053985059985 false 12 -0.8901053985059985 true
gene 1 12 14 -0.04093295593819326 false 13 -0.04093295593819326 true
genomeend 78
/* Organism #225 Fitness: 12.297 Error: 0.953 */
genomestart 225
trait 1 0.1 0 0 0 0 0 0 0 
node 1 0 1 3
node 2 0 1 1
node 3 0 1 1
node 4 0 1 1
node 5 0 1 1
node 6 0 1 1
node 7 0 1 1
node 8 0 1 1
node 9 0 1 1
node 10 0 1 1
node 11 0 1 1
node 12 0 0 0
node 13 0 0 2
node 14 0 0 2
gene 1 1 12 -0.6516021751529995 false 1 -0.6516021751529995 true
gene 1 2 12 0 false 2 0 true
gene 1 3 12 0.7357728539152912 false 3 0.7357728539152912 true
gene 1 4 12 -0.08322977162260038 false 4 -0.08322977162260038 true
gene 1 5 12 0.026302743328141896 false 5 0.026302743328141896 true
gene 1 6 12 0.8817012864850807 false 6 0.8817012864850807 true
gene 1 7 12 -0.6418988204561946 false 7 -0.6418988204561946 true
gene 1 8 12 -0.8441669626083426 false 8 -0.8441669626083426 true
gene 1 9 12 0.8873183548678955 false 9 0.8873183548678955 true
gene 1 10 12 0 false 10 0 true
gene 1 11 12 0 false 11 0 true
gene 1 12 13 -0.25814914210443113 false 12 -0.25814914210443113 true
gene 1 12 14 -0.1674747112786113 false 13 -0.1674747112786113 true
genomeend 225
/* Organism #154 Fitness: 11.958 Error: 0.941 */
genomestart 154
trait 1 0.1 0 0 0 0 0 0 0 
node 1 0 1 3
node 2 0 1 1
node 3 0 1 1
node 4 0 1 1
node 5 0 1 1
node 6 0 1 1
node 7 0 1 1
node 8 0 1 1
node 9 0 1 1
node 10 0 1 1
node 11 0 1 1
node 12 0 0 0
node 13 0 0 2
node 14 0 0 2
gene 1 1 12 0.5746114274329849 false 1 0.5746114274329849 true
gene 1 2 12 0.6552880101004974 false 2 0.6552880101004974 true
gene 1 3 12 0.7543107466647612 false 3 0.7543107466647612 true
gene 1 4 12 -0.6785987137772136 false 4 -0.6785987137772136 true
gene 1 5 12 -0.8329404581065878 false 5 -0.8329404581065878 true
gene 1 6 12 -0.943145941332854 false 6 -0.943145941332854 true
gene 1 7 12 -0.11334366059294612 false 7 -0.11334366059294612 true
gene 1 8 12 0.9879418897559041 false 8 0.9879418897559041 true
gene 1 9 12 0.3564300281089298 false 9 0.3564300281089298 true
gene 1 10 12 -0.8127887499845212 false 10 -0.8127887499845212 true
gene 1 11 12 -0.8638776516002793 false 11 -0.8638776516002793 true
gene 1 12 13 -0.1501875925862551 false 12 -0.1501875925862551 true
gene 1 12 14 0.262483462093504 false 13 0.262483462093504 true
genomeend 154
/* Organism #149 Fitness: 11.784 Error: 0.809 */
genomestart 149
trait 1 0.1 0 0 0 0 0 0 0 
node 1 0 1 3
node 2 0 1 1
node 3 0 1 1
node 4 0 1 1
node 5 0 1 1
node 6 0 1 1
node 7 0 1 1
node 8 0 1 1
node 9 0 1 1
node 10 0 1 1
node 11 0 1 1
node 12 0 0 0
node 13 0 0 2
node 14 0 0 2
gene 1 1 12 0.7951421204566218 false 1 0.7951421204566218 true
gene 1 2 12 -0.1661022553357252 false 2 -0.1661022553357252 true
gene 1 3 12 0.010091261412106197 false 3 0.010091261412106197 true
gene 1 4 12 0.40199997038642105 false 4 0.40199997038642105 true
gene 1 5 12 0.4379425369796491 false 5 0.4379425369796491 true
gene 1 6 12 -0.564524890387721 false 6 -0.564524890387721 true
gene 1 7 12 0.9450628793735832 false 7 0.9450628793735832 true
gene 1 8 12 0.6871126110900617 false 8 0.6871126110900617 true
gene 1 9 12 0.12863726451242824 false 9 0.12863726451242824 true
gene 1 10 12 0.7287444398892121 false 10 0.7287444398892121 true
gene 1 11 12 -0.16732057643584422 false 11 -0.16732057643584422 true
gene 1 12 13 -0.04030055165390558 false 12 -0.04030055165390558 true
gene 1 12 14 0.8891474643982024 false 13 0.8891474643982024 true
genomeend 149
/* Organism #205 Fitness: 11.274 Error: 0.905 */
genomestart 205
trait 1 0.1 0 0 0 0 0 0 0 
node 1 0 1 3
node 2 0 1 1
node 3 0 1 1
node 4 0 1 1
node 5 0 1 1
node 6 0 1 1
node 7 0 1 1
node 8 0 1 1
node 9 0 1 1
node 10 0 1 1
node 11 0 1 1
node 12 0 0 0
node 13 0 0 2
node 14 0 0 2
gene 1 1 12 -0.6818429760515758 false 1 -0.6818429760515758 true
gene 1 2 12 0 false 2 0 true
gene 1 3 12 0.006200642477499952 false 3 0.006200642477499952 true
gene 1 4 12 -0.38404044468635884 false 4 -0.38404044468635884 true
gene 1 5 12 0.9673206514456677 false 5 0.9673206514456677 true
gene 1 6 12 -0.8142935775651328 false 6 -0.8142935775651328 true
gene 1 7 12 0.8728682617484868 false 7 0.8728682617484868 true
gene 1 8 12 -0.6638867739304617 false 8 -0.6638867739304617 true
gene 1 9 12 0 false 9 0 true
gene 1 10 12 0.19095821348174472 false 10 0.19095821348174472 true
gene 1 11 12 0.2081325583427434 false 11 0.2081325583427434 true
gene 1 12 13 -0.21595709809301603 false 12 -0.21595709809301603 true
gene 1 12 14 0.2738974039212752 false 13 0.2738974039212752 true
genomeend 205
/* Organism #201 Fitness: 10.937 Error: 0.826 */
genomestart 201
trait 1 0.1 0 0 0 0 0 0 0 
node 1 0 1 3
node 2 0 1 1
node 3 0 1 1
node 4 0 1 1
node 5 0 1 1
node 6 0 1 1
node 7 0 1 1
node 8 0 1 1
node 9 0 1 1
node 10 0 1 1
node 11 0 1 1
node 12 0 0 0
node 13 0 0 2
node 14 0 0 2
gene 1 1 12 0.1630770308816664 false 1 0.1630770308816664 true
gene 1 2 12 -0.014018482196977688 false 2 -0.014018482196977688 true
gene 1 3 12 0.8673070769393748 false 3 0.8673070769393748 true
gene 1 4 12 0.2894616642870751 false 4 0.2894616642870751 true
gene 1 5 12 -0.5051832256081908 false 5 -0.5051832256081908 true
gene 1 6 12 -0.020723757135505925 false 6 -0.020723757135505925 true
gene 1 7 12 -0.7093450527958359 false 7 -0.7093450527958359 true
gene 1 8 12 -0.08076961597392186 false 8 -0.08076961597392186 true
gene 1 9 12 0.08919512643249257 false 9 0.08919512643249257 true
gene 1 10 12 -0.15953147090187303 false 10 -0.15953147090187303 true
gene 1 11 12 0.19545223582642537 false 11 0.19545223582642537 true
gene 1 12 13 -0.9896081385394023 false 12 -0.9896081385394023 true
gene 1 12 14 0.19437708946385268 false 13 0.19437708946385268 true
genomeend 201
/* Organism #52 Fitness: 10.216 Error: 0.938 */
genomestart 52
trait 1 0.1 0 0 0 0 0 0 0 
node 1 0 1 3
node 2 0 1 1
node 3 0 1 1
node 4 0 1 1
node 5 0 1 1
node 6 0 1 1
node 7 0 1 1
node 8 0 1 1
node 9 0 1 1
node 10 0 1 1
node 11 0 1 1
node 12 0 0 0
node 13 0 0 2
node 14 0 0 2
gene 1 1 12 0 false 1 0 true
gene 1 2 12 0.01303188464604423 false 2 0.01303188464604423 true
gene 1 3 12 -0.34181079523351676 false 3 -0.34181079523351676 true
gene 1 4 12 0.3019094863722742 false 4 0.3019094863722742 true
gene 1 5 12 -0.4268207355276928 false 5 -0.4268207355276928 true
gene 1 6 12 0.10501997658941511 false 6 0.10501997658941511 true
gene 1 7 12 -0.5762848667102431 false 7 -0.5762848667102431 true
gene 1 8 12 -0.62897014523635 false 8 -0.62897014523635 true
gene 1 9 12 -0.5709537953572755 false 9 -0.5709537953572755 true
gene 1 10 12 0.12659332073726628 false 10 0.12659332073726628 true
gene 1 11 12 -0.07080602633390728 false 11 -0.07080602633390728 true
gene 1 12 13 0.9499286929101032 false 12 0.9499286929101032 true
gene 1 12 14 0.8495049115475943 false 13 0.8495049115475943 true
genomeend 52
/* Organism #79 Fitness: 10.164 Error: 0.787 */
genomestart 79
trait 1 0.1 0 0 0 0 0 0 0 
node 1 0 1 3
node 2 0 1 1
node 3 0 1 1
node 4 0 1 1
node 5 0 1 1
node 6 0 1 1
node 7 0 1 1
node 8 0 1 1
node 9 0 1 1
node 10 0 1 1
node 11 0 1 1
node 12 0 0 0
node 13 0 0 2
node 14 0 0 2
gene 1 1 12 0.12086244161752671 false 1 0.12086244161752671 true
gene 1 2 12 0.8454920372830707 false 2 0.8454920372830707 true
gene 1 3 12 -0.12183130251279899 false 3 -0.12183130251279899 true
gene 1 4 12 -0.10965716847351716 false 4 -0.10965716847351716 true
gene 1 5 12 -0.6123302410719177 false 5 -0.6123302410719177 true
gene 1 6 12 0.6365983707172054 false 6 0.6365983707172054 true
gene 1 7 12 -0.9072663476011865 false 7 -0.9072663476011865 true
gene 1 8 12 -0.8704301178181957 false 8 -0.8704301178181957 true
gene 1 9 12 -0.8651049222399528 false 9 -0.8651049222399528 true
gene 1 10 12 -0.5882681558532282 false 10 -0.5882681558532282 true
gene 1 11 12 -0.7277888662211216 false 11 -0.7277888662211216 true
gene 1 12 13 -0.9293015982732489 false 12 -0.9293015982732489 true
gene 1 12 14 0.7754283305339817 false 13 0.7754283305339817 true
genomeend 79
/* Organism #187 Fitness: 9.456 Error: 0.838 */
genomestart 187
trait 1 0.1 0 0 0 0 0 0 0 
node 1 0 1 3
node 2 0 1 1
node 3 0 1 1
node 4 0 1 1
node 5 0 1 1
node 6 0 1 1
node 7 0 1 1
node 8 0 1 1
node 9 0 1 1
node 10 0 1 1
node 11 0 1 1
node 12 0 0 0
node 13 0 0 2
node 14 0 0 2
gene 1 1 12 -0.5799702214809906 false 1 -0.5799702214809906 true
gene 1 2 12 0.691568462216529 false 2 0.691568462216529 true
gene 1 3 12 0.9504949941424796 false 3 0.9504949941424796 true
gene 1 4 12 -0.14672250825468505 false 4 -0.14672250825468505 true
gene 1 5 12 -0.5386859810884096 false 5 -0.5386859810884096 true
gene 1 6 12 -0.8066751843235365 false 6 -0.8066751843235365 true
gene 1 7 12 0.36403164043775266 false 7 0.36403164043775266 true
gene 1 8 12 0.6096744809643526 false 8 0.6096744809643526 true
gene 1 9 12 0.2960585441798044 false 9 0.2960585441798044 true
gene 1 10 12 0.5080133879685998 false 10 0.5080133879685998 true
gene 1 11 12 -0.03797646377850379 false 11 -0.03797646377850379 true
gene 1 12 13 0.11375325979602326 false 12 0.11375325979602326 true
gene 1 12 14 -0.5542683032072966 false 13 -0.5542683032072966 true
genomeend 187
/* Organism #86 Fitness: 9.107 Error: 0.836 */
genomestart 86
trait 1 0.1 0 0 0 0 0 0 0 
node 1 0 1 3
node 2 0 1 1
node 3 0 1 1
node 4 0 1 1
node 5 0 1 1
node 6 0 1 1
node 7 0 1 1
node 8 0 1 1
node 9 0 1 1
node 10 0 1 1
node 11 0 1 1
node 12 0 0 0
node 13 0 0 2
node 14 0 0 2
gene 1 1 12 0.5083845809196786 false 1 0.5083845809196786 true
gene 1 2 12 0.05226493561299133 false 2 0.05226493561299133 true
gene 1 3 12 0.9978754273764077 false 3 0.9978754273764077 true
gene 1 4 12 -0.41028592573474293 false 4 -0.41028592573474293 true
gene 1 5 12 -0.26842924453190764 false 5 -0.26842924453190764 true
gene 1 6 12 -0.7162228705092397 false 6 -0.7162228705092397 true
gene 1 7 12 0.304118696833738 false 7 0.304118696833738 true
gene 1 8 12 0.6767138024978449 false 8 0.6767138024978449 true
gene 1 9 12 0.6573971686108283 false 9 0.6573971686108283 true
gene 1 10 12 0.35068424153674266 false 10 0.35068424153674266 true
gene 1 11 12 -0.9655197314301349 false 11 -0.9655197314301349 true
gene 1 12 13 0.6609124680526892 false 12 0.6609124680526892 true
gene 1 12 14 0.0034647143689392574 false 13 0.0034647143689392574 true
genomeend 86
/* Organism #97 Fitness: 9.101 Error: 0.840 */
genomestart 97
trait 1 0.1 0 0 0 0 0 0 0 
node 1 0 1 3
node 2 0 1 1
node 3 0 1 1
node 4 0 1 1
node 5 0 1 1
node 6 0 1 1
node 7 0 1 1
node 8 0 1 1
node 9 0 1 1
node 10 0 1 1
node 11 0 1 1
node 12 0 0 0
node 13 0 0 2
node 14 0 0 2
gene 1 1 12 -0.776769824572604 false 1 -0.776769824572604 true
gene 1 2 12 -0.45545740819605807 false 2 -0.45545740819605807 true
gene 1 3 12 -0.14075941228822594 false 3 -0.14075941228822594 true
gene 1 4 12 0.3533575717877832 false 4 0.3533575717877832 true
gene 1 5 12 0.8486718769283347 false 5 0.8486718769283347 true
gene 1 6 12 -0.04898575223981334 false 6 -0.04898575223981334 true
gene 1 7 12 0.11382711187622689 false 7 0.11382711187622689 true
gene 1 8 12 -0.7390961288063488 false 8 -0.7390961288063488 true
gene 1 9 12 -0.13489728861665443 false 9 -0.13489728861665443 true
gene 1 10 12 -0.8216719230262842 false 10 -0.8216719230262842 true
gene 1 11 12 -0.16549411585183954 false 11 -0.16549411585183954 true
gene 1 12 13 0.9697618049940705 false 12 0.9697618049940705 true
gene 1 12 14 0.4896241606703102 false 13 0.4896241606703102 true
genomeend 97
/* Organism #21 Fitness: 8.697 Error: 0.990 */
genomestart 21
trait 1 0.1 0 0 0 0 0 0 0 
node 1 0 1 3
node 2 0 1 1
node 3 0 1 1
node 4 0 1 1
node 5 0 1 1
node 6 0 1 1
node 7 0 1 1
node 8 0 1 1
node 9 0 1 1
node 10 0 1 1
node 11 0 1 1
node 12 0 0 0
node 13 0 0 2
node 14 0 0 2
gene 1 1 12 0 false 1 0 true
gene 1 2 12 0.7739768578486127 false 2 0.7739768578486127 true
gene 1 3 12 0.6809350327170518 false 3 0.6809350327170518 true
gene 1 4 12 0.5177087023236656 false 4 0.5177087023236656 true
gene 1 5 12 -0.8088240427627926 false 5 -0.8088240427627926 true
gene 1 6 12 -0.582940143707633 false 6 -0.582940143707633 true
gene 1 7 12 -0.20849456188766122 false 7 -0.20849456188766122 true
gene 1 8 12 -0.4113239985929267 false 8 -0.4113239985929267 true
gene 1 9 12 0.5485708294316121 false 9 0.5485708294316121 true
gene 1 10 12 0.45828926890253774 false 10 0.45828926890253774 true
gene 1 11 12 0.4390401870365745 false 11 0.4390401870365745 true
gene 1 12 13 -0.4919961646977384 false 12 -0.4919961646977384 true
gene 1 12 14 0.2759710439441198 false 13 0.2759710439441198 true
genomeend 21
/* Organism #127 Fitness: 8.256 Error: 0.990 */
genomestart 127
trait 1 0.1 0 0 0 0 0 0 0 
node 1 0 1 3
node 2 0 1 1
node 3 0 1 1
node 4 0 1 1
node 5 0 1 1
node 6 0 1 1
node 7 0 1 1
node 8 0 1 1
node 9 0 1 1
node 10 0 1 1
node 11 0 1 1
node 12 0 0 0
node 13 0 0 2
node 14 0 0 2
gene 1 1 12 0.0009622447029221692 false 1 0.0009622447029221692 true
gene 1 2 12 -0.17486617348104908 false 2 -0.17486617348104908 true
gene 1 3 12 -0.08833491140424414 false 3 -0.08833491140424414 true
gene 1 4 12 0.40173799054947607 false 4 0.40173799054947607 true
gene 1 5 12 0.30967990579684895 false 5 0.30967990579684895 true
gene 1 6 12 -0.19331123457212937 false 6 -0.19331123457212937 true
gene 1 7 12 0.7780357771107574 false 7 0.7780357771107574 true
gene 1 8 12 0.2006071274500217 false 8 0.2006071274500217 true
gene 1 9 12 -0.3452589393531089 false 9 -0.3452589393531089 true
gene 1 10 12 0.29362952098869277 false 10 0.29362952098869277 true
gene 1 11 12 -0.32293240718981026 false 11 -0.32293240718981026 true
gene 1 12 13 0.09557145835347079 false 12 0.09557145835347079 true
gene 1 12 14 -0.2705149232231617 false 13 -0.2705149232231617 true
genomeend 127
/* Organism #24 Fitness: 7.085 Error: 0.881 */
genomestart 24
trait 1 0.1 0 0 0 0 0 0 0 
node 1 0 1 3
node 2 0 1 1
node 3 0 1 1
node 4 0 1 1
node 5 0 1 1
node 6 0 1 1
node 7 0 1 1
node 8 0 1 1
node 9 0 1 1
node 10 0 1 1
node 11 0 1 1
node 12 0 0 0
node 13 0 0 2
node 14 0 0 2
gene 1 1 12 -0.1417805595650294 false 1 -0.1417805595650294 true
gene 1 2 12 -0.34778372810594405 false 2 -0.34778372810594405 true
gene 1 3 12 -0.7926744824612871 false 3 -0.7926744824612871 true
gene 1 4 12 0.1624589133418243 false 4 0.1624589133418243 true
gene 1 5 12 -0.7279240349033814 false 5 -0.7279240349033814 true
gene 1 6 12 0.07706323963316696 false 6 0.07706323963316696 true
gene 1 7 12 -0.2570852433761078 false 7 -0.2570852433761078 true
gene 1 8 12 0.38133437280466964 false 8 0.38133437280466964 true
gene 1 9 12 -0.27227325043975803 false 9 -0.27227325043975803 true
gene 1 10 12 0.3544863999171552 false 10 0.3544863999171552 true
gene 1 11 12 -0.25605324557708603 false 11 -0.25605324557708603 true
gene 1 12 13 0 false 12 0 true
gene 1 12 14 0.05085041056203729 false 13 0.05085041056203729 true
genomeend 24
/* Organism #206 Fitness: 6.174 Error: 0.990 */
genomestart 206
trait 1 0.1 0 0 0 0 0 0 0 
node 1 0 1 3
node 2 0 1 1
node 3 0 1 1
node 4 0 1 1
node 5 0 1 1
node 6 0 1 1
node 7 0 1 1
node 8 0 1 1
node 9 0 1 1
node 10 0 1 1
node 11 0 1 1
node 12 0 0 0
node 13 0 0 2
node 14 0 0 2
gene 1 1 12 0 false 1 0 true
gene 1 2 12 0.16269359909860745 false 2 0.16269359909860745 true
gene 1 3 12 -0.8635153469238945 false 3 -0.8635153469238945 true
gene 1 4 12 0 false 4 0 true
gene 1 5 12 0.7481839930852032 false 5 0.7481839930852032 true
gene 1 6 12 -0.8715771695326344 false 6 -0.8715771695326344 true
gene 1 7 12 0.04789160275168355 false 7 0.04789160275168355 true
gene 1 8 12 0 false 8 0 true
gene 1 9 12 -0.3569353883293096 false 9 -0.3569353883293096 true
gene 1 10 12 -0.46149734484385807 false 10 -0.46149734484385807 true
gene 1 11 12 0.9762987309525365 false 11 0.9762987309525365 true
gene 1 12 13 -0.4301734929509054 false 12 -0.4301734929509054 true
gene 1 12 14 -0.7588190838949102 false 13 -0.7588190838949102 true
genomeend 206
/* Organism #26 Fitness: 5.853 Error: 0.974 */
genomestart 26
trait 1 0.1 0 0 0 0 0 0 0 
node 1 0 1 3
node 2 0 1 1
node 3 0 1 1
node 4 0 1 1
node 5 0 1 1
node 6 0 1 1
node 7 0 1 1
node 8 0 1 1
node 9 0 1 1
node 10 0 1 1
node 11 0 1 1
node 12 0 0 0
node 13 0 0 2
node 14 0 0 2
gene 1 1 12 0.19550711481190075 false 1 0.19550711481190075 true
gene 1 2 12 0.4230153265494869 false 2 0.4230153265494869 true
gene 1 3 12 0.6971745796715523 false 3 0.6971745796715523 true
gene 1 4 12 -0.8111697763762687 false 4 -0.8111697763762687 true
gene 1 5 12 0.9535751505077555 false 5 0.9535751505077555 true
gene 1 6 12 0 false 6 0 true
gene 1 7 12 0.08360051383985502 false 7 0.08360051383985502 true
gene 1 8 12 -0.950357142084486 false 8 -0.950357142084486 true
gene 1 9 12 -0.696291981747174 false 9 -0.696291981747174 true
gene 1 10 12 -0.7094499995203408 false 10 -0.7094499995203408 true
gene 1 11 12 0 false 11 0 true
gene 1 12 13 -0.00710228427108612 false 12 -0.00710228427108612 true
gene 1 12 14 -0.6604524249019569 false 13 -0.6604524249019569 true
genomeend 26
/* Organism #168 Fitness: 5.852 Error: 0.990 */
genomestart 168
trait 1 0.1 0 0 0 0 0 0 0 
node 1 0 1 3
node 2 0 1 1
node 3 0 1 1
node 4 0 1 1
node 5 0 1 1
node 6 0 1 1
node 7 0 1 1
node 8 0 1 1
node 9 0 1 1
node 10 0 1 1
node 11 0 1 1
node 12 0 0 0
node 13 0 0 2
node 14 0 0 2
gene 1 1 12 -0.6915786826099588 false 1 -0.6915786826099588 true
gene 1 2 12 0.7841318125628203 false 2 0.7841318125628203 true
gene 1 3 12 0.8938382580128336 false 3 0.8938382580128336 true
gene 1 4 12 -0.1563249027364708 false 4 -0.1563249027364708 true
gene 1 5 12 -0.2343206047445993 false 5 -0.2343206047445993 true
gene 1 6 12 0.8626002874866754 false 6 0.8626002874866754 true
gene 1 7 12 -0.33800199142786097 false 7 -0.33800199142786097 true
gene 1 8 12 -0.09396181274248336 false 8 -0.09396181274248336 true
gene 1 9 12 -0.5731399588383461 false 9 -0.5731399588383461 true
gene 1 10 12 0.08379702105351192 false 10 0.08379702105351192 true
gene 1 11 12 0.33907842196496507 false 11 0.33907842196496507 true
gene 1 12 13 -0.33273364421881535 false 12 -0.33273364421881535 true
gene 1 12 14 -0.8433330286749846 false 13 -0.8433330286749846 true
genomeend 168
/* Organism #172 Fitness: 5.245 Error: 0.990 */
genomestart 172
trait 1 0.1 0 0 0 0 0 0 0 
node 1 0 1 3
node 2 0 1 1
node 3 0 1 1
node 4 0 1 1
node 5 0 1 1
node 6 0 1 1
node 7 0 1 1
node 8 0 1 1
node 9 0 1 1
node 10 0 1 1
node 11 0 1 1
node 12 0 0 0
node 13 0 0 2
node 14 0 0 2
gene 1 1 12 0.7058176510844714 false 1 0.7058176510844714 true
gene 1 2 12 0.6763415861247463 false 2 0.6763415861247463 true
gene 1 3 12 -0.03226257697647968 false 3 -0.03226257697647968 true
gene 1 4 12 0.714496535664701 false 4 0.714496535664701 true
gene 1 5 12 -0.6283097347227518 false 5 -0.6283097347227518 true
gene 1 6 12 0.8480060980955508 false 6 0.8480060980955508 true
gene 1 7 12 -0.2959811227280589 false 7 -0.2959811227280589 true
gene 1 8 12 -0.6142815803807918 false 8 -0.6142815803807918 true
gene 1 9 12 0.30946517384927547 false 9 0.30946517384927547 true
gene 1 10 12 0.931824758637833 false 10 0.931824758637833 true
gene 1 11 12 -0.14061964203603003 false 11 -0.14061964203603003 true
gene 1 12 13 0.4025910310281291 false 12 0.4025910310281291 true
gene 1 12 14 -0.4462834558044344 false 13 -0.4462834558044344 true
genomeend 172
/* Organism #91 Fitness: 5.089 Error: 0.809 */
genomestart 91
trait 1 0.1 0 0 0 0 0 0 0 
node 1 0 1 3
node 2 0 1 1
node 3 0 1 1
node 4 0 1 1
node 5 0 1 1
node 6 0 1 1
node 7 0 1 1
node 8 0 1 1
node 9 0 1 1
node 10 0 1 1
node 11 0 1 1
node 12 0 0 0
node 13 0 0 2
node 14 0 0 2
gene 1 1 12 0.5392411528483366 false 1 0.5392411528483366 true
gene 1 2 12 0.6450792952004867 false 2 0.6450792952004867 true
gene 1 3 12 0.21833317815347897 false 3 0.21833317815347897 true
gene 1 4 12 0.3463140155407322 false 4 0.3463140155407322 true
gene 1 5 12 -0.7371536519567606 false 5 -0.7371536519567606 true
gene 1 6 12 -0.27357527601057113 false 6 -0.27357527601057113 true
gene 1 7 12 -0.5159205918233818 false 7 -0.5159205918233818 true
gene 1 8 12 0.4913046956642656 false 8 0.4913046956642656 true
gene 1 9 12 -0.35158092775993643 false 9 -0.35158092775993643 true
gene 1 10 12 -0.24112041314847804 false 10 -0.24112041314847804 true
gene 1 11 12 -0.4517723369921262 false 11 -0.4517723369921262 true
gene 1 12 13 -0.2122485292126244 false 12 -0.2122485292126244 true
gene 1 12 14 -0.10731252891156615 false 13 -0.10731252891156615 true
genomeend 91
/* Organism #8 Fitness: 5.063 Error: 0.786 */
genomestart 8
trait 1 0.1 0 0 0 0 0 0 0 
node 1 0 1 3
node 2 0 1 1
node 3 0 1 1
node 4 0 1 1
node 5 0 1 1
node 6 0 1 1
node 7 0 1 1
node 8 0 1 1
node 9 0 1 1
node 10 0 1 1
node 11 0 1 1
node 12 0 0 0
node 13 0 0 2
node 14 0 0 2
gene 1 1 12 0 false 1 0 true
gene 1 2 12 -0.5873718679629888 false 2 -0.5873718679629888 true
gene 1 3 12 0.5149706967371501 false 3 0.5149706967371501 true
gene 1 4 12 -0.38322293375552624 false 4 -0.38322293375552624 true
gene 1 5 12 0.6253629623070095 false 5 0.6253629623070095 true
gene 1 6 12 -0.40885985377480216 false 6 -0.40885985377480216 true
gene 1 7 12 -0.20063714410291109 false 7 -0.20063714410291109 true
gene 1 8 12 0.7538692717409824 false 8 0.7538692717409824 true
gene 1 9 12 -0.2992945377121831 false 9 -0.2992945377121831 true
gene 1 10 12 0 false 10 0 true
gene 1 11 12 0.9637260336002063 false 11 0.9637260336002063 true
gene 1 12 13 -0.3990741327518113 false 12 -0.3990741327518113 true
gene 1 12 14 0.7165535060966707 false 13 0.7165535060966707 true
genomeend 8
/* Organism #176 Fitness: 4.944 Error: 0.990 */
genomestart 176
trait 1 0.1 0 0 0 0 0 0 0 
node 1 0 1 3
node 2 0 1 1
node 3 0 1 1
node 4 0 1 1
node 5 0 1 1
node 6 0 1 1
node 7 0 1 1
node 8 0 1 1
node 9 0 1 1
node 10 0 1 1
node 11 0 1 1
node 12 0 0 0
node 13 0 0 2
node 14 0 0 2
gene 1 1 12 0.2868374054463936 false 1 0.2868374054463936 true
gene 1 2 12 0.36451966812337944 false 2 0.36451966812337944 true
gene 1 3 12 0.863614492287929 false 3 0.863614492287929 true
gene 1 4 12 0.9137372857044358 false 4 0.9137372857044358 true
gene 1 5 12 -0.9662669931220703 false 5 -0.9662669931220703 true
gene 1 6 12 -0.9777095282646806 false 6 -0.9777095282646806 true
gene 1 7 12 0.3528322261570487 false 7 0.3528322261570487 true
gene 1 8 12 -0.4749066758331936 false 8 -0.4749066758331936 true
gene 1 9 12 0.08347279616267211 false 9 0.08347279616267211 true
gene 1 10 12 -0.8925713629868667 false 10 -0.8925713629868667 true
gene 1 11 12 -0.10396596235464022 false 11 -0.10396596235464022 true
gene 1 12 13 0.5763908995434469 false 12 0.5763908995434469 true
gene 1 12 14 -0.3035972466499488 false 13 -0.3035972466499488 true
genomeend 176
/* Organism #142 Fitness: 4.938 Error: 0.829 */
genomestart 142
trait 1 0.1 0 0 0 0 0 0 0 
node 1 0 1 3
node 2 0 1 1
node 3 0 1 1
node 4 0 1 1
node 5 0 1 1
node 6 0 1 1
node 7 0 1 1
node 8 0 1 1
node 9 0 1 1
node 10 0 1 1
node 11 0 1 1
node 12 0 0 0
node 13 0 0 2
node 14 0 0 2
gene 1 1 12 -0.39049520239291563 false 1 -0.39049520239291563 true
gene 1 2 12 0.2508000226008938 false 2 0.2508000226008938 true
gene 1 3 12 0.4536823302861174 false 3 0.4536823302861174 true
gene 1 4 12 0.5884972929253196 false 4 0.5884972929253196 true
gene 1 5 12 -0.5500160706617047 false 5 -0.5500160706617047 true
gene 1 6 12 -0.824496145514926 false 6 -0.824496145514926 true
gene 1 7 12 -0.4237406126192264 false 7 -0.4237406126192264 true
gene 1 8 12 -0.10554235579083655 false 8 -0.10554235579083655 true
gene 1 9 12 -0.7759491659830545 false 9 -0.7759491659830545 true
gene 1 10 12 0.040229693222502735 false 10 0.040229693222502735 true
gene 1 11 12 0.8721829083952879 false 11 0.8721829083952879 true
gene 1 12 13 -0.3822382727248588 false 12 -0.3822382727248588 true
gene 1 12 14 0.9680258073808782 false 13 0.9680258073808782 true
genomeend 142
/* Organism #133 Fitness: 4.928 Error: 0.990 */
genomestart 133
trait 1 0.1 0 0 0 0 0 0 0 
node 1 0 1 3
node 2 0 1 1
node 3 0 1 1
node 4 0 1 1
node 5 0 1 1
node 6 0 1 1
node 7 0 1 1
node 8 0 1 1
node 9 0 1 1
node 10 0 1 1
node 11 0 1 1
node 12 0 0 0
node 13 0 0 2
node 14 0 0 2
gene 1 1 12 0.19543132327640184 false 1 0.19543132327640184 true
gene 1 2 12 -0.9523533275643905 false 2 -0.9523533275643905 true
gene 1 3 12 0.22130359135304078 false 3 0.22130359135304078 true
gene 1 4 12 0.8797181094879165 false 4 0.8797181094879165 true
gene 1 5 12 -0.8466120817533832 false 5 -0.8466120817533832 true
gene 1 6 12 -0.3768375025859849 false 6 -0.3768375025859849 true
gene 1 7 12 0.038570922787650945 false 7 0.038570922787650945 true
gene 1 8 12 0.40523530879323766 false 8 0.40523530879323766 true
gene 1 9 12 -0.7187576425520733 false 9 -0.7187576425520733 true
gene 1 10 12 0.18577652708948408 false 10 0.18577652708948408 true
gene 1 11 12 0.6253564501857223 false 11 0.6253564501857223 true
gene 1 12 13 0.11042874144901602 false 12 0.11042874144901602 true
gene 1 12 14 0.4366402649733164 false 13 0.4366402649733164 true
genomeend 133
/* Organism #92 Fitness: 4.590 Error: 0.990 */
genomestart 92
trait 1 0.1 0 0 0 0 0 0 0 
node 1 0 1 3
node 2 0 1 1
node 3 0 1 1
node 4 0 1 1
node 5 0 1 1
node 6 0 1 1
node 7 0 1 1
node 8 0 1 1
node 9 0 1 1
node 10 0 1 1
node 11 0 1 1
node 12 0 0 0
node 13 0 0 2
node 14 0 0 2
gene 1 1 12 -0.8558746533046966 false 1 -0.8558746533046966 true
gene 1 2 12 0.8837649433533336 false 2 0.8837649433533336 true
gene 1 3 12 0.24364510029966233 false 3 0.24364510029966233 true
gene 1 4 12 0.04688429645194826 false 4 0.04688429645194826 true
gene 1 5 12 0.589665951034623 false 5 0.589665951034623 true
gene 1 6 12 0 false 6 0 true
gene 1 7 12 -0.7739908979209487 false 7 -0.7739908979209487 true
gene 1 8 12 0.5418187247377977 false 8 0.5418187247377977 true
gene 1 9 12 -0.58139696716171 false 9 -0.58139696716171 true
gene 1 10 12 -0.6186393259059044 false 10 -0.6186393259059044 true
gene 1 11 12 -0.014236398030237716 false 11 -0.014236398030237716 true
gene 1 12 13 0.12040468967595885 false 12 0.12040468967595885 true
gene 1 12 14 -0.7940670264400905 false 13 -0.7940670264400905 true
genomeend 92
/* Organism #43 Fitness: 4.587 Error: 0.990 */
genomestart 43
trait 1 0.1 0 0 0 0 0 0 0 
node 1 0 1 3
node 2 0 1 1
node 3 0 1 1
node 4 0 1 1
node 5 0 1 1
node 6 0 1 1
node 7 0 1 1
node 8 0 1 1
node 9 0 1 1
node 10 0 1 1
node 11 0 1 1
node 12 0 0 0
node 13 0 0 2
node 14 0 0 2
gene 1 1 12 -0.002751228784110209 false 1 -0.002751228784110209 true
gene 1 2 12 0.27876240065698366 false 2 0.27876240065698366 true
gene 1 3 12 -0.2576077922604563 false 3 -0.2576077922604563 true
gene 1 4 12 0.17194497045386764 false 4 0.17194497045386764 true
gene 1 5 12 0.6241312087797626 false 5 0.6241312087797626 true
gene 1 6 12 0.8756033460046837 false 6 0.8756033460046837 true
gene 1 7 12 0 false 7 0 true
gene 1 8 12 -0.26336460672593204 false 8 -0.26336460672593204 true
gene 1 9 12 0.7633284981901415 false 9 0.7633284981901415 true
gene 1 10 12 0 false 10 0 true
gene 1 11 12 0.04808631801291012 false 11 0.04808631801291012 true
gene 1 12 13 -0.13953911713069136 false 12 -0.13953911713069136 true
gene 1 12 14 -0.9920609147301125 false 13 -0.9920609147301125 true
genomeend 43
/* Organism #90 Fitness: 4.456 Error: 0.990 */
genomestart 90
trait 1 0.1 0 0 0 0 0 0 0 
node 1 0 1 3
node 2 0 1 1
node 3 0 1 1
node 4 0 1 1
node 5 0 1 1
node 6 0 1 1
node 7 0 1 1
node 8 0 1 1
node 9 0 1 1
node 10 0 1 1
node 11 0 1 1
node 12 0 0 0
node 13 0 0 2
node 14 0 0 2
gene 1 1 12 0.4311456451327875 false 1 0.4311456451327875 true
gene 1 2 12 -0.9427447855142872 false 2 -0.9427447855142872 true
gene 1 3 12 -0.31573944094680145 false 3 -0.31573944094680145 true
gene 1 4 12 -0.11421369195549146 false 4 -0.11421369195549146 true
gene 1 5 12 -0.8965383278464961 false 5 -0.8965383278464961 true
gene 1 6 12 0.9863914709177567 false 6 0.9863914709177567 true
gene 1 7 12 -0.6893900929400552 false 7 -0.6893900929400552 true
gene 1 8 12 -0.176867645288765 false 8 -0.176867645288765 true
gene 1 9 12 0.9059645959365281 false 9 0.9059645959365281 true
gene 1 10 12 -0.9356639167400794 false 10 -0.9356639167400794 true
gene 1 11 12 0.7458544166424594 false 11 0.7458544166424594 true
gene 1 12 13 0.8016021906753206 false 12 0.8016021906753206 true
gene 1 12 14 -0.019449768239463035 false 13 -0.019449768239463035 true
genomeend 90
/* Organism #215 Fitness: 4.324 Error: 0.801 */
genomestart 215
trait 1 0.1 0 0 0 0 0 0 0 
node 1 0 1 3
node 2 0 1 1
node 3 0 1 1
node 4 0 1 1
node 5 0 1 1
node 6 0 1 1
node 7 0 1 1
node 8 0 1 1
node 9 0 1 1
node 10 0 1 1
node 11 0 1 1
node 12 0 0 0
node 13 0 0 2
node 14 0 0 2
gene 1 1 12 -0.8804215062082477 false 1 -0.8804215062082477 true
gene 1 2 12 0.22295111543667706 false 2 0.22295111543667706 true
gene 1 3 12 0 false 3 0 true
gene 1 4 12 0.8128151367974291 false 4 0.8128151367974291 true
gene 1 5 12 -0.08546747007397715 false 5 -0.08546747007397715 true
gene 1 6 12 -0.16016923144788955 false 6 -0.16016923144788955 true
gene 1 7 12 0.16552876955959525 false 7 0.16552876955959525 true
gene 1 8 12 -0.03753613310311539 false 8 -0.03753613310311539 true
gene 1 9 12 0.4529805251858471 false 9 0.4529805251858471 true
gene 1 10 12 -0.04652930254157417 false 10 -0.04652930254157417 true
gene 1 11 12 -0.3970116775457367 false 11 -0.3970116775457367 true
gene 1 12 13 -0.23436835372245898 false 12 -0.23436835372245898 true
gene 1 12 14 -0.6456622652863454 false 13 -0.6456622652863454 true
genomeend 215
/* Organism #185 Fitness: 4.283 Error: 0.990 */
genomestart 185
trait 1 0.1 0 0 0 0 0 0 0 
node 1 0 1 3
node 2 0 1 1
node 3 0 1 1
node 4 0 1 1
node 5 0 1 1
node 6 0 1 1
node 7 0 1 1
node 8 0 1 1
node 9 0 1 1
node 10 0 1 1
node 11 0 1 1
node 12 0 0 0
node 13 0 0 2
node 14 0 0 2
gene 1 1 12 -0.7987313820615775 false 1 -0.7987313820615775 true
gene 1 2 12 -0.24061689772497777 false 2 -0.24061689772497777 true
gene 1 3 12 0.27549679326378723 false 3 0.27549679326378723 true
gene 1 4 12 0 false 4 0 true
gene 1 5 12 0.8812383143194912 false 5 0.8812383143194912 true
gene 1 6 12 0.44787105447245273 false 6 0.44787105447245273 true
gene 1 7 12 0.15042053585795695 false 7 0.15042053585795695 true
gene 1 8 12 -0.1302836296684612 false 8 -0.1302836296684612 true
gene 1 9 12 -0.8668657979650148 false 9 -0.8668657979650148 true
gene 1 10 12 0.9642472463885007 false 10 0.9642472463885007 true
gene 1 11 12 -0.7240309383701512 false 11 -0.7240309383701512 true
gene 1 12 13 0.5501449538531639 false 12 0.5501449538531639 true
gene 1 12 14 -0.015239162544396598 false 13 -0.015239162544396598 true
genomeend 185
/* Organism #39 Fitness: 4.245 Error: 0.990 */
genomestart 39
trait 1 0.1 0 0 0 0 0 0 0 
node 1 0 1 3
node 2 0 1 1
node 3 0 1 1
node 4 0 1 1
node 5 0 1 1
node 6 0 1 1
node 7 0 1 1
node 8 0 1 1
node 9 0 1 1
node 10 0 1 1
node 11 0 1 1
node 12 0 0 0
node 13 0 0 2
node 14 0 0 2
gene 1 1 12 -0.7940160227894234 false 1 -0.7940160227894234 true
gene 1 2 12 -0.9789693151400491 false 2 -0.9789693151400491 true
gene 1 3 12 -0.11825829580619054 false 3 -0.11825829580619054 true
gene 1 4 12 0.8924950682598587 false 4 0.8924950682598587 true
gene 1 5 12 0.770976111427729 false 5 0.770976111427729 true
gene 1 6 12 0.8579739853827605 false 6 0.8579739853827605 true
gene 1 7 12 -0.8880944522939171 false 7 -0.8880944522939171 true
gene 1 8 12 0.4309781065969196 false 8 0.4309781065969196 true
gene 1 9 12 -0.43659817001230583 false 9 -0.43659817001230583 true
gene 1 10 12 0.08568977147358725 false 10 0.08568977147358725 true
gene 1 11 12 -0.5008947014794306 false 11 -0.5008947014794306 true
gene 1 12 13 -0.1561352375169216 false 12 -0.1561352375169216 true
gene 1 12 14 -0.5313635538140039 false 13 -0.5313635538140039 true
genomeend 39
/* Organism #30 Fitness: 4.229 Error: 0.990 */
genomestart 30
trait 1 0.1 0 0 0 0 0 0 0 
node 1 0 1 3
node 2 0 1 1
node 3 0 1 1
node 4 0 1 1
node 5 0 1 1
node 6 0 1 1
node 7 0 1 1
node 8 0 1 1
node 9 0 1 1
node 10 0 1 1
node 11 0 1 1
node 12 0 0 0
node 13 0 0 2
node 14 0 0 2
gene 1 1 12 -0.4919774167513415 false 1 -0.4919774167513415 true
gene 1 2 12 -0.011655630083266068 false 2 -0.011655630083266068 true
gene 1 3 12 0.4133427476116116 false 3 0.4133427476116116 true
gene 1 4 12 0.3868320791234819 false 4 0.3868320791234819 true
gene 1 5 12 -0.7487982762798374 false 5 -0.7487982762798374 true
gene 1 6 12 -0.9612775703276262 false 6 -0.9612775703276262 true
gene 1 7 12 0.25909232336283955 false 7 0.25909232336283955 true
gene 1 8 12 0.2857949778644552 false 8 0.2857949778644552 true
gene 1 9 12 -0.33026184974968575 false 9 -0.33026184974968575 true
gene 1 10 12 0.889108899635231 false 10 0.889108899635231 true
gene 1 11 12 -0.5373153902899185 false 11 -0.5373153902899185 true
gene 1 12 13 0.7199982731482159 false 12 0.7199982731482159 true
gene 1 12 14 -0.28849513775669006 false 13 -0.28849513775669006 true
genomeend 30
/* Organism #202 Fitness: 4.050 Error: 0.990 */
genomestart 202
trait 1 0.1 0 0 0 0 0 0 0 
node 1 0 1 3
node 2 0 1 1
node 3 0 1 1
node 4 0 1 1
node 5 0 1 1
node 6 0 1 1
node 7 0 1 1
node 8 0 1 1
node 9 0 1 1
node 10 0 1 1
node 11 0 1 1
node 12 0 0 0
node 13 0 0 2
node 14 0 0 2
gene 1 1 12 0.5234295685334849 false 1 0.5234295685334849 true
gene 1 2 12 -0.3370276171718869 false 2 -0.3370276171718869 true
gene 1 3 12 -0.011730758507876646 false 3 -0.011730758507876646 true
gene 1 4 12 0.3515484573645504 false 4 0.3515484573645504 true
gene 1 5 12 0.8089273907723113 false 5 0.8089273907723113 true
gene 1 6 12 0.7438070924659932 false 6 0.7438070924659932 true
gene 1 7 12 0.04667919014324963 false 7 0.04667919014324963 true
gene 1 8 12 -0.9145381605518251 false 8 -0.9145381605518251 true
gene 1 9 12 0.6116773456526879 false 9 0.6116773456526879 true
gene 1 10 12 0.5839685718625459 false 10 0.5839685718625459 true
gene 1 11 12 0.9103412514216782 false 11 0.9103412514216782 true
gene 1 12 13 -0.932384127038359 false 12 -0.932384127038359 true
gene 1 12 14 -0.687155516708194 false 13 -0.687155516708194 true
genomeend 202
/* Organism #165 Fitness: 4.018 Error: 0.992 */
genomestart 165
trait 1 0.1 0 0 0 0 0 0 0 
node 1 0 1 3
node 2 0 1 1
node 3 0 1 1
node 4 0 1 1
node 5 0 1 1
node 6 0 1 1
node 7 0 1 1
node 8 0 1 1
node 9 0 1 1
node 10 0 1 1
node 11 0 1 1
node 12 0 0 0
node 13 0 0 2
node 14 0 0 2
gene 1 1 12 -0.286906633998974 false 1 -0.286906633998974 true
gene 1 2 12 0.40199329823115537 false 2 0.40199329823115537 true
gene 1 3 12 -0.7030014400117243 false 3 -0.7030014400117243 true
gene 1 4 12 0.08590575763857164 false 4 0.08590575763857164 true
gene 1 5 12 0.4098820858872069 false 5 0.4098820858872069 true
gene 1 6 12 -0.0416516091708397 false 6 -0.0416516091708397 true
gene 1 7 12 -0.679184406195589 false 7 -0.679184406195589 true
gene 1 8 12 0.7443415483262162 false 8 0.7443415483262162 true
gene 1 9 12 0.20800378376329928 false 9 0.20800378376329928 true
gene 1 10 12 0.5912845145050646 false 10 0.5912845145050646 true
gene 1 11 12 0.38365441249619797 false 11 0.38365441249619797 true
gene 1 12 13 -0.11012360833783714 false 12 -0.11012360833783714 true
gene 1 12 14 -0.056532080350648994 false 13 -0.056532080350648994 true
genomeend 165
/* Organism #247 Fitness: 3.907 Error: 0.990 */
genomestart 247
trait 1 0.1 0 0 0 0 0 0 0 
node 1 0 1 3
node 2 0 1 1
node 3 0 1 1
node 4 0 1 1
node 5 0 1 1
node 6 0 1 1
node 7 0 1 1
node 8 0 1 1
node 9 0 1 1
node 10 0 1 1
node 11 0 1 1
node 12 0 0 0
node 13 0 0 2
node 14 0 0 2
gene 1 1 12 0.8548605774397584 false 1 0.8548605774397584 true
gene 1 2 12 -0.8901511139887659 false 2 -0.8901511139887659 true
gene 1 3 12 -0.5853162734710418 false 3 -0.5853162734710418 true
gene 1 4 12 0.5579485476234948 false 4 0.5579485476234948 true
gene 1 5 12 0 false 5 0 true
gene 1 6 12 -0.19753105073673694 false 6 -0.19753105073673694 true
gene 1 7 12 -0.5015282950468106 false 7 -0.5015282950468106 true
gene 1 8 12 0.5207424274290628 false 8 0.5207424274290628 true
gene 1 9 12 -0.18782850434574933 false 9 -0.18782850434574933 true
gene 1 10 12 0.28044566065380233 false 10 0.28044566065380233 true
gene 1 11 12 0 false 11 0 true
gene 1 12 13 -0.27417739365270644 false 12 -0.27417739365270644 true
gene 1 12 14 -0.7612565367169253 false 13 -0.7612565367169253 true
genomeend 247
/* Organism #198 Fitness: 3.878 Error: 0.990 */
genomestart 198
trait 1 0.1 0 0 0 0 0 0 0 
node 1 0 1 3
node 2 0 1 1
node 3 0 1 1
node 4 0 1 1
node 5 0 1 1
node 6 0 1 1
node 7 0 1 1
node 8 0 1 1
node 9 0 1 1
node 10 0 1 1
node 11 0 1 1
node 12 0 0 0
node 13 0 0 2
node 14 0 0 2
gene 1 1 12 0.7482289083623117 false 1 0.7482289083623117 true
gene 1 2 12 0.4509585637838402 false 2 0.4509585637838402 true
gene 1 3 12 0 false 3 0 true
gene 1 4 12 -0.8861546013590115 false 4 -0.8861546013590115 true
gene 1 5 12 0.060508721481520686 false 5 0.060508721481520686 true
gene 1 6 12 -0.33377710355425544 false 6 -0.33377710355425544 true
gene 1 7 12 -0.1865310352177058 false 7 -0.1865310352177058 true
gene 1 8 12 -0.7136553600833903 false 8 -0.7136553600833903 true
gene 1 9 12 0.04840264409897973 false 9 0.04840264409897973 true
gene 1 10 12 0.07543691598532529 false 10 0.07543691598532529 true
gene 1 11 12 -0.9071957828466862 false 11 -0.9071957828466862 true
gene 1 12 13 0.927294338929222 false 12 0.927294338929222 true
gene 1 12 14 -0.7996147778939864 false 13 -0.7996147778939864 true
genomeend 198
/* Organism #152 Fitness: 3.860 Error: 0.990 */
genomestart 152
trait 1 0.1 0 0 0 0 0 0 0 
node 1 0 1 3
node 2 0 1 1
node 3 0 1 1
node 4 0 1 1
node 5 0 1 1
node 6 0 1 1
node 7 0 1 1
node 8 0 1 1
node 9 0 1 1
node 10 0 1 1
node 11 0 1 1
node 12 0 0 0
node 13 0 0 2
node 14 0 0 2
gene 1 1 12 0 false 1 0 true
gene 1 2 12 -0.08355605148117894 false 2 -0.08355605148117894 true
gene 1 3 12 0.3037520927384965 false 3 0.3037520927384965 true
gene 1 4 12 0.18163916459111776 false 4 0.18163916459111776 true
gene 1 5 12 0.04280121432820705 false 5 0.04280121432820705 true
gene 1 6 12 -0.35010919084682846 false 6 -0.35010919084682846 true
gene 1 7 12 0.04383650930971511 false 7 0.04383650930971511 true
gene 1 8 12 0.06607862862147187 false 8 0.06607862862147187 true
gene 1 9 12 0.5712285759558439 false 9 0.5712285759558439 true
gene 1 10 12 0 false 10 0 true
gene 1 11 12 0 false 11 0 true
gene 1 12 13 -0.32633084704591514 false 12 -0.32633084704591514 true
gene 1 12 14 -0.5067484658418844 false 13 -0.5067484658418844 true
genomeend 152
/* Organism #121 Fitness: 3.728 Error: 0.990 */
genomestart 121
trait 1 0.1 0 0 0 0 0 0 0 
node 1 0 1 3
node 2 0 1 1
node 3 0 1 1
node 4 0 1 1
node 5 0 1 1
node 6 0 1 1
node 7 0 1 1
node 8 0 1 1
node 9 0 1 1
node 10 0 1 1
node 11 0 1 1
node 12 0 0 0
node 13 0 0 2
node 14 0 0 2
gene 1 1 12 -0.6445131088540667 false 1 -0.6445131088540667 true
gene 1 2 12 0.2184654328115581 false 2 0.2184654328115581 true
gene 1 3 12 0.7669040590987073 false 3 0.7669040590987073 true
gene 1 4 12 0.5275196912479382 false 4 0.5275196912479382 true
gene 1 5 12 -0.8068525427645988 false 5 -0.8068525427645988 true
gene 1 6 12 0.14707781227379743 false 6 0.14707781227379743 true
gene 1 7 12 -0.519527406820682 false 7 -0.519527406820682 true
gene 1 8 12 -0.17089655308001056 false 8 -0.17089655308001056 true
gene 1 9 12 -0.06079203817641062 false 9 -0.06079203817641062 true
gene 1 10 12 -0.9855532130480834 false 10 -0.9855532130480834 true
gene 1 11 12 0.34274938022331425 false 11 0.34274938022331425 true
gene 1 12 13 0.6910786314298101 false 12 0.6910786314298101 true
gene 1 12 14 -0.03098459494847216 false 13 -0.03098459494847216 true
genomeend 121
/* Organism #174 Fitness: 3.709 Error: 0.990 */
genomestart 174
trait 1 0.1 0 0 0 0 0 0 0 
node 1 0 1 3
node 2 0 1 1
node 3 0 1 1
node 4 0 1 1
node 5 0 1 1
node 6 0 1 1
node 7 0 1 1
node 8 0 1 1
node 9 0 1 1
node 10 0 1 1
node 11 0 1 1
node 12 0 0 0
node 13 0 0 2
node 14 0 0 2
gene 1 1 12 -0.2668890659818224 false 1 -0.2668890659818224 true
gene 1 2 12 -0.9961816941071119 false 2 -0.9961816941071119 true
gene 1 3 12 -0.697664834129066 false 3 -0.697664834129066 true
gene 1 4 12 -0.15199885850708664 false 4 -0.15199885850708664 true
gene 1 5 12 0.644697752282155 false 5 0.644697752282155 true
gene 1 6 12 0.37291217969800994 false 6 0.37291217969800994 true
gene 1 7 12 0.09687891414500083 false 7 0.09687891414500083 true
gene 1 8 12 -0.2895720902373909 false 8 -0.2895720902373909 true
gene 1 9 12 0.25046719864108574 false 9 0.25046719864108574 true
gene 1 10 12 0.25401458568249297 false 10 0.25401458568249297 true
gene 1 11 12 -0.769913057185601 false 11 -0.769913057185601 true
gene 1 12 13 0.9580863289269198 false 12 0.9580863289269198 true
gene 1 12 14 -0.225975536342061 false 13 -0.225975536342061 true
genomeend 174
/* Organism #100 Fitness: 3.587 Error: 0.990 */
genomestart 100
trait 1 0.1 0 0 0 0 0 0 0 
node 1 0 1 3
node 2 0 1 1
node 3 0 1 1
node 4 0 1 1
node 5 0 1 1
node 6 0 1 1
node 7 0 1 1
node 8 0 1 1
node 9 0 1 1
node 10 0 1 1
node 11 0 1 1
node 12 0 0 0
node 13 0 0 2
node 14 0 0 2
gene 1 1 12 0.7290377567970792 false 1 0.7290377567970792 true
gene 1 2 12 0.27889908090148763 false 2 0.27889908090148763 true
gene 1 3 12 -0.6980673927294956 false 3 -0.6980673927294956 true
gene 1 4 12 0 false 4 0 true
gene 1 5 12 0.4991861809397859 false 5 0.4991861809397859 true
gene 1 6 12 0.38917406234269414 false 6 0.38917406234269414 true
gene 1 7 12 0 false 7 0 true
gene 1 8 12 -0.19311951893542093 false 8 -0.19311951893542093 true
gene 1 9 12 -0.5289972826500806 false 9 -0.5289972826500806 true
gene 1 10 12 -0.7331192615612357 false 10 -0.7331192615612357 true
gene 1 11 12 0.897896229136361 false 11 0.897896229136361 true
gene 1 12 13 0.8264471057316272 false 12 0.8264471057316272 true
gene 1 12 14 -0.40832778093324323 false 13 -0.40832778093324323 true
genomeend 100
/* Organism #249 Fitness: 3.536 Error: 0.990 */
genomestart 249
trait 1 0.1 0 0 0 0 0 0 0 
node 1 0 1 3
node 2 0 1 1
node 3 0 1 1
node 4 0 1 1
node 5 0 1 1
node 6 0 1 1
node 7 0 1 1
node 8 0 1 1
node 9 0 1 1
node 10 0 1 1
node 11 0 1 1
node 12 0 0 0
node 13 0 0 2
node 14 0 0 2
gene 1 1 12 -0.1525815931446313 false 1 -0.1525815931446313 true
gene 1 2 12 -0.04169348554223774 false 2 -0.04169348554223774 true
gene 1 3 12 0.3920966277120952 false 3 0.3920966277120952 true
gene 1 4 12 0.7934616130679446 false 4 0.7934616130679446 true
gene 1 5 12 0.3536828302803439 false 5 0.3536828302803439 true
gene 1 6 12 0.6282004072019561 false 6 0.6282004072019561 true
gene 1 7 12 0.8498154157297334 false 7 0.8498154157297334 true
gene 1 8 12 0.33335910998115126 false 8 0.33335910998115126 true
gene 1 9 12 -0.3581923681792252 false 9 -0.3581923681792252 true
gene 1 10 12 0.010419117037817822 false 10 0.010419117037817822 true
gene 1 11 12 -0.6219033601437544 false 11 -0.6219033601437544 true
gene 1 12 13 0.015446396819886701 false 12 0.015446396819886701 true
gene 1 12 14 0.5202305416617965 false 13 0.5202305416617965 true
genomeend 249
/* Organism #209 Fitness: 3.487 Error: 0.990 */
genomestart 209
trait 1 0.1 0 0 0 0 0 0 0 
node 1 0 1 3
node 2 0 1 1
node 3 0 1 1
node 4 0 1 1
node 5 0 1 1
node 6 0 1 1
node 7 0 1 1
node 8 0 1 1
node 9 0 1 1
node 10 0 1 1
node 11 0 1 1
node 12 0 0 0
node 13 0 0 2
node 14 0 0 2
gene 1 1 12 -0.33392650090341164 false 1 -0.33392650090341164 true
gene 1 2 12 0.08580200925643414 false 2 0.08580200925643414 true
gene 1 3 12 -0.4393539565003655 false 3 -0.4393539565003655 true
gene 1 4 12 -0.5974894889561729 false 4 -0.5974894889561729 true
gene 1 5 12 0.33556826696790987 false 5 0.33556826696790987 true
gene 1 6 12 -0.3370221518431289 false 6 -0.3370221518431289 true
gene 1 7 12 0 false 7 0 true
gene 1 8 12 0.4639473849876364 false 8 0.4639473849876364 true
gene 1 9 12 -0.35987757470097304 false 9 -0.35987757470097304 true
gene 1 10 12 0.7139333207830764 false 10 0.7139333207830764 true
gene 1 11 12 -0.08199084891778728 false 11 -0.08199084891778728 true
gene 1 12 13 0.994889344463228 false 12 0.994889344463228 true
gene 1 12 14 0.05019900063583632 false 13 0.05019900063583632 true
genomeend 209
/* Organism #118 Fitness: 3.393 Error: 0.990 */
genomestart 118
trait 1 0.1 0 0 0 0 0 0 0 
node 1 0 1 3
node 2 0 1 1
node 3 0 1 1
node 4 0 1 1
node 5 0 1 1
node 6 0 1 1
node 7 0 1 1
node 8 0 1 1
node 9 0 1 1
node 10 0 1 1
node 11 0 1 1
node 12 0 0 0
node 13 0 0 2
node 14 0 0 2
gene 1 1 12 -0.3107019801087011 false 1 -0.3107019801087011 true
gene 1 2 12 0.2968565338501771 false 2 0.2968565338501771 true
gene 1 3 12 0.3601224265370636 false 3 0.3601224265370636 true
gene 1 4 12 -0.48227946703412017 false 4 -0.48227946703412017 true
gene 1 5 12 0.04766477680924568 false 5 0.04766477680924568 true
gene 1 6 12 0.06764110198923112 false 6 0.06764110198923112 true
gene 1 7 12 0.7256798208462002 false 7 0.7256798208462002 true
gene 1 8 12 0.9045849846963033 false 8 0.9045849846963033 true
gene 1 9 12 -0.16922422169185308 false 9 -0.16922422169185308 true
gene 1 10 12 -0.7535939654663546 false 10 -0.7535939654663546 true
gene 1 11 12 0 false 11 0 true
gene 1 12 13 0.9001063242278959 false 12 0.9001063242278959 true
gene 1 12 14 -0.850405826228992 false 13 -0.850405826228992 true
genomeend 118
/* Organism #95 Fitness: 3.386 Error: 0.990 */
genomestart 95
trait 1 0.1 0 0 0 0 0 0 0 
node 1 0 1 3
node 2 0 1 1
node 3 0 1 1
node 4 0 1 1
node 5 0 1 1
node 6 0 1 1
node 7 0 1 1
node 8 0 1 1
node 9 0 1 1
node 10 0 1 1
node 11 0 1 1
node 12 0 0 0
node 13 0 0 2
node 14 0 0 2
gene 1 1 12 0.6835083676428508 false 1 0.6835083676428508 true
gene 1 2 12 -0.43551076167985986 false 2 -0.43551076167985986 true
gene 1 3 12 0.3329012670852414 false 3 0.3329012670852414 true
gene 1 4 12 0.6244104048951717 false 4 0.6244104048951717 true
gene 1 5 12 -0.06694013877324188 false 5 -0.06694013877324188 true
gene 1 6 12 -0.7274348821784128 false 6 -0.7274348821784128 true
gene 1 7 12 -0.7140166622612341 false 7 -0.7140166622612341 true
gene 1 8 12 0.5225075120960126 false 8 0.5225075120960126 true
gene 1 9 12 -0.4781838682025293 false 9 -0.4781838682025293 true
gene 1 10 12 0.20353428497324094 false 10 0.20353428497324094 true
gene 1 11 12 -0.1828098420766769 false 11 -0.1828098420766769 true
gene 1 12 13 0.25071210296408725 false 12 0.25071210296408725 true
gene 1 12 14 -0.7651972158924417 false 13 -0.7651972158924417 true
genomeend 95
/* Organism #47 Fitness: 3.380 Error: 0.990 */
genomestart 47
trait 1 0.1 0 0 0 0 0 0 0 
node 1 0 1 3
node 2 0 1 1
node 3 0 1 1
node 4 0 1 1
node 5 0 1 1
node 6 0 1 1
node 7 0 1 1
node 8 0 1 1
node 9 0 1 1
node 10 0 1 1
node 11 0 1 1
node 12 0 0 0
node 13 0 0 2
node 14 0 0 2
gene 1 1 12 0.24202336149735104 false 1 0.24202336149735104 true
gene 1 2 12 0.0368468009151101 false 2 0.0368468009151101 true
gene 1 3 12 -0.6874606567200627 false 3 -0.6874606567200627 true
gene 1 4 12 0.595874824364762 false 4 0.595874824364762 true
gene 1 5 12 0.6453070722614119 false 5 0.6453070722614119 true
gene 1 6 12 0 false 6 0 true
gene 1 7 12 0.4184906657812092 false 7 0.4184906657812092 true
gene 1 8 12 -0.4849633136730298 false 8 -0.4849633136730298 true
gene 1 9 12 0 false 9 0 true
gene 1 10 12 -0.2174235288125785 false 10 -0.2174235288125785 true
gene 1 11 12 0.8098896165073949 false 11 0.8098896165073949 true
gene 1 12 13 0.318304289674656 false 12 0.318304289674656 true
gene 1 12 14 -0.7741884387547517 false 13 -0.7741884387547517 true
genomeend 47
/* Organism #197 Fitness: 3.369 Error: 0.990 */
genomestart 197
trait 1 0.1 0 0 0 0 0 0 0 
node 1 0 1 3
node 2 0 1 1
node 3 0 1 1
node 4 0 1 1
node 5 0 1 1
node 6 0 1 1
node 7 0 1 1
node 8 0 1 1
node 9 0 1 1
node 10 0 1 1
node 11 0 1 1
node 12 0 0 0
node 13 0 0 2
node 14 0 0 2
gene 1 1 12 0.5328695853231004 false 1 0.5328695853231004 true
gene 1 2 12 0.4292552992769271 false 2 0.4292552992769271 true
gene 1 3 12 0.9212606346963068 false 3 0.9212606346963068 true
gene 1 4 12 0.16368453172801103 false 4 0.16368453172801103 true
gene 1 5 12 0.10883758806776847 false 5 0.10883758806776847 true
gene 1 6 12 0.09398148251226666 false 6 0.09398148251226666 true
gene 1 7 12 0.7213390579371408 false 7 0.7213390579371408 true
gene 1 8 12 0.004410409888604107 false 8 0.004410409888604107 true
gene 1 9 12 -0.1931111046331852 false 9 -0.1931111046331852 true
gene 1 10 12 0.531940630827232 false 10 0.531940630827232 true
gene 1 11 12 -0.2784979394640133 false 11 -0.2784979394640133 true
gene 1 12 13 0.6074681694814967 false 12 0.6074681694814967 true
gene 1 12 14 -0.13914952533764718 false 13 -0.13914952533764718 true
genomeend 197
/* Organism #104 Fitness: 3.366 Error: 0.990 */
genomestart 104
trait 1 0.1 0 0 0 0 0 0 0 
node 1 0 1 3
node 2 0 1 1
node 3 0 1 1
node 4 0 1 1
node 5 0 1 1
node 6 0 1 1
node 7 0 1 1
node 8 0 1 1
node 9 0 1 1
node 10 0 1 1
node 11 0 1 1
node 12 0 0 0
node 13 0 0 2
node 14 0 0 2
gene 1 1 12 -0.08710076156501949 false 1 -0.08710076156501949 true
gene 1 2 12 0.9486420461052589 false 2 0.9486420461052589 true
gene 1 3 12 -0.6650336560850612 false 3 -0.6650336560850612 true
gene 1 4 12 0.4340766881138439 false 4 0.4340766881138439 true
gene 1 5 12 -0.16411482516163797 false 5 -0.16411482516163797 true
gene 1 6 12 0.5956431467277523 false 6 0.5956431467277523 true
gene 1 7 12 -0.5116381782056811 false 7 -0.5116381782056811 true
gene 1 8 12 -0.45189676305813664 false 8 -0.45189676305813664 true
gene 1 9 12 -0.8294294907880805 false 9 -0.8294294907880805 true
gene 1 10 12 -0.16011393172759697 false 10 -0.16011393172759697 true
gene 1 11 12 0.8647634715483004 false 11 0.8647634715483004 true
gene 1 12 13 0.9202861331495327 false 12 0.9202861331495327 true
gene 1 12 14 -0.11505280162713792 false 13 -0.11505280162713792 true
genomeend 104
/* Organism #167 Fitness: 3.295 Error: 0.990 */
genomestart 167
trait 1 0.1 0 0 0 0 0 0 0 
node 1 0 1 3
node 2 0 1 1
node 3 0 1 1
node 4 0 1 1
node 5 0 1 1
node 6 0 1 1
node 7 0 1 1
node 8 0 1 1
node 9 0 1 1
node 10 0 1 1
node 11 0 1 1
node 12 0 0 0
node 13 0 0 2
node 14 0 0 2
gene 1 1 12 0.8873482031756462 false 1 0.8873482031756462 true
gene 1 2 12 -0.7311346250452377 false 2 -0.7311346250452377 true
gene 1 3 12 0.582319663524591 false 3 0.582319663524591 true
gene 1 4 12 0.02879318142850185 false 4 0.02879318142850185 true
gene 1 5 12 0 false 5 0 true
gene 1 6 12 0 false 6 0 true
gene 1 7 12 0.16336887254218602 false 7 0.16336887254218602 true
gene 1 8 12 0.8482678992081376 false 8 0.8482678992081376 true
gene 1 9 12 0.4164440385557351 false 9 0.4164440385557351 true
gene 1 10 12 0.6005465608266717 false 10 0.6005465608266717 true
gene 1 11 12 -0.5901241775447061 false 11 -0.5901241775447061 true
gene 1 12 13 -0.4083098460483061 false 12 -0.4083098460483061 true
gene 1 12 14 -0.043597817734426184 false 13 -0.043597817734426184 true
genomeend 167
/* Organism #195 Fitness: 3.283 Error: 0.859 */
genomestart 195
trait 1 0.1 0 0 0 0 0 0 0 
node 1 0 1 3
node 2 0 1 1
node 3 0 1 1
node 4 0 1 1
node 5 0 1 1
node 6 0 1 1
node 7 0 1 1
node 8 0 1 1
node 9 0 1 1
node 10 0 1 1
node 11 0 1 1
node 12 0 0 0
node 13 0 0 2
node 14 0 0 2
gene 1 1 12 0.10450374046552087 false 1 0.10450374046552087 true
gene 1 2 12 -0.4180564818958863 false 2 -0.4180564818958863 true
gene 1 3 12 -0.4252270155462316 false 3 -0.4252270155462316 true
gene 1 4 12 -0.340303063514174 false 4 -0.340303063514174 true
gene 1 5 12 -0.9710767456213565 false 5 -0.9710767456213565 true
gene 1 6 12 -0.26743026756928073 false 6 -0.26743026756928073 true
gene 1 7 12 0.80853028573673 false 7 0.80853028573673 true
gene 1 8 12 -0.004365731626110855 false 8 -0.004365731626110855 true
gene 1 9 12 0.34571896200502894 false 9 0.34571896200502894 true
gene 1 10 12 0.6067630837355752 false 10 0.6067630837355752 true
gene 1 11 12 -0.24813291089116124 false 11 -0.24813291089116124 true
gene 1 12 13 0.33391699400349173 false 12 0.33391699400349173 true
gene 1 12 14 0.5304577025097 false 13 0.5304577025097 true
genomeend 195
/* Organism #60 Fitness: 3.281 Error: 0.990 */
genomestart 60
trait 1 0.1 0 0 0 0 0 0 0 
node 1 0 1 3
node 2 0 1 1
node 3 0 1 1
node 4 0 1 1
node 5 0 1 1
node 6 0 1 1
node 7 0 1 1
node 8 0 1 1
node 9 0 1 1
node 10 0 1 1
node 11 0 1 1
node 12 0 0 0
node 13 0 0 2
node 14 0 0 2
gene 1 1 12 0.15777256834662434 false 1 0.15777256834662434 true
gene 1 2 12 -0.3280808359339679 false 2 -0.3280808359339679 true
gene 1 3 12 -0.3058163072642185 false 3 -0.3058163072642185 true
gene 1 4 12 -0.979602334139014 false 4 -0.979602334139014 true
gene 1 5 12 -0.6151362994978399 false 5 -0.6151362994978399 true
gene 1 6 12 0.3970389785296204 false 6 0.3970389785296204 true
gene 1 7 12 0.9120368506153684 false 7 0.9120368506153684 true
gene 1 8 12 0.04367651468868176 false 8 0.04367651468868176 true
gene 1 9 12 -0.6969729366072546 false 9 -0.6969729366072546 true
gene 1 10 12 0.8832013699435713 false 10 0.8832013699435713 true
gene 1 11 12 -0.32183745238371564 false 11 -0.32183745238371564 true
gene 1 12 13 -0.3482247703248024 false 12 -0.3482247703248024 true
gene 1 12 14 -0.18652412458065698 false 13 -0.18652412458065698 true
genomeend 60
/* Organism #75 Fitness: 3.251 Error: 0.802 */
genomestart 75
trait 1 0.1 0 0 0 0 0 0 0 
node 1 0 1 3
node 2 0 1 1
node 3 0 1 1
node 4 0 1 1
node 5 0 1 1
node 6 0 1 1
node 7 0 1 1
node 8 0 1 1
node 9 0 1 1
node 10 0 1 1
node 11 0 1 1
node 12 0 0 0
node 13 0 0 2
node 14 0 0 2
gene 1 1 12 0.08409013584845657 false 1 0.08409013584845657 true
gene 1 2 12 -0.025123098143041183 false 2 -0.025123098143041183 true
gene 1 3 12 0.08198160494475894 false 3 0.08198160494475894 true
gene 1 4 12 0.03512541935724797 false 4 0.03512541935724797 true
gene 1 5 12 -0.7006075300346527 false 5 -0.7006075300346527 true
gene 1 6 12 -0.1574465295454405 false 6 -0.1574465295454405 true
gene 1 7 12 -0.001799295687416289 false 7 -0.001799295687416289 true
gene 1 8 12 -0.6085683856354064 false 8 -0.6085683856354064 true
gene 1 9 12 0 false 9 0 true
gene 1 10 12 0.2575189862680861 false 10 0.2575189862680861 true
gene 1 11 12 -0.8897363167633897 false 11 -0.8897363167633897 true
gene 1 12 13 0.735683805289054 false 12 0.735683805289054 true
gene 1 12 14 0.2706426468114405 false 13 0.2706426468114405 true
genomeend 75
/* Organism #105 Fitness: 3.242 Error: 0.990 */
genomestart 105
trait 1 0.1 0 0 0 0 0 0 0 
node 1 0 1 3
node 2 0 1 1
node 3 0 1 1
node 4 0 1 1
node 5 0 1 1
node 6 0 1 1
node 7 0 1 1
node 8 0 1 1
node 9 0 1 1
node 10 0 1 1
node 11 0 1 1
node 12 0 0 0
node 13 0 0 2
node 14 0 0 2
gene 1 1 12 -0.8825936727162994 false 1 -0.8825936727162994 true
gene 1 2 12 -0.9724769697443442 false 2 -0.9724769697443442 true
gene 1 3 12 0.053481124823712915 false 3 0.053481124823712915 true
gene 1 4 12 -0.9291806954084106 false 4 -0.9291806954084106 true
gene 1 5 12 0.5165230321687964 false 5 0.5165230321687964 true
gene 1 6 12 0.6310247864661078 false 6 0.6310247864661078 true
gene 1 7 12 0.3724113774629314 false 7 0.3724113774629314 true
gene 1 8 12 0.8973159719707537 false 8 0.8973159719707537 true
gene 1 9 12 -0.6260320396752165 false 9 -0.6260320396752165 true
gene 1 10 12 -0.11341761086284599 false 10 -0.11341761086284599 true
gene 1 11 12 -0.4831040577387941 false 11 -0.4831040577387941 true
gene 1 12 13 -0.7204709391651961 false 12 -0.7204709391651961 true
gene 1 12 14 -0.845618941807925 false 13 -0.845618941807925 true
genomeend 105
/* Organism #226 Fitness: 3.231 Error: 0.990 */
genomestart 226
trait 1 0.1 0 0 0 0 0 0 0 
node 1 0 1 3
node 2 0 1 1
node 3 0 1 1
node 4 0 1 1
node 5 0 1 1
node 6 0 1 1
node 7 0 1 1
node 8 0 1 1
node 9 0 1 1
node 10 0 1 1
node 11 0 1 1
node 12 0 0 0
node 13 0 0 2
node 14 0 0 2
gene 1 1 12 0.6311236257884433 false 1 0.6311236257884433 true
gene 1 2 12 -0.9542090854567686 false 2 -0.9542090854567686 true
gene 1 3 12 -0.6552373157746502 false 3 -0.6552373157746502 true
gene 1 4 12 -0.8302294611609375 false 4 -0.8302294611609375 true
gene 1 5 12 0.7706224406724801 false 5 0.7706224406724801 true
gene 1 6 12 0.9828316674642573 false 6 0.9828316674642573 true
gene 1 7 12 -0.01594994262345577 false 7 -0.01594994262345577 true
gene 1 8 12 0.00671296280337725 false 8 0.00671296280337725 true
gene 1 9 12 -0.5920885312815924 false 9 -0.5920885312815924 true
gene 1 10 12 -0.6468604651853813 false 10 -0.6468604651853813 true
gene 1 11 12 0 false 11 0 true
gene 1 12 13 -0.9267063473988113 false 12 -0.9267063473988113 true
gene 1 12 14 -0.1257978862623411 false 13 -0.1257978862623411 true
genomeend 226
/* Organism #130 Fitness: 3.228 Error: 0.990 */
genomestart 130
trait 1 0.1 0 0 0 0 0 0 0 
node 1 0 1 3
node 2 0 1 1
node 3 0 1 1
node 4 0 1 1
node 5 0 1 1
node 6 0 1 1
node 7 0 1 1
node 8 0 1 1
node 9 0 1 1
node 10 0 1 1
node 11 0 1 1
node 12 0 0 0
node 13 0 0 2
node 14 0 0 2
gene 1 1 12 -0.9604683271522523 false 1 -0.9604683271522523 true
gene 1 2 12 0.317040091273448 false 2 0.317040091273448 true
gene 1 3 12 -0.05740128086019981 false 3 -0.05740128086019981 true
gene 1 4 12 -0.5687261939238705 false 4 -0.5687261939238705 true
gene 1 5 12 -0.38161334702369504 false 5 -0.38161334702369504 true
gene 1 6 12 -0.8828405772693882 false 6 -0.8828405772693882 true
gene 1 7 12 0.6238460586975821 false 7 0.6238460586975821 true
gene 1 8 12 0.6628213940874919 false 8 0.6628213940874919 true
gene 1 9 12 0.30781971253047496 false 9 0.30781971253047496 true
gene 1 10 12 -0.9189966023886064 false 10 -0.9189966023886064 true
gene 1 11 12 0.4802427725932305 false 11 0.4802427725932305 true
gene 1 12 13 -0.07756203606065978 false 12 -0.07756203606065978 true
gene 1 12 14 -0.6469917591476757 false 13 -0.6469917591476757 true
genomeend 130
/* Organism #204 Fitness: 3.076 Error: 0.990 */
genomestart 204
trait 1 0.1 0 0 0 0 0 0 0 
node 1 0 1 3
node 2 0 1 1
node 3 0 1 1
node 4 0 1 1
node 5 0 1 1
node 6 0 1 1
node 7 0 1 1
node 8 0 1 1
node 9 0 1 1
node 10 0 1 1
node 11 0 1 1
node 12 0 0 0
node 13 0 0 2
node 14 0 0 2
gene 1 1 12 0.49853234334785584 false 1 0.49853234334785584 true
gene 1 2 12 0.10805305225343345 false 2 0.10805305225343345 true
gene 1 3 12 -0.31706659573261964 false 3 -0.31706659573261964 true
gene 1 4 12 -0.6206957817491199 false 4 -0.6206957817491199 true
gene 1 5 12 -0.5163536683221966 false 5 -0.5163536683221966 true
gene 1 6 12 0.4799387523908255 false 6 0.4799387523908255 true
gene 1 7 12 -0.23551390197798333 false 7 -0.23551390197798333 true
gene 1 8 12 0.09199464077170783 false 8 0.09199464077170783 true
gene 1 9 12 0.9573646385851826 false 9 0.9573646385851826 true
gene 1 10 12 0.7834689765323339 false 10 0.7834689765323339 true
gene 1 11 12 -0.8643234208928714 false 11 -0.8643234208928714 true
gene 1 12 13 0.8531878480088848 false 12 0.8531878480088848 true
gene 1 12 14 -0.4406256182894795 false 13 -0.4406256182894795 true
genomeend 204
/* Organism #25 Fitness: 3.071 Error: 0.836 */
genomestart 25
trait 1 0.1 0 0 0 0 0 0 0 
node 1 0 1 3
node 2 0 1 1
node 3 0 1 1
node 4 0 1 1
node 5 0 1 1
node 6 0 1 1
node 7 0 1 1
node 8 0 1 1
node 9 0 1 1
node 10 0 1 1
node 11 0 1 1
node 12 0 0 0
node 13 0 0 2
node 14 0 0 2
gene 1 1 12 0.6149805060886389 false 1 0.6149805060886389 true
gene 1 2 12 0.8097642682399389 false 2 0.8097642682399389 true
gene 1 3 12 -0.7534703508991741 false 3 -0.7534703508991741 true
gene 1 4 12 0.0015671674454458741 false 4 0.0015671674454458741 true
gene 1 5 12 -0.6242828235317632 false 5 -0.6242828235317632 true
gene 1 6 12 -0.7648687555854227 false 6 -0.7648687555854227 true
gene 1 7 12 0.33652045736661484 false 7 0.33652045736661484 true
gene 1 8 12 -0.841840087985943 false 8 -0.841840087985943 true
gene 1 9 12 0.2230879871201074 false 9 0.2230879871201074 true
gene 1 10 12 0.40192649654577955 false 10 0.40192649654577955 true
gene 1 11 12 0.2690403851045013 false 11 0.2690403851045013 true
gene 1 12 13 0.10740221925568473 false 12 0.10740221925568473 true
gene 1 12 14 0.8281437611490248 false 13 0.8281437611490248 true
genomeend 25
/* Organism #66 Fitness: 3.008 Error: 0.990 */
genomestart 66
trait 1 0.1 0 0 0 0 0 0 0 
node 1 0 1 3
node 2 0 1 1
node 3 0 1 1
node 4 0 1 1
node 5 0 1 1
node 6 0 1 1
node 7 0 1 1
node 8 0 1 1
node 9 0 1 1
node 10 0 1 1
node 11 0 1 1
node 12 0 0 0
node 13 0 0 2
node 14 0 0 2
gene 1 1 12 0.09755165404456677 false 1 0.09755165404456677 true
gene 1 2 12 0.4775670118708857 false 2 0.4775670118708857 true
gene 1 3 12 0.46464121104543427 false 3 0.46464121104543427 true
gene 1 4 12 0.07057301225116419 false 4 0.07057301225116419 true
gene 1 5 12 0.40645686453413826 false 5 0.40645686453413826 true
gene 1 6 12 -0.5495915836799655 false 6 -0.5495915836799655 true
gene 1 7 12 -0.8173423228169818 false 7 -0.8173423228169818 true
gene 1 8 12 -0.9771646834306519 false 8 -0.9771646834306519 true
gene 1 9 12 0 false 9 0 true
gene 1 10 12 0.680430188656331 false 10 0.680430188656331 true
gene 1 11 12 0.7758280505975375 false 11 0.7758280505975375 true
gene 1 12 13 -0.7136510368712404 false 12 -0.7136510368712404 true
gene 1 12 14 0.10148258871056587 false 13 0.10148258871056587 true
genomeend 66
/* Organism #221 Fitness: 3.003 Error: 0.990 */
genomestart 221
trait 1 0.1 0 0 0 0 0 0 0 
node 1 0 1 3
node 2 0 1 1
node 3 0 1 1
node 4 0 1 1
node 5 0 1 1
node 6 0 1 1
node 7 0 1 1
node 8 0 1 1
node 9 0 1 1
node 10 0 1 1
node 11 0 1 1
node 12 0 0 0
node 13 0 0 2
node 14 0 0 2
gene 1 1 12 0.11722094862208998 false 1 0.11722094862208998 true
gene 1 2 12 0.8065431740673594 false 2 0.8065431740673594 true
gene 1 3 12 -0.911315242747618 false 3 -0.911315242747618 true
gene 1 4 12 0.40134482570765273 false 4 0.40134482570765273 true
gene 1 5 12 -0.31028800374155385 false 5 -0.31028800374155385 true
gene 1 6 12 0.4310875720816789 false 6 0.4310875720816789 true
gene 1 7 12 0.07745727182312777 false 7 0.07745727182312777 true
gene 1 8 12 -0.6766761146093238 false 8 -0.6766761146093238 true
gene 1 9 12 0 false 9 0 true
gene 1 10 12 -0.17885645786680443 false 10 -0.17885645786680443 true
gene 1 11 12 0.3132875747728975 false 11 0.3132875747728975 true
gene 1 12 13 -0.24718045150569817 false 12 -0.24718045150569817 true
gene 1 12 14 -0.1705179251208774 false 13 -0.1705179251208774 true
genomeend 221
/* Organism #217 Fitness: 2.964 Error: 0.990 */
genomestart 217
trait 1 0.1 0 0 0 0 0 0 0 
node 1 0 1 3
node 2 0 1 1
node 3 0 1 1
node 4 0 1 1
node 5 0 1 1
node 6 0 1 1
node 7 0 1 1
node 8 0 1 1
node 9 0 1 1
node 10 0 1 1
node 11 0 1 1
node 12 0 0 0
node 13 0 0 2
node 14 0 0 2
gene 1 1 12 -0.7388829709504954 false 1 -0.7388829709504954 true
gene 1 2 12 -0.38097769435283524 false 2 -0.38097769435283524 true
gene 1 3 12 0 false 3 0 true
gene 1 4 12 0.9963209580568809 false 4 0.9963209580568809 true
gene 1 5 12 0.3880060378945347 false 5 0.3880060378945347 true
gene 1 6 12 -0.7475634490534622 false 6 -0.7475634490534622 true
gene 1 7 12 0.4211220827392286 false 7 0.4211220827392286 true
gene 1 8 12 0 false 8 0 true
gene 1 9 12 0.37458647725658545 false 9 0.37458647725658545 true
gene 1 10 12 0.05085066868638553 false 10 0.05085066868638553 true
gene 1 11 12 -0.9500976952255655 false 11 -0.9500976952255655 true
gene 1 12 13 -0.6120660750335427 false 12 -0.6120660750335427 true
gene 1 12 14 -0.686359110509394 false 13 -0.686359110509394 true
genomeend 217
/* Organism #140 Fitness: 2.949 Error: 0.990 */
genomestart 140
trait 1 0.1 0 0 0 0 0 0 0 
node 1 0 1 3
node 2 0 1 1
node 3 0 1 1
node 4 0 1 1
node 5 0 1 1
node 6 0 1 1
node 7 0 1 1
node 8 0 1 1
node 9 0 1 1
node 10 0 1 1
node 11 0 1 1
node 12 0 0 0
node 13 0 0 2
node 14 0 0 2
gene 1 1 12 0.4336079026101655 false 1 0.4336079026101655 true
gene 1 2 12 -0.8796813130892035 false 2 -0.8796813130892035 true
gene 1 3 12 -0.009884525754896473 false 3 -0.009884525754896473 true
gene 1 4 12 0.3459060016561731 false 4 0.3459060016561731 true
gene 1 5 12 0.7546578084082074 false 5 0.7546578084082074 true
gene 1 6 12 0.855958525690658 false 6 0.855958525690658 true
gene 1 7 12 0.1301496403395366 false 7 0.1301496403395366 true
gene 1 8 12 -0.48889475097105495 false 8 -0.48889475097105495 true
gene 1 9 12 -0.685758005201549 false 9 -0.685758005201549 true
gene 1 10 12 -0.15685188245291642 false 10 -0.15685188245291642 true
gene 1 11 12 -0.6344945577786659 false 11 -0.6344945577786659 true
gene 1 12 13 -0.2082169778608319 false 12 -0.2082169778608319 true
gene 1 12 14 -0.03700713311297499 false 13 -0.03700713311297499 true
genomeend 140
/* Organism #170 Fitness: 2.882 Error: 0.990 */
genomestart 170
trait 1 0.1 0 0 0 0 0 0 0 
node 1 0 1 3
node 2 0 1 1
node 3 0 1 1
node 4 0 1 1
node 5 0 1 1
node 6 0 1 1
node 7 0 1 1
node 8 0 1 1
node 9 0 1 1
node 10 0 1 1
node 11 0 1 1
node 12 0 0 0
node 13 0 0 2
node 14 0 0 2
gene 1 1 12 0.27134133748987627 false 1 0.27134133748987627 true
gene 1 2 12 -0.9686202976906142 false 2 -0.9686202976906142 true
gene 1 3 12 0.21314228663534363 false 3 0.21314228663534363 true
gene 1 4 12 -0.1500623280627092 false 4 -0.1500623280627092 true
gene 1 5 12 0.15347416913941767 false 5 0.15347416913941767 true
gene 1 6 12 0.27675219310076943 false 6 0.27675219310076943 true
gene 1 7 12 0.7417501859990862 false 7 0.7417501859990862 true
gene 1 8 12 -0.6801312652600916 false 8 -0.6801312652600916 true
gene 1 9 12 -0.9117956476492192 false 9 -0.9117956476492192 true
gene 1 10 12 -0.2358595761018406 false 10 -0.2358595761018406 true
gene 1 11 12 -0.7807031006328301 false 11 -0.7807031006328301 true
gene 1 12 13 -0.33103062873947847 false 12 -0.33103062873947847 true
gene 1 12 14 -0.4510589704551571 false 13 -0.4510589704551571 true
genomeend 170
/* Organism #129 Fitness: 2.766 Error: 0.782 */
genomestart 129
trait 1 0.1 0 0 0 0 0 0 0 
node 1 0 1 3
node 2 0 1 1
node 3 0 1 1
node 4 0 1 1
node 5 0 1 1
node 6 0 1 1
node 7 0 1 1
node 8 0 1 1
node 9 0 1 1
node 10 0 1 1
node 11 0 1 1
node 12 0 0 0
node 13 0 0 2
node 14 0 0 2
gene 1 1 12 -0.777166546495688 false 1 -0.777166546495688 true
gene 1 2 12 -0.2364344715036165 false 2 -0.2364344715036165 true
gene 1 3 12 -0.7842160215941771 false 3 -0.7842160215941771 true
gene 1 4 12 -0.007986759727628016 false 4 -0.007986759727628016 true
gene 1 5 12 0.7956873428582282 false 5 0.7956873428582282 true
gene 1 6 12 0.9255924184256812 false 6 0.9255924184256812 true
gene 1 7 12 -0.9094510478622523 false 7 -0.9094510478622523 true
gene 1 8 12 -0.9265269516023844 false 8 -0.9265269516023844 true
gene 1 9 12 0.46274863494944735 false 9 0.46274863494944735 true
gene 1 10 12 -0.15334213407932146 false 10 -0.15334213407932146 true
gene 1 11 12 -0.3870425783680451 false 11 -0.3870425783680451 true
gene 1 12 13 -0.6165882595370789 false 12 -0.6165882595370789 true
gene 1 12 14 0.2858549783575296 false 13 0.2858549783575296 true
genomeend 129
/* Organism #99 Fitness: 2.657 Error: 0.858 */
genomestart 99
trait 1 0.1 0 0 0 0 0 0 0 
node 1 0 1 3
node 2 0 1 1
node 3 0 1 1
node 4 0 1 1
node 5 0 1 1
node 6 0 1 1
node 7 0 1 1
node 8 0 1 1
node 9 0 1 1
node 10 0 1 1
node 11 0 1 1
node 12 0 0 0
node 13 0 0 2
node 14 0 0 2
gene 1 1 12 0.24376964812683105 false 1 0.24376964812683105 true
gene 1 2 12 0.7327678423347462 false 2 0.7327678423347462 true
gene 1 3 12 -0.7096083725924763 false 3 -0.7096083725924763 true
gene 1 4 12 -0.29904504195247544 false 4 -0.29904504195247544 true
gene 1 5 12 0 false 5 0 true
gene 1 6 12 0 false 6 0 true
gene 1 7 12 0.8953697389492354 false 7 0.8953697389492354 true
gene 1 8 12 0.05541374937742712 false 8 0.05541374937742712 true
gene 1 9 12 -0.7800368736751621 false 9 -0.7800368736751621 true
gene 1 10 12 0.7419112302175932 false 10 0.7419112302175932 true
gene 1 11 12 -0.6104727641022218 false 11 -0.6104727641022218 true
gene 1 12 13 0.054892214941240955 false 12 0.054892214941240955 true
gene 1 12 14 0.5865529883319995 false 13 0.5865529883319995 true
genomeend 99
/* Organism #70 Fitness: 2.630 Error: 0.990 */
genomestart 70
trait 1 0.1 0 0 0 0 0 0 0 
node 1 0 1 3
node 2 0 1 1
node 3 0 1 1
node 4 0 1 1
node 5 0 1 1
node 6 0 1 1
node 7 0 1 1
node 8 0 1 1
node 9 0 1 1
node 10 0 1 1
node 11 0 1 1
node 12 0 0 0
node 13 0 0 2
node 14 0 0 2
gene 1 1 12 0.0036478774564600264 false 1 0.0036478774564600264 true
gene 1 2 12 0.07169324781801803 false 2 0.07169324781801803 true
gene 1 3 12 0.31923286602408346 false 3 0.31923286602408346 true
gene 1 4 12 0.40888534277012434 false 4 0.40888534277012434 true
gene 1 5 12 0.5569981446015664 false 5 0.5569981446015664 true
gene 1 6 12 0 false 6 0 true
gene 1 7 12 0.3698937501465089 false 7 0.3698937501465089 true
gene 1 8 12 -0.38562131650464426 false 8 -0.38562131650464426 true
gene 1 9 12 0.9333060950375623 false 9 0.9333060950375623 true
gene 1 10 12 0.35310452305222995 false 10 0.35310452305222995 true
gene 1 11 12 0.031400709525054346 false 11 0.031400709525054346 true
gene 1 12 13 -0.8970643811036417 false 12 -0.8970643811036417 true
gene 1 12 14 -0.11288938986029509 false 13 -0.11288938986029509 true
genomeend 70
/* Organism #19 Fitness: 2.617 Error: 0.990 */
genomestart 19
trait 1 0.1 0 0 0 0 0 0 0 
node 1 0 1 3
node 2 0 1 1
node 3 0 1 1
node 4 0 1 1
node 5 0 1 1
node 6 0 1 1
node 7 0 1 1
node 8 0 1 1
node 9 0 1 1
node 10 0 1 1
node 11 0 1 1
node 12 0 0 0
node 13 0 0 2
node 14 0 0 2
gene 1 1 12 0.3811497545769989 false 1 0.3811497545769989 true
gene 1 2 12 0.5516400713943792 false 2 0.5516400713943792 true
gene 1 3 12 -0.7031048425315422 false 3 -0.7031048425315422 true
gene 1 4 12 -0.7632360075432212 false 4 -0.7632360075432212 true
gene 1 5 12 -0.6553379453866756 false 5 -0.6553379453866756 true
gene 1 6 12 0.8271164186045774 false 6 0.8271164186045774 true
gene 1 7 12 0.2537487302173378 false 7 0.2537487302173378 true
gene 1 8 12 0.7890226037339811 false 8 0.7890226037339811 true
gene 1 9 12 0.9790299747997726 false 9 0.9790299747997726 true
gene 1 10 12 -0.03480147410153 false 10 -0.03480147410153 true
gene 1 11 12 0.4770679722340246 false 11 0.4770679722340246 true
gene 1 12 13 -0.6059169277667632 false 12 -0.6059169277667632 true
gene 1 12 14 -0.7584992093048463 false 13 -0.7584992093048463 true
genomeend 19
/* Organism #228 Fitness: 2.609 Error: 0.990 */
genomestart 228
trait 1 0.1 0 0 0 0 0 0 0 
node 1 0 1 3
node 2 0 1 1
node 3 0 1 1
node 4 0 1 1
node 5 0 1 1
node 6 0 1 1
node 7 0 1 1
node 8 0 1 1
node 9 0 1 1
node 10 0 1 1
node 11 0 1 1
node 12 0 0 0
node 13 0 0 2
node 14 0 0 2
gene 1 1 12 -0.1817866313359258 false 1 -0.1817866313359258 true
gene 1 2 12 -0.04471027820787045 false 2 -0.04471027820787045 true
gene 1 3 12 -0.28296479243412664 false 3 -0.28296479243412664 true
gene 1 4 12 0.3090437901465339 false 4 0.3090437901465339 true
gene 1 5 12 0.7165469421496419 false 5 0.7165469421496419 true
gene 1 6 12 0.23104562627288242 false 6 0.23104562627288242 true
gene 1 7 12 -0.08068316052413847 false 7 -0.08068316052413847 true
gene 1 8 12 0.5841077075429139 false 8 0.5841077075429139 true
gene 1 9 12 0.26148964467355607 false 9 0.26148964467355607 true
gene 1 10 12 -0.09404532858450765 false 10 -0.09404532858450765 true
gene 1 11 12 -0.17283365134401868 false 11 -0.17283365134401868 true
gene 1 12 13 -0.47386649652358104 false 12 -0.47386649652358104 true
gene 1 12 14 -0.5466919274264708 false 13 -0.5466919274264708 true
genomeend 228
/* Organism #239 Fitness: 2.534 Error: 0.848 */
genomestart 239
trait 1 0.1 0 0 0 0 0 0 0 
node 1 0 1 3
node 2 0 1 1
node 3 0 1 1
node 4 0 1 1
node 5 0 1 1
node 6 0 1 1
node 7 0 1 1
node 8 0 1 1
node 9 0 1 1
node 10 0 1 1
node 11 0 1 1
node 12 0 0 0
node 13 0 0 2
node 14 0 0 2
gene 1 1 12 -0.070928898185205 false 1 -0.070928898185205 true
gene 1 2 12 0.5060812702376783 false 2 0.5060812702376783 true
gene 1 3 12 0 false 3 0 true
gene 1 4 12 -0.3840120606694253 false 4 -0.3840120606694253 true
gene 1 5 12 0.0992119554500706 false 5 0.0992119554500706 true
gene 1 6 12 -0.9741958873474037 false 6 -0.9741958873474037 true
gene 1 7 12 0.6744422219027261 false 7 0.6744422219027261 true
gene 1 8 12 -0.14326235765002554 false 8 -0.14326235765002554 true
gene 1 9 12 0 false 9 0 true
gene 1 10 12 0.5225403526219441 false 10 0.5225403526219441 true
gene 1 11 12 0.3872769059067067 false 11 0.3872769059067067 true
gene 1 12 13 0.46917568983606633 false 12 0.46917568983606633 true
gene 1 12 14 0.8485567585648947 false 13 0.8485567585648947 true
genomeend 239
/* Organism #200 Fitness: 2.508 Error: 0.990 */
genomestart 200
trait 1 0.1 0 0 0 0 0 0 0 
node 1 0 1 3
node 2 0 1 1
node 3 0 1 1
node 4 0 1 1
node 5 0 1 1
node 6 0 1 1
node 7 0 1 1
node 8 0 1 1
node 9 0 1 1
node 10 0 1 1
node 11 0 1 1
node 12 0 0 0
node 13 0 0 2
node 14 0 0 2
gene 1 1 12 0 false 1 0 true
gene 1 2 12 0.6404927680684356 false 2 0.6404927680684356 true
gene 1 3 12 -0.14910706052301922 false 3 -0.14910706052301922 true
gene 1 4 12 0 false 4 0 true
gene 1 5 12 -0.08037412165196615 false 5 -0.08037412165196615 true
gene 1 6 12 0.43541952474414874 false 6 0.43541952474414874 true
gene 1 7 12 0.35942506502864335 false 7 0.35942506502864335 true
gene 1 8 12 -0.2181146009675411 false 8 -0.2181146009675411 true
gene 1 9 12 0.6338055351422763 false 9 0.6338055351422763 true
gene 1 10 12 0.7953703653118792 false 10 0.7953703653118792 true
gene 1 11 12 0.7899829658744895 false 11 0.7899829658744895 true
gene 1 12 13 -0.8885769841640683 false 12 -0.8885769841640683 true
gene 1 12 14 -0.925929666824749 false 13 -0.925929666824749 true
genomeend 200
/* Organism #16 Fitness: 2.452 Error: 0.990 */
genomestart 16
trait 1 0.1 0 0 0 0 0 0 0 
node 1 0 1 3
node 2 0 1 1
node 3 0 1 1
node 4 0 1 1
node 5 0 1 1
node 6 0 1 1
node 7 0 1 1
node 8 0 1 1
node 9 0 1 1
node 10 0 1 1
node 11 0 1 1
node 12 0 0 0
node 13 0 0 2
node 14 0 0 2
gene 1 1 12 0.1492555659329325 false 1 0.1492555659329325 true
gene 1 2 12 -0.25794972803167704 false 2 -0.25794972803167704 true
gene 1 3 12 -0.059781557704192176 false 3 -0.059781557704192176 true
gene 1 4 12 0.6086771114303362 false 4 0.6086771114303362 true
gene 1 5 12 0.7452760355108629 false 5 0.7452760355108629 true
gene 1 6 12 -0.14965237120074412 false 6 -0.14965237120074412 true
gene 1 7 12 -0.1578808095687579 false 7 -0.1578808095687579 true
gene 1 8 12 -0.0684472250883712 false 8 -0.0684472250883712 true
gene 1 9 12 -0.7092137340125367 false 9 -0.7092137340125367 true
gene 1 10 12 -0.5764224127539475 false 10 -0.5764224127539475 true
gene 1 11 12 0.7593363159445649 false 11 0.7593363159445649 true
gene 1 12 13 0.4907120604043969 false 12 0.4907120604043969 true
gene 1 12 14 -0.5201467121212444 false 13 -0.5201467121212444 true
genomeend 16
/* Organism #135 Fitness: 2.450 Error: 0.785 */
genomestart 135
trait 1 0.1 0 0 0 0 0 0 0 
node 1 0 1 3
node 2 0 1 1
node 3 0 1 1
node 4 0 1 1
node 5 0 1 1
node 6 0 1 1
node 7 0 1 1
node 8 0 1 1
node 9 0 1 1
node 10 0 1 1
node 11 0 1 1
node 12 0 0 0
node 13 0 0 2
node 14 0 0 2
gene 1 1 12 0 false 1 0 true
gene 1 2 12 0.679067653418082 false 2 0.679067653418082 true
gene 1 3 12 0.10204281749405798 false 3 0.10204281749405798 true
gene 1 4 12 0.8535946397429878 false 4 0.8535946397429878 true
gene 1 5 12 -0.3042136176145575 false 5 -0.3042136176145575 true
gene 1 6 12 0.2968047707599468 false 6 0.2968047707599468 true
gene 1 7 12 -0.42368377545575686 false 7 -0.42368377545575686 true
gene 1 8 12 0 false 8 0 true
gene 1 9 12 0.0012156385953178113 false 9 0.0012156385953178113 true
gene 1 10 12 0.2043676559014926 false 10 0.2043676559014926 true
gene 1 11 12 0.5460988300551515 false 11 0.5460988300551515 true
gene 1 12 13 -0.21778944047201623 false 12 -0.21778944047201623 true
gene 1 12 14 0.450819089383017 false 13 0.450819089383017 true
genomeend 135
/* Organism #81 Fitness: 2.396 Error: 0.990 */
genomestart 81
trait 1 0.1 0 0 0 0 0 0 0 
node 1 0 1 3
node 2 0 1 1
node 3 0 1 1
node 4 0 1 1
node 5 0 1 1
node 6 0 1 1
node 7 0 1 1
node 8 0 1 1
node 9 0 1 1
node 10 0 1 1
node 11 0 1 1
node 12 0 0 0
node 13 0 0 2
node 14 0 0 2
gene 1 1 12 0.2704974233193542 false 1 0.2704974233193542 true
gene 1 2 12 -0.5358234905202889 false 2 -0.5358234905202889 true
gene 1 3 12 -0.11634722995915346 false 3 -0.11634722995915346 true
gene 1 4 12 0.30533800154917634 false 4 0.30533800154917634 true
gene 1 5 12 0.6180807267417922 false 5 0.6180807267417922 true
gene 1 6 12 -0.7819538091976066 false 6 -0.7819538091976066 true
gene 1 7 12 0.8376966062757807 false 7 0.8376966062757807 true
gene 1 8 12 0.8487189378954381 false 8 0.8487189378954381 true
gene 1 9 12 0 false 9 0 true
gene 1 10 12 0.6627099279085268 false 10 0.6627099279085268 true
gene 1 11 12 0.3660249622655744 false 11 0.3660249622655744 true
gene 1 12 13 -0.6838022682279827 false 12 -0.6838022682279827 true
gene 1 12 14 -0.6857058245118243 false 13 -0.6857058245118243 true
genomeend 81
/* Organism #7 Fitness: 2.379 Error: 0.990 */
genomestart 7
trait 1 0.1 0 0 0 0 0 0 0 
node 1 0 1 3
node 2 0 1 1
node 3 0 1 1
node 4 0 1 1
node 5 0 1 1
node 6 0 1 1
node 7 0 1 1
node 8 0 1 1
node 9 0 1 1
node 10 0 1 1
node 11 0 1 1
node 12 0 0 0
node 13 0 0 2
node 14 0 0 2
gene 1 1 12 0.6506612674035924 false 1 0.6506612674035924 true
gene 1 2 12 0.10804801612135707 false 2 0.10804801612135707 true
gene 1 3 12 0.18589697777108571 false 3 0.18589697777108571 true
gene 1 4 12 -0.8432427425729645 false 4 -0.8432427425729645 true
gene 1 5 12 0.16780455967850563 false 5 0.16780455967850563 true
gene 1 6 12 -0.2523000373963472 false 6 -0.2523000373963472 true
gene 1 7 12 0.5333921678499443 false 7 0.5333921678499443 true
gene 1 8 12 0.08727231197782848 false 8 0.08727231197782848 true
gene 1 9 12 -0.7377433252562521 false 9 -0.7377433252562521 true
gene 1 10 12 0.6787858387163034 false 10 0.6787858387163034 true
gene 1 11 12 0.860811314914052 false 11 0.860811314914052 true
gene 1 12 13 -0.658006120690858 false 12 -0.658006120690858 true
gene 1 12 14 -0.7872189288096858 false 13 -0.7872189288096858 true
genomeend 7
/* Organism #14 Fitness: 2.341 Error: 0.819 */
genomestart 14
trait 1 0.1 0 0 0 0 0 0 0 
node 1 0 1 3
node 2 0 1 1
node 3 0 1 1
node 4 0 1 1
node 5 0 1 1
node 6 0 1 1
node 7 0 1 1
node 8 0 1 1
node 9 0 1 1
node 10 0 1 1
node 11 0 1 1
node 12 0 0 0
node 13 0 0 2
node 14 0 0 2
gene 1 1 12 0.63382522966106 false 1 0.63382522966106 true
gene 1 2 12 -0.7741357579318544 false 2 -0.7741357579318544 true
gene 1 3 12 -0.042014586932060366 false 3 -0.042014586932060366 true
gene 1 4 12 -0.026517616568014123 false 4 -0.026517616568014123 true
gene 1 5 12 0.740203931205672 false 5 0.740203931205672 true
gene 1 6 12 -0.3122966608496438 false 6 -0.3122966608496438 true
gene 1 7 12 0.040140912510185894 false 7 0.040140912510185894 true
gene 1 8 12 0.09619920583883736 false 8 0.09619920583883736 true
gene 1 9 12 0.2410255048249135 false 9 0.2410255048249135 true
gene 1 10 12 0.6805343164830525 false 10 0.6805343164830525 true
gene 1 11 12 0.4630110396992425 false 11 0.4630110396992425 true
gene 1 12 13 0.712787006344313 false 12 0.712787006344313 true
gene 1 12 14 0.23286358440621158 false 13 0.23286358440621158 true
genomeend 14
/* Organism #40 Fitness: 2.276 Error: 0.824 */
genomestart 40
trait 1 0.1 0 0 0 0 0 0 0 
node 1 0 1 3
node 2 0 1 1
node 3 0 1 1
node 4 0 1 1
node 5 0 1 1
node 6 0 1 1
node 7 0 1 1
node 8 0 1 1
node 9 0 1 1
node 10 0 1 1
node 11 0 1 1
node 12 0 0 0
node 13 0 0 2
node 14 0 0 2
gene 1 1 12 0.21861922859159696 false 1 0.21861922859159696 true
gene 1 2 12 -0.7957247655012265 false 2 -0.7957247655012265 true
gene 1 3 12 0.8236317047132896 false 3 0.8236317047132896 true
gene 1 4 12 0.41202429301805105 false 4 0.41202429301805105 true
gene 1 5 12 0.21408373595824584 false 5 0.21408373595824584 true
gene 1 6 12 0.07456582946758147 false 6 0.07456582946758147 true
gene 1 7 12 0.44115260721188243 false 7 0.44115260721188243 true
gene 1 8 12 0.7855159536560441 false 8 0.7855159536560441 true
gene 1 9 12 -0.47732076067851903 false 9 -0.47732076067851903 true
gene 1 10 12 -0.6082485393376352 false 10 -0.6082485393376352 true
gene 1 11 12 -0.8554655145291319 false 11 -0.8554655145291319 true
gene 1 12 13 0.2628974581835834 false 12 0.2628974581835834 true
gene 1 12 14 0.23850114325565663 false 13 0.23850114325565663 true
genomeend 40
/* Organism #181 Fitness: 2.247 Error: 0.828 */
genomestart 181
trait 1 0.1 0 0 0 0 0 0 0 
node 1 0 1 3
node 2 0 1 1
node 3 0 1 1
node 4 0 1 1
node 5 0 1 1
node 6 0 1 1
node 7 0 1 1
node 8 0 1 1
node 9 0 1 1
node 10 0 1 1
node 11 0 1 1
node 12 0 0 0
node 13 0 0 2
node 14 0 0 2
gene 1 1 12 -0.6088627453729918 false 1 -0.6088627453729918 true
gene 1 2 12 0.19861559268679835 false 2 0.19861559268679835 true
gene 1 3 12 0.6958128358909514 false 3 0.6958128358909514 true
gene 1 4 12 -0.16455446426013798 false 4 -0.16455446426013798 true
gene 1 5 12 0.703762425784037 false 5 0.703762425784037 true
gene 1 6 12 -0.537325478121264 false 6 -0.537325478121264 true
gene 1 7 12 -0.552834829737694 false 7 -0.552834829737694 true
gene 1 8 12 0.901003457984998 false 8 0.901003457984998 true
gene 1 9 12 -0.40069520616809406 false 9 -0.40069520616809406 true
gene 1 10 12 0.2267461932298011 false 10 0.2267461932298011 true
gene 1 11 12 0 false 11 0 true
gene 1 12 13 0.8067152317596552 false 12 0.8067152317596552 true
gene 1 12 14 -0.9409148124598621 false 13 -0.9409148124598621 true
genomeend 181
/* Organism #143 Fitness: 2.151 Error: 0.990 */
genomestart 143
trait 1 0.1 0 0 0 0 0 0 0 
node 1 0 1 3
node 2 0 1 1
node 3 0 1 1
node 4 0 1 1
node 5 0 1 1
node 6 0 1 1
node 7 0 1 1
node 8 0 1 1
node 9 0 1 1
node 10 0 1 1
node 11 0 1 1
node 12 0 0 0
node 13 0 0 2
node 14 0 0 2
gene 1 1 12 -0.24574893637032116 false 1 -0.24574893637032116 true
gene 1 2 12 -0.3344261966161748 false 2 -0.3344261966161748 true
gene 1 3 12 -0.7805686003883799 false 3 -0.7805686003883799 true
gene 1 4 12 0.2867972295398043 false 4 0.2867972295398043 true
gene 1 5 12 0.9141068151945952 false 5 0.9141068151945952 true
gene 1 6 12 -0.4687096962136852 false 6 -0.4687096962136852 true
gene 1 7 12 -0.19243298374562437 false 7 -0.19243298374562437 true
gene 1 8 12 0.4067950970414603 false 8 0.4067950970414603 true
gene 1 9 12 0.4129024729243437 false 9 0.4129024729243437 true
gene 1 10 12 0.23741433335767123 false 10 0.23741433335767123 true
gene 1 11 12 0.5677161533104061 false 11 0.5677161533104061 true
gene 1 12 13 0.823958544934088 false 12 0.823958544934088 true
gene 1 12 14 -0.07837958449839237 false 13 -0.07837958449839237 true
genomeend 143
/* Organism #107 Fitness: 2.077 Error: 0.849 */
genomestart 107
trait 1 0.1 0 0 0 0 0 0 0 
node 1 0 1 3
node 2 0 1 1
node 3 0 1 1
node 4 0 1 1
node 5 0 1 1
node 6 0 1 1
node 7 0 1 1
node 8 0 1 1
node 9 0 1 1
node 10 0 1 1
node 11 0 1 1
node 12 0 0 0
node 13 0 0 2
node 14 0 0 2
gene 1 1 12 0.9998262557193454 false 1 0.9998262557193454 true
gene 1 2 12 -0.07299670597839164 false 2 -0.07299670597839164 true
gene 1 3 12 0.752004513439785 false 3 0.752004513439785 true
gene 1 4 12 -0.07508601277451238 false 4 -0.07508601277451238 true
gene 1 5 12 -0.3697045359735517 false 5 -0.3697045359735517 true
gene 1 6 12 -0.439792495471066 false 6 -0.439792495471066 true
gene 1 7 12 -0.9934584505404824 false 7 -0.9934584505404824 true
gene 1 8 12 0.017905636911712357 false 8 0.017905636911712357 true
gene 1 9 12 -0.2962015519065997 false 9 -0.2962015519065997 true
gene 1 10 12 0.28235984707164463 false 10 0.28235984707164463 true
gene 1 11 12 -0.5055615978805036 false 11 -0.5055615978805036 true
gene 1 12 13 0.6278649573881592 false 12 0.6278649573881592 true
gene 1 12 14 0.6817939721359273 false 13 0.6817939721359273 true
genomeend 107
/* Organism #207 Fitness: 2.056 Error: 0.990 */
genomestart 207
trait 1 0.1 0 0 0 0 0 0 0 
node 1 0 1 3
node 2 0 1 1
node 3 0 1 1
node 4 0 1 1
node 5 0 1 1
node 6 0 1 1
node 7 0 1 1
node 8 0 1 1
node 9 0 1 1
node 10 0 1 1
node 11 0 1 1
node 12 0 0 0
node 13 0 0 2
node 14 0 0 2
gene 1 1 12 0.9934615573778046 false 1 0.9934615573778046 true
gene 1 2 12 0.6131266293915447 false 2 0.6131266293915447 true
gene 1 3 12 0.9853970143821942 false 3 0.9853970143821942 true
gene 1 4 12 -0.7022287817562606 false 4 -0.7022287817562606 true
gene 1 5 12 0 false 5 0 true
gene 1 6 12 -0.17476452333810352 false 6 -0.17476452333810352 true
gene 1 7 12 -0.9894410903173199 false 7 -0.9894410903173199 true
gene 1 8 12 -0.8423025556419274 false 8 -0.8423025556419274 true
gene 1 9 12 0.8646788525053185 false 9 0.8646788525053185 true
gene 1 10 12 0.5106858838906767 false 10 0.5106858838906767 true
gene 1 11 12 0 false 11 0 true
gene 1 12 13 0.22003249475870648 false 12 0.22003249475870648 true
gene 1 12 14 -0.34822613121977053 false 13 -0.34822613121977053 true
genomeend 207
/* Organism #203 Fitness: 2.015 Error: 0.759 */
genomestart 203
trait 1 0.1 0 0 0 0 0 0 0 
node 1 0 1 3
node 2 0 1 1
node 3 0 1 1
node 4 0 1 1
node 5 0 1 1
node 6 0 1 1
node 7 0 1 1
node 8 0 1 1
node 9 0 1 1
node 10 0 1 1
node 11 0 1 1
node 12 0 0 0
node 13 0 0 2
node 14 0 0 2
gene 1 1 12 -0.2842053392344558 false 1 -0.2842053392344558 true
gene 1 2 12 -0.4601638589257104 false 2 -0.4601638589257104 true
gene 1 3 12 -0.10733351775081093 false 3 -0.10733351775081093 true
gene 1 4 12 -0.6274678225682968 false 4 -0.6274678225682968 true
gene 1 5 12 0.9057116234686645 false 5 0.9057116234686645 true
gene 1 6 12 -0.4920209751489805 false 6 -0.4920209751489805 true
gene 1 7 12 0.46619725673422097 false 7 0.46619725673422097 true
gene 1 8 12 0.5432497924136143 false 8 0.5432497924136143 true
gene 1 9 12 0 false 9 0 true
gene 1 10 12 -0.3021290025382649 false 10 -0.3021290025382649 true
gene 1 11 12 -0.1558717075514467 false 11 -0.1558717075514467 true
gene 1 12 13 -0.19778711826829165 false 12 -0.19778711826829165 true
gene 1 12 14 0.44299832927009586 false 13 0.44299832927009586 true
genomeend 203
/* Organism #210 Fitness: 1.999 Error: 0.990 */
genomestart 210
trait 1 0.1 0 0 0 0 0 0 0 
node 1 0 1 3
node 2 0 1 1
node 3 0 1 1
node 4 0 1 1
node 5 0 1 1
node 6 0 1 1
node 7 0 1 1
node 8 0 1 1
node 9 0 1 1
node 10 0 1 1
node 11 0 1 1
node 12 0 0 0
node 13 0 0 2
node 14 0 0 2
gene 1 1 12 -0.07296034046979621 false 1 -0.07296034046979621 true
gene 1 2 12 -0.04143554558517473 false 2 -0.04143554558517473 true
gene 1 3 12 -0.19184106337964385 false 3 -0.19184106337964385 true
gene 1 4 12 0.5281281237866309 false 4 0.5281281237866309 true
gene 1 5 12 -0.05326923742155717 false 5 -0.05326923742155717 true
gene 1 6 12 0.14938243135477033 false 6 0.14938243135477033 true
gene 1 7 12 0.5691906308121717 false 7 0.5691906308121717 true
gene 1 8 12 0.5947309549514677 false 8 0.5947309549514677 true
gene 1 9 12 -0.7985977605550856 false 9 -0.7985977605550856 true
gene 1 10 12 0.6845933698140457 false 10 0.6845933698140457 true
gene 1 11 12 -0.21161026812591194 false 11 -0.21161026812591194 true
gene 1 12 13 0.9612603678245927 false 12 0.9612603678245927 true
gene 1 12 14 -0.7690667033217647 false 13 -0.7690667033217647 true
genomeend 210
/* Organism #55 Fitness: 1.988 Error: 0.768 */
genomestart 55
trait 1 0.1 0 0 0 0 0 0 0 
node 1 0 1 3
node 2 0 1 1
node 3 0 1 1
node 4 0 1 1
node 5 0 1 1
node 6 0 1 1
node 7 0 1 1
node 8 0 1 1
node 9 0 1 1
node 10 0 1 1
node 11 0 1 1
node 12 0 0 0
node 13 0 0 2
node 14 0 0 2
gene 1 1 12 0.503421082114362 false 1 0.503421082114362 true
gene 1 2 12 -0.4868502118665445 false 2 -0.4868502118665445 true
gene 1 3 12 -0.013139789104968566 false 3 -0.013139789104968566 true
gene 1 4 12 0.016495481942662864 false 4 0.016495481942662864 true
gene 1 5 12 -0.5591497837587408 false 5 -0.5591497837587408 true
gene 1 6 12 0.15426265008496767 false 6 0.15426265008496767 true
gene 1 7 12 -0.8792316055583733 false 7 -0.8792316055583733 true
gene 1 8 12 -0.5055572950727255 false 8 -0.5055572950727255 true
gene 1 9 12 0.671505836566374 false 9 0.671505836566374 true
gene 1 10 12 -0.8807938408798983 false 10 -0.8807938408798983 true
gene 1 11 12 0.05109609031913335 false 11 0.05109609031913335 true
gene 1 12 13 -0.38122598662995677 false 12 -0.38122598662995677 true
gene 1 12 14 -0.36412144863935125 false 13 -0.36412144863935125 true
genomeend 55
/* Organism #166 Fitness: 1.803 Error: 0.990 */
genomestart 166
trait 1 0.1 0 0 0 0 0 0 0 
node 1 0 1 3
node 2 0 1 1
node 3 0 1 1
node 4 0 1 1
node 5 0 1 1
node 6 0 1 1
node 7 0 1 1
node 8 0 1 1
node 9 0 1 1
node 10 0 1 1
node 11 0 1 1
node 12 0 0 0
node 13 0 0 2
node 14 0 0 2
gene 1 1 12 -0.16333716343419127 false 1 -0.16333716343419127 true
gene 1 2 12 -0.03768522603203868 false 2 -0.03768522603203868 true
gene 1 3 12 0.46243515223084314 false 3 0.46243515223084314 true
gene 1 4 12 -0.1779019210107698 false 4 -0.1779019210107698 true
gene 1 5 12 0.6407673445960378 false 5 0.6407673445960378 true
gene 1 6 12 -0.8052544860765676 false 6 -0.8052544860765676 true
gene 1 7 12 0 false 7 0 true
gene 1 8 12 0.32270156062104033 false 8 0.32270156062104033 true
gene 1 9 12 0.8980392106366742 false 9 0.8980392106366742 true
gene 1 10 12 -0.3213711679846648 false 10 -0.3213711679846648 true
gene 1 11 12 0.294311774405198 false 11 0.294311774405198 true
gene 1 12 13 0.7726138349630626 false 12 0.7726138349630626 true
gene 1 12 14 -0.708632153171392 false 13 -0.708632153171392 true
genomeend 166
/* Organism #61 Fitness: 1.796 Error: 0.779 */
genomestart 61
trait 1 0.1 0 0 0 0 0 0 0 
node 1 0 1 3
node 2 0 1 1
node 3 0 1 1
node 4 0 1 1
node 5 0 1 1
node 6 0 1 1
node 7 0 1 1
node 8 0 1 1
node 9 0 1 1
node 10 0 1 1
node 11 0 1 1
node 12 0 0 0
node 13 0 0 2
node 14 0 0 2
gene 1 1 12 -0.31331069862175687 false 1 -0.31331069862175687 true
gene 1 2 12 0.8051545015412005 false 2 0.8051545015412005 true
gene 1 3 12 -0.7873282278597203 false 3 -0.7873282278597203 true
gene 1 4 12 -0.788222482515692 false 4 -0.788222482515692 true
gene 1 5 12 0.4171045634324691 false 5 0.4171045634324691 true
gene 1 6 12 -0.5112776550506684 false 6 -0.5112776550506684 true
gene 1 7 12 0.7177716654275198 false 7 0.7177716654275198 true
gene 1 8 12 0.17062461176657137 false 8 0.17062461176657137 true
gene 1 9 12 -0.7924111873252266 false 9 -0.7924111873252266 true
gene 1 10 12 -0.9995041979989858 false 10 -0.9995041979989858 true
gene 1 11 12 -0.453922416746934 false 11 -0.453922416746934 true
gene 1 12 13 -0.18394401893781775 false 12 -0.18394401893781775 true
gene 1 12 14 -0.8562197025768165 false 13 -0.8562197025768165 true
genomeend 61
/* Organism #114 Fitness: 1.790 Error: 0.990 */
genomestart 114
trait 1 0.1 0 0 0 0 0 0 0 
node 1 0 1 3
node 2 0 1 1
node 3 0 1 1
node 4 0 1 1
node 5 0 1 1
node 6 0 1 1
node 7 0 1 1
node 8 0 1 1
node 9 0 1 1
node 10 0 1 1
node 11 0 1 1
node 12 0 0 0
node 13 0 0 2
node 14 0 0 2
gene 1 1 12 -0.2017931055496566 false 1 -0.2017931055496566 true
gene 1 2 12 0.2917360408366215 false 2 0.2917360408366215 true
gene 1 3 12 0.7153793773339122 false 3 0.7153793773339122 true
gene 1 4 12 -0.40178251087374584 false 4 -0.40178251087374584 true
gene 1 5 12 -0.09739927793851748 false 5 -0.09739927793851748 true
gene 1 6 12 0.867855556077601 false 6 0.867855556077601 true
gene 1 7 12 -0.5387920791185459 false 7 -0.5387920791185459 true
gene 1 8 12 -0.016525314612006813 false 8 -0.016525314612006813 true
gene 1 9 12 0.08801733209587434 false 9 0.08801733209587434 true
gene 1 10 12 -0.43435887886760466 false 10 -0.43435887886760466 true
gene 1 11 12 0.5217967385092531 false 11 0.5217967385092531 true
gene 1 12 13 0.6399015238826377 false 12 0.6399015238826377 true
gene 1 12 14 -0.19466028843430164 false 13 -0.19466028843430164 true
genomeend 114
/* Organism #213 Fitness: 1.763 Error: 0.829 */
genomestart 213
trait 1 0.1 0 0 0 0 0 0 0 
node 1 0 1 3
node 2 0 1 1
node 3 0 1 1
node 4 0 1 1
node 5 0 1 1
node 6 0 1 1
node 7 0 1 1
node 8 0 1 1
node 9 0 1 1
node 10 0 1 1
node 11 0 1 1
node 12 0 0 0
node 13 0 0 2
node 14 0 0 2
gene 1 1 12 0.40627272639527023 false 1 0.40627272639527023 true
gene 1 2 12 0.17858491755267006 false 2 0.17858491755267006 true
gene 1 3 12 -0.9749141973447536 false 3 -0.9749141973447536 true
gene 1 4 12 0.511801714598045 false 4 0.511801714598045 true
gene 1 5 12 0.085679381241781 false 5 0.085679381241781 true
gene 1 6 12 -0.3255537587969955 false 6 -0.3255537587969955 true
gene 1 7 12 -0.44213419702374085 false 7 -0.44213419702374085 true
gene 1 8 12 -0.3555154929259854 false 8 -0.3555154929259854 true
gene 1 9 12 -0.17462463623690108 false 9 -0.17462463623690108 true
gene 1 10 12 0.030561409047257758 false 10 0.030561409047257758 true
gene 1 11 12 -0.7826133520034415 false 11 -0.7826133520034415 true
gene 1 12 13 0.9188312259852822 false 12 0.9188312259852822 true
gene 1 12 14 0.29447648133704285 false 13 0.29447648133704285 true
genomeend 213
/* Organism #18 Fitness: 1.749 Error: 0.728 */
genomestart 18
trait 1 0.1 0 0 0 0 0 0 0 
node 1 0 1 3
node 2 0 1 1
node 3 0 1 1
node 4 0 1 1
node 5 0 1 1
node 6 0 1 1
node 7 0 1 1
node 8 0 1 1
node 9 0 1 1
node 10 0 1 1
node 11 0 1 1
node 12 0 0 0
node 13 0 0 2
node 14 0 0 2
gene 1 1 12 0.676207264252458 false 1 0.676207264252458 true
gene 1 2 12 0.2662441545318708 false 2 0.2662441545318708 true
gene 1 3 12 -0.6944397180465871 false 3 -0.6944397180465871 true
gene 1 4 12 0 false 4 0 true
gene 1 5 12 -0.1680437090104307 false 5 -0.1680437090104307 true
gene 1 6 12 0.4327818975611659 false 6 0.4327818975611659 true
gene 1 7 12 -0.3472703044620651 false 7 -0.3472703044620651 true
gene 1 8 12 -0.20349489067422438 false 8 -0.20349489067422438 true
gene 1 9 12 -0.2746362686164169 false 9 -0.2746362686164169 true
gene 1 10 12 -0.942790460113125 false 10 -0.942790460113125 true
gene 1 11 12 0.12228807083265825 false 11 0.12228807083265825 true
gene 1 12 13 -0.9852320513963114 false 12 -0.9852320513963114 true
gene 1 12 14 0.6519133734976048 false 13 0.6519133734976048 true
genomeend 18
/* Organism #76 Fitness: 1.731 Error: 0.828 */
genomestart 76
trait 1 0.1 0 0 0 0 0 0 0 
node 1 0 1 3
node 2 0 1 1
node 3 0 1 1
node 4 0 1 1
node 5 0 1 1
node 6 0 1 1
node 7 0 1 1
node 8 0 1 1
node 9 0 1 1
node 10 0 1 1
node 11 0 1 1
node 12 0 0 0
node 13 0 0 2
node 14 0 0 2
gene 1 1 12 -0.6767879283566409 false 1 -0.6767879283566409 true
gene 1 2 12 0.08439256685866738 false 2 0.08439256685866738 true
gene 1 3 12 -0.837817816147737 false 3 -0.837817816147737 true
gene 1 4 12 -0.5618876443586799 false 4 -0.5618876443586799 true
gene 1 5 12 0 false 5 0 true
gene 1 6 12 0.6845131702634583 false 6 0.6845131702634583 true
gene 1 7 12 0.6279439292937693 false 7 0.6279439292937693 true
gene 1 8 12 0.4371944589116458 false 8 0.4371944589116458 true
gene 1 9 12 0 false 9 0 true
gene 1 10 12 0.9480676096938049 false 10 0.9480676096938049 true
gene 1 11 12 -0.8718013003508605 false 11 -0.8718013003508605 true
gene 1 12 13 0.5037337100229048 false 12 0.5037337100229048 true
gene 1 12 14 0.6332931053374128 false 13 0.6332931053374128 true
genomeend 76
/* Organism #139 Fitness: 1.725 Error: 0.835 */
genomestart 139
trait 1 0.1 0 0 0 0 0 0 0 
node 1 0 1 3
node 2 0 1 1
node 3 0 1 1
node 4 0 1 1
node 5 0 1 1
node 6 0 1 1
node 7 0 1 1
node 8 0 1 1
node 9 0 1 1
node 10 0 1 1
node 11 0 1 1
node 12 0 0 0
node 13 0 0 2
node 14 0 0 2
gene 1 1 12 0.22378585123451555 false 1 0.22378585123451555 true
gene 1 2 12 0.42952479981754493 false 2 0.42952479981754493 true
gene 1 3 12 0.2511139157161376 false 3 0.2511139157161376 true
gene 1 4 12 0.2715488417317883 false 4 0.2715488417317883 true
gene 1 5 12 0.8306946723500243 false 5 0.8306946723500243 true
gene 1 6 12 0.5495650655182618 false 6 0.5495650655182618 true
gene 1 7 12 -0.6404622110403944 false 7 -0.6404622110403944 true
gene 1 8 12 0.7115471593548482 false 8 0.7115471593548482 true
gene 1 9 12 0.654265748707122 false 9 0.654265748707122 true
gene 1 10 12 -0.25875357419244277 false 10 -0.25875357419244277 true
gene 1 11 12 0.9540262102193984 false 11 0.9540262102193984 true
gene 1 12 13 0.19428881617674104 false 12 0.19428881617674104 true
gene 1 12 14 0.9165446258785631 false 13 0.9165446258785631 true
genomeend 139
/* Organism #48 Fitness: 1.720 Error: 0.822 */
genomestart 48
trait 1 0.1 0 0 0 0 0 0 0 
node 1 0 1 3
node 2 0 1 1
node 3 0 1 1
node 4 0 1 1
node 5 0 1 1
node 6 0 1 1
node 7 0 1 1
node 8 0 1 1
node 9 0 1 1
node 10 0 1 1
node 11 0 1 1
node 12 0 0 0
node 13 0 0 2
node 14 0 0 2
gene 1 1 12 0.1560722144131088 false 1 0.1560722144131088 true
gene 1 2 12 0.35701500496570066 false 2 0.35701500496570066 true
gene 1 3 12 0.6869038374927582 false 3 0.6869038374927582 true
gene 1 4 12 0.6554679712881404 false 4 0.6554679712881404 true
gene 1 5 12 -0.1187103571190875 false 5 -0.1187103571190875 true
gene 1 6 12 -0.3204417077502465 false 6 -0.3204417077502465 true
gene 1 7 12 -0.5758567555064347 false 7 -0.5758567555064347 true
gene 1 8 12 -0.8447263664711646 false 8 -0.8447263664711646 true
gene 1 9 12 0.8680259430179957 false 9 0.8680259430179957 true
