genomestart 110
trait 1 0.9590707097770276 0 2.6668305434842887 0.018334900626769547 1.3243235485187965 1.1244642745186888 0 0.9325142059367902 
node 1 1 1 3
node 2 1 1 1
node 3 1 1 1
node 4 1 1 1
node 5 1 1 1
node 6 1 1 1
node 7 1 1 1
node 8 1 1 1
node 9 1 1 1
node 10 1 1 1
node 11 1 1 1
node 12 1 0 0
node 13 1 0 2
node 14 1 0 2
node 91 1 0 0
node 293 1 0 0
gene 1 1 12 -4.576498164739133 false 1 -4.576498164739133 true
gene 1 2 12 0.4948392760953715 false 2 0.4948392760953715 true
gene 1 3 12 0.8138019438226962 false 3 0.8138019438226962 true
gene 1 4 12 0.43058250409284277 false 4 0.43058250409284277 true
gene 1 5 12 -2.163033708270094 false 5 -2.163033708270094 true
gene 1 6 12 2.704217852603769 false 6 2.704217852603769 true
gene 1 7 12 -0.4085760112738496 false 7 -0.4085760112738496 true
gene 1 8 12 -0.8553709309189523 false 8 -0.8553709309189523 true
gene 1 9 12 0.9841404013998012 false 9 0.9841404013998012 true
gene 1 10 12 0.40786911224262856 false 10 0.40786911224262856 true
gene 1 11 12 0.3799347618317312 false 11 0.3799347618317312 true
gene 1 12 13 0.38105208367502363 false 12 0.38105208367502363 true
gene 1 12 14 0.7415885020928793 false 13 0.7415885020928793 true
gene 1 13 13 0.8206281415640864 true 45 0.8206281415640864 true
gene 1 2 14 -1.6197707394578604 false 67 -1.6197707394578604 true
gene 1 8 14 3.366010729950449 false 103 3.366010729950449 true
gene 1 4 14 1.2785687260494811 false 161 1.2785687260494811 true
gene 1 6 14 1.9804750829334559 false 268 1.9804750829334559 true
gene 1 1 13 -0.8394906007872294 false 350 -0.8394906007872294 true
gene 1 11 91 0.14625419810103246 false 428 0.14625419810103246 true
gene 1 91 12 1.044585001716765 false 429 1.044585001716765 true
gene 1 91 13 -6.9350112237685435 false 1161 -6.9350112237685435 true
gene 1 10 91 7.809524296602404 false 1166 7.809524296602404 true
gene 1 3 13 -2.718829029398145 false 1209 -2.718829029398145 true
gene 1 7 91 -7.519474074603812 false 1386 -7.519474074603812 true
gene 1 91 14 -10.212903374138167 false 1429 -10.212903374138167 true
gene 1 11 293 1.4528969874579205 false 1431 1.4528969874579205 true
gene 1 293 12 0.42889178795436333 false 1432 0.42889178795436333 true
gene 1 2 91 -0.1978743443521302 false 1542 -0.1978743443521302 true
genomeend 110
