/* Species #0 : (Size 9) (AF 0.513) (Age 201)  */
/* Organism #5 Fitness: 0.694 Error: 0.306 */
genomestart 5
trait 1 0.11976626727824569 0.987792288024939 0.008773574502748953 0.020160635345395257 0.0005370793297545858 0.07071635880118116 1.5894474909958674 0.3308798930172626 
node 1 1 1 3
node 2 1 1 1
node 3 1 1 1
node 4 1 1 1
node 5 1 1 1
node 6 1 1 1
node 7 1 1 1
node 8 1 1 1
node 9 1 1 1
node 10 1 1 1
node 11 1 1 1
node 12 1 0 0
node 13 1 0 2
node 14 1 0 2
node 181 1 0 0
node 213 1 0 0
node 221 1 0 0
node 465 1 0 0
node 908 1 0 0
node 986 1 0 0
gene 1 1 12 1.1499614455689886 false 1 1.1499614455689886 true
gene 1 2 12 -1.7350024653522307 false 2 -1.7350024653522307 true
gene 1 3 12 -0.448814200496529 false 3 -0.448814200496529 true
gene 1 4 12 -0.6367134540942995 false 4 -0.6367134540942995 true
gene 1 5 12 -0.5577902412904469 false 5 -0.5577902412904469 true
gene 1 6 12 -0.6282439630961594 false 6 -0.6282439630961594 true
gene 1 7 12 -1.019230664221437 false 7 -1.019230664221437 true
gene 1 8 12 -0.9168880663910286 false 8 -0.9168880663910286 true
gene 1 9 12 0.4591811826274743 false 9 0.4591811826274743 true
gene 1 10 12 1.7280296228789331 false 10 1.7280296228789331 true
gene 1 11 12 -0.02305095698218257 false 11 -0.02305095698218257 true
gene 1 12 13 -1.2130560208449785 false 12 -1.2130560208449785 true
gene 1 12 14 3.336586302649004 false 13 3.336586302649004 true
gene 1 8 14 -0.811542294621165 false 125 -0.811542294621165 true
gene 1 5 13 -1.4880129011680572 false 179 -1.4880129011680572 true
gene 1 5 181 1.0088380388336364 false 906 1.0088380388336364 true
gene 1 181 13 1.3528663037406439 false 907 1.3528663037406439 true
gene 1 181 213 -3.480898798529116 false 1089 -3.480898798529116 true
gene 1 213 13 -7.91113950975021 false 1090 -7.91113950975021 true
gene 1 7 221 -1.0204343426319242 false 1123 -1.0204343426319242 true
gene 1 221 12 -1.4099275873107215 false 1124 -1.4099275873107215 true
gene 1 1 181 1.4979501103948727 false 1294 1.4979501103948727 true
gene 1 6 13 -5.3894531203055465 false 2187 -5.3894531203055465 true
gene 1 181 465 -0.33305276321666155 false 2471 -0.33305276321666155 true
gene 1 465 13 1.7073330466880023 false 2472 1.7073330466880023 true
gene 1 13 13 -2.479495114963773 true 2522 -2.479495114963773 true
gene 1 10 213 0.44606854732327206 false 3791 0.44606854732327206 true
gene 1 6 221 6.063677080622586 false 4657 6.063677080622586 true
gene 1 6 908 -0.369868506510332 false 4806 -0.369868506510332 true
gene 1 908 221 0.33889038711707176 false 4807 0.33889038711707176 true
gene 1 13 465 8.309899325252122 true 4876 8.309899325252122 true
gene 1 213 465 0.5632309618442815 false 4989 0.5632309618442815 true
gene 1 6 465 -2.0561964542116495 false 5183 -2.0561964542116495 true
gene 1 6 986 0.9584808214261823 false 5290 0.9584808214261823 true
gene 1 986 13 -6.334241622199027 false 5291 -6.334241622199027 true
genomeend 5
/* Organism #0 Fitness: 0.694 Error: 0.306 */
genomestart 0
trait 1 0.11976626727824569 0.987792288024939 0.008773574502748953 0.020160635345395257 0.0005370793297545858 0.07071635880118116 1.5894474909958674 0.3308798930172626 
node 1 1 1 3
node 2 1 1 1
node 3 1 1 1
node 4 1 1 1
node 5 1 1 1
node 6 1 1 1
node 7 1 1 1
node 8 1 1 1
node 9 1 1 1
node 10 1 1 1
node 11 1 1 1
node 12 1 0 0
node 13 1 0 2
node 14 1 0 2
node 181 1 0 0
node 213 1 0 0
node 221 1 0 0
node 465 1 0 0
node 908 1 0 0
node 986 1 0 0
gene 1 1 12 1.1499614455689886 false 1 1.1499614455689886 true
gene 1 2 12 -1.7350024653522307 false 2 -1.7350024653522307 true
gene 1 3 12 -0.448814200496529 false 3 -0.448814200496529 true
gene 1 4 12 -0.6367134540942995 false 4 -0.6367134540942995 true
gene 1 5 12 -0.5577902412904469 false 5 -0.5577902412904469 true
gene 1 6 12 -0.6282439630961594 false 6 -0.6282439630961594 true
gene 1 7 12 -1.019230664221437 false 7 -1.019230664221437 true
gene 1 8 12 -0.9168880663910286 false 8 -0.9168880663910286 true
gene 1 9 12 0.4591811826274743 false 9 0.4591811826274743 true
gene 1 10 12 1.7280296228789331 false 10 1.7280296228789331 true
gene 1 11 12 -0.02305095698218257 false 11 -0.02305095698218257 true
gene 1 12 13 -1.2130560208449785 false 12 -1.2130560208449785 true
gene 1 12 14 3.336586302649004 false 13 3.336586302649004 true
gene 1 8 14 -0.811542294621165 false 125 -0.811542294621165 true
gene 1 5 13 -1.4880129011680572 false 179 -1.4880129011680572 true
gene 1 5 181 1.0088380388336364 false 906 1.0088380388336364 true
gene 1 181 13 1.3528663037406439 false 907 1.3528663037406439 true
gene 1 181 213 -3.480898798529116 false 1089 -3.480898798529116 true
gene 1 213 13 -7.91113950975021 false 1090 -7.91113950975021 true
gene 1 7 221 -1.0204343426319242 false 1123 -1.0204343426319242 true
gene 1 221 12 -1.4099275873107215 false 1124 -1.4099275873107215 true
gene 1 1 181 1.4979501103948727 false 1294 1.4979501103948727 true
gene 1 6 13 -5.3894531203055465 false 2187 -5.3894531203055465 true
gene 1 181 465 -0.33305276321666155 false 2471 -0.33305276321666155 true
gene 1 465 13 1.7073330466880023 false 2472 1.7073330466880023 true
gene 1 13 13 -2.479495114963773 true 2522 -2.479495114963773 true
gene 1 10 213 0.44606854732327206 false 3791 0.44606854732327206 true
gene 1 6 221 6.063677080622586 false 4657 6.063677080622586 true
gene 1 6 908 -0.369868506510332 false 4806 -0.369868506510332 true
gene 1 908 221 0.33889038711707176 false 4807 0.33889038711707176 true
gene 1 13 465 8.309899325252122 true 4876 8.309899325252122 true
gene 1 213 465 0.5632309618442815 false 4989 0.5632309618442815 true
gene 1 6 465 -2.0561964542116495 false 5183 -2.0561964542116495 true
gene 1 6 986 0.9584808214261823 false 5290 0.9584808214261823 true
gene 1 986 13 -6.334241622199027 false 5291 -6.334241622199027 true
genomeend 0
/* Organism #7 Fitness: 0.689 Error: 0.311 */
genomestart 7
trait 1 0.11976626727824569 1.2985499847099113 0.40919271159961634 0.020160635345395257 0 0.07071635880118116 1.5894474909958674 0 
node 1 1 1 3
node 2 1 1 1
node 3 1 1 1
node 4 1 1 1
node 5 1 1 1
node 6 1 1 1
node 7 1 1 1
node 8 1 1 1
node 9 1 1 1
node 10 1 1 1
node 11 1 1 1
node 12 1 0 0
node 13 1 0 2
node 14 1 0 2
node 181 1 0 0
node 213 1 0 0
node 221 1 0 0
node 465 1 0 0
node 908 1 0 0
node 986 1 0 0
gene 1 1 12 0.4592473398919874 false 1 0.4592473398919874 true
gene 1 2 12 -0.9968288517915589 false 2 -0.9968288517915589 true
gene 1 3 12 -0.8818120313863191 false 3 -0.8818120313863191 true
gene 1 4 12 0.15558780076411408 false 4 0.15558780076411408 true
gene 1 5 12 -0.311977247979656 false 5 -0.311977247979656 true
gene 1 6 12 -0.12262903332086206 false 6 -0.12262903332086206 true
gene 1 7 12 -1.019230664221437 false 7 -1.019230664221437 true
gene 1 8 12 -0.9168880663910286 false 8 -0.9168880663910286 true
gene 1 9 12 -0.552840141046884 false 9 -0.552840141046884 true
gene 1 10 12 2.169070301970639 false 10 2.169070301970639 true
gene 1 11 12 0.5271083913316525 false 11 0.5271083913316525 true
gene 1 12 13 -1.6499362355364882 false 12 -1.6499362355364882 true
gene 1 12 14 3.1188255882482165 false 13 3.1188255882482165 true
gene 1 8 14 -1.543200013403145 false 125 -1.543200013403145 true
gene 1 5 13 -1.6283372118723172 false 179 -1.6283372118723172 true
gene 1 5 181 0.4605457162918156 false 906 0.4605457162918156 true
gene 1 181 13 0.6625099054446923 false 907 0.6625099054446923 true
gene 1 181 213 0.1083849272532958 false 1089 0.1083849272532958 true
gene 1 213 13 -0.46603364614479786 false 1090 -0.46603364614479786 true
gene 1 7 221 -1.8096330598428083 false 1123 -1.8096330598428083 true
gene 1 221 12 -1.4099275873107215 false 1124 -1.4099275873107215 true
gene 1 1 181 1.4979501103948727 false 1294 1.4979501103948727 true
gene 1 6 13 -6.087103103605579 false 2187 -6.087103103605579 true
gene 1 181 465 0.39105379845878363 false 2471 0.39105379845878363 true
gene 1 465 13 1.6375899744556508 false 2472 1.6375899744556508 true
gene 1 13 13 -2.230982757938051 true 2522 -2.230982757938051 true
gene 1 10 213 -0.2621371829593323 false 3791 -0.2621371829593323 true
gene 1 6 221 6.722545431808841 false 4657 6.722545431808841 true
gene 1 6 908 -0.7651441493201852 false 4806 -0.7651441493201852 true
gene 1 908 221 1.0678181634316017 false 4807 1.0678181634316017 true
gene 1 13 465 8.560644307374805 true 4876 8.560644307374805 true
gene 1 213 465 0.5632309618442815 false 4989 0.5632309618442815 false
gene 1 6 465 0.469458281390311 false 5183 0.469458281390311 true
gene 1 6 986 1.0196547638828999 false 5290 1.0196547638828999 true
gene 1 986 13 -6.905776871429539 false 5291 -6.905776871429539 true
genomeend 7
/* Organism #1 Fitness: 0.685 Error: 0.315 */
genomestart 1
trait 1 0.11976626727824569 0.987792288024939 0.008773574502748953 0.020160635345395257 0.0005370793297545858 0.07071635880118116 1.5894474909958674 0.3308798930172626 
node 1 1 1 3
node 2 1 1 1
node 3 1 1 1
node 4 1 1 1
node 5 1 1 1
node 6 1 1 1
node 7 1 1 1
node 8 1 1 1
node 9 1 1 1
node 10 1 1 1
node 11 1 1 1
node 12 1 0 0
node 13 1 0 2
node 14 1 0 2
node 181 1 0 0
node 213 1 0 0
node 221 1 0 0
node 465 1 0 0
node 908 1 0 0
node 986 1 0 0
gene 1 1 12 0.8148165498024584 false 1 0.8148165498024584 true
gene 1 2 12 -2.104981162146744 false 2 -2.104981162146744 true
gene 1 3 12 0.2842570708362939 false 3 0.2842570708362939 true
gene 1 4 12 -1.0342654532646467 false 4 -1.0342654532646467 true
gene 1 5 12 -1.1930554915991496 false 5 -1.1930554915991496 true
gene 1 6 12 0.004228743987192418 false 6 0.004228743987192418 true
gene 1 7 12 -1.2500716431938501 false 7 -1.2500716431938501 true
gene 1 8 12 -0.7781251115755061 false 8 -0.7781251115755061 true
gene 1 9 12 -0.06304877970344558 false 9 -0.06304877970344558 true
gene 1 10 12 1.9451161195529667 false 10 1.9451161195529667 true
gene 1 11 12 0.45024284533056985 false 11 0.45024284533056985 true
gene 1 12 13 -1.8193414963518806 false 12 -1.8193414963518806 true
gene 1 12 14 2.7008572512927 false 13 2.7008572512927 true
gene 1 8 14 -1.0665334426512367 false 125 -1.0665334426512367 true
gene 1 5 13 -0.8151739250052024 false 179 -0.8151739250052024 true
gene 1 5 181 0.8231021388463055 false 906 0.8231021388463055 true
gene 1 181 13 1.478521255772364 false 907 1.478521255772364 true
gene 1 181 213 -3.961449974838186 false 1089 -3.961449974838186 true
gene 1 213 13 -8.332917053564374 false 1090 -8.332917053564374 true
gene 1 7 221 -0.379517511435133 false 1123 -0.379517511435133 true
gene 1 221 12 -0.9062069227547417 false 1124 -0.9062069227547417 true
gene 1 1 181 1.6083794597911785 false 1294 1.6083794597911785 true
gene 1 6 13 -5.21333588737747 false 2187 -5.21333588737747 true
gene 1 181 465 0.06626632623760387 false 2471 0.06626632623760387 true
gene 1 465 13 1.3985046532187213 false 2472 1.3985046532187213 true
gene 1 13 13 -3.2252013048887647 true 2522 -3.2252013048887647 true
gene 1 10 213 0.3947682594915874 false 3791 0.3947682594915874 true
gene 1 6 221 5.937219815657383 false 4657 5.937219815657383 true
gene 1 6 908 -0.3441785289031849 false 4806 -0.3441785289031849 true
gene 1 908 221 0.20768099568300433 false 4807 0.20768099568300433 true
gene 1 13 465 8.796658564040335 true 4876 8.796658564040335 true
gene 1 213 465 -0.2748837289280616 false 4989 -0.2748837289280616 true
gene 1 6 465 -2.0561964542116495 false 5183 -2.0561964542116495 true
gene 1 6 986 0.46941987410844754 false 5290 0.46941987410844754 true
gene 1 986 13 0.24309499440170057 false 5291 0.24309499440170057 true
genomeend 1
/* Organism #6 Fitness: 0.595 Error: 0.405 */
genomestart 6
trait 1 0.11976626727824569 0.987792288024939 0.008773574502748953 0.020160635345395257 0.0005370793297545858 0.07071635880118116 1.5894474909958674 0.3308798930172626 
node 1 1 1 3
node 2 1 1 1
node 3 1 1 1
node 4 1 1 1
node 5 1 1 1
node 6 1 1 1
node 7 1 1 1
node 8 1 1 1
node 9 1 1 1
node 10 1 1 1
node 11 1 1 1
node 12 1 0 0
node 13 1 0 2
node 14 1 0 2
node 181 1 0 0
node 213 1 0 0
node 221 1 0 0
node 465 1 0 0
node 908 1 0 0
node 986 1 0 0
gene 1 1 12 1.1499614455689886 false 1 1.1499614455689886 true
gene 1 2 12 -0.2895246519990355 false 2 -0.2895246519990355 true
gene 1 3 12 0.21066351621747503 false 3 0.21066351621747503 true
gene 1 4 12 -1.0337651450496264 false 4 -1.0337651450496264 true
gene 1 5 12 -1.3504816670945141 false 5 -1.3504816670945141 true
gene 1 6 12 -0.28669303248901773 false 6 -0.28669303248901773 true
gene 1 7 12 -0.3569671386084711 false 7 -0.3569671386084711 true
gene 1 8 12 -0.6233048360907856 false 8 -0.6233048360907856 true
gene 1 9 12 0.75117167335364 false 9 0.75117167335364 true
gene 1 10 12 2.4656009547442657 false 10 2.4656009547442657 true
gene 1 11 12 0.7457797106952919 false 11 0.7457797106952919 true
gene 1 12 13 -1.846075194221732 false 12 -1.846075194221732 true
gene 1 12 14 3.3416932562554575 false 13 3.3416932562554575 true
gene 1 8 14 -0.536316308634003 false 125 -0.536316308634003 true
gene 1 5 13 -0.7548942791682247 false 179 -0.7548942791682247 true
gene 1 5 181 0.27221421018527914 false 906 0.27221421018527914 true
gene 1 181 13 1.783282114979059 false 907 1.783282114979059 true
gene 1 181 213 -3.480898798529116 false 1089 -3.480898798529116 true
gene 1 213 13 -8.64571610841313 false 1090 -8.64571610841313 true
gene 1 7 221 -0.5791730687716385 false 1123 -0.5791730687716385 true
gene 1 221 12 -0.4643956759324482 false 1124 -0.4643956759324482 true
gene 1 1 181 1.908485885608573 false 1294 1.908485885608573 true
gene 1 6 13 -5.773793648525439 false 2187 -5.773793648525439 true
gene 1 181 465 0.12698516495543843 false 2471 0.12698516495543843 true
gene 1 465 13 0.9160671843378931 false 2472 0.9160671843378931 true
gene 1 13 13 -2.369642097763103 true 2522 -2.369642097763103 true
gene 1 10 213 0.15982393766230366 false 3791 0.15982393766230366 true
gene 1 6 221 6.063677080622586 false 4657 6.063677080622586 true
gene 1 6 908 0.27441499668887603 false 4806 0.27441499668887603 true
gene 1 908 221 0.08969383555044269 false 4807 0.08969383555044269 true
gene 1 13 465 -0.2743667224770062 true 4876 -0.2743667224770062 true
gene 1 213 465 0.19220963616952036 false 4989 0.19220963616952036 true
gene 1 6 465 -1.8405928335567818 false 5183 -1.8405928335567818 true
gene 1 6 986 1.5111561161119111 false 5290 1.5111561161119111 true
gene 1 986 13 -0.7094257352584966 false 5291 -0.7094257352584966 true
genomeend 6
/* Organism #3 Fitness: 0.460 Error: 0.540 */
genomestart 3
trait 1 0.11976626727824569 0.987792288024939 0.008773574502748953 0.020160635345395257 0.0005370793297545858 0.07071635880118116 1.5894474909958674 0.3308798930172626 
node 1 1 1 3
node 2 1 1 1
node 3 1 1 1
node 4 1 1 1
node 5 1 1 1
node 6 1 1 1
node 7 1 1 1
node 8 1 1 1
node 9 1 1 1
node 10 1 1 1
node 11 1 1 1
node 12 1 0 0
node 13 1 0 2
node 14 1 0 2
node 181 1 0 0
node 213 1 0 0
node 221 1 0 0
node 465 1 0 0
node 908 1 0 0
node 986 1 0 0
gene 1 1 12 1.1140110825233174 false 1 1.1140110825233174 true
gene 1 2 12 -1.7350024653522307 false 2 -1.7350024653522307 true
gene 1 3 12 -0.028255670964224766 false 3 -0.028255670964224766 true
gene 1 4 12 -0.6307539735598733 false 4 -0.6307539735598733 true
gene 1 5 12 0.6829801914719049 false 5 0.6829801914719049 true
gene 1 6 12 -0.6327936003149726 false 6 -0.6327936003149726 true
gene 1 7 12 -1.5330634705860406 false 7 -1.5330634705860406 true
gene 1 8 12 -0.9168880663910286 false 8 -0.9168880663910286 true
gene 1 9 12 1.2080901693930732 false 9 1.2080901693930732 true
gene 1 10 12 1.7280296228789331 false 10 1.7280296228789331 true
gene 1 11 12 0.3303865421523647 false 11 0.3303865421523647 true
gene 1 12 13 -0.6036672153536659 false 12 -0.6036672153536659 true
gene 1 12 14 3.7908689026415683 false 13 3.7908689026415683 true
gene 1 8 14 -0.7299163839088098 false 125 -0.7299163839088098 true
gene 1 5 13 -0.6779505686240033 false 179 -0.6779505686240033 true
gene 1 5 181 0.7524732928568034 false 906 0.7524732928568034 true
gene 1 181 13 1.522858101838202 false 907 1.522858101838202 true
gene 1 181 213 0.6371857808684794 false 1089 0.6371857808684794 true
gene 1 213 13 -8.545323439605697 false 1090 -8.545323439605697 true
gene 1 7 221 -0.3656787157840242 false 1123 -0.3656787157840242 true
gene 1 221 12 -0.7878067497376839 false 1124 -0.7878067497376839 true
gene 1 1 181 -0.04510435865895858 false 1294 -0.04510435865895858 true
gene 1 6 13 -5.3894531203055465 false 2187 -5.3894531203055465 true
gene 1 181 465 0.06072722238233178 false 2471 0.06072722238233178 true
gene 1 465 13 2.2044174952152416 false 2472 2.2044174952152416 true
gene 1 13 13 -2.6106095128644253 true 2522 -2.6106095128644253 true
gene 1 10 213 0.6045852666627438 false 3791 0.6045852666627438 true
gene 1 6 221 -0.726251220002851 false 4657 -0.726251220002851 true
gene 1 6 908 0.29712297599582727 false 4806 0.29712297599582727 true
gene 1 908 221 0.6674503643980038 false 4807 0.6674503643980038 true
gene 1 13 465 8.309899325252122 true 4876 8.309899325252122 true
gene 1 213 465 0.12406197235954397 false 4989 0.12406197235954397 true
gene 1 6 465 -1.2716253072581694 false 5183 -1.2716253072581694 true
gene 1 6 986 1.1926248287682677 false 5290 1.1926248287682677 true
gene 1 986 13 -5.806363227379848 false 5291 -5.806363227379848 true
genomeend 3
/* Organism #2 Fitness: 0.459 Error: 0.541 */
genomestart 2
trait 1 0.11976626727824569 0.987792288024939 0.008773574502748953 0.020160635345395257 0.0005370793297545858 0.07071635880118116 1.5894474909958674 0.3308798930172626 
node 1 1 1 3
node 2 1 1 1
node 3 1 1 1
node 4 1 1 1
node 5 1 1 1
node 6 1 1 1
node 7 1 1 1
node 8 1 1 1
node 9 1 1 1
node 10 1 1 1
node 11 1 1 1
node 12 1 0 0
node 13 1 0 2
node 14 1 0 2
node 181 1 0 0
node 213 1 0 0
node 221 1 0 0
node 465 1 0 0
node 908 1 0 0
node 986 1 0 0
gene 1 1 12 0.5164938447235401 false 1 0.5164938447235401 true
gene 1 2 12 -0.7221917520263827 false 2 -0.7221917520263827 true
gene 1 3 12 0.029553007018423283 false 3 0.029553007018423283 true
gene 1 4 12 -0.6367134540942995 false 4 -0.6367134540942995 true
gene 1 5 12 -0.7626083165195532 false 5 -0.7626083165195532 true
gene 1 6 12 0.048876285171458145 false 6 0.048876285171458145 true
gene 1 7 12 -0.4819186322836828 false 7 -0.4819186322836828 true
gene 1 8 12 -0.596449117025434 false 8 -0.596449117025434 false
gene 1 9 12 -0.29616050123292714 false 9 -0.29616050123292714 true
gene 1 10 12 2.033755349362991 false 10 2.033755349362991 true
gene 1 11 12 0.05930798808281716 false 11 0.05930798808281716 true
gene 1 12 13 -0.9082083966881134 false 12 -0.9082083966881134 true
gene 1 12 14 0.6468712584497006 false 13 0.6468712584497006 true
gene 1 8 14 -0.02716399139691772 false 125 -0.02716399139691772 true
gene 1 5 13 -1.139181875595288 false 179 -1.139181875595288 true
gene 1 5 181 1.147677617008114 false 906 1.147677617008114 true
gene 1 181 13 0.6179196299226195 false 907 0.6179196299226195 true
gene 1 181 213 -3.0916088691534584 false 1089 -3.0916088691534584 true
gene 1 213 13 -0.23583246901903407 false 1090 -0.23583246901903407 true
gene 1 7 221 -1.5324584708004843 false 1123 -1.5324584708004843 true
gene 1 221 12 -1.4099275873107215 false 1124 -1.4099275873107215 true
gene 1 1 181 0.850006937096022 false 1294 0.850006937096022 true
gene 1 6 13 -5.810143702640231 false 2187 -5.810143702640231 true
gene 1 181 465 -0.7843382056551671 false 2471 -0.7843382056551671 true
gene 1 465 13 1.9578580777673253 false 2472 1.9578580777673253 true
gene 1 13 13 -1.9936833898636475 true 2522 -1.9936833898636475 true
gene 1 10 213 0.689186120184522 false 3791 0.689186120184522 true
gene 1 6 221 6.581013967036408 false 4657 6.581013967036408 true
gene 1 6 908 0.25852220256057457 false 4806 0.25852220256057457 true
gene 1 908 221 0.4265589868156222 false 4807 0.4265589868156222 true
gene 1 13 465 -0.4221699940769452 true 4876 -0.4221699940769452 true
gene 1 213 465 0.10330776197537134 false 4989 0.10330776197537134 true
gene 1 6 465 -2.241118232081389 false 5183 -2.241118232081389 true
gene 1 6 986 1.6479905910473285 false 5290 1.6479905910473285 true
gene 1 986 13 -5.956583026707113 false 5291 -5.956583026707113 true
genomeend 2
/* Organism #8 Fitness: 0.329 Error: 0.671 */
genomestart 8
trait 1 0.11976626727824569 0.987792288024939 0.008773574502748953 0.020160635345395257 0.0005370793297545858 0.07071635880118116 1.5894474909958674 0.3308798930172626 
node 1 1 1 3
node 2 1 1 1
node 3 1 1 1
node 4 1 1 1
node 5 1 1 1
node 6 1 1 1
node 7 1 1 1
node 8 1 1 1
node 9 1 1 1
node 10 1 1 1
node 11 1 1 1
node 12 1 0 0
node 13 1 0 2
node 14 1 0 2
node 181 1 0 0
node 213 1 0 0
node 221 1 0 0
node 465 1 0 0
node 908 1 0 0
node 986 1 0 0
gene 1 1 12 0.4131585250950819 false 1 0.4131585250950819 true
gene 1 2 12 -2.163789057299005 false 2 -2.163789057299005 true
gene 1 3 12 -0.6843468785272575 false 3 -0.6843468785272575 true
gene 1 4 12 -0.47385563438143696 false 4 -0.47385563438143696 true
gene 1 5 12 0.16103825965232577 false 5 0.16103825965232577 true
gene 1 6 12 0.15861451755212574 false 6 0.15861451755212574 true
gene 1 7 12 -0.9809335807639455 false 7 -0.9809335807639455 true
gene 1 8 12 -0.47483590304575246 false 8 -0.47483590304575246 true
gene 1 9 12 1.0976658629192602 false 9 1.0976658629192602 true
gene 1 10 12 2.4198374009496915 false 10 2.4198374009496915 true
gene 1 11 12 -0.21616137098535881 false 11 -0.21616137098535881 true
gene 1 12 13 -1.254646665363492 false 12 -1.254646665363492 true
gene 1 12 14 3.9837506064320545 false 13 3.9837506064320545 true
gene 1 8 14 -0.03355065705601801 false 125 -0.03355065705601801 true
gene 1 5 13 -1.4366802757320456 false 179 -1.4366802757320456 true
gene 1 5 181 1.088633382263262 false 906 1.088633382263262 true
gene 1 181 13 1.1889546577451096 false 907 1.1889546577451096 true
gene 1 181 213 -3.1873691657656487 false 1089 -3.1873691657656487 true
gene 1 213 13 -7.723581825322283 false 1090 -7.723581825322283 true
gene 1 7 221 -1.028402653842154 false 1123 -1.028402653842154 true
gene 1 221 12 -2.024232950278703 false 1124 -2.024232950278703 true
gene 1 1 181 2.2967942028390027 false 1294 2.2967942028390027 true
gene 1 6 13 -5.342668994734595 false 2187 -5.342668994734595 true
gene 1 181 465 -1.1245957814476835 false 2471 -1.1245957814476835 true
gene 1 465 13 1.5632169119886399 false 2472 1.5632169119886399 true
gene 1 13 13 -1.9650038709742172 true 2522 -1.9650038709742172 true
gene 1 10 213 -0.18277545410498486 false 3791 -0.18277545410498486 true
gene 1 6 221 6.014692191800076 false 4657 6.014692191800076 true
gene 1 6 908 -0.06662605136480171 false 4806 -0.06662605136480171 true
gene 1 908 221 0.6571085505225089 false 4807 0.6571085505225089 true
gene 1 13 465 8.309899325252122 true 4876 8.309899325252122 true
gene 1 213 465 -0.3576661879212103 false 4989 -0.3576661879212103 true
gene 1 6 465 -2.0561964542116495 false 5183 -2.0561964542116495 true
gene 1 6 986 0.6863514049933257 false 5290 0.6863514049933257 true
gene 1 986 13 -6.334241622199027 false 5291 -6.334241622199027 true
genomeend 8
/* Organism #4 Fitness: 0.010 Error: 0.990 */
genomestart 4
trait 1 1.0491409169411652 1.6497737136383264 0.008773574502748953 0.020160635345395257 0.0005370793297545858 0.03285673269982496 1.5207636548627632 0.3342602126923595 
node 1 1 1 3
node 2 1 1 1
node 3 1 1 1
node 4 1 1 1
node 5 1 1 1
node 6 1 1 1
node 7 1 1 1
node 8 1 1 1
node 9 1 1 1
node 10 1 1 1
node 11 1 1 1
node 12 1 0 0
node 13 1 0 2
node 14 1 0 2
node 181 1 0 0
node 213 1 0 0
node 221 1 0 0
node 465 1 0 0
node 908 1 0 0
node 986 1 0 0
gene 1 1 12 0.7966738827820368 false 1 0.7966738827820368 true
gene 1 2 12 -1.856378437880084 false 2 -1.856378437880084 true
gene 1 3 12 -1.0497471312209163 false 3 -1.0497471312209163 true
gene 1 4 12 -1.1737161412824821 false 4 -1.1737161412824821 true
gene 1 5 12 0.007130774643045901 false 5 0.007130774643045901 true
gene 1 6 12 -0.33962734706710385 false 6 -0.33962734706710385 true
gene 1 7 12 -0.8828503027661921 false 7 -0.8828503027661921 true
gene 1 8 12 -1.379429703576075 false 8 -1.379429703576075 true
gene 1 9 12 -0.039567890749447665 false 9 -0.039567890749447665 true
gene 1 10 12 0.9786896865636842 false 10 0.9786896865636842 true
gene 1 11 12 -0.6807254559223472 false 11 -0.6807254559223472 true
gene 1 12 13 -1.1014002612030789 false 12 -1.1014002612030789 true
gene 1 12 14 2.78107455220235 false 13 2.78107455220235 true
gene 1 8 14 -0.23855464717565011 false 125 -0.23855464717565011 true
gene 1 5 13 -1.4445129732358561 false 179 -1.4445129732358561 true
gene 1 5 181 1.4831000712162816 false 906 1.4831000712162816 true
gene 1 181 13 1.0778621372714308 false 907 1.0778621372714308 true
gene 1 181 213 -4.048771884168241 false 1089 -4.048771884168241 true
gene 1 213 13 -8.406263458101845 false 1090 -8.406263458101845 true
gene 1 7 221 -0.42353906705673905 false 1123 -0.42353906705673905 true
gene 1 221 12 -1.729561878434819 false 1124 -1.729561878434819 true
gene 1 1 181 1.2885072629025183 false 1294 1.2885072629025183 true
gene 1 6 13 -5.2197381465618395 false 2187 -5.2197381465618395 true
gene 1 181 465 -1.0628567526148682 false 2471 -1.0628567526148682 true
gene 1 465 13 2.0181885111337983 false 2472 2.0181885111337983 true
gene 1 13 13 -1.9347948177418952 true 2522 -1.9347948177418952 true
gene 1 10 213 -0.29775867708001624 false 3791 -0.29775867708001624 true
gene 1 6 221 5.303010217389491 false 4657 5.303010217389491 true
gene 1 6 908 -0.4875444529258242 false 4806 -0.4875444529258242 true
gene 1 908 221 -0.013106654655450245 false 4807 -0.013106654655450245 true
gene 1 13 465 8.237878618327073 true 4876 8.237878618327073 true
gene 1 213 465 0.2215624133890472 false 4989 0.2215624133890472 true
gene 1 6 465 -1.5918689231009395 false 5183 -1.5918689231009395 true
gene 1 6 986 -0.34785614160238165 false 5290 -0.34785614160238165 true
gene 1 986 13 -6.5177744274101554 false 5291 -6.5177744274101554 true
genomeend 4
/* Species #2 : (Size 9) (AF 0.293) (Age 199)  */
/* Organism #9 Fitness: 0.694 Error: 0.306 */
genomestart 9
trait 1 0.27317215886800905 0.7250160833568815 0 0 1.8161244355492854 0.8960382951848251 1.553337060525686 0.8366291001885451 
node 1 1 1 3
node 2 1 1 1
node 3 1 1 1
node 4 1 1 1
node 5 1 1 1
node 6 1 1 1
node 7 1 1 1
node 8 1 1 1
node 9 1 1 1
node 10 1 1 1
node 11 1 1 1
node 12 1 0 0
node 13 1 0 2
node 14 1 0 2
node 15 1 0 0
node 20 1 0 0
node 265 1 0 0
node 1003 1 0 0
gene 1 1 12 -2.123302884011377 false 1 -2.123302884011377 true
gene 1 2 12 -0.7594417015577547 false 2 -0.7594417015577547 true
gene 1 3 12 -2.8555246503964895 false 3 -2.8555246503964895 true
gene 1 4 12 -0.29203565548666144 false 4 -0.29203565548666144 true
gene 1 5 12 0.08302890216044567 false 5 0.08302890216044567 true
gene 1 6 12 -2.7075674525320004 false 6 -2.7075674525320004 true
gene 1 7 12 -0.34304627175416713 false 7 -0.34304627175416713 true
gene 1 8 12 -0.350876452854668 false 8 -0.350876452854668 true
gene 1 9 12 -2.172869256962783 false 9 -2.172869256962783 true
gene 1 10 12 1.5215773060271012 false 10 1.5215773060271012 true
gene 1 11 12 1.9121386584495372 false 11 1.9121386584495372 true
gene 1 12 13 -3.3405211263894268 false 12 -3.3405211263894268 true
gene 1 12 14 -0.9269168813450508 false 13 -0.9269168813450508 true
gene 1 2 15 0.7240720626545702 false 16 0.7240720626545702 true
gene 1 15 12 -1.331779327180614 false 17 -1.331779327180614 true
gene 1 12 20 -2.9486632522308223 false 51 -2.9486632522308223 true
gene 1 20 13 -2.180250670572375 false 52 -2.180250670572375 true
gene 1 5 15 0.5625840071486375 false 85 0.5625840071486375 true
gene 1 2 14 0.16600676970157252 false 185 0.16600676970157252 true
gene 1 8 14 -1.5118343338524516 false 275 -1.5118343338524516 true
gene 1 15 15 1.2230342168330526 true 390 1.2230342168330526 true
gene 1 12 265 0.4554524586688534 false 1369 0.4554524586688534 true
gene 1 265 14 0.5664031922321993 false 1370 0.5664031922321993 true
gene 1 11 265 0.7428521755501201 false 2155 0.7428521755501201 true
gene 1 3 15 -2.471480761800522 false 3029 -2.471480761800522 true
gene 1 10 265 5.150687271212421 false 3132 5.150687271212421 true
gene 1 265 265 -8.508127121301126 true 3460 -8.508127121301126 true
gene 1 10 13 0.09709625707905631 false 3525 0.09709625707905631 true
gene 1 1 265 -0.011096485438756742 false 3593 -0.011096485438756742 true
gene 1 15 265 -5.65064892366845 false 3726 -5.65064892366845 true
gene 1 4 265 -0.6265908890743024 false 3870 -0.6265908890743024 true
gene 1 14 12 0.27822416736216765 true 3964 0.27822416736216765 true
gene 1 13 13 -2.0468400851416693 true 4065 -2.0468400851416693 true
gene 1 265 20 -8.521086749025246 false 4439 -8.521086749025246 true
gene 1 6 1003 1 false 5384 0 true
gene 1 1003 12 -2.7075674525320004 false 5385 0 true
gene 1 1 1003 3.780057223949383 false 5876 3.780057223949383 true
genomeend 9
/* Organism #12 Fitness: 0.690 Error: 0.310 */
genomestart 12
trait 1 0.27317215886800905 0.7250160833568815 0 0 1.8161244355492854 0.8960382951848251 1.553337060525686 0.8366291001885451 
node 1 1 1 3
node 2 1 1 1
node 3 1 1 1
node 4 1 1 1
node 5 1 1 1
node 6 1 1 1
node 7 1 1 1
node 8 1 1 1
node 9 1 1 1
node 10 1 1 1
node 11 1 1 1
node 12 1 0 0
node 13 1 0 2
node 14 1 0 2
node 15 1 0 0
node 20 1 0 0
node 265 1 0 0
node 1003 1 0 0
gene 1 1 12 -1.8756280683027264 false 1 -1.8756280683027264 true
gene 1 2 12 -0.941016829890862 false 2 -0.941016829890862 true
gene 1 3 12 -2.842930532964635 false 3 -2.842930532964635 true
gene 1 4 12 -0.8316059372984853 false 4 -0.8316059372984853 true
gene 1 5 12 0.09056935381206313 false 5 0.09056935381206313 true
gene 1 6 12 -2.323724039845428 false 6 -2.323724039845428 true
gene 1 7 12 -0.2592458227382662 false 7 -0.2592458227382662 true
gene 1 8 12 0.17323512379825606 false 8 0.17323512379825606 true
gene 1 9 12 -1.6873527827024506 false 9 -1.6873527827024506 true
gene 1 10 12 1.5464355737478597 false 10 1.5464355737478597 true
gene 1 11 12 1.474199287846576 false 11 1.474199287846576 true
gene 1 12 13 -2.7726919530536605 false 12 -2.7726919530536605 true
gene 1 12 14 -0.13529412661122708 false 13 -0.13529412661122708 true
gene 1 2 15 0.35191351525653614 false 16 0.35191351525653614 true
gene 1 15 12 -1.4037784169258363 false 17 -1.4037784169258363 true
gene 1 12 20 -2.6784288562926837 false 51 -2.6784288562926837 true
gene 1 20 13 -1.6480569585724998 false 52 -1.6480569585724998 true
gene 1 5 15 0.47162345660798316 false 85 0.47162345660798316 true
gene 1 2 14 0.382763624321406 false 185 0.382763624321406 true
gene 1 8 14 -1.1901834893929386 false 275 -1.1901834893929386 true
gene 1 15 15 1.95791575092366 true 390 1.95791575092366 true
gene 1 12 265 0.6264691907092107 false 1369 0.6264691907092107 true
gene 1 265 14 -0.006512285800298501 false 1370 -0.006512285800298501 true
gene 1 11 265 0.2710109501491791 false 2155 0.2710109501491791 true
gene 1 3 15 -1.9775157808076504 false 3029 -1.9775157808076504 true
gene 1 10 265 5.32643379400039 false 3132 5.32643379400039 true
gene 1 265 265 -8.817145568610272 true 3460 -8.817145568610272 true
gene 1 10 13 -0.09505819794071801 false 3525 -0.09505819794071801 true
gene 1 1 265 -0.2672032064669719 false 3593 -0.2672032064669719 true
gene 1 15 265 -5.574647807376718 false 3726 -5.574647807376718 true
gene 1 4 265 -0.573590203823794 false 3870 -0.573590203823794 true
gene 1 14 12 0.27822416736216765 true 3964 0.27822416736216765 true
gene 1 13 13 -2.0468400851416693 true 4065 -2.0468400851416693 true
gene 1 265 20 -8.453401158935332 false 4439 -8.453401158935332 true
gene 1 6 1003 1.5196628792572346 false 5384 1.5196628792572346 true
gene 1 1003 12 -2.59077689790935 false 5385 -2.59077689790935 true
gene 1 1 1003 3.5122824434819546 false 5876 3.5122824434819546 true
genomeend 12
/* Organism #17 Fitness: 0.597 Error: 0.403 */
genomestart 17
trait 1 0.2560988989387585 0.7250160833568815 0 0 1.8161244355492854 0.8795604954716052 1.4640350439038876 0.8912223514197848 
node 1 1 1 3
node 2 1 1 1
node 3 1 1 1
node 4 1 1 1
node 5 1 1 1
node 6 1 1 1
node 7 1 1 1
node 8 1 1 1
node 9 1 1 1
node 10 1 1 1
node 11 1 1 1
node 12 1 0 0
node 13 1 0 2
node 14 1 0 2
node 15 1 0 0
node 20 1 0 0
node 265 1 0 0
node 1003 1 0 0
gene 1 1 12 -2.336291566355872 false 1 -2.336291566355872 true
gene 1 2 12 -0.869963889046439 false 2 -0.869963889046439 true
gene 1 3 12 -2.8180667509279713 false 3 -2.8180667509279713 true
gene 1 4 12 -0.9790190916143199 false 4 -0.9790190916143199 true
gene 1 5 12 -0.46920580845215065 false 5 -0.46920580845215065 true
gene 1 6 12 -2.75249697524963 false 6 -2.75249697524963 true
gene 1 7 12 -0.11767350027035717 false 7 -0.11767350027035717 true
gene 1 8 12 0.3396273924916378 false 8 0.3396273924916378 true
gene 1 9 12 -2.4181620170938802 false 9 -2.4181620170938802 true
gene 1 10 12 1.6475317261830378 false 10 1.6475317261830378 true
gene 1 11 12 1.3454005746043665 false 11 1.3454005746043665 true
gene 1 12 13 -3.4880539542861317 false 12 -3.4880539542861317 true
gene 1 12 14 -0.8060052910676128 false 13 -0.8060052910676128 true
gene 1 2 15 1.1531022889533398 false 16 1.1531022889533398 true
gene 1 15 12 -1.0573700547391807 false 17 -1.0573700547391807 true
gene 1 12 20 -2.60512592513947 false 51 -2.60512592513947 true
gene 1 20 13 -2.937493137731102 false 52 -2.937493137731102 true
gene 1 5 15 1.137842755216443 false 85 1.137842755216443 true
gene 1 2 14 0.8528203838629049 false 185 0.8528203838629049 true
gene 1 8 14 -2.149112317472024 false 275 -2.149112317472024 true
gene 1 15 15 1.7165186599421758 true 390 1.7165186599421758 true
gene 1 12 265 -0.5736464510321189 false 1369 -0.5736464510321189 true
gene 1 265 14 1.2780864929187419 false 1370 1.2780864929187419 true
gene 1 11 265 0.7747568915703714 false 2155 0.7747568915703714 true
gene 1 3 15 -2.2383734240858604 false 3029 -2.2383734240858604 true
gene 1 10 265 5.761954614639697 false 3132 5.761954614639697 true
gene 1 265 265 -9.232009117719413 true 3460 -9.232009117719413 true
gene 1 10 13 0.8811613253712067 false 3525 0.8811613253712067 true
gene 1 1 265 -0.335523403752864 false 3593 -0.335523403752864 true
gene 1 15 265 -6.404695040808894 false 3726 -6.404695040808894 true
gene 1 4 265 -0.6265908890743024 false 3870 -0.6265908890743024 true
gene 1 14 12 0.27822416736216765 true 3964 0.27822416736216765 true
gene 1 13 13 -2.6475151393421483 true 4065 -2.6475151393421483 true
gene 1 265 20 -8.521086749025246 false 4439 -8.521086749025246 true
gene 1 6 1003 1 false 5384 1 true
gene 1 1003 12 -3.3139246361569064 false 5385 -3.3139246361569064 true
gene 1 1 1003 3.8529721245708264 false 5876 3.8529721245708264 true
genomeend 17
/* Organism #11 Fitness: 0.357 Error: 0.643 */
genomestart 11
trait 1 0.27317215886800905 0.7250160833568815 0 0 1.8161244355492854 0.8960382951848251 1.553337060525686 0.8366291001885451 
node 1 1 1 3
node 2 1 1 1
node 3 1 1 1
node 4 1 1 1
node 5 1 1 1
node 6 1 1 1
node 7 1 1 1
node 8 1 1 1
node 9 1 1 1
node 10 1 1 1
node 11 1 1 1
node 12 1 0 0
node 13 1 0 2
node 14 1 0 2
node 15 1 0 0
node 20 1 0 0
node 265 1 0 0
node 1003 1 0 0
gene 1 1 12 -2.123302884011377 false 1 -2.123302884011377 true
gene 1 2 12 -0.7594417015577547 false 2 -0.7594417015577547 true
gene 1 3 12 -2.8555246503964895 false 3 -2.8555246503964895 true
gene 1 4 12 -0.29203565548666144 false 4 -0.29203565548666144 true
gene 1 5 12 0.08302890216044567 false 5 0.08302890216044567 true
gene 1 6 12 -2.7075674525320004 false 6 -2.7075674525320004 true
gene 1 7 12 -0.34304627175416713 false 7 -0.34304627175416713 true
gene 1 8 12 -0.350876452854668 false 8 -0.350876452854668 true
gene 1 9 12 -2.172869256962783 false 9 -2.172869256962783 true
gene 1 10 12 1.5215773060271012 false 10 1.5215773060271012 true
gene 1 11 12 1.9121386584495372 false 11 1.9121386584495372 true
gene 1 12 13 -3.3405211263894268 false 12 -3.3405211263894268 true
gene 1 12 14 -0.9269168813450508 false 13 -0.9269168813450508 true
gene 1 2 15 0.7240720626545702 false 16 0.7240720626545702 true
gene 1 15 12 -1.331779327180614 false 17 -1.331779327180614 true
gene 1 12 20 -2.9486632522308223 false 51 -2.9486632522308223 true
gene 1 20 13 -2.180250670572375 false 52 -2.180250670572375 true
gene 1 5 15 0.5625840071486375 false 85 0.5625840071486375 true
gene 1 2 14 0.16600676970157252 false 185 0.16600676970157252 true
gene 1 8 14 -1.5118343338524516 false 275 -1.5118343338524516 true
gene 1 15 15 1.2230342168330526 true 390 1.2230342168330526 true
gene 1 12 265 0.4554524586688534 false 1369 0.4554524586688534 true
gene 1 265 14 0.5664031922321993 false 1370 0.5664031922321993 true
gene 1 11 265 0.7428521755501201 false 2155 0.7428521755501201 true
gene 1 3 15 -2.471480761800522 false 3029 -2.471480761800522 true
gene 1 10 265 5.150687271212421 false 3132 5.150687271212421 true
gene 1 265 265 -8.508127121301126 true 3460 -8.508127121301126 true
gene 1 10 13 0.09709625707905631 false 3525 0.09709625707905631 true
gene 1 1 265 -0.011096485438756742 false 3593 -0.011096485438756742 true
gene 1 15 265 -5.65064892366845 false 3726 -5.65064892366845 true
gene 1 4 265 -0.6265908890743024 false 3870 -0.6265908890743024 true
gene 1 14 12 0.27822416736216765 true 3964 0.27822416736216765 true
gene 1 13 13 -2.0468400851416693 true 4065 -2.0468400851416693 true
gene 1 265 20 -8.521086749025246 false 4439 -8.521086749025246 true
gene 1 6 1003 1 false 5384 0 true
gene 1 1003 12 -2.7075674525320004 false 5385 0 true
gene 1 1 1003 3.780057223949383 false 5876 3.780057223949383 true
gene 1 5 14 4.072973867205931 false 6122 4.072973867205931 true
genomeend 11
/* Organism #15 Fitness: 0.260 Error: 0.740 */
genomestart 15
trait 1 0.26463552890338377 0.7250160833568815 0 0 1.8161244355492854 0.8877993953282152 1.5086860522147867 0.8639257258041649 
node 1 1 1 3
node 2 1 1 1
node 3 1 1 1
node 4 1 1 1
node 5 1 1 1
node 6 1 1 1
node 7 1 1 1
node 8 1 1 1
node 9 1 1 1
node 10 1 1 1
node 11 1 1 1
node 12 1 0 0
node 13 1 0 2
node 14 1 0 2
node 15 1 0 0
node 20 1 0 0
node 265 1 0 0
node 1003 1 0 0
gene 1 1 12 -2.211068353252693 false 1 -2.211068353252693 true
gene 1 2 12 -1.3251033602248472 false 2 -1.3251033602248472 true
gene 1 3 12 -3.263606061283749 false 3 -3.263606061283749 true
gene 1 4 12 0.025276863007380024 false 4 0.025276863007380024 true
gene 1 5 12 0.07142696668727085 false 5 0.07142696668727085 true
gene 1 6 12 -2.0464940514583803 false 6 -2.0464940514583803 true
gene 1 7 12 -1.1133334039434 false 7 -1.1133334039434 true
gene 1 8 12 -0.9598230983347671 false 8 -0.9598230983347671 true
gene 1 9 12 -1.4500008184127076 false 9 -1.4500008184127076 true
gene 1 10 12 1.534963193560487 false 10 1.534963193560487 true
gene 1 11 12 1.5787970483545761 false 11 1.5787970483545761 true
gene 1 12 13 -2.6595637440326807 false 12 -2.6595637440326807 true
gene 1 12 14 -0.15700050908857244 false 13 -0.15700050908857244 true
gene 1 2 15 1.4549426375882983 false 16 1.4549426375882983 true
gene 1 15 12 -1.3465702264483423 false 17 -1.3465702264483423 true
gene 1 12 20 -3.5936274699886495 false 51 -3.5936274699886495 true
gene 1 20 13 -2.935478723649775 false 52 -2.935478723649775 true
gene 1 5 15 1.1550580053922506 false 85 1.1550580053922506 true
gene 1 2 14 0.13298654155008205 false 185 0.13298654155008205 true
gene 1 8 14 -1.8426954843992824 false 275 -1.8426954843992824 true
gene 1 15 15 0.6699213270531417 true 390 0.6699213270531417 true
gene 1 12 265 -0.011271035876114915 false 1369 -0.011271035876114915 true
gene 1 265 14 -0.09927555041740876 false 1370 -0.09927555041740876 true
gene 1 11 265 1.2233502282558593 false 2155 1.2233502282558593 true
gene 1 3 15 -3.1524231566037266 false 3029 -3.1524231566037266 true
gene 1 10 265 4.621181987245778 false 3132 4.621181987245778 true
gene 1 265 265 -8.335647649905713 true 3460 -8.335647649905713 true
gene 1 10 13 0.45785180611718346 false 3525 0.45785180611718346 true
gene 1 1 265 0.6966653567512685 false 3593 0.6966653567512685 true
gene 1 15 265 -5.000338209638892 false 3726 -5.000338209638892 true
gene 1 4 265 -0.6265908890743024 false 3870 -0.6265908890743024 true
gene 1 14 12 -0.3747112424962035 true 3964 -0.3747112424962035 true
gene 1 13 13 -2.0468400851416693 true 4065 -2.0468400851416693 true
gene 1 265 20 -9.317449571472865 false 4439 -9.317449571472865 true
gene 1 6 1003 1.6560030537205916 false 5384 1.6560030537205916 true
gene 1 1003 12 0.7756761517290861 false 5385 0.7756761517290861 true
gene 1 1 1003 3.780057223949383 false 5876 3.780057223949383 true
genomeend 15
/* Organism #16 Fitness: 0.010 Error: 0.990 */
genomestart 16
trait 1 0.27317215886800905 0.7250160833568815 0 0 1.8161244355492854 0.8960382951848251 1.553337060525686 0.8366291001885451 
node 1 1 1 3
node 2 1 1 1
node 3 1 1 1
node 4 1 1 1
node 5 1 1 1
node 6 1 1 1
node 7 1 1 1
node 8 1 1 1
node 9 1 1 1
node 10 1 1 1
node 11 1 1 1
node 12 1 0 0
node 13 1 0 2
node 14 1 0 2
node 15 1 0 0
node 20 1 0 0
node 265 1 0 0
node 1003 1 0 0
gene 1 1 12 -1.4525321422450361 false 1 -1.4525321422450361 true
gene 1 2 12 -0.19505311617718346 false 2 -0.19505311617718346 true
gene 1 3 12 -2.5890599168735604 false 3 -2.5890599168735604 true
gene 1 4 12 -0.7641128430426991 false 4 -0.7641128430426991 true
gene 1 5 12 -0.30030561378188647 false 5 -0.30030561378188647 true
gene 1 6 12 -3.4270147148236814 false 6 -3.4270147148236814 true
gene 1 7 12 -0.484913206318789 false 7 -0.484913206318789 true
gene 1 8 12 -0.9168906592629733 false 8 -0.9168906592629733 true
gene 1 9 12 -1.6256712576611048 false 9 -1.6256712576611048 true
gene 1 10 12 1.1789537120125857 false 10 1.1789537120125857 true
gene 1 11 12 2.3503297661450375 false 11 2.3503297661450375 true
gene 1 12 13 -4.061355830876029 false 12 -4.061355830876029 true
gene 1 12 14 -1.1835714922228986 false 13 -1.1835714922228986 true
gene 1 2 15 0.4349170200443858 false 16 0.4349170200443858 true
gene 1 15 12 -0.9810049188761272 false 17 -0.9810049188761272 true
gene 1 12 20 -2.681770443033727 false 51 -2.681770443033727 true
gene 1 20 13 -1.6188337735134226 false 52 -1.6188337735134226 true
gene 1 5 15 1.150338392993925 false 85 1.150338392993925 true
gene 1 2 14 -0.3676801876206259 false 185 -0.3676801876206259 true
gene 1 8 14 -1.9421477146366433 false 275 -1.9421477146366433 true
gene 1 15 15 0.7124381830110684 true 390 0.7124381830110684 true
gene 1 12 265 0.4889266213530753 false 1369 0.4889266213530753 true
gene 1 265 14 -0.03447025266713577 false 1370 -0.03447025266713577 true
gene 1 11 265 0.7333276102909758 false 2155 0.7333276102909758 true
gene 1 3 15 -2.259391500747445 false 3029 -2.259391500747445 true
gene 1 10 265 5.47226877521393 false 3132 5.47226877521393 true
gene 1 265 265 -8.658954417298066 true 3460 -8.658954417298066 true
gene 1 10 13 -0.3552184111800596 false 3525 -0.3552184111800596 true
gene 1 1 265 -0.6732815902974681 false 3593 -0.6732815902974681 true
gene 1 15 265 -4.9902142673151335 false 3726 -4.9902142673151335 true
gene 1 4 265 -0.6265908890743024 false 3870 -0.6265908890743024 true
gene 1 14 12 0.28894467643487837 true 3964 0.28894467643487837 true
gene 1 13 13 -2.0468400851416693 true 4065 -2.0468400851416693 true
gene 1 265 20 -8.622850140601006 false 4439 -8.622850140601006 true
gene 1 6 1003 1.787015003840998 false 5384 1.787015003840998 true
gene 1 1003 12 -2.873926208840265 false 5385 -2.873926208840265 true
gene 1 1 1003 3.649574368975602 false 5876 3.649574368975602 true
genomeend 16
/* Organism #14 Fitness: 0.010 Error: 0.990 */
genomestart 14
trait 1 0.27317215886800905 0.7250160833568815 0 0 1.8161244355492854 0.8960382951848251 1.553337060525686 0.8366291001885451 
node 1 1 1 3
node 2 1 1 1
node 3 1 1 1
node 4 1 1 1
node 5 1 1 1
node 6 1 1 1
node 7 1 1 1
node 8 1 1 1
node 9 1 1 1
node 10 1 1 1
node 11 1 1 1
node 12 1 0 0
node 13 1 0 2
node 14 1 0 2
node 15 1 0 0
node 20 1 0 0
node 265 1 0 0
node 1003 1 0 0
gene 1 1 12 -2.0325574634746815 false 1 -2.0325574634746815 true
gene 1 2 12 -0.34891513953091746 false 2 -0.34891513953091746 true
gene 1 3 12 -0.5207922563374284 false 3 -0.5207922563374284 true
gene 1 4 12 -0.4426364478035168 false 4 -0.4426364478035168 true
gene 1 5 12 -0.2597834114918308 false 5 -0.2597834114918308 true
gene 1 6 12 -2.2190126755627304 false 6 -2.2190126755627304 true
gene 1 7 12 0.45163485038235984 false 7 0.45163485038235984 true
gene 1 8 12 0.21044429432919604 false 8 0.21044429432919604 true
gene 1 9 12 -2.1118403483951447 false 9 -2.1118403483951447 true
gene 1 10 12 1.6839920911433526 false 10 1.6839920911433526 true
gene 1 11 12 1.9121386584495372 false 11 1.9121386584495372 true
gene 1 12 13 -2.5724398218057916 false 12 -2.5724398218057916 true
gene 1 12 14 -1.5335595230804147 false 13 -1.5335595230804147 true
gene 1 2 15 0.32913039470309086 false 16 0.32913039470309086 true
gene 1 15 12 -2.0901557192248665 false 17 -2.0901557192248665 true
gene 1 12 20 -3.6419146626607937 false 51 -3.6419146626607937 true
gene 1 20 13 -2.177607633087968 false 52 -2.177607633087968 true
gene 1 5 15 0.5625840071486375 false 85 0.5625840071486375 true
gene 1 2 14 -0.40187930667615773 false 185 -0.40187930667615773 true
gene 1 8 14 0.4251207260750463 false 275 0.4251207260750463 true
gene 1 15 15 1.6778667652580408 true 390 1.6778667652580408 true
gene 1 12 265 0.21922532900753455 false 1369 0.21922532900753455 true
gene 1 265 14 0.8003127930009014 false 1370 0.8003127930009014 true
gene 1 11 265 1.2779555876826134 false 2155 1.2779555876826134 true
gene 1 3 15 -1.839372408863904 false 3029 -1.839372408863904 true
gene 1 10 265 0.7567690308982575 false 3132 0.7567690308982575 true
gene 1 265 265 -9.267141568311562 true 3460 -9.267141568311562 true
gene 1 10 13 0.22210459013024333 false 3525 0.22210459013024333 true
gene 1 1 265 -0.3950219756885289 false 3593 -0.3950219756885289 true
gene 1 15 265 -5.41754684974297 false 3726 -5.41754684974297 true
gene 1 4 265 -0.6412679098624345 false 3870 -0.6412679098624345 true
gene 1 14 12 0.40606378757313777 true 3964 0.40606378757313777 true
gene 1 13 13 0.4061110096783255 true 4065 0.4061110096783255 true
gene 1 265 20 -8.101352080845835 false 4439 -8.101352080845835 true
gene 1 6 1003 1 false 5384 1 true
gene 1 1003 12 -2.704353867083225 false 5385 -2.704353867083225 true
gene 1 1 1003 4.195818657354767 false 5876 4.195818657354767 true
genomeend 14
/* Organism #13 Fitness: 0.010 Error: 0.990 */
genomestart 13
trait 1 0.0654993539558571 1.085190153625646 0 0 1.8161244355492854 0.8877993953282152 2.2920036164451667 0.8639257258041649 
node 1 1 1 3
node 2 1 1 1
node 3 1 1 1
node 4 1 1 1
node 5 1 1 1
node 6 1 1 1
node 7 1 1 1
node 8 1 1 1
node 9 1 1 1
node 10 1 1 1
node 11 1 1 1
node 12 1 0 0
node 13 1 0 2
node 14 1 0 2
node 15 1 0 0
node 20 1 0 0
node 265 1 0 0
node 1003 1 0 0
gene 1 1 12 -1.324671891915057 false 1 -1.324671891915057 true
gene 1 2 12 -0.8057131956907778 false 2 -0.8057131956907778 true
gene 1 3 12 -2.0731457736616505 false 3 -2.0731457736616505 true
gene 1 4 12 -0.36520031406232695 false 4 -0.36520031406232695 true
gene 1 5 12 0.8297651620460956 false 5 0.8297651620460956 true
gene 1 6 12 -3.3947667034291684 false 6 -3.3947667034291684 true
gene 1 7 12 0.17870654772852257 false 7 0.17870654772852257 true
gene 1 8 12 -1.0747879973812429 false 8 -1.0747879973812429 true
gene 1 9 12 -1.5860748265214464 false 9 -1.5860748265214464 true
gene 1 10 12 1.3130084588532729 false 10 1.3130084588532729 true
gene 1 11 12 2.6844113531577056 false 11 2.6844113531577056 true
gene 1 12 13 -2.546131418657981 false 12 -2.546131418657981 true
gene 1 12 14 -0.18442877703429528 false 13 -0.18442877703429528 true
gene 1 2 15 0.029975992442072386 false 16 0.029975992442072386 true
gene 1 15 12 -1.6396861138055523 false 17 -1.6396861138055523 true
gene 1 12 20 -2.885559692287185 false 51 -2.885559692287185 true
gene 1 20 13 -1.4347202485083348 false 52 -1.4347202485083348 true
gene 1 5 15 0.11000805636301392 false 85 0.11000805636301392 true
gene 1 2 14 -0.5571651840035821 false 185 -0.5571651840035821 true
gene 1 8 14 -1.3003170395069512 false 275 -1.3003170395069512 true
gene 1 15 15 0.9608820713443775 true 390 0.9608820713443775 true
gene 1 12 265 -0.2490944775946089 false 1369 -0.2490944775946089 true
gene 1 265 14 0.04735629004310371 false 1370 0.04735629004310371 true
gene 1 11 265 0.5000923250647087 false 2155 0.5000923250647087 true
gene 1 3 15 -2.8169953562794263 false 3029 -2.8169953562794263 true
gene 1 10 265 5.715208437429313 false 3132 5.715208437429313 true
gene 1 265 265 -8.11037106903897 true 3460 -8.11037106903897 true
gene 1 10 13 0.5969498569366647 false 3525 0.5969498569366647 true
gene 1 1 265 0.05864977851366325 false 3593 0.05864977851366325 true
gene 1 15 265 -5.217356201096188 false 3726 -5.217356201096188 true
gene 1 4 265 -0.6265908890743024 false 3870 -0.6265908890743024 true
gene 1 14 12 0.7317310243273296 true 3964 0.7317310243273296 true
gene 1 13 13 -2.0468400851416693 true 4065 -2.0468400851416693 true
gene 1 265 20 -8.521086749025246 false 4439 -8.521086749025246 true
gene 1 6 1003 0.3844861184369559 false 5384 0.3844861184369559 true
gene 1 1003 12 -2.3677799541952913 false 5385 -2.3677799541952913 true
gene 1 1 1003 3.780057223949383 false 5876 3.780057223949383 true
genomeend 13
/* Organism #10 Fitness: 0.010 Error: 0.990 */
genomestart 10
trait 1 0.4804401353841447 0 0 0.41245243271983545 1.0602925968190244 1.856991869431885 1.3042898388466733 1.4628274010159357 
node 1 1 1 3
node 2 1 1 1
node 3 1 1 1
node 4 1 1 1
node 5 1 1 1
node 6 1 1 1
node 7 1 1 1
node 8 1 1 1
node 9 1 1 1
node 10 1 1 1
node 11 1 1 1
node 12 1 0 0
node 13 1 0 2
node 14 1 0 2
node 15 1 0 0
node 20 1 0 0
node 265 1 0 0
node 1003 1 0 0
gene 1 1 12 -2.4690692360248434 false 1 -2.4690692360248434 true
gene 1 2 12 -0.7033309278918584 false 2 -0.7033309278918584 true
gene 1 3 12 -2.8460196451028135 false 3 -2.8460196451028135 true
gene 1 4 12 -1.0949209352406313 false 4 -1.0949209352406313 true
gene 1 5 12 -0.31040517834870424 false 5 -0.31040517834870424 true
gene 1 6 12 -2.403035062456758 false 6 -2.403035062456758 true
gene 1 7 12 -0.133801823037219 false 7 -0.133801823037219 true
gene 1 8 12 0.11885765525649805 false 8 0.11885765525649805 true
gene 1 9 12 -1.8512124053714927 false 9 -1.8512124053714927 true
gene 1 10 12 2.279609327410178 false 10 2.279609327410178 true
gene 1 11 12 1.4707625455610445 false 11 1.4707625455610445 true
gene 1 12 13 -3.4766287037860413 false 12 -3.4766287037860413 true
gene 1 12 14 -0.31354512668475265 false 13 -0.31354512668475265 true
gene 1 2 15 0.7742075914142398 false 16 0.7742075914142398 true
gene 1 15 12 -1.3668010454091835 false 17 -1.3668010454091835 true
gene 1 12 20 -2.9412425098073114 false 51 -2.9412425098073114 true
gene 1 20 13 -1.7474325796926748 false 52 -1.7474325796926748 true
gene 1 5 15 0.5586181909581908 false 85 0.5586181909581908 true
gene 1 2 14 -0.5263067811946518 false 185 -0.5263067811946518 true
gene 1 8 14 -1.3250695495336853 false 275 -1.3250695495336853 true
gene 1 15 15 1.5564505117124954 true 390 1.5564505117124954 true
gene 1 12 265 0.1335407574554197 false 1369 0.1335407574554197 true
gene 1 265 14 0.7094188895983482 false 1370 0.7094188895983482 true
gene 1 11 265 0.4478315300550485 false 2155 0.4478315300550485 true
gene 1 3 15 -1.8301098148447235 false 3029 -1.8301098148447235 true
gene 1 10 265 4.7576389660114895 false 3132 4.7576389660114895 true
gene 1 265 265 -8.518279257880103 true 3460 -8.518279257880103 true
gene 1 10 13 0.46997250580252903 false 3525 0.46997250580252903 true
gene 1 1 265 0.36561599060270683 false 3593 0.36561599060270683 true
gene 1 15 265 -5.335503955283295 false 3726 -5.335503955283295 true
gene 1 4 265 -0.8238362359520108 false 3870 -0.8238362359520108 true
gene 1 14 12 0.4605656854074184 true 3964 0.4605656854074184 true
gene 1 13 13 -0.24590201730173714 true 4065 -0.24590201730173714 true
gene 1 265 20 -8.521086749025246 false 4439 -8.521086749025246 true
gene 1 6 1003 1 false 5384 1 true
gene 1 1003 12 -2.7075674525320004 false 5385 -2.7075674525320004 true
gene 1 1 1003 3.780057223949383 false 5876 3.780057223949383 true
genomeend 10
/* Species #4 : (Size 4) (AF 0.505) (Age 193)  */
/* Organism #20 Fitness: 0.602 Error: 0.398 */
genomestart 20
trait 1 2.6962294875951422 1.117179069135187 0.46088926799812985 0.4550573990034499 0 0.03447194896542555 0 0 
node 1 1 1 3
node 2 1 1 1
node 3 1 1 1
node 4 1 1 1
node 5 1 1 1
node 6 1 1 1
node 7 1 1 1
node 8 1 1 1
node 9 1 1 1
node 10 1 1 1
node 11 1 1 1
node 12 1 0 0
node 13 1 0 2
node 14 1 0 2
node 15 1 0 0
node 20 1 0 0
node 296 1 0 0
node 445 1 0 0
node 569 1 0 0
node 819 1 0 0
node 832 1 0 0
node 882 1 0 0
node 1002 1 0 0
node 1115 1 0 0
node 1119 1 0 0
gene 1 1 12 1.1731882795573276 false 1 1.1731882795573276 true
gene 1 2 12 -0.27268115732825704 false 2 -0.27268115732825704 true
gene 1 3 12 -0.5639822190361582 false 3 -0.5639822190361582 true
gene 1 4 12 0.5950717966034591 false 4 0.5950717966034591 true
gene 1 5 12 3.9097233683054924 false 5 3.9097233683054924 true
gene 1 6 12 -0.6778853969135483 false 6 -0.6778853969135483 true
gene 1 7 12 2.435787578798479 false 7 2.435787578798479 true
gene 1 8 12 -4.416271468985052 false 8 -4.416271468985052 true
gene 1 9 12 -2.124050655672308 false 9 -2.124050655672308 true
gene 1 10 12 0.8864027903127674 false 10 0.8864027903127674 true
gene 1 11 12 1.3042689169603678 false 11 1.3042689169603678 true
gene 1 12 13 -0.5588721520840942 false 12 -0.5588721520840942 true
gene 1 12 14 4.254044297064339 false 13 4.254044297064339 true
gene 1 2 15 1.2218524696208188 false 16 1.2218524696208188 true
gene 1 15 12 -0.6783049797038578 false 17 -0.6783049797038578 true
gene 1 12 20 2.231266055653207 false 51 2.231266055653207 true
gene 1 20 13 -1.6492588780797608 false 52 -1.6492588780797608 true
gene 1 4 20 -0.865419351027352 false 75 -0.865419351027352 true
gene 1 7 13 -1.0948683158790244 false 128 -1.0948683158790244 true
gene 1 13 14 -1.3444999617531386 false 270 -1.3444999617531386 true
gene 1 2 296 1.2704058851416646 false 1513 1.2704058851416646 true
gene 1 296 12 0.032583597992907 false 1514 0.032583597992907 true
gene 1 13 13 1.3687472216165593 true 1741 1.3687472216165593 true
gene 1 12 445 -2.41461620009656 false 2356 -2.41461620009656 true
gene 1 445 20 -0.6245241059631184 false 2357 -0.6245241059631184 true
gene 1 445 14 -0.702832830998101 false 2572 -0.702832830998101 true
gene 1 15 15 -0.4587875938653113 true 2696 -0.4587875938653113 true
gene 1 6 445 -1.4089221228226068 false 2961 -1.4089221228226068 true
gene 1 12 569 -1.5700996972436267 false 3057 -1.5700996972436267 true
gene 1 569 14 -2.6726239433744263 false 3058 -2.6726239433744263 true
gene 1 445 13 -0.6657310683899869 false 3109 -0.6657310683899869 true
gene 1 296 14 -0.3753518787782959 false 3254 -0.3753518787782959 true
gene 1 7 14 -0.2724576526385264 false 3558 -0.2724576526385264 true
gene 1 13 569 1.4405370030453741 false 3723 1.4405370030453741 true
gene 1 9 14 -0.4022142359845661 false 4033 -0.4022142359845661 true
gene 1 6 569 -2.877447062449936 false 4060 -2.877447062449936 true
gene 1 4 819 0.752518658410384 false 4324 0.752518658410384 true
gene 1 819 20 -1.5701222542732847 false 4325 -1.5701222542732847 true
gene 1 3 832 0.0016161687221495444 false 4421 0.0016161687221495444 true
gene 1 832 12 0.7138047340966105 false 4422 0.7138047340966105 true
gene 1 9 882 0.1026884342891421 false 4661 0.1026884342891421 true
gene 1 882 12 -0.07946451981410324 false 4662 -0.07946451981410324 true
gene 1 2 832 5.321061419897664 false 4810 5.321061419897664 true
gene 1 296 569 -0.40523080200423156 false 4895 -0.40523080200423156 true
gene 1 14 569 -0.2356189856394966 true 4986 -0.2356189856394966 true
gene 1 819 882 -1.7351590305682492 false 5000 -1.7351590305682492 true
gene 1 14 14 -0.46194816680190465 true 5191 -0.46194816680190465 true
gene 1 882 20 0.17287961550029185 false 5275 0.17287961550029185 true
gene 1 7 1002 0.7395078712299741 false 5378 0.7395078712299741 true
gene 1 1002 13 -1.1629321082539799 false 5379 -1.1629321082539799 true
gene 1 13 1115 1.2036697237481797 false 5975 1.2036697237481797 true
gene 1 1115 569 -0.15543831296401983 false 5976 -0.15543831296401983 true
gene 1 1115 1119 0.2790682851947092 false 5991 0.2790682851947092 true
gene 1 1119 569 0.4271604127668182 false 5992 0.4271604127668182 true
gene 1 7 1119 -8.634805908747165 false 6117 -8.634805908747165 true
genomeend 20
/* Organism #18 Fitness: 0.550 Error: 0.450 */
genomestart 18
trait 1 2.6962294875951422 1.117179069135187 0.46088926799812985 0.4550573990034499 0 0.03447194896542555 0 0 
node 1 1 1 3
node 2 1 1 1
node 3 1 1 1
node 4 1 1 1
node 5 1 1 1
node 6 1 1 1
node 7 1 1 1
node 8 1 1 1
node 9 1 1 1
node 10 1 1 1
node 11 1 1 1
node 12 1 0 0
node 13 1 0 2
node 14 1 0 2
node 15 1 0 0
node 20 1 0 0
node 296 1 0 0
node 445 1 0 0
node 569 1 0 0
node 819 1 0 0
node 832 1 0 0
node 882 1 0 0
node 1002 1 0 0
node 1115 1 0 0
node 1119 1 0 0
gene 1 1 12 1.5827824921220301 false 1 1.5827824921220301 true
gene 1 2 12 -0.6333168306080736 false 2 -0.6333168306080736 true
gene 1 3 12 -0.6543061350725098 false 3 -0.6543061350725098 true
gene 1 4 12 0.2971811262973543 false 4 0.2971811262973543 true
gene 1 5 12 4.450042241800614 false 5 4.450042241800614 true
gene 1 6 12 -0.3082399277112129 false 6 -0.3082399277112129 true
gene 1 7 12 1.875646948729199 false 7 1.875646948729199 true
gene 1 8 12 -5.3171816659353315 false 8 -5.3171816659353315 true
gene 1 9 12 -2.3274757379820876 false 9 -2.3274757379820876 true
gene 1 10 12 0.18798352966285156 false 10 0.18798352966285156 true
gene 1 11 12 -0.26029027770305285 false 11 -0.26029027770305285 true
gene 1 12 13 -1.3174584556321212 false 12 -1.3174584556321212 true
gene 1 12 14 4.3209990043654365 false 13 4.3209990043654365 true
gene 1 2 15 0.9604477965161091 false 16 0.9604477965161091 true
gene 1 15 12 -1.1113054524723522 false 17 -1.1113054524723522 true
gene 1 12 20 2.2850981074123493 false 51 2.2850981074123493 true
gene 1 20 13 -2.2515379421373884 false 52 -2.2515379421373884 true
gene 1 4 20 -0.6730322259154848 false 75 -0.6730322259154848 true
gene 1 7 13 -1.7524937703161378 false 128 -1.7524937703161378 true
gene 1 13 14 -0.7905496338499911 false 270 -0.7905496338499911 true
gene 1 2 296 2.0364511860384713 false 1513 2.0364511860384713 true
gene 1 296 12 0.6803727975200121 false 1514 0.6803727975200121 true
gene 1 13 13 1.8977018220192574 true 1741 1.8977018220192574 false
gene 1 12 445 -2.261889005056259 false 2356 -2.261889005056259 true
gene 1 445 20 -1.3732042106746856 false 2357 -1.3732042106746856 true
gene 1 445 14 -0.3788697905445467 false 2572 -0.3788697905445467 true
gene 1 15 15 -0.18126622482363675 true 2696 -0.18126622482363675 true
gene 1 6 445 -2.2854850865158607 false 2961 -2.2854850865158607 true
gene 1 12 569 0.3238223172630039 false 3057 0.3238223172630039 true
gene 1 569 14 -3.015869005957916 false 3058 -3.015869005957916 true
gene 1 445 13 0.23073481797963058 false 3109 0.23073481797963058 true
gene 1 296 14 -0.3900507298088626 false 3254 -0.3900507298088626 true
gene 1 7 14 -0.0713340776395425 false 3558 -0.0713340776395425 true
gene 1 13 569 1.1031318977148281 false 3723 1.1031318977148281 true
gene 1 9 14 -0.30455737850630915 false 4033 -0.30455737850630915 true
gene 1 6 569 0.6921770081276306 false 4060 0.6921770081276306 true
gene 1 4 819 0.2819631957556288 false 4324 0.2819631957556288 true
gene 1 819 20 -2.4665517995354187 false 4325 -2.4665517995354187 true
gene 1 3 832 -0.6807823438657609 false 4421 -0.6807823438657609 true
gene 1 832 12 0.6681240965225481 false 4422 0.6681240965225481 true
gene 1 9 882 0.21903032880354123 false 4661 0.21903032880354123 true
gene 1 882 12 -0.4188896126221009 false 4662 -0.4188896126221009 true
gene 1 2 832 4.831103898733744 false 4810 4.831103898733744 true
gene 1 296 569 -0.18566697280878536 false 4895 -0.18566697280878536 true
gene 1 14 569 -0.45736168070441485 true 4986 -0.45736168070441485 true
gene 1 819 882 -0.8967064755075189 false 5000 -0.8967064755075189 true
gene 1 14 14 -0.3894971705321536 true 5191 -0.3894971705321536 true
gene 1 882 20 -0.19172721819757582 false 5275 -0.19172721819757582 true
gene 1 7 1002 -0.43541498812930207 false 5378 -0.43541498812930207 true
gene 1 1002 13 -0.9321274675724027 false 5379 -0.9321274675724027 true
gene 1 13 1115 1.7506028174266044 false 5975 1.7506028174266044 true
gene 1 1115 569 -0.5283831456862536 false 5976 -0.5283831456862536 true
gene 1 1115 1119 0.7000551328318687 false 5991 0.7000551328318687 true
gene 1 1119 569 0.158493289961519 false 5992 0.158493289961519 true
genomeend 18
/* Organism #19 Fitness: 0.491 Error: 0.509 */
genomestart 19
trait 1 2.6962294875951422 1.117179069135187 0.46088926799812985 0.4550573990034499 0 0.03447194896542555 0 0 
node 1 1 1 3
node 2 1 1 1
node 3 1 1 1
node 4 1 1 1
node 5 1 1 1
node 6 1 1 1
node 7 1 1 1
node 8 1 1 1
node 9 1 1 1
node 10 1 1 1
node 11 1 1 1
node 12 1 0 0
node 13 1 0 2
node 14 1 0 2
node 15 1 0 0
node 20 1 0 0
node 296 1 0 0
node 445 1 0 0
node 569 1 0 0
node 819 1 0 0
node 832 1 0 0
node 882 1 0 0
node 1002 1 0 0
node 1115 1 0 0
node 1119 1 0 0
gene 1 1 12 1.4056500512144294 false 1 1.4056500512144294 true
gene 1 2 12 0.08795451595155954 false 2 0.08795451595155954 true
gene 1 3 12 -0.43893374967454146 false 3 -0.43893374967454146 true
gene 1 4 12 0.5782981272159808 false 4 0.5782981272159808 true
gene 1 5 12 3.6857154417368743 false 5 3.6857154417368743 true
gene 1 6 12 -0.4220351048044056 false 6 -0.4220351048044056 true
gene 1 7 12 2.6891789582226657 false 7 2.6891789582226657 true
gene 1 8 12 -4.12388894952334 false 8 -4.12388894952334 true
gene 1 9 12 -1.9385880636451471 false 9 -1.9385880636451471 true
gene 1 10 12 0.5109247657438447 false 10 0.5109247657438447 true
gene 1 11 12 1.2589665978399593 false 11 1.2589665978399593 true
gene 1 12 13 -0.5087543434549464 false 12 -0.5087543434549464 true
gene 1 12 14 4.060511756945275 false 13 4.060511756945275 true
gene 1 2 15 1.0916717081954213 false 16 1.0916717081954213 true
gene 1 15 12 -0.757005909474507 false 17 -0.757005909474507 true
gene 1 12 20 1.9343463875023288 false 51 1.9343463875023288 true
gene 1 20 13 -1.414656062584792 false 52 -1.414656062584792 true
gene 1 4 20 -0.7277359431305503 false 75 -0.7277359431305503 true
gene 1 7 13 -1.232554540954419 false 128 -1.232554540954419 true
gene 1 13 14 -1.303541079969161 false 270 -1.303541079969161 true
gene 1 2 296 1.0010268274458483 false 1513 1.0010268274458483 true
gene 1 296 12 0.30227321506220567 false 1514 0.30227321506220567 true
gene 1 13 13 1.0373053399331713 true 1741 1.0373053399331713 true
gene 1 12 445 -2.4220520230498974 false 2356 -2.4220520230498974 true
gene 1 445 20 -0.333762605962888 false 2357 -0.333762605962888 true
gene 1 445 14 -0.5053531206739209 false 2572 -0.5053531206739209 true
gene 1 15 15 -0.4610531024189366 true 2696 -0.4610531024189366 true
gene 1 6 445 -1.201099945738073 false 2961 -1.201099945738073 true
gene 1 12 569 -1.2409714074149243 false 3057 -1.2409714074149243 true
gene 1 569 14 -2.2854903886940017 false 3058 -2.2854903886940017 true
gene 1 445 13 -0.6360786662400535 false 3109 -0.6360786662400535 true
gene 1 296 14 -0.6787989910812653 false 3254 -0.6787989910812653 true
gene 1 7 14 -0.13513591180232964 false 3558 -0.13513591180232964 true
gene 1 13 569 1.7318384139900291 false 3723 1.7318384139900291 true
gene 1 9 14 -0.4998710934628231 false 4033 -0.4998710934628231 true
gene 1 6 569 -3.002803322364471 false 4060 -3.002803322364471 true
gene 1 4 819 0.49313161968474206 false 4324 0.49313161968474206 true
gene 1 819 20 -1.2616442088268331 false 4325 -1.2616442088268331 true
gene 1 3 832 -0.00730962017639733 false 4421 -0.00730962017639733 true
gene 1 832 12 1.0642300498720578 false 4422 1.0642300498720578 true
gene 1 9 882 -0.19765551794231173 false 4661 -0.19765551794231173 true
gene 1 882 12 0.2599605729938944 false 4662 0.2599605729938944 true
gene 1 2 832 5.549783393926999 false 4810 5.549783393926999 true
gene 1 296 569 -0.5269766919574461 false 4895 -0.5269766919574461 true
gene 1 14 569 -0.2356189856394966 true 4986 -0.2356189856394966 true
gene 1 819 882 -1.9494832386705268 false 5000 -1.9494832386705268 true
gene 1 14 14 -0.39423011757334214 true 5191 -0.39423011757334214 true
gene 1 882 20 0.17287961550029185 false 5275 0.17287961550029185 true
gene 1 7 1002 1.9144307305892503 false 5378 1.9144307305892503 true
gene 1 1002 13 -1.1629321082539799 false 5379 -1.1629321082539799 true
gene 1 13 1115 1 false 5975 1 true
gene 1 1115 569 0.182115388673741 false 5976 0.182115388673741 true
gene 1 1115 1119 -0.14191856244245024 false 5991 -0.14191856244245024 true
gene 1 1119 569 0.4271604127668182 false 5992 0.4271604127668182 true
gene 1 20 1115 1.572324515326757 false 6116 1.572324515326757 true
genomeend 19
/* Organism #21 Fitness: 0.376 Error: 0.624 */
genomestart 21
trait 1 2.6962294875951422 1.117179069135187 0.46088926799812985 0.4550573990034499 0 0.03447194896542555 0 0 
node 1 1 1 3
node 2 1 1 1
node 3 1 1 1
node 4 1 1 1
node 5 1 1 1
node 6 1 1 1
node 7 1 1 1
node 8 1 1 1
node 9 1 1 1
node 10 1 1 1
node 11 1 1 1
node 12 1 0 0
node 13 1 0 2
node 14 1 0 2
node 15 1 0 0
node 20 1 0 0
node 296 1 0 0
node 445 1 0 0
node 569 1 0 0
node 819 1 0 0
node 832 1 0 0
node 882 1 0 0
node 1002 1 0 0
node 1115 1 0 0
node 1119 1 0 0
gene 1 1 12 0.940726507900226 false 1 0.940726507900226 true
gene 1 2 12 -0.6333168306080736 false 2 -0.6333168306080736 true
gene 1 3 12 -0.6890306883977749 false 3 -0.6890306883977749 true
gene 1 4 12 0.6118454659909375 false 4 0.6118454659909375 true
gene 1 5 12 4.13373129487411 false 5 4.13373129487411 true
gene 1 6 12 -0.9337356890226911 false 6 -0.9337356890226911 true
gene 1 7 12 2.182396199374292 false 7 2.182396199374292 true
gene 1 8 12 -4.708653988446763 false 8 -4.708653988446763 true
gene 1 9 12 -2.3095132476994684 false 9 -2.3095132476994684 true
gene 1 10 12 1.26188081488169 false 10 1.26188081488169 true
gene 1 11 12 1.3495712360807763 false 11 1.3495712360807763 true
gene 1 12 13 -0.6089899607132422 false 12 -0.6089899607132422 true
gene 1 12 14 4.447576837183402 false 13 4.447576837183402 true
gene 1 2 15 1.3520332310462164 false 16 1.3520332310462164 true
gene 1 15 12 -0.5996040499332087 false 17 -0.5996040499332087 true
gene 1 12 20 2.5281857238040857 false 51 2.5281857238040857 true
gene 1 20 13 -1.8838616935747297 false 52 -1.8838616935747297 true
gene 1 4 20 -1.0031027589241537 false 75 -1.0031027589241537 true
gene 1 7 13 -0.9571820908036299 false 128 -0.9571820908036299 true
gene 1 13 14 -1.3854588435371162 false 270 -1.3854588435371162 true
gene 1 2 296 1.539784942837481 false 1513 1.539784942837481 true
gene 1 296 12 -0.23710601907639167 false 1514 -0.23710601907639167 true
gene 1 13 13 1.7001891032999472 true 1741 1.7001891032999472 true
gene 1 12 445 -2.4071803771432223 false 2356 -2.4071803771432223 true
gene 1 445 20 -0.9152856059633487 false 2357 -0.9152856059633487 true
gene 1 445 14 -0.9003125413222811 false 2572 -0.9003125413222811 true
gene 1 15 15 -0.4565220853116861 true 2696 -0.4565220853116861 true
gene 1 6 445 -1.6167442999071402 false 2961 -1.6167442999071402 true
gene 1 12 569 -1.8992279870723294 false 3057 -1.8992279870723294 true
gene 1 569 14 -3.0597574980548505 false 3058 -3.0597574980548505 true
gene 1 445 13 -0.6953834705399202 false 3109 -0.6953834705399202 true
gene 1 296 14 -0.07190476647532651 false 3254 -0.07190476647532651 true
gene 1 7 14 -0.40977939347472314 false 3558 -0.40977939347472314 true
gene 1 13 569 1.1492355921007191 false 3723 1.1492355921007191 true
gene 1 9 14 -0.30455737850630915 false 4033 -0.30455737850630915 true
gene 1 6 569 -2.752090802535401 false 4060 -2.752090802535401 true
gene 1 4 819 1.011905697136026 false 4324 1.011905697136026 true
gene 1 819 20 -1.8786002997197362 false 4325 -1.8786002997197362 true
gene 1 3 832 0.010541957620696419 false 4421 0.010541957620696419 true
gene 1 832 12 0.36337941832116316 false 4422 0.36337941832116316 true
gene 1 9 882 0.4030323865205959 false 4661 0.4030323865205959 true
gene 1 882 12 -0.4188896126221009 false 4662 -0.4188896126221009 true
gene 1 2 832 5.092339445868327 false 4810 5.092339445868327 true
gene 1 296 569 -0.283484912051017 false 4895 -0.283484912051017 true
gene 1 14 569 -0.2356189856394966 true 4986 -0.2356189856394966 true
gene 1 819 882 -1.5208348224659718 false 5000 -1.5208348224659718 true
gene 1 14 14 -0.5296662160304672 true 5191 -0.5296662160304672 true
gene 1 882 20 0.17287961550029185 false 5275 0.17287961550029185 true
gene 1 7 1002 -0.43541498812930207 false 5378 -0.43541498812930207 true
gene 1 1002 13 -1.1629321082539799 false 5379 -1.1629321082539799 true
gene 1 13 1115 1.4073394474963596 false 5975 1.4073394474963596 true
gene 1 1115 569 -0.49299201460178066 false 5976 -0.49299201460178066 true
gene 1 1115 1119 0.7000551328318687 false 5991 0.7000551328318687 true
gene 1 1119 569 0.4271604127668182 false 5992 0.4271604127668182 true
gene 1 12 1115 3.5263216505828243 false 6121 3.5263216505828243 true
genomeend 21
/* Species #5 : (Size 12) (AF 0.565) (Age 192)  */
/* Organism #22 Fitness: 0.694 Error: 0.306 */
genomestart 22
trait 1 0.7503581850232214 1.8277052024579774 0.15537005805415804 0.23760571365223193 0 0 0 0.8465443042136601 
node 1 1 1 3
node 2 1 1 1
node 3 1 1 1
node 4 1 1 1
node 5 1 1 1
node 6 1 1 1
node 7 1 1 1
node 8 1 1 1
node 9 1 1 1
node 10 1 1 1
node 11 1 1 1
node 12 1 0 0
node 13 1 0 2
node 14 1 0 2
node 44 1 0 0
gene 1 1 12 -1.0802124637768065 false 1 -1.0802124637768065 true
gene 1 2 12 3.66322183614379 false 2 3.66322183614379 true
gene 1 3 12 0.4695166029277871 false 3 0.4695166029277871 true
gene 1 4 12 -0.6975825639951189 false 4 -0.6975825639951189 true
gene 1 5 12 -0.30375642906016675 false 5 -0.30375642906016675 true
gene 1 6 12 0.5525706844151966 false 6 0.5525706844151966 true
gene 1 7 12 0.14227814458562618 false 7 0.14227814458562618 true
gene 1 8 12 -0.8711831418061806 false 8 -0.8711831418061806 true
gene 1 9 12 1.9876243116141674 false 9 1.9876243116141674 true
gene 1 10 12 1.247043316600718 false 10 1.247043316600718 true
gene 1 11 12 -0.5972321975340206 false 11 -0.5972321975340206 true
gene 1 12 13 -0.5286005076921261 false 12 -0.5286005076921261 true
gene 1 12 14 0.8087494538920329 false 13 0.8087494538920329 true
gene 1 8 14 -5.064395164974793 false 125 -5.064395164974793 true
gene 1 2 13 -0.25555773829948114 false 134 -0.25555773829948114 true
gene 1 8 44 -0.016395063808151183 false 207 -0.016395063808151183 true
gene 1 44 12 0.7677641554120468 false 208 0.7677641554120468 true
gene 1 3 13 -3.3128421191061124 false 228 -3.3128421191061124 true
gene 1 9 14 -9.232943384266095 false 309 -9.232943384266095 true
gene 1 4 44 -1.0685531271677802 false 3135 -1.0685531271677802 true
gene 1 44 44 -0.08517048817579587 true 3211 -0.08517048817579587 true
gene 1 12 12 2.9477728694146967 true 3689 2.9477728694146967 true
gene 1 4 13 0.3443611855133567 false 3789 0.3443611855133567 true
gene 1 13 14 0.20667120327447688 false 4212 0.20667120327447688 true
gene 1 3 44 9.634944065085985 false 4330 9.634944065085985 true
gene 1 6 44 -5.148027866903318 false 5406 -5.148027866903318 true
genomeend 22
/* Organism #26 Fitness: 0.692 Error: 0.308 */
genomestart 26
trait 1 0.7503581850232214 1.8277052024579774 0.2368142619321391 0.23760571365223193 0 0 0.24915014785543443 1.1567760180272333 
node 1 1 1 3
node 2 1 1 1
node 3 1 1 1
node 4 1 1 1
node 5 1 1 1
node 6 1 1 1
node 7 1 1 1
node 8 1 1 1
node 9 1 1 1
node 10 1 1 1
node 11 1 1 1
node 12 1 0 0
node 13 1 0 2
node 14 1 0 2
node 44 1 0 0
gene 1 1 12 -1.445228353292639 false 1 -1.445228353292639 true
gene 1 2 12 4.179552522480678 false 2 4.179552522480678 true
gene 1 3 12 -0.12088468328162538 false 3 -0.12088468328162538 true
gene 1 4 12 -1.3899020289210737 false 4 -1.3899020289210737 true
gene 1 5 12 -0.21957513049284194 false 5 -0.21957513049284194 true
gene 1 6 12 -0.04563909679530875 false 6 -0.04563909679530875 true
gene 1 7 12 0.34005787215320327 false 7 0.34005787215320327 true
gene 1 8 12 -0.4708228910420186 false 8 -0.4708228910420186 true
gene 1 9 12 2.5558676917056697 false 9 2.5558676917056697 true
gene 1 10 12 2.024818642783976 false 10 2.024818642783976 true
gene 1 11 12 -1.3625019428057925 false 11 -1.3625019428057925 true
gene 1 12 13 0.11875432399382924 false 12 0.11875432399382924 true
gene 1 12 14 1.5511871957141388 false 13 1.5511871957141388 true
gene 1 8 14 -5.407091299479651 false 125 -5.407091299479651 true
gene 1 2 13 0.1677311846440933 false 134 0.1677311846440933 true
gene 1 8 44 -0.32425245762565097 false 207 -0.32425245762565097 true
gene 1 44 12 0.16106941603259517 false 208 0.16106941603259517 true
gene 1 3 13 -4.023368327745422 false 228 -4.023368327745422 true
gene 1 9 14 -10.00909803727408 false 309 -10.00909803727408 true
gene 1 4 44 -1.342385907263437 false 3135 -1.342385907263437 true
gene 1 44 44 0.2254838629628083 true 3211 0.2254838629628083 true
gene 1 12 12 3.1201418677130253 true 3689 3.1201418677130253 true
gene 1 4 13 0.4919441131341759 false 3789 0.4919441131341759 true
gene 1 13 14 0.3690983793495668 false 4212 0.3690983793495668 true
gene 1 3 44 9.634944065085985 false 4330 9.634944065085985 true
gene 1 6 44 -4.853416453827913 false 5406 -4.853416453827913 true
genomeend 26
/* Organism #32 Fitness: 0.688 Error: 0.312 */
genomestart 32
trait 1 0.7503581850232214 1.8277052024579774 0.19609215999314855 0.23760571365223193 0 0 0.12457507392771722 1.0016601611204468 
node 1 1 1 3
node 2 1 1 1
node 3 1 1 1
node 4 1 1 1
node 5 1 1 1
node 6 1 1 1
node 7 1 1 1
node 8 1 1 1
node 9 1 1 1
node 10 1 1 1
node 11 1 1 1
node 12 1 0 0
node 13 1 0 2
node 14 1 0 2
node 44 1 0 0
gene 1 1 12 -0.994748761406424 false 1 -0.994748761406424 true
gene 1 2 12 2.9949910321471727 false 2 2.9949910321471727 true
gene 1 3 12 0.2828245506687236 false 3 0.2828245506687236 true
gene 1 4 12 -0.5010547151720484 false 4 -0.5010547151720484 true
gene 1 5 12 -0.4167742155380886 false 5 -0.4167742155380886 true
gene 1 6 12 0.04961199351225798 false 6 0.04961199351225798 true
gene 1 7 12 0.2850245545604412 false 7 0.2850245545604412 true
gene 1 8 12 -0.28582116407769254 false 8 -0.28582116407769254 true
gene 1 9 12 2.517997617258415 false 9 2.517997617258415 true
gene 1 10 12 2.0115420261265795 false 10 2.0115420261265795 true
gene 1 11 12 -1.0933664797112974 false 11 -1.0933664797112974 true
gene 1 12 13 -0.47628878511728334 false 12 -0.47628878511728334 true
gene 1 12 14 1.0657399893357986 false 13 1.0657399893357986 true
gene 1 8 14 -4.79337641846838 false 125 -4.79337641846838 true
gene 1 2 13 0.44127246177652235 false 134 0.44127246177652235 true
gene 1 8 44 0.09261218223171418 false 207 0.09261218223171418 true
gene 1 44 12 1.453709848598775 false 208 1.453709848598775 true
gene 1 3 13 -3.0518069902319236 false 228 -3.0518069902319236 true
gene 1 9 14 -8.864582600863187 false 309 -8.864582600863187 true
gene 1 4 44 -1.7247771338105782 false 3135 -1.7247771338105782 true
gene 1 44 44 -0.13142301295163045 true 3211 -0.13142301295163045 true
gene 1 12 12 2.9515970134929157 true 3689 2.9515970134929157 true
gene 1 4 13 0.3443611855133567 false 3789 0.3443611855133567 true
gene 1 13 14 -0.044298974176703615 false 4212 -0.044298974176703615 true
gene 1 3 44 9.634944065085985 false 4330 9.634944065085985 true
gene 1 6 44 -4.4417601543627505 false 5406 -4.4417601543627505 true
genomeend 32
/* Organism #33 Fitness: 0.686 Error: 0.314 */
genomestart 33
trait 1 0.7503581850232214 1.8277052024579774 0.19609215999314855 0.23760571365223193 0 0 0.12457507392771722 1.0016601611204468 
node 1 1 1 3
node 2 1 1 1
node 3 1 1 1
node 4 1 1 1
node 5 1 1 1
node 6 1 1 1
node 7 1 1 1
node 8 1 1 1
node 9 1 1 1
node 10 1 1 1
node 11 1 1 1
node 12 1 0 0
node 13 1 0 2
node 14 1 0 2
node 44 1 0 0
gene 1 1 12 -0.2893348526449818 false 1 -0.2893348526449818 true
gene 1 2 12 3.5014042768471416 false 2 3.5014042768471416 true
gene 1 3 12 0.8291542365090059 false 3 0.8291542365090059 true
gene 1 4 12 -0.17424422001592577 false 4 -0.17424422001592577 true
gene 1 5 12 -0.29377001815899856 false 5 -0.29377001815899856 true
gene 1 6 12 1.1732011855471214 false 6 1.1732011855471214 true
gene 1 7 12 -0.46793751768802483 false 7 -0.46793751768802483 true
gene 1 8 12 -0.4312222095437968 false 8 -0.4312222095437968 true
gene 1 9 12 2.4844345169455453 false 9 2.4844345169455453 true
gene 1 10 12 1.9816076498140955 false 10 1.9816076498140955 true
gene 1 11 12 -0.16054819421080813 false 11 -0.16054819421080813 true
gene 1 12 13 -0.586547352331206 false 12 -0.586547352331206 true
gene 1 12 14 0.3743639248581085 false 13 0.3743639248581085 true
gene 1 8 14 -5.507553074273172 false 125 -5.507553074273172 true
gene 1 2 13 0.5335343276338816 false 134 0.5335343276338816 true
gene 1 8 44 -0.15815191430260034 false 207 -0.15815191430260034 true
gene 1 44 12 0.01800331671911337 false 208 0.01800331671911337 true
gene 1 3 13 -3.0084595364497546 false 228 -3.0084595364497546 true
gene 1 9 14 -9.954264964544395 false 309 -9.954264964544395 true
gene 1 4 44 -1.4351127420061092 false 3135 -1.4351127420061092 true
gene 1 44 44 0.5117659487015338 true 3211 0.5117659487015338 true
gene 1 12 12 3.1885605523529277 true 3689 3.1885605523529277 true
gene 1 4 13 0.8690865673812007 false 3789 0.8690865673812007 true
gene 1 13 14 -0.5387010157226798 false 4212 -0.5387010157226798 true
gene 1 3 44 9.634944065085985 false 4330 9.634944065085985 true
gene 1 6 44 -5.14506002390035 false 5406 -5.14506002390035 true
genomeend 33
/* Organism #23 Fitness: 0.685 Error: 0.315 */
genomestart 23
trait 1 0.7503581850232214 1.8277052024579774 0.2368142619321391 0.23760571365223193 0 0 0.24915014785543443 1.1567760180272333 
node 1 1 1 3
node 2 1 1 1
node 3 1 1 1
node 4 1 1 1
node 5 1 1 1
node 6 1 1 1
node 7 1 1 1
node 8 1 1 1
node 9 1 1 1
node 10 1 1 1
node 11 1 1 1
node 12 1 0 0
node 13 1 0 2
node 14 1 0 2
node 44 1 0 0
gene 1 1 12 -0.4471758050283291 false 1 -0.4471758050283291 true
gene 1 2 12 3.7443996383278764 false 2 3.7443996383278764 true
gene 1 3 12 0.20977219332742553 false 3 0.20977219332742553 true
gene 1 4 12 -0.6062903300097298 false 4 -0.6062903300097298 true
gene 1 5 12 -0.30375642906016675 false 5 -0.30375642906016675 true
gene 1 6 12 0.5525706844151966 false 6 0.5525706844151966 true
gene 1 7 12 0.08661756464897269 false 7 0.08661756464897269 true
gene 1 8 12 -0.166254616508678 false 8 -0.166254616508678 true
gene 1 9 12 2.7677900217963 false 9 2.7677900217963 true
gene 1 10 12 1.247043316600718 false 10 1.247043316600718 true
gene 1 11 12 -0.3250719239244286 false 11 -0.3250719239244286 true
gene 1 12 13 -1.1953539729032858 false 12 -1.1953539729032858 true
gene 1 12 14 0.23821179079477783 false 13 0.23821179079477783 true
gene 1 8 14 -4.744453334684318 false 125 -4.744453334684318 true
gene 1 2 13 -0.2214946257258941 false 134 -0.2214946257258941 true
gene 1 8 44 0.09067964324277591 false 207 0.09067964324277591 true
gene 1 44 12 0.7677641554120468 false 208 0.7677641554120468 true
gene 1 3 13 -4.030632955375242 false 228 -4.030632955375242 true
gene 1 9 14 -9.317571446535338 false 309 -9.317571446535338 true
gene 1 4 44 0.7595151692134892 false 3135 0.7595151692134892 true
gene 1 44 44 -0.08517048817579587 true 3211 -0.08517048817579587 true
gene 1 12 12 2.3902271403972755 true 3689 2.3902271403972755 true
gene 1 4 13 -0.17926200694849126 false 3789 -0.17926200694849126 true
gene 1 13 14 0.20667120327447688 false 4212 0.20667120327447688 true
gene 1 3 44 10.319544740084613 false 4330 10.319544740084613 true
gene 1 6 44 0.6875319249539982 false 5406 0.6875319249539982 true
genomeend 23
/* Organism #27 Fitness: 0.684 Error: 0.316 */
genomestart 27
trait 1 0.7503581850232214 1.8277052024579774 0.19609215999314855 0.23760571365223193 0 0 0.12457507392771722 1.0016601611204468 
node 1 1 1 3
node 2 1 1 1
node 3 1 1 1
node 4 1 1 1
node 5 1 1 1
node 6 1 1 1
node 7 1 1 1
node 8 1 1 1
node 9 1 1 1
node 10 1 1 1
node 11 1 1 1
node 12 1 0 0
node 13 1 0 2
node 14 1 0 2
node 44 1 0 0
gene 1 1 12 -1.5900899569816018 false 1 -1.5900899569816018 true
gene 1 2 12 -0.1754630721797161 false 2 -0.1754630721797161 true
gene 1 3 12 0.8996436070353789 false 3 0.8996436070353789 true
gene 1 4 12 -0.7790848597382142 false 4 -0.7790848597382142 true
gene 1 5 12 0.32624041974129525 false 5 0.32624041974129525 true
gene 1 6 12 0.5505180554284215 false 6 0.5505180554284215 true
gene 1 7 12 -0.1278833100188649 false 7 -0.1278833100188649 true
gene 1 8 12 -1.6340986615633146 false 8 -1.6340986615633146 false
gene 1 9 12 2.5700389078069943 false 9 2.5700389078069943 true
gene 1 10 12 0.5475546971150728 false 10 0.5475546971150728 true
gene 1 11 12 0.11962790657698397 false 11 0.11962790657698397 true
gene 1 12 13 -0.08792983025393919 false 12 -0.08792983025393919 true
gene 1 12 14 1.3183207388017797 false 13 1.3183207388017797 true
gene 1 8 14 -4.408584381343615 false 125 -4.408584381343615 true
gene 1 2 13 0.6025592442844907 false 134 0.6025592442844907 true
gene 1 8 44 -0.5642246637928675 false 207 -0.5642246637928675 true
gene 1 44 12 0.43969595145046236 false 208 0.43969595145046236 true
gene 1 3 13 -4.072583073497557 false 228 -4.072583073497557 true
gene 1 9 14 -9.732805370844732 false 309 -9.732805370844732 true
gene 1 4 44 -1.5023873975569388 false 3135 -1.5023873975569388 true
gene 1 44 44 -0.20403485520987374 true 3211 -0.20403485520987374 true
gene 1 12 12 0.3997267724211017 true 3689 0.3997267724211017 true
gene 1 4 13 0.0886677857961084 false 3789 0.0886677857961084 true
gene 1 13 14 0.4999883161164713 false 4212 0.4999883161164713 true
gene 1 3 44 9.691452724411917 false 4330 9.691452724411917 true
gene 1 6 44 -5.334385601487272 false 5406 -5.334385601487272 true
genomeend 27
/* Organism #31 Fitness: 0.684 Error: 0.316 */
genomestart 31
trait 1 0.7503581850232214 1.8277052024579774 0.19609215999314855 0.23760571365223193 0 0 0.12457507392771722 1.0016601611204468 
node 1 1 1 3
node 2 1 1 1
node 3 1 1 1
node 4 1 1 1
node 5 1 1 1
node 6 1 1 1
node 7 1 1 1
node 8 1 1 1
node 9 1 1 1
node 10 1 1 1
node 11 1 1 1
node 12 1 0 0
node 13 1 0 2
node 14 1 0 2
node 44 1 0 0
gene 1 1 12 -0.4580906693147646 false 1 -0.4580906693147646 true
gene 1 2 12 -0.11004562834170067 false 2 -0.11004562834170067 true
gene 1 3 12 0.09445973148207042 false 3 0.09445973148207042 true
gene 1 4 12 -0.161262087587561 false 4 -0.161262087587561 true
gene 1 5 12 -0.1948058747272381 false 5 -0.1948058747272381 true
gene 1 6 12 -0.07606998359425232 false 6 -0.07606998359425232 true
gene 1 7 12 -0.3701863481962089 false 7 -0.3701863481962089 true
gene 1 8 12 -1.4401005876192519 false 8 -1.4401005876192519 true
gene 1 9 12 -0.5815692752628386 false 9 -0.5815692752628386 true
gene 1 10 12 1.247043316600718 false 10 1.247043316600718 true
gene 1 11 12 -0.3176798210446592 false 11 -0.3176798210446592 true
gene 1 12 13 -1.1173131726798915 false 12 -1.1173131726798915 true
gene 1 12 14 1.5542983643291906 false 13 1.5542983643291906 true
gene 1 8 14 -4.776299151373319 false 125 -4.776299151373319 true
gene 1 2 13 0.2725416151053538 false 134 0.2725416151053538 true
gene 1 8 44 -0.2647415562871087 false 207 -0.2647415562871087 true
gene 1 44 12 0.11229396973711081 false 208 0.11229396973711081 true
gene 1 3 13 -3.069898452530278 false 228 -3.069898452530278 true
gene 1 9 14 -8.443313366090084 false 309 -8.443313366090084 true
gene 1 4 44 -0.1903914752479638 false 3135 -0.1903914752479638 true
gene 1 44 44 -0.08517048817579587 true 3211 -0.08517048817579587 true
gene 1 12 12 2.430560277151308 true 3689 2.430560277151308 true
gene 1 4 13 -0.5901547568101503 false 3789 -0.5901547568101503 true
gene 1 13 14 0.21978301305264247 false 4212 0.21978301305264247 true
gene 1 3 44 9.135153219382937 false 4330 9.135153219382937 true
gene 1 6 44 -5.148027866903318 false 5406 -5.148027866903318 true
genomeend 31
/* Organism #28 Fitness: 0.683 Error: 0.317 */
genomestart 28
trait 1 0.7503581850232214 1.8277052024579774 0.2368142619321391 0.23760571365223193 0 0 0.24915014785543443 1.1567760180272333 
node 1 1 1 3
node 2 1 1 1
node 3 1 1 1
node 4 1 1 1
node 5 1 1 1
node 6 1 1 1
node 7 1 1 1
node 8 1 1 1
node 9 1 1 1
node 10 1 1 1
node 11 1 1 1
node 12 1 0 0
node 13 1 0 2
node 14 1 0 2
node 44 1 0 0
gene 1 1 12 -1.6252914345849758 false 1 -1.6252914345849758 true
gene 1 2 12 2.8638431519172856 false 2 2.8638431519172856 true
gene 1 3 12 1.242134244850758 false 3 1.242134244850758 true
gene 1 4 12 -0.5293359709264863 false 4 -0.5293359709264863 true
gene 1 5 12 0.08764591945887085 false 5 0.08764591945887085 true
gene 1 6 12 0.2805466794629353 false 6 0.2805466794629353 true
gene 1 7 12 0.4018098324798599 false 7 0.4018098324798599 true
gene 1 8 12 -0.7835427832418926 false 8 -0.7835427832418926 false
gene 1 9 12 2.778045471988761 false 9 2.778045471988761 true
gene 1 10 12 1.4768976836005399 false 10 1.4768976836005399 true
gene 1 11 12 -1.1003330118983183 false 11 -1.1003330118983183 true
gene 1 12 13 -0.9090048171043499 false 12 -0.9090048171043499 true
gene 1 12 14 0.7250973425077158 false 13 0.7250973425077158 true
gene 1 8 14 -4.390470401263655 false 125 -4.390470401263655 true
gene 1 2 13 -0.36139608057085715 false 134 -0.36139608057085715 true
gene 1 8 44 0.1913025253812988 false 207 0.1913025253812988 true
gene 1 44 12 0.38390049367432194 false 208 0.38390049367432194 true
gene 1 3 13 -2.6213915557141902 false 228 -2.6213915557141902 true
gene 1 9 14 -8.484716876811161 false 309 -8.484716876811161 true
gene 1 4 44 -0.8300587435116922 false 3135 -0.8300587435116922 true
gene 1 44 44 -0.47354984488612256 true 3211 -0.47354984488612256 true
gene 1 12 12 2.9477728694146967 true 3689 2.9477728694146967 true
gene 1 4 13 0.3443611855133567 false 3789 0.3443611855133567 true
gene 1 13 14 -0.06738742145525986 false 4212 -0.06738742145525986 true
gene 1 3 44 9.535052052259308 false 4330 9.535052052259308 true
gene 1 6 44 -5.821380057559576 false 5406 -5.821380057559576 true
genomeend 28
/* Organism #25 Fitness: 0.528 Error: 0.472 */
genomestart 25
trait 1 0.7503581850232214 1.8277052024579774 0.2368142619321391 0.23760571365223193 0 0 0.24915014785543443 1.1567760180272333 
node 1 1 1 3
node 2 1 1 1
node 3 1 1 1
node 4 1 1 1
node 5 1 1 1
node 6 1 1 1
node 7 1 1 1
node 8 1 1 1
node 9 1 1 1
node 10 1 1 1
node 11 1 1 1
node 12 1 0 0
node 13 1 0 2
node 14 1 0 2
node 44 1 0 0
gene 1 1 12 -0.38038094959467483 false 1 -0.38038094959467483 true
gene 1 2 12 3.9168159474326703 false 2 3.9168159474326703 true
gene 1 3 12 0.5156151593534334 false 3 0.5156151593534334 true
gene 1 4 12 -1.1047459383918432 false 4 -1.1047459383918432 true
gene 1 5 12 -0.5996729822979321 false 5 -0.5996729822979321 true
gene 1 6 12 0.9793863527971334 false 6 0.9793863527971334 true
gene 1 7 12 0.6254652081398294 false 7 0.6254652081398294 true
gene 1 8 12 -1.631941726047539 false 8 -1.631941726047539 false
gene 1 9 12 1.6835430856882616 false 9 1.6835430856882616 true
gene 1 10 12 1.7633853694806683 false 10 1.7633853694806683 true
gene 1 11 12 -0.0021092242415691187 false 11 -0.0021092242415691187 true
gene 1 12 13 0.24602076165249231 false 12 0.24602076165249231 true
gene 1 12 14 0.018830391091842036 false 13 0.018830391091842036 true
gene 1 8 14 -5.377465222875827 false 125 -5.377465222875827 true
gene 1 2 13 0.23775750480713453 false 134 0.23775750480713453 true
gene 1 8 44 0.5435764365154647 false 207 0.5435764365154647 true
gene 1 44 12 1.0448461121135955 false 208 1.0448461121135955 true
gene 1 3 13 -2.9425895869957266 false 228 -2.9425895869957266 true
gene 1 9 14 -8.974735226383542 false 309 -8.974735226383542 true
gene 1 4 44 -0.5154830901257597 false 3135 -0.5154830901257597 true
gene 1 44 44 -0.1790803528349097 true 3211 -0.1790803528349097 true
gene 1 12 12 2.9477728694146967 true 3689 2.9477728694146967 true
gene 1 4 13 -0.11013890464925435 false 3789 -0.11013890464925435 true
gene 1 13 14 0.20667120327447688 false 4212 0.20667120327447688 true
gene 1 3 44 9.208957049577986 false 4330 9.208957049577986 true
gene 1 6 44 -5.148027866903318 false 5406 -5.148027866903318 true
genomeend 25
/* Organism #29 Fitness: 0.375 Error: 0.625 */
genomestart 29
trait 1 0.7503581850232214 1.8277052024579774 0.19609215999314855 0.23760571365223193 0 0 0.12457507392771722 1.0016601611204468 
node 1 1 1 3
node 2 1 1 1
node 3 1 1 1
node 4 1 1 1
node 5 1 1 1
node 6 1 1 1
node 7 1 1 1
node 8 1 1 1
node 9 1 1 1
node 10 1 1 1
node 11 1 1 1
node 12 1 0 0
node 13 1 0 2
node 14 1 0 2
node 44 1 0 0
gene 1 1 12 0.3118667282490909 false 1 0.3118667282490909 true
gene 1 2 12 3.66322183614379 false 2 3.66322183614379 true
gene 1 3 12 0.2583372506271815 false 3 0.2583372506271815 true
gene 1 4 12 -0.3998113614053123 false 4 -0.3998113614053123 true
gene 1 5 12 0.4473243611543942 false 5 0.4473243611543942 true
gene 1 6 12 -0.09728872279761858 false 6 -0.09728872279761858 true
gene 1 7 12 0.1156842346383627 false 7 0.1156842346383627 true
gene 1 8 12 -0.7646139380552444 false 8 -0.7646139380552444 true
gene 1 9 12 1.3986447569204756 false 9 1.3986447569204756 true
gene 1 10 12 1.8256661039180986 false 10 1.8256661039180986 true
gene 1 11 12 -0.9904109048405005 false 11 -0.9904109048405005 true
gene 1 12 13 -0.4790195714101759 false 12 -0.4790195714101759 true
gene 1 12 14 0.2646406749296002 false 13 0.2646406749296002 true
gene 1 8 14 -0.48586363564256846 false 125 -0.48586363564256846 true
gene 1 2 13 0.08276518592989068 false 134 0.08276518592989068 true
gene 1 8 44 0.738133506543511 false 207 0.738133506543511 true
gene 1 44 12 1.1594848732226297 false 208 1.1594848732226297 true
gene 1 3 13 -2.8705687353616423 false 228 -2.8705687353616423 true
gene 1 9 14 -9.488933103162264 false 309 -9.488933103162264 true
gene 1 4 44 -1.2152883792646396 false 3135 -1.2152883792646396 true
gene 1 44 44 -0.5202833718091345 true 3211 -0.5202833718091345 true
gene 1 12 12 2.996587504528499 true 3689 2.996587504528499 true
gene 1 4 13 0.2879322874410408 false 3789 0.2879322874410408 true
gene 1 13 14 0.8958834387551274 false 4212 0.8958834387551274 true
gene 1 3 44 9.587705197335088 false 4330 9.587705197335088 true
gene 1 6 44 -5.280862731545895 false 5406 -5.280862731545895 true
genomeend 29
/* Organism #24 Fitness: 0.371 Error: 0.629 */
genomestart 24
trait 1 0.7503581850232214 1.8277052024579774 0.2368142619321391 0.23760571365223193 0 0 0.24915014785543443 1.1567760180272333 
node 1 1 1 3
node 2 1 1 1
node 3 1 1 1
node 4 1 1 1
node 5 1 1 1
node 6 1 1 1
node 7 1 1 1
node 8 1 1 1
node 9 1 1 1
node 10 1 1 1
node 11 1 1 1
node 12 1 0 0
node 13 1 0 2
node 14 1 0 2
node 44 1 0 0
gene 1 1 12 -1.224059961284705 false 1 -1.224059961284705 true
gene 1 2 12 4.1821779114112605 false 2 4.1821779114112605 true
gene 1 3 12 -0.06464208799462128 false 3 -0.06464208799462128 true
gene 1 4 12 -0.050525769193997094 false 4 -0.050525769193997094 true
gene 1 5 12 -0.6073319162901494 false 5 -0.6073319162901494 true
gene 1 6 12 0.7143162019265206 false 6 0.7143162019265206 true
gene 1 7 12 0.6256875154072246 false 7 0.6256875154072246 true
gene 1 8 12 -0.9669435583879514 false 8 -0.9669435583879514 false
gene 1 9 12 1.6196628615848292 false 9 1.6196628615848292 true
gene 1 10 12 1.4629828419296766 false 10 1.4629828419296766 true
gene 1 11 12 -0.4135190994398097 false 11 -0.4135190994398097 true
gene 1 12 13 -0.23637100865546434 false 12 -0.23637100865546434 true
gene 1 12 14 1.5379097413571807 false 13 1.5379097413571807 true
gene 1 8 14 -5.240430206204657 false 125 -5.240430206204657 true
gene 1 2 13 -0.25555773829948114 false 134 -0.25555773829948114 true
gene 1 8 44 -0.5019546768987654 false 207 -0.5019546768987654 true
gene 1 44 12 0.19449935133302837 false 208 0.19449935133302837 true
gene 1 3 13 0.18148443983941404 false 228 0.18148443983941404 true
gene 1 9 14 -9.375181670938197 false 309 -9.375181670938197 true
gene 1 4 44 -1.2566940226241956 false 3135 -1.2566940226241956 true
gene 1 44 44 -0.8243418837208011 true 3211 -0.8243418837208011 true
gene 1 12 12 3.7176054658656406 true 3689 3.7176054658656406 true
gene 1 4 13 0.05691499587125585 false 3789 0.05691499587125585 true
gene 1 13 14 -0.2602023772912144 false 4212 -0.2602023772912144 true
gene 1 3 44 9.634944065085985 false 4330 9.634944065085985 true
gene 1 6 44 0.5421346790529316 false 5406 0.5421346790529316 true
genomeend 24
/* Organism #30 Fitness: 0.010 Error: 0.990 */
genomestart 30
trait 1 0.7503581850232214 1.8277052024579774 0.15537005805415804 0.23760571365223193 0 0 0 0.8465443042136601 
node 1 1 1 3
node 2 1 1 1
node 3 1 1 1
node 4 1 1 1
node 5 1 1 1
node 6 1 1 1
node 7 1 1 1
node 8 1 1 1
node 9 1 1 1
node 10 1 1 1
node 11 1 1 1
node 12 1 0 0
node 13 1 0 2
node 14 1 0 2
node 44 1 0 0
gene 1 1 12 -1.4754287248108697 false 1 -1.4754287248108697 true
gene 1 2 12 3.4135016990734948 false 2 3.4135016990734948 true
gene 1 3 12 0.5971201614971354 false 3 0.5971201614971354 true
gene 1 4 12 -1.2780260231299332 false 4 -1.2780260231299332 true
gene 1 5 12 0.2790336125031858 false 5 0.2790336125031858 true
gene 1 6 12 0.5525706844151966 false 6 0.5525706844151966 true
gene 1 7 12 -0.533088971186313 false 7 -0.533088971186313 true
gene 1 8 12 -1.3969071989841986 false 8 -1.3969071989841986 true
gene 1 9 12 2.615582374750795 false 9 2.615582374750795 true
gene 1 10 12 1.343875448054484 false 10 1.343875448054484 true
gene 1 11 12 -0.9526987627570924 false 11 -0.9526987627570924 true
gene 1 12 13 -0.08373708868848029 false 12 -0.08373708868848029 true
gene 1 12 14 0.6554519686361934 false 13 0.6554519686361934 true
gene 1 8 14 -4.6456960316260405 false 125 -4.6456960316260405 true
gene 1 2 13 -0.49373124981701455 false 134 -0.49373124981701455 true
gene 1 8 44 -0.22570964750421954 false 207 -0.22570964750421954 true
gene 1 44 12 -0.32285524538682187 false 208 -0.32285524538682187 true
gene 1 3 13 0.7311400507424309 false 228 0.7311400507424309 true
gene 1 9 14 -8.634865456217861 false 309 -8.634865456217861 true
gene 1 4 44 -0.4364891234141637 false 3135 -0.4364891234141637 true
gene 1 44 44 -0.08517048817579587 true 3211 -0.08517048817579587 true
gene 1 12 12 2.4468732411469762 true 3689 2.4468732411469762 true
gene 1 4 13 0.4032133037172348 false 3789 0.4032133037172348 false
gene 1 13 14 -0.7883688133509766 false 4212 -0.7883688133509766 true
gene 1 3 44 8.981050775874893 false 4330 8.981050775874893 true
gene 1 6 44 -4.487593386814446 false 5406 -4.487593386814446 true
genomeend 30
/* Species #8 : (Size 9) (AF 0.476) (Age 188)  */
/* Organism #35 Fitness: 0.924 Error: 0.076 */
genomestart 35
trait 1 0 0.2614818869138707 0 0.6078544577649692 0 0 0.4356123551856383 0.06843190371778608 
node 1 1 1 3
node 2 1 1 1
node 3 1 1 1
node 4 1 1 1
node 5 1 1 1
node 6 1 1 1
node 7 1 1 1
node 8 1 1 1
node 9 1 1 1
node 10 1 1 1
node 11 1 1 1
node 12 1 0 0
node 13 1 0 2
node 14 1 0 2
node 44 1 0 0
node 53 1 0 0
node 745 1 0 0
node 984 1 0 0
gene 1 1 12 -3.18165840951165 false 1 -3.18165840951165 true
gene 1 2 12 0.052872456275740554 false 2 0.052872456275740554 true
gene 1 3 12 0.21442784094384001 false 3 0.21442784094384001 true
gene 1 4 12 0.7932111644945024 false 4 0.7932111644945024 true
gene 1 5 12 0.5440695186875831 false 5 0.5440695186875831 true
gene 1 6 12 0.033017377879123844 false 6 0.033017377879123844 true
gene 1 7 12 -0.13020786045852695 false 7 -0.13020786045852695 true
gene 1 8 12 -0.18665687242659026 false 8 -0.18665687242659026 true
gene 1 9 12 -0.2257011002410988 false 9 -0.2257011002410988 true
gene 1 10 12 -0.47405071899861223 false 10 -0.47405071899861223 true
gene 1 11 12 -0.21593749701288187 false 11 -0.21593749701288187 true
gene 1 12 13 -0.35287195758541845 false 12 -0.35287195758541845 true
gene 1 12 14 0.36978336378576915 false 13 0.36978336378576915 true
gene 1 8 14 -1.1374645170224542 false 125 -1.1374645170224542 true
gene 1 2 13 -1.7825463735610771 false 134 -1.7825463735610771 true
gene 1 8 44 -0.03193625380564302 false 207 -0.03193625380564302 true
gene 1 44 12 0.07379679788611365 false 208 0.07379679788611365 true
gene 1 3 13 -0.037156793346871414 false 228 -0.037156793346871414 true
gene 1 3 53 -0.39092017898747233 false 250 -0.39092017898747233 true
gene 1 53 13 0.5556883951635951 false 251 0.5556883951635951 true
gene 1 7 14 1.1803055287738373 false 361 1.1803055287738373 true
gene 1 9 53 -0.05928417639363859 false 475 -0.05928417639363859 true
gene 1 11 44 -0.4679235130745465 false 508 -0.4679235130745465 true
gene 1 2 53 -1.2042427794665707 false 1248 -1.2042427794665707 true
gene 1 9 13 -5.359186726857354 false 2063 -5.359186726857354 true
gene 1 7 44 8.525733144392332 false 2993 8.525733144392332 true
gene 1 4 745 1 false 3960 0 true
gene 1 745 12 0.7932111644945024 false 3961 0 true
gene 1 8 745 9.933271434540933 false 4120 9.933271434540933 true
gene 1 2 984 1 false 5277 0 true
gene 1 984 12 0.052872456275740554 false 5278 0 true
genomeend 35
/* Organism #34 Fitness: 0.924 Error: 0.076 */
genomestart 34
trait 1 0 0.2614818869138707 0 0.6078544577649692 0 0 0.4356123551856383 0.06843190371778608 
node 1 1 1 3
node 2 1 1 1
node 3 1 1 1
node 4 1 1 1
node 5 1 1 1
node 6 1 1 1
node 7 1 1 1
node 8 1 1 1
node 9 1 1 1
node 10 1 1 1
node 11 1 1 1
node 12 1 0 0
node 13 1 0 2
node 14 1 0 2
node 44 1 0 0
node 53 1 0 0
node 745 1 0 0
node 984 1 0 0
gene 1 1 12 -3.18165840951165 false 1 -3.18165840951165 true
gene 1 2 12 0.052872456275740554 false 2 0.052872456275740554 true
gene 1 3 12 0.21442784094384001 false 3 0.21442784094384001 true
gene 1 4 12 0.7932111644945024 false 4 0.7932111644945024 true
gene 1 5 12 0.5440695186875831 false 5 0.5440695186875831 true
gene 1 6 12 0.033017377879123844 false 6 0.033017377879123844 true
gene 1 7 12 -0.13020786045852695 false 7 -0.13020786045852695 true
gene 1 8 12 -0.18665687242659026 false 8 -0.18665687242659026 true
gene 1 9 12 -0.2257011002410988 false 9 -0.2257011002410988 true
gene 1 10 12 -0.47405071899861223 false 10 -0.47405071899861223 true
gene 1 11 12 -0.21593749701288187 false 11 -0.21593749701288187 true
gene 1 12 13 -0.35287195758541845 false 12 -0.35287195758541845 true
gene 1 12 14 0.36978336378576915 false 13 0.36978336378576915 true
gene 1 8 14 -1.1374645170224542 false 125 -1.1374645170224542 true
gene 1 2 13 -1.7825463735610771 false 134 -1.7825463735610771 true
gene 1 8 44 -0.03193625380564302 false 207 -0.03193625380564302 true
gene 1 44 12 0.07379679788611365 false 208 0.07379679788611365 true
gene 1 3 13 -0.037156793346871414 false 228 -0.037156793346871414 true
gene 1 3 53 -0.39092017898747233 false 250 -0.39092017898747233 true
gene 1 53 13 0.5556883951635951 false 251 0.5556883951635951 true
gene 1 7 14 1.1803055287738373 false 361 1.1803055287738373 true
gene 1 9 53 -0.05928417639363859 false 475 -0.05928417639363859 true
gene 1 11 44 -0.4679235130745465 false 508 -0.4679235130745465 true
gene 1 2 53 -1.2042427794665707 false 1248 -1.2042427794665707 true
gene 1 9 13 -5.359186726857354 false 2063 -5.359186726857354 true
gene 1 7 44 8.525733144392332 false 2993 8.525733144392332 true
gene 1 4 745 1 false 3960 0 true
gene 1 745 12 0.7932111644945024 false 3961 0 true
gene 1 8 745 9.933271434540933 false 4120 9.933271434540933 true
gene 1 2 984 1 false 5277 0 true
gene 1 984 12 0.052872456275740554 false 5278 0 true
genomeend 34
/* Organism #37 Fitness: 0.634 Error: 0.366 */
genomestart 37
trait 1 0 0.2614818869138707 0 0.6078544577649692 0 0 0.4356123551856383 0.06843190371778608 
node 1 1 1 3
node 2 1 1 1
node 3 1 1 1
node 4 1 1 1
node 5 1 1 1
node 6 1 1 1
node 7 1 1 1
node 8 1 1 1
node 9 1 1 1
node 10 1 1 1
node 11 1 1 1
node 12 1 0 0
node 13 1 0 2
node 14 1 0 2
node 44 1 0 0
node 53 1 0 0
node 745 1 0 0
node 984 1 0 0
gene 1 1 12 -2.4538582004295013 false 1 -2.4538582004295013 true
gene 1 2 12 -0.3902146863052163 false 2 -0.3902146863052163 true
gene 1 3 12 -0.11557002529330193 false 3 -0.11557002529330193 true
gene 1 4 12 0.324406519809116 false 4 0.324406519809116 true
gene 1 5 12 -0.10061725954918588 false 5 -0.10061725954918588 true
gene 1 6 12 -0.20500835243650634 false 6 -0.20500835243650634 true
gene 1 7 12 -0.11696118502343388 false 7 -0.11696118502343388 true
gene 1 8 12 0.5946286383855002 false 8 0.5946286383855002 true
gene 1 9 12 0.5314332387268342 false 9 0.5314332387268342 true
