/* Species #2 : (Size 6) (AF 0.376) (Age 247)  */
/* Organism #0 Fitness: 0.692 Error: 0.308 */
genomestart 0
trait 1 0 1.4735468919168098 1.7567112489163859 0.46211082853816454 1.0336212474686142 0.03608440989147754 0.30219073561924703 0.33705414056108446 
node 1 1 1 3
node 2 1 1 1
node 3 1 1 1
node 4 1 1 1
node 5 1 1 1
node 6 1 1 1
node 7 1 1 1
node 8 1 1 1
node 9 1 1 1
node 10 1 1 1
node 11 1 1 1
node 12 1 0 0
node 13 1 0 2
node 14 1 0 2
node 15 1 0 0
node 20 1 0 0
node 265 1 0 0
node 1003 1 0 0
gene 1 1 12 -2.9433267816017215 false 1 -2.9433267816017215 true
gene 1 2 12 -1.1419269429047731 false 2 -1.1419269429047731 true
gene 1 3 12 1.3218371926633177 false 3 1.3218371926633177 true
gene 1 4 12 0.283090010756899 false 4 0.283090010756899 true
gene 1 5 12 0.39664161305483947 false 5 0.39664161305483947 true
gene 1 6 12 1.1123026675376195 false 6 1.1123026675376195 true
gene 1 7 12 -0.7056297395786509 false 7 -0.7056297395786509 true
gene 1 8 12 0.8137206338966796 false 8 0.8137206338966796 true
gene 1 9 12 -3.0751586409551117 false 9 -3.0751586409551117 true
gene 1 10 12 1.7259208710487397 false 10 1.7259208710487397 true
gene 1 11 12 0.44268671459423514 false 11 0.44268671459423514 true
gene 1 12 13 -0.8233785324314475 false 12 -0.8233785324314475 true
gene 1 12 14 -2.1628852897103075 false 13 -2.1628852897103075 true
gene 1 2 15 0.5407668952134295 false 16 0.5407668952134295 true
gene 1 15 12 -1.7567296898800813 false 17 -1.7567296898800813 true
gene 1 12 20 -0.4780057633778575 false 51 -0.4780057633778575 true
gene 1 20 13 -2.5457398289336064 false 52 -2.5457398289336064 true
gene 1 5 15 0.5091528987864837 false 85 0.5091528987864837 true
gene 1 2 14 -0.21491102978600463 false 185 -0.21491102978600463 true
gene 1 8 14 -1.9190196329311564 false 275 -1.9190196329311564 true
gene 1 15 15 1.182021768157929 true 390 1.182021768157929 true
gene 1 12 265 0.8580769081509196 false 1369 0.8580769081509196 true
gene 1 265 14 1.324595129771452 false 1370 1.324595129771452 true
gene 1 11 265 1.1294366645191085 false 2155 1.1294366645191085 true
gene 1 3 15 1.2015947953693416 false 3029 1.2015947953693416 true
gene 1 10 265 5.840582638456904 false 3132 5.840582638456904 true
gene 1 265 265 -7.959932849111735 true 3460 -7.959932849111735 true
gene 1 10 13 -0.9470455629568298 false 3525 -0.9470455629568298 true
gene 1 1 265 -0.1134121906461345 false 3593 -0.1134121906461345 true
gene 1 15 265 -3.8430717186243575 false 3726 -3.8430717186243575 true
gene 1 4 265 -0.016213553200208175 false 3870 -0.016213553200208175 true
gene 1 14 12 0.42322337235836294 true 3964 0.42322337235836294 true
gene 1 13 13 0.7788433358366342 true 4065 0.7788433358366342 true
gene 1 265 20 -0.6384620856973955 false 4439 -0.6384620856973955 true
gene 1 6 1003 0.4344120394525535 false 5384 0.4344120394525535 true
gene 1 1003 12 0.895234025076797 false 5385 0.895234025076797 true
gene 1 1 1003 -0.23273959669886135 false 5876 -0.23273959669886135 true
gene 1 4 1003 -0.7900644291850207 false 6851 -0.7900644291850207 true
gene 1 15 1003 -4.519213464159762 false 7140 -4.519213464159762 true
gene 1 1003 13 -0.0899560072809948 false 7364 -0.0899560072809948 true
genomeend 0
/* Organism #5 Fitness: 0.691 Error: 0.309 */
genomestart 5
trait 1 0 1.4735468919168098 1.7567112489163859 0.46211082853816454 1.0336212474686142 0.03608440989147754 0.30219073561924703 0.33705414056108446 
node 1 1 1 3
node 2 1 1 1
node 3 1 1 1
node 4 1 1 1
node 5 1 1 1
node 6 1 1 1
node 7 1 1 1
node 8 1 1 1
node 9 1 1 1
node 10 1 1 1
node 11 1 1 1
node 12 1 0 0
node 13 1 0 2
node 14 1 0 2
node 15 1 0 0
node 20 1 0 0
node 265 1 0 0
node 1003 1 0 0
gene 1 1 12 -3.741289226020039 false 1 -3.741289226020039 true
gene 1 2 12 -1.146097000620705 false 2 -1.146097000620705 true
gene 1 3 12 0.5986733410303753 false 3 0.5986733410303753 true
gene 1 4 12 0.475183427669772 false 4 0.475183427669772 true
gene 1 5 12 0.5341860788539359 false 5 0.5341860788539359 true
gene 1 6 12 1.1123026675376195 false 6 1.1123026675376195 true
gene 1 7 12 -0.7056297395786509 false 7 -0.7056297395786509 true
gene 1 8 12 0.6535701360020332 false 8 0.6535701360020332 true
gene 1 9 12 -3.7689441468475304 false 9 -3.7689441468475304 true
gene 1 10 12 1.8027576203326092 false 10 1.8027576203326092 true
gene 1 11 12 0.44268671459423514 false 11 0.44268671459423514 true
gene 1 12 13 -0.13481631046151743 false 12 -0.13481631046151743 true
gene 1 12 14 -2.1628852897103075 false 13 -2.1628852897103075 true
gene 1 2 15 -0.31391198192239955 false 16 -0.31391198192239955 true
gene 1 15 12 -2.221074966517324 false 17 -2.221074966517324 true
gene 1 12 20 -0.7037331645399845 false 51 -0.7037331645399845 true
gene 1 20 13 -2.3432749260077985 false 52 -2.3432749260077985 true
gene 1 5 15 0.5328762363579093 false 85 0.5328762363579093 true
gene 1 2 14 -0.21491102978600463 false 185 -0.21491102978600463 true
gene 1 8 14 -2.69989820343108 false 275 -2.69989820343108 true
gene 1 15 15 0.5561250721783337 true 390 0.5561250721783337 true
gene 1 12 265 0.2181785837741239 false 1369 0.2181785837741239 true
gene 1 265 14 1.186032901699325 false 1370 1.186032901699325 true
gene 1 11 265 1.891328689194788 false 2155 1.891328689194788 true
gene 1 3 15 0.7873977426615388 false 3029 0.7873977426615388 true
gene 1 10 265 6.480318394893543 false 3132 6.480318394893543 true
gene 1 265 265 -7.979776613653311 true 3460 -7.979776613653311 true
gene 1 10 13 0.17287617363422894 false 3525 0.17287617363422894 true
gene 1 1 265 -0.817294812338867 false 3593 -0.817294812338867 true
gene 1 15 265 -3.620381326029757 false 3726 -3.620381326029757 true
gene 1 4 265 -0.3025227522817491 false 3870 -0.3025227522817491 true
gene 1 14 12 0.36330960317034044 true 3964 0.36330960317034044 true
gene 1 13 13 0.19016188496761544 true 4065 0.19016188496761544 true
gene 1 265 20 -1.109165472812081 false 4439 -1.109165472812081 true
gene 1 6 1003 0.4784433775328535 false 5384 0.4784433775328535 true
gene 1 1003 12 1.6499290506042898 false 5385 1.6499290506042898 true
gene 1 1 1003 -0.4326180284881903 false 5876 -0.4326180284881903 true
gene 1 4 1003 -0.6328924755330612 false 6851 -0.6328924755330612 true
gene 1 15 1003 0.007829870284095706 false 7140 0.007829870284095706 true
gene 1 1003 13 -0.25464749827502925 false 7364 -0.25464749827502925 true
genomeend 5
/* Organism #4 Fitness: 0.685 Error: 0.315 */
genomestart 4
trait 1 0 1.4735468919168098 1.7567112489163859 0.46211082853816454 1.0336212474686142 0.03608440989147754 0.30219073561924703 0.33705414056108446 
node 1 1 1 3
node 2 1 1 1
node 3 1 1 1
node 4 1 1 1
node 5 1 1 1
node 6 1 1 1
node 7 1 1 1
node 8 1 1 1
node 9 1 1 1
node 10 1 1 1
node 11 1 1 1
node 12 1 0 0
node 13 1 0 2
node 14 1 0 2
node 15 1 0 0
node 20 1 0 0
node 265 1 0 0
node 1003 1 0 0
gene 1 1 12 -3.9265932277952413 false 1 -3.9265932277952413 true
gene 1 2 12 -0.17314556751471996 false 2 -0.17314556751471996 true
gene 1 3 12 -0.3857274915136131 false 3 -0.3857274915136131 true
gene 1 4 12 -0.5181491564386029 false 4 -0.5181491564386029 true
gene 1 5 12 0.1556189967209166 false 5 0.1556189967209166 true
gene 1 6 12 1.1123026675376195 false 6 1.1123026675376195 true
gene 1 7 12 -0.832981963770749 false 7 -0.832981963770749 true
gene 1 8 12 1.1822101349720826 false 8 1.1822101349720826 true
gene 1 9 12 -3.639118428895236 false 9 -3.639118428895236 true
gene 1 10 12 -0.24667055451420358 false 10 -0.24667055451420358 true
gene 1 11 12 -0.19287353717811995 false 11 -0.19287353717811995 true
gene 1 12 13 -1.100787276304894 false 12 -1.100787276304894 true
gene 1 12 14 0.1411038268035755 false 13 0.1411038268035755 true
gene 1 2 15 0.3660204792096063 false 16 0.3660204792096063 true
gene 1 15 12 0.20706139493665587 false 17 0.20706139493665587 true
gene 1 12 20 -0.3566287420180376 false 51 -0.3566287420180376 true
gene 1 20 13 -3.8803178456257146 false 52 -3.8803178456257146 true
gene 1 5 15 0.5778877038405574 false 85 0.5778877038405574 true
gene 1 2 14 -0.4414949185036953 false 185 -0.4414949185036953 true
gene 1 8 14 -3.03120700152121 false 275 -3.03120700152121 true
gene 1 15 15 0.3602821319558881 true 390 0.3602821319558881 true
gene 1 12 265 0.10307498086262501 false 1369 0.10307498086262501 true
gene 1 265 14 1.141770012560932 false 1370 1.141770012560932 true
gene 1 11 265 1.6811213570436048 false 2155 1.6811213570436048 true
gene 1 3 15 0.9072654879438382 false 3029 0.9072654879438382 true
gene 1 10 265 6.336734356186465 false 3132 6.336734356186465 true
gene 1 265 265 -8.528512412215138 true 3460 -8.528512412215138 true
gene 1 10 13 -0.8371847756031553 false 3525 -0.8371847756031553 true
gene 1 1 265 -0.9710411539855353 false 3593 -0.9710411539855353 true
gene 1 15 265 0.19684874088065157 false 3726 0.19684874088065157 true
gene 1 4 265 0.770711331689292 false 3870 0.770711331689292 true
gene 1 14 12 0.11956671228766241 true 3964 0.11956671228766241 true
gene 1 13 13 0.4013021322248942 true 4065 0.4013021322248942 true
gene 1 265 20 -0.7240734994697178 false 4439 -0.7240734994697178 true
gene 1 6 1003 0.2234161503442152 false 5384 0.2234161503442152 true
gene 1 1003 12 1.247892676945431 false 5385 1.247892676945431 true
gene 1 1 1003 0.32704351860790115 false 5876 0.32704351860790115 true
gene 1 4 1003 0.21230009293737218 false 6851 0.21230009293737218 true
gene 1 15 1003 0.6045760398275669 false 7140 0.6045760398275669 true
gene 1 1003 13 -0.3268210945644483 false 7364 -0.3268210945644483 true
genomeend 4
/* Organism #1 Fitness: 0.123 Error: 0.877 */
genomestart 1
trait 1 0 0.9457392495930722 2.5999284742492486 0.46211082853816454 1.4820019065468775 0.03608440989147754 0.0726914659403623 0.4219471699700973 
node 1 1 1 3
node 2 1 1 1
node 3 1 1 1
node 4 1 1 1
node 5 1 1 1
node 6 1 1 1
node 7 1 1 1
node 8 1 1 1
node 9 1 1 1
node 10 1 1 1
node 11 1 1 1
node 12 1 0 0
node 13 1 0 2
node 14 1 0 2
node 15 1 0 0
node 20 1 0 0
node 265 1 0 0
node 1003 1 0 0
gene 1 1 12 -2.2703984465534015 false 1 -2.2703984465534015 true
gene 1 2 12 -0.715122543490377 false 2 -0.715122543490377 true
gene 1 3 12 0.845509009147876 false 3 0.845509009147876 true
gene 1 4 12 -0.37580198448645674 false 4 -0.37580198448645674 true
gene 1 5 12 -0.08043059367389349 false 5 -0.08043059367389349 true
gene 1 6 12 0.6077354531885901 false 6 0.6077354531885901 true
gene 1 7 12 -0.3981469626527014 false 7 -0.3981469626527014 true
gene 1 8 12 0.039399205471961185 false 8 0.039399205471961185 true
gene 1 9 12 -2.330127751970753 false 9 -2.330127751970753 true
gene 1 10 12 1.3209302685031588 false 10 1.3209302685031588 true
gene 1 11 12 -0.11637821401829107 false 11 -0.11637821401829107 true
gene 1 12 13 -1.6221351021371586 false 12 -1.6221351021371586 true
gene 1 12 14 -1.9866335926137446 false 13 -1.9866335926137446 true
gene 1 2 15 1.0489061138639708 false 16 1.0489061138639708 true
gene 1 15 12 -1.2821908975098564 false 17 -1.2821908975098564 true
gene 1 12 20 0.11810699207993636 false 51 0.11810699207993636 true
gene 1 20 13 -2.8319793187102387 false 52 -2.8319793187102387 true
gene 1 5 15 -0.22656478551995196 false 85 -0.22656478551995196 true
gene 1 2 14 -0.7215174839374363 false 185 -0.7215174839374363 true
gene 1 8 14 -2.4660916599105054 false 275 -2.4660916599105054 true
gene 1 15 15 0.6066982872235177 true 390 0.6066982872235177 true
gene 1 12 265 0.05974872655433683 false 1369 0.05974872655433683 true
gene 1 265 14 0.8904936820317928 false 1370 0.8904936820317928 true
gene 1 11 265 0.5202840393249979 false 2155 0.5202840393249979 true
gene 1 3 15 1.5050083663356715 false 3029 1.5050083663356715 true
gene 1 10 265 5.158316558883601 false 3132 5.158316558883601 true
gene 1 265 265 -7.852545495984033 true 3460 -7.852545495984033 true
gene 1 10 13 -0.8357391522492299 false 3525 -0.8357391522492299 true
gene 1 1 265 0.32500214019814455 false 3593 0.32500214019814455 true
gene 1 15 265 -3.6922319370206957 false 3726 -3.6922319370206957 true
gene 1 4 265 -0.3611750985118833 false 3870 -0.3611750985118833 true
gene 1 14 12 0.2920173828145268 true 3964 0.2920173828145268 true
gene 1 13 13 1.4695727731583552 true 4065 1.4695727731583552 true
gene 1 265 20 -1.156833930167858 false 4439 -1.156833930167858 true
gene 1 6 1003 -0.16385564858898688 false 5384 -0.16385564858898688 true
gene 1 1003 12 0.993440886189925 false 5385 0.993440886189925 true
gene 1 1 1003 -0.07131176378440715 false 5876 -0.07131176378440715 true
gene 1 4 1003 -1.3203782461238291 false 6851 -1.3203782461238291 true
gene 1 15 1003 -4.638721948430761 false 7140 -4.638721948430761 true
gene 1 1003 13 -0.02152535545958485 false 7364 -0.02152535545958485 true
genomeend 1
/* Organism #2 Fitness: 0.052 Error: 0.948 */
genomestart 2
trait 1 0 1.4735468919168098 1.7567112489163859 0.46211082853816454 1.0336212474686142 0.03608440989147754 0.30219073561924703 0.33705414056108446 
node 1 1 1 3
node 2 1 1 1
node 3 1 1 1
node 4 1 1 1
node 5 1 1 1
node 6 1 1 1
node 7 1 1 1
node 8 1 1 1
node 9 1 1 1
node 10 1 1 1
node 11 1 1 1
node 12 1 0 0
node 13 1 0 2
node 14 1 0 2
node 15 1 0 0
node 20 1 0 0
node 265 1 0 0
node 1003 1 0 0
gene 1 1 12 -3.3780902545534564 false 1 -3.3780902545534564 true
gene 1 2 12 -1.0838466894599743 false 2 -1.0838466894599743 true
gene 1 3 12 0.06052840922968189 false 3 0.06052840922968189 true
gene 1 4 12 -0.40160429045208024 false 4 -0.40160429045208024 true
gene 1 5 12 0.1592007984066387 false 5 0.1592007984066387 true
gene 1 6 12 1.9056929551234019 false 6 1.9056929551234019 true
gene 1 7 12 -0.7689657412740442 false 7 -0.7689657412740442 true
gene 1 8 12 0.055414892468841015 false 8 0.055414892468841015 true
gene 1 9 12 -3.6324422456835057 false 9 -3.6324422456835057 true
gene 1 10 12 1.530683438887954 false 10 1.530683438887954 true
gene 1 11 12 0.64706782265143 false 11 0.64706782265143 true
gene 1 12 13 -0.4566079426602405 false 12 -0.4566079426602405 true
gene 1 12 14 -0.2615247054876593 false 13 -0.2615247054876593 true
gene 1 2 15 1.344846664173784 false 16 1.344846664173784 true
gene 1 15 12 -0.4574529311061871 false 17 -0.4574529311061871 true
gene 1 12 20 -0.9048511049246424 false 51 -0.9048511049246424 true
gene 1 20 13 -3.792102146432411 false 52 -3.792102146432411 true
gene 1 5 15 -0.21317241443765156 false 85 -0.21317241443765156 true
gene 1 2 14 -0.8900365040876111 false 185 -0.8900365040876111 true
gene 1 8 14 -2.6684768949116036 false 275 -2.6684768949116036 true
gene 1 15 15 -0.2684851299703762 true 390 -0.2684851299703762 true
gene 1 12 265 0.8983930184336638 false 1369 0.8983930184336638 true
gene 1 265 14 2.07469692801107 false 1370 2.07469692801107 true
gene 1 11 265 0.6741835084750678 false 2155 0.6741835084750678 true
gene 1 3 15 0.8554609253641939 false 3029 0.8554609253641939 true
gene 1 10 265 6.044467182000391 false 3132 6.044467182000391 true
gene 1 265 265 -8.36034077585392 true 3460 -8.36034077585392 true
gene 1 10 13 -0.399026902826937 false 3525 -0.399026902826937 true
gene 1 1 265 -0.3577871749221249 false 3593 -0.3577871749221249 true
gene 1 15 265 -3.3556016861096887 false 3726 -3.3556016861096887 true
gene 1 4 265 -0.9573702692663515 false 3870 -0.9573702692663515 true
gene 1 14 12 -0.9971643006894519 true 3964 -0.9971643006894519 true
gene 1 13 13 -1.00733537315435 true 4065 -1.00733537315435 true
gene 1 265 20 0.1729890283406288 false 4439 0.1729890283406288 true
gene 1 6 1003 -0.14575366430125047 false 5384 -0.14575366430125047 true
gene 1 1003 12 1.4315882798113644 false 5385 1.4315882798113644 true
gene 1 1 1003 0.1990910444553386 false 5876 0.1990910444553386 true
gene 1 4 1003 0.21230009293737218 false 6851 0.21230009293737218 true
gene 1 15 1003 -0.22370269266817086 false 7140 -0.22370269266817086 true
gene 1 1003 13 -0.4506699417255847 false 7364 -0.4506699417255847 true
genomeend 2
/* Organism #3 Fitness: 0.010 Error: 0.990 */
genomestart 3
trait 1 0.09973178313640912 2.089667377860973 1.7567112489163859 0.46211082853816454 1.0336212474686142 0 0.44165718195521175 0.33705414056108446 
node 1 1 1 3
node 2 1 1 1
node 3 1 1 1
node 4 1 1 1
node 5 1 1 1
node 6 1 1 1
node 7 1 1 1
node 8 1 1 1
node 9 1 1 1
node 10 1 1 1
node 11 1 1 1
node 12 1 0 0
node 13 1 0 2
node 14 1 0 2
node 15 1 0 0
node 20 1 0 0
node 265 1 0 0
node 1003 1 0 0
gene 1 1 12 -3.5621836364597126 false 1 -3.5621836364597126 true
gene 1 2 12 -1.5156852770904239 false 2 -1.5156852770904239 true
gene 1 3 12 1.9581546711820028 false 3 1.9581546711820028 true
gene 1 4 12 -0.0943187967852781 false 4 -0.0943187967852781 true
gene 1 5 12 0.5541515362222064 false 5 0.5541515362222064 true
gene 1 6 12 0.4229797750472035 false 6 0.4229797750472035 true
gene 1 7 12 -0.10909535781932722 false 7 -0.10909535781932722 true
gene 1 8 12 1.334300102840414 false 8 1.334300102840414 true
gene 1 9 12 -2.8804569760672734 false 9 -2.8804569760672734 true
gene 1 10 12 1.7716790232875037 false 10 1.7716790232875037 true
gene 1 11 12 0.1539821674094175 false 11 0.1539821674094175 true
gene 1 12 13 -0.27013599398972343 false 12 -0.27013599398972343 true
gene 1 12 14 -1.623943263352095 false 13 -1.623943263352095 true
gene 1 2 15 0.30478973174955415 false 16 0.30478973174955415 true
gene 1 15 12 -1.2482708828815672 false 17 -1.2482708828815672 true
gene 1 12 20 -0.643412131104572 false 51 -0.643412131104572 true
gene 1 20 13 -1.9526909656446811 false 52 -1.9526909656446811 true
gene 1 5 15 1.1393740760495672 false 85 1.1393740760495672 true
gene 1 2 14 -0.8775355996499248 false 185 -0.8775355996499248 true
gene 1 8 14 -1.876886496009211 false 275 -1.876886496009211 true
gene 1 15 15 1.5067800518389787 true 390 1.5067800518389787 true
gene 1 12 265 1.3121705018373153 false 1369 1.3121705018373153 true
gene 1 265 14 0.8390135598326878 false 1370 0.8390135598326878 true
gene 1 11 265 0.45114975611574815 false 2155 0.45114975611574815 true
gene 1 3 15 1.0773724196770096 false 3029 1.0773724196770096 true
gene 1 10 265 6.25391916501289 false 3132 6.25391916501289 true
gene 1 265 265 -7.902593372524798 true 3460 -7.902593372524798 true
gene 1 10 13 -1.6555794197521347 false 3525 -1.6555794197521347 true
gene 1 1 265 -0.8341911233157673 false 3593 -0.8341911233157673 true
gene 1 15 265 -4.630234977684213 false 3726 -4.630234977684213 true
gene 1 4 265 -0.021614100056554942 false 3870 -0.021614100056554942 true
gene 1 14 12 0.17187957233588919 true 3964 0.17187957233588919 true
gene 1 13 13 1.3501186391922482 true 4065 1.3501186391922482 true
gene 1 265 20 -0.5596127938547231 false 4439 -0.5596127938547231 true
gene 1 6 1003 0.4344120394525535 false 5384 0.4344120394525535 true
gene 1 1003 12 1.0883327619475132 false 5385 1.0883327619475132 true
gene 1 1 1003 -0.23273959669886135 false 5876 -0.23273959669886135 true
gene 1 4 1003 -0.6889826883873 false 6851 -0.6889826883873 true
gene 1 15 1003 -5.1239350121326215 false 7140 -5.1239350121326215 true
gene 1 1003 13 0.2816650144009155 false 7364 0.2816650144009155 true
genomeend 3
/* Species #4 : (Size 8) (AF 0.474) (Age 241)  */
/* Organism #10 Fitness: 0.693 Error: 0.307 */
genomestart 10
trait 1 1.3363978195578095 1.1815504221676651 0 0.6205757047562549 0.22810329783157524 0.03447194896542555 0.2884266405629996 0.11528149422253263 
node 1 1 1 3
node 2 1 1 1
node 3 1 1 1
node 4 1 1 1
node 5 1 1 1
node 6 1 1 1
node 7 1 1 1
node 8 1 1 1
node 9 1 1 1
node 10 1 1 1
node 11 1 1 1
node 12 1 0 0
node 13 1 0 2
node 14 1 0 2
node 15 1 0 0
node 20 1 0 0
node 296 1 0 0
node 445 1 0 0
node 569 1 0 0
node 819 1 0 0
node 832 1 0 0
node 882 1 0 0
node 1002 1 0 0
node 1115 1 0 0
node 1119 1 0 0
node 1302 1 0 0
gene 1 1 12 -0.6363842201916262 false 1 -0.6363842201916262 true
gene 1 2 12 0.3020314693782916 false 2 0.3020314693782916 true
gene 1 3 12 0.4322678553023351 false 3 0.4322678553023351 true
gene 1 4 12 -1.3761252632189152 false 4 -1.3761252632189152 true
gene 1 5 12 1.3818784536145574 false 5 1.3818784536145574 true
gene 1 6 12 -0.5185860996172212 false 6 -0.5185860996172212 true
gene 1 7 12 2.313349862980075 false 7 2.313349862980075 true
gene 1 8 12 -7.1802375779685725 false 8 -7.1802375779685725 true
gene 1 9 12 -3.3758418262481937 false 9 -3.3758418262481937 true
gene 1 10 12 -0.2457300295104724 false 10 -0.2457300295104724 true
gene 1 11 12 0.34406421489067074 false 11 0.34406421489067074 true
gene 1 12 13 -0.7460691449510485 false 12 -0.7460691449510485 true
gene 1 12 14 5.399380919628144 false 13 5.399380919628144 true
gene 1 2 15 -0.9665643490226136 false 16 -0.9665643490226136 true
gene 1 15 12 -0.738465832867707 false 17 -0.738465832867707 true
gene 1 12 20 -0.08057915687005059 false 51 -0.08057915687005059 true
gene 1 20 13 -0.08795022648302644 false 52 -0.08795022648302644 true
gene 1 4 20 -3.0933986161849987 false 75 -3.0933986161849987 true
gene 1 7 13 0.6412971081096079 false 128 0.6412971081096079 true
gene 1 13 14 -0.8043012887819119 false 270 -0.8043012887819119 true
gene 1 2 296 -0.5605282064316717 false 1513 -0.5605282064316717 true
gene 1 296 12 1.1239709726587481 false 1514 1.1239709726587481 true
gene 1 13 13 0.07706263147320172 true 1741 0.07706263147320172 true
gene 1 12 445 0.34460864177554423 false 2356 0.34460864177554423 true
gene 1 445 20 -0.1847095074896978 false 2357 -0.1847095074896978 true
gene 1 445 14 -0.16009149296310274 false 2572 -0.16009149296310274 true
gene 1 15 15 -0.19272302205105574 true 2696 -0.19272302205105574 true
gene 1 6 445 -3.3947316252626667 false 2961 -3.3947316252626667 true
gene 1 12 569 0.4161015953322604 false 3057 0.4161015953322604 true
gene 1 569 14 -2.980793859031366 false 3058 -2.980793859031366 true
gene 1 445 13 0.07428220125325291 false 3109 0.07428220125325291 true
gene 1 296 14 -0.8363934751609899 false 3254 -0.8363934751609899 true
gene 1 7 14 -0.4170590998319402 false 3558 -0.4170590998319402 true
gene 1 13 569 -0.9872244566023284 false 3723 -0.9872244566023284 true
gene 1 9 14 0.5091692003194752 false 4033 0.5091692003194752 true
gene 1 6 569 -2.993525774280116 false 4060 -2.993525774280116 true
gene 1 4 819 0.8339551724611105 false 4324 0.8339551724611105 true
gene 1 819 20 0.4371814769269981 false 4325 0.4371814769269981 true
gene 1 3 832 0.9316307892769254 false 4421 0.9316307892769254 true
gene 1 832 12 2.3151643921606073 false 4422 2.3151643921606073 true
gene 1 9 882 -1.3243803036503619 false 4661 -1.3243803036503619 true
gene 1 882 12 0.566311213824213 false 4662 0.566311213824213 true
gene 1 2 832 0.5124910743849007 false 4810 0.5124910743849007 true
gene 1 296 569 0.6681497943899614 false 4895 0.6681497943899614 true
gene 1 14 569 0.9501253418706452 true 4986 0.9501253418706452 true
gene 1 819 882 0.7007614443786472 false 5000 0.7007614443786472 true
gene 1 14 14 0.9458781869696415 true 5191 0.9458781869696415 true
gene 1 882 20 -0.22558435730555038 false 5275 -0.22558435730555038 true
gene 1 7 1002 0.8600611877536183 false 5378 0.8600611877536183 true
gene 1 1002 13 -1.955557198455721 false 5379 -1.955557198455721 true
gene 1 13 1115 2.893426370634706 false 5975 2.893426370634706 false
gene 1 1115 569 1.1148240044389337 false 5976 1.1148240044389337 true
gene 1 1115 1119 -1.2202163354596576 false 5991 -1.2202163354596576 true
gene 1 1119 569 0.9519000889424412 false 5992 0.9519000889424412 true
gene 1 7 1119 -7.132091719051515 false 6117 -7.132091719051515 true
gene 1 15 819 -0.5773242981368405 false 6797 -0.5773242981368405 true
gene 1 882 1302 0.6388114571302106 false 6902 0.6388114571302106 true
gene 1 1302 20 0.17527882403774842 false 6903 0.17527882403774842 true
gene 1 1002 832 0.26639086142436413 false 7516 0.26639086142436413 true
gene 1 819 569 -0.19448088989629891 false 7558 -0.19448088989629891 true
genomeend 10
/* Organism #6 Fitness: 0.691 Error: 0.309 */
genomestart 6
trait 1 1.3363978195578095 1.1815504221676651 0 0.6205757047562549 0.22810329783157524 0.03447194896542555 0.2884266405629996 0.11528149422253263 
node 1 1 1 3
node 2 1 1 1
node 3 1 1 1
node 4 1 1 1
node 5 1 1 1
node 6 1 1 1
node 7 1 1 1
node 8 1 1 1
node 9 1 1 1
node 10 1 1 1
node 11 1 1 1
node 12 1 0 0
node 13 1 0 2
node 14 1 0 2
node 15 1 0 0
node 20 1 0 0
node 296 1 0 0
node 445 1 0 0
node 569 1 0 0
node 819 1 0 0
node 832 1 0 0
node 882 1 0 0
node 1002 1 0 0
node 1115 1 0 0
node 1119 1 0 0
node 1302 1 0 0
gene 1 1 12 0.7771806891091264 false 1 0.7771806891091264 true
gene 1 2 12 0.4921556508919997 false 2 0.4921556508919997 true
gene 1 3 12 0.4322678553023351 false 3 0.4322678553023351 true
gene 1 4 12 -0.4154420276113822 false 4 -0.4154420276113822 true
gene 1 5 12 0.7411376833659701 false 5 0.7411376833659701 true
gene 1 6 12 -2.36150626347854 false 6 -2.36150626347854 true
gene 1 7 12 1.536137436707322 false 7 1.536137436707322 true
gene 1 8 12 -7.1802375779685725 false 8 -7.1802375779685725 true
gene 1 9 12 -3.3758418262481937 false 9 -3.3758418262481937 true
gene 1 10 12 -0.17315014583338853 false 10 -0.17315014583338853 true
gene 1 11 12 1.4308735683825333 false 11 1.4308735683825333 true
gene 1 12 13 -0.2648040122614337 false 12 -0.2648040122614337 true
gene 1 12 14 4.995592542504184 false 13 4.995592542504184 true
gene 1 2 15 -0.6290986300821707 false 16 -0.6290986300821707 true
gene 1 15 12 -1.2367983360191133 false 17 -1.2367983360191133 true
gene 1 12 20 -0.08057915687005059 false 51 -0.08057915687005059 true
gene 1 20 13 -3.1512280569294666 false 52 -3.1512280569294666 true
gene 1 4 20 -2.5758696351773454 false 75 -2.5758696351773454 true
gene 1 7 13 0.7632522869019777 false 128 0.7632522869019777 true
gene 1 13 14 -1.3322957046214654 false 270 -1.3322957046214654 true
gene 1 2 296 -0.4373467251871391 false 1513 -0.4373467251871391 true
gene 1 296 12 1.1239709726587481 false 1514 1.1239709726587481 true
gene 1 13 13 0.08990359545798687 true 1741 0.08990359545798687 true
gene 1 12 445 0.7027205982452819 false 2356 0.7027205982452819 true
gene 1 445 20 -0.1986251228713643 false 2357 -0.1986251228713643 true
gene 1 445 14 0.20808984832653266 false 2572 0.20808984832653266 true
gene 1 15 15 -0.1615702272812998 true 2696 -0.1615702272812998 true
gene 1 6 445 -2.665333462864146 false 2961 -2.665333462864146 true
gene 1 12 569 0.683954381115051 false 3057 0.683954381115051 true
gene 1 569 14 -3.142800420203083 false 3058 -3.142800420203083 true
gene 1 445 13 0.03650065420177712 false 3109 0.03650065420177712 true
gene 1 296 14 -0.7427710277099495 false 3254 -0.7427710277099495 true
gene 1 7 14 -0.45777686664211886 false 3558 -0.45777686664211886 true
gene 1 13 569 -1.1033406602667672 false 3723 -1.1033406602667672 true
gene 1 9 14 0.36559345761152534 false 4033 0.36559345761152534 true
gene 1 6 569 -3.2828021182127842 false 4060 -3.2828021182127842 true
gene 1 4 819 0.2838945306071658 false 4324 0.2838945306071658 true
gene 1 819 20 0.800316032240769 false 4325 0.800316032240769 true
gene 1 3 832 1.048118370377943 false 4421 1.048118370377943 true
gene 1 832 12 2.3151643921606073 false 4422 2.3151643921606073 true
gene 1 9 882 -1.6783846550723145 false 4661 -1.6783846550723145 true
gene 1 882 12 1.4940501803321455 false 4662 1.4940501803321455 true
gene 1 2 832 0.2703239115447111 false 4810 0.2703239115447111 true
gene 1 296 569 0.1721423306297111 false 4895 0.1721423306297111 true
gene 1 14 569 0.8335300346525805 true 4986 0.8335300346525805 true
gene 1 819 882 -0.017779310063463227 false 5000 -0.017779310063463227 true
gene 1 14 14 1.3904512791332837 true 5191 1.3904512791332837 true
gene 1 882 20 -0.681281657380794 false 5275 -0.681281657380794 true
gene 1 7 1002 -0.1228088747493769 false 5378 -0.1228088747493769 true
gene 1 1002 13 -1.5116978095753058 false 5379 -1.5116978095753058 true
gene 1 13 1115 2.4843792430508365 false 5975 2.4843792430508365 true
gene 1 1115 569 0.43112019086989334 false 5976 0.43112019086989334 true
gene 1 1115 1119 -1.4095807063050771 false 5991 -1.4095807063050771 true
gene 1 1119 569 0.30961944525381596 false 5992 0.30961944525381596 true
gene 1 7 1119 -6.741094040097714 false 6117 -6.741094040097714 true
gene 1 15 819 0.009817639705700654 false 6797 0.009817639705700654 true
gene 1 882 1302 0.7987243077594517 false 6902 0.7987243077594517 true
gene 1 1302 20 0.17527882403774842 false 6903 0.17527882403774842 true
gene 1 1002 832 4.24034227794058 false 7516 4.24034227794058 true
gene 1 819 569 -0.15997328028723617 false 7558 -0.15997328028723617 true
genomeend 6
/* Organism #9 Fitness: 0.689 Error: 0.311 */
genomestart 9
trait 1 1.3363978195578095 1.1815504221676651 0 0.6205757047562549 0.22810329783157524 0.03447194896542555 0.2884266405629996 0.11528149422253263 
node 1 1 1 3
node 2 1 1 1
node 3 1 1 1
node 4 1 1 1
node 5 1 1 1
node 6 1 1 1
node 7 1 1 1
node 8 1 1 1
node 9 1 1 1
node 10 1 1 1
node 11 1 1 1
node 12 1 0 0
node 13 1 0 2
node 14 1 0 2
node 15 1 0 0
node 20 1 0 0
node 296 1 0 0
node 445 1 0 0
node 569 1 0 0
node 819 1 0 0
node 832 1 0 0
node 882 1 0 0
node 1002 1 0 0
node 1115 1 0 0
node 1119 1 0 0
node 1302 1 0 0
gene 1 1 12 0.7771806891091264 false 1 0.7771806891091264 true
gene 1 2 12 0.4921556508919997 false 2 0.4921556508919997 true
gene 1 3 12 0.4322678553023351 false 3 0.4322678553023351 true
gene 1 4 12 -0.4154420276113822 false 4 -0.4154420276113822 true
gene 1 5 12 0.7411376833659701 false 5 0.7411376833659701 true
gene 1 6 12 -2.36150626347854 false 6 -2.36150626347854 true
gene 1 7 12 1.536137436707322 false 7 1.536137436707322 true
gene 1 8 12 -7.1802375779685725 false 8 -7.1802375779685725 true
gene 1 9 12 -3.3758418262481937 false 9 -3.3758418262481937 true
gene 1 10 12 -0.17315014583338853 false 10 -0.17315014583338853 true
gene 1 11 12 1.4308735683825333 false 11 1.4308735683825333 true
gene 1 12 13 -0.2648040122614337 false 12 -0.2648040122614337 true
gene 1 12 14 4.995592542504184 false 13 4.995592542504184 true
gene 1 2 15 -0.6290986300821707 false 16 -0.6290986300821707 true
gene 1 15 12 -1.2367983360191133 false 17 -1.2367983360191133 true
gene 1 12 20 -0.08057915687005059 false 51 -0.08057915687005059 true
gene 1 20 13 -3.1512280569294666 false 52 -3.1512280569294666 true
gene 1 4 20 -2.5758696351773454 false 75 -2.5758696351773454 true
gene 1 7 13 0.7632522869019777 false 128 0.7632522869019777 true
gene 1 13 14 -1.3322957046214654 false 270 -1.3322957046214654 true
gene 1 2 296 -0.4373467251871391 false 1513 -0.4373467251871391 true
gene 1 296 12 1.1239709726587481 false 1514 1.1239709726587481 true
gene 1 13 13 0.08990359545798687 true 1741 0.08990359545798687 true
gene 1 12 445 0.7027205982452819 false 2356 0.7027205982452819 true
gene 1 445 20 -0.1986251228713643 false 2357 -0.1986251228713643 true
gene 1 445 14 0.20808984832653266 false 2572 0.20808984832653266 true
gene 1 15 15 -0.1615702272812998 true 2696 -0.1615702272812998 true
gene 1 6 445 -2.665333462864146 false 2961 -2.665333462864146 true
gene 1 12 569 0.683954381115051 false 3057 0.683954381115051 true
gene 1 569 14 -3.142800420203083 false 3058 -3.142800420203083 true
gene 1 445 13 0.03650065420177712 false 3109 0.03650065420177712 true
gene 1 296 14 -0.7427710277099495 false 3254 -0.7427710277099495 true
gene 1 7 14 -0.45777686664211886 false 3558 -0.45777686664211886 true
gene 1 13 569 -1.1033406602667672 false 3723 -1.1033406602667672 true
gene 1 9 14 0.36559345761152534 false 4033 0.36559345761152534 true
gene 1 6 569 -3.2828021182127842 false 4060 -3.2828021182127842 true
gene 1 4 819 0.2838945306071658 false 4324 0.2838945306071658 true
gene 1 819 20 0.800316032240769 false 4325 0.800316032240769 true
gene 1 3 832 1.048118370377943 false 4421 1.048118370377943 true
gene 1 832 12 2.3151643921606073 false 4422 2.3151643921606073 true
gene 1 9 882 -1.6783846550723145 false 4661 -1.6783846550723145 true
gene 1 882 12 1.4940501803321455 false 4662 1.4940501803321455 true
gene 1 2 832 0.2703239115447111 false 4810 0.2703239115447111 true
gene 1 296 569 0.1721423306297111 false 4895 0.1721423306297111 true
gene 1 14 569 0.8335300346525805 true 4986 0.8335300346525805 true
gene 1 819 882 -0.017779310063463227 false 5000 -0.017779310063463227 true
gene 1 14 14 1.3904512791332837 true 5191 1.3904512791332837 true
gene 1 882 20 -0.681281657380794 false 5275 -0.681281657380794 true
gene 1 7 1002 -0.1228088747493769 false 5378 -0.1228088747493769 true
gene 1 1002 13 -1.5116978095753058 false 5379 -1.5116978095753058 true
gene 1 13 1115 2.4843792430508365 false 5975 2.4843792430508365 true
gene 1 1115 569 0.43112019086989334 false 5976 0.43112019086989334 true
gene 1 1115 1119 -1.4095807063050771 false 5991 -1.4095807063050771 true
gene 1 1119 569 0.30961944525381596 false 5992 0.30961944525381596 true
gene 1 7 1119 -6.741094040097714 false 6117 -6.741094040097714 true
gene 1 15 819 0.009817639705700654 false 6797 0.009817639705700654 true
gene 1 882 1302 0.7987243077594517 false 6902 0.7987243077594517 true
gene 1 1302 20 0.17527882403774842 false 6903 0.17527882403774842 true
gene 1 1002 832 4.24034227794058 false 7516 4.24034227794058 true
gene 1 819 569 -0.15997328028723617 false 7558 -0.15997328028723617 true
gene 1 7 15 -0.27471412615327423 false 7674 -0.27471412615327423 true
genomeend 9
/* Organism #13 Fitness: 0.682 Error: 0.318 */
genomestart 13
trait 1 1.3363978195578095 1.1815504221676651 0 0.6205757047562549 0.22810329783157524 0.03447194896542555 0.2884266405629996 0.11528149422253263 
node 1 1 1 3
node 2 1 1 1
node 3 1 1 1
node 4 1 1 1
node 5 1 1 1
node 6 1 1 1
node 7 1 1 1
node 8 1 1 1
node 9 1 1 1
node 10 1 1 1
node 11 1 1 1
node 12 1 0 0
node 13 1 0 2
node 14 1 0 2
node 15 1 0 0
node 20 1 0 0
node 296 1 0 0
node 445 1 0 0
node 569 1 0 0
node 819 1 0 0
node 832 1 0 0
node 882 1 0 0
node 1002 1 0 0
node 1115 1 0 0
node 1119 1 0 0
node 1302 1 0 0
node 1437 1 0 0
gene 1 1 12 0.7771806891091264 false 1 0.7771806891091264 true
gene 1 2 12 0.4921556508919997 false 2 0.4921556508919997 true
gene 1 3 12 0.4322678553023351 false 3 0.4322678553023351 true
gene 1 4 12 -0.4154420276113822 false 4 -0.4154420276113822 true
gene 1 5 12 0.7411376833659701 false 5 0.7411376833659701 true
gene 1 6 12 -2.36150626347854 false 6 -2.36150626347854 true
gene 1 7 12 1.536137436707322 false 7 1.536137436707322 true
gene 1 8 12 -7.1802375779685725 false 8 -7.1802375779685725 true
gene 1 9 12 -3.3758418262481937 false 9 -3.3758418262481937 true
gene 1 10 12 -0.17315014583338853 false 10 -0.17315014583338853 true
gene 1 11 12 1.4308735683825333 false 11 1.4308735683825333 true
gene 1 12 13 -0.2648040122614337 false 12 -0.2648040122614337 true
gene 1 12 14 4.995592542504184 false 13 4.995592542504184 true
gene 1 2 15 -0.6290986300821707 false 16 -0.6290986300821707 true
gene 1 15 12 -1.2367983360191133 false 17 -1.2367983360191133 true
gene 1 12 20 -0.08057915687005059 false 51 -0.08057915687005059 true
gene 1 20 13 -3.1512280569294666 false 52 -3.1512280569294666 true
gene 1 4 20 -2.5758696351773454 false 75 -2.5758696351773454 true
gene 1 7 13 0.7632522869019777 false 128 0.7632522869019777 true
gene 1 13 14 -1.3322957046214654 false 270 -1.3322957046214654 true
gene 1 2 296 -0.4373467251871391 false 1513 -0.4373467251871391 true
gene 1 296 12 1.1239709726587481 false 1514 1.1239709726587481 false
gene 1 13 13 0.08990359545798687 true 1741 0.08990359545798687 true
gene 1 12 445 0.7027205982452819 false 2356 0.7027205982452819 true
gene 1 445 20 -0.1986251228713643 false 2357 -0.1986251228713643 true
gene 1 445 14 0.20808984832653266 false 2572 0.20808984832653266 true
gene 1 15 15 -0.1615702272812998 true 2696 -0.1615702272812998 true
gene 1 6 445 -2.665333462864146 false 2961 -2.665333462864146 true
gene 1 12 569 0.683954381115051 false 3057 0.683954381115051 true
gene 1 569 14 -3.142800420203083 false 3058 -3.142800420203083 true
gene 1 445 13 0.03650065420177712 false 3109 0.03650065420177712 true
gene 1 296 14 -0.7427710277099495 false 3254 -0.7427710277099495 true
gene 1 7 14 -0.45777686664211886 false 3558 -0.45777686664211886 true
gene 1 13 569 -1.1033406602667672 false 3723 -1.1033406602667672 true
gene 1 9 14 0.36559345761152534 false 4033 0.36559345761152534 true
gene 1 6 569 -3.2828021182127842 false 4060 -3.2828021182127842 true
gene 1 4 819 0.2838945306071658 false 4324 0.2838945306071658 true
gene 1 819 20 0.800316032240769 false 4325 0.800316032240769 true
gene 1 3 832 1.048118370377943 false 4421 1.048118370377943 true
gene 1 832 12 2.3151643921606073 false 4422 2.3151643921606073 true
gene 1 9 882 -1.6783846550723145 false 4661 -1.6783846550723145 true
gene 1 882 12 1.4940501803321455 false 4662 1.4940501803321455 true
gene 1 2 832 0.2703239115447111 false 4810 0.2703239115447111 true
gene 1 296 569 0.1721423306297111 false 4895 0.1721423306297111 true
gene 1 14 569 0.8335300346525805 true 4986 0.8335300346525805 true
gene 1 819 882 -0.017779310063463227 false 5000 -0.017779310063463227 true
gene 1 14 14 1.3904512791332837 true 5191 1.3904512791332837 true
gene 1 882 20 -0.681281657380794 false 5275 -0.681281657380794 true
gene 1 7 1002 -0.1228088747493769 false 5378 -0.1228088747493769 true
gene 1 1002 13 -1.5116978095753058 false 5379 -1.5116978095753058 true
gene 1 13 1115 2.4843792430508365 false 5975 2.4843792430508365 true
gene 1 1115 569 0.43112019086989334 false 5976 0.43112019086989334 true
gene 1 1115 1119 -1.4095807063050771 false 5991 -1.4095807063050771 true
gene 1 1119 569 0.30961944525381596 false 5992 0.30961944525381596 true
gene 1 7 1119 -6.741094040097714 false 6117 -6.741094040097714 true
gene 1 15 819 0.009817639705700654 false 6797 0.009817639705700654 true
gene 1 882 1302 0.7987243077594517 false 6902 0.7987243077594517 true
gene 1 1302 20 0.17527882403774842 false 6903 0.17527882403774842 true
gene 1 1002 832 4.24034227794058 false 7516 4.24034227794058 true
gene 1 819 569 -0.15997328028723617 false 7558 -0.15997328028723617 true
gene 1 296 1437 1 false 7689 0 true
gene 1 1437 12 1.1239709726587481 false 7690 0 true
genomeend 13
/* Organism #7 Fitness: 0.559 Error: 0.441 */
genomestart 7
trait 1 1.3363978195578095 1.1815504221676651 0 0.6205757047562549 0.22810329783157524 0.03447194896542555 0.2884266405629996 0.11528149422253263 
node 1 1 1 3
node 2 1 1 1
node 3 1 1 1
node 4 1 1 1
node 5 1 1 1
node 6 1 1 1
node 7 1 1 1
node 8 1 1 1
node 9 1 1 1
node 10 1 1 1
node 11 1 1 1
node 12 1 0 0
node 13 1 0 2
node 14 1 0 2
node 15 1 0 0
node 20 1 0 0
node 296 1 0 0
node 445 1 0 0
node 569 1 0 0
node 819 1 0 0
node 832 1 0 0
node 882 1 0 0
node 1002 1 0 0
node 1115 1 0 0
node 1119 1 0 0
node 1302 1 0 0
gene 1 1 12 1.2828409193955306 false 1 1.2828409193955306 true
gene 1 2 12 0.2345021375467926 false 2 0.2345021375467926 true
gene 1 3 12 1.1832095062306747 false 3 1.1832095062306747 true
gene 1 4 12 -0.3763200966494359 false 4 -0.3763200966494359 true
gene 1 5 12 1.0790621712500517 false 5 1.0790621712500517 true
gene 1 6 12 -2.540087814565373 false 6 -2.540087814565373 true
gene 1 7 12 1.0849676453787227 false 7 1.0849676453787227 true
gene 1 8 12 -7.612906265418179 false 8 -7.612906265418179 true
gene 1 9 12 -2.9581042801689463 false 9 -2.9581042801689463 true
gene 1 10 12 -0.8743206758398895 false 10 -0.8743206758398895 true
gene 1 11 12 0.22559967927464786 false 11 0.22559967927464786 true
gene 1 12 13 -0.4214855449982964 false 12 -0.4214855449982964 true
gene 1 12 14 4.648602547988075 false 13 4.648602547988075 true
gene 1 2 15 -0.41420201359262254 false 16 -0.41420201359262254 true
gene 1 15 12 -1.8980218556008581 false 17 -1.8980218556008581 true
gene 1 12 20 -0.08057915687005059 false 51 -0.08057915687005059 true
gene 1 20 13 -2.023074814741939 false 52 -2.023074814741939 true
gene 1 4 20 -2.4410863209034286 false 75 -2.4410863209034286 true
gene 1 7 13 1.053224817177305 false 128 1.053224817177305 true
gene 1 13 14 -1.092323441096179 false 270 -1.092323441096179 true
gene 1 2 296 0.12042271102074763 false 1513 0.12042271102074763 true
gene 1 296 12 0.2127644482029729 false 1514 0.2127644482029729 true
gene 1 13 13 -0.4441319618788552 true 1741 -0.4441319618788552 true
gene 1 12 445 0.8126003184469748 false 2356 0.8126003184469748 true
gene 1 445 20 0.7092007752408853 false 2357 0.7092007752408853 true
gene 1 445 14 0.2365404824501886 false 2572 0.2365404824501886 true
gene 1 15 15 -0.6219763036144484 true 2696 -0.6219763036144484 true
gene 1 6 445 -2.9445887506804422 false 2961 -2.9445887506804422 true
gene 1 12 569 0.30513880216667744 false 3057 0.30513880216667744 true
gene 1 569 14 -3.6079052709052077 false 3058 -3.6079052709052077 true
gene 1 445 13 -0.11146803312327727 false 3109 -0.11146803312327727 true
gene 1 296 14 -0.10512928479226702 false 3254 -0.10512928479226702 true
gene 1 7 14 0.7887112375183551 false 3558 0.7887112375183551 true
gene 1 13 569 -0.26049573881036603 false 3723 -0.26049573881036603 true
gene 1 9 14 0.03968308924993941 false 4033 0.03968308924993941 true
gene 1 6 569 -0.2497179305419183 false 4060 -0.2497179305419183 true
gene 1 4 819 0.3117502126448535 false 4324 0.3117502126448535 true
gene 1 819 20 -0.6318759007830788 false 4325 -0.6318759007830788 true
gene 1 3 832 1.3838447216614056 false 4421 1.3838447216614056 true
gene 1 832 12 3.3666773881477665 false 4422 3.3666773881477665 true
gene 1 9 882 -1.0507936081643394 false 4661 -1.0507936081643394 true
gene 1 882 12 1.3404826677804444 false 4662 1.3404826677804444 true
gene 1 2 832 0.061766633266043786 false 4810 0.061766633266043786 true
gene 1 296 569 0.5032252656692938 false 4895 0.5032252656692938 true
gene 1 14 569 1.1453140911017234 true 4986 1.1453140911017234 true
gene 1 819 882 0.6835481668128902 false 5000 0.6835481668128902 true
gene 1 14 14 0.6264272813417733 true 5191 0.6264272813417733 true
gene 1 882 20 -0.40813816617635607 false 5275 -0.40813816617635607 true
gene 1 7 1002 0.34299575748205924 false 5378 0.34299575748205924 true
gene 1 1002 13 -0.4935423192821623 false 5379 -0.4935423192821623 true
gene 1 13 1115 3.2394562860685068 false 5975 3.2394562860685068 true
gene 1 1115 569 0.5042323256247152 false 5976 0.5042323256247152 true
gene 1 1115 1119 -1.324506433571833 false 5991 -1.324506433571833 true
gene 1 1119 569 1.1069270375126494 false 5992 1.1069270375126494 true
gene 1 7 1119 -6.955590229512053 false 6117 -6.955590229512053 true
gene 1 15 819 0.14058476785434545 false 6797 0.14058476785434545 true
gene 1 882 1302 0.022940647129190087 false 6902 0.022940647129190087 true
gene 1 1302 20 -0.6810994860465557 false 6903 -0.6810994860465557 true
gene 1 1002 832 4.24034227794058 false 7516 4.24034227794058 true
gene 1 819 569 -0.6120595848320682 false 7558 -0.6120595848320682 true
genomeend 7
/* Organism #11 Fitness: 0.269 Error: 0.731 */
genomestart 11
trait 1 1.3363978195578095 1.940752862760357 0 0.7060745535812553 0 0.03447194896542555 0.590376643913274 0.6592210859458923 
node 1 1 1 3
node 2 1 1 1
node 3 1 1 1
node 4 1 1 1
node 5 1 1 1
node 6 1 1 1
node 7 1 1 1
node 8 1 1 1
node 9 1 1 1
node 10 1 1 1
node 11 1 1 1
node 12 1 0 0
node 13 1 0 2
node 14 1 0 2
node 15 1 0 0
node 20 1 0 0
node 296 1 0 0
node 445 1 0 0
node 569 1 0 0
node 819 1 0 0
node 832 1 0 0
node 882 1 0 0
node 1002 1 0 0
node 1115 1 0 0
node 1119 1 0 0
node 1302 1 0 0
gene 1 1 12 -0.38544574457263003 false 1 -0.38544574457263003 true
gene 1 2 12 0.03715157553907844 false 2 0.03715157553907844 true
gene 1 3 12 0.45227456159226515 false 3 0.45227456159226515 true
gene 1 4 12 -0.08600791672755081 false 4 -0.08600791672755081 true
gene 1 5 12 1.757814200270085 false 5 1.757814200270085 true
gene 1 6 12 -0.8909259073608807 false 6 -0.8909259073608807 true
gene 1 7 12 2.0068256582061226 false 7 2.0068256582061226 true
gene 1 8 12 -7.705326830756359 false 8 -7.705326830756359 true
gene 1 9 12 -3.28529107772596 false 9 -3.28529107772596 true
gene 1 10 12 -1.5003911681679867 false 10 -1.5003911681679867 true
gene 1 11 12 0.7972261419197936 false 11 0.7972261419197936 true
gene 1 12 13 -0.7775275366445388 false 12 -0.7775275366445388 true
gene 1 12 14 -0.6959624920737923 false 13 -0.6959624920737923 true
gene 1 2 15 0.16492936182592122 false 16 0.16492936182592122 true
gene 1 15 12 0.3230465244923513 false 17 0.3230465244923513 true
gene 1 12 20 -0.5391430796725424 false 51 -0.5391430796725424 true
gene 1 20 13 -1.964635828710557 false 52 -1.964635828710557 true
gene 1 4 20 -2.5743455888518922 false 75 -2.5743455888518922 true
gene 1 7 13 0.33851040302777136 false 128 0.33851040302777136 true
gene 1 13 14 -0.06196546701268135 false 270 -0.06196546701268135 true
gene 1 2 296 0.28559588043254514 false 1513 0.28559588043254514 true
gene 1 296 12 0.5310799713018861 false 1514 0.5310799713018861 true
gene 1 13 13 -0.7832599998252472 true 1741 -0.7832599998252472 true
gene 1 12 445 0.5579893840912289 false 2356 0.5579893840912289 true
gene 1 445 20 -0.7368052117551488 false 2357 -0.7368052117551488 true
gene 1 445 14 0.4102471808093604 false 2572 0.4102471808093604 true
gene 1 15 15 0.5283898964705445 true 2696 0.5283898964705445 true
gene 1 6 445 -3.0230471140776443 false 2961 -3.0230471140776443 true
gene 1 12 569 0.35272299064156637 false 3057 0.35272299064156637 true
gene 1 569 14 -0.08549347850552325 false 3058 -0.08549347850552325 true
gene 1 445 13 0.48924692204998704 false 3109 0.48924692204998704 true
gene 1 296 14 -0.6056443730824368 false 3254 -0.6056443730824368 true
gene 1 7 14 0.6758088425635311 false 3558 0.6758088425635311 true
gene 1 13 569 -1.4260364600649882 false 3723 -1.4260364600649882 true
gene 1 9 14 -0.028577049694785358 false 4033 -0.028577049694785358 true
gene 1 6 569 -3.8495309592433906 false 4060 -3.8495309592433906 true
gene 1 4 819 -0.14256886455115436 false 4324 -0.14256886455115436 true
gene 1 819 20 -0.2558539515578375 false 4325 -0.2558539515578375 true
gene 1 3 832 1.6429075324751274 false 4421 1.6429075324751274 true
gene 1 832 12 0.6013152933171545 false 4422 0.6013152933171545 true
gene 1 9 882 0.3315726510254069 false 4661 0.3315726510254069 true
gene 1 882 12 -0.474594767191424 false 4662 -0.474594767191424 true
gene 1 2 832 0.8974765682092989 false 4810 0.8974765682092989 true
gene 1 296 569 0.2667959705974645 false 4895 0.2667959705974645 true
gene 1 14 569 -0.0048374297533264055 true 4986 -0.0048374297533264055 true
gene 1 819 882 -0.8967582098921413 false 5000 -0.8967582098921413 true
gene 1 14 14 1.4816913144835833 true 5191 1.4816913144835833 true
gene 1 882 20 0.09593467450341206 false 5275 0.09593467450341206 true
gene 1 7 1002 0.19877524312464478 false 5378 0.19877524312464478 true
gene 1 1002 13 -2.1125537240475394 false 5379 -2.1125537240475394 true
gene 1 13 1115 2.350612851810558 false 5975 2.350612851810558 true
gene 1 1115 569 1.2972800711259187 false 5976 1.2972800711259187 true
gene 1 1115 1119 -1.8412161523644883 false 5991 -1.8412161523644883 true
gene 1 1119 569 0.0193349231293356 false 5992 0.0193349231293356 true
gene 1 7 1119 -6.432502062168151 false 6117 -6.432502062168151 true
gene 1 15 819 -0.3107860285478394 false 6797 -0.3107860285478394 true
gene 1 882 1302 -0.7366733720902873 false 6902 -0.7366733720902873 true
gene 1 1302 20 -0.01475388807303235 false 6903 -0.01475388807303235 true
gene 1 1002 832 3.485073371100193 false 7516 3.485073371100193 true
gene 1 819 569 -0.25867040530354635 false 7558 -0.25867040530354635 true
genomeend 11
/* Organism #8 Fitness: 0.198 Error: 0.802 */
genomestart 8
trait 1 1.3363978195578095 1.1815504221676651 0 0.6205757047562549 0.22810329783157524 0.03447194896542555 0.2884266405629996 0.11528149422253263 
node 1 1 1 3
node 2 1 1 1
node 3 1 1 1
node 4 1 1 1
node 5 1 1 1
node 6 1 1 1
node 7 1 1 1
node 8 1 1 1
node 9 1 1 1
node 10 1 1 1
node 11 1 1 1
node 12 1 0 0
node 13 1 0 2
node 14 1 0 2
node 15 1 0 0
node 20 1 0 0
node 296 1 0 0
node 445 1 0 0
node 569 1 0 0
node 819 1 0 0
node 832 1 0 0
node 882 1 0 0
node 1002 1 0 0
node 1115 1 0 0
node 1119 1 0 0
node 1302 1 0 0
gene 1 1 12 -0.2312899978188448 false 1 -0.2312899978188448 true
gene 1 2 12 -0.08835235891622689 false 2 -0.08835235891622689 true
gene 1 3 12 0.27157339588631174 false 3 0.27157339588631174 true
gene 1 4 12 -0.4154420276113822 false 4 -0.4154420276113822 true
gene 1 5 12 0.5093365604442462 false 5 0.5093365604442462 true
gene 1 6 12 -2.185306600819858 false 6 -2.185306600819858 true
gene 1 7 12 0.8437602495720787 false 7 0.8437602495720787 true
gene 1 8 12 -6.727650789545315 false 8 -6.727650789545315 true
gene 1 9 12 -3.342264610468794 false 9 -3.342264610468794 true
gene 1 10 12 0.5282274219911969 false 10 0.5282274219911969 true
gene 1 11 12 1.780787255536588 false 11 1.780787255536588 true
gene 1 12 13 0.10793380886043596 false 12 0.10793380886043596 true
gene 1 12 14 5.120552697543389 false 13 5.120552697543389 true
gene 1 2 15 -0.5907760488919012 false 16 -0.5907760488919012 true
gene 1 15 12 -1.2718151780357385 false 17 -1.2718151780357385 true
gene 1 12 20 -0.0257218158531205 false 51 -0.0257218158531205 true
gene 1 20 13 -3.1512280569294666 false 52 -3.1512280569294666 true
gene 1 4 20 -3.2722037641275707 false 75 -3.2722037641275707 true
gene 1 7 13 0.4381102366365354 false 128 0.4381102366365354 true
gene 1 13 14 -0.8408992565460269 false 270 -0.8408992565460269 true
gene 1 2 296 0.2564095514832026 false 1513 0.2564095514832026 true
gene 1 296 12 1.1239709726587481 false 1514 1.1239709726587481 true
gene 1 13 13 0.7703004973909139 true 1741 0.7703004973909139 true
gene 1 12 445 1.3215220265414431 false 2356 1.3215220265414431 true
gene 1 445 20 -0.4122235667878929 false 2357 -0.4122235667878929 true
gene 1 445 14 -0.39168672059203885 false 2572 -0.39168672059203885 true
gene 1 15 15 -0.926077689602014 true 2696 -0.926077689602014 true
gene 1 6 445 -2.950163692540876 false 2961 -2.950163692540876 true
gene 1 12 569 0.09204047222334988 false 3057 0.09204047222334988 true
gene 1 569 14 -3.142800420203083 false 3058 -3.142800420203083 true
gene 1 445 13 0.005991159630189775 false 3109 0.005991159630189775 true
gene 1 296 14 -0.1361696305217004 false 3254 -0.1361696305217004 true
gene 1 7 14 -0.8183028547026379 false 3558 -0.8183028547026379 true
gene 1 13 569 -0.43433737689649066 false 3723 -0.43433737689649066 true
gene 1 9 14 -0.4319466037701372 false 4033 -0.4319466037701372 true
gene 1 6 569 -3.7039634041651053 false 4060 -3.7039634041651053 true
gene 1 4 819 -0.10717193053133706 false 4324 -0.10717193053133706 true
gene 1 819 20 0.5569448517533985 false 4325 0.5569448517533985 true
gene 1 3 832 0.6568738007339254 false 4421 0.6568738007339254 true
gene 1 832 12 2.08303118892604 false 4422 2.08303118892604 true
gene 1 9 882 -1.86201237513134 false 4661 -1.86201237513134 true
gene 1 882 12 1.1721639593166966 false 4662 1.1721639593166966 true
gene 1 2 832 0.0861704148308286 false 4810 0.0861704148308286 true
gene 1 296 569 0.8612370293618462 false 4895 0.8612370293618462 true
gene 1 14 569 0.4773936997423853 true 4986 0.4773936997423853 true
gene 1 819 882 -0.03232655891654149 false 5000 -0.03232655891654149 true
gene 1 14 14 1.6149774292021553 true 5191 1.6149774292021553 true
gene 1 882 20 -0.6562497979172042 false 5275 -0.6562497979172042 true
gene 1 7 1002 0.4002319556783304 false 5378 0.4002319556783304 true
gene 1 1002 13 -2.0306240351445815 false 5379 -2.0306240351445815 true
gene 1 13 1115 0.14495592916835473 false 5975 0.14495592916835473 true
gene 1 1115 569 0.9278385968698593 false 5976 0.9278385968698593 true
gene 1 1115 1119 0.637915917783317 false 5991 0.637915917783317 true
gene 1 1119 569 -0.41081305786230665 false 5992 -0.41081305786230665 true
gene 1 7 1119 -6.6043891754669675 false 6117 -6.6043891754669675 true
gene 1 15 819 0.002539694474208192 false 6797 0.002539694474208192 true
gene 1 882 1302 0.7139662050275579 false 6902 0.7139662050275579 true
gene 1 1302 20 0.546419347371289 false 6903 0.546419347371289 true
gene 1 1002 832 -0.344187491473946 false 7516 -0.344187491473946 true
gene 1 819 569 -0.8009135112466053 false 7558 -0.8009135112466053 true
genomeend 8
/* Organism #12 Fitness: 0.010 Error: 0.990 */
genomestart 12
trait 1 1.3363978195578095 1.1815504221676651 0 0.6205757047562549 0.22810329783157524 0.03447194896542555 0.2884266405629996 0.11528149422253263 
node 1 1 1 3
node 2 1 1 1
node 3 1 1 1
node 4 1 1 1
node 5 1 1 1
node 6 1 1 1
node 7 1 1 1
node 8 1 1 1
node 9 1 1 1
node 10 1 1 1
node 11 1 1 1
node 12 1 0 0
node 13 1 0 2
node 14 1 0 2
node 15 1 0 0
node 20 1 0 0
node 296 1 0 0
node 445 1 0 0
node 569 1 0 0
node 819 1 0 0
node 832 1 0 0
node 882 1 0 0
node 1002 1 0 0
node 1115 1 0 0
node 1119 1 0 0
node 1302 1 0 0
gene 1 1 12 -0.4906804288306786 false 1 -0.4906804288306786 true
gene 1 2 12 0.5891516224116744 false 2 0.5891516224116744 true
gene 1 3 12 -0.2519134976786174 false 3 -0.2519134976786174 true
gene 1 4 12 -0.5431784907247996 false 4 -0.5431784907247996 true
gene 1 5 12 0.4893289263343539 false 5 0.4893289263343539 true
gene 1 6 12 -1.4564224976232365 false 6 -1.4564224976232365 true
gene 1 7 12 -0.20446037261605735 false 7 -0.20446037261605735 true
gene 1 8 12 -6.877298642733167 false 8 -6.877298642733167 true
gene 1 9 12 -3.033863302062883 false 9 -3.033863302062883 true
gene 1 10 12 -0.9262953792212516 false 10 -0.9262953792212516 true
gene 1 11 12 0.7403599614844795 false 11 0.7403599614844795 true
gene 1 12 13 -0.5231439823096213 false 12 -0.5231439823096213 true
gene 1 12 14 0.3652461295252826 false 13 0.3652461295252826 true
gene 1 2 15 0.08686276176539791 false 16 0.08686276176539791 true
gene 1 15 12 0.3122577892828531 false 17 0.3122577892828531 true
gene 1 12 20 0.05484702535314019 false 51 0.05484702535314019 true
gene 1 20 13 -2.4859893714516788 false 52 -2.4859893714516788 true
gene 1 4 20 -2.5743455888518922 false 75 -2.5743455888518922 true
gene 1 7 13 1.245547700851732 false 128 1.245547700851732 true
gene 1 13 14 -1.1934296399323472 false 270 -1.1934296399323472 true
gene 1 2 296 0.042793748852050284 false 1513 0.042793748852050284 true
gene 1 296 12 1.4042836678048565 false 1514 1.4042836678048565 true
gene 1 13 13 -1.244471504874765 true 1741 -1.244471504874765 true
gene 1 12 445 0.17860594301265942 false 2356 0.17860594301265942 true
gene 1 445 20 -0.8407614217801613 false 2357 -0.8407614217801613 true
gene 1 445 14 -0.6083998748547335 false 2572 -0.6083998748547335 true
gene 1 15 15 -0.24981790705680484 true 2696 -0.24981790705680484 true
gene 1 6 445 -2.9348476565234995 false 2961 -2.9348476565234995 true
gene 1 12 569 -0.43114979742358533 false 3057 -0.43114979742358533 true
gene 1 569 14 -3.7444694190646732 false 3058 -3.7444694190646732 true
gene 1 445 13 -0.05555843260703247 false 3109 -0.05555843260703247 true
gene 1 296 14 0.5657249390275388 false 3254 0.5657249390275388 true
gene 1 7 14 -1.1689217201288638 false 3558 -1.1689217201288638 true
gene 1 13 569 -0.4096600303984904 false 3723 -0.4096600303984904 true
gene 1 9 14 0.8415502647716571 false 4033 0.8415502647716571 true
gene 1 6 569 -3.25846927642474 false 4060 -3.25846927642474 true
gene 1 4 819 0.43838702400403895 false 4324 0.43838702400403895 true
gene 1 819 20 0.13109035518873832 false 4325 0.13109035518873832 true
gene 1 3 832 0.46998999337211755 false 4421 0.46998999337211755 true
gene 1 832 12 2.821324472325115 false 4422 2.821324472325115 true
gene 1 9 882 -0.364884636519651 false 4661 -0.364884636519651 true
gene 1 882 12 0.505546808628274 false 4662 0.505546808628274 true
gene 1 2 832 0.606455614174559 false 4810 0.606455614174559 true
gene 1 296 569 1.0314031396860914 false 4895 1.0314031396860914 true
gene 1 14 569 0.35741825609264044 true 4986 0.35741825609264044 true
gene 1 819 882 -1.0072636189657977 false 5000 -1.0072636189657977 true
gene 1 14 14 1.3831192713268983 true 5191 1.3831192713268983 true
gene 1 882 20 -0.025732576283235165 false 5275 -0.025732576283235165 true
gene 1 7 1002 0.523343281153322 false 5378 0.523343281153322 true
gene 1 1002 13 -1.2422209166423164 false 5379 -1.2422209166423164 true
gene 1 13 1115 2.9077507659839834 false 5975 2.9077507659839834 true
gene 1 1115 569 0.35144262543942445 false 5976 0.35144262543942445 true
gene 1 1115 1119 0.3792407531620854 false 5991 0.3792407531620854 true
gene 1 1119 569 0.6340186236688318 false 5992 0.6340186236688318 true
gene 1 7 1119 0.5380478587141767 false 6117 0.5380478587141767 true
gene 1 15 819 0.6895554302635665 false 6797 0.6895554302635665 true
gene 1 882 1302 0.3815717770801861 false 6902 0.3815717770801861 true
gene 1 1302 20 0.017221747590088238 false 6903 0.017221747590088238 true
gene 1 1002 832 4.975861631717753 false 7516 4.975861631717753 true
gene 1 819 569 -0.33052639301064984 false 7558 -0.33052639301064984 true
genomeend 12
/* Species #8 : (Size 9) (AF 0.487) (Age 236)  */
/* Organism #15 Fitness: 0.924 Error: 0.076 */
genomestart 15
trait 1 0 0.2614818869138707 0 0.6078544577649692 0 0 0.4356123551856383 0.06843190371778608 
node 1 1 1 3
node 2 1 1 1
node 3 1 1 1
node 4 1 1 1
node 5 1 1 1
node 6 1 1 1
node 7 1 1 1
node 8 1 1 1
node 9 1 1 1
node 10 1 1 1
node 11 1 1 1
node 12 1 0 0
node 13 1 0 2
node 14 1 0 2
node 44 1 0 0
node 53 1 0 0
node 745 1 0 0
node 984 1 0 0
gene 1 1 12 -3.18165840951165 false 1 -3.18165840951165 true
gene 1 2 12 0.052872456275740554 false 2 0.052872456275740554 true
gene 1 3 12 0.21442784094384001 false 3 0.21442784094384001 true
gene 1 4 12 0.7932111644945024 false 4 0.7932111644945024 true
gene 1 5 12 0.5440695186875831 false 5 0.5440695186875831 true
gene 1 6 12 0.033017377879123844 false 6 0.033017377879123844 true
gene 1 7 12 -0.13020786045852695 false 7 -0.13020786045852695 true
gene 1 8 12 -0.18665687242659026 false 8 -0.18665687242659026 true
gene 1 9 12 -0.2257011002410988 false 9 -0.2257011002410988 true
gene 1 10 12 -0.47405071899861223 false 10 -0.47405071899861223 true
gene 1 11 12 -0.21593749701288187 false 11 -0.21593749701288187 true
gene 1 12 13 -0.35287195758541845 false 12 -0.35287195758541845 true
gene 1 12 14 0.36978336378576915 false 13 0.36978336378576915 true
gene 1 8 14 -1.1374645170224542 false 125 -1.1374645170224542 true
gene 1 2 13 -1.7825463735610771 false 134 -1.7825463735610771 true
gene 1 8 44 -0.03193625380564302 false 207 -0.03193625380564302 true
gene 1 44 12 0.07379679788611365 false 208 0.07379679788611365 true
gene 1 3 13 -0.037156793346871414 false 228 -0.037156793346871414 true
gene 1 3 53 -0.39092017898747233 false 250 -0.39092017898747233 true
gene 1 53 13 0.5556883951635951 false 251 0.5556883951635951 true
gene 1 7 14 1.1803055287738373 false 361 1.1803055287738373 true
gene 1 9 53 -0.05928417639363859 false 475 -0.05928417639363859 true
gene 1 11 44 -0.4679235130745465 false 508 -0.4679235130745465 true
gene 1 2 53 -1.2042427794665707 false 1248 -1.2042427794665707 true
gene 1 9 13 -5.359186726857354 false 2063 -5.359186726857354 true
gene 1 7 44 8.525733144392332 false 2993 8.525733144392332 true
gene 1 4 745 1 false 3960 0 true
gene 1 745 12 0.7932111644945024 false 3961 0 true
gene 1 8 745 9.933271434540933 false 4120 9.933271434540933 true
gene 1 2 984 1 false 5277 0 true
gene 1 984 12 0.052872456275740554 false 5278 0 true
gene 1 984 984 1.8524042240025638 true 6329 1.8524042240025638 true
gene 1 12 12 3.3587463670504065 true 7077 3.3587463670504065 true
gene 1 4 984 7.386102817080998 false 7303 7.386102817080998 true
genomeend 15
/* Organism #14 Fitness: 0.924 Error: 0.076 */
genomestart 14
trait 1 0 0.2614818869138707 0 0.6078544577649692 0 0 0.4356123551856383 0.06843190371778608 
node 1 1 1 3
node 2 1 1 1
node 3 1 1 1
node 4 1 1 1
node 5 1 1 1
node 6 1 1 1
node 7 1 1 1
node 8 1 1 1
node 9 1 1 1
node 10 1 1 1
node 11 1 1 1
node 12 1 0 0
node 13 1 0 2
node 14 1 0 2
node 44 1 0 0
node 53 1 0 0
node 745 1 0 0
node 984 1 0 0
gene 1 1 12 -3.18165840951165 false 1 -3.18165840951165 true
gene 1 2 12 0.052872456275740554 false 2 0.052872456275740554 true
gene 1 3 12 0.21442784094384001 false 3 0.21442784094384001 true
gene 1 4 12 0.7932111644945024 false 4 0.7932111644945024 true
gene 1 5 12 0.5440695186875831 false 5 0.5440695186875831 true
gene 1 6 12 0.033017377879123844 false 6 0.033017377879123844 true
gene 1 7 12 -0.13020786045852695 false 7 -0.13020786045852695 true
gene 1 8 12 -0.18665687242659026 false 8 -0.18665687242659026 true
gene 1 9 12 -0.2257011002410988 false 9 -0.2257011002410988 true
gene 1 10 12 -0.47405071899861223 false 10 -0.47405071899861223 true
gene 1 11 12 -0.21593749701288187 false 11 -0.21593749701288187 true
gene 1 12 13 -0.35287195758541845 false 12 -0.35287195758541845 true
gene 1 12 14 0.36978336378576915 false 13 0.36978336378576915 true
gene 1 8 14 -1.1374645170224542 false 125 -1.1374645170224542 true
gene 1 2 13 -1.7825463735610771 false 134 -1.7825463735610771 true
gene 1 8 44 -0.03193625380564302 false 207 -0.03193625380564302 true
gene 1 44 12 0.07379679788611365 false 208 0.07379679788611365 true
gene 1 3 13 -0.037156793346871414 false 228 -0.037156793346871414 true
gene 1 3 53 -0.39092017898747233 false 250 -0.39092017898747233 true
gene 1 53 13 0.5556883951635951 false 251 0.5556883951635951 true
gene 1 7 14 1.1803055287738373 false 361 1.1803055287738373 true
gene 1 9 53 -0.05928417639363859 false 475 -0.05928417639363859 true
gene 1 11 44 -0.4679235130745465 false 508 -0.4679235130745465 true
gene 1 2 53 -1.2042427794665707 false 1248 -1.2042427794665707 true
gene 1 9 13 -5.359186726857354 false 2063 -5.359186726857354 true
gene 1 7 44 8.525733144392332 false 2993 8.525733144392332 true
gene 1 4 745 1 false 3960 0 true
gene 1 745 12 0.7932111644945024 false 3961 0 true
gene 1 8 745 9.933271434540933 false 4120 9.933271434540933 true
gene 1 2 984 1 false 5277 0 true
gene 1 984 12 0.052872456275740554 false 5278 0 true
gene 1 984 984 1.8524042240025638 true 6329 1.8524042240025638 true
gene 1 12 12 3.3587463670504065 true 7077 3.3587463670504065 true
gene 1 4 984 7.386102817080998 false 7303 7.386102817080998 true
genomeend 14
/* Organism #22 Fitness: 0.924 Error: 0.076 */
genomestart 22
trait 1 0 0.2614818869138707 0 0.6078544577649692 0 0 0.4356123551856383 0.06843190371778608 
node 1 1 1 3
node 2 1 1 1
node 3 1 1 1
node 4 1 1 1
node 5 1 1 1
node 6 1 1 1
node 7 1 1 1
node 8 1 1 1
node 9 1 1 1
node 10 1 1 1
node 11 1 1 1
node 12 1 0 0
node 13 1 0 2
node 14 1 0 2
node 44 1 0 0
node 53 1 0 0
node 745 1 0 0
node 984 1 0 0
gene 1 1 12 -3.18165840951165 false 1 -3.18165840951165 true
gene 1 2 12 0.052872456275740554 false 2 0.052872456275740554 true
gene 1 3 12 0.21442784094384001 false 3 0.21442784094384001 true
gene 1 4 12 0.7932111644945024 false 4 0.7932111644945024 true
gene 1 5 12 0.5440695186875831 false 5 0.5440695186875831 true
gene 1 6 12 0.033017377879123844 false 6 0.033017377879123844 true
gene 1 7 12 -0.13020786045852695 false 7 -0.13020786045852695 true
gene 1 8 12 -0.18665687242659026 false 8 -0.18665687242659026 true
gene 1 9 12 -0.2257011002410988 false 9 -0.2257011002410988 true
gene 1 10 12 -0.47405071899861223 false 10 -0.47405071899861223 true
gene 1 11 12 -0.21593749701288187 false 11 -0.21593749701288187 true
gene 1 12 13 -0.35287195758541845 false 12 -0.35287195758541845 true
gene 1 12 14 0.36978336378576915 false 13 0.36978336378576915 true
gene 1 8 14 -1.1374645170224542 false 125 -1.1374645170224542 true
gene 1 2 13 -1.7825463735610771 false 134 -1.7825463735610771 true
gene 1 8 44 -0.03193625380564302 false 207 -0.03193625380564302 true
gene 1 44 12 0.07379679788611365 false 208 0.07379679788611365 true
gene 1 3 13 -0.037156793346871414 false 228 -0.037156793346871414 true
gene 1 3 53 -0.39092017898747233 false 250 -0.39092017898747233 true
gene 1 53 13 0.5556883951635951 false 251 0.5556883951635951 true
gene 1 7 14 1.1803055287738373 false 361 1.1803055287738373 true
gene 1 9 53 -0.05928417639363859 false 475 -0.05928417639363859 true
gene 1 11 44 -0.4679235130745465 false 508 -0.4679235130745465 true
gene 1 2 53 -1.2042427794665707 false 1248 -1.2042427794665707 true
gene 1 9 13 -5.359186726857354 false 2063 -5.359186726857354 true
gene 1 7 44 8.525733144392332 false 2993 8.525733144392332 true
gene 1 4 745 1 false 3960 0 true
gene 1 745 12 0.7932111644945024 false 3961 0 true
gene 1 8 745 9.933271434540933 false 4120 9.933271434540933 true
gene 1 2 984 1 false 5277 0 true
gene 1 984 12 0.052872456275740554 false 5278 0 true
gene 1 984 984 1.8524042240025638 true 6329 1.8524042240025638 true
gene 1 12 12 3.3587463670504065 true 7077 3.3587463670504065 true
gene 1 4 984 7.386102817080998 false 7303 7.386102817080998 true
gene 1 11 14 -0.21865321246362532 false 7687 -0.21865321246362532 true
genomeend 22
/* Organism #19 Fitness: 0.455 Error: 0.545 */
genomestart 19
trait 1 0 0.2614818869138707 0 0.6078544577649692 0 0 0.4356123551856383 0.06843190371778608 
node 1 1 1 3
node 2 1 1 1
node 3 1 1 1
node 4 1 1 1
node 5 1 1 1
node 6 1 1 1
node 7 1 1 1
node 8 1 1 1
node 9 1 1 1
node 10 1 1 1
node 11 1 1 1
node 12 1 0 0
node 13 1 0 2
node 14 1 0 2
node 44 1 0 0
node 53 1 0 0
node 745 1 0 0
node 984 1 0 0
gene 1 1 12 -2.500014548378026 false 1 -2.500014548378026 true
gene 1 2 12 -0.16175581055856006 false 2 -0.16175581055856006 true
gene 1 3 12 -0.20083937228727486 false 3 -0.20083937228727486 true
gene 1 4 12 0.9045672626038522 false 4 0.9045672626038522 true
gene 1 5 12 0.8528498240454658 false 5 0.8528498240454658 true
gene 1 6 12 -0.09249371459130631 false 6 -0.09249371459130631 true
gene 1 7 12 0.5681584033515462 false 7 0.5681584033515462 true
gene 1 8 12 -0.46411468440237746 false 8 -0.46411468440237746 true
gene 1 9 12 -0.6401960444165905 false 9 -0.6401960444165905 true
gene 1 10 12 -0.9326256200867242 false 10 -0.9326256200867242 true
gene 1 11 12 0.4980628865385761 false 11 0.4980628865385761 true
gene 1 12 13 -0.7085739713468697 false 12 -0.7085739713468697 true
gene 1 12 14 0.594526215068184 false 13 0.594526215068184 true
gene 1 8 14 -1.8350344085519958 false 125 -1.8350344085519958 true
gene 1 2 13 -2.0402158608953904 false 134 -2.0402158608953904 true
gene 1 8 44 0.3395700696975642 false 207 0.3395700696975642 true
gene 1 44 12 -0.5948990816819153 false 208 -0.5948990816819153 true
gene 1 3 13 -0.7008037383642504 false 228 -0.7008037383642504 true
gene 1 3 53 -0.23655973596128863 false 250 -0.23655973596128863 true
gene 1 53 13 0.8371398489229339 false 251 0.8371398489229339 true
gene 1 7 14 1.6562201841528492 false 361 1.6562201841528492 true
gene 1 9 53 -0.7560590200061127 false 475 -0.7560590200061127 true
gene 1 11 44 -1.1032172351300429 false 508 -1.1032172351300429 true
gene 1 2 53 -0.804293139042618 false 1248 -0.804293139042618 true
gene 1 9 13 -5.030908873384953 false 2063 -5.030908873384953 true
gene 1 7 44 7.797303049764177 false 2993 7.797303049764177 true
gene 1 4 745 1.6258313616640805 false 3960 1.6258313616640805 true
gene 1 745 12 0.7719231452998802 false 3961 0.7719231452998802 true
gene 1 8 745 9.992472023814203 false 4120 9.992472023814203 true
gene 1 2 984 0.9470245517035776 false 5277 0.9470245517035776 true
gene 1 984 12 -0.32953246472239417 false 5278 -0.32953246472239417 true
gene 1 984 984 -0.7501898038565575 true 6329 -0.7501898038565575 true
gene 1 12 12 3.441365534044357 true 7077 3.441365534044357 true
gene 1 4 984 7.268476457435305 false 7303 7.268476457435305 true
genomeend 19
/* Organism #16 Fitness: 0.369 Error: 0.631 */
genomestart 16
trait 1 0 0.2614818869138707 0 0.6078544577649692 0 0 0.4356123551856383 0.06843190371778608 
node 1 1 1 3
node 2 1 1 1
node 3 1 1 1
node 4 1 1 1
node 5 1 1 1
node 6 1 1 1
node 7 1 1 1
node 8 1 1 1
node 9 1 1 1
node 10 1 1 1
node 11 1 1 1
node 12 1 0 0
node 13 1 0 2
node 14 1 0 2
node 44 1 0 0
node 53 1 0 0
node 745 1 0 0
node 984 1 0 0
gene 1 1 12 -3.18165840951165 false 1 -3.18165840951165 true
gene 1 2 12 0.2524472808444386 false 2 0.2524472808444386 true
gene 1 3 12 -0.19289363787145922 false 3 -0.19289363787145922 true
gene 1 4 12 0.08278278824012109 false 4 0.08278278824012109 true
gene 1 5 12 -0.16762789334129036 false 5 -0.16762789334129036 true
gene 1 6 12 -0.03694413221503918 false 6 -0.03694413221503918 true
gene 1 7 12 -0.13020786045852695 false 7 -0.13020786045852695 true
gene 1 8 12 -0.18665687242659026 false 8 -0.18665687242659026 true
gene 1 9 12 -0.4172120835005261 false 9 -0.4172120835005261 true
gene 1 10 12 -1.206501261162473 false 10 -1.206501261162473 true
gene 1 11 12 -0.9803282043151441 false 11 -0.9803282043151441 true
gene 1 12 13 -0.35287195758541845 false 12 -0.35287195758541845 true
gene 1 12 14 -0.0851632762584319 false 13 -0.0851632762584319 true
gene 1 8 14 -1.4576849786438997 false 125 -1.4576849786438997 true
gene 1 2 13 -2.3095943837127364 false 134 -2.3095943837127364 true
gene 1 8 44 0.4732513787129964 false 207 0.4732513787129964 true
gene 1 44 12 -0.6475420216552503 false 208 -0.6475420216552503 true
gene 1 3 13 0.6258164602678574 false 228 0.6258164602678574 true
gene 1 3 53 -0.9597208802621006 false 250 -0.9597208802621006 true
gene 1 53 13 0.5766972569527479 false 251 0.5766972569527479 true
gene 1 7 14 -0.5301134808959346 false 361 -0.5301134808959346 true
gene 1 9 53 0.06431459780692067 false 475 0.06431459780692067 true
gene 1 11 44 -1.1145945021691062 false 508 -1.1145945021691062 true
gene 1 2 53 -0.4768661678508325 false 1248 -0.4768661678508325 true
gene 1 9 13 -6.117530636305405 false 2063 -6.117530636305405 true
gene 1 7 44 7.757024580758456 false 2993 7.757024580758456 true
gene 1 4 745 1.4283879855146422 false 3960 1.4283879855146422 true
gene 1 745 12 0.2822795145949163 false 3961 0.2822795145949163 true
gene 1 8 745 10.44223474456529 false 4120 10.44223474456529 true
gene 1 2 984 -0.4340470743112599 false 5277 -0.4340470743112599 true
gene 1 984 12 -0.6448273993397771 false 5278 -0.6448273993397771 true
gene 1 984 984 1.322241316869436 true 6329 1.322241316869436 true
gene 1 12 12 0.609816037526389 true 7077 0.609816037526389 true
gene 1 4 984 6.912308598963036 false 7303 6.912308598963036 true
genomeend 16
/* Organism #21 Fitness: 0.326 Error: 0.674 */
genomestart 21
trait 1 0 0.2614818869138707 0 0.6078544577649692 0 0 0.4356123551856383 0.06843190371778608 
node 1 1 1 3
node 2 1 1 1
node 3 1 1 1
node 4 1 1 1
node 5 1 1 1
node 6 1 1 1
node 7 1 1 1
node 8 1 1 1
node 9 1 1 1
node 10 1 1 1
node 11 1 1 1
node 12 1 0 0
node 13 1 0 2
node 14 1 0 2
node 44 1 0 0
node 53 1 0 0
node 745 1 0 0
node 984 1 0 0
gene 1 1 12 -3.6975178802346305 false 1 -3.6975178802346305 true
gene 1 2 12 0.11318490792188177 false 2 0.11318490792188177 true
gene 1 3 12 0.20680315753165077 false 3 0.20680315753165077 true
gene 1 4 12 0.7932111644945024 false 4 0.7932111644945024 true
gene 1 5 12 1.0534052762430148 false 5 1.0534052762430148 true
gene 1 6 12 0.2730673548450635 false 6 0.2730673548450635 true
gene 1 7 12 -0.7900143999107955 false 7 -0.7900143999107955 true
gene 1 8 12 -0.18665687242659026 false 8 -0.18665687242659026 true
gene 1 9 12 0.4404055736671345 false 9 0.4404055736671345 true
gene 1 10 12 0.3202239646279326 false 10 0.3202239646279326 true
gene 1 11 12 0.12742805480967329 false 11 0.12742805480967329 true
gene 1 12 13 -0.37858414248080513 false 12 -0.37858414248080513 true
gene 1 12 14 0.43272503324253064 false 13 0.43272503324253064 true
gene 1 8 14 -1.1781596643396792 false 125 -1.1781596643396792 true
gene 1 2 13 -1.7825463735610771 false 134 -1.7825463735610771 true
gene 1 8 44 -0.5049255065842785 false 207 -0.5049255065842785 true
gene 1 44 12 -0.298893410768247 false 208 -0.298893410768247 true
gene 1 3 13 -0.315332414378509 false 228 -0.315332414378509 true
gene 1 3 53 0.26658530695679217 false 250 0.26658530695679217 true
gene 1 53 13 0.0015573973912210715 false 251 0.0015573973912210715 true
gene 1 7 14 1.1803055287738373 false 361 1.1803055287738373 true
gene 1 9 53 0.7126786571399762 false 475 0.7126786571399762 true
gene 1 11 44 -0.8762697547809264 false 508 -0.8762697547809264 true
gene 1 2 53 -1.100929154799982 false 1248 -1.100929154799982 true
gene 1 9 13 -5.096874435498041 false 2063 -5.096874435498041 true
gene 1 7 44 8.10331060599681 false 2993 8.10331060599681 true
gene 1 4 745 1.7487677888832556 false 3960 1.7487677888832556 true
gene 1 745 12 0.734126662025476 false 3961 0.734126662025476 true
gene 1 8 745 9.578738658107799 false 4120 9.578738658107799 true
gene 1 2 984 -0.004221122129131977 false 5277 -0.004221122129131977 true
gene 1 984 12 -0.36475049357429334 false 5278 -0.36475049357429334 true
gene 1 984 984 2.2649974370163073 true 6329 2.2649974370163073 true
gene 1 12 12 -0.7439966747808131 true 7077 -0.7439966747808131 true
gene 1 4 984 7.386102817080998 false 7303 7.386102817080998 true
genomeend 21
/* Organism #20 Fitness: 0.221 Error: 0.779 */
genomestart 20
trait 1 0 0.2614818869138707 0 0.6078544577649692 0 0 0.4356123551856383 0.06843190371778608 
node 1 1 1 3
node 2 1 1 1
node 3 1 1 1
node 4 1 1 1
node 5 1 1 1
node 6 1 1 1
node 7 1 1 1
node 8 1 1 1
node 9 1 1 1
node 10 1 1 1
node 11 1 1 1
node 12 1 0 0
node 13 1 0 2
node 14 1 0 2
node 44 1 0 0
node 53 1 0 0
node 745 1 0 0
node 984 1 0 0
gene 1 1 12 -3.18165840951165 false 1 -3.18165840951165 true
gene 1 2 12 0.052872456275740554 false 2 0.052872456275740554 true
gene 1 3 12 0.21442784094384001 false 3 0.21442784094384001 true
gene 1 4 12 0.7932111644945024 false 4 0.7932111644945024 true
gene 1 5 12 0.5440695186875831 false 5 0.5440695186875831 true
gene 1 6 12 0.033017377879123844 false 6 0.033017377879123844 true
gene 1 7 12 -0.13020786045852695 false 7 -0.13020786045852695 true
gene 1 8 12 -0.18665687242659026 false 8 -0.18665687242659026 true
gene 1 9 12 -0.2257011002410988 false 9 -0.2257011002410988 true
gene 1 10 12 -0.47405071899861223 false 10 -0.47405071899861223 true
gene 1 11 12 -0.21593749701288187 false 11 -0.21593749701288187 true
gene 1 12 13 -0.35287195758541845 false 12 -0.35287195758541845 true
gene 1 12 14 0.36978336378576915 false 13 0.36978336378576915 true
gene 1 8 14 -1.1374645170224542 false 125 -1.1374645170224542 true
gene 1 2 13 -1.7825463735610771 false 134 -1.7825463735610771 true
gene 1 8 44 -0.03193625380564302 false 207 -0.03193625380564302 true
gene 1 44 12 0.07379679788611365 false 208 0.07379679788611365 true
gene 1 3 13 -0.037156793346871414 false 228 -0.037156793346871414 true
gene 1 3 53 -0.39092017898747233 false 250 -0.39092017898747233 true
gene 1 53 13 0.5556883951635951 false 251 0.5556883951635951 true
gene 1 7 14 1.1803055287738373 false 361 1.1803055287738373 true
gene 1 9 53 -0.05928417639363859 false 475 -0.05928417639363859 true
gene 1 11 44 -0.4679235130745465 false 508 -0.4679235130745465 true
gene 1 2 53 -1.2042427794665707 false 1248 -1.2042427794665707 true
gene 1 9 13 -5.359186726857354 false 2063 -5.359186726857354 true
gene 1 7 44 8.525733144392332 false 2993 8.525733144392332 true
gene 1 4 745 1 false 3960 0 true
gene 1 745 12 0.7932111644945024 false 3961 0 true
gene 1 8 745 9.933271434540933 false 4120 9.933271434540933 true
gene 1 2 984 1 false 5277 0 true
gene 1 984 12 0.052872456275740554 false 5278 0 true
gene 1 984 984 1.8524042240025638 true 6329 1.8524042240025638 true
gene 1 12 12 3.3587463670504065 true 7077 3.3587463670504065 true
gene 1 4 984 7.386102817080998 false 7303 7.386102817080998 true
gene 1 14 14 2.6335084875531805 true 7680 0 true
genomeend 20
/* Organism #18 Fitness: 0.213 Error: 0.787 */
genomestart 18
trait 1 0 0.2614818869138707 0 0.6078544577649692 0 0 0.4356123551856383 0.06843190371778608 
node 1 1 1 3
node 2 1 1 1
node 3 1 1 1
node 4 1 1 1
node 5 1 1 1
node 6 1 1 1
node 7 1 1 1
node 8 1 1 1
node 9 1 1 1
node 10 1 1 1
node 11 1 1 1
node 12 1 0 0
node 13 1 0 2
node 14 1 0 2
node 44 1 0 0
node 53 1 0 0
node 745 1 0 0
node 984 1 0 0
gene 1 1 12 -3.1014940246730696 false 1 -3.1014940246730696 true
gene 1 2 12 -0.27047542167121374 false 2 -0.27047542167121374 true
gene 1 3 12 0.10283871550852265 false 3 0.10283871550852265 true
gene 1 4 12 0.7932111644945024 false 4 0.7932111644945024 true
gene 1 5 12 0.2444556050917694 false 5 0.2444556050917694 true
gene 1 6 12 0.37145035480620675 false 6 0.37145035480620675 true
gene 1 7 12 -0.13020786045852695 false 7 -0.13020786045852695 true
gene 1 8 12 0.219144606591233 false 8 0.219144606591233 true
gene 1 9 12 -0.5556520931232052 false 9 -0.5556520931232052 true
gene 1 10 12 0.15434510921053723 false 10 0.15434510921053723 true
gene 1 11 12 0.5563203139133434 false 11 0.5563203139133434 true
gene 1 12 13 0.10858343338464493 false 12 0.10858343338464493 true
gene 1 12 14 1.1031748125856726 false 13 1.1031748125856726 true
gene 1 8 14 -0.44986326023931733 false 125 -0.44986326023931733 true
gene 1 2 13 -1.7825463735610771 false 134 -1.7825463735610771 true
gene 1 8 44 -0.03193625380564302 false 207 -0.03193625380564302 true
gene 1 44 12 0.4050298947014823 false 208 0.4050298947014823 true
gene 1 3 13 0.4591293394504768 false 228 0.4591293394504768 true
gene 1 3 53 -0.671912422626991 false 250 -0.671912422626991 true
gene 1 53 13 0.5556883951635951 false 251 0.5556883951635951 true
gene 1 7 14 0.5741329842872552 false 361 0.5741329842872552 true
gene 1 9 53 0.19612529355516667 false 475 0.19612529355516667 true
gene 1 11 44 -0.1512057019224895 false 508 -0.1512057019224895 true
gene 1 2 53 -0.8865016105650669 false 1248 -0.8865016105650669 true
gene 1 9 13 -0.2817565225493292 false 2063 -0.2817565225493292 true
gene 1 7 44 0.7288166876862483 false 2993 0.7288166876862483 true
gene 1 4 745 -0.6235846142097767 false 3960 -0.6235846142097767 true
gene 1 745 12 0.974289616566072 false 3961 0.974289616566072 true
gene 1 8 745 9.573255159356062 false 4120 9.573255159356062 true
gene 1 2 984 0.5364042594580918 false 5277 0.5364042594580918 true
gene 1 984 12 -0.6352730797926499 false 5278 -0.6352730797926499 true
gene 1 984 984 1.6234891707333765 true 6329 1.6234891707333765 true
gene 1 12 12 2.622508285893919 true 7077 2.622508285893919 true
gene 1 4 984 6.848376301785806 false 7303 6.848376301785806 true
genomeend 18
/* Organism #17 Fitness: 0.027 Error: 0.973 */
genomestart 17
trait 1 0 0.2614818869138707 0 0.6078544577649692 0 0 0.4356123551856383 0.06843190371778608 
node 1 1 1 3
node 2 1 1 1
node 3 1 1 1
node 4 1 1 1
node 5 1 1 1
node 6 1 1 1
node 7 1 1 1
node 8 1 1 1
node 9 1 1 1
node 10 1 1 1
node 11 1 1 1
node 12 1 0 0
node 13 1 0 2
node 14 1 0 2
node 44 1 0 0
node 53 1 0 0
node 745 1 0 0
node 984 1 0 0
gene 1 1 12 0.7124418305150344 false 1 0.7124418305150344 true
gene 1 2 12 -0.05499829969021362 false 2 -0.05499829969021362 true
gene 1 3 12 0.3421693373584483 false 3 0.3421693373584483 true
gene 1 4 12 0.5606642787209255 false 4 0.5606642787209255 true
gene 1 5 12 -0.24006237642519923 false 5 -0.24006237642519923 true
gene 1 6 12 -0.6366745391074501 false 6 -0.6366745391074501 true
gene 1 7 12 -0.689575779650217 false 7 -0.689575779650217 true
gene 1 8 12 0.10587032293396867 false 8 0.10587032293396867 true
gene 1 9 12 0.742242859075359 false 9 0.742242859075359 true
gene 1 10 12 0.25323875728136086 false 10 0.25323875728136086 true
gene 1 11 12 -0.4425565834363705 false 11 -0.4425565834363705 true
gene 1 12 13 0.24758287867541628 false 12 0.24758287867541628 true
gene 1 12 14 0.23834209041636348 false 13 0.23834209041636348 true
gene 1 8 14 -0.336360803980421 false 125 -0.336360803980421 true
gene 1 2 13 -1.408075659547031 false 134 -1.408075659547031 true
gene 1 8 44 -0.18922149479536898 false 207 -0.18922149479536898 true
gene 1 44 12 -0.010083235365139618 false 208 -0.010083235365139618 true
gene 1 3 13 -0.4438411905180768 false 228 -0.4438411905180768 true
gene 1 3 53 -0.634998128041289 false 250 -0.634998128041289 true
gene 1 53 13 0.31899745517728095 false 251 0.31899745517728095 true
gene 1 7 14 0.47349300898868785 false 361 0.47349300898868785 true
gene 1 9 53 -0.16424381994452217 false 475 -0.16424381994452217 true
gene 1 11 44 -0.5525621718141004 false 508 -0.5525621718141004 true
gene 1 2 53 -1.0642833922960062 false 1248 -1.0642833922960062 true
gene 1 9 13 -4.629888595329752 false 2063 -4.629888595329752 true
gene 1 7 44 8.059454070224415 false 2993 8.059454070224415 true
gene 1 4 745 0.20814735332798906 false 3960 0.20814735332798906 true
gene 1 745 12 1.0357621996350086 false 3961 1.0357621996350086 true
gene 1 8 745 9.385060393933937 false 4120 9.385060393933937 true
gene 1 2 984 1.5861055185152335 false 5277 1.5861055185152335 true
gene 1 984 12 -0.3359874594927685 false 5278 -0.3359874594927685 true
gene 1 984 984 1.8524042240025638 true 6329 1.8524042240025638 true
gene 1 12 12 3.6966428136786007 true 7077 3.6966428136786007 true
gene 1 4 984 0.6336776410656775 false 7303 0.6336776410656775 true
genomeend 17
/* Species #9 : (Size 6) (AF 0.419) (Age 236)  */
/* Organism #26 Fitness: 0.686 Error: 0.314 */
genomestart 26
trait 1 0 1.027294032829682 0.19118896487938009 0.6535713005095056 2.616640296777626 1.2988468712595287 0.8528433778882387 1.1014656541690013 
node 1 1 1 3
node 2 1 1 1
node 3 1 1 1
node 4 1 1 1
node 5 1 1 1
node 6 1 1 1
node 7 1 1 1
node 8 1 1 1
node 9 1 1 1
node 10 1 1 1
node 11 1 1 1
node 12 1 0 0
node 13 1 0 2
node 14 1 0 2
node 15 1 0 0
node 20 1 0 0
node 429 1 0 0
node 435 1 0 0
node 825 1 0 0
node 994 1 0 0
node 1188 1 0 0
node 1237 1 0 0
node 1257 1 0 0
node 1389 1 0 0
gene 1 1 12 0.4672591708400087 false 1 0.4672591708400087 true
gene 1 2 12 1.9729600889779237 false 2 1.9729600889779237 true
gene 1 3 12 -0.9834504141981015 false 3 -0.9834504141981015 true
gene 1 4 12 -1.403707200464583 false 4 -1.403707200464583 true
gene 1 5 12 -1.9462811526387256 false 5 -1.9462811526387256 true
gene 1 6 12 -2.1457170758132547 false 6 -2.1457170758132547 true
gene 1 7 12 3.383757083070942 false 7 3.383757083070942 true
gene 1 8 12 -3.22083133643013 false 8 -3.22083133643013 true
gene 1 9 12 -0.3221173330255772 false 9 -0.3221173330255772 true
gene 1 10 12 0.5883061167594195 false 10 0.5883061167594195 true
gene 1 11 12 0.9882964558097249 false 11 0.9882964558097249 true
gene 1 12 13 -2.9158782019774403 false 12 -2.9158782019774403 true
gene 1 12 14 3.108572770012849 false 13 3.108572770012849 true
gene 1 2 15 0.4623947760145114 false 16 0.4623947760145114 true
gene 1 15 12 2.159488058499841 false 17 2.159488058499841 true
gene 1 12 20 -1.3792607305089728 false 51 -1.3792607305089728 true
gene 1 20 13 -0.2871644026781239 false 52 -0.2871644026781239 true
gene 1 5 15 1.184782121197622 false 85 1.184782121197622 true
gene 1 2 14 -1.2120177702489063 false 185 -1.2120177702489063 true
gene 1 7 14 0.17689943948217668 false 219 0.17689943948217668 true
gene 1 3 15 -2.254003839497584 false 235 -2.254003839497584 true
gene 1 20 14 0.22931447227098145 false 313 0.22931447227098145 true
gene 1 10 14 -0.6772788313362482 false 500 -0.6772788313362482 true
gene 1 20 20 1.6266543263575814 true 557 1.6266543263575814 true
gene 1 15 15 1.003923210265958 true 714 1.003923210265958 true
gene 1 10 15 0.32853103139301093 false 1504 0.32853103139301093 true
gene 1 4 429 -0.07367533534732962 false 2276 -0.07367533534732962 true
gene 1 429 12 -2.1123558689462136 false 2277 -2.1123558689462136 true
gene 1 15 435 0.1451011213862074 true 2304 0.1451011213862074 true
gene 1 435 15 -1.4686819389427068 false 2305 -1.4686819389427068 true
gene 1 6 435 -1.9497462327599053 false 2600 -1.9497462327599053 true
gene 1 3 429 -5.207342918863228 false 2700 -5.207342918863228 true
gene 1 13 12 -0.45697377025274694 true 3173 -0.45697377025274694 true
gene 1 6 429 0.29295843157185386 false 3468 0.29295843157185386 true
gene 1 3 825 3.1554027589546756 false 4383 3.1554027589546756 true
gene 1 825 15 1.3405184598316233 false 4384 1.3405184598316233 true
gene 1 14 825 -2.228237902087891 true 4727 -2.228237902087891 true
gene 1 8 435 -0.30660875134565285 false 5051 -0.30660875134565285 true
gene 1 825 429 2.2826310372926097 false 5172 2.2826310372926097 true
gene 1 15 994 1.2728684595179893 true 5320 1.2728684595179893 true
gene 1 994 15 0.12547334128188004 false 5321 0.12547334128188004 true
gene 1 435 12 0.4735863200263396 false 5580 0.4735863200263396 true
gene 1 3 20 -0.813070788433722 false 5793 -0.813070788433722 true
gene 1 14 1188 -0.5418657181681332 true 6338 -0.5418657181681332 true
gene 1 1188 825 -0.8315282525590524 false 6339 -0.8315282525590524 true
gene 1 9 435 0.5735017822461477 false 6562 0.5735017822461477 true
gene 1 825 1237 0.04309439290107152 false 6594 0.04309439290107152 true
gene 1 1237 429 0.9051129022546576 false 6595 0.9051129022546576 true
gene 1 2 1188 0.7550731542469592 false 6616 0.7550731542469592 true
gene 1 7 1257 0.8001244140374133 false 6697 0.8001244140374133 true
gene 1 1257 14 -1.1675099927235784 false 6698 -1.1675099927235784 true
gene 1 14 14 -0.8486210983403788 true 7205 -0.8486210983403788 true
gene 1 12 1389 0.17412751857979722 false 7424 0.17412751857979722 true
gene 1 1389 13 -0.48804331501770976 false 7425 -0.48804331501770976 true
gene 1 9 825 -0.46642685889972 false 7507 -0.46642685889972 true
gene 1 4 825 0.4891901944114591 false 7552 0.4891901944114591 true
genomeend 26
/* Organism #23 Fitness: 0.686 Error: 0.314 */
genomestart 23
trait 1 0 1.027294032829682 0.19118896487938009 0.6535713005095056 2.616640296777626 1.2988468712595287 0.8528433778882387 1.1014656541690013 
node 1 1 1 3
node 2 1 1 1
node 3 1 1 1
node 4 1 1 1
node 5 1 1 1
node 6 1 1 1
node 7 1 1 1
node 8 1 1 1
node 9 1 1 1
node 10 1 1 1
node 11 1 1 1
node 12 1 0 0
node 13 1 0 2
node 14 1 0 2
node 15 1 0 0
node 20 1 0 0
node 429 1 0 0
node 435 1 0 0
node 825 1 0 0
node 994 1 0 0
node 1188 1 0 0
node 1237 1 0 0
node 1257 1 0 0
node 1389 1 0 0
gene 1 1 12 0.4672591708400087 false 1 0.4672591708400087 true
gene 1 2 12 1.9729600889779237 false 2 1.9729600889779237 true
gene 1 3 12 -0.9834504141981015 false 3 -0.9834504141981015 true
gene 1 4 12 -1.403707200464583 false 4 -1.403707200464583 true
gene 1 5 12 -1.9462811526387256 false 5 -1.9462811526387256 true
gene 1 6 12 -2.1457170758132547 false 6 -2.1457170758132547 true
gene 1 7 12 3.383757083070942 false 7 3.383757083070942 true
gene 1 8 12 -3.22083133643013 false 8 -3.22083133643013 true
gene 1 9 12 -0.3221173330255772 false 9 -0.3221173330255772 true
gene 1 10 12 0.5883061167594195 false 10 0.5883061167594195 true
gene 1 11 12 0.9882964558097249 false 11 0.9882964558097249 true
gene 1 12 13 -2.9158782019774403 false 12 -2.9158782019774403 true
gene 1 12 14 3.108572770012849 false 13 3.108572770012849 true
gene 1 2 15 0.4623947760145114 false 16 0.4623947760145114 true
gene 1 15 12 2.159488058499841 false 17 2.159488058499841 true
gene 1 12 20 -1.3792607305089728 false 51 -1.3792607305089728 true
gene 1 20 13 -0.2871644026781239 false 52 -0.2871644026781239 true
gene 1 5 15 1.184782121197622 false 85 1.184782121197622 true
gene 1 2 14 -1.2120177702489063 false 185 -1.2120177702489063 true
gene 1 7 14 0.17689943948217668 false 219 0.17689943948217668 true
gene 1 3 15 -2.254003839497584 false 235 -2.254003839497584 true
gene 1 20 14 0.22931447227098145 false 313 0.22931447227098145 true
gene 1 10 14 -0.6772788313362482 false 500 -0.6772788313362482 true
gene 1 20 20 1.6266543263575814 true 557 1.6266543263575814 true
gene 1 15 15 1.003923210265958 true 714 1.003923210265958 true
gene 1 10 15 0.32853103139301093 false 1504 0.32853103139301093 true
gene 1 4 429 -0.07367533534732962 false 2276 -0.07367533534732962 true
gene 1 429 12 -2.1123558689462136 false 2277 -2.1123558689462136 true
gene 1 15 435 0.1451011213862074 true 2304 0.1451011213862074 true
gene 1 435 15 -1.4686819389427068 false 2305 -1.4686819389427068 true
gene 1 6 435 -1.9497462327599053 false 2600 -1.9497462327599053 true
gene 1 3 429 -5.207342918863228 false 2700 -5.207342918863228 true
gene 1 13 12 -0.45697377025274694 true 3173 -0.45697377025274694 true
gene 1 6 429 0.29295843157185386 false 3468 0.29295843157185386 true
gene 1 3 825 3.1554027589546756 false 4383 3.1554027589546756 true
gene 1 825 15 1.3405184598316233 false 4384 1.3405184598316233 true
gene 1 14 825 -2.228237902087891 true 4727 -2.228237902087891 true
gene 1 8 435 -0.30660875134565285 false 5051 -0.30660875134565285 true
gene 1 825 429 2.2826310372926097 false 5172 2.2826310372926097 true
gene 1 15 994 1.2728684595179893 true 5320 1.2728684595179893 true
gene 1 994 15 0.12547334128188004 false 5321 0.12547334128188004 true
gene 1 435 12 0.4735863200263396 false 5580 0.4735863200263396 true
gene 1 3 20 -0.813070788433722 false 5793 -0.813070788433722 true
gene 1 14 1188 -0.5418657181681332 true 6338 -0.5418657181681332 true
gene 1 1188 825 -0.8315282525590524 false 6339 -0.8315282525590524 true
gene 1 9 435 0.5735017822461477 false 6562 0.5735017822461477 true
gene 1 825 1237 0.04309439290107152 false 6594 0.04309439290107152 true
gene 1 1237 429 0.9051129022546576 false 6595 0.9051129022546576 true
gene 1 2 1188 0.7550731542469592 false 6616 0.7550731542469592 true
gene 1 7 1257 0.8001244140374133 false 6697 0.8001244140374133 true
gene 1 1257 14 -1.1675099927235784 false 6698 -1.1675099927235784 true
gene 1 14 14 -0.8486210983403788 true 7205 -0.8486210983403788 true
gene 1 12 1389 0.17412751857979722 false 7424 0.17412751857979722 true
gene 1 1389 13 -0.48804331501770976 false 7425 -0.48804331501770976 true
gene 1 9 825 -0.46642685889972 false 7507 -0.46642685889972 true
gene 1 4 825 0.4891901944114591 false 7552 0.4891901944114591 true
genomeend 23
/* Organism #28 Fitness: 0.673 Error: 0.327 */
genomestart 28
trait 1 0 1.027294032829682 0.19118896487938009 0.6535713005095056 2.616640296777626 1.2988468712595287 0.8528433778882387 1.1014656541690013 
node 1 1 1 3
node 2 1 1 1
node 3 1 1 1
node 4 1 1 1
node 5 1 1 1
node 6 1 1 1
node 7 1 1 1
node 8 1 1 1
node 9 1 1 1
node 10 1 1 1
node 11 1 1 1
node 12 1 0 0
node 13 1 0 2
node 14 1 0 2
node 15 1 0 0
node 20 1 0 0
node 429 1 0 0
node 435 1 0 0
node 825 1 0 0
node 994 1 0 0
node 1188 1 0 0
node 1237 1 0 0
node 1257 1 0 0
node 1389 1 0 0
gene 1 1 12 -0.10436295674035889 false 1 -0.10436295674035889 true
gene 1 2 12 1.9729600889779237 false 2 1.9729600889779237 true
gene 1 3 12 0.4732262034158561 false 3 0.4732262034158561 true
gene 1 4 12 -0.9389841168791306 false 4 -0.9389841168791306 true
gene 1 5 12 -1.7109757073316785 false 5 -1.7109757073316785 true
gene 1 6 12 -1.4958476291708087 false 6 -1.4958476291708087 true
gene 1 7 12 2.8709357806087743 false 7 2.8709357806087743 true
gene 1 8 12 -2.8882419944374336 false 8 -2.8882419944374336 true
gene 1 9 12 -0.6174730198586337 false 9 -0.6174730198586337 true
gene 1 10 12 -0.06738344594329893 false 10 -0.06738344594329893 true
gene 1 11 12 0.7371535167796963 false 11 0.7371535167796963 true
gene 1 12 13 -2.6748121448555002 false 12 -2.6748121448555002 true
gene 1 12 14 2.343089729199955 false 13 2.343089729199955 true
gene 1 2 15 0.11363814741466255 false 16 0.11363814741466255 true
gene 1 15 12 2.0761989803063226 false 17 2.0761989803063226 true
gene 1 12 20 -1.0813569141616355 false 51 -1.0813569141616355 true
gene 1 20 13 -0.7431649023476066 false 52 -0.7431649023476066 true
gene 1 5 15 0.7610687286958 false 85 0.7610687286958 true
gene 1 2 14 -1.3621583634745156 false 185 -1.3621583634745156 true
gene 1 7 14 -0.5000540510912235 false 219 -0.5000540510912235 true
gene 1 3 15 0.07926480205551033 false 235 0.07926480205551033 true
gene 1 20 14 -0.16792429101185893 false 313 -0.16792429101185893 true
gene 1 10 14 0.505673074286561 false 500 0.505673074286561 true
gene 1 20 20 -0.28004354975705364 true 557 -0.28004354975705364 true
gene 1 15 15 0.4589160038857416 true 714 0.4589160038857416 true
gene 1 10 15 0.5744479454693361 false 1504 0.5744479454693361 true
gene 1 4 429 0.4395668857919904 false 2276 0.4395668857919904 true
gene 1 429 12 -1.6021539702729217 false 2277 -1.6021539702729217 true
gene 1 15 435 -0.048106363877155556 true 2304 -0.048106363877155556 true
gene 1 435 15 -1.5298804601120946 false 2305 -1.5298804601120946 true
gene 1 6 435 -1.2572349633098194 false 2600 -1.2572349633098194 true
gene 1 3 429 -5.953991470374751 false 2700 -5.953991470374751 true
gene 1 13 12 -0.08010637279541932 true 3173 -0.08010637279541932 true
gene 1 6 429 0.29295843157185386 false 3468 0.29295843157185386 true
gene 1 3 825 2.763524919126482 false 4383 2.763524919126482 true
gene 1 825 15 1.3405184598316233 false 4384 1.3405184598316233 true
gene 1 14 825 -2.9145762133696147 true 4727 -2.9145762133696147 true
gene 1 8 435 -0.874092011763262 false 5051 -0.874092011763262 true
gene 1 825 429 2.864954756255705 false 5172 2.864954756255705 true
gene 1 15 994 0.24824579376112466 true 5320 0.24824579376112466 true
gene 1 994 15 0.5195661577311204 false 5321 0.5195661577311204 true
gene 1 435 12 0.9506897416574273 false 5580 0.9506897416574273 true
gene 1 3 20 -0.813070788433722 false 5793 -0.813070788433722 true
gene 1 14 1188 -0.5418657181681332 true 6338 -0.5418657181681332 true
gene 1 1188 825 -1.4283744324501844 false 6339 -1.4283744324501844 true
gene 1 9 435 0.17470652167067358 false 6562 0.17470652167067358 true
gene 1 825 1237 -0.640208341592245 false 6594 -0.640208341592245 true
gene 1 1237 429 0.6225879393570943 false 6595 0.6225879393570943 true
gene 1 2 1188 1.2262874980389629 false 6616 1.2262874980389629 true
gene 1 7 1257 0.8001244140374133 false 6697 0.8001244140374133 true
gene 1 1257 14 -1.4279528423730468 false 6698 -1.4279528423730468 true
gene 1 14 14 -0.5944998747481613 true 7205 -0.5944998747481613 true
gene 1 12 1389 -0.6526631453238068 false 7424 -0.6526631453238068 true
gene 1 1389 13 0.007141737039634888 false 7425 0.007141737039634888 true
gene 1 9 825 -0.6783802546848204 false 7507 -0.6783802546848204 true
gene 1 4 825 0.32395494752691606 false 7552 0.32395494752691606 true
genomeend 28
/* Organism #24 Fitness: 0.448 Error: 0.552 */
genomestart 24
trait 1 0 1.027294032829682 0.19118896487938009 0.6535713005095056 2.616640296777626 1.2988468712595287 0.8528433778882387 1.1014656541690013 
node 1 1 1 3
node 2 1 1 1
node 3 1 1 1
node 4 1 1 1
node 5 1 1 1
node 6 1 1 1
node 7 1 1 1
node 8 1 1 1
node 9 1 1 1
node 10 1 1 1
node 11 1 1 1
node 12 1 0 0
node 13 1 0 2
node 14 1 0 2
node 15 1 0 0
node 20 1 0 0
node 429 1 0 0
node 435 1 0 0
node 825 1 0 0
node 994 1 0 0
node 1188 1 0 0
node 1237 1 0 0
node 1257 1 0 0
node 1389 1 0 0
gene 1 1 12 0.7295135393461545 false 1 0.7295135393461545 true
gene 1 2 12 0.22806500523015283 false 2 0.22806500523015283 true
gene 1 3 12 -0.19474832082741408 false 3 -0.19474832082741408 true
gene 1 4 12 -0.8501708566556267 false 4 -0.8501708566556267 true
gene 1 5 12 -1.4711958412758064 false 5 -1.4711958412758064 true
gene 1 6 12 -2.714271381952609 false 6 -2.714271381952609 true
gene 1 7 12 3.538491568162693 false 7 3.538491568162693 true
gene 1 8 12 -2.53048564052627 false 8 -2.53048564052627 true
gene 1 9 12 -0.6804160042285253 false 9 -0.6804160042285253 true
gene 1 10 12 -0.03688936776458174 false 10 -0.03688936776458174 true
gene 1 11 12 0.5024491467516035 false 11 0.5024491467516035 true
gene 1 12 13 -3.704007112175003 false 12 -3.704007112175003 true
gene 1 12 14 3.8187401575228166 false 13 3.8187401575228166 true
gene 1 2 15 -0.23299202623950255 false 16 -0.23299202623950255 true
gene 1 15 12 0.6615934796813412 false 17 0.6615934796813412 true
gene 1 12 20 -2.023721519689304 false 51 -2.023721519689304 true
gene 1 20 13 0.4576083523921604 false 52 0.4576083523921604 true
gene 1 5 15 0.49698625068109104 false 85 0.49698625068109104 true
gene 1 2 14 -1.2931785107108202 false 185 -1.2931785107108202 true
gene 1 7 14 0.5160000320980273 false 219 0.5160000320980273 true
gene 1 3 15 0.45476566707932237 false 235 0.45476566707932237 true
gene 1 20 14 -0.3036623801135574 false 313 -0.3036623801135574 true
gene 1 10 14 0.7724482296318844 false 500 0.7724482296318844 true
gene 1 20 20 1.2419451950331917 true 557 1.2419451950331917 true
gene 1 15 15 0.5275608272796315 true 714 0.5275608272796315 true
gene 1 10 15 0.9864013382210466 false 1504 0.9864013382210466 true
gene 1 4 429 -0.6244600096707555 false 2276 -0.6244600096707555 true
gene 1 429 12 -0.042738268278909586 false 2277 -0.042738268278909586 true
gene 1 15 435 -0.004246507787493914 true 2304 -0.004246507787493914 true
gene 1 435 15 -2.0534185227403596 false 2305 -2.0534185227403596 true
gene 1 6 435 -1.475929045468089 false 2600 -1.475929045468089 true
gene 1 3 429 -5.022942020497328 false 2700 -5.022942020497328 true
gene 1 13 12 -0.1640579340118824 true 3173 -0.1640579340118824 true
gene 1 6 429 0.9050343320226012 false 3468 0.9050343320226012 true
gene 1 3 825 3.3958670111028115 false 4383 3.3958670111028115 true
gene 1 825 15 1.5452772304304 false 4384 1.5452772304304 true
gene 1 14 825 -2.0653555411156947 true 4727 -2.0653555411156947 true
gene 1 8 435 -0.30660875134565285 false 5051 -0.30660875134565285 true
gene 1 825 429 2.248938798042302 false 5172 2.248938798042302 true
gene 1 15 994 0.28150320261969347 true 5320 0.28150320261969347 true
gene 1 994 15 -0.14725571418243044 false 5321 -0.14725571418243044 true
gene 1 435 12 0.8051162235578577 false 5580 0.8051162235578577 true
gene 1 3 20 -1.4862783733061677 false 5793 -1.4862783733061677 true
gene 1 14 1188 -0.023574646120559817 true 6338 -0.023574646120559817 true
gene 1 1188 825 -0.7541025687690058 false 6339 -0.7541025687690058 true
gene 1 9 435 1.2518061129964622 false 6562 1.2518061129964622 true
gene 1 825 1237 0.16906933885080183 false 6594 0.16906933885080183 true
gene 1 1237 429 -0.10269748193096105 false 6595 -0.10269748193096105 true
gene 1 2 1188 0.9212503451244203 false 6616 0.9212503451244203 true
gene 1 7 1257 0.07363038226997642 false 6697 0.07363038226997642 true
gene 1 1257 14 -1.7277741901779065 false 6698 -1.7277741901779065 true
gene 1 14 14 -0.20081483574907832 true 7205 -0.20081483574907832 true
gene 1 12 1389 -0.40384867428626037 false 7424 -0.40384867428626037 true
gene 1 1389 13 -0.48804331501770976 false 7425 -0.48804331501770976 true
gene 1 9 825 -0.275479316102277 false 7507 -0.275479316102277 true
gene 1 4 825 0.5250050027889458 false 7552 0.5250050027889458 true
genomeend 24
/* Organism #27 Fitness: 0.010 Error: 0.990 */
genomestart 27
trait 1 0 1.027294032829682 0.19118896487938009 0.6535713005095056 2.616640296777626 1.2988468712595287 0.8528433778882387 1.1014656541690013 
node 1 1 1 3
node 2 1 1 1
node 3 1 1 1
node 4 1 1 1
node 5 1 1 1
node 6 1 1 1
node 7 1 1 1
node 8 1 1 1
node 9 1 1 1
node 10 1 1 1
node 11 1 1 1
node 12 1 0 0
node 13 1 0 2
node 14 1 0 2
node 15 1 0 0
node 20 1 0 0
node 429 1 0 0
node 435 1 0 0
node 825 1 0 0
node 994 1 0 0
node 1188 1 0 0
node 1237 1 0 0
node 1257 1 0 0
node 1389 1 0 0
gene 1 1 12 0.22251636472023212 false 1 0.22251636472023212 true
gene 1 2 12 1.9729600889779237 false 2 1.9729600889779237 true
gene 1 3 12 0.1818316592610416 false 3 0.1818316592610416 true
gene 1 4 12 -1.3033481567870342 false 4 -1.3033481567870342 true
gene 1 5 12 -1.4487333069633113 false 5 -1.4487333069633113 true
gene 1 6 12 -2.1457170758132547 false 6 -2.1457170758132547 true
gene 1 7 12 2.642072390350165 false 7 2.642072390350165 true
gene 1 8 12 -2.659508370951178 false 8 -2.659508370951178 true
gene 1 9 12 -0.29163484826928454 false 9 -0.29163484826928454 true
gene 1 10 12 0.24598912284507723 false 10 0.24598912284507723 true
gene 1 11 12 1.1597416504541673 false 11 1.1597416504541673 true
gene 1 12 13 -2.19338239320299 false 12 -2.19338239320299 true
gene 1 12 14 0.6959838263803874 false 13 0.6959838263803874 true
gene 1 2 15 0.7010650180956348 false 16 0.7010650180956348 true
gene 1 15 12 2.698966812481606 false 17 2.698966812481606 true
gene 1 12 20 -1.34214366626083 false 51 -1.34214366626083 true
gene 1 20 13 -0.21501973832631982 false 52 -0.21501973832631982 true
gene 1 5 15 1.4014442638536164 false 85 1.4014442638536164 true
gene 1 2 14 -0.7285771848480505 false 185 -0.7285771848480505 true
gene 1 7 14 0.877729953124884 false 219 0.877729953124884 true
gene 1 3 15 -2.0912934543760233 false 235 -2.0912934543760233 true
gene 1 20 14 0.289927110086627 false 313 0.289927110086627 true
gene 1 10 14 -0.38811580928875616 false 500 -0.38811580928875616 true
gene 1 20 20 -0.16606134891761826 true 557 -0.16606134891761826 true
gene 1 15 15 -0.5796373022661099 true 714 -0.5796373022661099 true
gene 1 10 15 -0.05879424223004544 false 1504 -0.05879424223004544 true
gene 1 4 429 0.18521171479135307 false 2276 0.18521171479135307 true
gene 1 429 12 0.21945715512871758 false 2277 0.21945715512871758 true
gene 1 15 435 -0.2870021557412211 true 2304 -0.2870021557412211 true
