/* Species #0 : (Size 9) (AF 0.412) (Age 101)  */
/* Organism #0 Fitness: 0.693 Error: 0.307 */
genomestart 0
trait 1 0.17977798597499317 0.34881427795225095 0.14037719204398325 0.0358411295029249 0.0021483173190183433 0.06985747332217992 0.9916928332749176 0.7634756263438759 
node 1 1 1 3
node 2 1 1 1
node 3 1 1 1
node 4 1 1 1
node 5 1 1 1
node 6 1 1 1
node 7 1 1 1
node 8 1 1 1
node 9 1 1 1
node 10 1 1 1
node 11 1 1 1
node 12 1 0 0
node 13 1 0 2
node 14 1 0 2
node 181 1 0 0
node 213 1 0 0
node 221 1 0 0
node 465 1 0 0
gene 1 1 12 2.2395984108573077 false 1 2.2395984108573077 true
gene 1 2 12 -1.694387270348904 false 2 -1.694387270348904 true
gene 1 3 12 -1.1765138126542798 false 3 -1.1765138126542798 true
gene 1 4 12 -3.4560726768970573 false 4 -3.4560726768970573 true
gene 1 5 12 -0.10613648174493073 false 5 -0.10613648174493073 true
gene 1 6 12 0.6997770608405876 false 6 0.6997770608405876 true
gene 1 7 12 -0.45526708663042037 false 7 -0.45526708663042037 true
gene 1 8 12 -0.27224331788963074 false 8 -0.27224331788963074 true
gene 1 9 12 -0.7382820191398181 false 9 -0.7382820191398181 true
gene 1 10 12 2.3029476798331006 false 10 2.3029476798331006 true
gene 1 11 12 -0.18289209502232978 false 11 -0.18289209502232978 true
gene 1 12 13 0.4585865815404902 false 12 0.4585865815404902 true
gene 1 12 14 1.2852802950279805 false 13 1.2852802950279805 true
gene 1 8 14 -0.7873036655494968 false 125 -0.7873036655494968 true
gene 1 5 13 -1.2320601556402873 false 179 -1.2320601556402873 true
gene 1 5 181 -0.3789173288090422 false 906 -0.3789173288090422 true
gene 1 181 13 1.2584007391097383 false 907 1.2584007391097383 true
gene 1 181 213 -0.2925557718728033 false 1089 -0.2925557718728033 true
gene 1 213 13 -9.294548742816874 false 1090 -9.294548742816874 true
gene 1 7 221 0.2801336166630415 false 1123 0.2801336166630415 true
gene 1 221 12 -1.412203414288058 false 1124 -1.412203414288058 true
gene 1 1 181 0.8527897742560135 false 1294 0.8527897742560135 true
gene 1 6 13 -5.9697997534264235 false 2187 -5.9697997534264235 true
gene 1 181 465 0.7347847084988007 false 2471 0.7347847084988007 true
gene 1 465 13 0.4897976523948666 false 2472 0.4897976523948666 true
gene 1 13 13 -4.8660732510295945 true 2522 -4.8660732510295945 true
genomeend 0
/* Organism #2 Fitness: 0.691 Error: 0.309 */
genomestart 2
trait 1 0.17977798597499317 0.34881427795225095 0.14037719204398325 0.0358411295029249 0.0021483173190183433 0.06985747332217992 0.9916928332749176 0.7634756263438759 
node 1 1 1 3
node 2 1 1 1
node 3 1 1 1
node 4 1 1 1
node 5 1 1 1
node 6 1 1 1
node 7 1 1 1
node 8 1 1 1
node 9 1 1 1
node 10 1 1 1
node 11 1 1 1
node 12 1 0 0
node 13 1 0 2
node 14 1 0 2
node 181 1 0 0
node 213 1 0 0
node 221 1 0 0
node 465 1 0 0
gene 1 1 12 1.760261774241318 false 1 1.760261774241318 true
gene 1 2 12 -1.693824154632312 false 2 -1.693824154632312 true
gene 1 3 12 -0.6100107525411189 false 3 -0.6100107525411189 true
gene 1 4 12 -3.9006512505076585 false 4 -3.9006512505076585 true
gene 1 5 12 0.2653191088224437 false 5 0.2653191088224437 true
gene 1 6 12 1.0597987298604576 false 6 1.0597987298604576 true
gene 1 7 12 -0.3619275892155873 false 7 -0.3619275892155873 true
gene 1 8 12 -0.09379038935530415 false 8 -0.09379038935530415 true
gene 1 9 12 -0.376076418727555 false 9 -0.376076418727555 true
gene 1 10 12 1.8092941828830174 false 10 1.8092941828830174 true
gene 1 11 12 -0.5863361569681258 false 11 -0.5863361569681258 true
gene 1 12 13 1.2279182851193913 false 12 1.2279182851193913 true
gene 1 12 14 0.8058169786892542 false 13 0.8058169786892542 true
gene 1 8 14 -0.5671378056197589 false 125 -0.5671378056197589 true
gene 1 5 13 -1.048431291479896 false 179 -1.048431291479896 true
gene 1 5 181 -0.24809429137598651 false 906 -0.24809429137598651 true
gene 1 181 13 1.0871749649988955 false 907 1.0871749649988955 true
gene 1 181 213 -0.02084110067972056 false 1089 -0.02084110067972056 true
gene 1 213 13 -9.454321057118362 false 1090 -9.454321057118362 true
gene 1 7 221 0.7953490890742477 false 1123 0.7953490890742477 true
gene 1 221 12 -0.6731727665382167 false 1124 -0.6731727665382167 true
gene 1 1 181 0.8527897742560135 false 1294 0.8527897742560135 true
gene 1 6 13 -6.1638234924262445 false 2187 -6.1638234924262445 true
gene 1 181 465 -0.7908464303127303 false 2471 -0.7908464303127303 true
gene 1 465 13 0.4897976523948666 false 2472 0.4897976523948666 true
gene 1 13 13 -4.8660732510295945 true 2522 -4.8660732510295945 true
genomeend 2
/* Organism #4 Fitness: 0.689 Error: 0.311 */
genomestart 4
trait 1 0.17977798597499317 0.34881427795225095 0.14037719204398325 0.0358411295029249 0.0021483173190183433 0.06985747332217992 0.9916928332749176 0.7634756263438759 
node 1 1 1 3
node 2 1 1 1
node 3 1 1 1
node 4 1 1 1
node 5 1 1 1
node 6 1 1 1
node 7 1 1 1
node 8 1 1 1
node 9 1 1 1
node 10 1 1 1
node 11 1 1 1
node 12 1 0 0
node 13 1 0 2
node 14 1 0 2
node 181 1 0 0
node 213 1 0 0
node 221 1 0 0
node 465 1 0 0
gene 1 1 12 2.2912245253791417 false 1 2.2912245253791417 true
gene 1 2 12 -1.694387270348904 false 2 -1.694387270348904 true
gene 1 3 12 -0.03728492489434325 false 3 -0.03728492489434325 true
gene 1 4 12 -3.4560726768970573 false 4 -3.4560726768970573 true
gene 1 5 12 -0.2881667308075143 false 5 -0.2881667308075143 true
gene 1 6 12 0.2839631047967963 false 6 0.2839631047967963 true
gene 1 7 12 -0.18968757708969286 false 7 -0.18968757708969286 true
gene 1 8 12 -0.27224331788963074 false 8 -0.27224331788963074 true
gene 1 9 12 -0.5097589419962791 false 9 -0.5097589419962791 true
gene 1 10 12 0.3455008231796081 false 10 0.3455008231796081 true
gene 1 11 12 -0.139384365813146 false 11 -0.139384365813146 true
gene 1 12 13 0.6172224646728868 false 12 0.6172224646728868 true
gene 1 12 14 1.9172676545221607 false 13 1.9172676545221607 true
gene 1 8 14 -0.6650893667662788 false 125 -0.6650893667662788 true
gene 1 5 13 -1.2320601556402873 false 179 -1.2320601556402873 true
gene 1 5 181 -0.4470452271876616 false 906 -0.4470452271876616 true
gene 1 181 13 1.2806936655049326 false 907 1.2806936655049326 true
gene 1 181 213 0.3106343158502714 false 1089 0.3106343158502714 true
gene 1 213 13 0.12717704517015543 false 1090 0.12717704517015543 true
gene 1 7 221 -0.6568330813060498 false 1123 -0.6568330813060498 true
gene 1 221 12 -2.067654483585277 false 1124 -2.067654483585277 true
gene 1 1 181 0.1916508029686893 false 1294 0.1916508029686893 true
gene 1 6 13 -5.9697997534264235 false 2187 -5.9697997534264235 true
gene 1 181 465 0.7110406755579645 false 2471 0.7110406755579645 true
gene 1 465 13 0.5435739577062292 false 2472 0.5435739577062292 true
gene 1 13 13 -4.984504131792294 true 2522 -4.984504131792294 true
genomeend 4
/* Organism #8 Fitness: 0.686 Error: 0.314 */
genomestart 8
trait 1 0.17977798597499317 0.34881427795225095 0.14037719204398325 0.0358411295029249 0.0021483173190183433 0.06985747332217992 0.9916928332749176 0.7634756263438759 
node 1 1 1 3
node 2 1 1 1
node 3 1 1 1
node 4 1 1 1
node 5 1 1 1
node 6 1 1 1
node 7 1 1 1
node 8 1 1 1
node 9 1 1 1
node 10 1 1 1
node 11 1 1 1
node 12 1 0 0
node 13 1 0 2
node 14 1 0 2
node 181 1 0 0
node 213 1 0 0
node 221 1 0 0
node 465 1 0 0
gene 1 1 12 2.2395984108573077 false 1 2.2395984108573077 true
gene 1 2 12 -1.694387270348904 false 2 -1.694387270348904 true
gene 1 3 12 -1.1765138126542798 false 3 -1.1765138126542798 true
gene 1 4 12 -3.4560726768970573 false 4 -3.4560726768970573 true
gene 1 5 12 -0.10613648174493073 false 5 -0.10613648174493073 true
gene 1 6 12 0.6997770608405876 false 6 0.6997770608405876 true
gene 1 7 12 -0.45526708663042037 false 7 -0.45526708663042037 true
gene 1 8 12 -0.27224331788963074 false 8 -0.27224331788963074 true
gene 1 9 12 -0.7382820191398181 false 9 -0.7382820191398181 true
gene 1 10 12 2.3029476798331006 false 10 2.3029476798331006 true
gene 1 11 12 -0.18289209502232978 false 11 -0.18289209502232978 true
gene 1 12 13 0.4585865815404902 false 12 0.4585865815404902 true
gene 1 12 14 1.2852802950279805 false 13 1.2852802950279805 true
gene 1 8 14 -0.7873036655494968 false 125 -0.7873036655494968 true
gene 1 5 13 -1.2320601556402873 false 179 -1.2320601556402873 true
gene 1 5 181 -0.3789173288090422 false 906 -0.3789173288090422 true
gene 1 181 13 1.2584007391097383 false 907 1.2584007391097383 true
gene 1 181 213 -0.2925557718728033 false 1089 -0.2925557718728033 true
gene 1 213 13 -9.294548742816874 false 1090 -9.294548742816874 true
gene 1 7 221 0.2801336166630415 false 1123 0.2801336166630415 true
gene 1 221 12 -1.412203414288058 false 1124 -1.412203414288058 true
gene 1 1 181 0.8527897742560135 false 1294 0.8527897742560135 true
gene 1 6 13 -5.9697997534264235 false 2187 -5.9697997534264235 true
gene 1 181 465 0.7347847084988007 false 2471 0.7347847084988007 true
gene 1 465 13 0.4897976523948666 false 2472 0.4897976523948666 true
gene 1 13 13 -4.8660732510295945 true 2522 -4.8660732510295945 true
gene 1 4 221 -8.918834490954396 false 2938 -8.918834490954396 true
genomeend 8
/* Organism #6 Fitness: 0.372 Error: 0.628 */
genomestart 6
trait 1 0.17977798597499317 0 0.14037719204398325 0.0358411295029249 0.0021483173190183433 0.3641059316041806 0.8125051822663435 1.0006279278900994 
node 1 1 1 3
node 2 1 1 1
node 3 1 1 1
node 4 1 1 1
node 5 1 1 1
node 6 1 1 1
node 7 1 1 1
node 8 1 1 1
node 9 1 1 1
node 10 1 1 1
node 11 1 1 1
node 12 1 0 0
node 13 1 0 2
node 14 1 0 2
node 181 1 0 0
node 213 1 0 0
node 221 1 0 0
node 465 1 0 0
gene 1 1 12 0.6062066157947257 false 1 0.6062066157947257 true
gene 1 2 12 -1.124614596166726 false 2 -1.124614596166726 true
gene 1 3 12 -1.4796403123666486 false 3 -1.4796403123666486 true
gene 1 4 12 0.3409423033170025 false 4 0.3409423033170025 true
gene 1 5 12 -0.7436711256186855 false 5 -0.7436711256186855 true
gene 1 6 12 0.1959152216394372 false 6 0.1959152216394372 true
gene 1 7 12 0.6987459598616175 false 7 0.6987459598616175 true
gene 1 8 12 -0.7254208396801989 false 8 -0.7254208396801989 true
gene 1 9 12 0.0033703949052866777 false 9 0.0033703949052866777 true
gene 1 10 12 2.3029476798331006 false 10 2.3029476798331006 true
gene 1 11 12 0.5264343045911213 false 11 0.5264343045911213 true
gene 1 12 13 0.9098860408720042 false 12 0.9098860408720042 true
gene 1 12 14 0.8768702101979138 false 13 0.8768702101979138 true
gene 1 8 14 -0.21694747503249268 false 125 -0.21694747503249268 true
gene 1 5 13 -1.044314674014974 false 179 -1.044314674014974 true
gene 1 5 181 -0.7363134274672537 false 906 -0.7363134274672537 true
gene 1 181 13 1.588048201610906 false 907 1.588048201610906 true
gene 1 181 213 -0.7678632540842615 false 1089 -0.7678632540842615 true
gene 1 213 13 -9.719781958473346 false 1090 -9.719781958473346 true
gene 1 7 221 -0.24107833470754408 false 1123 -0.24107833470754408 true
gene 1 221 12 -0.6854295761931937 false 1124 -0.6854295761931937 true
gene 1 1 181 0.36365132460762295 false 1294 0.36365132460762295 true
gene 1 6 13 -5.882259535334747 false 2187 -5.882259535334747 true
gene 1 181 465 0.9358841252874734 false 2471 0.9358841252874734 true
gene 1 465 13 -0.18674874395907504 false 2472 -0.18674874395907504 true
gene 1 13 13 -4.194156345707189 true 2522 -4.194156345707189 true
genomeend 6
/* Organism #1 Fitness: 0.355 Error: 0.645 */
genomestart 1
trait 1 0.17977798597499317 0.34881427795225095 0.14037719204398325 0.0358411295029249 0.0021483173190183433 0.06985747332217992 0.9916928332749176 0.7634756263438759 
node 1 1 1 3
node 2 1 1 1
node 3 1 1 1
node 4 1 1 1
node 5 1 1 1
node 6 1 1 1
node 7 1 1 1
node 8 1 1 1
node 9 1 1 1
node 10 1 1 1
node 11 1 1 1
node 12 1 0 0
node 13 1 0 2
node 14 1 0 2
node 181 1 0 0
node 213 1 0 0
node 221 1 0 0
node 465 1 0 0
gene 1 1 12 2.1263529130219814 false 1 2.1263529130219814 true
gene 1 2 12 -2.4537128783411175 false 2 -2.4537128783411175 true
gene 1 3 12 -0.994703821611833 false 3 -0.994703821611833 true
gene 1 4 12 -4.196044775053877 false 4 -4.196044775053877 true
gene 1 5 12 0.08931980735315143 false 5 0.08931980735315143 true
gene 1 6 12 1.386411909093191 false 6 1.386411909093191 true
gene 1 7 12 -0.32971190892265806 false 7 -0.32971190892265806 true
gene 1 8 12 -0.8255798079542389 false 8 -0.8255798079542389 true
gene 1 9 12 -0.5211030712938859 false 9 -0.5211030712938859 true
gene 1 10 12 2.5079757483030245 false 10 2.5079757483030245 true
gene 1 11 12 0.5365262198324157 false 11 0.5365262198324157 true
gene 1 12 13 0.6565282943379245 false 12 0.6565282943379245 true
gene 1 12 14 0.5972739381531662 false 13 0.5972739381531662 true
gene 1 8 14 -0.6360418981209719 false 125 -0.6360418981209719 true
gene 1 5 13 -1.6341849486596443 false 179 -1.6341849486596443 true
gene 1 5 181 -0.9119366542973804 false 906 -0.9119366542973804 true
gene 1 181 13 1.0419353839682224 false 907 1.0419353839682224 true
gene 1 181 213 -0.9996999040163004 false 1089 -0.9996999040163004 true
gene 1 213 13 -9.8690110670989 false 1090 -9.8690110670989 true
gene 1 7 221 0.6904483779109203 false 1123 0.6904483779109203 true
gene 1 221 12 -2.0564854056094415 false 1124 -2.0564854056094415 true
gene 1 1 181 0.6303185511371394 false 1294 0.6303185511371394 true
gene 1 6 13 -5.467935991548514 false 2187 -5.467935991548514 true
gene 1 181 465 0.31091693363582285 false 2471 0.31091693363582285 true
gene 1 465 13 0.4897976523948666 false 2472 0.4897976523948666 true
gene 1 13 13 0.19375918019442037 true 2522 0.19375918019442037 true
genomeend 1
/* Organism #5 Fitness: 0.110 Error: 0.890 */
genomestart 5
trait 1 0.17977798597499317 0.34881427795225095 0.14037719204398325 0.0358411295029249 0.0021483173190183433 0.06985747332217992 0.9916928332749176 0.7634756263438759 
node 1 1 1 3
node 2 1 1 1
node 3 1 1 1
node 4 1 1 1
node 5 1 1 1
node 6 1 1 1
node 7 1 1 1
node 8 1 1 1
node 9 1 1 1
node 10 1 1 1
node 11 1 1 1
node 12 1 0 0
node 13 1 0 2
node 14 1 0 2
node 181 1 0 0
node 213 1 0 0
node 221 1 0 0
node 465 1 0 0
gene 1 1 12 1.784648038664058 false 1 1.784648038664058 true
gene 1 2 12 -2.241005911890196 false 2 -2.241005911890196 true
gene 1 3 12 -0.7681380010606889 false 3 -0.7681380010606889 true
gene 1 4 12 -0.07880844760101781 false 4 -0.07880844760101781 true
gene 1 5 12 0.48607017299877064 false 5 0.48607017299877064 true
gene 1 6 12 0.8148862983357654 false 6 0.8148862983357654 true
gene 1 7 12 -0.1615771442907012 false 7 -0.1615771442907012 true
gene 1 8 12 0.3075878097529712 false 8 0.3075878097529712 true
gene 1 9 12 -0.27897445353699907 false 9 -0.27897445353699907 true
gene 1 10 12 0.5095416805950737 false 10 0.5095416805950737 true
gene 1 11 12 0.07364410989180498 false 11 0.07364410989180498 true
gene 1 12 13 0.7214733055308158 false 12 0.7214733055308158 true
gene 1 12 14 1.9042318112581813 false 13 1.9042318112581813 true
gene 1 8 14 -1.5282040364043765 false 125 -1.5282040364043765 true
gene 1 5 13 -0.528251586747258 false 179 -0.528251586747258 true
gene 1 5 181 -0.13007721607563133 false 906 -0.13007721607563133 true
gene 1 181 13 1.6185929624102269 false 907 1.6185929624102269 true
gene 1 181 213 -0.6011221195812279 false 1089 -0.6011221195812279 true
gene 1 213 13 -9.464660646130385 false 1090 -9.464660646130385 true
gene 1 7 221 -0.25684313083769494 false 1123 -0.25684313083769494 true
gene 1 221 12 -1.8676586050934643 false 1124 -1.8676586050934643 true
gene 1 1 181 0.8527897742560135 false 1294 0.8527897742560135 true
gene 1 6 13 -5.697415945910799 false 2187 -5.697415945910799 true
gene 1 181 465 0.7347847084988007 false 2471 0.7347847084988007 true
gene 1 465 13 0.646329231305996 false 2472 0.646329231305996 true
gene 1 13 13 -0.4980089689792612 true 2522 -0.4980089689792612 true
genomeend 5
/* Organism #7 Fitness: 0.101 Error: 0.899 */
genomestart 7
trait 1 0.17977798597499317 0.34881427795225095 0.14037719204398325 0.0358411295029249 0.0021483173190183433 0.06985747332217992 0.9916928332749176 0.7634756263438759 
node 1 1 1 3
node 2 1 1 1
node 3 1 1 1
node 4 1 1 1
node 5 1 1 1
node 6 1 1 1
node 7 1 1 1
node 8 1 1 1
node 9 1 1 1
node 10 1 1 1
node 11 1 1 1
node 12 1 0 0
node 13 1 0 2
node 14 1 0 2
node 181 1 0 0
node 213 1 0 0
node 221 1 0 0
node 465 1 0 0
gene 1 1 12 1.8097499574053715 false 1 1.8097499574053715 true
gene 1 2 12 -0.9086545896275409 false 2 -0.9086545896275409 true
gene 1 3 12 -0.8150094985569789 false 3 -0.8150094985569789 true
gene 1 4 12 -0.5875663693327778 false 4 -0.5875663693327778 true
gene 1 5 12 -0.3551142208025123 false 5 -0.3551142208025123 true
gene 1 6 12 1.2407822061546527 false 6 1.2407822061546527 true
gene 1 7 12 -0.7816942704046398 false 7 -0.7816942704046398 true
gene 1 8 12 0.3720597022839478 false 8 0.3720597022839478 true
gene 1 9 12 0.1269610387065147 false 9 0.1269610387065147 true
gene 1 10 12 3.031548471165123 false 10 3.031548471165123 true
gene 1 11 12 -0.18289209502232978 false 11 -0.18289209502232978 true
gene 1 12 13 0.3958030170749145 false 12 0.3958030170749145 true
gene 1 12 14 1.2852802950279805 false 13 1.2852802950279805 true
gene 1 8 14 -1.2986990512665513 false 125 -1.2986990512665513 true
gene 1 5 13 -0.9110462271167195 false 179 -0.9110462271167195 true
gene 1 5 181 -0.7170369108138199 false 906 -0.7170369108138199 true
gene 1 181 13 1.374439840659361 false 907 1.374439840659361 true
gene 1 181 213 -0.7372268528111954 false 1089 -0.7372268528111954 true
gene 1 213 13 0.31171778030133945 false 1090 0.31171778030133945 true
gene 1 7 221 0.2801336166630415 false 1123 0.2801336166630415 true
gene 1 221 12 -0.040587784377095634 false 1124 -0.040587784377095634 true
gene 1 1 181 -0.058108643238013624 false 1294 -0.058108643238013624 true
gene 1 6 13 -5.772914455989112 false 2187 -5.772914455989112 true
gene 1 181 465 0.9055021406372211 false 2471 0.9055021406372211 true
gene 1 465 13 0.7934519797964099 false 2472 0.7934519797964099 true
gene 1 13 13 0.663236939648189 true 2522 0.663236939648189 true
genomeend 7
/* Organism #3 Fitness: 0.010 Error: 0.990 */
genomestart 3
trait 1 0.17977798597499317 0.34881427795225095 0.14037719204398325 0.0358411295029249 0.0021483173190183433 0.06985747332217992 0.9916928332749176 0.7634756263438759 
node 1 1 1 3
node 2 1 1 1
node 3 1 1 1
node 4 1 1 1
node 5 1 1 1
node 6 1 1 1
node 7 1 1 1
node 8 1 1 1
node 9 1 1 1
node 10 1 1 1
node 11 1 1 1
node 12 1 0 0
node 13 1 0 2
node 14 1 0 2
node 181 1 0 0
node 213 1 0 0
node 221 1 0 0
node 465 1 0 0
gene 1 1 12 2.2395984108573077 false 1 2.2395984108573077 true
gene 1 2 12 -1.694387270348904 false 2 -1.694387270348904 true
gene 1 3 12 -1.1765138126542798 false 3 -1.1765138126542798 true
gene 1 4 12 -3.4560726768970573 false 4 -3.4560726768970573 true
gene 1 5 12 -0.10613648174493073 false 5 -0.10613648174493073 true
gene 1 6 12 0.6997770608405876 false 6 0.6997770608405876 true
gene 1 7 12 -0.45526708663042037 false 7 -0.45526708663042037 true
gene 1 8 12 -0.27224331788963074 false 8 -0.27224331788963074 true
gene 1 9 12 -0.7382820191398181 false 9 -0.7382820191398181 true
gene 1 10 12 2.3029476798331006 false 10 2.3029476798331006 true
gene 1 11 12 -0.18289209502232978 false 11 -0.18289209502232978 true
gene 1 12 13 0.4585865815404902 false 12 0.4585865815404902 true
gene 1 12 14 1.2852802950279805 false 13 1.2852802950279805 true
gene 1 8 14 -0.7873036655494968 false 125 -0.7873036655494968 true
gene 1 5 13 -1.2320601556402873 false 179 -1.2320601556402873 true
gene 1 5 181 -0.3789173288090422 false 906 -0.3789173288090422 true
gene 1 181 13 1.2584007391097383 false 907 1.2584007391097383 true
gene 1 181 213 -0.2925557718728033 false 1089 -0.2925557718728033 true
gene 1 213 13 -9.294548742816874 false 1090 -9.294548742816874 true
gene 1 7 221 0.2801336166630415 false 1123 0.2801336166630415 true
gene 1 221 12 -1.412203414288058 false 1124 -1.412203414288058 true
gene 1 1 181 0.8527897742560135 false 1294 0.8527897742560135 true
gene 1 6 13 -5.9697997534264235 false 2187 -5.9697997534264235 true
gene 1 181 465 0.7347847084988007 false 2471 0.7347847084988007 true
gene 1 465 13 0.4897976523948666 false 2472 0.4897976523948666 true
gene 1 13 13 -4.8660732510295945 true 2522 -4.8660732510295945 true
gene 1 181 14 -3.4127042288158673 false 2931 -3.4127042288158673 true
genomeend 3
/* Species #2 : (Size 9) (AF 0.459) (Age 99)  */
/* Organism #15 Fitness: 0.692 Error: 0.308 */
genomestart 15
trait 1 0.06827953087239455 0.5667271937476696 0 0.3268448869683511 1.2396603581861594 0.07614893903394077 0 0.02615437014418904 
node 1 1 1 3
node 2 1 1 1
node 3 1 1 1
node 4 1 1 1
node 5 1 1 1
node 6 1 1 1
node 7 1 1 1
node 8 1 1 1
node 9 1 1 1
node 10 1 1 1
node 11 1 1 1
node 12 1 0 0
node 13 1 0 2
node 14 1 0 2
node 15 1 0 0
node 20 1 0 0
node 265 1 0 0
gene 1 1 12 -0.34124559497481366 false 1 -0.34124559497481366 true
gene 1 2 12 -0.13685068944723047 false 2 -0.13685068944723047 true
gene 1 3 12 -0.8952840697809996 false 3 -0.8952840697809996 true
gene 1 4 12 -0.34845499267263846 false 4 -0.34845499267263846 true
gene 1 5 12 -0.1526397560080959 false 5 -0.1526397560080959 true
gene 1 6 12 -0.050764147112545926 false 6 -0.050764147112545926 true
gene 1 7 12 -0.4685260606429209 false 7 -0.4685260606429209 true
gene 1 8 12 0.2757371469170049 false 8 0.2757371469170049 true
gene 1 9 12 -1.7017905065520966 false 9 -1.7017905065520966 true
gene 1 10 12 -0.2596473066356623 false 10 -0.2596473066356623 true
gene 1 11 12 0.02796702531733754 false 11 0.02796702531733754 true
gene 1 12 13 -3.6569513300790866 false 12 -3.6569513300790866 true
gene 1 12 14 0.34416498438338966 false 13 0.34416498438338966 true
gene 1 2 15 1.1962788943651397 false 16 1.1962788943651397 true
gene 1 15 12 1.5948859377380846 false 17 1.5948859377380846 true
gene 1 12 20 -1.1011375940093617 false 51 -1.1011375940093617 true
gene 1 20 13 -0.36219339683750174 false 52 -0.36219339683750174 true
gene 1 5 15 0.7859705928613715 false 85 0.7859705928613715 true
gene 1 2 14 -0.7169223200723882 false 185 -0.7169223200723882 true
gene 1 8 14 -1.5690231927788194 false 275 -1.5690231927788194 true
gene 1 15 15 0.7368376816551269 true 390 0.7368376816551269 true
gene 1 12 265 0.25262600716297556 false 1369 0.25262600716297556 true
gene 1 265 14 0.39511416484257567 false 1370 0.39511416484257567 true
gene 1 11 265 3.2316492872755895 false 2155 3.2316492872755895 true
genomeend 15
/* Organism #14 Fitness: 0.690 Error: 0.310 */
genomestart 14
trait 1 0.06827953087239455 0.44702221102081935 0 0.3268448869683511 1.2396603581861594 0.07614893903394077 0 0.02615437014418904 
node 1 1 1 3
node 2 1 1 1
node 3 1 1 1
node 4 1 1 1
node 5 1 1 1
node 6 1 1 1
node 7 1 1 1
node 8 1 1 1
node 9 1 1 1
node 10 1 1 1
node 11 1 1 1
node 12 1 0 0
node 13 1 0 2
node 14 1 0 2
node 15 1 0 0
node 20 1 0 0
node 265 1 0 0
gene 1 1 12 -0.34124559497481366 false 1 -0.34124559497481366 true
gene 1 2 12 0.043376571383035856 false 2 0.043376571383035856 true
gene 1 3 12 -0.7737415671402424 false 3 -0.7737415671402424 true
gene 1 4 12 0.44201201706387716 false 4 0.44201201706387716 true
gene 1 5 12 -0.6443522160652682 false 5 -0.6443522160652682 true
gene 1 6 12 -0.1483278777902407 false 6 -0.1483278777902407 true
gene 1 7 12 0.6146373731224134 false 7 0.6146373731224134 true
gene 1 8 12 -0.49834920498496094 false 8 -0.49834920498496094 true
gene 1 9 12 -1.153436261332454 false 9 -1.153436261332454 true
gene 1 10 12 -0.2596473066356623 false 10 -0.2596473066356623 true
gene 1 11 12 1.999957213356377 false 11 1.999957213356377 true
gene 1 12 13 -3.3073015214678474 false 12 -3.3073015214678474 true
gene 1 12 14 0.13844557345218272 false 13 0.13844557345218272 true
gene 1 2 15 1.1962788943651397 false 16 1.1962788943651397 true
gene 1 15 12 1.334628265404381 false 17 1.334628265404381 true
gene 1 12 20 -0.5285488281860898 false 51 -0.5285488281860898 true
gene 1 20 13 -0.41860909651562506 false 52 -0.41860909651562506 true
gene 1 5 15 0.43665665070230175 false 85 0.43665665070230175 true
gene 1 2 14 -0.9748781857383028 false 185 -0.9748781857383028 true
gene 1 8 14 -1.5690231927788194 false 275 -1.5690231927788194 true
gene 1 15 15 -1.4701083510997661 true 390 -1.4701083510997661 true
gene 1 12 265 1.032512630492835 false 1369 1.032512630492835 true
gene 1 265 14 0.6498320898304109 false 1370 0.6498320898304109 true
gene 1 11 265 3.804724404413569 false 2155 3.804724404413569 true
genomeend 14
/* Organism #9 Fitness: 0.690 Error: 0.310 */
genomestart 9
trait 1 0.06827953087239455 0.44702221102081935 0 0.3268448869683511 1.2396603581861594 0.07614893903394077 0 0.02615437014418904 
node 1 1 1 3
node 2 1 1 1
node 3 1 1 1
node 4 1 1 1
node 5 1 1 1
node 6 1 1 1
node 7 1 1 1
node 8 1 1 1
node 9 1 1 1
node 10 1 1 1
node 11 1 1 1
node 12 1 0 0
node 13 1 0 2
node 14 1 0 2
node 15 1 0 0
node 20 1 0 0
node 265 1 0 0
gene 1 1 12 -0.34124559497481366 false 1 -0.34124559497481366 true
gene 1 2 12 0.043376571383035856 false 2 0.043376571383035856 true
gene 1 3 12 -0.7737415671402424 false 3 -0.7737415671402424 true
gene 1 4 12 0.44201201706387716 false 4 0.44201201706387716 true
gene 1 5 12 -0.6443522160652682 false 5 -0.6443522160652682 true
gene 1 6 12 -0.1483278777902407 false 6 -0.1483278777902407 true
gene 1 7 12 0.6146373731224134 false 7 0.6146373731224134 true
gene 1 8 12 -0.49834920498496094 false 8 -0.49834920498496094 true
gene 1 9 12 -1.153436261332454 false 9 -1.153436261332454 true
gene 1 10 12 -0.2596473066356623 false 10 -0.2596473066356623 true
gene 1 11 12 1.999957213356377 false 11 1.999957213356377 true
gene 1 12 13 -3.3073015214678474 false 12 -3.3073015214678474 true
gene 1 12 14 0.13844557345218272 false 13 0.13844557345218272 true
gene 1 2 15 1.1962788943651397 false 16 1.1962788943651397 true
gene 1 15 12 1.334628265404381 false 17 1.334628265404381 true
gene 1 12 20 -0.5285488281860898 false 51 -0.5285488281860898 true
gene 1 20 13 -0.41860909651562506 false 52 -0.41860909651562506 true
gene 1 5 15 0.43665665070230175 false 85 0.43665665070230175 true
gene 1 2 14 -0.9748781857383028 false 185 -0.9748781857383028 true
gene 1 8 14 -1.5690231927788194 false 275 -1.5690231927788194 true
gene 1 15 15 -1.4701083510997661 true 390 -1.4701083510997661 true
gene 1 12 265 1.032512630492835 false 1369 1.032512630492835 true
gene 1 265 14 0.6498320898304109 false 1370 0.6498320898304109 true
gene 1 11 265 3.804724404413569 false 2155 3.804724404413569 true
genomeend 9
/* Organism #16 Fitness: 0.689 Error: 0.311 */
genomestart 16
trait 1 0.06827953087239455 0.6864321764745197 0 0.3268448869683511 1.2396603581861594 0.07614893903394077 0 0.02615437014418904 
node 1 1 1 3
node 2 1 1 1
node 3 1 1 1
node 4 1 1 1
node 5 1 1 1
node 6 1 1 1
node 7 1 1 1
node 8 1 1 1
node 9 1 1 1
node 10 1 1 1
node 11 1 1 1
node 12 1 0 0
node 13 1 0 2
node 14 1 0 2
node 15 1 0 0
node 20 1 0 0
node 265 1 0 0
gene 1 1 12 -0.34124559497481366 false 1 -0.34124559497481366 true
gene 1 2 12 0.043376571383035856 false 2 0.043376571383035856 true
gene 1 3 12 -0.7737415671402424 false 3 -0.7737415671402424 true
gene 1 4 12 0.44201201706387716 false 4 0.44201201706387716 true
gene 1 5 12 -0.6443522160652682 false 5 -0.6443522160652682 true
gene 1 6 12 -0.1483278777902407 false 6 -0.1483278777902407 true
gene 1 7 12 0.6146373731224134 false 7 0.6146373731224134 true
gene 1 8 12 -0.49834920498496094 false 8 -0.49834920498496094 true
gene 1 9 12 -1.153436261332454 false 9 -1.153436261332454 true
gene 1 10 12 -0.2596473066356623 false 10 -0.2596473066356623 true
gene 1 11 12 1.999957213356377 false 11 1.999957213356377 true
gene 1 12 13 -3.3073015214678474 false 12 -3.3073015214678474 true
gene 1 12 14 0.13844557345218272 false 13 0.13844557345218272 true
gene 1 2 15 1.1962788943651397 false 16 1.1962788943651397 true
gene 1 15 12 1.334628265404381 false 17 1.334628265404381 true
gene 1 12 20 -0.5285488281860898 false 51 -0.5285488281860898 true
gene 1 20 13 -0.41860909651562506 false 52 -0.41860909651562506 true
gene 1 5 15 0.43665665070230175 false 85 0.43665665070230175 true
gene 1 2 14 -0.9748781857383028 false 185 -0.9748781857383028 true
gene 1 8 14 -1.5690231927788194 false 275 -1.5690231927788194 true
gene 1 15 15 -1.4701083510997661 true 390 -1.4701083510997661 true
gene 1 12 265 1.032512630492835 false 1369 1.032512630492835 true
gene 1 265 14 0.6498320898304109 false 1370 0.6498320898304109 true
gene 1 11 265 3.804724404413569 false 2155 3.804724404413569 true
gene 1 8 265 -8.288272851178629 false 2950 -8.288272851178629 true
genomeend 16
/* Organism #13 Fitness: 0.687 Error: 0.313 */
genomestart 13
trait 1 0.06827953087239455 0.5667271937476696 0 0.3268448869683511 1.2396603581861594 0.07614893903394077 0 0.02615437014418904 
node 1 1 1 3
node 2 1 1 1
node 3 1 1 1
node 4 1 1 1
node 5 1 1 1
node 6 1 1 1
node 7 1 1 1
node 8 1 1 1
node 9 1 1 1
node 10 1 1 1
node 11 1 1 1
node 12 1 0 0
node 13 1 0 2
node 14 1 0 2
node 15 1 0 0
node 20 1 0 0
node 265 1 0 0
gene 1 1 12 -0.08811197875787868 false 1 -0.08811197875787868 true
gene 1 2 12 -0.09169551571851653 false 2 -0.09169551571851653 true
gene 1 3 12 -1.0761072873785502 false 3 -1.0761072873785502 true
gene 1 4 12 0.5790899691012259 false 4 0.5790899691012259 true
gene 1 5 12 -0.4697974797275987 false 5 -0.4697974797275987 true
gene 1 6 12 0.12892446440314081 false 6 0.12892446440314081 true
gene 1 7 12 0.652229160415362 false 7 0.652229160415362 true
gene 1 8 12 -1.282364021415368 false 8 -1.282364021415368 true
gene 1 9 12 -1.5491721806598984 false 9 -1.5491721806598984 true
gene 1 10 12 -0.5938496387209276 false 10 -0.5938496387209276 true
gene 1 11 12 1.3508607068422758 false 11 1.3508607068422758 true
gene 1 12 13 -3.574893620800069 false 12 -3.574893620800069 true
gene 1 12 14 0.8242105054193944 false 13 0.8242105054193944 true
gene 1 2 15 0.9554384624263247 false 16 0.9554384624263247 true
gene 1 15 12 1.4794709301761049 false 17 1.4794709301761049 true
gene 1 12 20 0.2664259392720497 false 51 0.2664259392720497 true
gene 1 20 13 0.06520555437866898 false 52 0.06520555437866898 true
gene 1 5 15 0.828426540340647 false 85 0.828426540340647 true
gene 1 2 14 -0.9939755391363543 false 185 -0.9939755391363543 true
gene 1 8 14 -2.2647454462191074 false 275 -2.2647454462191074 true
gene 1 15 15 -0.2463405248824079 true 390 -0.2463405248824079 true
gene 1 12 265 0.28723989686731577 false 1369 0.28723989686731577 true
gene 1 265 14 0.3562597569875565 false 1370 0.3562597569875565 true
gene 1 11 265 0.5813294031852497 false 2155 0.5813294031852497 true
genomeend 13
/* Organism #10 Fitness: 0.650 Error: 0.350 */
genomestart 10
trait 1 0.06827953087239455 0.6864321764745197 0 0.3268448869683511 1.2396603581861594 0.07614893903394077 0 0.02615437014418904 
node 1 1 1 3
node 2 1 1 1
node 3 1 1 1
node 4 1 1 1
node 5 1 1 1
node 6 1 1 1
node 7 1 1 1
node 8 1 1 1
node 9 1 1 1
node 10 1 1 1
node 11 1 1 1
node 12 1 0 0
node 13 1 0 2
node 14 1 0 2
node 15 1 0 0
node 20 1 0 0
node 265 1 0 0
gene 1 1 12 0.07390863243969271 false 1 0.07390863243969271 true
gene 1 2 12 0.043376571383035856 false 2 0.043376571383035856 true
gene 1 3 12 -0.0047936567153553655 false 3 -0.0047936567153553655 true
gene 1 4 12 1.1930756598280645 false 4 1.1930756598280645 true
gene 1 5 12 -0.6625343659836693 false 5 -0.6625343659836693 true
gene 1 6 12 -0.3347332599567426 false 6 -0.3347332599567426 true
gene 1 7 12 0.9996720321436354 false 7 0.9996720321436354 true
gene 1 8 12 -1.2021404909349436 false 8 -1.2021404909349436 true
gene 1 9 12 -0.49935528238965465 false 9 -0.49935528238965465 true
gene 1 10 12 0.2649448420839546 false 10 0.2649448420839546 true
gene 1 11 12 2.0882393748876997 false 11 2.0882393748876997 true
gene 1 12 13 -3.21084081429411 false 12 -3.21084081429411 true
gene 1 12 14 0.2030101022906104 false 13 0.2030101022906104 true
gene 1 2 15 1.2867973217041222 false 16 1.2867973217041222 true
gene 1 15 12 1.856060844831365 false 17 1.856060844831365 true
gene 1 12 20 0.03896551905171064 false 51 0.03896551905171064 true
gene 1 20 13 -0.5534351151187612 false 52 -0.5534351151187612 true
gene 1 5 15 0.7647184802734628 false 85 0.7647184802734628 true
gene 1 2 14 -0.5218656889246911 false 185 -0.5218656889246911 true
gene 1 8 14 -2.207887916763172 false 275 -2.207887916763172 true
gene 1 15 15 -1.4701083510997661 true 390 -1.4701083510997661 true
gene 1 12 265 1.7286725798097984 false 1369 1.7286725798097984 true
gene 1 265 14 0.04444953066038756 false 1370 0.04444953066038756 true
gene 1 11 265 3.2175138689022353 false 2155 3.2175138689022353 true
genomeend 10
/* Organism #17 Fitness: 0.010 Error: 0.990 */
genomestart 17
trait 1 0.06827953087239455 0.6864321764745197 0 0.3268448869683511 1.2396603581861594 0.07614893903394077 0 0.02615437014418904 
node 1 1 1 3
node 2 1 1 1
node 3 1 1 1
node 4 1 1 1
node 5 1 1 1
node 6 1 1 1
node 7 1 1 1
node 8 1 1 1
node 9 1 1 1
node 10 1 1 1
node 11 1 1 1
node 12 1 0 0
node 13 1 0 2
node 14 1 0 2
node 15 1 0 0
node 20 1 0 0
node 265 1 0 0
gene 1 1 12 0.11355147055899906 false 1 0.11355147055899906 true
gene 1 2 12 -0.6205640342613851 false 2 -0.6205640342613851 true
gene 1 3 12 -0.8088671882099797 false 3 -0.8088671882099797 true
gene 1 4 12 0.5020667897977312 false 4 0.5020667897977312 true
gene 1 5 12 -0.1688779951395672 false 5 -0.1688779951395672 true
gene 1 6 12 0.5002107610583854 false 6 0.5002107610583854 true
gene 1 7 12 1.1045987344736614 false 7 1.1045987344736614 true
gene 1 8 12 -0.3608263433069333 false 8 -0.3608263433069333 true
gene 1 9 12 -0.37039674309513515 false 9 -0.37039674309513515 true
gene 1 10 12 -0.9993925843595473 false 10 -0.9993925843595473 true
gene 1 11 12 2.322733369855666 false 11 2.322733369855666 true
gene 1 12 13 -3.701498101432344 false 12 -3.701498101432344 true
gene 1 12 14 0.012081805316856644 false 13 0.012081805316856644 true
gene 1 2 15 0.39560390456470373 false 16 0.39560390456470373 true
gene 1 15 12 0.18579586840442697 false 17 0.18579586840442697 true
gene 1 12 20 -0.6969654671747223 false 51 -0.6969654671747223 true
gene 1 20 13 0.007930758606315258 false 52 0.007930758606315258 true
gene 1 5 15 0.39993157896323756 false 85 0.39993157896323756 true
gene 1 2 14 -0.5516555225015431 false 185 -0.5516555225015431 true
gene 1 8 14 -0.45343187564922227 false 275 -0.45343187564922227 true
gene 1 15 15 -1.7546658084738573 true 390 -1.7546658084738573 true
gene 1 12 265 0.762967542685251 false 1369 0.762967542685251 true
gene 1 265 14 0.22111071696681123 false 1370 0.22111071696681123 true
gene 1 11 265 3.876937994663707 false 2155 3.876937994663707 true
genomeend 17
/* Organism #12 Fitness: 0.010 Error: 0.990 */
genomestart 12
trait 1 0 0.25248700988519 0 0.3268448869683511 1.2396603581861594 0.07614893903394077 0 0.5177660241317635 
node 1 1 1 3
node 2 1 1 1
node 3 1 1 1
node 4 1 1 1
node 5 1 1 1
node 6 1 1 1
node 7 1 1 1
node 8 1 1 1
node 9 1 1 1
node 10 1 1 1
node 11 1 1 1
node 12 1 0 0
node 13 1 0 2
node 14 1 0 2
node 15 1 0 0
node 20 1 0 0
node 265 1 0 0
gene 1 1 12 -0.660818416743378 false 1 -0.660818416743378 true
gene 1 2 12 -0.20840870563761002 false 2 -0.20840870563761002 true
gene 1 3 12 -0.3332668592066553 false 3 -0.3332668592066553 true
gene 1 4 12 0.44201201706387716 false 4 0.44201201706387716 true
gene 1 5 12 -1.0560496733309774 false 5 -1.0560496733309774 true
gene 1 6 12 -0.38672023042903314 false 6 -0.38672023042903314 true
gene 1 7 12 0.8309810480591072 false 7 0.8309810480591072 true
gene 1 8 12 -0.9952654015068119 false 8 -0.9952654015068119 true
gene 1 9 12 -1.499427192514767 false 9 -1.499427192514767 true
gene 1 10 12 0.4155888045028649 false 10 0.4155888045028649 true
gene 1 11 12 2.178383180907643 false 11 2.178383180907643 true
gene 1 12 13 -3.3073015214678474 false 12 -3.3073015214678474 true
gene 1 12 14 -0.4155373437698107 false 13 -0.4155373437698107 true
gene 1 2 15 0.8156929609287003 false 16 0.8156929609287003 true
gene 1 15 12 0.11184824227910972 false 17 0.11184824227910972 true
gene 1 12 20 -0.5604655404896456 false 51 -0.5604655404896456 true
gene 1 20 13 0.1245311831246666 false 52 0.1245311831246666 true
gene 1 5 15 0.7714646833246686 false 85 0.7714646833246686 true
gene 1 2 14 -0.9748781857383028 false 185 -0.9748781857383028 true
gene 1 8 14 -1.7753681187074408 false 275 -1.7753681187074408 true
gene 1 15 15 -1.492956170224574 true 390 -1.492956170224574 true
gene 1 12 265 0.9507265129625326 false 1369 0.9507265129625326 true
gene 1 265 14 0.08993151407328615 false 1370 0.08993151407328615 true
gene 1 11 265 4.244581678689793 false 2155 4.244581678689793 true
genomeend 12
/* Organism #11 Fitness: 0.010 Error: 0.990 */
genomestart 11
trait 1 0.06827953087239455 0.5667271937476696 0 0.3268448869683511 1.2396603581861594 0.07614893903394077 0 0.02615437014418904 
node 1 1 1 3
node 2 1 1 1
node 3 1 1 1
node 4 1 1 1
node 5 1 1 1
node 6 1 1 1
node 7 1 1 1
node 8 1 1 1
node 9 1 1 1
node 10 1 1 1
node 11 1 1 1
node 12 1 0 0
node 13 1 0 2
node 14 1 0 2
node 15 1 0 0
node 20 1 0 0
node 265 1 0 0
gene 1 1 12 0.025858859330492923 false 1 0.025858859330492923 true
gene 1 2 12 -0.5880251429812625 false 2 -0.5880251429812625 true
gene 1 3 12 -0.23961530682209708 false 3 -0.23961530682209708 true
gene 1 4 12 1.0100604004389573 false 4 1.0100604004389573 true
gene 1 5 12 -0.20596144975224795 false 5 -0.20596144975224795 true
gene 1 6 12 -0.5274941208323264 false 6 -0.5274941208323264 true
gene 1 7 12 0.7663011030320083 false 7 0.7663011030320083 true
gene 1 8 12 -0.856441323540325 false 8 -0.856441323540325 true
gene 1 9 12 -1.4183617453486228 false 9 -1.4183617453486228 true
gene 1 10 12 0.13765366519257444 false 10 0.13765366519257444 true
gene 1 11 12 2.790180434719119 false 11 2.790180434719119 true
gene 1 12 13 -2.7446897297020945 false 12 -2.7446897297020945 true
gene 1 12 14 -0.21741724182170113 false 13 -0.21741724182170113 true
gene 1 2 15 1.2014807245857788 false 16 1.2014807245857788 true
gene 1 15 12 1.587848173739176 false 17 1.587848173739176 true
gene 1 12 20 -0.5750818971813719 false 51 -0.5750818971813719 true
gene 1 20 13 0.30366117439315554 false 52 0.30366117439315554 true
gene 1 5 15 0.5306478458448248 false 85 0.5306478458448248 true
gene 1 2 14 -0.5811806111319728 false 185 -0.5811806111319728 true
gene 1 8 14 -1.3888706417199783 false 275 -1.3888706417199783 true
gene 1 15 15 -0.888297235057904 true 390 -0.888297235057904 true
gene 1 12 265 -0.29530470119216157 false 1369 -0.29530470119216157 true
gene 1 265 14 0.6498320898304109 false 1370 0.6498320898304109 true
gene 1 11 265 3.809742255964425 false 2155 3.809742255964425 true
genomeend 11
/* Species #3 : (Size 3) (AF 0.189) (Age 95)  */
/* Organism #20 Fitness: 0.217 Error: 0.783 */
genomestart 20
trait 1 0.8186540885425138 0.05428479153652199 0.2422642828252758 0.468610269358537 0 0.8679725816116589 0 0.44961671761252703 
node 1 1 1 3
node 2 1 1 1
node 3 1 1 1
node 4 1 1 1
node 5 1 1 1
node 6 1 1 1
node 7 1 1 1
node 8 1 1 1
node 9 1 1 1
node 10 1 1 1
node 11 1 1 1
node 12 1 0 0
node 13 1 0 2
node 14 1 0 2
node 15 1 0 0
node 20 1 0 0
node 23 1 0 0
node 57 1 0 0
node 163 1 0 0
node 174 1 0 0
node 473 1 0 0
node 492 1 0 0
node 499 1 0 0
node 502 1 0 0
gene 1 1 12 1.0214743906780908 false 1 1.0214743906780908 true
gene 1 2 12 0.9949381081419513 false 2 0.9949381081419513 true
gene 1 3 12 -0.1153371916254729 false 3 -0.1153371916254729 true
gene 1 4 12 0.0687421565021391 false 4 0.0687421565021391 true
gene 1 5 12 -0.8997578339866389 false 5 -0.8997578339866389 true
gene 1 6 12 0.46784724462007676 false 6 0.46784724462007676 true
gene 1 7 12 -1.5445482034393314 false 7 -1.5445482034393314 true
gene 1 8 12 -0.8279408962908816 false 8 -0.8279408962908816 true
gene 1 9 12 -0.9502589388075782 false 9 -0.9502589388075782 true
gene 1 10 12 2.4358445372775606 false 10 2.4358445372775606 true
gene 1 11 12 -1.081869869261968 false 11 -1.081869869261968 true
gene 1 12 13 -0.6231888384618316 false 12 -0.6231888384618316 true
gene 1 12 14 -1.6704133139599728 false 13 -1.6704133139599728 true
gene 1 2 15 1.5476141585819894 false 16 1.5476141585819894 true
gene 1 15 12 -1.0100066975812252 false 17 -1.0100066975812252 true
gene 1 12 20 -0.9238426451182458 false 51 -0.9238426451182458 true
gene 1 20 13 -0.598414012612158 false 52 -0.598414012612158 true
gene 1 10 23 -0.1974593930596918 false 61 -0.1974593930596918 true
gene 1 23 12 -0.9186389418398532 false 62 -0.9186389418398532 true
gene 1 3 20 -1.294891872064612 false 145 -1.294891872064612 true
gene 1 2 57 0.8292900651298616 false 281 0.8292900651298616 true
gene 1 57 15 -1.863178078787961 false 282 -1.863178078787961 true
gene 1 6 57 -0.042360405111370875 false 410 -0.042360405111370875 true
gene 1 3 23 -4.2784114610646125 false 439 -4.2784114610646125 true
gene 1 7 14 1.7347822470498615 false 485 1.7347822470498615 true
gene 1 15 163 -0.26248874010397927 false 785 -0.26248874010397927 true
gene 1 163 12 0.7207039214211224 false 786 0.7207039214211224 true
gene 1 7 15 0.17040417260210217 false 812 0.17040417260210217 true
gene 1 7 174 0.4192082509653845 false 851 0.4192082509653845 true
gene 1 174 15 -0.8539256118947127 false 852 -0.8539256118947127 true
gene 1 163 163 2.1148726599420615 true 1684 2.1148726599420615 true
gene 1 10 13 1.144063230615866 false 2500 1.144063230615866 true
gene 1 12 473 0.6117645111938279 false 2525 0.6117645111938279 true
gene 1 473 20 -1.354798977756424 false 2526 -1.354798977756424 true
gene 1 8 492 1.2728291280554869 false 2618 1.2728291280554869 true
gene 1 492 12 -0.44474898242360256 false 2619 -0.44474898242360256 true
gene 1 492 499 0.4102282060812525 false 2644 0.4102282060812525 true
gene 1 499 12 -1.5123996663057717 false 2645 -1.5123996663057717 true
gene 1 3 502 1.5251691696937633 false 2667 1.5251691696937633 true
gene 1 502 12 -0.6676286751969505 false 2668 -0.6676286751969505 true
gene 1 3 492 -6.011338925415876 false 2739 -6.011338925415876 true
genomeend 20
/* Organism #18 Fitness: 0.185 Error: 0.815 */
genomestart 18
trait 1 0.8186540885425138 0.05428479153652199 0.2422642828252758 0.468610269358537 0 0.8679725816116589 0 0.44961671761252703 
node 1 1 1 3
node 2 1 1 1
node 3 1 1 1
node 4 1 1 1
node 5 1 1 1
node 6 1 1 1
node 7 1 1 1
node 8 1 1 1
node 9 1 1 1
node 10 1 1 1
node 11 1 1 1
node 12 1 0 0
node 13 1 0 2
node 14 1 0 2
node 15 1 0 0
node 20 1 0 0
node 23 1 0 0
node 57 1 0 0
node 163 1 0 0
node 174 1 0 0
node 473 1 0 0
node 492 1 0 0
node 499 1 0 0
node 502 1 0 0
gene 1 1 12 0.6886444539047113 false 1 0.6886444539047113 true
gene 1 2 12 0.9717780312017605 false 2 0.9717780312017605 true
gene 1 3 12 -0.2686808107507582 false 3 -0.2686808107507582 true
gene 1 4 12 0.775681989142838 false 4 0.775681989142838 true
gene 1 5 12 -0.6765883301243578 false 5 -0.6765883301243578 true
gene 1 6 12 0.32888325637857885 false 6 0.32888325637857885 true
gene 1 7 12 -1.0639390611277175 false 7 -1.0639390611277175 true
gene 1 8 12 -1.4234591591724004 false 8 -1.4234591591724004 true
gene 1 9 12 -1.3249998378184948 false 9 -1.3249998378184948 true
gene 1 10 12 1.916057764211582 false 10 1.916057764211582 true
gene 1 11 12 -0.8097108106407817 false 11 -0.8097108106407817 true
gene 1 12 13 -0.1378848687506275 false 12 -0.1378848687506275 true
gene 1 12 14 -1.1283839807656855 false 13 -1.1283839807656855 true
gene 1 2 15 1.739135334037305 false 16 1.739135334037305 true
gene 1 15 12 -1.4046321954547 false 17 -1.4046321954547 true
gene 1 12 20 -0.3282487473847968 false 51 -0.3282487473847968 true
gene 1 20 13 -1.20881023892855 false 52 -1.20881023892855 true
gene 1 10 23 -0.9669885242809151 false 61 -0.9669885242809151 true
gene 1 23 12 -1.5332537947311873 false 62 -1.5332537947311873 true
gene 1 3 20 -1.1423973491514519 false 145 -1.1423973491514519 true
gene 1 2 57 0.3082169304893133 false 281 0.3082169304893133 true
gene 1 57 15 -1.6129706652878686 false 282 -1.6129706652878686 true
gene 1 6 57 -0.0736110227134226 false 410 -0.0736110227134226 true
gene 1 3 23 -4.5273222043717105 false 439 -4.5273222043717105 true
gene 1 7 14 1.0486692679944993 false 485 1.0486692679944993 true
gene 1 15 163 -0.911276862308533 false 785 -0.911276862308533 true
gene 1 163 12 1.3614706506476792 false 786 1.3614706506476792 true
gene 1 7 15 0.883063696996588 false 812 0.883063696996588 true
gene 1 7 174 0.2646523669522093 false 851 0.2646523669522093 true
gene 1 174 15 -0.8441257238064177 false 852 -0.8441257238064177 true
gene 1 163 163 2.136783365425466 true 1684 2.136783365425466 true
gene 1 10 13 1.2370641533081492 false 2500 1.2370641533081492 true
gene 1 12 473 0.6135277175858033 false 2525 0.6135277175858033 true
gene 1 473 20 -1.354798977756424 false 2526 -1.354798977756424 true
gene 1 8 492 1.2728291280554869 false 2618 1.2728291280554869 true
gene 1 492 12 -0.44474898242360256 false 2619 -0.44474898242360256 true
gene 1 492 499 0.4102282060812525 false 2644 0.4102282060812525 true
gene 1 499 12 -0.4476651008378203 false 2645 -0.4476651008378203 true
gene 1 3 502 1.5424596435602622 false 2667 1.5424596435602622 true
gene 1 502 12 -0.6676286751969505 false 2668 -0.6676286751969505 true
gene 1 3 492 -6.011338925415876 false 2739 -6.011338925415876 true
genomeend 18
/* Organism #19 Fitness: 0.165 Error: 0.835 */
genomestart 19
trait 1 0.8186540885425138 0.05428479153652199 0.2422642828252758 0.468610269358537 0 0.8679725816116589 0 0.44961671761252703 
node 1 1 1 3
node 2 1 1 1
node 3 1 1 1
node 4 1 1 1
node 5 1 1 1
node 6 1 1 1
node 7 1 1 1
node 8 1 1 1
node 9 1 1 1
node 10 1 1 1
node 11 1 1 1
node 12 1 0 0
node 13 1 0 2
node 14 1 0 2
node 15 1 0 0
node 20 1 0 0
node 23 1 0 0
node 57 1 0 0
node 163 1 0 0
node 174 1 0 0
node 473 1 0 0
node 492 1 0 0
node 499 1 0 0
node 502 1 0 0
gene 1 1 12 1.7521779351927114 false 1 1.7521779351927114 true
gene 1 2 12 0.8919155485786056 false 2 0.8919155485786056 true
gene 1 3 12 -0.11188019653154102 false 3 -0.11188019653154102 true
gene 1 4 12 -0.3576911952581986 false 4 -0.3576911952581986 true
gene 1 5 12 0.7484657637340496 false 5 0.7484657637340496 true
gene 1 6 12 0.23241313781162395 false 6 0.23241313781162395 true
gene 1 7 12 -0.3992914977552102 false 7 -0.3992914977552102 true
gene 1 8 12 -1.5474307455697751 false 8 -1.5474307455697751 true
gene 1 9 12 -0.21539242966948602 false 9 -0.21539242966948602 true
gene 1 10 12 0.7472093206710837 false 10 0.7472093206710837 true
gene 1 11 12 -1.7070321894576617 false 11 -1.7070321894576617 true
gene 1 12 13 -0.024345976174513395 false 12 -0.024345976174513395 true
gene 1 12 14 -1.6704133139599728 false 13 -1.6704133139599728 true
gene 1 2 15 -0.22466234995119178 false 16 -0.22466234995119178 true
gene 1 15 12 -0.6674778156116332 false 17 -0.6674778156116332 true
gene 1 12 20 -0.8778272371293723 false 51 -0.8778272371293723 true
gene 1 20 13 0.18565760754670874 false 52 0.18565760754670874 true
gene 1 10 23 0.0033155865463052048 false 61 0.0033155865463052048 true
gene 1 23 12 -1.1169513234349269 false 62 -1.1169513234349269 true
gene 1 3 20 -0.936712907918134 false 145 -0.936712907918134 true
gene 1 2 57 1.1866150964372872 false 281 1.1866150964372872 true
gene 1 57 15 -1.4464391896105133 false 282 -1.4464391896105133 true
gene 1 6 57 -0.042360405111370875 false 410 -0.042360405111370875 true
gene 1 3 23 -3.5860912798447693 false 439 -3.5860912798447693 true
gene 1 7 14 2.260750555613657 false 485 2.260750555613657 true
gene 1 15 163 -0.321909661375533 false 785 -0.321909661375533 true
gene 1 163 12 0.6737474059320484 false 786 0.6737474059320484 true
gene 1 7 15 0.8581971180531145 false 812 0.8581971180531145 true
gene 1 7 174 0.20657570269108586 false 851 0.20657570269108586 true
gene 1 174 15 -0.8539256118947127 false 852 -0.8539256118947127 true
gene 1 163 163 2.00389106103826 true 1684 2.00389106103826 true
gene 1 10 13 1.339742877689657 false 2500 1.339742877689657 true
gene 1 12 473 0.3123981813858321 false 2525 0.3123981813858321 true
gene 1 473 20 -0.6380873936040166 false 2526 -0.6380873936040166 true
gene 1 8 492 1.1806275201214353 false 2618 1.1806275201214353 true
gene 1 492 12 -0.22173101037302784 false 2619 -0.22173101037302784 true
gene 1 492 499 1.0677723523046228 false 2644 1.0677723523046228 true
gene 1 499 12 -0.8685020011251099 false 2645 -0.8685020011251099 true
gene 1 3 502 0.9623707557846723 false 2667 0.9623707557846723 true
gene 1 502 12 -1.1370411480654476 false 2668 -1.1370411480654476 true
gene 1 3 492 -6.546511121906079 false 2739 -6.546511121906079 true
genomeend 19
/* Species #4 : (Size 2) (AF 0.254) (Age 93)  */
/* Organism #22 Fitness: 0.254 Error: 0.746 */
genomestart 22
trait 1 0.7425355427847979 0 0 0 0.2150502127074828 1.618754771192213 0 0.6751338451243638 
node 1 1 1 3
node 2 1 1 1
node 3 1 1 1
node 4 1 1 1
node 5 1 1 1
node 6 1 1 1
node 7 1 1 1
node 8 1 1 1
node 9 1 1 1
node 10 1 1 1
node 11 1 1 1
node 12 1 0 0
node 13 1 0 2
node 14 1 0 2
node 15 1 0 0
node 20 1 0 0
node 296 1 0 0
node 445 1 0 0
gene 1 1 12 3.832953746947933 false 1 3.832953746947933 true
gene 1 2 12 -0.9002336526132353 false 2 -0.9002336526132353 true
gene 1 3 12 0.7384805220385768 false 3 0.7384805220385768 true
gene 1 4 12 -1.004928881343029 false 4 -1.004928881343029 true
gene 1 5 12 0.07760904691690185 false 5 0.07760904691690185 true
gene 1 6 12 2.1135882553034375 false 6 2.1135882553034375 true
gene 1 7 12 1.0589437325008062 false 7 1.0589437325008062 true
gene 1 8 12 0.9629030160562192 false 8 0.9629030160562192 true
gene 1 9 12 -0.4856908381726628 false 9 -0.4856908381726628 true
gene 1 10 12 -0.5365880093720021 false 10 -0.5365880093720021 true
gene 1 11 12 0.5085231435535388 false 11 0.5085231435535388 true
gene 1 12 13 -2.3102715205772757 false 12 -2.3102715205772757 true
gene 1 12 14 2.983291900423569 false 13 2.983291900423569 true
gene 1 2 15 2.345574265472683 false 16 2.345574265472683 true
gene 1 15 12 1.7736450159220039 false 17 1.7736450159220039 true
gene 1 12 20 0.10435681018799799 false 51 0.10435681018799799 true
gene 1 20 13 0.5081078400475512 false 52 0.5081078400475512 true
gene 1 4 20 -0.7716843985342483 false 75 -0.7716843985342483 true
gene 1 7 13 -0.5042504354328007 false 128 -0.5042504354328007 true
gene 1 13 14 4.376485958677159 false 270 4.376485958677159 true
gene 1 2 296 1.3306094673904536 false 1513 1.3306094673904536 true
gene 1 296 12 0.02180583817682602 false 1514 0.02180583817682602 true
gene 1 13 13 -0.4369630016752507 true 1741 -0.4369630016752507 true
gene 1 12 445 -1.1507293427382947 false 2356 -1.1507293427382947 true
gene 1 445 20 0.018697442596412178 false 2357 0.018697442596412178 true
gene 1 445 14 -9.421826599965211 false 2572 -9.421826599965211 true
gene 1 15 15 -1.2289023236526035 true 2696 -1.2289023236526035 true
genomeend 22
/* Organism #21 Fitness: 0.253 Error: 0.747 */
genomestart 21
trait 1 0.7425355427847979 0 0 0 0.2150502127074828 1.618754771192213 0 0.6751338451243638 
node 1 1 1 3
node 2 1 1 1
node 3 1 1 1
node 4 1 1 1
node 5 1 1 1
node 6 1 1 1
node 7 1 1 1
node 8 1 1 1
node 9 1 1 1
node 10 1 1 1
node 11 1 1 1
node 12 1 0 0
node 13 1 0 2
node 14 1 0 2
node 15 1 0 0
node 20 1 0 0
node 296 1 0 0
node 445 1 0 0
gene 1 1 12 3.1035899783736127 false 1 3.1035899783736127 true
gene 1 2 12 -1.0709028070498994 false 2 -1.0709028070498994 true
gene 1 3 12 0.9574645501426781 false 3 0.9574645501426781 true
gene 1 4 12 -1.5669317992481593 false 4 -1.5669317992481593 true
gene 1 5 12 -0.5561406725507585 false 5 -0.5561406725507585 true
gene 1 6 12 2.863769140861891 false 6 2.863769140861891 true
gene 1 7 12 0.27383983122026945 false 7 0.27383983122026945 true
gene 1 8 12 -0.12135096887502372 false 8 -0.12135096887502372 true
gene 1 9 12 -1.8949225154183567 false 9 -1.8949225154183567 true
gene 1 10 12 -0.6374000963226438 false 10 -0.6374000963226438 true
gene 1 11 12 -1.52464835104561 false 11 -1.52464835104561 true
gene 1 12 13 -2.091197759882272 false 12 -2.091197759882272 true
gene 1 12 14 2.2659877258716667 false 13 2.2659877258716667 true
gene 1 2 15 2.5445070755292942 false 16 2.5445070755292942 true
gene 1 15 12 0.8819922370121275 false 17 0.8819922370121275 true
gene 1 12 20 0.6160090821123714 false 51 0.6160090821123714 true
gene 1 20 13 0.4420128196356403 false 52 0.4420128196356403 true
gene 1 4 20 -1.6555753629230066 false 75 -1.6555753629230066 true
gene 1 7 13 -1.3305876785392188 false 128 -1.3305876785392188 true
gene 1 13 14 4.544849135161659 false 270 4.544849135161659 true
gene 1 2 296 0.6690889099824465 false 1513 0.6690889099824465 true
gene 1 296 12 -1.097651927527859 false 1514 -1.097651927527859 true
gene 1 13 13 -0.6250266357541676 true 1741 -0.6250266357541676 true
gene 1 12 445 -1.1507293427382947 false 2356 -1.1507293427382947 true
gene 1 445 20 0.185691579120117 false 2357 0.185691579120117 true
gene 1 445 14 -10.352902678013917 false 2572 -10.352902678013917 true
gene 1 15 15 -1.5303215005482773 true 2696 -1.5303215005482773 true
genomeend 21
/* Species #5 : (Size 5) (AF 0.282) (Age 92)  */
/* Organism #27 Fitness: 0.692 Error: 0.308 */
genomestart 27
trait 1 0.17344511052972666 0.2347515123249497 0.01172054082508731 0.8510918627453878 0.2131723522657351 0.06988942242245907 0.6644003942811585 0.3592834421163248 
node 1 1 1 3
node 2 1 1 1
node 3 1 1 1
node 4 1 1 1
node 5 1 1 1
node 6 1 1 1
node 7 1 1 1
node 8 1 1 1
node 9 1 1 1
node 10 1 1 1
node 11 1 1 1
node 12 1 0 0
node 13 1 0 2
node 14 1 0 2
node 44 1 0 0
gene 1 1 12 -0.35398261715023105 false 1 -0.35398261715023105 true
gene 1 2 12 -0.604580287241707 false 2 -0.604580287241707 true
gene 1 3 12 -0.07857208848873753 false 3 -0.07857208848873753 true
gene 1 4 12 -1.5779320824257481 false 4 -1.5779320824257481 true
gene 1 5 12 -0.36763564179668196 false 5 -0.36763564179668196 true
gene 1 6 12 -0.09524509573548451 false 6 -0.09524509573548451 true
gene 1 7 12 -0.12767029829078402 false 7 -0.12767029829078402 true
gene 1 8 12 -1.1370570094049604 false 8 -1.1370570094049604 true
gene 1 9 12 0.8713576861519052 false 9 0.8713576861519052 true
gene 1 10 12 2.66532011795765 false 10 2.66532011795765 true
gene 1 11 12 -0.4247684279272844 false 11 -0.4247684279272844 true
gene 1 12 13 -1.5068505710274624 false 12 -1.5068505710274624 true
gene 1 12 14 0.46808262773365905 false 13 0.46808262773365905 true
gene 1 8 14 -0.3946367396135041 false 125 -0.3946367396135041 true
gene 1 2 13 -1.0225424604077002 false 134 -1.0225424604077002 true
gene 1 8 44 2.6892329413350304 false 207 2.6892329413350304 true
gene 1 44 12 0.012555462646645088 false 208 0.012555462646645088 true
gene 1 3 13 0.03975990483001954 false 228 0.03975990483001954 true
gene 1 9 14 -8.331742073294812 false 309 -8.331742073294812 true
genomeend 27
/* Organism #25 Fitness: 0.686 Error: 0.314 */
genomestart 25
trait 1 0.17344511052972666 0.2347515123249497 0.01172054082508731 0.8510918627453878 0.2131723522657351 0.06988942242245907 0.6644003942811585 0.3592834421163248 
node 1 1 1 3
node 2 1 1 1
node 3 1 1 1
node 4 1 1 1
node 5 1 1 1
node 6 1 1 1
node 7 1 1 1
node 8 1 1 1
node 9 1 1 1
node 10 1 1 1
node 11 1 1 1
node 12 1 0 0
node 13 1 0 2
node 14 1 0 2
node 44 1 0 0
gene 1 1 12 -0.2896166359278836 false 1 -0.2896166359278836 true
gene 1 2 12 -1.0534773452360278 false 2 -1.0534773452360278 true
gene 1 3 12 -0.2559201208185127 false 3 -0.2559201208185127 true
gene 1 4 12 -1.391364847487484 false 4 -1.391364847487484 true
gene 1 5 12 -0.027189411928413426 false 5 -0.027189411928413426 true
gene 1 6 12 0.031245271871999034 false 6 0.031245271871999034 true
gene 1 7 12 -0.4597916093192445 false 7 -0.4597916093192445 true
gene 1 8 12 -2.0533725437874164 false 8 -2.0533725437874164 true
gene 1 9 12 -0.13706175932649634 false 9 -0.13706175932649634 true
gene 1 10 12 2.2067992374826213 false 10 2.2067992374826213 true
gene 1 11 12 -0.870312336625656 false 11 -0.870312336625656 true
gene 1 12 13 -0.9994262256507875 false 12 -0.9994262256507875 true
gene 1 12 14 1.3344678667859187 false 13 1.3344678667859187 true
gene 1 8 14 -0.650892625927718 false 125 -0.650892625927718 true
gene 1 2 13 -0.07336075588331006 false 134 -0.07336075588331006 true
gene 1 8 44 2.7109447086790723 false 207 2.7109447086790723 true
gene 1 44 12 -0.6839792910262192 false 208 -0.6839792910262192 true
gene 1 3 13 -3.7064997151240644 false 228 -3.7064997151240644 true
gene 1 9 14 -7.643114489315303 false 309 -7.643114489315303 true
genomeend 25
/* Organism #24 Fitness: 0.010 Error: 0.990 */
genomestart 24
trait 1 0.062156547757023985 0 0 1.4432688391839992 0 0.06988942242245907 0.45315554286531323 0.6474708359100594 
node 1 1 1 3
node 2 1 1 1
node 3 1 1 1
node 4 1 1 1
node 5 1 1 1
node 6 1 1 1
node 7 1 1 1
node 8 1 1 1
node 9 1 1 1
node 10 1 1 1
node 11 1 1 1
node 12 1 0 0
node 13 1 0 2
node 14 1 0 2
node 44 1 0 0
gene 1 1 12 -1.2746197811205977 false 1 -1.2746197811205977 true
gene 1 2 12 -0.43917729504228487 false 2 -0.43917729504228487 true
gene 1 3 12 -1.1851267715048635 false 3 -1.1851267715048635 true
gene 1 4 12 -1.4430846942912359 false 4 -1.4430846942912359 true
gene 1 5 12 0.24590232777220375 false 5 0.24590232777220375 true
gene 1 6 12 0.3362488214008317 false 6 0.3362488214008317 true
gene 1 7 12 -0.1427054643016502 false 7 -0.1427054643016502 true
gene 1 8 12 0.15360175296675732 false 8 0.15360175296675732 true
gene 1 9 12 -0.2508955041969145 false 9 -0.2508955041969145 true
gene 1 10 12 3.4787711920330335 false 10 3.4787711920330335 true
gene 1 11 12 -0.9687183595157394 false 11 -0.9687183595157394 true
gene 1 12 13 -0.8137448144573101 false 12 -0.8137448144573101 true
gene 1 12 14 0.6151426351366308 false 13 0.6151426351366308 false
gene 1 8 14 -1.0371731940198774 false 125 -1.0371731940198774 true
gene 1 2 13 0.14664788202143303 false 134 0.14664788202143303 true
gene 1 8 44 2.7782436000451796 false 207 2.7782436000451796 true
gene 1 44 12 -0.7154265359329887 false 208 -0.7154265359329887 true
gene 1 3 13 -3.1187827345812846 false 228 -3.1187827345812846 true
gene 1 9 14 -9.12393180202258 false 309 -9.12393180202258 true
genomeend 24
/* Organism #26 Fitness: 0.010 Error: 0.990 */
genomestart 26
trait 1 0.062156547757023985 0.19110565700719934 0.01562738776678308 0.6294621828586964 0 0.06988942242245907 0.45315554286531323 0.3592834421163248 
node 1 1 1 3
node 2 1 1 1
node 3 1 1 1
node 4 1 1 1
node 5 1 1 1
node 6 1 1 1
node 7 1 1 1
node 8 1 1 1
node 9 1 1 1
node 10 1 1 1
node 11 1 1 1
node 12 1 0 0
node 13 1 0 2
node 14 1 0 2
node 44 1 0 0
gene 1 1 12 -0.58400352113204 false 1 -0.58400352113204 true
gene 1 2 12 -0.4950035781022659 false 2 -0.4950035781022659 true
gene 1 3 12 -0.8421667730239424 false 3 -0.8421667730239424 true
gene 1 4 12 -1.3992877277294562 false 4 -1.3992877277294562 true
gene 1 5 12 0.6267514142885394 false 5 0.6267514142885394 true
gene 1 6 12 -0.3496730390890548 false 6 -0.3496730390890548 true
gene 1 7 12 0.25422312070632497 false 7 0.25422312070632497 true
gene 1 8 12 -0.9163657408702196 false 8 -0.9163657408702196 true
gene 1 9 12 0.7325744555120809 false 9 0.7325744555120809 true
gene 1 10 12 3.56842864316182 false 10 3.56842864316182 true
gene 1 11 12 -0.4037284115872968 false 11 -0.4037284115872968 true
gene 1 12 13 -0.5145312324044993 false 12 -0.5145312324044993 true
gene 1 12 14 -0.19549215210097826 false 13 -0.19549215210097826 true
gene 1 8 14 -0.947178372110344 false 125 -0.947178372110344 true
gene 1 2 13 -1.1248233039794737 false 134 -1.1248233039794737 true
gene 1 8 44 1.4891841405857598 false 207 1.4891841405857598 true
gene 1 44 12 0.3159559477119049 false 208 0.3159559477119049 true
gene 1 3 13 -0.42641426664941423 false 228 -0.42641426664941423 true
gene 1 9 14 -8.331742073294812 false 309 -8.331742073294812 true
genomeend 26
/* Organism #23 Fitness: 0.010 Error: 0.990 */
genomestart 23
trait 1 0.11780082914337532 0.2129285846660745 0.013673964295935197 0.7402770228020421 0.10658617613286755 0.06988942242245907 0.5587779685732359 0.3592834421163248 
node 1 1 1 3
node 2 1 1 1
node 3 1 1 1
node 4 1 1 1
node 5 1 1 1
node 6 1 1 1
node 7 1 1 1
node 8 1 1 1
node 9 1 1 1
node 10 1 1 1
node 11 1 1 1
node 12 1 0 0
node 13 1 0 2
node 14 1 0 2
node 44 1 0 0
gene 1 1 12 -0.43312746134860636 false 1 -0.43312746134860636 true
gene 1 2 12 -0.20041337782175128 false 2 -0.20041337782175128 true
gene 1 3 12 -0.6610874095552124 false 3 -0.6610874095552124 true
gene 1 4 12 -1.793122758472188 false 4 -1.793122758472188 true
gene 1 5 12 -0.602364052302252 false 5 -0.602364052302252 true
gene 1 6 12 0.6130061112063447 false 6 0.6130061112063447 true
gene 1 7 12 0.07406658345230009 false 7 0.07406658345230009 true
gene 1 8 12 -0.5327678536061281 false 8 -0.5327678536061281 true
gene 1 9 12 0.14433002113355253 false 9 0.14433002113355253 true
gene 1 10 12 3.356374268801406 false 10 3.356374268801406 true
gene 1 11 12 -1.0525087168110179 false 11 -1.0525087168110179 true
gene 1 12 13 -0.7611292991835303 false 12 -0.7611292991835303 true
gene 1 12 14 -0.5159638892107209 false 13 -0.5159638892107209 true
gene 1 8 14 -0.0944541097400474 false 125 -0.0944541097400474 true
gene 1 2 13 -0.5316392611074076 false 134 -0.5316392611074076 true
gene 1 8 44 1.9201941353269347 false 207 1.9201941353269347 true
gene 1 44 12 -0.8610160324392038 false 208 -0.8610160324392038 true
gene 1 3 13 -3.2315085476737875 false 228 -3.2315085476737875 true
gene 1 9 14 -8.054164729873259 false 309 -8.054164729873259 true
genomeend 23
/* Species #7 : (Size 9) (AF 0.505) (Age 90)  */
/* Organism #31 Fitness: 0.686 Error: 0.314 */
genomestart 31
trait 1 0 0 0.953886855995108 0.7762134183930745 0.5967004848585532 0.13101058426901263 0 0.06825026803080053 
node 1 1 1 3
node 2 1 1 1
node 3 1 1 1
node 4 1 1 1
node 5 1 1 1
node 6 1 1 1
node 7 1 1 1
node 8 1 1 1
node 9 1 1 1
node 10 1 1 1
node 11 1 1 1
node 12 1 0 0
node 13 1 0 2
node 14 1 0 2
gene 1 1 12 -0.24442590954908205 false 1 -0.24442590954908205 true
gene 1 2 12 1.0616847480441036 false 2 1.0616847480441036 true
gene 1 3 12 -0.2981368981915395 false 3 -0.2981368981915395 true
gene 1 4 12 0.3937469974995108 false 4 0.3937469974995108 true
gene 1 5 12 0.02875845448759845 false 5 0.02875845448759845 true
gene 1 6 12 0.6768625750265631 false 6 0.6768625750265631 true
gene 1 7 12 -0.07846959545671173 false 7 -0.07846959545671173 true
gene 1 8 12 1.3999148881692922 false 8 1.3999148881692922 true
gene 1 9 12 -1.7583258238804331 false 9 -1.7583258238804331 true
gene 1 10 12 -0.7214908670786981 false 10 -0.7214908670786981 true
gene 1 11 12 -0.034952445397843146 false 11 -0.034952445397843146 true
gene 1 12 13 -1.267247290643266 false 12 -1.267247290643266 true
gene 1 12 14 0.710365222801343 false 13 0.710365222801343 true
gene 1 8 14 -2.047930024866296 false 125 -2.047930024866296 true
gene 1 5 13 0.7179298517912052 false 179 0.7179298517912052 true
gene 1 6 13 -8.382863055839943 false 296 -8.382863055839943 true
gene 1 7 13 0.7376562330179278 false 456 0.7376562330179278 true
gene 1 11 13 -3.783250996198583 false 2762 -3.783250996198583 true
genomeend 31
/* Organism #28 Fitness: 0.686 Error: 0.314 */
genomestart 28
trait 1 0 0 0.953886855995108 0.7762134183930745 0.5967004848585532 0.13101058426901263 0 0.06825026803080053 
node 1 1 1 3
node 2 1 1 1
node 3 1 1 1
node 4 1 1 1
node 5 1 1 1
node 6 1 1 1
node 7 1 1 1
node 8 1 1 1
node 9 1 1 1
node 10 1 1 1
node 11 1 1 1
node 12 1 0 0
node 13 1 0 2
node 14 1 0 2
gene 1 1 12 -0.24442590954908205 false 1 -0.24442590954908205 true
gene 1 2 12 1.0616847480441036 false 2 1.0616847480441036 true
gene 1 3 12 -0.2981368981915395 false 3 -0.2981368981915395 true
gene 1 4 12 0.3937469974995108 false 4 0.3937469974995108 true
gene 1 5 12 0.02875845448759845 false 5 0.02875845448759845 true
gene 1 6 12 0.6768625750265631 false 6 0.6768625750265631 true
gene 1 7 12 -0.07846959545671173 false 7 -0.07846959545671173 true
gene 1 8 12 1.3999148881692922 false 8 1.3999148881692922 true
gene 1 9 12 -1.7583258238804331 false 9 -1.7583258238804331 true
gene 1 10 12 -0.7214908670786981 false 10 -0.7214908670786981 true
gene 1 11 12 -0.034952445397843146 false 11 -0.034952445397843146 true
gene 1 12 13 -1.267247290643266 false 12 -1.267247290643266 true
gene 1 12 14 0.710365222801343 false 13 0.710365222801343 true
gene 1 8 14 -2.047930024866296 false 125 -2.047930024866296 true
gene 1 5 13 0.7179298517912052 false 179 0.7179298517912052 true
gene 1 6 13 -8.382863055839943 false 296 -8.382863055839943 true
gene 1 7 13 0.7376562330179278 false 456 0.7376562330179278 true
gene 1 11 13 -3.783250996198583 false 2762 -3.783250996198583 true
genomeend 28
/* Organism #34 Fitness: 0.686 Error: 0.314 */
genomestart 34
trait 1 0 0 0.953886855995108 0.7762134183930745 0.5967004848585532 0.13101058426901263 0 0.06825026803080053 
node 1 1 1 3
node 2 1 1 1
node 3 1 1 1
node 4 1 1 1
node 5 1 1 1
node 6 1 1 1
node 7 1 1 1
node 8 1 1 1
node 9 1 1 1
node 10 1 1 1
node 11 1 1 1
node 12 1 0 0
node 13 1 0 2
node 14 1 0 2
gene 1 1 12 0.2835700745340535 false 1 0.2835700745340535 true
gene 1 2 12 0.30745550333917127 false 2 0.30745550333917127 true
gene 1 3 12 -0.9584289967356596 false 3 -0.9584289967356596 true
gene 1 4 12 -0.11276622976508333 false 4 -0.11276622976508333 true
gene 1 5 12 0.02875845448759845 false 5 0.02875845448759845 true
gene 1 6 12 0.2740660965035161 false 6 0.2740660965035161 true
gene 1 7 12 0.5461332318872281 false 7 0.5461332318872281 true
gene 1 8 12 0.7748512980407818 false 8 0.7748512980407818 true
gene 1 9 12 -0.5306287928076999 false 9 -0.5306287928076999 true
gene 1 10 12 -0.7286665280776594 false 10 -0.7286665280776594 true
gene 1 11 12 -0.034952445397843146 false 11 -0.034952445397843146 true
gene 1 12 13 -1.6405926947584897 false 12 -1.6405926947584897 true
gene 1 12 14 0.710365222801343 false 13 0.710365222801343 true
gene 1 8 14 -2.047930024866296 false 125 -2.047930024866296 true
gene 1 5 13 1.3041809051610627 false 179 1.3041809051610627 true
gene 1 6 13 -8.382863055839943 false 296 -8.382863055839943 true
gene 1 7 13 1.1833555538726466 false 456 1.1833555538726466 true
gene 1 11 13 -0.030259465787031866 false 2762 -0.030259465787031866 true
genomeend 34
/* Organism #29 Fitness: 0.654 Error: 0.346 */
genomestart 29
trait 1 0 0 0.953886855995108 0.7762134183930745 0.5967004848585532 0.13101058426901263 0 0.06825026803080053 
node 1 1 1 3
node 2 1 1 1
node 3 1 1 1
node 4 1 1 1
node 5 1 1 1
node 6 1 1 1
node 7 1 1 1
node 8 1 1 1
node 9 1 1 1
node 10 1 1 1
node 11 1 1 1
node 12 1 0 0
node 13 1 0 2
node 14 1 0 2
gene 1 1 12 -0.5078941573077347 false 1 -0.5078941573077347 true
gene 1 2 12 0.5648736618545737 false 2 0.5648736618545737 true
gene 1 3 12 -1.0015521800341605 false 3 -1.0015521800341605 true
gene 1 4 12 0.6804255199718985 false 4 0.6804255199718985 true
gene 1 5 12 0.7356267719255443 false 5 0.7356267719255443 true
gene 1 6 12 1.1566336528673111 false 6 1.1566336528673111 true
gene 1 7 12 -0.03535023952684133 false 7 -0.03535023952684133 true
gene 1 8 12 1.2343286006437637 false 8 1.2343286006437637 true
gene 1 9 12 -1.4451036161487292 false 9 -1.4451036161487292 true
gene 1 10 12 -1.328326164986047 false 10 -1.328326164986047 true
gene 1 11 12 -0.6337323899148876 false 11 -0.6337323899148876 true
gene 1 12 13 -1.1826003066603017 false 12 -1.1826003066603017 true
gene 1 12 14 0.4691421068402926 false 13 0.4691421068402926 true
gene 1 8 14 -1.556960004181477 false 125 -1.556960004181477 true
gene 1 5 13 0.7503962066344313 false 179 0.7503962066344313 true
gene 1 6 13 -8.382863055839943 false 296 -8.382863055839943 true
gene 1 7 13 0.008899530729144385 false 456 0.008899530729144385 true
gene 1 11 13 -3.783250996198583 false 2762 -3.783250996198583 true
genomeend 29
/* Organism #36 Fitness: 0.628 Error: 0.372 */
genomestart 36
trait 1 0 0 0.953886855995108 0.7762134183930745 0.5967004848585532 0.13101058426901263 0 0.06825026803080053 
node 1 1 1 3
node 2 1 1 1
node 3 1 1 1
node 4 1 1 1
node 5 1 1 1
node 6 1 1 1
node 7 1 1 1
node 8 1 1 1
node 9 1 1 1
node 10 1 1 1
node 11 1 1 1
node 12 1 0 0
node 13 1 0 2
node 14 1 0 2
gene 1 1 12 -0.2880773738051715 false 1 -0.2880773738051715 true
gene 1 2 12 0.4676593083239592 false 2 0.4676593083239592 true
gene 1 3 12 0.018733276524094455 false 3 0.018733276524094455 true
gene 1 4 12 0.7010286724070567 false 4 0.7010286724070567 true
gene 1 5 12 -0.7235387711305545 false 5 -0.7235387711305545 true
gene 1 6 12 0.7192848224728828 false 6 0.7192848224728828 true
gene 1 7 12 -0.5709802649564755 false 7 -0.5709802649564755 true
gene 1 8 12 1.3999148881692922 false 8 1.3999148881692922 true
gene 1 9 12 -0.33543907424539965 false 9 -0.33543907424539965 true
gene 1 10 12 -0.15306021755409593 false 10 -0.15306021755409593 true
gene 1 11 12 0.06281037791405454 false 11 0.06281037791405454 true
gene 1 12 13 -1.267247290643266 false 12 -1.267247290643266 true
gene 1 12 14 0.6236630761273675 false 13 0.6236630761273675 true
gene 1 8 14 -1.361672935122343 false 125 -1.361672935122343 true
gene 1 5 13 -0.5265748998428903 false 179 -0.5265748998428903 true
gene 1 6 13 -8.539996648905113 false 296 -8.539996648905113 true
gene 1 7 13 0.7376562330179278 false 456 0.7376562330179278 true
gene 1 11 13 -3.783250996198583 false 2762 -3.783250996198583 true
genomeend 36
/* Organism #30 Fitness: 0.471 Error: 0.529 */
genomestart 30
trait 1 0 0 0.953886855995108 0.7762134183930745 0.5967004848585532 0.13101058426901263 0 0.06825026803080053 
node 1 1 1 3
node 2 1 1 1
node 3 1 1 1
node 4 1 1 1
node 5 1 1 1
node 6 1 1 1
node 7 1 1 1
node 8 1 1 1
node 9 1 1 1
node 10 1 1 1
node 11 1 1 1
node 12 1 0 0
node 13 1 0 2
node 14 1 0 2
gene 1 1 12 0.11412747551696656 false 1 0.11412747551696656 true
gene 1 2 12 1.4736662663566844 false 2 1.4736662663566844 true
gene 1 3 12 -0.0925727144033826 false 3 -0.0925727144033826 true
gene 1 4 12 0.9788084594260631 false 4 0.9788084594260631 true
gene 1 5 12 0.7622024963686087 false 5 0.7622024963686087 true
gene 1 6 12 0.1247331927667662 false 6 0.1247331927667662 true
gene 1 7 12 -0.7778471177156071 false 7 -0.7778471177156071 true
gene 1 8 12 0.7380616082113146 false 8 0.7380616082113146 true
gene 1 9 12 -1.6753072760563088 false 9 -1.6753072760563088 true
gene 1 10 12 -1.2574291989825541 false 10 -1.2574291989825541 true
gene 1 11 12 0.5046484469632809 false 11 0.5046484469632809 true
gene 1 12 13 -1.0598402085193417 false 12 -1.0598402085193417 true
gene 1 12 14 0.7230642825864503 false 13 0.7230642825864503 true
gene 1 8 14 -1.6785726251649178 false 125 -1.6785726251649178 true
gene 1 5 13 1.3522038348298913 false 179 1.3522038348298913 true
gene 1 6 13 -8.382863055839943 false 296 -8.382863055839943 true
gene 1 7 13 0.7376562330179278 false 456 0.7376562330179278 true
gene 1 11 13 -3.0747227131509165 false 2762 -3.0747227131509165 true
genomeend 30
/* Organism #32 Fitness: 0.375 Error: 0.625 */
genomestart 32
trait 1 0 0 0.953886855995108 0.7762134183930745 0.5967004848585532 0.13101058426901263 0 0.06825026803080053 
node 1 1 1 3
node 2 1 1 1
node 3 1 1 1
node 4 1 1 1
node 5 1 1 1
node 6 1 1 1
node 7 1 1 1
node 8 1 1 1
node 9 1 1 1
node 10 1 1 1
node 11 1 1 1
node 12 1 0 0
node 13 1 0 2
node 14 1 0 2
gene 1 1 12 0.2036693037469254 false 1 0.2036693037469254 true
gene 1 2 12 1.4566888489764476 false 2 1.4566888489764476 true
gene 1 3 12 -0.7931213300053146 false 3 -0.7931213300053146 true
gene 1 4 12 0.4356724238863628 false 4 0.4356724238863628 true
gene 1 5 12 0.1654065538571265 false 5 0.1654065538571265 true
gene 1 6 12 -0.5024849030176756 false 6 -0.5024849030176756 true
gene 1 7 12 0.04432215790083241 false 7 0.04432215790083241 true
gene 1 8 12 1.781643420560723 false 8 1.781643420560723 true
gene 1 9 12 -2.107438302425656 false 9 -2.107438302425656 true
gene 1 10 12 0.4034898565636666 false 10 0.4034898565636666 true
gene 1 11 12 -0.816013560303138 false 11 -0.816013560303138 true
gene 1 12 13 -1.438249108417926 false 12 -1.438249108417926 true
gene 1 12 14 1.3146819248032235 false 13 1.3146819248032235 true
gene 1 8 14 -1.9336130071236688 false 125 -1.9336130071236688 true
gene 1 5 13 0.5104700924992855 false 179 0.5104700924992855 true
gene 1 6 13 -0.4894701366410688 false 296 -0.4894701366410688 true
gene 1 7 13 0.4498363114516604 false 456 0.4498363114516604 true
gene 1 11 13 -3.3488770174689737 false 2762 -3.3488770174689737 true
genomeend 32
/* Organism #35 Fitness: 0.353 Error: 0.647 */
genomestart 35
trait 1 0.29177317821866733 0.5146465102798107 0.953886855995108 0.7762134183930745 0.5967004848585532 0.13101058426901263 0 0 
node 1 1 1 3
node 2 1 1 1
node 3 1 1 1
node 4 1 1 1
node 5 1 1 1
node 6 1 1 1
node 7 1 1 1
node 8 1 1 1
node 9 1 1 1
node 10 1 1 1
node 11 1 1 1
node 12 1 0 0
node 13 1 0 2
node 14 1 0 2
gene 1 1 12 0.29882929264629976 false 1 0.29882929264629976 true
gene 1 2 12 0.891123210293686 false 2 0.891123210293686 true
gene 1 3 12 -0.3716786622863478 false 3 -0.3716786622863478 true
gene 1 4 12 0.4741752903676408 false 4 0.4741752903676408 true
gene 1 5 12 -0.3801001185335994 false 5 -0.3801001185335994 true
gene 1 6 12 1.2440819164406691 false 6 1.2440819164406691 true
gene 1 7 12 0.6572079232621917 false 7 0.6572079232621917 true
gene 1 8 12 1.3999148881692922 false 8 1.3999148881692922 true
gene 1 9 12 -1.7583258238804331 false 9 -1.7583258238804331 true
gene 1 10 12 -0.23390370237029495 false 10 -0.23390370237029495 true
gene 1 11 12 -0.7131266780989773 false 11 -0.7131266780989773 true
gene 1 12 13 -1.8252988037132598 false 12 -1.8252988037132598 true
gene 1 12 14 0.6882512762363329 false 13 0.6882512762363329 true
gene 1 8 14 -1.355842525038319 false 125 -1.355842525038319 true
gene 1 5 13 1.0392645843511206 false 179 1.0392645843511206 true
gene 1 6 13 -0.42595120188954855 false 296 -0.42595120188954855 true
gene 1 7 13 -0.45157261849165437 false 456 -0.45157261849165437 true
gene 1 11 13 0.08915028207972689 false 2762 0.08915028207972689 true
genomeend 35
/* Organism #33 Fitness: 0.010 Error: 0.990 */
genomestart 33
trait 1 0 0 0.953886855995108 0.7762134183930745 0.5967004848585532 0.13101058426901263 0 0.06825026803080053 
node 1 1 1 3
node 2 1 1 1
node 3 1 1 1
node 4 1 1 1
node 5 1 1 1
node 6 1 1 1
node 7 1 1 1
node 8 1 1 1
node 9 1 1 1
node 10 1 1 1
node 11 1 1 1
node 12 1 0 0
node 13 1 0 2
node 14 1 0 2
gene 1 1 12 -0.5079511567442542 false 1 -0.5079511567442542 true
gene 1 2 12 0.8658952463426632 false 2 0.8658952463426632 true
gene 1 3 12 -0.5921358813802089 false 3 -0.5921358813802089 true
gene 1 4 12 -0.027607705373009217 false 4 -0.027607705373009217 true
gene 1 5 12 -0.2089905071179804 false 5 -0.2089905071179804 true
gene 1 6 12 0.4187045633306242 false 6 0.4187045633306242 true
gene 1 7 12 0.3504292512517052 false 7 0.3504292512517052 true
gene 1 8 12 1.3999148881692922 false 8 1.3999148881692922 true
gene 1 9 12 -1.459750127713646 false 9 -1.459750127713646 true
gene 1 10 12 -1.423316425084532 false 10 -1.423316425084532 true
gene 1 11 12 -0.19944099411263058 false 11 -0.19944099411263058 true
gene 1 12 13 -0.6960550187005085 false 12 -0.6960550187005085 true
gene 1 12 14 -0.06265842647493118 false 13 -0.06265842647493118 true
gene 1 8 14 -2.426369759805863 false 125 -2.426369759805863 true
gene 1 5 13 1.2924010269136823 false 179 1.2924010269136823 true
gene 1 6 13 -8.401823337769274 false 296 -8.401823337769274 true
gene 1 7 13 0.5922810195021847 false 456 0.5922810195021847 true
gene 1 11 13 0.5767916697005803 false 2762 0.5767916697005803 true
genomeend 33
/* Species #8 : (Size 8) (AF 0.454) (Age 88)  */
/* Organism #37 Fitness: 0.723 Error: 0.277 */
genomestart 37
trait 1 0 0.2614818869138707 0.005824610940548664 0.3581056311487407 0 0.10500529382368273 0.4356123551856383 0.06843190371778608 
node 1 1 1 3
node 2 1 1 1
node 3 1 1 1
node 4 1 1 1
node 5 1 1 1
node 6 1 1 1
node 7 1 1 1
node 8 1 1 1
node 9 1 1 1
node 10 1 1 1
node 11 1 1 1
node 12 1 0 0
node 13 1 0 2
node 14 1 0 2
node 44 1 0 0
node 53 1 0 0
gene 1 1 12 -2.5286163314339403 false 1 -2.5286163314339403 true
gene 1 2 12 -0.5287646322908519 false 2 -0.5287646322908519 true
gene 1 3 12 0.3915902880467933 false 3 0.3915902880467933 true
gene 1 4 12 0.043329834730129524 false 4 0.043329834730129524 true
gene 1 5 12 0.020449490580092527 false 5 0.020449490580092527 true
gene 1 6 12 0.4718262441052219 false 6 0.4718262441052219 true
gene 1 7 12 -0.5789026241061759 false 7 -0.5789026241061759 true
gene 1 8 12 -0.18665687242659026 false 8 -0.18665687242659026 true
gene 1 9 12 0.5270514574510696 false 9 0.5270514574510696 true
gene 1 10 12 2.0348192035818333 false 10 2.0348192035818333 true
gene 1 11 12 -0.21593749701288187 false 11 -0.21593749701288187 true
gene 1 12 13 -0.1593398488528005 false 12 -0.1593398488528005 true
gene 1 12 14 1.1305670416009073 false 13 1.1305670416009073 true
gene 1 8 14 -1.1588434164060812 false 125 -1.1588434164060812 true
gene 1 2 13 -2.2054615506634754 false 134 -2.2054615506634754 true
gene 1 8 44 -0.43396767837551115 false 207 -0.43396767837551115 true
gene 1 44 12 0.33990941654878226 false 208 0.33990941654878226 true
gene 1 3 13 0.08410140093254015 false 228 0.08410140093254015 true
gene 1 3 53 -0.8684372442154873 false 250 -0.8684372442154873 true
gene 1 53 13 0.36091541764528867 false 251 0.36091541764528867 true
gene 1 7 14 1.1803055287738373 false 361 1.1803055287738373 true
gene 1 9 53 0.22995751623948346 false 475 0.22995751623948346 true
gene 1 11 44 -0.5421778756678834 false 508 -0.5421778756678834 true
gene 1 2 53 -0.5481544273890271 false 1248 -0.5481544273890271 true
gene 1 9 13 -5.359186726857354 false 2063 0 true
genomeend 37
/* Organism #44 Fitness: 0.685 Error: 0.315 */
genomestart 44
trait 1 0 0.2614818869138707 0.002912305470274332 0.3581056311487407 0.09542228395139257 0.10500529382368273 0.4356123551856383 0.03421595185889304 
node 1 1 1 3
node 2 1 1 1
node 3 1 1 1
node 4 1 1 1
node 5 1 1 1
node 6 1 1 1
node 7 1 1 1
node 8 1 1 1
node 9 1 1 1
node 10 1 1 1
node 11 1 1 1
node 12 1 0 0
node 13 1 0 2
node 14 1 0 2
node 44 1 0 0
node 53 1 0 0
gene 1 1 12 -2.5286163314339403 false 1 -2.5286163314339403 true
gene 1 2 12 0.4868513474988738 false 2 0.4868513474988738 true
gene 1 3 12 0.7031117245495986 false 3 0.7031117245495986 true
gene 1 4 12 0.28907767447679944 false 4 0.28907767447679944 true
gene 1 5 12 -0.5910685092350849 false 5 -0.5910685092350849 true
gene 1 6 12 0.4718262441052219 false 6 0.4718262441052219 true
gene 1 7 12 -0.2608116481388603 false 7 -0.2608116481388603 true
gene 1 8 12 -0.18665687242659026 false 8 -0.18665687242659026 true
gene 1 9 12 1.4400512676402455 false 9 1.4400512676402455 true
gene 1 10 12 2.876959677314355 false 10 2.876959677314355 true
gene 1 11 12 -0.21593749701288187 false 11 -0.21593749701288187 true
gene 1 12 13 -0.1593398488528005 false 12 -0.1593398488528005 true
gene 1 12 14 1.1305670416009073 false 13 1.1305670416009073 true
gene 1 8 14 -1.1588434164060812 false 125 -1.1588434164060812 true
gene 1 2 13 -2.2681831274511883 false 134 -2.2681831274511883 true
gene 1 8 44 0.3329651416589213 false 207 0.3329651416589213 true
gene 1 44 12 0.33990941654878226 false 208 0.33990941654878226 true
gene 1 3 13 0.08410140093254015 false 228 0.08410140093254015 true
gene 1 3 53 -1.2678346823687097 false 250 -1.2678346823687097 true
gene 1 53 13 0.1352778307112814 false 251 0.1352778307112814 true
gene 1 7 14 1.1803055287738373 false 361 1.1803055287738373 true
gene 1 9 53 0.22995751623948346 false 475 0.22995751623948346 true
gene 1 11 44 -0.5421778756678834 false 508 -0.5421778756678834 true
gene 1 2 53 -0.5481544273890271 false 1248 -0.5481544273890271 true
gene 1 9 13 -5.011856629161667 false 2063 -5.011856629161667 true
genomeend 44
/* Organism #40 Fitness: 0.685 Error: 0.315 */
genomestart 40
trait 1 0 0.2614818869138707 0.002912305470274332 0.3581056311487407 0.09542228395139257 0.10500529382368273 0.4356123551856383 0.03421595185889304 
node 1 1 1 3
node 2 1 1 1
node 3 1 1 1
node 4 1 1 1
node 5 1 1 1
node 6 1 1 1
node 7 1 1 1
node 8 1 1 1
node 9 1 1 1
node 10 1 1 1
node 11 1 1 1
node 12 1 0 0
node 13 1 0 2
node 14 1 0 2
node 44 1 0 0
node 53 1 0 0
gene 1 1 12 -2.5286163314339403 false 1 -2.5286163314339403 true
gene 1 2 12 0.4868513474988738 false 2 0.4868513474988738 true
gene 1 3 12 0.7031117245495986 false 3 0.7031117245495986 true
gene 1 4 12 0.28907767447679944 false 4 0.28907767447679944 true
gene 1 5 12 -0.5910685092350849 false 5 -0.5910685092350849 true
gene 1 6 12 0.4718262441052219 false 6 0.4718262441052219 true
gene 1 7 12 -0.2608116481388603 false 7 -0.2608116481388603 true
gene 1 8 12 -0.18665687242659026 false 8 -0.18665687242659026 true
gene 1 9 12 1.4400512676402455 false 9 1.4400512676402455 true
gene 1 10 12 2.876959677314355 false 10 2.876959677314355 true
gene 1 11 12 -0.21593749701288187 false 11 -0.21593749701288187 true
gene 1 12 13 -0.1593398488528005 false 12 -0.1593398488528005 true
gene 1 12 14 1.1305670416009073 false 13 1.1305670416009073 true
gene 1 8 14 -1.1588434164060812 false 125 -1.1588434164060812 true
gene 1 2 13 -2.2681831274511883 false 134 -2.2681831274511883 true
gene 1 8 44 0.3329651416589213 false 207 0.3329651416589213 true
gene 1 44 12 0.33990941654878226 false 208 0.33990941654878226 true
gene 1 3 13 0.08410140093254015 false 228 0.08410140093254015 true
gene 1 3 53 -1.2678346823687097 false 250 -1.2678346823687097 true
gene 1 53 13 0.1352778307112814 false 251 0.1352778307112814 true
gene 1 7 14 1.1803055287738373 false 361 1.1803055287738373 true
gene 1 9 53 0.22995751623948346 false 475 0.22995751623948346 true
gene 1 11 44 -0.5421778756678834 false 508 -0.5421778756678834 true
gene 1 2 53 -0.5481544273890271 false 1248 -0.5481544273890271 true
gene 1 9 13 -5.011856629161667 false 2063 -5.011856629161667 true
genomeend 40
/* Organism #39 Fitness: 0.567 Error: 0.433 */
genomestart 39
trait 1 0 0.2614818869138707 0.004368458205411498 0.3581056311487407 0.047711141975696286 0.10500529382368273 0.4356123551856383 0.051323927788339566 
node 1 1 1 3
node 2 1 1 1
node 3 1 1 1
node 4 1 1 1
node 5 1 1 1
node 6 1 1 1
node 7 1 1 1
node 8 1 1 1
node 9 1 1 1
node 10 1 1 1
node 11 1 1 1
node 12 1 0 0
node 13 1 0 2
node 14 1 0 2
node 44 1 0 0
node 53 1 0 0
gene 1 1 12 -2.5286163314339403 false 1 -2.5286163314339403 true
gene 1 2 12 -0.5287646322908519 false 2 -0.5287646322908519 true
gene 1 3 12 0.7031117245495986 false 3 0.7031117245495986 true
gene 1 4 12 0.28907767447679944 false 4 0.28907767447679944 true
gene 1 5 12 0.020449490580092527 false 5 0.020449490580092527 true
gene 1 6 12 0.4718262441052219 false 6 0.4718262441052219 true
gene 1 7 12 -0.5789026241061759 false 7 -0.5789026241061759 true
gene 1 8 12 -0.18665687242659026 false 8 -0.18665687242659026 true
gene 1 9 12 1.4400512676402455 false 9 1.4400512676402455 true
gene 1 10 12 2.876959677314355 false 10 2.876959677314355 true
gene 1 11 12 -0.21593749701288187 false 11 -0.21593749701288187 true
gene 1 12 13 -0.1593398488528005 false 12 -0.1593398488528005 true
gene 1 12 14 1.1305670416009073 false 13 1.1305670416009073 true
gene 1 8 14 -1.1588434164060812 false 125 -1.1588434164060812 true
gene 1 2 13 -2.2054615506634754 false 134 -2.2054615506634754 true
gene 1 8 44 0.3329651416589213 false 207 0.3329651416589213 true
gene 1 44 12 0.33990941654878226 false 208 0.33990941654878226 true
gene 1 3 13 0.08410140093254015 false 228 0.08410140093254015 true
gene 1 3 53 -0.8684372442154873 false 250 -0.8684372442154873 true
gene 1 53 13 0.1352778307112814 false 251 0.1352778307112814 false
gene 1 7 14 1.1803055287738373 false 361 1.1803055287738373 true
gene 1 9 53 0.22995751623948346 false 475 0.22995751623948346 true
gene 1 11 44 -0.5421778756678834 false 508 -0.5421778756678834 true
gene 1 2 53 -0.5481544273890271 false 1248 -0.5481544273890271 true
gene 1 9 13 -5.011856629161667 false 2063 -5.011856629161667 true
gene 1 4 44 9.833164329865696 false 2932 9.833164329865696 true
genomeend 39
/* Organism #41 Fitness: 0.376 Error: 0.624 */
genomestart 41
trait 1 0 0.2614818869138707 0.004368458205411498 0.3581056311487407 0.047711141975696286 0.10500529382368273 0.4356123551856383 0.051323927788339566 
node 1 1 1 3
node 2 1 1 1
node 3 1 1 1
node 4 1 1 1
node 5 1 1 1
node 6 1 1 1
node 7 1 1 1
node 8 1 1 1
node 9 1 1 1
node 10 1 1 1
node 11 1 1 1
node 12 1 0 0
node 13 1 0 2
node 14 1 0 2
node 44 1 0 0
node 53 1 0 0
gene 1 1 12 -2.5286163314339403 false 1 -2.5286163314339403 true
gene 1 2 12 -0.5287646322908519 false 2 -0.5287646322908519 true
gene 1 3 12 0.7031117245495986 false 3 0.7031117245495986 true
gene 1 4 12 0.28907767447679944 false 4 0.28907767447679944 true
gene 1 5 12 -0.5910685092350849 false 5 -0.5910685092350849 true
gene 1 6 12 0.4718262441052219 false 6 0.4718262441052219 true
gene 1 7 12 -0.5789026241061759 false 7 -0.5789026241061759 true
gene 1 8 12 -0.18665687242659026 false 8 -0.18665687242659026 true
gene 1 9 12 1.4400512676402455 false 9 1.4400512676402455 true
gene 1 10 12 2.0348192035818333 false 10 2.0348192035818333 true
gene 1 11 12 -0.21593749701288187 false 11 -0.21593749701288187 true
gene 1 12 13 -0.1593398488528005 false 12 -0.1593398488528005 true
gene 1 12 14 1.1305670416009073 false 13 1.1305670416009073 true
gene 1 8 14 -1.1588434164060812 false 125 -1.1588434164060812 true
gene 1 2 13 -2.2681831274511883 false 134 -2.2681831274511883 true
gene 1 8 44 -0.43396767837551115 false 207 -0.43396767837551115 true
gene 1 44 12 0.33990941654878226 false 208 0.33990941654878226 true
gene 1 3 13 0.08410140093254015 false 228 0.08410140093254015 true
gene 1 3 53 -1.2678346823687097 false 250 -1.2678346823687097 true
gene 1 53 13 0.36091541764528867 false 251 0.36091541764528867 false
gene 1 7 14 1.1803055287738373 false 361 1.1803055287738373 true
gene 1 9 53 0.22995751623948346 false 475 0.22995751623948346 true
gene 1 11 44 -0.5421778756678834 false 508 -0.5421778756678834 true
gene 1 2 53 -0.5481544273890271 false 1248 -0.5481544273890271 true
gene 1 9 13 -5.011856629161667 false 2063 -5.011856629161667 true
genomeend 41
/* Organism #43 Fitness: 0.375 Error: 0.625 */
genomestart 43
trait 1 0 0.2614818869138707 0.005824610940548664 0.3581056311487407 0 0.10500529382368273 0.4356123551856383 0.06843190371778608 
node 1 1 1 3
node 2 1 1 1
node 3 1 1 1
node 4 1 1 1
node 5 1 1 1
node 6 1 1 1
node 7 1 1 1
node 8 1 1 1
node 9 1 1 1
node 10 1 1 1
node 11 1 1 1
node 12 1 0 0
node 13 1 0 2
node 14 1 0 2
node 44 1 0 0
node 53 1 0 0
gene 1 1 12 -2.5286163314339403 false 1 -2.5286163314339403 true
gene 1 2 12 -0.5287646322908519 false 2 -0.5287646322908519 true
gene 1 3 12 0.3915902880467933 false 3 0.3915902880467933 true
gene 1 4 12 0.043329834730129524 false 4 0.043329834730129524 true
gene 1 5 12 0.020449490580092527 false 5 0.020449490580092527 true
gene 1 6 12 0.4718262441052219 false 6 0.4718262441052219 true
gene 1 7 12 -0.5789026241061759 false 7 -0.5789026241061759 true
gene 1 8 12 -0.18665687242659026 false 8 -0.18665687242659026 true
gene 1 9 12 0.5270514574510696 false 9 0.5270514574510696 true
gene 1 10 12 2.0348192035818333 false 10 2.0348192035818333 true
gene 1 11 12 -0.21593749701288187 false 11 -0.21593749701288187 true
gene 1 12 13 -0.1593398488528005 false 12 -0.1593398488528005 true
gene 1 12 14 1.1305670416009073 false 13 1.1305670416009073 true
gene 1 8 14 -1.1588434164060812 false 125 -1.1588434164060812 true
gene 1 2 13 -2.2054615506634754 false 134 -2.2054615506634754 true
gene 1 8 44 -0.43396767837551115 false 207 -0.43396767837551115 true
gene 1 44 12 0.33990941654878226 false 208 0.33990941654878226 true
gene 1 3 13 0.08410140093254015 false 228 0.08410140093254015 true
gene 1 3 53 -0.8684372442154873 false 250 -0.8684372442154873 true
gene 1 53 13 0.36091541764528867 false 251 0.36091541764528867 true
gene 1 7 14 1.1803055287738373 false 361 1.1803055287738373 true
gene 1 9 53 0.22995751623948346 false 475 0.22995751623948346 true
gene 1 11 44 -0.5421778756678834 false 508 -0.5421778756678834 true
gene 1 2 53 -0.5481544273890271 false 1248 -0.5481544273890271 true
gene 1 9 13 -5.359186726857354 false 2063 0 true
gene 1 12 12 2.7248282509894772 true 2942 2.7248282509894772 true
genomeend 43
/* Organism #38 Fitness: 0.208 Error: 0.792 */
genomestart 38
trait 1 0 0.2614818869138707 0.005824610940548664 0 0 0.7399950743970418 0 0 
node 1 1 1 3
node 2 1 1 1
node 3 1 1 1
node 4 1 1 1
node 5 1 1 1
node 6 1 1 1
node 7 1 1 1
node 8 1 1 1
node 9 1 1 1
node 10 1 1 1
node 11 1 1 1
node 12 1 0 0
node 13 1 0 2
node 14 1 0 2
node 44 1 0 0
node 53 1 0 0
gene 1 1 12 -2.15942031488823 false 1 -2.15942031488823 true
gene 1 2 12 -0.5287646322908519 false 2 -0.5287646322908519 true
gene 1 3 12 0.06623258291254819 false 3 0.06623258291254819 true
gene 1 4 12 -0.22983549804617798 false 4 -0.22983549804617798 true
gene 1 5 12 0.5532037503476733 false 5 0.5532037503476733 true
gene 1 6 12 0.8072738072337255 false 6 0.8072738072337255 true
gene 1 7 12 -1.1334761274602383 false 7 -1.1334761274602383 true
gene 1 8 12 0.7377374795558092 false 8 0.7377374795558092 true
gene 1 9 12 1.1471954226153902 false 9 1.1471954226153902 true
gene 1 10 12 0.6128514936016032 false 10 0.6128514936016032 true
gene 1 11 12 0.5469969301344729 false 11 0.5469969301344729 true
gene 1 12 13 0.16952251217750197 false 12 0.16952251217750197 true
gene 1 12 14 0.8450236646889382 false 13 0.8450236646889382 true
gene 1 8 14 -0.204224493981395 false 125 -0.204224493981395 true
gene 1 2 13 -0.7616495011986207 false 134 -0.7616495011986207 true
gene 1 8 44 -1.1882459800611513 false 207 -1.1882459800611513 true
gene 1 44 12 0.5454840657462021 false 208 0.5454840657462021 true
gene 1 3 13 0.12928273685676192 false 228 0.12928273685676192 true
gene 1 3 53 -0.9833809499485122 false 250 -0.9833809499485122 true
gene 1 53 13 1.0316569661768114 false 251 1.0316569661768114 true
gene 1 7 14 0.5782972608619991 false 361 0.5782972608619991 true
gene 1 9 53 0.09511049752122362 false 475 0.09511049752122362 true
gene 1 11 44 -0.5522309885692298 false 508 -0.5522309885692298 true
gene 1 2 53 -0.45954366776425115 false 1248 -0.45954366776425115 true
gene 1 9 13 -4.577753402261578 false 2063 -4.577753402261578 true
genomeend 38
/* Organism #42 Fitness: 0.010 Error: 0.990 */
genomestart 42
trait 1 0 0.2614818869138707 0.004368458205411498 0.3581056311487407 0.047711141975696286 0.10500529382368273 0.4356123551856383 0.051323927788339566 
node 1 1 1 3
node 2 1 1 1
node 3 1 1 1
node 4 1 1 1
node 5 1 1 1
node 6 1 1 1
node 7 1 1 1
node 8 1 1 1
node 9 1 1 1
node 10 1 1 1
node 11 1 1 1
node 12 1 0 0
node 13 1 0 2
node 14 1 0 2
node 44 1 0 0
node 53 1 0 0
gene 1 1 12 -2.5286163314339403 false 1 -2.5286163314339403 true
gene 1 2 12 0.4868513474988738 false 2 0.4868513474988738 true
gene 1 3 12 0.3915902880467933 false 3 0.3915902880467933 true
gene 1 4 12 0.28907767447679944 false 4 0.28907767447679944 true
gene 1 5 12 -0.5910685092350849 false 5 -0.5910685092350849 true
gene 1 6 12 0.4718262441052219 false 6 0.4718262441052219 true
gene 1 7 12 -0.5789026241061759 false 7 -0.5789026241061759 true
gene 1 8 12 -0.18665687242659026 false 8 -0.18665687242659026 true
gene 1 9 12 1.4400512676402455 false 9 1.4400512676402455 true
gene 1 10 12 2.876959677314355 false 10 2.876959677314355 true
gene 1 11 12 -0.21593749701288187 false 11 -0.21593749701288187 true
gene 1 12 13 -0.1593398488528005 false 12 -0.1593398488528005 true
gene 1 12 14 1.1305670416009073 false 13 1.1305670416009073 true
gene 1 8 14 -1.1588434164060812 false 125 -1.1588434164060812 true
gene 1 2 13 -2.2054615506634754 false 134 -2.2054615506634754 true
gene 1 8 44 0.3329651416589213 false 207 0.3329651416589213 true
gene 1 44 12 0.33990941654878226 false 208 0.33990941654878226 true
gene 1 3 13 0.08410140093254015 false 228 0.08410140093254015 true
gene 1 3 53 -1.2678346823687097 false 250 -1.2678346823687097 true
gene 1 53 13 0.36091541764528867 false 251 0.36091541764528867 false
gene 1 7 14 1.1803055287738373 false 361 1.1803055287738373 true
gene 1 9 53 0.22995751623948346 false 475 0.22995751623948346 true
gene 1 11 44 -0.5421778756678834 false 508 -0.5421778756678834 true
gene 1 2 53 -0.5481544273890271 false 1248 -0.5481544273890271 true
gene 1 9 13 -5.359186726857354 false 2063 0 true
gene 1 14 14 -8.758597772571424 true 2939 -8.758597772571424 true
genomeend 42
/* Species #9 : (Size 8) (AF 0.428) (Age 88)  */
/* Organism #45 Fitness: 0.766 Error: 0.234 */
genomestart 45
trait 1 0.5381006924463813 0.4141787012131571 0 0.24055838233038815 0.8095356829068934 0.5613170636688587 0 0.06687509533655382 
node 1 1 1 3
node 2 1 1 1
node 3 1 1 1
node 4 1 1 1
node 5 1 1 1
node 6 1 1 1
node 7 1 1 1
node 8 1 1 1
node 9 1 1 1
node 10 1 1 1
node 11 1 1 1
node 12 1 0 0
node 13 1 0 2
node 14 1 0 2
node 15 1 0 0
node 20 1 0 0
node 429 1 0 0
node 435 1 0 0
gene 1 1 12 -0.28769090721448554 false 1 -0.28769090721448554 true
gene 1 2 12 -1.1821657910185104 false 2 -1.1821657910185104 true
gene 1 3 12 0.5668499626989618 false 3 0.5668499626989618 true
gene 1 4 12 -1.2441447413747662 false 4 -1.2441447413747662 true
gene 1 5 12 -0.3201981514957869 false 5 -0.3201981514957869 true
gene 1 6 12 -0.07046194618010332 false 6 -0.07046194618010332 true
gene 1 7 12 -1.7253402222092826 false 7 -1.7253402222092826 true
gene 1 8 12 -1.5348410670786299 false 8 -1.5348410670786299 true
gene 1 9 12 0.6545803726436908 false 9 0.6545803726436908 true
gene 1 10 12 0.987392901778742 false 10 0.987392901778742 true
gene 1 11 12 -0.8920288970114383 false 11 -0.8920288970114383 true
gene 1 12 13 0.6825428059300758 false 12 0.6825428059300758 true
gene 1 12 14 1.448375209218897 false 13 1.448375209218897 true
gene 1 2 15 -0.27916695181389245 false 16 -0.27916695181389245 true
gene 1 15 12 -3.589276939228671 false 17 -3.589276939228671 true
gene 1 12 20 0.6031741147874703 false 51 0.6031741147874703 true
gene 1 20 13 -3.7210089586788535 false 52 -3.7210089586788535 true
gene 1 5 15 -0.16902481530731728 false 85 -0.16902481530731728 true
gene 1 2 14 -2.4032837863009644 false 185 -2.4032837863009644 true
gene 1 7 14 1.3522796698920185 false 219 1.3522796698920185 true
gene 1 3 15 1.5088032261142637 false 235 1.5088032261142637 true
gene 1 20 14 -0.7066226191426166 false 313 -0.7066226191426166 true
gene 1 10 14 0.34569652524081845 false 500 0.34569652524081845 true
gene 1 20 20 -1.9815286493437148 true 557 -1.9815286493437148 true
gene 1 15 15 0.9456899421987124 true 714 0.9456899421987124 true
gene 1 10 15 2.248926120710317 false 1504 2.248926120710317 true
gene 1 4 429 -0.010741292146996984 false 2276 -0.010741292146996984 true
gene 1 429 12 -0.5345268027170484 false 2277 -0.5345268027170484 true
gene 1 15 435 1.1513597367923043 true 2304 1.1513597367923043 true
gene 1 435 15 -0.7566284916125756 false 2305 -0.7566284916125756 true
gene 1 6 435 -3.47945425096125 false 2600 -3.47945425096125 true
gene 1 3 429 2.838896997015907 false 2700 2.838896997015907 true
genomeend 45
/* Organism #48 Fitness: 0.637 Error: 0.363 */
genomestart 48
trait 1 0.5381006924463813 0.4141787012131571 0 0.24055838233038815 0.8095356829068934 0.5613170636688587 0 0.06687509533655382 
node 1 1 1 3
node 2 1 1 1
node 3 1 1 1
node 4 1 1 1
node 5 1 1 1
node 6 1 1 1
node 7 1 1 1
node 8 1 1 1
node 9 1 1 1
node 10 1 1 1
node 11 1 1 1
node 12 1 0 0
node 13 1 0 2
node 14 1 0 2
node 15 1 0 0
node 20 1 0 0
node 429 1 0 0
node 435 1 0 0
gene 1 1 12 -0.4311200451089236 false 1 -0.4311200451089236 true
gene 1 2 12 -1.1821657910185104 false 2 -1.1821657910185104 true
gene 1 3 12 0.7486957525155035 false 3 0.7486957525155035 true
gene 1 4 12 -1.2441447413747662 false 4 -1.2441447413747662 true
gene 1 5 12 -0.3201981514957869 false 5 -0.3201981514957869 true
gene 1 6 12 -0.35936126524388234 false 6 -0.35936126524388234 true
gene 1 7 12 -0.5312809502946143 false 7 -0.5312809502946143 true
gene 1 8 12 -1.4102828275250816 false 8 -1.4102828275250816 true
gene 1 9 12 0.6545803726436908 false 9 0.6545803726436908 true
gene 1 10 12 0.987392901778742 false 10 0.987392901778742 true
gene 1 11 12 -0.8920288970114383 false 11 -0.8920288970114383 true
gene 1 12 13 0.6825428059300758 false 12 0.6825428059300758 true
gene 1 12 14 1.2645935750249966 false 13 1.2645935750249966 true
gene 1 2 15 -0.3270596369662503 false 16 -0.3270596369662503 true
gene 1 15 12 -3.589276939228671 false 17 -3.589276939228671 true
gene 1 12 20 0.6031741147874703 false 51 0.6031741147874703 true
gene 1 20 13 -3.3485165099364256 false 52 -3.3485165099364256 true
gene 1 5 15 0.2922083658692129 false 85 0.2922083658692129 true
gene 1 2 14 -2.6095375706935 false 185 -2.6095375706935 true
gene 1 7 14 1.3522796698920185 false 219 1.3522796698920185 true
gene 1 3 15 1.5088032261142637 false 235 1.5088032261142637 true
gene 1 20 14 -0.7066226191426166 false 313 -0.7066226191426166 true
gene 1 10 14 0.34569652524081845 false 500 0.34569652524081845 true
gene 1 20 20 -1.9815286493437148 true 557 -1.9815286493437148 true
gene 1 15 15 0.9456899421987124 true 714 0.9456899421987124 true
gene 1 10 15 2.248926120710317 false 1504 2.248926120710317 true
gene 1 4 429 -0.010741292146996984 false 2276 -0.010741292146996984 true
gene 1 429 12 -0.5345268027170484 false 2277 -0.5345268027170484 true
gene 1 15 435 1.1513597367923043 true 2304 1.1513597367923043 true
gene 1 435 15 -0.7566284916125756 false 2305 -0.7566284916125756 true
gene 1 6 435 -3.47945425096125 false 2600 -3.47945425096125 true
gene 1 3 429 2.6827803970214026 false 2700 2.6827803970214026 true
genomeend 48
/* Organism #49 Fitness: 0.373 Error: 0.627 */
genomestart 49
trait 1 0.5381006924463813 0.4141787012131571 0 0.24055838233038815 0.8095356829068934 0.5613170636688587 0 0.06687509533655382 
node 1 1 1 3
node 2 1 1 1
node 3 1 1 1
node 4 1 1 1
node 5 1 1 1
node 6 1 1 1
node 7 1 1 1
node 8 1 1 1
node 9 1 1 1
node 10 1 1 1
node 11 1 1 1
node 12 1 0 0
node 13 1 0 2
node 14 1 0 2
node 15 1 0 0
node 20 1 0 0
node 429 1 0 0
node 435 1 0 0
gene 1 1 12 -0.19721255798063875 false 1 -0.19721255798063875 true
gene 1 2 12 -1.797697580032938 false 2 -1.797697580032938 true
gene 1 3 12 1.064669259134154 false 3 1.064669259134154 true
gene 1 4 12 -1.0964195048544516 false 4 -1.0964195048544516 true
gene 1 5 12 0.031388515370228576 false 5 0.031388515370228576 true
gene 1 6 12 -0.5065760193694723 false 6 -0.5065760193694723 true
gene 1 7 12 -1.9011560884324512 false 7 -1.9011560884324512 true
gene 1 8 12 -0.8055717322488712 false 8 -0.8055717322488712 true
gene 1 9 12 0.12308506472259162 false 9 0.12308506472259162 true
gene 1 10 12 0.38719188760844725 false 10 0.38719188760844725 true
gene 1 11 12 -1.5282484375071959 false 11 -1.5282484375071959 true
gene 1 12 13 0.8578510455154371 false 12 0.8578510455154371 true
gene 1 12 14 0.8277975491318108 false 13 0.8277975491318108 true
gene 1 2 15 -0.12827649633045657 false 16 -0.12827649633045657 true
gene 1 15 12 -3.2549864693768753 false 17 -3.2549864693768753 true
gene 1 12 20 0.7268764159473884 false 51 0.7268764159473884 true
gene 1 20 13 -4.302561775867785 false 52 -4.302561775867785 true
gene 1 5 15 -0.40680685329495836 false 85 -0.40680685329495836 true
gene 1 2 14 -2.327147005521776 false 185 -2.327147005521776 true
gene 1 7 14 1.1089843342662582 false 219 1.1089843342662582 true
gene 1 3 15 2.1448089085055386 false 235 2.1448089085055386 true
gene 1 20 14 -0.012963888699983883 false 313 -0.012963888699983883 true
gene 1 10 14 0.7272511553451525 false 500 0.7272511553451525 true
gene 1 20 20 -2.160194915934266 true 557 -2.160194915934266 true
gene 1 15 15 1.41027031265212 true 714 1.41027031265212 true
gene 1 10 15 1.574808759575314 false 1504 1.574808759575314 true
gene 1 4 429 -0.010741292146996984 false 2276 -0.010741292146996984 true
gene 1 429 12 -0.7025923304286728 false 2277 -0.7025923304286728 true
gene 1 15 435 1.4304692656130795 true 2304 1.4304692656130795 true
gene 1 435 15 -0.08727482307151346 false 2305 -0.08727482307151346 true
gene 1 6 435 -4.011455173319231 false 2600 -4.011455173319231 true
gene 1 3 429 2.7875793751319526 false 2700 2.7875793751319526 true
genomeend 49
/* Organism #51 Fitness: 0.373 Error: 0.627 */
genomestart 51
trait 1 0.5381006924463813 0.4141787012131571 0 0.24055838233038815 0.8095356829068934 0.5613170636688587 0 0.06687509533655382 
node 1 1 1 3
node 2 1 1 1
node 3 1 1 1
node 4 1 1 1
node 5 1 1 1
node 6 1 1 1
node 7 1 1 1
node 8 1 1 1
node 9 1 1 1
node 10 1 1 1
node 11 1 1 1
node 12 1 0 0
node 13 1 0 2
node 14 1 0 2
node 15 1 0 0
node 20 1 0 0
node 429 1 0 0
node 435 1 0 0
node 549 1 0 0
