/* Species #0 : (Size 250) (AF 0.071) (Age 1)  */
/* Organism #150 Fitness: 0.464 Error: 0.536 */
genomestart 150
trait 1 0.1 0 0 0 0 0 0 0 
node 1 0 1 3
node 2 0 1 1
node 3 0 1 1
node 4 0 1 1
node 5 0 1 1
node 6 0 1 1
node 7 0 1 1
node 8 0 1 1
node 9 0 1 1
node 10 0 1 1
node 11 0 1 1
node 12 0 0 0
node 13 0 0 2
node 14 0 0 2
gene 1 1 12 -0.09705612875543713 false 1 -0.09705612875543713 true
gene 1 2 12 -0.5317322694671988 false 2 -0.5317322694671988 true
gene 1 3 12 -0.43404970592124986 false 3 -0.43404970592124986 true
gene 1 4 12 -0.001913527351331018 false 4 -0.001913527351331018 true
gene 1 5 12 0 false 5 0 true
gene 1 6 12 -0.4662984852764205 false 6 -0.4662984852764205 true
gene 1 7 12 -0.0035920303613470386 false 7 -0.0035920303613470386 true
gene 1 8 12 -0.6053144227418201 false 8 -0.6053144227418201 true
gene 1 9 12 -0.42365576633415636 false 9 -0.42365576633415636 true
gene 1 10 12 0.06802651839231662 false 10 0.06802651839231662 true
gene 1 11 12 0.39618351069051955 false 11 0.39618351069051955 true
gene 1 12 13 -0.24995851821561424 false 12 -0.24995851821561424 true
gene 1 12 14 -0.6821064942090787 false 13 -0.6821064942090787 true
genomeend 150
/* Organism #213 Fitness: 0.339 Error: 0.661 */
genomestart 213
trait 1 0.1 0 0 0 0 0 0 0 
node 1 0 1 3
node 2 0 1 1
node 3 0 1 1
node 4 0 1 1
node 5 0 1 1
node 6 0 1 1
node 7 0 1 1
node 8 0 1 1
node 9 0 1 1
node 10 0 1 1
node 11 0 1 1
node 12 0 0 0
node 13 0 0 2
node 14 0 0 2
gene 1 1 12 -0.49824472794677 false 1 -0.49824472794677 true
gene 1 2 12 -0.22378670057135497 false 2 -0.22378670057135497 true
gene 1 3 12 0.5084940678749137 false 3 0.5084940678749137 true
gene 1 4 12 -0.8366862349540277 false 4 -0.8366862349540277 true
gene 1 5 12 0.531517931208371 false 5 0.531517931208371 true
gene 1 6 12 -0.6226758572289522 false 6 -0.6226758572289522 true
gene 1 7 12 -0.17773626934242945 false 7 -0.17773626934242945 true
gene 1 8 12 0.1706488032655405 false 8 0.1706488032655405 true
gene 1 9 12 -0.5379845817045051 false 9 -0.5379845817045051 true
gene 1 10 12 0.3266109713317694 false 10 0.3266109713317694 true
gene 1 11 12 -0.4295811835382207 false 11 -0.4295811835382207 true
gene 1 12 13 -0.5071384621766916 false 12 -0.5071384621766916 true
gene 1 12 14 0.9231283886953299 false 13 0.9231283886953299 true
genomeend 213
/* Organism #21 Fitness: 0.284 Error: 0.716 */
genomestart 21
trait 1 0.1 0 0 0 0 0 0 0 
node 1 0 1 3
node 2 0 1 1
node 3 0 1 1
node 4 0 1 1
node 5 0 1 1
node 6 0 1 1
node 7 0 1 1
node 8 0 1 1
node 9 0 1 1
node 10 0 1 1
node 11 0 1 1
node 12 0 0 0
node 13 0 0 2
node 14 0 0 2
gene 1 1 12 0.1567090031976532 false 1 0.1567090031976532 true
gene 1 2 12 -0.21104898865730218 false 2 -0.21104898865730218 true
gene 1 3 12 0.4070373449412783 false 3 0.4070373449412783 true
gene 1 4 12 -0.10076968597147098 false 4 -0.10076968597147098 true
gene 1 5 12 -0.45694395605251686 false 5 -0.45694395605251686 true
gene 1 6 12 0.4142979148612877 false 6 0.4142979148612877 true
gene 1 7 12 -0.1785621390835019 false 7 -0.1785621390835019 true
gene 1 8 12 0.11219856006855387 false 8 0.11219856006855387 true
gene 1 9 12 0.4975857282338229 false 9 0.4975857282338229 true
gene 1 10 12 -0.5535636681358814 false 10 -0.5535636681358814 true
gene 1 11 12 -0.33891826045375845 false 11 -0.33891826045375845 true
gene 1 12 13 -0.7857371968539442 false 12 -0.7857371968539442 true
gene 1 12 14 0.4720276859062114 false 13 0.4720276859062114 true
genomeend 21
/* Organism #181 Fitness: 0.278 Error: 0.722 */
genomestart 181
trait 1 0.1 0 0 0 0 0 0 0 
node 1 0 1 3
node 2 0 1 1
node 3 0 1 1
node 4 0 1 1
node 5 0 1 1
node 6 0 1 1
node 7 0 1 1
node 8 0 1 1
node 9 0 1 1
node 10 0 1 1
node 11 0 1 1
node 12 0 0 0
node 13 0 0 2
node 14 0 0 2
gene 1 1 12 -0.8242524271742775 false 1 -0.8242524271742775 true
gene 1 2 12 0.5652700384704505 false 2 0.5652700384704505 true
gene 1 3 12 -0.7481506338030579 false 3 -0.7481506338030579 true
gene 1 4 12 0 false 4 0 true
gene 1 5 12 0.05881670065864283 false 5 0.05881670065864283 true
gene 1 6 12 0.5481342131239121 false 6 0.5481342131239121 true
gene 1 7 12 0.9186949174619956 false 7 0.9186949174619956 true
gene 1 8 12 0.8514509648506775 false 8 0.8514509648506775 true
gene 1 9 12 0.7132178283653059 false 9 0.7132178283653059 true
gene 1 10 12 -0.7929022455052328 false 10 -0.7929022455052328 true
gene 1 11 12 -0.11058517798056812 false 11 -0.11058517798056812 true
gene 1 12 13 -0.46082831873572466 false 12 -0.46082831873572466 true
gene 1 12 14 0.38230478129291634 false 13 0.38230478129291634 true
genomeend 181
/* Organism #59 Fitness: 0.272 Error: 0.728 */
genomestart 59
trait 1 0.1 0 0 0 0 0 0 0 
node 1 0 1 3
node 2 0 1 1
node 3 0 1 1
node 4 0 1 1
node 5 0 1 1
node 6 0 1 1
node 7 0 1 1
node 8 0 1 1
node 9 0 1 1
node 10 0 1 1
node 11 0 1 1
node 12 0 0 0
node 13 0 0 2
node 14 0 0 2
gene 1 1 12 0.7456700848450333 false 1 0.7456700848450333 true
gene 1 2 12 -0.30641527261943335 false 2 -0.30641527261943335 true
gene 1 3 12 0 false 3 0 true
gene 1 4 12 0.1317838772472353 false 4 0.1317838772472353 true
gene 1 5 12 0.045765306636653895 false 5 0.045765306636653895 true
gene 1 6 12 0.7800993234727176 false 6 0.7800993234727176 true
gene 1 7 12 -0.058837104110378624 false 7 -0.058837104110378624 true
gene 1 8 12 -0.11637537264285314 false 8 -0.11637537264285314 true
gene 1 9 12 -0.5722283600858777 false 9 -0.5722283600858777 true
gene 1 10 12 -0.3835657275595801 false 10 -0.3835657275595801 true
gene 1 11 12 -0.32971393440473346 false 11 -0.32971393440473346 true
gene 1 12 13 -0.9069971742480728 false 12 -0.9069971742480728 true
gene 1 12 14 0.7736670960437575 false 13 0.7736670960437575 true
genomeend 59
/* Organism #235 Fitness: 0.269 Error: 0.731 */
genomestart 235
trait 1 0.1 0 0 0 0 0 0 0 
node 1 0 1 3
node 2 0 1 1
node 3 0 1 1
node 4 0 1 1
node 5 0 1 1
node 6 0 1 1
node 7 0 1 1
node 8 0 1 1
node 9 0 1 1
node 10 0 1 1
node 11 0 1 1
node 12 0 0 0
node 13 0 0 2
node 14 0 0 2
gene 1 1 12 0.6005093428417628 false 1 0.6005093428417628 true
gene 1 2 12 -0.7043186946487124 false 2 -0.7043186946487124 true
gene 1 3 12 0.5698188885136928 false 3 0.5698188885136928 true
gene 1 4 12 -0.33203271177040533 false 4 -0.33203271177040533 true
gene 1 5 12 -0.021975695682366354 false 5 -0.021975695682366354 true
gene 1 6 12 0.1888851863990752 false 6 0.1888851863990752 true
gene 1 7 12 0 false 7 0 true
gene 1 8 12 0.9019491897237281 false 8 0.9019491897237281 true
gene 1 9 12 0.2518308489105372 false 9 0.2518308489105372 true
gene 1 10 12 0 false 10 0 true
gene 1 11 12 0.6355669745883048 false 11 0.6355669745883048 true
gene 1 12 13 -0.11067426573511187 false 12 -0.11067426573511187 true
gene 1 12 14 0.5488407273499742 false 13 0.5488407273499742 true
genomeend 235
/* Organism #75 Fitness: 0.257 Error: 0.743 */
genomestart 75
trait 1 0.1 0 0 0 0 0 0 0 
node 1 0 1 3
node 2 0 1 1
node 3 0 1 1
node 4 0 1 1
node 5 0 1 1
node 6 0 1 1
node 7 0 1 1
node 8 0 1 1
node 9 0 1 1
node 10 0 1 1
node 11 0 1 1
node 12 0 0 0
node 13 0 0 2
node 14 0 0 2
gene 1 1 12 -0.7129443819921611 false 1 -0.7129443819921611 true
gene 1 2 12 0.2636464776312586 false 2 0.2636464776312586 true
gene 1 3 12 0.22519568488788236 false 3 0.22519568488788236 true
gene 1 4 12 -0.3914998772742381 false 4 -0.3914998772742381 true
gene 1 5 12 -0.09434708402989758 false 5 -0.09434708402989758 true
gene 1 6 12 0.9224956440597131 false 6 0.9224956440597131 true
gene 1 7 12 0.5905905057998074 false 7 0.5905905057998074 true
gene 1 8 12 0.3565639207980635 false 8 0.3565639207980635 true
gene 1 9 12 -0.5087406822523111 false 9 -0.5087406822523111 true
gene 1 10 12 0.5450519816668872 false 10 0.5450519816668872 true
gene 1 11 12 -0.24777960283235656 false 11 -0.24777960283235656 true
gene 1 12 13 -0.09925294207734235 false 12 -0.09925294207734235 true
gene 1 12 14 0.7801333360765004 false 13 0.7801333360765004 true
genomeend 75
/* Organism #86 Fitness: 0.249 Error: 0.751 */
genomestart 86
trait 1 0.1 0 0 0 0 0 0 0 
node 1 0 1 3
node 2 0 1 1
node 3 0 1 1
node 4 0 1 1
node 5 0 1 1
node 6 0 1 1
node 7 0 1 1
node 8 0 1 1
node 9 0 1 1
node 10 0 1 1
node 11 0 1 1
node 12 0 0 0
node 13 0 0 2
node 14 0 0 2
gene 1 1 12 0.7241395517694522 false 1 0.7241395517694522 true
gene 1 2 12 -0.7645164375118099 false 2 -0.7645164375118099 true
gene 1 3 12 -0.6378014726546402 false 3 -0.6378014726546402 true
gene 1 4 12 -0.3718055764328464 false 4 -0.3718055764328464 true
gene 1 5 12 0.6462226263600545 false 5 0.6462226263600545 true
gene 1 6 12 0.8228950021325957 false 6 0.8228950021325957 true
gene 1 7 12 -0.6698629655345341 false 7 -0.6698629655345341 true
gene 1 8 12 -0.45363561976262023 false 8 -0.45363561976262023 true
gene 1 9 12 0.5945998828485968 false 9 0.5945998828485968 true
gene 1 10 12 0.3049151830088643 false 10 0.3049151830088643 true
gene 1 11 12 -0.7870178468446634 false 11 -0.7870178468446634 true
gene 1 12 13 -0.6291145659734512 false 12 -0.6291145659734512 true
gene 1 12 14 0.9926735988747026 false 13 0.9926735988747026 true
genomeend 86
/* Organism #188 Fitness: 0.249 Error: 0.751 */
genomestart 188
trait 1 0.1 0 0 0 0 0 0 0 
node 1 0 1 3
node 2 0 1 1
node 3 0 1 1
node 4 0 1 1
node 5 0 1 1
node 6 0 1 1
node 7 0 1 1
node 8 0 1 1
node 9 0 1 1
node 10 0 1 1
node 11 0 1 1
node 12 0 0 0
node 13 0 0 2
node 14 0 0 2
gene 1 1 12 -0.5564766111993258 false 1 -0.5564766111993258 true
gene 1 2 12 0.17603032481629835 false 2 0.17603032481629835 true
gene 1 3 12 -0.6283915866624803 false 3 -0.6283915866624803 true
gene 1 4 12 -0.012219391109614971 false 4 -0.012219391109614971 true
gene 1 5 12 -0.04394893636694305 false 5 -0.04394893636694305 true
gene 1 6 12 0.14207091203399716 false 6 0.14207091203399716 true
gene 1 7 12 0.7210872574077877 false 7 0.7210872574077877 true
gene 1 8 12 -0.6606496797625082 false 8 -0.6606496797625082 true
gene 1 9 12 0.46798902519714086 false 9 0.46798902519714086 true
gene 1 10 12 -0.9376169580977204 false 10 -0.9376169580977204 true
gene 1 11 12 -0.3919541267635406 false 11 -0.3919541267635406 true
gene 1 12 13 -0.6615761433681168 false 12 -0.6615761433681168 true
gene 1 12 14 0.6813783531832287 false 13 0.6813783531832287 true
genomeend 188
/* Organism #156 Fitness: 0.243 Error: 0.757 */
genomestart 156
trait 1 0.1 0 0 0 0 0 0 0 
node 1 0 1 3
node 2 0 1 1
node 3 0 1 1
node 4 0 1 1
node 5 0 1 1
node 6 0 1 1
node 7 0 1 1
node 8 0 1 1
node 9 0 1 1
node 10 0 1 1
node 11 0 1 1
node 12 0 0 0
node 13 0 0 2
node 14 0 0 2
gene 1 1 12 0.8821303198343795 false 1 0.8821303198343795 true
gene 1 2 12 -0.7905980101893432 false 2 -0.7905980101893432 true
gene 1 3 12 0.23311105270118757 false 3 0.23311105270118757 true
gene 1 4 12 -0.4312868356348696 false 4 -0.4312868356348696 true
gene 1 5 12 0.32706558007945635 false 5 0.32706558007945635 true
gene 1 6 12 0.5494219891171936 false 6 0.5494219891171936 true
gene 1 7 12 0.5036915226835899 false 7 0.5036915226835899 true
gene 1 8 12 -0.5303952710349337 false 8 -0.5303952710349337 true
gene 1 9 12 -0.30305381359085476 false 9 -0.30305381359085476 true
gene 1 10 12 0.8421878822027922 false 10 0.8421878822027922 true
gene 1 11 12 0.4027734532268709 false 11 0.4027734532268709 true
gene 1 12 13 -0.8211208168835525 false 12 -0.8211208168835525 true
gene 1 12 14 0.1539981972815288 false 13 0.1539981972815288 true
genomeend 156
/* Organism #11 Fitness: 0.242 Error: 0.758 */
genomestart 11
trait 1 0.1 0 0 0 0 0 0 0 
node 1 0 1 3
node 2 0 1 1
node 3 0 1 1
node 4 0 1 1
node 5 0 1 1
node 6 0 1 1
node 7 0 1 1
node 8 0 1 1
node 9 0 1 1
node 10 0 1 1
node 11 0 1 1
node 12 0 0 0
node 13 0 0 2
node 14 0 0 2
gene 1 1 12 -0.2977944582945674 false 1 -0.2977944582945674 true
gene 1 2 12 0.981622973397102 false 2 0.981622973397102 true
gene 1 3 12 -0.053753950157778 false 3 -0.053753950157778 true
gene 1 4 12 -0.8246414260484558 false 4 -0.8246414260484558 true
gene 1 5 12 -0.343494862725103 false 5 -0.343494862725103 true
gene 1 6 12 -0.3062810061203819 false 6 -0.3062810061203819 true
gene 1 7 12 0.7741670426852667 false 7 0.7741670426852667 true
gene 1 8 12 -0.6451176548695546 false 8 -0.6451176548695546 true
gene 1 9 12 0.31353988432605917 false 9 0.31353988432605917 true
gene 1 10 12 -0.740799340685881 false 10 -0.740799340685881 true
gene 1 11 12 -0.378341794841379 false 11 -0.378341794841379 true
gene 1 12 13 -0.9095489973198647 false 12 -0.9095489973198647 true
gene 1 12 14 0.8743764261084112 false 13 0.8743764261084112 true
genomeend 11
/* Organism #206 Fitness: 0.239 Error: 0.761 */
genomestart 206
trait 1 0.1 0 0 0 0 0 0 0 
node 1 0 1 3
node 2 0 1 1
node 3 0 1 1
node 4 0 1 1
node 5 0 1 1
node 6 0 1 1
node 7 0 1 1
node 8 0 1 1
node 9 0 1 1
node 10 0 1 1
node 11 0 1 1
node 12 0 0 0
node 13 0 0 2
node 14 0 0 2
gene 1 1 12 -0.7347615773648853 false 1 -0.7347615773648853 true
gene 1 2 12 -0.7515923710247303 false 2 -0.7515923710247303 true
gene 1 3 12 0.19139007526163637 false 3 0.19139007526163637 true
gene 1 4 12 -0.07617368198053819 false 4 -0.07617368198053819 true
gene 1 5 12 0.8552398760934791 false 5 0.8552398760934791 true
gene 1 6 12 -0.32484202647834615 false 6 -0.32484202647834615 true
gene 1 7 12 0.5872249951524354 false 7 0.5872249951524354 true
gene 1 8 12 0.23731485034111857 false 8 0.23731485034111857 true
gene 1 9 12 0.6393775206574123 false 9 0.6393775206574123 true
gene 1 10 12 0.3686430620729241 false 10 0.3686430620729241 true
gene 1 11 12 -0.7758184024054983 false 11 -0.7758184024054983 true
gene 1 12 13 -0.04826628317809222 false 12 -0.04826628317809222 true
gene 1 12 14 -0.7092868089339223 false 13 -0.7092868089339223 true
genomeend 206
/* Organism #142 Fitness: 0.232 Error: 0.768 */
genomestart 142
trait 1 0.1 0 0 0 0 0 0 0 
node 1 0 1 3
node 2 0 1 1
node 3 0 1 1
node 4 0 1 1
node 5 0 1 1
node 6 0 1 1
node 7 0 1 1
node 8 0 1 1
node 9 0 1 1
node 10 0 1 1
node 11 0 1 1
node 12 0 0 0
node 13 0 0 2
node 14 0 0 2
gene 1 1 12 0.8671659253038558 false 1 0.8671659253038558 true
gene 1 2 12 -0.8076794068013354 false 2 -0.8076794068013354 true
gene 1 3 12 -0.4125253653133106 false 3 -0.4125253653133106 true
gene 1 4 12 -0.9998699487197418 false 4 -0.9998699487197418 true
gene 1 5 12 -0.479668447294579 false 5 -0.479668447294579 true
gene 1 6 12 0.9293353171327737 false 6 0.9293353171327737 true
gene 1 7 12 0.7580899170136053 false 7 0.7580899170136053 true
gene 1 8 12 -0.6144027724468714 false 8 -0.6144027724468714 true
gene 1 9 12 0.7226908660316097 false 9 0.7226908660316097 true
gene 1 10 12 -0.5962367426257852 false 10 -0.5962367426257852 true
gene 1 11 12 -0.2629969072911879 false 11 -0.2629969072911879 true
gene 1 12 13 -0.7543951024065599 false 12 -0.7543951024065599 true
gene 1 12 14 0.6906188339624074 false 13 0.6906188339624074 true
genomeend 142
/* Organism #108 Fitness: 0.227 Error: 0.773 */
genomestart 108
trait 1 0.1 0 0 0 0 0 0 0 
node 1 0 1 3
node 2 0 1 1
node 3 0 1 1
node 4 0 1 1
node 5 0 1 1
node 6 0 1 1
node 7 0 1 1
node 8 0 1 1
node 9 0 1 1
node 10 0 1 1
node 11 0 1 1
node 12 0 0 0
node 13 0 0 2
node 14 0 0 2
gene 1 1 12 0.7392102244771883 false 1 0.7392102244771883 true
gene 1 2 12 0.9875959563016583 false 2 0.9875959563016583 true
gene 1 3 12 -0.9990590084501875 false 3 -0.9990590084501875 true
gene 1 4 12 0.583944760646042 false 4 0.583944760646042 true
gene 1 5 12 -0.02683010225873267 false 5 -0.02683010225873267 true
gene 1 6 12 -0.24156493152822506 false 6 -0.24156493152822506 true
gene 1 7 12 0.8911799749464205 false 7 0.8911799749464205 true
gene 1 8 12 0.5143009561785137 false 8 0.5143009561785137 true
gene 1 9 12 0.32625750089960576 false 9 0.32625750089960576 true
gene 1 10 12 -0.5913030353935116 false 10 -0.5913030353935116 true
gene 1 11 12 0.13613646960919207 false 11 0.13613646960919207 true
gene 1 12 13 -0.15189516970686648 false 12 -0.15189516970686648 true
gene 1 12 14 0.9503367609629785 false 13 0.9503367609629785 true
genomeend 108
/* Organism #118 Fitness: 0.225 Error: 0.775 */
genomestart 118
trait 1 0.1 0 0 0 0 0 0 0 
node 1 0 1 3
node 2 0 1 1
node 3 0 1 1
node 4 0 1 1
node 5 0 1 1
node 6 0 1 1
node 7 0 1 1
node 8 0 1 1
node 9 0 1 1
node 10 0 1 1
node 11 0 1 1
node 12 0 0 0
node 13 0 0 2
node 14 0 0 2
gene 1 1 12 -0.2408386444847214 false 1 -0.2408386444847214 true
gene 1 2 12 0.1701723390551785 false 2 0.1701723390551785 true
gene 1 3 12 -0.5738862445594226 false 3 -0.5738862445594226 true
gene 1 4 12 0.7721058730951212 false 4 0.7721058730951212 true
gene 1 5 12 -0.17973828071793846 false 5 -0.17973828071793846 true
gene 1 6 12 0.829701672260599 false 6 0.829701672260599 true
gene 1 7 12 -0.7362958579348233 false 7 -0.7362958579348233 true
gene 1 8 12 -0.49172281920935174 false 8 -0.49172281920935174 true
gene 1 9 12 0.1310191972763025 false 9 0.1310191972763025 true
gene 1 10 12 0.2407705102600109 false 10 0.2407705102600109 true
gene 1 11 12 0.38580114113162467 false 11 0.38580114113162467 true
gene 1 12 13 -0.4213438874955917 false 12 -0.4213438874955917 true
gene 1 12 14 0.009795584862388778 false 13 0.009795584862388778 true
genomeend 118
/* Organism #6 Fitness: 0.222 Error: 0.778 */
genomestart 6
trait 1 0.1 0 0 0 0 0 0 0 
node 1 0 1 3
node 2 0 1 1
node 3 0 1 1
node 4 0 1 1
node 5 0 1 1
node 6 0 1 1
node 7 0 1 1
node 8 0 1 1
node 9 0 1 1
node 10 0 1 1
node 11 0 1 1
node 12 0 0 0
node 13 0 0 2
node 14 0 0 2
gene 1 1 12 0.2586253096116213 false 1 0.2586253096116213 true
gene 1 2 12 0.6202120222588733 false 2 0.6202120222588733 true
gene 1 3 12 -0.321505421827105 false 3 -0.321505421827105 true
gene 1 4 12 -0.6264409015853724 false 4 -0.6264409015853724 true
gene 1 5 12 -0.4100148497754142 false 5 -0.4100148497754142 true
gene 1 6 12 0.004074154347035091 false 6 0.004074154347035091 true
gene 1 7 12 0.14677578154892568 false 7 0.14677578154892568 true
gene 1 8 12 -0.537985115978227 false 8 -0.537985115978227 true
gene 1 9 12 -0.11829544177609717 false 9 -0.11829544177609717 true
gene 1 10 12 0.37395491073388587 false 10 0.37395491073388587 true
gene 1 11 12 -0.6591241367959391 false 11 -0.6591241367959391 true
gene 1 12 13 -0.7725144353518304 false 12 -0.7725144353518304 true
gene 1 12 14 0.2501738704377541 false 13 0.2501738704377541 true
genomeend 6
/* Organism #120 Fitness: 0.221 Error: 0.779 */
genomestart 120
trait 1 0.1 0 0 0 0 0 0 0 
node 1 0 1 3
node 2 0 1 1
node 3 0 1 1
node 4 0 1 1
node 5 0 1 1
node 6 0 1 1
node 7 0 1 1
node 8 0 1 1
node 9 0 1 1
node 10 0 1 1
node 11 0 1 1
node 12 0 0 0
node 13 0 0 2
node 14 0 0 2
gene 1 1 12 -0.2059331950321759 false 1 -0.2059331950321759 true
gene 1 2 12 0.8712247059541378 false 2 0.8712247059541378 true
gene 1 3 12 -0.6719528993144599 false 3 -0.6719528993144599 true
gene 1 4 12 -0.22631789992228488 false 4 -0.22631789992228488 true
gene 1 5 12 -0.7112303281345219 false 5 -0.7112303281345219 true
gene 1 6 12 0.5908008137097696 false 6 0.5908008137097696 true
gene 1 7 12 0.8035770214189832 false 7 0.8035770214189832 true
gene 1 8 12 0.25641952392778317 false 8 0.25641952392778317 true
gene 1 9 12 -0.6429177026309578 false 9 -0.6429177026309578 true
gene 1 10 12 -0.990796354646415 false 10 -0.990796354646415 true
gene 1 11 12 -0.38973096769395804 false 11 -0.38973096769395804 true
gene 1 12 13 -0.3691318458801142 false 12 -0.3691318458801142 true
gene 1 12 14 0.6549692060197518 false 13 0.6549692060197518 true
genomeend 120
/* Organism #221 Fitness: 0.220 Error: 0.780 */
genomestart 221
trait 1 0.1 0 0 0 0 0 0 0 
node 1 0 1 3
node 2 0 1 1
node 3 0 1 1
node 4 0 1 1
node 5 0 1 1
node 6 0 1 1
node 7 0 1 1
node 8 0 1 1
node 9 0 1 1
node 10 0 1 1
node 11 0 1 1
node 12 0 0 0
node 13 0 0 2
node 14 0 0 2
gene 1 1 12 0.2899088213155602 false 1 0.2899088213155602 true
gene 1 2 12 0.5886491124573447 false 2 0.5886491124573447 true
gene 1 3 12 -0.017567245039807083 false 3 -0.017567245039807083 true
gene 1 4 12 -0.29169498469713356 false 4 -0.29169498469713356 true
gene 1 5 12 0.9471770880587237 false 5 0.9471770880587237 true
gene 1 6 12 -0.8996793761163638 false 6 -0.8996793761163638 true
gene 1 7 12 -0.19273730792016505 false 7 -0.19273730792016505 true
gene 1 8 12 0.2493963410689364 false 8 0.2493963410689364 true
gene 1 9 12 0.04946330740757769 false 9 0.04946330740757769 true
gene 1 10 12 -0.6756607487374832 false 10 -0.6756607487374832 true
gene 1 11 12 -0.4391009674222445 false 11 -0.4391009674222445 true
gene 1 12 13 -0.586481508483381 false 12 -0.586481508483381 true
gene 1 12 14 0.8557935911689049 false 13 0.8557935911689049 true
genomeend 221
/* Organism #60 Fitness: 0.218 Error: 0.782 */
genomestart 60
trait 1 0.1 0 0 0 0 0 0 0 
node 1 0 1 3
node 2 0 1 1
node 3 0 1 1
node 4 0 1 1
node 5 0 1 1
node 6 0 1 1
node 7 0 1 1
node 8 0 1 1
node 9 0 1 1
node 10 0 1 1
node 11 0 1 1
node 12 0 0 0
node 13 0 0 2
node 14 0 0 2
gene 1 1 12 0.8351776790104807 false 1 0.8351776790104807 true
gene 1 2 12 -0.11295645856397427 false 2 -0.11295645856397427 true
gene 1 3 12 0.6166625162677237 false 3 0.6166625162677237 true
gene 1 4 12 0.6021531428914212 false 4 0.6021531428914212 true
gene 1 5 12 -0.22215815174185258 false 5 -0.22215815174185258 true
gene 1 6 12 -0.040603578845366625 false 6 -0.040603578845366625 true
gene 1 7 12 0.3472408746221043 false 7 0.3472408746221043 true
gene 1 8 12 0.9611091580787187 false 8 0.9611091580787187 true
gene 1 9 12 0.010033279275135348 false 9 0.010033279275135348 true
gene 1 10 12 0.25780060291759904 false 10 0.25780060291759904 true
gene 1 11 12 -0.17946937638376767 false 11 -0.17946937638376767 true
gene 1 12 13 -0.11473273184922778 false 12 -0.11473273184922778 true
gene 1 12 14 0.2654189494503479 false 13 0.2654189494503479 true
genomeend 60
/* Organism #141 Fitness: 0.215 Error: 0.785 */
genomestart 141
trait 1 0.1 0 0 0 0 0 0 0 
node 1 0 1 3
node 2 0 1 1
node 3 0 1 1
node 4 0 1 1
node 5 0 1 1
node 6 0 1 1
node 7 0 1 1
node 8 0 1 1
node 9 0 1 1
node 10 0 1 1
node 11 0 1 1
node 12 0 0 0
node 13 0 0 2
node 14 0 0 2
gene 1 1 12 0.8152511552092975 false 1 0.8152511552092975 true
gene 1 2 12 -0.0005010518986868356 false 2 -0.0005010518986868356 true
gene 1 3 12 -0.021238974368548574 false 3 -0.021238974368548574 true
gene 1 4 12 0.18438308249603858 false 4 0.18438308249603858 true
gene 1 5 12 0.010051756900120144 false 5 0.010051756900120144 true
gene 1 6 12 -0.7398946847984238 false 6 -0.7398946847984238 true
gene 1 7 12 -0.6381527074610992 false 7 -0.6381527074610992 true
gene 1 8 12 -0.2035146812800163 false 8 -0.2035146812800163 true
gene 1 9 12 0.2406388706850773 false 9 0.2406388706850773 true
gene 1 10 12 -0.5610422607860853 false 10 -0.5610422607860853 true
gene 1 11 12 0.18663722008439704 false 11 0.18663722008439704 true
gene 1 12 13 -0.0012337506093477754 false 12 -0.0012337506093477754 true
gene 1 12 14 0.9281065767231774 false 13 0.9281065767231774 true
genomeend 141
/* Organism #50 Fitness: 0.215 Error: 0.785 */
genomestart 50
trait 1 0.1 0 0 0 0 0 0 0 
node 1 0 1 3
node 2 0 1 1
node 3 0 1 1
node 4 0 1 1
node 5 0 1 1
node 6 0 1 1
node 7 0 1 1
node 8 0 1 1
node 9 0 1 1
node 10 0 1 1
node 11 0 1 1
node 12 0 0 0
node 13 0 0 2
node 14 0 0 2
gene 1 1 12 -0.3827423688608892 false 1 -0.3827423688608892 true
gene 1 2 12 0.3119527858258377 false 2 0.3119527858258377 true
gene 1 3 12 0.6752381126931803 false 3 0.6752381126931803 true
gene 1 4 12 -0.8926072681594192 false 4 -0.8926072681594192 true
gene 1 5 12 0.5407158265641505 false 5 0.5407158265641505 true
gene 1 6 12 0.8892242566230166 false 6 0.8892242566230166 true
gene 1 7 12 0.17670076328429624 false 7 0.17670076328429624 true
gene 1 8 12 -0.8502863921266263 false 8 -0.8502863921266263 true
gene 1 9 12 -0.30373905625463105 false 9 -0.30373905625463105 true
gene 1 10 12 0.8570032337582132 false 10 0.8570032337582132 true
gene 1 11 12 -0.8640610872034076 false 11 -0.8640610872034076 true
gene 1 12 13 -0.0028657078071338687 false 12 -0.0028657078071338687 true
gene 1 12 14 0.15618527088942322 false 13 0.15618527088942322 true
genomeend 50
/* Organism #102 Fitness: 0.209 Error: 0.791 */
genomestart 102
trait 1 0.1 0 0 0 0 0 0 0 
node 1 0 1 3
node 2 0 1 1
node 3 0 1 1
node 4 0 1 1
node 5 0 1 1
node 6 0 1 1
node 7 0 1 1
node 8 0 1 1
node 9 0 1 1
node 10 0 1 1
node 11 0 1 1
node 12 0 0 0
node 13 0 0 2
node 14 0 0 2
gene 1 1 12 0 false 1 0 true
gene 1 2 12 -0.4116503713663445 false 2 -0.4116503713663445 true
gene 1 3 12 0.9644209427810436 false 3 0.9644209427810436 true
gene 1 4 12 -0.7868511076328863 false 4 -0.7868511076328863 true
gene 1 5 12 0.2802281965761386 false 5 0.2802281965761386 true
gene 1 6 12 -0.546853066848283 false 6 -0.546853066848283 true
gene 1 7 12 0.4112907831361125 false 7 0.4112907831361125 true
gene 1 8 12 0.12347734349670127 false 8 0.12347734349670127 true
gene 1 9 12 0.7928230594514737 false 9 0.7928230594514737 true
gene 1 10 12 0 false 10 0 true
gene 1 11 12 0 false 11 0 true
gene 1 12 13 -0.10986071198775994 false 12 -0.10986071198775994 true
gene 1 12 14 0.671965793574457 false 13 0.671965793574457 true
genomeend 102
/* Organism #54 Fitness: 0.198 Error: 0.802 */
genomestart 54
trait 1 0.1 0 0 0 0 0 0 0 
node 1 0 1 3
node 2 0 1 1
node 3 0 1 1
node 4 0 1 1
node 5 0 1 1
node 6 0 1 1
node 7 0 1 1
node 8 0 1 1
node 9 0 1 1
node 10 0 1 1
node 11 0 1 1
node 12 0 0 0
node 13 0 0 2
node 14 0 0 2
gene 1 1 12 0.9304434832768615 false 1 0.9304434832768615 true
gene 1 2 12 -0.3702419763417983 false 2 -0.3702419763417983 true
gene 1 3 12 -0.25763424504417626 false 3 -0.25763424504417626 true
gene 1 4 12 -0.5779209673014536 false 4 -0.5779209673014536 true
gene 1 5 12 0.5846033777646636 false 5 0.5846033777646636 true
gene 1 6 12 -0.672324174960072 false 6 -0.672324174960072 true
gene 1 7 12 0.5763060591533347 false 7 0.5763060591533347 true
gene 1 8 12 0 false 8 0 true
gene 1 9 12 -0.7748069766043768 false 9 -0.7748069766043768 true
gene 1 10 12 0.9421929620648432 false 10 0.9421929620648432 true
gene 1 11 12 -0.834442122212396 false 11 -0.834442122212396 true
gene 1 12 13 0.27741491631351095 false 12 0.27741491631351095 true
gene 1 12 14 0.7611013639009436 false 13 0.7611013639009436 true
genomeend 54
/* Organism #122 Fitness: 0.198 Error: 0.802 */
genomestart 122
trait 1 0.1 0 0 0 0 0 0 0 
node 1 0 1 3
node 2 0 1 1
node 3 0 1 1
node 4 0 1 1
node 5 0 1 1
node 6 0 1 1
node 7 0 1 1
node 8 0 1 1
node 9 0 1 1
node 10 0 1 1
node 11 0 1 1
node 12 0 0 0
node 13 0 0 2
node 14 0 0 2
gene 1 1 12 0.5765555796546225 false 1 0.5765555796546225 true
gene 1 2 12 0.031541893618241994 false 2 0.031541893618241994 true
gene 1 3 12 -0.6743011737826808 false 3 -0.6743011737826808 true
gene 1 4 12 -0.5961904757831825 false 4 -0.5961904757831825 true
gene 1 5 12 -0.34051946003014744 false 5 -0.34051946003014744 true
gene 1 6 12 -0.08745627499910151 false 6 -0.08745627499910151 true
gene 1 7 12 0.17646017454489996 false 7 0.17646017454489996 true
gene 1 8 12 0.9246032933439491 false 8 0.9246032933439491 true
gene 1 9 12 0.39728705738515685 false 9 0.39728705738515685 true
gene 1 10 12 -0.058318644533339264 false 10 -0.058318644533339264 true
gene 1 11 12 -0.2234863846213763 false 11 -0.2234863846213763 true
gene 1 12 13 0.3501961914649823 false 12 0.3501961914649823 true
gene 1 12 14 0.5732084505427127 false 13 0.5732084505427127 true
genomeend 122
/* Organism #207 Fitness: 0.198 Error: 0.802 */
genomestart 207
trait 1 0.1 0 0 0 0 0 0 0 
node 1 0 1 3
node 2 0 1 1
node 3 0 1 1
node 4 0 1 1
node 5 0 1 1
node 6 0 1 1
node 7 0 1 1
node 8 0 1 1
node 9 0 1 1
node 10 0 1 1
node 11 0 1 1
node 12 0 0 0
node 13 0 0 2
node 14 0 0 2
gene 1 1 12 -0.22206537150319466 false 1 -0.22206537150319466 true
gene 1 2 12 -0.3459924452676683 false 2 -0.3459924452676683 true
gene 1 3 12 0.8176691075203638 false 3 0.8176691075203638 true
gene 1 4 12 0.3524595564204138 false 4 0.3524595564204138 true
gene 1 5 12 -0.5875673554124693 false 5 -0.5875673554124693 true
gene 1 6 12 -0.6376980277238047 false 6 -0.6376980277238047 true
gene 1 7 12 -0.3347568682218076 false 7 -0.3347568682218076 true
gene 1 8 12 0.3377107360657068 false 8 0.3377107360657068 true
gene 1 9 12 -0.7335987362112344 false 9 -0.7335987362112344 true
gene 1 10 12 0.19716387246400724 false 10 0.19716387246400724 true
gene 1 11 12 -0.635943845282291 false 11 -0.635943845282291 true
gene 1 12 13 0 false 12 0 true
gene 1 12 14 0.7837477753059466 false 13 0.7837477753059466 true
genomeend 207
/* Organism #171 Fitness: 0.197 Error: 0.803 */
genomestart 171
trait 1 0.1 0 0 0 0 0 0 0 
node 1 0 1 3
node 2 0 1 1
node 3 0 1 1
node 4 0 1 1
node 5 0 1 1
node 6 0 1 1
node 7 0 1 1
node 8 0 1 1
node 9 0 1 1
node 10 0 1 1
node 11 0 1 1
node 12 0 0 0
node 13 0 0 2
node 14 0 0 2
gene 1 1 12 0.031441218658077315 false 1 0.031441218658077315 true
gene 1 2 12 0.4326103361978123 false 2 0.4326103361978123 true
gene 1 3 12 0.28520441975709376 false 3 0.28520441975709376 true
gene 1 4 12 -0.3216980841394198 false 4 -0.3216980841394198 true
gene 1 5 12 0.7338638774400104 false 5 0.7338638774400104 true
gene 1 6 12 -0.9781140093502552 false 6 -0.9781140093502552 true
gene 1 7 12 0.2164617160239022 false 7 0.2164617160239022 true
gene 1 8 12 -0.9802908233412004 false 8 -0.9802908233412004 true
gene 1 9 12 0.6652070241698732 false 9 0.6652070241698732 true
gene 1 10 12 -0.7926504557986322 false 10 -0.7926504557986322 true
gene 1 11 12 -0.2375456132495694 false 11 -0.2375456132495694 true
gene 1 12 13 0 false 12 0 true
gene 1 12 14 0.009616921533926764 false 13 0.009616921533926764 true
genomeend 171
/* Organism #70 Fitness: 0.197 Error: 0.803 */
genomestart 70
trait 1 0.1 0 0 0 0 0 0 0 
node 1 0 1 3
node 2 0 1 1
node 3 0 1 1
node 4 0 1 1
node 5 0 1 1
node 6 0 1 1
node 7 0 1 1
node 8 0 1 1
node 9 0 1 1
node 10 0 1 1
node 11 0 1 1
node 12 0 0 0
node 13 0 0 2
node 14 0 0 2
gene 1 1 12 -0.2688846865170827 false 1 -0.2688846865170827 true
gene 1 2 12 -0.5456314343582137 false 2 -0.5456314343582137 true
gene 1 3 12 -0.7219831925703885 false 3 -0.7219831925703885 true
gene 1 4 12 0.6263539428760464 false 4 0.6263539428760464 true
gene 1 5 12 0.13474667310747393 false 5 0.13474667310747393 true
gene 1 6 12 0.12183910516221168 false 6 0.12183910516221168 true
gene 1 7 12 -0.16218829040924773 false 7 -0.16218829040924773 true
gene 1 8 12 -0.9441716677330037 false 8 -0.9441716677330037 true
gene 1 9 12 -0.21115598609885267 false 9 -0.21115598609885267 true
gene 1 10 12 -0.8511197865412924 false 10 -0.8511197865412924 true
gene 1 11 12 0.17734971626258558 false 11 0.17734971626258558 true
gene 1 12 13 0 false 12 0 true
gene 1 12 14 0.7279165533009366 false 13 0.7279165533009366 true
genomeend 70
/* Organism #66 Fitness: 0.196 Error: 0.804 */
genomestart 66
trait 1 0.1 0 0 0 0 0 0 0 
node 1 0 1 3
node 2 0 1 1
node 3 0 1 1
node 4 0 1 1
node 5 0 1 1
node 6 0 1 1
node 7 0 1 1
node 8 0 1 1
node 9 0 1 1
node 10 0 1 1
node 11 0 1 1
node 12 0 0 0
node 13 0 0 2
node 14 0 0 2
gene 1 1 12 -0.2893527493319253 false 1 -0.2893527493319253 true
gene 1 2 12 0.1581123844748161 false 2 0.1581123844748161 true
gene 1 3 12 0.01564002980179664 false 3 0.01564002980179664 true
gene 1 4 12 -0.6233841340798832 false 4 -0.6233841340798832 true
gene 1 5 12 0.9990971021314226 false 5 0.9990971021314226 true
gene 1 6 12 -0.19217732153182218 false 6 -0.19217732153182218 true
gene 1 7 12 -0.027081910662126646 false 7 -0.027081910662126646 true
gene 1 8 12 0 false 8 0 true
gene 1 9 12 -0.8541862991548866 false 9 -0.8541862991548866 true
gene 1 10 12 0 false 10 0 true
gene 1 11 12 0.6111709429626329 false 11 0.6111709429626329 true
gene 1 12 13 0.0030016197059521982 false 12 0.0030016197059521982 true
gene 1 12 14 0.8259615443124115 false 13 0.8259615443124115 true
genomeend 66
/* Organism #199 Fitness: 0.196 Error: 0.804 */
genomestart 199
trait 1 0.1 0 0 0 0 0 0 0 
node 1 0 1 3
node 2 0 1 1
node 3 0 1 1
node 4 0 1 1
node 5 0 1 1
node 6 0 1 1
node 7 0 1 1
node 8 0 1 1
node 9 0 1 1
node 10 0 1 1
node 11 0 1 1
node 12 0 0 0
node 13 0 0 2
node 14 0 0 2
gene 1 1 12 -0.8008950635789368 false 1 -0.8008950635789368 true
gene 1 2 12 0.7829165065881807 false 2 0.7829165065881807 true
gene 1 3 12 0.15361792966300825 false 3 0.15361792966300825 true
gene 1 4 12 0.26336815100623995 false 4 0.26336815100623995 true
gene 1 5 12 -0.5786063573158051 false 5 -0.5786063573158051 true
gene 1 6 12 0.8739636142745806 false 6 0.8739636142745806 true
gene 1 7 12 0.223483781143199 false 7 0.223483781143199 true
gene 1 8 12 -0.08992223829841238 false 8 -0.08992223829841238 true
gene 1 9 12 0.1277591793784145 false 9 0.1277591793784145 true
gene 1 10 12 -0.4529066265744068 false 10 -0.4529066265744068 true
gene 1 11 12 0.29063977773613364 false 11 0.29063977773613364 true
gene 1 12 13 0 false 12 0 true
gene 1 12 14 0.16235686562020965 false 13 0.16235686562020965 true
genomeend 199
/* Organism #162 Fitness: 0.196 Error: 0.804 */
genomestart 162
trait 1 0.1 0 0 0 0 0 0 0 
node 1 0 1 3
node 2 0 1 1
node 3 0 1 1
node 4 0 1 1
node 5 0 1 1
node 6 0 1 1
node 7 0 1 1
node 8 0 1 1
node 9 0 1 1
node 10 0 1 1
node 11 0 1 1
node 12 0 0 0
node 13 0 0 2
node 14 0 0 2
gene 1 1 12 -0.3391067482324563 false 1 -0.3391067482324563 true
gene 1 2 12 -0.8132620435248702 false 2 -0.8132620435248702 true
gene 1 3 12 -0.3577335263285102 false 3 -0.3577335263285102 true
gene 1 4 12 -0.06862566857758796 false 4 -0.06862566857758796 true
gene 1 5 12 -0.9554528723185727 false 5 -0.9554528723185727 true
gene 1 6 12 -0.581657588831534 false 6 -0.581657588831534 true
gene 1 7 12 0.709509570094721 false 7 0.709509570094721 true
gene 1 8 12 0.689256001984672 false 8 0.689256001984672 true
gene 1 9 12 0.8549929403855322 false 9 0.8549929403855322 true
gene 1 10 12 -0.7862318529569606 false 10 -0.7862318529569606 true
gene 1 11 12 -0.40617867766574456 false 11 -0.40617867766574456 true
gene 1 12 13 0 false 12 0 true
gene 1 12 14 0.893954060395177 false 13 0.893954060395177 true
genomeend 162
/* Organism #168 Fitness: 0.195 Error: 0.805 */
genomestart 168
trait 1 0.1 0 0 0 0 0 0 0 
node 1 0 1 3
node 2 0 1 1
node 3 0 1 1
node 4 0 1 1
node 5 0 1 1
node 6 0 1 1
node 7 0 1 1
node 8 0 1 1
node 9 0 1 1
node 10 0 1 1
node 11 0 1 1
node 12 0 0 0
node 13 0 0 2
node 14 0 0 2
gene 1 1 12 -0.049999774152216146 false 1 -0.049999774152216146 true
gene 1 2 12 -0.743035311407122 false 2 -0.743035311407122 true
gene 1 3 12 -0.009517317513736152 false 3 -0.009517317513736152 true
gene 1 4 12 0.5504095208649012 false 4 0.5504095208649012 true
gene 1 5 12 -0.5481984802652045 false 5 -0.5481984802652045 true
gene 1 6 12 -0.22013058653958212 false 6 -0.22013058653958212 true
gene 1 7 12 0.19222302313914652 false 7 0.19222302313914652 true
gene 1 8 12 -0.28264981569413933 false 8 -0.28264981569413933 true
gene 1 9 12 0.09350647076401891 false 9 0.09350647076401891 true
gene 1 10 12 -0.7626343676562736 false 10 -0.7626343676562736 true
gene 1 11 12 0.08407331737015675 false 11 0.08407331737015675 true
gene 1 12 13 0 false 12 0 true
gene 1 12 14 0.029445817951373462 false 13 0.029445817951373462 true
genomeend 168
/* Organism #17 Fitness: 0.195 Error: 0.805 */
genomestart 17
trait 1 0.1 0 0 0 0 0 0 0 
node 1 0 1 3
node 2 0 1 1
node 3 0 1 1
node 4 0 1 1
node 5 0 1 1
node 6 0 1 1
node 7 0 1 1
node 8 0 1 1
node 9 0 1 1
node 10 0 1 1
node 11 0 1 1
node 12 0 0 0
node 13 0 0 2
node 14 0 0 2
gene 1 1 12 -0.6771353295145516 false 1 -0.6771353295145516 true
gene 1 2 12 -0.4080589246482953 false 2 -0.4080589246482953 true
gene 1 3 12 -0.08449135379591784 false 3 -0.08449135379591784 true
gene 1 4 12 -0.6290377443361383 false 4 -0.6290377443361383 true
gene 1 5 12 0.6861076233579796 false 5 0.6861076233579796 true
gene 1 6 12 0.23850108903130476 false 6 0.23850108903130476 true
gene 1 7 12 -0.1727183256612707 false 7 -0.1727183256612707 true
gene 1 8 12 0.16904673854597096 false 8 0.16904673854597096 true
gene 1 9 12 -0.2321253808793641 false 9 -0.2321253808793641 true
gene 1 10 12 -0.3405496910597174 false 10 -0.3405496910597174 true
gene 1 11 12 -0.4271380238815986 false 11 -0.4271380238815986 true
gene 1 12 13 0.10044739156695816 false 12 0.10044739156695816 true
gene 1 12 14 -0.9144622937072098 false 13 -0.9144622937072098 true
genomeend 17
/* Organism #198 Fitness: 0.195 Error: 0.805 */
genomestart 198
trait 1 0.1 0 0 0 0 0 0 0 
node 1 0 1 3
node 2 0 1 1
node 3 0 1 1
node 4 0 1 1
node 5 0 1 1
node 6 0 1 1
node 7 0 1 1
node 8 0 1 1
node 9 0 1 1
node 10 0 1 1
node 11 0 1 1
node 12 0 0 0
node 13 0 0 2
node 14 0 0 2
gene 1 1 12 -0.06975307015073172 false 1 -0.06975307015073172 true
gene 1 2 12 -0.4174486033002148 false 2 -0.4174486033002148 true
gene 1 3 12 0.08666252291735545 false 3 0.08666252291735545 true
gene 1 4 12 0.4520112635673338 false 4 0.4520112635673338 true
gene 1 5 12 0.05891489873126162 false 5 0.05891489873126162 true
gene 1 6 12 0.6734198311581218 false 6 0.6734198311581218 true
gene 1 7 12 -0.979709131167062 false 7 -0.979709131167062 true
gene 1 8 12 0.7254494997260554 false 8 0.7254494997260554 true
gene 1 9 12 -0.3801940642461583 false 9 -0.3801940642461583 true
gene 1 10 12 0.135054402504096 false 10 0.135054402504096 true
gene 1 11 12 0.09462659750589854 false 11 0.09462659750589854 true
gene 1 12 13 0 false 12 0 true
gene 1 12 14 0.4870672579836411 false 13 0.4870672579836411 true
genomeend 198
/* Organism #165 Fitness: 0.194 Error: 0.806 */
genomestart 165
trait 1 0.1 0 0 0 0 0 0 0 
node 1 0 1 3
node 2 0 1 1
node 3 0 1 1
node 4 0 1 1
node 5 0 1 1
node 6 0 1 1
node 7 0 1 1
node 8 0 1 1
node 9 0 1 1
node 10 0 1 1
node 11 0 1 1
node 12 0 0 0
node 13 0 0 2
node 14 0 0 2
gene 1 1 12 0.10081194143022526 false 1 0.10081194143022526 true
gene 1 2 12 0.353225186025205 false 2 0.353225186025205 true
gene 1 3 12 0.8997009612168759 false 3 0.8997009612168759 true
gene 1 4 12 -0.7713760692054722 false 4 -0.7713760692054722 true
gene 1 5 12 -0.8700208859600249 false 5 -0.8700208859600249 true
gene 1 6 12 0.4129453280756142 false 6 0.4129453280756142 true
gene 1 7 12 -0.9112084703139693 false 7 -0.9112084703139693 true
gene 1 8 12 -0.35173494263260613 false 8 -0.35173494263260613 true
gene 1 9 12 0.6256345689964872 false 9 0.6256345689964872 true
gene 1 10 12 0.0396542876428919 false 10 0.0396542876428919 true
gene 1 11 12 0.33830110884119213 false 11 0.33830110884119213 true
gene 1 12 13 0 false 12 0 true
gene 1 12 14 0.7891111847975202 false 13 0.7891111847975202 true
genomeend 165
/* Organism #106 Fitness: 0.194 Error: 0.806 */
genomestart 106
trait 1 0.1 0 0 0 0 0 0 0 
node 1 0 1 3
node 2 0 1 1
node 3 0 1 1
node 4 0 1 1
node 5 0 1 1
node 6 0 1 1
node 7 0 1 1
node 8 0 1 1
node 9 0 1 1
node 10 0 1 1
node 11 0 1 1
node 12 0 0 0
node 13 0 0 2
node 14 0 0 2
gene 1 1 12 -0.22152915440659918 false 1 -0.22152915440659918 true
gene 1 2 12 0.5010999730306657 false 2 0.5010999730306657 true
gene 1 3 12 0.9262386074055906 false 3 0.9262386074055906 true
gene 1 4 12 0.2953902967980214 false 4 0.2953902967980214 true
gene 1 5 12 0.2417831658868389 false 5 0.2417831658868389 true
gene 1 6 12 -0.20294304323282134 false 6 -0.20294304323282134 true
gene 1 7 12 0.6979106330444982 false 7 0.6979106330444982 true
gene 1 8 12 -0.9851246903343996 false 8 -0.9851246903343996 true
gene 1 9 12 0.90275090059813 false 9 0.90275090059813 true
gene 1 10 12 0.07552359977249869 false 10 0.07552359977249869 true
gene 1 11 12 -0.4474814877361157 false 11 -0.4474814877361157 true
gene 1 12 13 0.7666606891824156 false 12 0.7666606891824156 true
gene 1 12 14 0.2701876206641189 false 13 0.2701876206641189 true
genomeend 106
/* Organism #157 Fitness: 0.193 Error: 0.807 */
genomestart 157
trait 1 0.1 0 0 0 0 0 0 0 
node 1 0 1 3
node 2 0 1 1
node 3 0 1 1
node 4 0 1 1
node 5 0 1 1
node 6 0 1 1
node 7 0 1 1
node 8 0 1 1
node 9 0 1 1
node 10 0 1 1
node 11 0 1 1
node 12 0 0 0
node 13 0 0 2
node 14 0 0 2
gene 1 1 12 0.9727228329127088 false 1 0.9727228329127088 true
gene 1 2 12 -0.9680091306466629 false 2 -0.9680091306466629 true
gene 1 3 12 0.5047755906668215 false 3 0.5047755906668215 true
gene 1 4 12 -0.7937219333210337 false 4 -0.7937219333210337 true
gene 1 5 12 -0.5193971601018953 false 5 -0.5193971601018953 true
gene 1 6 12 -0.8278421158400266 false 6 -0.8278421158400266 true
gene 1 7 12 -0.3465786245131949 false 7 -0.3465786245131949 true
gene 1 8 12 -0.14707693962432225 false 8 -0.14707693962432225 true
gene 1 9 12 0.3559859164104406 false 9 0.3559859164104406 true
gene 1 10 12 0.27648192482742645 false 10 0.27648192482742645 true
gene 1 11 12 -0.34292923894166605 false 11 -0.34292923894166605 true
gene 1 12 13 0 false 12 0 true
gene 1 12 14 0.8895380260086247 false 13 0.8895380260086247 true
genomeend 157
/* Organism #161 Fitness: 0.193 Error: 0.807 */
genomestart 161
trait 1 0.1 0 0 0 0 0 0 0 
node 1 0 1 3
node 2 0 1 1
node 3 0 1 1
node 4 0 1 1
node 5 0 1 1
node 6 0 1 1
node 7 0 1 1
node 8 0 1 1
node 9 0 1 1
node 10 0 1 1
node 11 0 1 1
node 12 0 0 0
node 13 0 0 2
node 14 0 0 2
gene 1 1 12 -0.3336458003506592 false 1 -0.3336458003506592 true
gene 1 2 12 -0.9483562936843357 false 2 -0.9483562936843357 true
gene 1 3 12 0.9173975949973963 false 3 0.9173975949973963 true
gene 1 4 12 0.7809635621602022 false 4 0.7809635621602022 true
gene 1 5 12 0.1779443877018162 false 5 0.1779443877018162 true
gene 1 6 12 0.06511323672911627 false 6 0.06511323672911627 true
gene 1 7 12 0.26677335803264357 false 7 0.26677335803264357 true
gene 1 8 12 -0.34147260080050124 false 8 -0.34147260080050124 true
gene 1 9 12 -0.5208500223342108 false 9 -0.5208500223342108 true
gene 1 10 12 -0.29468384288608396 false 10 -0.29468384288608396 true
gene 1 11 12 0.23384299576260137 false 11 0.23384299576260137 true
gene 1 12 13 0 false 12 0 true
gene 1 12 14 0.7398938888521968 false 13 0.7398938888521968 true
genomeend 161
/* Organism #202 Fitness: 0.193 Error: 0.807 */
genomestart 202
trait 1 0.1 0 0 0 0 0 0 0 
node 1 0 1 3
node 2 0 1 1
node 3 0 1 1
node 4 0 1 1
node 5 0 1 1
node 6 0 1 1
node 7 0 1 1
node 8 0 1 1
node 9 0 1 1
node 10 0 1 1
node 11 0 1 1
node 12 0 0 0
node 13 0 0 2
node 14 0 0 2
gene 1 1 12 -0.7269583412500579 false 1 -0.7269583412500579 true
gene 1 2 12 0.5803772703464598 false 2 0.5803772703464598 true
gene 1 3 12 -0.6879412135942529 false 3 -0.6879412135942529 true
gene 1 4 12 0.8356671748474023 false 4 0.8356671748474023 true
gene 1 5 12 -0.38177223055505455 false 5 -0.38177223055505455 true
gene 1 6 12 0.48169114857322104 false 6 0.48169114857322104 true
gene 1 7 12 0.6110211300834469 false 7 0.6110211300834469 true
gene 1 8 12 -0.34102975190317225 false 8 -0.34102975190317225 true
gene 1 9 12 -0.36087529943213553 false 9 -0.36087529943213553 true
gene 1 10 12 0.7633145824251149 false 10 0.7633145824251149 true
gene 1 11 12 -0.9192573512176673 false 11 -0.9192573512176673 true
gene 1 12 13 0 false 12 0 true
gene 1 12 14 0.7559879340536527 false 13 0.7559879340536527 true
genomeend 202
/* Organism #26 Fitness: 0.193 Error: 0.807 */
genomestart 26
trait 1 0.1 0 0 0 0 0 0 0 
node 1 0 1 3
node 2 0 1 1
node 3 0 1 1
node 4 0 1 1
node 5 0 1 1
node 6 0 1 1
node 7 0 1 1
node 8 0 1 1
node 9 0 1 1
node 10 0 1 1
node 11 0 1 1
node 12 0 0 0
node 13 0 0 2
node 14 0 0 2
gene 1 1 12 -0.5143077665463345 false 1 -0.5143077665463345 true
gene 1 2 12 -0.05176140428460561 false 2 -0.05176140428460561 true
gene 1 3 12 -0.4906561495294332 false 3 -0.4906561495294332 true
gene 1 4 12 0.6537115770063501 false 4 0.6537115770063501 true
gene 1 5 12 0.48070560786518857 false 5 0.48070560786518857 true
gene 1 6 12 0.3343054841726875 false 6 0.3343054841726875 true
gene 1 7 12 -0.09966432602252805 false 7 -0.09966432602252805 true
gene 1 8 12 0.07549241442537914 false 8 0.07549241442537914 true
gene 1 9 12 -0.8964645263680637 false 9 -0.8964645263680637 true
gene 1 10 12 -0.21968004364879434 false 10 -0.21968004364879434 true
gene 1 11 12 -0.49953780711778134 false 11 -0.49953780711778134 true
gene 1 12 13 0 false 12 0 true
gene 1 12 14 0.789801210196517 false 13 0.789801210196517 true
genomeend 26
/* Organism #177 Fitness: 0.191 Error: 0.809 */
genomestart 177
trait 1 0.1 0 0 0 0 0 0 0 
node 1 0 1 3
node 2 0 1 1
node 3 0 1 1
node 4 0 1 1
node 5 0 1 1
node 6 0 1 1
node 7 0 1 1
node 8 0 1 1
node 9 0 1 1
node 10 0 1 1
node 11 0 1 1
node 12 0 0 0
node 13 0 0 2
node 14 0 0 2
gene 1 1 12 0.5652155010381948 false 1 0.5652155010381948 true
gene 1 2 12 0.3297564275030618 false 2 0.3297564275030618 true
gene 1 3 12 -0.7116826196458353 false 3 -0.7116826196458353 true
gene 1 4 12 0.8981763580226899 false 4 0.8981763580226899 true
gene 1 5 12 -0.15452847897147964 false 5 -0.15452847897147964 true
gene 1 6 12 0.5940960920154883 false 6 0.5940960920154883 true
gene 1 7 12 0.42588469423119424 false 7 0.42588469423119424 true
gene 1 8 12 0.2565309562507302 false 8 0.2565309562507302 true
gene 1 9 12 -0.5472416054458118 false 9 -0.5472416054458118 true
gene 1 10 12 0.133957927135482 false 10 0.133957927135482 true
gene 1 11 12 0.3356041308242265 false 11 0.3356041308242265 true
gene 1 12 13 0 false 12 0 true
gene 1 12 14 0.15200541053078356 false 13 0.15200541053078356 true
genomeend 177
/* Organism #117 Fitness: 0.191 Error: 0.809 */
genomestart 117
trait 1 0.1 0 0 0 0 0 0 0 
node 1 0 1 3
node 2 0 1 1
node 3 0 1 1
node 4 0 1 1
node 5 0 1 1
node 6 0 1 1
node 7 0 1 1
node 8 0 1 1
node 9 0 1 1
node 10 0 1 1
node 11 0 1 1
node 12 0 0 0
node 13 0 0 2
node 14 0 0 2
gene 1 1 12 -0.023763800031230634 false 1 -0.023763800031230634 true
gene 1 2 12 -0.7838214544628257 false 2 -0.7838214544628257 true
gene 1 3 12 0.38546865398023256 false 3 0.38546865398023256 true
gene 1 4 12 -0.5812529657091067 false 4 -0.5812529657091067 true
gene 1 5 12 -0.2811319170984546 false 5 -0.2811319170984546 true
gene 1 6 12 -0.31968803650250194 false 6 -0.31968803650250194 true
gene 1 7 12 0.40610432594410023 false 7 0.40610432594410023 true
gene 1 8 12 0.9453441030197867 false 8 0.9453441030197867 true
gene 1 9 12 0.5046048409100433 false 9 0.5046048409100433 true
gene 1 10 12 -0.013079229185757973 false 10 -0.013079229185757973 true
gene 1 11 12 0.9160773450035455 false 11 0.9160773450035455 true
gene 1 12 13 0 false 12 0 true
gene 1 12 14 0.9719727410195222 false 13 0.9719727410195222 true
genomeend 117
/* Organism #25 Fitness: 0.189 Error: 0.811 */
genomestart 25
trait 1 0.1 0 0 0 0 0 0 0 
node 1 0 1 3
node 2 0 1 1
node 3 0 1 1
node 4 0 1 1
node 5 0 1 1
node 6 0 1 1
node 7 0 1 1
node 8 0 1 1
node 9 0 1 1
node 10 0 1 1
node 11 0 1 1
node 12 0 0 0
node 13 0 0 2
node 14 0 0 2
gene 1 1 12 0.8383041988340193 false 1 0.8383041988340193 true
gene 1 2 12 0.8206366006550051 false 2 0.8206366006550051 true
gene 1 3 12 -0.6940282956794515 false 3 -0.6940282956794515 true
gene 1 4 12 -0.3966423392941442 false 4 -0.3966423392941442 true
gene 1 5 12 0.678024816543162 false 5 0.678024816543162 true
gene 1 6 12 -0.5533555988071163 false 6 -0.5533555988071163 true
gene 1 7 12 0.23343641229569334 false 7 0.23343641229569334 true
gene 1 8 12 -0.7060512572184909 false 8 -0.7060512572184909 true
gene 1 9 12 -0.48808487889038743 false 9 -0.48808487889038743 true
gene 1 10 12 0.8501266889946872 false 10 0.8501266889946872 true
gene 1 11 12 0 false 11 0 true
gene 1 12 13 0 false 12 0 true
gene 1 12 14 0.5125350765135646 false 13 0.5125350765135646 true
genomeend 25
/* Organism #195 Fitness: 0.188 Error: 0.812 */
genomestart 195
trait 1 0.1 0 0 0 0 0 0 0 
node 1 0 1 3
node 2 0 1 1
node 3 0 1 1
node 4 0 1 1
node 5 0 1 1
node 6 0 1 1
node 7 0 1 1
node 8 0 1 1
node 9 0 1 1
node 10 0 1 1
node 11 0 1 1
node 12 0 0 0
node 13 0 0 2
node 14 0 0 2
gene 1 1 12 0.053442832589830694 false 1 0.053442832589830694 true
gene 1 2 12 0.6097909205253507 false 2 0.6097909205253507 true
gene 1 3 12 -0.7267549882670514 false 3 -0.7267549882670514 true
gene 1 4 12 -0.7165466014607881 false 4 -0.7165466014607881 true
gene 1 5 12 -0.38970145338826934 false 5 -0.38970145338826934 true
gene 1 6 12 0.44520241073385364 false 6 0.44520241073385364 true
gene 1 7 12 -0.7910936494233495 false 7 -0.7910936494233495 true
gene 1 8 12 0.9065114778331183 false 8 0.9065114778331183 true
gene 1 9 12 0.41969430419317744 false 9 0.41969430419317744 true
gene 1 10 12 0.4837860309309863 false 10 0.4837860309309863 true
gene 1 11 12 -0.5258862728301764 false 11 -0.5258862728301764 true
gene 1 12 13 0.049326078753392816 false 12 0.049326078753392816 true
gene 1 12 14 0.3142806303277631 false 13 0.3142806303277631 true
genomeend 195
/* Organism #144 Fitness: 0.188 Error: 0.812 */
genomestart 144
trait 1 0.1 0 0 0 0 0 0 0 
node 1 0 1 3
node 2 0 1 1
node 3 0 1 1
node 4 0 1 1
node 5 0 1 1
node 6 0 1 1
node 7 0 1 1
node 8 0 1 1
node 9 0 1 1
node 10 0 1 1
node 11 0 1 1
node 12 0 0 0
node 13 0 0 2
node 14 0 0 2
gene 1 1 12 0 false 1 0 true
gene 1 2 12 -0.6119264024985168 false 2 -0.6119264024985168 true
gene 1 3 12 0 false 3 0 true
gene 1 4 12 -0.648524887776719 false 4 -0.648524887776719 true
gene 1 5 12 0.3060856647791124 false 5 0.3060856647791124 true
gene 1 6 12 0.1306983773482409 false 6 0.1306983773482409 true
gene 1 7 12 0.016852691126288975 false 7 0.016852691126288975 true
gene 1 8 12 0.022519347320464587 false 8 0.022519347320464587 true
gene 1 9 12 -0.19943976041237907 false 9 -0.19943976041237907 true
gene 1 10 12 -0.3324989319335925 false 10 -0.3324989319335925 true
gene 1 11 12 0.2934653291247838 false 11 0.2934653291247838 true
gene 1 12 13 0 false 12 0 true
gene 1 12 14 0.9227612118879673 false 13 0.9227612118879673 true
genomeend 144
/* Organism #12 Fitness: 0.187 Error: 0.813 */
genomestart 12
trait 1 0.1 0 0 0 0 0 0 0 
node 1 0 1 3
node 2 0 1 1
node 3 0 1 1
node 4 0 1 1
node 5 0 1 1
node 6 0 1 1
node 7 0 1 1
node 8 0 1 1
node 9 0 1 1
node 10 0 1 1
node 11 0 1 1
node 12 0 0 0
node 13 0 0 2
node 14 0 0 2
gene 1 1 12 -0.3070069973070702 false 1 -0.3070069973070702 true
gene 1 2 12 0.970923636394526 false 2 0.970923636394526 true
gene 1 3 12 0.9435888072719675 false 3 0.9435888072719675 true
gene 1 4 12 -0.29445816471688546 false 4 -0.29445816471688546 true
gene 1 5 12 0.2183213553678607 false 5 0.2183213553678607 true
gene 1 6 12 0.43536926076128013 false 6 0.43536926076128013 true
gene 1 7 12 -0.2870483529807158 false 7 -0.2870483529807158 true
gene 1 8 12 0.9966245565949751 false 8 0.9966245565949751 true
gene 1 9 12 -0.22848119838131017 false 9 -0.22848119838131017 true
gene 1 10 12 0.6740286362941845 false 10 0.6740286362941845 true
gene 1 11 12 0.9354126956328992 false 11 0.9354126956328992 true
gene 1 12 13 0.649453056987121 false 12 0.649453056987121 true
gene 1 12 14 0.602186755414215 false 13 0.602186755414215 true
genomeend 12
/* Organism #126 Fitness: 0.186 Error: 0.814 */
genomestart 126
trait 1 0.1 0 0 0 0 0 0 0 
node 1 0 1 3
node 2 0 1 1
node 3 0 1 1
node 4 0 1 1
node 5 0 1 1
node 6 0 1 1
node 7 0 1 1
node 8 0 1 1
node 9 0 1 1
node 10 0 1 1
node 11 0 1 1
node 12 0 0 0
node 13 0 0 2
node 14 0 0 2
gene 1 1 12 0.24221857296356553 false 1 0.24221857296356553 true
gene 1 2 12 0.9516102213755492 false 2 0.9516102213755492 true
gene 1 3 12 -0.7402353787156974 false 3 -0.7402353787156974 true
gene 1 4 12 0.7456683664425982 false 4 0.7456683664425982 true
gene 1 5 12 -0.15169660435829752 false 5 -0.15169660435829752 true
gene 1 6 12 -0.5133951623060626 false 6 -0.5133951623060626 true
gene 1 7 12 0.7760660284905254 false 7 0.7760660284905254 true
gene 1 8 12 -0.1749645119480529 false 8 -0.1749645119480529 true
gene 1 9 12 -0.009365286533495967 false 9 -0.009365286533495967 true
gene 1 10 12 0.45943502245059625 false 10 0.45943502245059625 true
gene 1 11 12 -0.23142750768314332 false 11 -0.23142750768314332 true
gene 1 12 13 0.36757369638253196 false 12 0.36757369638253196 true
gene 1 12 14 0.9369465058186891 false 13 0.9369465058186891 true
genomeend 126
/* Organism #91 Fitness: 0.185 Error: 0.815 */
genomestart 91
trait 1 0.1 0 0 0 0 0 0 0 
node 1 0 1 3
node 2 0 1 1
node 3 0 1 1
node 4 0 1 1
node 5 0 1 1
node 6 0 1 1
node 7 0 1 1
node 8 0 1 1
node 9 0 1 1
node 10 0 1 1
node 11 0 1 1
node 12 0 0 0
node 13 0 0 2
node 14 0 0 2
gene 1 1 12 -0.18016379284092224 false 1 -0.18016379284092224 true
gene 1 2 12 -0.5849440331967704 false 2 -0.5849440331967704 true
gene 1 3 12 0.8966766000583452 false 3 0.8966766000583452 true
gene 1 4 12 -0.8142178095618281 false 4 -0.8142178095618281 true
gene 1 5 12 -0.5349484444721161 false 5 -0.5349484444721161 true
gene 1 6 12 0.2266027574273244 false 6 0.2266027574273244 true
gene 1 7 12 0.45546453282025046 false 7 0.45546453282025046 true
gene 1 8 12 0.5760806259607645 false 8 0.5760806259607645 true
gene 1 9 12 -0.7922521259972867 false 9 -0.7922521259972867 true
gene 1 10 12 0.25392705602493526 false 10 0.25392705602493526 true
gene 1 11 12 0.4048598221925498 false 11 0.4048598221925498 true
gene 1 12 13 0.8171774737683483 false 12 0.8171774737683483 true
gene 1 12 14 0.5496142657635034 false 13 0.5496142657635034 true
genomeend 91
/* Organism #8 Fitness: 0.184 Error: 0.816 */
genomestart 8
trait 1 0.1 0 0 0 0 0 0 0 
node 1 0 1 3
node 2 0 1 1
node 3 0 1 1
node 4 0 1 1
node 5 0 1 1
node 6 0 1 1
node 7 0 1 1
node 8 0 1 1
node 9 0 1 1
node 10 0 1 1
node 11 0 1 1
node 12 0 0 0
node 13 0 0 2
node 14 0 0 2
gene 1 1 12 0.47020372525196596 false 1 0.47020372525196596 true
gene 1 2 12 0 false 2 0 true
gene 1 3 12 -0.2165904172944399 false 3 -0.2165904172944399 true
gene 1 4 12 0.5145427118779364 false 4 0.5145427118779364 true
gene 1 5 12 -0.15960736557300786 false 5 -0.15960736557300786 true
gene 1 6 12 0.009715981669752167 false 6 0.009715981669752167 true
gene 1 7 12 0.05532206337646004 false 7 0.05532206337646004 true
gene 1 8 12 -0.8218214501446183 false 8 -0.8218214501446183 true
gene 1 9 12 0.3354369460844246 false 9 0.3354369460844246 true
gene 1 10 12 0.867421810099476 false 10 0.867421810099476 true
gene 1 11 12 -0.05766859747758075 false 11 -0.05766859747758075 true
gene 1 12 13 0.6238939920562508 false 12 0.6238939920562508 true
gene 1 12 14 0.3329144656747417 false 13 0.3329144656747417 true
genomeend 8
/* Organism #237 Fitness: 0.183 Error: 0.817 */
genomestart 237
trait 1 0.1 0 0 0 0 0 0 0 
node 1 0 1 3
node 2 0 1 1
node 3 0 1 1
node 4 0 1 1
node 5 0 1 1
node 6 0 1 1
node 7 0 1 1
node 8 0 1 1
node 9 0 1 1
node 10 0 1 1
node 11 0 1 1
node 12 0 0 0
node 13 0 0 2
node 14 0 0 2
gene 1 1 12 -0.07773630406840124 false 1 -0.07773630406840124 true
gene 1 2 12 0.6992887036702216 false 2 0.6992887036702216 true
gene 1 3 12 0.1928428111145148 false 3 0.1928428111145148 true
gene 1 4 12 0.2922404388502863 false 4 0.2922404388502863 true
gene 1 5 12 0.6095227692901631 false 5 0.6095227692901631 true
gene 1 6 12 -0.09369428275846915 false 6 -0.09369428275846915 true
gene 1 7 12 0.5788726669149145 false 7 0.5788726669149145 true
gene 1 8 12 -0.3329408469710281 false 8 -0.3329408469710281 true
gene 1 9 12 -0.7773223069925856 false 9 -0.7773223069925856 true
gene 1 10 12 0.6699974338104582 false 10 0.6699974338104582 true
gene 1 11 12 0.663056926165658 false 11 0.663056926165658 true
gene 1 12 13 0.38026672274444834 false 12 0.38026672274444834 true
gene 1 12 14 0.7993879240867573 false 13 0.7993879240867573 true
genomeend 237
/* Organism #155 Fitness: 0.181 Error: 0.819 */
genomestart 155
trait 1 0.1 0 0 0 0 0 0 0 
node 1 0 1 3
node 2 0 1 1
node 3 0 1 1
node 4 0 1 1
node 5 0 1 1
node 6 0 1 1
node 7 0 1 1
node 8 0 1 1
node 9 0 1 1
node 10 0 1 1
node 11 0 1 1
node 12 0 0 0
node 13 0 0 2
node 14 0 0 2
gene 1 1 12 0.2540340588542425 false 1 0.2540340588542425 true
gene 1 2 12 -0.9439131009908115 false 2 -0.9439131009908115 true
gene 1 3 12 0 false 3 0 true
gene 1 4 12 -0.10134778430300542 false 4 -0.10134778430300542 true
gene 1 5 12 0 false 5 0 true
gene 1 6 12 0.03352574131240098 false 6 0.03352574131240098 true
gene 1 7 12 -0.33629524441852987 false 7 -0.33629524441852987 true
gene 1 8 12 -0.7768825623515655 false 8 -0.7768825623515655 true
gene 1 9 12 0.15178995529825998 false 9 0.15178995529825998 true
gene 1 10 12 -0.43389873358262143 false 10 -0.43389873358262143 true
gene 1 11 12 0 false 11 0 true
gene 1 12 13 0.28675503420605675 false 12 0.28675503420605675 true
gene 1 12 14 0.11494537432596544 false 13 0.11494537432596544 true
genomeend 155
/* Organism #242 Fitness: 0.178 Error: 0.822 */
genomestart 242
trait 1 0.1 0 0 0 0 0 0 0 
node 1 0 1 3
node 2 0 1 1
node 3 0 1 1
node 4 0 1 1
node 5 0 1 1
node 6 0 1 1
node 7 0 1 1
node 8 0 1 1
node 9 0 1 1
node 10 0 1 1
node 11 0 1 1
node 12 0 0 0
node 13 0 0 2
node 14 0 0 2
gene 1 1 12 0.6667476222276482 false 1 0.6667476222276482 true
gene 1 2 12 0.9799891631174628 false 2 0.9799891631174628 true
gene 1 3 12 -0.44464697754124033 false 3 -0.44464697754124033 true
gene 1 4 12 -0.4122672213614414 false 4 -0.4122672213614414 true
gene 1 5 12 -0.4980570693291428 false 5 -0.4980570693291428 true
gene 1 6 12 -0.40587368148412434 false 6 -0.40587368148412434 true
gene 1 7 12 -0.3101749323607499 false 7 -0.3101749323607499 true
gene 1 8 12 -0.19375462924574446 false 8 -0.19375462924574446 true
gene 1 9 12 -0.2900211180346683 false 9 -0.2900211180346683 true
gene 1 10 12 0.29889491089146975 false 10 0.29889491089146975 true
gene 1 11 12 -0.9281688974293404 false 11 -0.9281688974293404 true
gene 1 12 13 -0.8706409361791496 false 12 -0.8706409361791496 true
gene 1 12 14 0.501053914774188 false 13 0.501053914774188 true
genomeend 242
/* Organism #87 Fitness: 0.176 Error: 0.824 */
genomestart 87
trait 1 0.1 0 0 0 0 0 0 0 
node 1 0 1 3
node 2 0 1 1
node 3 0 1 1
node 4 0 1 1
node 5 0 1 1
node 6 0 1 1
node 7 0 1 1
node 8 0 1 1
node 9 0 1 1
node 10 0 1 1
node 11 0 1 1
node 12 0 0 0
node 13 0 0 2
node 14 0 0 2
gene 1 1 12 0.017810089166030642 false 1 0.017810089166030642 true
gene 1 2 12 0.282160769344682 false 2 0.282160769344682 true
gene 1 3 12 -0.6794024534478496 false 3 -0.6794024534478496 true
gene 1 4 12 0 false 4 0 true
gene 1 5 12 -0.9767940222581972 false 5 -0.9767940222581972 true
gene 1 6 12 0 false 6 0 true
gene 1 7 12 0.752380195924025 false 7 0.752380195924025 true
gene 1 8 12 -0.5393162967015536 false 8 -0.5393162967015536 true
gene 1 9 12 0.44513353617048995 false 9 0.44513353617048995 true
gene 1 10 12 -0.12078881311165224 false 10 -0.12078881311165224 true
gene 1 11 12 0.15815665781924482 false 11 0.15815665781924482 true
gene 1 12 13 0.8653825190510013 false 12 0.8653825190510013 true
gene 1 12 14 0.1675583440000861 false 13 0.1675583440000861 true
genomeend 87
/* Organism #145 Fitness: 0.173 Error: 0.827 */
genomestart 145
trait 1 0.1 0 0 0 0 0 0 0 
node 1 0 1 3
node 2 0 1 1
node 3 0 1 1
node 4 0 1 1
node 5 0 1 1
node 6 0 1 1
node 7 0 1 1
node 8 0 1 1
node 9 0 1 1
node 10 0 1 1
node 11 0 1 1
node 12 0 0 0
node 13 0 0 2
node 14 0 0 2
gene 1 1 12 -0.03417774047496524 false 1 -0.03417774047496524 true
gene 1 2 12 0.14757301782071877 false 2 0.14757301782071877 true
gene 1 3 12 -0.6324889079806217 false 3 -0.6324889079806217 true
gene 1 4 12 0.20888651454979118 false 4 0.20888651454979118 true
gene 1 5 12 0.16682945849876488 false 5 0.16682945849876488 true
gene 1 6 12 0.4168894643290476 false 6 0.4168894643290476 true
gene 1 7 12 0.21358172992337615 false 7 0.21358172992337615 true
gene 1 8 12 -0.007098865169652948 false 8 -0.007098865169652948 true
gene 1 9 12 -0.8058091072309747 false 9 -0.8058091072309747 true
gene 1 10 12 -0.6988076096283756 false 10 -0.6988076096283756 true
gene 1 11 12 -0.2882053675660652 false 11 -0.2882053675660652 true
gene 1 12 13 0.008360310180138098 false 12 0.008360310180138098 true
gene 1 12 14 0.7983411539893588 false 13 0.7983411539893588 true
genomeend 145
/* Organism #239 Fitness: 0.171 Error: 0.829 */
genomestart 239
trait 1 0.1 0 0 0 0 0 0 0 
node 1 0 1 3
node 2 0 1 1
node 3 0 1 1
node 4 0 1 1
node 5 0 1 1
node 6 0 1 1
node 7 0 1 1
node 8 0 1 1
node 9 0 1 1
node 10 0 1 1
node 11 0 1 1
node 12 0 0 0
node 13 0 0 2
node 14 0 0 2
gene 1 1 12 0.9115947594800253 false 1 0.9115947594800253 true
gene 1 2 12 0.114183383676444 false 2 0.114183383676444 true
gene 1 3 12 0.7545942626476566 false 3 0.7545942626476566 true
gene 1 4 12 -0.4945697229295355 false 4 -0.4945697229295355 true
gene 1 5 12 -0.09654840580360531 false 5 -0.09654840580360531 true
gene 1 6 12 0.4879638543340012 false 6 0.4879638543340012 true
gene 1 7 12 0.8368302264016012 false 7 0.8368302264016012 true
gene 1 8 12 0.1738696359183773 false 8 0.1738696359183773 true
gene 1 9 12 -0.40229656412492737 false 9 -0.40229656412492737 true
gene 1 10 12 -0.5703388365245158 false 10 -0.5703388365245158 true
gene 1 11 12 -0.5536496790917428 false 11 -0.5536496790917428 true
gene 1 12 13 0.48490729844704084 false 12 0.48490729844704084 true
gene 1 12 14 0.13353607489085328 false 13 0.13353607489085328 true
genomeend 239
/* Organism #49 Fitness: 0.170 Error: 0.830 */
genomestart 49
trait 1 0.1 0 0 0 0 0 0 0 
node 1 0 1 3
node 2 0 1 1
node 3 0 1 1
node 4 0 1 1
node 5 0 1 1
node 6 0 1 1
node 7 0 1 1
node 8 0 1 1
node 9 0 1 1
node 10 0 1 1
node 11 0 1 1
node 12 0 0 0
node 13 0 0 2
node 14 0 0 2
gene 1 1 12 -0.19372143458887675 false 1 -0.19372143458887675 true
gene 1 2 12 -0.22073501938662243 false 2 -0.22073501938662243 true
gene 1 3 12 0.5103617454047492 false 3 0.5103617454047492 true
gene 1 4 12 0.4874046723787758 false 4 0.4874046723787758 true
gene 1 5 12 0.5335399180907807 false 5 0.5335399180907807 true
gene 1 6 12 0.6028131377700264 false 6 0.6028131377700264 true
gene 1 7 12 -0.030802904133848504 false 7 -0.030802904133848504 true
gene 1 8 12 -0.3292862015820917 false 8 -0.3292862015820917 true
gene 1 9 12 0.14882864373853127 false 9 0.14882864373853127 true
gene 1 10 12 0.2321507278461916 false 10 0.2321507278461916 true
gene 1 11 12 0.7557030006001297 false 11 0.7557030006001297 true
gene 1 12 13 0.7915798448763443 false 12 0.7915798448763443 true
gene 1 12 14 0.4553068706341545 false 13 0.4553068706341545 true
genomeend 49
/* Organism #9 Fitness: 0.170 Error: 0.830 */
genomestart 9
trait 1 0.1 0 0 0 0 0 0 0 
node 1 0 1 3
node 2 0 1 1
node 3 0 1 1
node 4 0 1 1
node 5 0 1 1
node 6 0 1 1
node 7 0 1 1
node 8 0 1 1
node 9 0 1 1
node 10 0 1 1
node 11 0 1 1
node 12 0 0 0
node 13 0 0 2
node 14 0 0 2
gene 1 1 12 0 false 1 0 true
gene 1 2 12 -0.991382170012744 false 2 -0.991382170012744 true
gene 1 3 12 -0.7926854655365225 false 3 -0.7926854655365225 true
gene 1 4 12 0.9177401562164345 false 4 0.9177401562164345 true
gene 1 5 12 -0.05954312910662084 false 5 -0.05954312910662084 true
gene 1 6 12 0.5393553928829766 false 6 0.5393553928829766 true
gene 1 7 12 0.6173829380232939 false 7 0.6173829380232939 true
gene 1 8 12 -0.26926806081178156 false 8 -0.26926806081178156 true
gene 1 9 12 -0.29583178055032394 false 9 -0.29583178055032394 true
gene 1 10 12 -0.7620634157722866 false 10 -0.7620634157722866 true
gene 1 11 12 0.040431597353390206 false 11 0.040431597353390206 true
gene 1 12 13 0.7736975383134693 false 12 0.7736975383134693 true
gene 1 12 14 0.9930367460760123 false 13 0.9930367460760123 true
genomeend 9
/* Organism #140 Fitness: 0.169 Error: 0.831 */
genomestart 140
trait 1 0.1 0 0 0 0 0 0 0 
node 1 0 1 3
node 2 0 1 1
node 3 0 1 1
node 4 0 1 1
node 5 0 1 1
node 6 0 1 1
node 7 0 1 1
node 8 0 1 1
node 9 0 1 1
node 10 0 1 1
node 11 0 1 1
node 12 0 0 0
node 13 0 0 2
node 14 0 0 2
gene 1 1 12 -0.6681930713541503 false 1 -0.6681930713541503 true
gene 1 2 12 0.2539200132677332 false 2 0.2539200132677332 true
gene 1 3 12 -0.16171472804895007 false 3 -0.16171472804895007 true
gene 1 4 12 0.2252233803028557 false 4 0.2252233803028557 true
gene 1 5 12 0.5033142117243555 false 5 0.5033142117243555 true
gene 1 6 12 0.295352266256796 false 6 0.295352266256796 true
gene 1 7 12 -0.4658087956968531 false 7 -0.4658087956968531 true
gene 1 8 12 0.020528806427661857 false 8 0.020528806427661857 true
gene 1 9 12 -0.9214262459504432 false 9 -0.9214262459504432 true
gene 1 10 12 -0.6610696295157829 false 10 -0.6610696295157829 true
gene 1 11 12 -0.5292436042824181 false 11 -0.5292436042824181 true
gene 1 12 13 0.4394024517764009 false 12 0.4394024517764009 true
gene 1 12 14 0.09925090025950864 false 13 0.09925090025950864 true
genomeend 140
/* Organism #74 Fitness: 0.168 Error: 0.832 */
genomestart 74
trait 1 0.1 0 0 0 0 0 0 0 
node 1 0 1 3
node 2 0 1 1
node 3 0 1 1
node 4 0 1 1
node 5 0 1 1
node 6 0 1 1
node 7 0 1 1
node 8 0 1 1
node 9 0 1 1
node 10 0 1 1
node 11 0 1 1
node 12 0 0 0
node 13 0 0 2
node 14 0 0 2
gene 1 1 12 0.6080284346256977 false 1 0.6080284346256977 true
gene 1 2 12 0.5462376648466619 false 2 0.5462376648466619 true
gene 1 3 12 -0.7580524104069503 false 3 -0.7580524104069503 true
gene 1 4 12 -0.4172515444735545 false 4 -0.4172515444735545 true
gene 1 5 12 -0.030994246729176767 false 5 -0.030994246729176767 true
gene 1 6 12 -0.66706069824129 false 6 -0.66706069824129 true
gene 1 7 12 -0.6941289105733937 false 7 -0.6941289105733937 true
gene 1 8 12 0.1888107477788898 false 8 0.1888107477788898 true
gene 1 9 12 -0.10242082163586891 false 9 -0.10242082163586891 true
gene 1 10 12 -0.6038186494996309 false 10 -0.6038186494996309 true
gene 1 11 12 -0.6837503121159973 false 11 -0.6837503121159973 true
gene 1 12 13 0.09589106237690444 false 12 0.09589106237690444 true
gene 1 12 14 0.8043816596722687 false 13 0.8043816596722687 true
genomeend 74
/* Organism #98 Fitness: 0.168 Error: 0.832 */
genomestart 98
trait 1 0.1 0 0 0 0 0 0 0 
node 1 0 1 3
node 2 0 1 1
node 3 0 1 1
node 4 0 1 1
node 5 0 1 1
node 6 0 1 1
node 7 0 1 1
node 8 0 1 1
node 9 0 1 1
node 10 0 1 1
node 11 0 1 1
node 12 0 0 0
node 13 0 0 2
node 14 0 0 2
gene 1 1 12 0.02716804045328714 false 1 0.02716804045328714 true
gene 1 2 12 -0.6668476029419245 false 2 -0.6668476029419245 true
gene 1 3 12 -0.350706883127454 false 3 -0.350706883127454 true
gene 1 4 12 0.05627253071347499 false 4 0.05627253071347499 true
gene 1 5 12 0 false 5 0 true
gene 1 6 12 -0.6896752857990287 false 6 -0.6896752857990287 true
gene 1 7 12 -0.5182779226626635 false 7 -0.5182779226626635 true
gene 1 8 12 -0.6602974514412118 false 8 -0.6602974514412118 true
gene 1 9 12 0.46333803898277637 false 9 0.46333803898277637 true
gene 1 10 12 -0.6491728816737903 false 10 -0.6491728816737903 true
gene 1 11 12 0.8701868982412828 false 11 0.8701868982412828 true
gene 1 12 13 0.5679200129635573 false 12 0.5679200129635573 true
gene 1 12 14 0.8235860508235152 false 13 0.8235860508235152 true
genomeend 98
/* Organism #40 Fitness: 0.167 Error: 0.833 */
genomestart 40
trait 1 0.1 0 0 0 0 0 0 0 
node 1 0 1 3
node 2 0 1 1
node 3 0 1 1
node 4 0 1 1
node 5 0 1 1
node 6 0 1 1
node 7 0 1 1
node 8 0 1 1
node 9 0 1 1
node 10 0 1 1
node 11 0 1 1
node 12 0 0 0
node 13 0 0 2
node 14 0 0 2
gene 1 1 12 -0.2589332552125076 false 1 -0.2589332552125076 true
gene 1 2 12 -0.29979133812383424 false 2 -0.29979133812383424 true
gene 1 3 12 0.9084334800802492 false 3 0.9084334800802492 true
gene 1 4 12 -0.30276919710465755 false 4 -0.30276919710465755 true
gene 1 5 12 0.7383738140773433 false 5 0.7383738140773433 true
gene 1 6 12 -0.37060054955939076 false 6 -0.37060054955939076 true
gene 1 7 12 -0.4776257782499355 false 7 -0.4776257782499355 true
gene 1 8 12 0.990714519145118 false 8 0.990714519145118 true
gene 1 9 12 -0.1551516958970204 false 9 -0.1551516958970204 true
gene 1 10 12 0.26881880287847043 false 10 0.26881880287847043 true
gene 1 11 12 -0.1450350371026484 false 11 -0.1450350371026484 true
gene 1 12 13 0.08713256473024586 false 12 0.08713256473024586 true
gene 1 12 14 -0.24676818251568006 false 13 -0.24676818251568006 true
genomeend 40
/* Organism #173 Fitness: 0.166 Error: 0.834 */
genomestart 173
trait 1 0.1 0 0 0 0 0 0 0 
node 1 0 1 3
node 2 0 1 1
node 3 0 1 1
node 4 0 1 1
node 5 0 1 1
node 6 0 1 1
node 7 0 1 1
node 8 0 1 1
node 9 0 1 1
node 10 0 1 1
node 11 0 1 1
node 12 0 0 0
node 13 0 0 2
node 14 0 0 2
gene 1 1 12 0.8442385724849737 false 1 0.8442385724849737 true
gene 1 2 12 0.2710636012277759 false 2 0.2710636012277759 true
gene 1 3 12 0.5529611710589365 false 3 0.5529611710589365 true
gene 1 4 12 -0.9375291405750862 false 4 -0.9375291405750862 true
gene 1 5 12 0.1390408806227967 false 5 0.1390408806227967 true
gene 1 6 12 0.3873828636146086 false 6 0.3873828636146086 true
gene 1 7 12 0.2571787823297219 false 7 0.2571787823297219 true
gene 1 8 12 -0.8367333477473253 false 8 -0.8367333477473253 true
gene 1 9 12 -0.9262565784290394 false 9 -0.9262565784290394 true
gene 1 10 12 -0.820086517373579 false 10 -0.820086517373579 true
gene 1 11 12 0.27082841829981863 false 11 0.27082841829981863 true
gene 1 12 13 0.02491558029415763 false 12 0.02491558029415763 true
gene 1 12 14 -0.646909124784696 false 13 -0.646909124784696 true
genomeend 173
/* Organism #45 Fitness: 0.163 Error: 0.837 */
genomestart 45
trait 1 0.1 0 0 0 0 0 0 0 
node 1 0 1 3
node 2 0 1 1
node 3 0 1 1
node 4 0 1 1
node 5 0 1 1
node 6 0 1 1
node 7 0 1 1
node 8 0 1 1
node 9 0 1 1
node 10 0 1 1
node 11 0 1 1
node 12 0 0 0
node 13 0 0 2
node 14 0 0 2
gene 1 1 12 0.12328372735081981 false 1 0.12328372735081981 true
gene 1 2 12 -0.7768600498986508 false 2 -0.7768600498986508 true
gene 1 3 12 -0.8571928119333119 false 3 -0.8571928119333119 true
gene 1 4 12 -0.17898941336505245 false 4 -0.17898941336505245 true
gene 1 5 12 0.41338684214470767 false 5 0.41338684214470767 true
gene 1 6 12 0.4986115830974532 false 6 0.4986115830974532 true
gene 1 7 12 -0.7873499819665483 false 7 -0.7873499819665483 true
gene 1 8 12 -0.7837622223529725 false 8 -0.7837622223529725 true
gene 1 9 12 -0.6511149807755787 false 9 -0.6511149807755787 true
gene 1 10 12 0.4467938050587956 false 10 0.4467938050587956 true
gene 1 11 12 0.8539571103555347 false 11 0.8539571103555347 true
gene 1 12 13 0.4852642523956708 false 12 0.4852642523956708 true
gene 1 12 14 -0.9973026480730887 false 13 -0.9973026480730887 true
genomeend 45
/* Organism #189 Fitness: 0.163 Error: 0.837 */
genomestart 189
trait 1 0.1 0 0 0 0 0 0 0 
node 1 0 1 3
node 2 0 1 1
node 3 0 1 1
node 4 0 1 1
node 5 0 1 1
node 6 0 1 1
node 7 0 1 1
node 8 0 1 1
node 9 0 1 1
node 10 0 1 1
node 11 0 1 1
node 12 0 0 0
node 13 0 0 2
node 14 0 0 2
gene 1 1 12 0 false 1 0 true
gene 1 2 12 0.6173514378677183 false 2 0.6173514378677183 true
gene 1 3 12 -0.3707972595843891 false 3 -0.3707972595843891 true
gene 1 4 12 0.1674657150882009 false 4 0.1674657150882009 true
gene 1 5 12 -0.27973858437957877 false 5 -0.27973858437957877 true
gene 1 6 12 -0.2952262063646356 false 6 -0.2952262063646356 true
gene 1 7 12 -0.6048142304997454 false 7 -0.6048142304997454 true
gene 1 8 12 -0.31211811471777035 false 8 -0.31211811471777035 true
gene 1 9 12 -0.4878226171453588 false 9 -0.4878226171453588 true
gene 1 10 12 0.45725017965995957 false 10 0.45725017965995957 true
gene 1 11 12 0.4812481193944554 false 11 0.4812481193944554 true
gene 1 12 13 -0.12354454639164286 false 12 -0.12354454639164286 true
gene 1 12 14 0.89902681460608 false 13 0.89902681460608 true
genomeend 189
/* Organism #39 Fitness: 0.162 Error: 0.838 */
genomestart 39
trait 1 0.1 0 0 0 0 0 0 0 
node 1 0 1 3
node 2 0 1 1
node 3 0 1 1
node 4 0 1 1
node 5 0 1 1
node 6 0 1 1
node 7 0 1 1
node 8 0 1 1
node 9 0 1 1
node 10 0 1 1
node 11 0 1 1
node 12 0 0 0
node 13 0 0 2
node 14 0 0 2
gene 1 1 12 0.09755500335379534 false 1 0.09755500335379534 true
gene 1 2 12 0.30901806097098833 false 2 0.30901806097098833 true
gene 1 3 12 0.6850791699699256 false 3 0.6850791699699256 true
gene 1 4 12 0.9261325264834277 false 4 0.9261325264834277 true
gene 1 5 12 0.8448022816322379 false 5 0.8448022816322379 true
gene 1 6 12 -0.12530917172161296 false 6 -0.12530917172161296 true
gene 1 7 12 0.2693726499626958 false 7 0.2693726499626958 true
gene 1 8 12 0.005012355113678666 false 8 0.005012355113678666 true
gene 1 9 12 -0.14702146649959802 false 9 -0.14702146649959802 true
gene 1 10 12 -0.028218223445721124 false 10 -0.028218223445721124 true
gene 1 11 12 0.11167887321819994 false 11 0.11167887321819994 true
gene 1 12 13 0.40933427831648556 false 12 0.40933427831648556 true
gene 1 12 14 0.6482306762214797 false 13 0.6482306762214797 true
genomeend 39
/* Organism #115 Fitness: 0.161 Error: 0.839 */
genomestart 115
trait 1 0.1 0 0 0 0 0 0 0 
node 1 0 1 3
node 2 0 1 1
node 3 0 1 1
node 4 0 1 1
node 5 0 1 1
node 6 0 1 1
node 7 0 1 1
node 8 0 1 1
node 9 0 1 1
node 10 0 1 1
node 11 0 1 1
node 12 0 0 0
node 13 0 0 2
node 14 0 0 2
gene 1 1 12 -0.23817327852288436 false 1 -0.23817327852288436 true
gene 1 2 12 -0.10137825654224249 false 2 -0.10137825654224249 true
gene 1 3 12 -0.10221208196788344 false 3 -0.10221208196788344 true
gene 1 4 12 0.989471755573841 false 4 0.989471755573841 true
gene 1 5 12 0.8692412197692958 false 5 0.8692412197692958 true
gene 1 6 12 -0.3405649012255133 false 6 -0.3405649012255133 true
gene 1 7 12 0.8788988956944137 false 7 0.8788988956944137 true
gene 1 8 12 -0.5467812761220644 false 8 -0.5467812761220644 true
gene 1 9 12 -0.8421401990130889 false 9 -0.8421401990130889 true
gene 1 10 12 -0.007319845427529697 false 10 -0.007319845427529697 true
gene 1 11 12 0.114188981483675 false 11 0.114188981483675 true
gene 1 12 13 0.45517024823313534 false 12 0.45517024823313534 true
gene 1 12 14 0.04861128533278056 false 13 0.04861128533278056 true
genomeend 115
/* Organism #29 Fitness: 0.160 Error: 0.840 */
genomestart 29
trait 1 0.1 0 0 0 0 0 0 0 
node 1 0 1 3
node 2 0 1 1
node 3 0 1 1
node 4 0 1 1
node 5 0 1 1
node 6 0 1 1
node 7 0 1 1
node 8 0 1 1
node 9 0 1 1
node 10 0 1 1
node 11 0 1 1
node 12 0 0 0
node 13 0 0 2
node 14 0 0 2
gene 1 1 12 -0.552668404487701 false 1 -0.552668404487701 true
gene 1 2 12 0.9438003685664843 false 2 0.9438003685664843 true
gene 1 3 12 -0.18778594417500094 false 3 -0.18778594417500094 true
gene 1 4 12 0.6810666189674566 false 4 0.6810666189674566 true
gene 1 5 12 0.25181397062739735 false 5 0.25181397062739735 true
gene 1 6 12 -0.3323068125443618 false 6 -0.3323068125443618 true
gene 1 7 12 0.14284685226822885 false 7 0.14284685226822885 true
gene 1 8 12 -0.5617990223748957 false 8 -0.5617990223748957 true
gene 1 9 12 0.18813473809143136 false 9 0.18813473809143136 true
gene 1 10 12 0.44605141271478516 false 10 0.44605141271478516 true
gene 1 11 12 0.9704381324690752 false 11 0.9704381324690752 true
gene 1 12 13 0.5387928130162707 false 12 0.5387928130162707 true
gene 1 12 14 0.8723290176439834 false 13 0.8723290176439834 true
genomeend 29
/* Organism #234 Fitness: 0.157 Error: 0.843 */
genomestart 234
trait 1 0.1 0 0 0 0 0 0 0 
node 1 0 1 3
node 2 0 1 1
node 3 0 1 1
node 4 0 1 1
node 5 0 1 1
node 6 0 1 1
node 7 0 1 1
node 8 0 1 1
node 9 0 1 1
node 10 0 1 1
node 11 0 1 1
node 12 0 0 0
node 13 0 0 2
node 14 0 0 2
gene 1 1 12 0 false 1 0 true
gene 1 2 12 0.7213074908259826 false 2 0.7213074908259826 true
gene 1 3 12 -0.5461846740426064 false 3 -0.5461846740426064 true
gene 1 4 12 -0.5147553605429671 false 4 -0.5147553605429671 true
gene 1 5 12 -0.43583635079415756 false 5 -0.43583635079415756 true
gene 1 6 12 0.11662988802083678 false 6 0.11662988802083678 true
gene 1 7 12 0.03771478408214644 false 7 0.03771478408214644 true
gene 1 8 12 -0.2000064893472372 false 8 -0.2000064893472372 true
gene 1 9 12 -0.2087870568981716 false 9 -0.2087870568981716 true
gene 1 10 12 0.6124484471919016 false 10 0.6124484471919016 true
gene 1 11 12 -0.8963845134348772 false 11 -0.8963845134348772 true
gene 1 12 13 0.971922166364433 false 12 0.971922166364433 true
gene 1 12 14 0.6556366760955087 false 13 0.6556366760955087 true
genomeend 234
/* Organism #244 Fitness: 0.157 Error: 0.843 */
genomestart 244
trait 1 0.1 0 0 0 0 0 0 0 
node 1 0 1 3
node 2 0 1 1
node 3 0 1 1
node 4 0 1 1
node 5 0 1 1
node 6 0 1 1
node 7 0 1 1
node 8 0 1 1
node 9 0 1 1
node 10 0 1 1
node 11 0 1 1
node 12 0 0 0
node 13 0 0 2
node 14 0 0 2
gene 1 1 12 0.74618572274957 false 1 0.74618572274957 true
gene 1 2 12 -0.2960443582481071 false 2 -0.2960443582481071 true
gene 1 3 12 -0.11953852324076024 false 3 -0.11953852324076024 true
gene 1 4 12 0.7865661146827123 false 4 0.7865661146827123 true
gene 1 5 12 0.05834924208555879 false 5 0.05834924208555879 true
gene 1 6 12 -0.1653447851594292 false 6 -0.1653447851594292 true
gene 1 7 12 0.3734365758757179 false 7 0.3734365758757179 true
gene 1 8 12 -0.7741051721478834 false 8 -0.7741051721478834 true
gene 1 9 12 -0.5405256705601732 false 9 -0.5405256705601732 true
gene 1 10 12 -0.4578584480828832 false 10 -0.4578584480828832 true
gene 1 11 12 0.03504650208623511 false 11 0.03504650208623511 true
gene 1 12 13 0.8763721151888967 false 12 0.8763721151888967 true
gene 1 12 14 0.8544985480046524 false 13 0.8544985480046524 true
genomeend 244
/* Organism #222 Fitness: 0.157 Error: 0.843 */
genomestart 222
trait 1 0.1 0 0 0 0 0 0 0 
node 1 0 1 3
node 2 0 1 1
node 3 0 1 1
node 4 0 1 1
node 5 0 1 1
node 6 0 1 1
node 7 0 1 1
node 8 0 1 1
node 9 0 1 1
node 10 0 1 1
node 11 0 1 1
node 12 0 0 0
node 13 0 0 2
node 14 0 0 2
gene 1 1 12 -0.4830824990460622 false 1 -0.4830824990460622 true
gene 1 2 12 -0.24234201663213853 false 2 -0.24234201663213853 true
gene 1 3 12 0 false 3 0 true
gene 1 4 12 0 false 4 0 true
gene 1 5 12 0 false 5 0 true
gene 1 6 12 -0.9520043251155021 false 6 -0.9520043251155021 true
gene 1 7 12 0 false 7 0 true
gene 1 8 12 0.07097227481334355 false 8 0.07097227481334355 true
gene 1 9 12 -0.8030627411495792 false 9 -0.8030627411495792 true
gene 1 10 12 0 false 10 0 true
gene 1 11 12 -0.3711844994501616 false 11 -0.3711844994501616 true
gene 1 12 13 0.5733716301649027 false 12 0.5733716301649027 true
gene 1 12 14 -0.6278015378233912 false 13 -0.6278015378233912 true
genomeend 222
/* Organism #172 Fitness: 0.155 Error: 0.845 */
genomestart 172
trait 1 0.1 0 0 0 0 0 0 0 
node 1 0 1 3
node 2 0 1 1
node 3 0 1 1
node 4 0 1 1
node 5 0 1 1
node 6 0 1 1
node 7 0 1 1
node 8 0 1 1
node 9 0 1 1
node 10 0 1 1
node 11 0 1 1
node 12 0 0 0
node 13 0 0 2
node 14 0 0 2
gene 1 1 12 0.6333622293576814 false 1 0.6333622293576814 true
gene 1 2 12 0.467043775776778 false 2 0.467043775776778 true
gene 1 3 12 0 false 3 0 true
gene 1 4 12 -0.16428837395504567 false 4 -0.16428837395504567 true
gene 1 5 12 0.09048046262955986 false 5 0.09048046262955986 true
gene 1 6 12 0.43131333326181703 false 6 0.43131333326181703 true
gene 1 7 12 0.6031349987244476 false 7 0.6031349987244476 true
gene 1 8 12 0.09394262585450938 false 8 0.09394262585450938 true
gene 1 9 12 0.13744381849099752 false 9 0.13744381849099752 true
gene 1 10 12 0.8730307604895885 false 10 0.8730307604895885 true
gene 1 11 12 -0.9989612301698282 false 11 -0.9989612301698282 true
gene 1 12 13 0.06866309954290653 false 12 0.06866309954290653 true
gene 1 12 14 0.4457741661467869 false 13 0.4457741661467869 true
genomeend 172
/* Organism #111 Fitness: 0.155 Error: 0.845 */
genomestart 111
trait 1 0.1 0 0 0 0 0 0 0 
node 1 0 1 3
node 2 0 1 1
node 3 0 1 1
node 4 0 1 1
node 5 0 1 1
node 6 0 1 1
node 7 0 1 1
node 8 0 1 1
node 9 0 1 1
node 10 0 1 1
node 11 0 1 1
node 12 0 0 0
node 13 0 0 2
node 14 0 0 2
gene 1 1 12 -0.44931776032207676 false 1 -0.44931776032207676 true
gene 1 2 12 -0.7573119869650659 false 2 -0.7573119869650659 true
gene 1 3 12 0.9654586311573837 false 3 0.9654586311573837 true
gene 1 4 12 -0.8910447397839786 false 4 -0.8910447397839786 true
gene 1 5 12 0.5087825341120091 false 5 0.5087825341120091 true
gene 1 6 12 0.742948095463996 false 6 0.742948095463996 true
gene 1 7 12 0.01916877885115479 false 7 0.01916877885115479 true
gene 1 8 12 0.7255608009516914 false 8 0.7255608009516914 true
gene 1 9 12 -0.7628727994422776 false 9 -0.7628727994422776 true
gene 1 10 12 -0.6572427330142319 false 10 -0.6572427330142319 true
gene 1 11 12 0.03965675652015835 false 11 0.03965675652015835 true
gene 1 12 13 0.16715381007471034 false 12 0.16715381007471034 true
gene 1 12 14 0.7637003890942313 false 13 0.7637003890942313 true
genomeend 111
/* Organism #112 Fitness: 0.154 Error: 0.846 */
genomestart 112
trait 1 0.1 0 0 0 0 0 0 0 
node 1 0 1 3
node 2 0 1 1
node 3 0 1 1
node 4 0 1 1
node 5 0 1 1
node 6 0 1 1
node 7 0 1 1
node 8 0 1 1
node 9 0 1 1
node 10 0 1 1
node 11 0 1 1
node 12 0 0 0
node 13 0 0 2
node 14 0 0 2
gene 1 1 12 0.5732851509855532 false 1 0.5732851509855532 true
gene 1 2 12 0.345331214036491 false 2 0.345331214036491 true
gene 1 3 12 -0.5629347371791109 false 3 -0.5629347371791109 true
gene 1 4 12 -0.6465979576983398 false 4 -0.6465979576983398 true
gene 1 5 12 -0.6086013467368606 false 5 -0.6086013467368606 true
gene 1 6 12 -0.7880016905182279 false 6 -0.7880016905182279 true
gene 1 7 12 0.050958198726710015 false 7 0.050958198726710015 true
gene 1 8 12 0.7049832702012244 false 8 0.7049832702012244 true
gene 1 9 12 0.05294908807985375 false 9 0.05294908807985375 true
gene 1 10 12 0 false 10 0 true
gene 1 11 12 -0.6388311691227362 false 11 -0.6388311691227362 true
gene 1 12 13 0.5287986987987444 false 12 0.5287986987987444 true
gene 1 12 14 0.7243044841717001 false 13 0.7243044841717001 true
genomeend 112
/* Organism #92 Fitness: 0.154 Error: 0.846 */
genomestart 92
trait 1 0.1 0 0 0 0 0 0 0 
node 1 0 1 3
node 2 0 1 1
node 3 0 1 1
node 4 0 1 1
node 5 0 1 1
node 6 0 1 1
node 7 0 1 1
node 8 0 1 1
node 9 0 1 1
node 10 0 1 1
node 11 0 1 1
node 12 0 0 0
node 13 0 0 2
node 14 0 0 2
gene 1 1 12 0.2577072868092425 false 1 0.2577072868092425 true
gene 1 2 12 -0.7125064094374646 false 2 -0.7125064094374646 true
gene 1 3 12 -0.5556908791218793 false 3 -0.5556908791218793 true
gene 1 4 12 -0.34429114565904434 false 4 -0.34429114565904434 true
gene 1 5 12 -0.5059258494309429 false 5 -0.5059258494309429 true
gene 1 6 12 0.9825146534204497 false 6 0.9825146534204497 true
gene 1 7 12 -0.4882099187135942 false 7 -0.4882099187135942 true
gene 1 8 12 0.5482931965280031 false 8 0.5482931965280031 true
gene 1 9 12 0.7418515098153239 false 9 0.7418515098153239 true
gene 1 10 12 -0.3272017754382151 false 10 -0.3272017754382151 true
gene 1 11 12 -0.7029214407914294 false 11 -0.7029214407914294 true
gene 1 12 13 0.3416421358844955 false 12 0.3416421358844955 true
gene 1 12 14 0.18440454866525505 false 13 0.18440454866525505 true
genomeend 92
/* Organism #241 Fitness: 0.150 Error: 0.850 */
genomestart 241
trait 1 0.1 0 0 0 0 0 0 0 
node 1 0 1 3
node 2 0 1 1
node 3 0 1 1
node 4 0 1 1
node 5 0 1 1
node 6 0 1 1
node 7 0 1 1
node 8 0 1 1
node 9 0 1 1
node 10 0 1 1
node 11 0 1 1
node 12 0 0 0
node 13 0 0 2
node 14 0 0 2
gene 1 1 12 0 false 1 0 true
gene 1 2 12 -0.04582751337287437 false 2 -0.04582751337287437 true
gene 1 3 12 0.9914756580383515 false 3 0.9914756580383515 true
gene 1 4 12 0.17518961073796824 false 4 0.17518961073796824 true
gene 1 5 12 0 false 5 0 true
gene 1 6 12 0.055271996464264436 false 6 0.055271996464264436 true
gene 1 7 12 0.650688057936644 false 7 0.650688057936644 true
gene 1 8 12 0.5025188542839691 false 8 0.5025188542839691 true
gene 1 9 12 -0.336080046515166 false 9 -0.336080046515166 true
gene 1 10 12 -0.5641155650489291 false 10 -0.5641155650489291 true
gene 1 11 12 -0.25102858972391656 false 11 -0.25102858972391656 true
gene 1 12 13 0.07040888772031584 false 12 0.07040888772031584 true
gene 1 12 14 0.6113410000219657 false 13 0.6113410000219657 true
genomeend 241
/* Organism #82 Fitness: 0.149 Error: 0.851 */
genomestart 82
trait 1 0.1 0 0 0 0 0 0 0 
node 1 0 1 3
node 2 0 1 1
node 3 0 1 1
node 4 0 1 1
node 5 0 1 1
node 6 0 1 1
node 7 0 1 1
node 8 0 1 1
node 9 0 1 1
node 10 0 1 1
node 11 0 1 1
node 12 0 0 0
node 13 0 0 2
node 14 0 0 2
gene 1 1 12 -0.9021704990097874 false 1 -0.9021704990097874 true
gene 1 2 12 -0.9615153464155198 false 2 -0.9615153464155198 true
gene 1 3 12 0.5896665991493967 false 3 0.5896665991493967 true
gene 1 4 12 0.962650670978607 false 4 0.962650670978607 true
gene 1 5 12 -0.19218061769100028 false 5 -0.19218061769100028 true
gene 1 6 12 0.541603675910386 false 6 0.541603675910386 true
gene 1 7 12 0.644794115501531 false 7 0.644794115501531 true
gene 1 8 12 0.13958264353756722 false 8 0.13958264353756722 true
gene 1 9 12 0.6889896698641114 false 9 0.6889896698641114 true
gene 1 10 12 0.23459309555092392 false 10 0.23459309555092392 true
gene 1 11 12 0.811199164432854 false 11 0.811199164432854 true
gene 1 12 13 0.08605697607420269 false 12 0.08605697607420269 true
gene 1 12 14 0.46328792508098304 false 13 0.46328792508098304 true
genomeend 82
/* Organism #105 Fitness: 0.144 Error: 0.856 */
genomestart 105
trait 1 0.1 0 0 0 0 0 0 0 
node 1 0 1 3
node 2 0 1 1
node 3 0 1 1
node 4 0 1 1
node 5 0 1 1
node 6 0 1 1
node 7 0 1 1
node 8 0 1 1
node 9 0 1 1
node 10 0 1 1
node 11 0 1 1
node 12 0 0 0
node 13 0 0 2
node 14 0 0 2
gene 1 1 12 -0.12471840205937451 false 1 -0.12471840205937451 true
gene 1 2 12 0.967375661250072 false 2 0.967375661250072 true
gene 1 3 12 0.7320417287177055 false 3 0.7320417287177055 true
gene 1 4 12 0.21478642514880433 false 4 0.21478642514880433 true
gene 1 5 12 0 false 5 0 true
gene 1 6 12 -0.16662327294504586 false 6 -0.16662327294504586 true
gene 1 7 12 -0.8036636498730997 false 7 -0.8036636498730997 true
gene 1 8 12 0.4611958508910272 false 8 0.4611958508910272 true
gene 1 9 12 -0.37820003676894975 false 9 -0.37820003676894975 true
gene 1 10 12 -0.6457188592502379 false 10 -0.6457188592502379 true
gene 1 11 12 -0.9833842258066834 false 11 -0.9833842258066834 true
gene 1 12 13 -0.8062824681944439 false 12 -0.8062824681944439 true
gene 1 12 14 0.07402510329520262 false 13 0.07402510329520262 true
genomeend 105
/* Organism #230 Fitness: 0.138 Error: 0.862 */
genomestart 230
trait 1 0.1 0 0 0 0 0 0 0 
node 1 0 1 3
node 2 0 1 1
node 3 0 1 1
node 4 0 1 1
node 5 0 1 1
node 6 0 1 1
node 7 0 1 1
node 8 0 1 1
node 9 0 1 1
node 10 0 1 1
node 11 0 1 1
node 12 0 0 0
node 13 0 0 2
node 14 0 0 2
gene 1 1 12 0.6360854873587424 false 1 0.6360854873587424 true
gene 1 2 12 -0.5720170315760362 false 2 -0.5720170315760362 true
gene 1 3 12 0.4748749531505586 false 3 0.4748749531505586 true
gene 1 4 12 -0.274831961965304 false 4 -0.274831961965304 true
gene 1 5 12 -0.13421131044696277 false 5 -0.13421131044696277 true
gene 1 6 12 -0.7764155647053299 false 6 -0.7764155647053299 true
gene 1 7 12 -0.6786006309405916 false 7 -0.6786006309405916 true
gene 1 8 12 0 false 8 0 true
gene 1 9 12 0.8364755422585077 false 9 0.8364755422585077 true
gene 1 10 12 -0.5434057973541256 false 10 -0.5434057973541256 true
gene 1 11 12 0.0201598102565466 false 11 0.0201598102565466 true
gene 1 12 13 0.9311205620379293 false 12 0.9311205620379293 true
gene 1 12 14 0.8227942780689357 false 13 0.8227942780689357 true
genomeend 230
/* Organism #44 Fitness: 0.127 Error: 0.873 */
genomestart 44
trait 1 0.1 0 0 0 0 0 0 0 
node 1 0 1 3
node 2 0 1 1
node 3 0 1 1
node 4 0 1 1
node 5 0 1 1
node 6 0 1 1
node 7 0 1 1
node 8 0 1 1
node 9 0 1 1
node 10 0 1 1
node 11 0 1 1
node 12 0 0 0
node 13 0 0 2
node 14 0 0 2
gene 1 1 12 -0.0180138288570846 false 1 -0.0180138288570846 true
gene 1 2 12 0 false 2 0 true
gene 1 3 12 -0.4902812720533573 false 3 -0.4902812720533573 true
gene 1 4 12 -0.2731817021764512 false 4 -0.2731817021764512 true
gene 1 5 12 0.12431049809980058 false 5 0.12431049809980058 true
gene 1 6 12 0.07639438961174921 false 6 0.07639438961174921 true
gene 1 7 12 -0.849245389834 false 7 -0.849245389834 true
gene 1 8 12 -0.7909484963011528 false 8 -0.7909484963011528 true
gene 1 9 12 0 false 9 0 true
gene 1 10 12 -0.4267103489871816 false 10 -0.4267103489871816 true
gene 1 11 12 -0.3985040790191578 false 11 -0.3985040790191578 true
gene 1 12 13 0.48279791246102066 false 12 0.48279791246102066 true
gene 1 12 14 -0.2665496235250289 false 13 -0.2665496235250289 true
genomeend 44
/* Organism #135 Fitness: 0.112 Error: 0.888 */
genomestart 135
trait 1 0.1 0 0 0 0 0 0 0 
node 1 0 1 3
node 2 0 1 1
node 3 0 1 1
node 4 0 1 1
node 5 0 1 1
node 6 0 1 1
node 7 0 1 1
node 8 0 1 1
node 9 0 1 1
node 10 0 1 1
node 11 0 1 1
node 12 0 0 0
node 13 0 0 2
node 14 0 0 2
gene 1 1 12 -0.2278116128950348 false 1 -0.2278116128950348 true
gene 1 2 12 0.2747514804114017 false 2 0.2747514804114017 true
gene 1 3 12 -0.8988469826744314 false 3 -0.8988469826744314 true
gene 1 4 12 0.45831671560784265 false 4 0.45831671560784265 true
gene 1 5 12 -0.20488444825600505 false 5 -0.20488444825600505 true
gene 1 6 12 -0.6667773694484945 false 6 -0.6667773694484945 true
gene 1 7 12 0.7611887962122824 false 7 0.7611887962122824 true
gene 1 8 12 -0.618768157669407 false 8 -0.618768157669407 true
gene 1 9 12 0.29582443107355283 false 9 0.29582443107355283 true
gene 1 10 12 0.14890570215540405 false 10 0.14890570215540405 true
gene 1 11 12 0.12328927239447202 false 11 0.12328927239447202 true
gene 1 12 13 -0.24038879851949582 false 12 -0.24038879851949582 true
gene 1 12 14 0.02608173897035038 false 13 0.02608173897035038 true
genomeend 135
/* Organism #138 Fitness: 0.111 Error: 0.889 */
genomestart 138
trait 1 0.1 0 0 0 0 0 0 0 
node 1 0 1 3
node 2 0 1 1
node 3 0 1 1
node 4 0 1 1
node 5 0 1 1
node 6 0 1 1
node 7 0 1 1
node 8 0 1 1
node 9 0 1 1
node 10 0 1 1
node 11 0 1 1
node 12 0 0 0
node 13 0 0 2
node 14 0 0 2
gene 1 1 12 -0.3980077258768134 false 1 -0.3980077258768134 true
gene 1 2 12 -0.15787893485584348 false 2 -0.15787893485584348 true
gene 1 3 12 0.24654310344559577 false 3 0.24654310344559577 true
gene 1 4 12 -0.4973589928534747 false 4 -0.4973589928534747 true
gene 1 5 12 0.5248831126702667 false 5 0.5248831126702667 true
gene 1 6 12 -0.05567126432546555 false 6 -0.05567126432546555 true
gene 1 7 12 0.05273758891039231 false 7 0.05273758891039231 true
gene 1 8 12 -0.27444484881534004 false 8 -0.27444484881534004 true
gene 1 9 12 -0.9137865618058726 false 9 -0.9137865618058726 true
gene 1 10 12 -0.6885508808718204 false 10 -0.6885508808718204 true
gene 1 11 12 0.5900532385315378 false 11 0.5900532385315378 true
gene 1 12 13 -0.2229082866634811 false 12 -0.2229082866634811 true
gene 1 12 14 -0.9098993676882615 false 13 -0.9098993676882615 true
genomeend 138
/* Organism #186 Fitness: 0.093 Error: 0.907 */
genomestart 186
trait 1 0.1 0 0 0 0 0 0 0 
node 1 0 1 3
node 2 0 1 1
node 3 0 1 1
node 4 0 1 1
node 5 0 1 1
node 6 0 1 1
node 7 0 1 1
node 8 0 1 1
node 9 0 1 1
node 10 0 1 1
node 11 0 1 1
node 12 0 0 0
node 13 0 0 2
node 14 0 0 2
gene 1 1 12 -0.041402254932060754 false 1 -0.041402254932060754 true
gene 1 2 12 -0.7231281297529784 false 2 -0.7231281297529784 true
gene 1 3 12 0.811477955730608 false 3 0.811477955730608 true
gene 1 4 12 -0.7295912100476637 false 4 -0.7295912100476637 true
gene 1 5 12 -0.19981845182528737 false 5 -0.19981845182528737 true
gene 1 6 12 0.10813368863328 false 6 0.10813368863328 true
gene 1 7 12 -0.2735728370379903 false 7 -0.2735728370379903 true
gene 1 8 12 0.7907873245069104 false 8 0.7907873245069104 true
gene 1 9 12 0.9247863987090664 false 9 0.9247863987090664 true
gene 1 10 12 -0.7616218121901636 false 10 -0.7616218121901636 true
gene 1 11 12 0.2649686056942652 false 11 0.2649686056942652 true
gene 1 12 13 0.17675777814646376 false 12 0.17675777814646376 true
gene 1 12 14 -0.41685141789708924 false 13 -0.41685141789708924 true
genomeend 186
/* Organism #158 Fitness: 0.082 Error: 0.918 */
genomestart 158
trait 1 0.1 0 0 0 0 0 0 0 
node 1 0 1 3
node 2 0 1 1
node 3 0 1 1
node 4 0 1 1
node 5 0 1 1
node 6 0 1 1
node 7 0 1 1
node 8 0 1 1
node 9 0 1 1
node 10 0 1 1
node 11 0 1 1
node 12 0 0 0
node 13 0 0 2
node 14 0 0 2
gene 1 1 12 -0.2143362189054864 false 1 -0.2143362189054864 true
gene 1 2 12 -0.4907373558149399 false 2 -0.4907373558149399 true
gene 1 3 12 -0.7913686787450089 false 3 -0.7913686787450089 true
gene 1 4 12 -0.7407790504315428 false 4 -0.7407790504315428 true
gene 1 5 12 -0.40462160727775864 false 5 -0.40462160727775864 true
gene 1 6 12 0.8202225102174726 false 6 0.8202225102174726 true
gene 1 7 12 -0.891300389423418 false 7 -0.891300389423418 true
gene 1 8 12 -0.83182577821973 false 8 -0.83182577821973 true
gene 1 9 12 0.14579679238037271 false 9 0.14579679238037271 true
gene 1 10 12 0.4003123557742737 false 10 0.4003123557742737 true
gene 1 11 12 -0.028370476797779508 false 11 -0.028370476797779508 true
gene 1 12 13 -0.9927819566017279 false 12 -0.9927819566017279 true
gene 1 12 14 0.3006121128561278 false 13 0.3006121128561278 true
genomeend 158
/* Organism #35 Fitness: 0.079 Error: 0.921 */
genomestart 35
trait 1 0.1 0 0 0 0 0 0 0 
node 1 0 1 3
node 2 0 1 1
node 3 0 1 1
node 4 0 1 1
node 5 0 1 1
node 6 0 1 1
node 7 0 1 1
node 8 0 1 1
node 9 0 1 1
node 10 0 1 1
node 11 0 1 1
node 12 0 0 0
node 13 0 0 2
node 14 0 0 2
gene 1 1 12 -0.8915866649414596 false 1 -0.8915866649414596 true
gene 1 2 12 0.7295375654204285 false 2 0.7295375654204285 true
gene 1 3 12 0.6598136300812123 false 3 0.6598136300812123 true
gene 1 4 12 -0.8669848758440307 false 4 -0.8669848758440307 true
gene 1 5 12 0.4630256197672738 false 5 0.4630256197672738 true
gene 1 6 12 -0.35946960830939967 false 6 -0.35946960830939967 true
gene 1 7 12 0.47947192308590403 false 7 0.47947192308590403 true
gene 1 8 12 0.23301478992518382 false 8 0.23301478992518382 true
gene 1 9 12 0.12484818693851672 false 9 0.12484818693851672 true
gene 1 10 12 0.706909545347308 false 10 0.706909545347308 true
gene 1 11 12 0.9500090752078829 false 11 0.9500090752078829 true
gene 1 12 13 0.43804411952439637 false 12 0.43804411952439637 true
gene 1 12 14 -0.5201461381752583 false 13 -0.5201461381752583 true
genomeend 35
/* Organism #167 Fitness: 0.069 Error: 0.931 */
genomestart 167
trait 1 0.1 0 0 0 0 0 0 0 
node 1 0 1 3
node 2 0 1 1
node 3 0 1 1
node 4 0 1 1
node 5 0 1 1
node 6 0 1 1
node 7 0 1 1
node 8 0 1 1
node 9 0 1 1
node 10 0 1 1
node 11 0 1 1
node 12 0 0 0
node 13 0 0 2
node 14 0 0 2
gene 1 1 12 -0.9393280929584036 false 1 -0.9393280929584036 true
gene 1 2 12 -0.657558539419902 false 2 -0.657558539419902 true
gene 1 3 12 0.06640177558469647 false 3 0.06640177558469647 true
gene 1 4 12 0.4036482578934694 false 4 0.4036482578934694 true
gene 1 5 12 -0.06399838889581379 false 5 -0.06399838889581379 true
gene 1 6 12 -0.7751362495715819 false 6 -0.7751362495715819 true
gene 1 7 12 0.08059618498365666 false 7 0.08059618498365666 true
gene 1 8 12 0.45068842253511004 false 8 0.45068842253511004 true
gene 1 9 12 0.5639820835933244 false 9 0.5639820835933244 true
gene 1 10 12 0.6195701386797435 false 10 0.6195701386797435 true
gene 1 11 12 0 false 11 0 true
gene 1 12 13 -0.9779002847447037 false 12 -0.9779002847447037 true
gene 1 12 14 0.5296947169882724 false 13 0.5296947169882724 true
genomeend 167
/* Organism #32 Fitness: 0.066 Error: 0.934 */
genomestart 32
trait 1 0.1 0 0 0 0 0 0 0 
node 1 0 1 3
node 2 0 1 1
node 3 0 1 1
node 4 0 1 1
node 5 0 1 1
node 6 0 1 1
node 7 0 1 1
node 8 0 1 1
node 9 0 1 1
node 10 0 1 1
node 11 0 1 1
node 12 0 0 0
node 13 0 0 2
node 14 0 0 2
gene 1 1 12 -0.6408375512815656 false 1 -0.6408375512815656 true
gene 1 2 12 0.16959314118235874 false 2 0.16959314118235874 true
gene 1 3 12 -0.8913358919082753 false 3 -0.8913358919082753 true
gene 1 4 12 -0.7422782371373348 false 4 -0.7422782371373348 true
gene 1 5 12 -0.07592997407918524 false 5 -0.07592997407918524 true
gene 1 6 12 0.34907197185160904 false 6 0.34907197185160904 true
gene 1 7 12 0 false 7 0 true
gene 1 8 12 -0.13569859692937686 false 8 -0.13569859692937686 true
gene 1 9 12 -0.012313972223609028 false 9 -0.012313972223609028 true
gene 1 10 12 -0.5421793268726955 false 10 -0.5421793268726955 true
gene 1 11 12 -0.5294842622967741 false 11 -0.5294842622967741 true
gene 1 12 13 0.5001118414135718 false 12 0.5001118414135718 true
gene 1 12 14 0.2862285354385012 false 13 0.2862285354385012 true
genomeend 32
/* Organism #47 Fitness: 0.050 Error: 0.950 */
genomestart 47
trait 1 0.1 0 0 0 0 0 0 0 
node 1 0 1 3
node 2 0 1 1
node 3 0 1 1
node 4 0 1 1
node 5 0 1 1
node 6 0 1 1
node 7 0 1 1
node 8 0 1 1
node 9 0 1 1
node 10 0 1 1
node 11 0 1 1
node 12 0 0 0
node 13 0 0 2
node 14 0 0 2
gene 1 1 12 -0.9413611906743382 false 1 -0.9413611906743382 true
gene 1 2 12 0.8790685653316013 false 2 0.8790685653316013 true
gene 1 3 12 -0.0911055491247148 false 3 -0.0911055491247148 true
gene 1 4 12 0.5344545810307618 false 4 0.5344545810307618 true
gene 1 5 12 0 false 5 0 true
gene 1 6 12 -0.12942925648155765 false 6 -0.12942925648155765 true
gene 1 7 12 0.9819240420144791 false 7 0.9819240420144791 true
gene 1 8 12 -0.03948708191810318 false 8 -0.03948708191810318 true
gene 1 9 12 0.570159064456066 false 9 0.570159064456066 true
gene 1 10 12 0.36204262536851867 false 10 0.36204262536851867 true
gene 1 11 12 -0.2704078982932933 false 11 -0.2704078982932933 true
gene 1 12 13 0.05242334929903925 false 12 0.05242334929903925 true
gene 1 12 14 0.294517026899478 false 13 0.294517026899478 true
genomeend 47
/* Organism #132 Fitness: 0.035 Error: 0.965 */
genomestart 132
trait 1 0.1 0 0 0 0 0 0 0 
node 1 0 1 3
node 2 0 1 1
node 3 0 1 1
node 4 0 1 1
node 5 0 1 1
node 6 0 1 1
node 7 0 1 1
node 8 0 1 1
node 9 0 1 1
node 10 0 1 1
node 11 0 1 1
node 12 0 0 0
node 13 0 0 2
node 14 0 0 2
gene 1 1 12 -0.6656242514960367 false 1 -0.6656242514960367 true
gene 1 2 12 0.9430481519191038 false 2 0.9430481519191038 true
gene 1 3 12 0.05456510553746001 false 3 0.05456510553746001 true
gene 1 4 12 -0.5675750789105704 false 4 -0.5675750789105704 true
gene 1 5 12 0.5938933986837721 false 5 0.5938933986837721 true
gene 1 6 12 0.3060630324285084 false 6 0.3060630324285084 true
gene 1 7 12 -0.2944474053901249 false 7 -0.2944474053901249 true
gene 1 8 12 0.30064745179264935 false 8 0.30064745179264935 true
gene 1 9 12 -0.9894324043593598 false 9 -0.9894324043593598 true
gene 1 10 12 0.3751107558707672 false 10 0.3751107558707672 true
gene 1 11 12 -0.22006648949052995 false 11 -0.22006648949052995 true
gene 1 12 13 0.31266347214652607 false 12 0.31266347214652607 true
gene 1 12 14 -0.9628374371774215 false 13 -0.9628374371774215 true
genomeend 132
/* Organism #24 Fitness: 0.034 Error: 0.966 */
genomestart 24
trait 1 0.1 0 0 0 0 0 0 0 
node 1 0 1 3
node 2 0 1 1
node 3 0 1 1
node 4 0 1 1
node 5 0 1 1
node 6 0 1 1
node 7 0 1 1
node 8 0 1 1
node 9 0 1 1
node 10 0 1 1
node 11 0 1 1
node 12 0 0 0
node 13 0 0 2
node 14 0 0 2
gene 1 1 12 0.9006613188226869 false 1 0.9006613188226869 true
gene 1 2 12 0.47285408739138185 false 2 0.47285408739138185 true
gene 1 3 12 -0.37834912434484447 false 3 -0.37834912434484447 true
gene 1 4 12 -0.7531192261583203 false 4 -0.7531192261583203 true
gene 1 5 12 -0.9315451404980728 false 5 -0.9315451404980728 true
gene 1 6 12 -0.541504525143283 false 6 -0.541504525143283 true
gene 1 7 12 -0.8642685614073827 false 7 -0.8642685614073827 true
gene 1 8 12 0.37303566449334497 false 8 0.37303566449334497 true
gene 1 9 12 -0.08350593429621177 false 9 -0.08350593429621177 true
gene 1 10 12 0.5073971407561986 false 10 0.5073971407561986 true
gene 1 11 12 0.02474408471529168 false 11 0.02474408471529168 true
gene 1 12 13 -0.04134695301767075 false 12 -0.04134695301767075 true
gene 1 12 14 0.40449840971370554 false 13 0.40449840971370554 true
genomeend 24
/* Organism #183 Fitness: 0.015 Error: 0.985 */
genomestart 183
trait 1 0.1 0 0 0 0 0 0 0 
node 1 0 1 3
node 2 0 1 1
node 3 0 1 1
node 4 0 1 1
node 5 0 1 1
node 6 0 1 1
node 7 0 1 1
node 8 0 1 1
node 9 0 1 1
node 10 0 1 1
node 11 0 1 1
node 12 0 0 0
node 13 0 0 2
node 14 0 0 2
gene 1 1 12 -0.6999448087333304 false 1 -0.6999448087333304 true
gene 1 2 12 -0.9871968982028492 false 2 -0.9871968982028492 true
gene 1 3 12 0.7518391686482507 false 3 0.7518391686482507 true
gene 1 4 12 -0.9776098688142678 false 4 -0.9776098688142678 true
gene 1 5 12 -0.5065720965082066 false 5 -0.5065720965082066 true
gene 1 6 12 -0.743962285081297 false 6 -0.743962285081297 true
gene 1 7 12 0.473022246734098 false 7 0.473022246734098 true
gene 1 8 12 0.9593600637644243 false 8 0.9593600637644243 true
gene 1 9 12 0.021996471188404705 false 9 0.021996471188404705 true
gene 1 10 12 -0.5660820510320586 false 10 -0.5660820510320586 true
gene 1 11 12 -0.4122447512043862 false 11 -0.4122447512043862 true
gene 1 12 13 0 false 12 0 true
gene 1 12 14 0.6489121594031262 false 13 0.6489121594031262 true
genomeend 183
/* Organism #248 Fitness: 0.015 Error: 0.985 */
genomestart 248
trait 1 0.1 0 0 0 0 0 0 0 
node 1 0 1 3
node 2 0 1 1
node 3 0 1 1
node 4 0 1 1
node 5 0 1 1
node 6 0 1 1
node 7 0 1 1
node 8 0 1 1
node 9 0 1 1
node 10 0 1 1
node 11 0 1 1
node 12 0 0 0
node 13 0 0 2
node 14 0 0 2
gene 1 1 12 -0.8851591897781758 false 1 -0.8851591897781758 true
gene 1 2 12 0.5066348870732799 false 2 0.5066348870732799 true
gene 1 3 12 0.6532216829776694 false 3 0.6532216829776694 true
gene 1 4 12 0.9088587940865857 false 4 0.9088587940865857 true
gene 1 5 12 -0.6698451253453883 false 5 -0.6698451253453883 true
gene 1 6 12 -0.9648016332897773 false 6 -0.9648016332897773 true
