genomestart 167
trait 1 1.5000910434380015 0.7171320383206456 0.8080977074302568 0 0.3749760145212087 0.42770042767132416 0.35113876455599535 0 
node 1 1 1 3
node 2 1 1 1
node 3 1 1 1
node 4 1 1 1
node 5 1 1 1
node 6 1 1 1
node 7 1 1 1
node 8 1 1 1
node 9 1 1 1
node 10 1 1 1
node 11 1 1 1
node 12 1 0 0
node 13 1 0 2
node 14 1 0 2
node 139 1 0 0
node 152 1 0 0
node 204 1 0 0
node 459 1 0 0
node 690 1 0 0
node 858 1 0 0
node 1181 1 0 0
node 1427 1 0 0
gene 1 1 12 -1.5247617463757122 false 1 -1.5247617463757122 true
gene 1 2 12 -2.598652014325531 false 2 -2.598652014325531 true
gene 1 3 12 0.28594455076584685 false 3 0.28594455076584685 true
gene 1 4 12 -1.1627032350490492 false 4 -1.1627032350490492 true
gene 1 5 12 -2.15625962928807 false 5 -2.15625962928807 true
gene 1 6 12 4.364599653685171 false 6 4.364599653685171 true
gene 1 7 12 0.07351609263917674 false 7 0.07351609263917674 true
gene 1 8 12 1.4563230467245938 false 8 1.4563230467245938 true
gene 1 9 12 0.3545977697143864 false 9 0.3545977697143864 true
gene 1 10 12 3.802833388691374 false 10 3.802833388691374 true
gene 1 11 12 -0.5283252334469675 false 11 -0.5283252334469675 true
gene 1 12 13 -0.06636331780945631 false 12 -0.06636331780945631 true
gene 1 12 14 3.820280225687628 false 13 3.820280225687628 true
gene 1 8 14 -2.6476824178812857 false 125 -2.6476824178812857 true
gene 1 5 13 -2.0636525554887424 false 179 -2.0636525554887424 true
gene 1 6 13 0.12691153377221595 false 296 0.12691153377221595 true
gene 1 7 13 -0.1328007938748048 false 456 -0.1328007938748048 true
gene 1 8 139 -2.7635775262621713 false 670 -2.7635775262621713 true
gene 1 139 12 -0.5522939281110183 false 671 -0.5522939281110183 true
gene 1 9 139 5.3454697070988315 false 710 5.3454697070988315 true
gene 1 6 152 -0.1716787136649591 false 727 -0.1716787136649591 true
gene 1 152 13 -0.03354129220213564 false 728 -0.03354129220213564 true
gene 1 139 204 3.8500699976574237 false 1054 3.8500699976574237 true
gene 1 204 12 0.8033055040184707 false 1055 0.8033055040184707 true
gene 1 139 139 8.885250807643244 true 2386 8.885250807643244 true
gene 1 139 459 0.2620272190797555 false 2424 0.2620272190797555 true
gene 1 459 12 -0.07308845001940201 false 2425 -0.07308845001940201 true
gene 1 9 14 -0.9287519692219164 false 2436 -0.9287519692219164 true
gene 1 1 204 -3.8365636184111485 false 2913 -3.8365636184111485 true
gene 1 12 12 -1.5737101097748405 true 3340 -1.5737101097748405 true
gene 1 13 13 -4.6330056053469875 true 3442 -4.6330056053469875 true
gene 1 1 139 2.6466649662129105 false 3606 2.6466649662129105 true
gene 1 12 690 1.6451663393427134 false 3667 1.6451663393427134 true
gene 1 690 13 -0.2751122193999508 false 3668 -0.2751122193999508 true
gene 1 690 690 5.568476365811393 true 3974 5.568476365811393 true
gene 1 459 459 -0.713410368911791 true 4149 -0.713410368911791 true
gene 1 1 13 0.529850337071845 false 4387 0.529850337071845 true
gene 1 13 858 1 true 4537 0 true
gene 1 858 13 -4.6330056053469875 false 4538 0 true
gene 1 858 858 5.272955840422936 true 4879 5.272955840422936 true
gene 1 2 13 -8.578696860910046 false 4948 -8.578696860910046 true
gene 1 7 858 -7.103285188574735 false 5750 -7.103285188574735 true
gene 1 12 1181 1 false 6291 0 true
gene 1 1181 690 1.6451663393427134 false 6292 0 true
gene 1 7 139 1.603679488869778 false 6323 1.603679488869778 true
gene 1 14 139 -3.9062587305741134 true 7067 -3.9062587305741134 true
gene 1 8 459 8.54603970756351 false 7475 8.54603970756351 true
gene 1 690 1427 1 false 7648 0 true
gene 1 1427 13 -0.2751122193999508 false 7649 0 true
genomeend 167
