/* Species #0 : (Size 7) (AF 6.952) (Age 101)  */
/* Organism #0 Fitness: 15.741 Error: 0.929 */
genomestart 0
trait 1 0 0.7295765657389145 0.1346265063112596 0 0.037734823723578 0.7911559805330319 0.009939004092382537 0.2166802095113048 
node 1 1 1 3
node 2 1 1 1
node 3 1 1 1
node 4 1 1 1
node 5 1 1 1
node 6 1 1 1
node 7 1 1 1
node 8 1 1 1
node 9 1 1 1
node 10 1 1 1
node 11 1 1 1
node 12 1 0 0
node 13 1 0 2
node 14 1 0 2
node 87 1 0 0
node 282 1 0 0
node 483 1 0 0
gene 1 1 12 -3.2635268223671003 false 1 -3.2635268223671003 true
gene 1 2 12 -0.4580772306442586 false 2 -0.4580772306442586 true
gene 1 3 12 -0.28728957909154546 false 3 -0.28728957909154546 true
gene 1 4 12 0.767549686836425 false 4 0.767549686836425 true
gene 1 5 12 1.8071203640962363 false 5 1.8071203640962363 true
gene 1 6 12 0.13313007541940072 false 6 0.13313007541940072 true
gene 1 7 12 0.5738720753018266 false 7 0.5738720753018266 true
gene 1 8 12 0.5714628981655651 false 8 0.5714628981655651 true
gene 1 9 12 1.1714407664258137 false 9 1.1714407664258137 true
gene 1 10 12 0.3578820390074339 false 10 0.3578820390074339 true
gene 1 11 12 -0.18796145903236225 false 11 -0.18796145903236225 true
gene 1 12 13 1.7379778862177946 false 12 1.7379778862177946 true
gene 1 12 14 0.7810943679484298 false 13 0.7810943679484298 true
gene 1 7 14 1.3980153530205737 false 24 1.3980153530205737 true
gene 1 3 87 1.4668275978137169 false 460 1.4668275978137169 true
gene 1 87 12 0.6854262202364255 false 461 0.6854262202364255 true
gene 1 9 13 -0.09847519760122159 false 891 -0.09847519760122159 true
gene 1 8 13 0.5712265944768443 false 995 0.5712265944768443 true
gene 1 6 87 -1.5302824097567453 false 1314 -1.5302824097567453 true
gene 1 13 13 -0.41167257753540276 true 1358 -0.41167257753540276 true
gene 1 3 282 0.16482997199603938 false 1423 0.16482997199603938 true
gene 1 282 12 1.1221666339318157 false 1424 1.1221666339318157 true
gene 1 1 282 -0.21637581228171765 false 1768 -0.21637581228171765 true
gene 1 87 87 -1.2069896325112484 true 1789 -1.2069896325112484 true
gene 1 4 282 1.7036819466958635 false 2088 1.7036819466958635 true
gene 1 5 483 -0.14775285372367633 false 2438 -0.14775285372367633 true
gene 1 483 12 -0.38620149439874485 false 2439 -0.38620149439874485 true
gene 1 5 13 0.39088997262118785 false 2454 0.39088997262118785 true
genomeend 0
/* Organism #3 Fitness: 12.481 Error: 0.970 */
genomestart 3
trait 1 0 0.7295765657389145 0.1346265063112596 0 0.037734823723578 0.7911559805330319 0.009939004092382537 0.2166802095113048 
node 1 1 1 3
node 2 1 1 1
node 3 1 1 1
node 4 1 1 1
node 5 1 1 1
node 6 1 1 1
node 7 1 1 1
node 8 1 1 1
node 9 1 1 1
node 10 1 1 1
node 11 1 1 1
node 12 1 0 0
node 13 1 0 2
node 14 1 0 2
node 87 1 0 0
node 282 1 0 0
node 483 1 0 0
gene 1 1 12 -3.4447612015818265 false 1 -3.4447612015818265 true
gene 1 2 12 -0.46186609339651097 false 2 -0.46186609339651097 true
gene 1 3 12 0.4726429419699358 false 3 0.4726429419699358 true
gene 1 4 12 1.1693500707341173 false 4 1.1693500707341173 true
gene 1 5 12 1.9144628608381233 false 5 1.9144628608381233 true
gene 1 6 12 0.43192690697693337 false 6 0.43192690697693337 true
gene 1 7 12 -0.04057646425005956 false 7 -0.04057646425005956 true
gene 1 8 12 0.20419431515068054 false 8 0.20419431515068054 false
gene 1 9 12 0.7230217429527361 false 9 0.7230217429527361 true
gene 1 10 12 0.2201044702141703 false 10 0.2201044702141703 true
gene 1 11 12 -0.9597626838027925 false 11 -0.9597626838027925 true
gene 1 12 13 1.7379778862177946 false 12 1.7379778862177946 true
gene 1 12 14 0.7810943679484298 false 13 0.7810943679484298 true
gene 1 7 14 0.5909512525184636 false 24 0.5909512525184636 true
gene 1 3 87 0.7606392049371684 false 460 0.7606392049371684 true
gene 1 87 12 -0.276897172462444 false 461 -0.276897172462444 true
gene 1 9 13 -0.10834320261676195 false 891 -0.10834320261676195 true
gene 1 8 13 0.7938600375217979 false 995 0.7938600375217979 true
gene 1 6 87 -0.8413043591961011 false 1314 -0.8413043591961011 true
gene 1 13 13 -0.59394426836838 true 1358 -0.59394426836838 true
gene 1 3 282 -0.5046468447742278 false 1423 -0.5046468447742278 true
gene 1 282 12 1.2133266434392957 false 1424 1.2133266434392957 true
gene 1 1 282 0.49606020991238586 false 1768 0.49606020991238586 true
gene 1 87 87 -1.5038598173352153 true 1789 -1.5038598173352153 true
gene 1 4 282 0.10880060877998457 false 2088 0.10880060877998457 true
gene 1 5 483 0.364372670616384 false 2438 0.364372670616384 true
gene 1 483 12 -0.13378206778551605 false 2439 -0.13378206778551605 true
gene 1 5 13 0.7479955737339968 false 2454 0.7479955737339968 true
genomeend 3
/* Organism #1 Fitness: 6.646 Error: 0.802 */
genomestart 1
trait 1 0 0.7295765657389145 0.1346265063112596 0 0.037734823723578 0.7911559805330319 0.009939004092382537 0.2166802095113048 
node 1 1 1 3
node 2 1 1 1
node 3 1 1 1
node 4 1 1 1
node 5 1 1 1
node 6 1 1 1
node 7 1 1 1
node 8 1 1 1
node 9 1 1 1
node 10 1 1 1
node 11 1 1 1
node 12 1 0 0
node 13 1 0 2
node 14 1 0 2
node 87 1 0 0
node 282 1 0 0
node 483 1 0 0
gene 1 1 12 0.5368192979632304 false 1 0.5368192979632304 true
gene 1 2 12 -0.863271203113549 false 2 -0.863271203113549 true
gene 1 3 12 -0.8304119314867342 false 3 -0.8304119314867342 true
gene 1 4 12 0.6196807873873127 false 4 0.6196807873873127 true
gene 1 5 12 1.8071203640962363 false 5 1.8071203640962363 true
gene 1 6 12 0.8202733742513637 false 6 0.8202733742513637 true
gene 1 7 12 0.8091033661580346 false 7 0.8091033661580346 true
gene 1 8 12 0.0974765936375655 false 8 0.0974765936375655 true
gene 1 9 12 1.2768954699844473 false 9 1.2768954699844473 true
gene 1 10 12 0.28367543215821034 false 10 0.28367543215821034 true
gene 1 11 12 -0.2292630191709761 false 11 -0.2292630191709761 true
gene 1 12 13 1.5418666448738096 false 12 1.5418666448738096 true
gene 1 12 14 0.13422954224083716 false 13 0.13422954224083716 true
gene 1 7 14 1.0664078103964931 false 24 1.0664078103964931 true
gene 1 3 87 0.9611299744675645 false 460 0.9611299744675645 true
gene 1 87 12 0.9866196181850323 false 461 0.9866196181850323 true
gene 1 9 13 -0.5658601596164494 false 891 -0.5658601596164494 true
gene 1 8 13 1.3448883929413806 false 995 1.3448883929413806 true
gene 1 6 87 -1.9120694462118641 false 1314 -1.9120694462118641 true
gene 1 13 13 -0.41167257753540276 true 1358 -0.41167257753540276 true
gene 1 3 282 0.5196129364815361 false 1423 0.5196129364815361 true
gene 1 282 12 1.5927790124654913 false 1424 1.5927790124654913 true
gene 1 1 282 0.4840978776249736 false 1768 0.4840978776249736 true
gene 1 87 87 -0.4096946009065553 true 1789 -0.4096946009065553 true
gene 1 4 282 1.9022739571085865 false 2088 1.9022739571085865 true
gene 1 5 483 -0.21334309379806948 false 2438 -0.21334309379806948 true
gene 1 483 12 0.09031916904627624 false 2439 0.09031916904627624 true
gene 1 5 13 0.24602152253998355 false 2454 0.24602152253998355 true
genomeend 1
/* Organism #4 Fitness: 4.811 Error: 0.690 */
genomestart 4
trait 1 0 0.7295765657389145 0.1346265063112596 0 0.037734823723578 0.7911559805330319 0.009939004092382537 0.2166802095113048 
node 1 1 1 3
node 2 1 1 1
node 3 1 1 1
node 4 1 1 1
node 5 1 1 1
node 6 1 1 1
node 7 1 1 1
node 8 1 1 1
node 9 1 1 1
node 10 1 1 1
node 11 1 1 1
node 12 1 0 0
node 13 1 0 2
node 14 1 0 2
node 87 1 0 0
node 282 1 0 0
node 483 1 0 0
gene 1 1 12 -2.8520534765800094 false 1 -2.8520534765800094 true
gene 1 2 12 -1.7573864319058545 false 2 -1.7573864319058545 true
gene 1 3 12 -1.3456787936209254 false 3 -1.3456787936209254 true
gene 1 4 12 0.42974394666283666 false 4 0.42974394666283666 true
gene 1 5 12 2.0757592501142543 false 5 2.0757592501142543 true
gene 1 6 12 0.7477271127575736 false 6 0.7477271127575736 true
gene 1 7 12 -0.37623227373491663 false 7 -0.37623227373491663 true
gene 1 8 12 -0.39817893649895764 false 8 -0.39817893649895764 true
gene 1 9 12 0.8336582032046371 false 9 0.8336582032046371 true
gene 1 10 12 0.19416667801410717 false 10 0.19416667801410717 true
gene 1 11 12 0.49550226129456176 false 11 0.49550226129456176 true
gene 1 12 13 1.320034596347344 false 12 1.320034596347344 true
gene 1 12 14 0.06963876620556586 false 13 0.06963876620556586 true
gene 1 7 14 1.3320928001062078 false 24 1.3320928001062078 true
gene 1 3 87 2.00004928187522 false 460 2.00004928187522 true
gene 1 87 12 -0.1465804119368493 false 461 -0.1465804119368493 true
gene 1 9 13 -0.0720480757315804 false 891 -0.0720480757315804 true
gene 1 8 13 0.27978296140146464 false 995 0.27978296140146464 true
gene 1 6 87 -1.5085728879793956 false 1314 -1.5085728879793956 true
gene 1 13 13 -0.22852899121844195 true 1358 -0.22852899121844195 true
gene 1 3 282 0.0787556589061536 false 1423 0.0787556589061536 true
gene 1 282 12 0.48975663044383455 false 1424 0.48975663044383455 true
gene 1 1 282 -0.04857251143777508 false 1768 -0.04857251143777508 true
gene 1 87 87 -1.2069896325112484 true 1789 -1.2069896325112484 true
gene 1 4 282 -0.5135419188946135 false 2088 -0.5135419188946135 true
gene 1 5 483 -0.7864644729796983 false 2438 -0.7864644729796983 true
gene 1 483 12 -0.32111138856678734 false 2439 -0.32111138856678734 true
gene 1 5 13 -0.3883135941167265 false 2454 -0.3883135941167265 true
genomeend 4
/* Organism #6 Fitness: 4.336 Error: 0.701 */
genomestart 6
trait 1 0 0.7295765657389145 0.1346265063112596 0 0.037734823723578 0.7911559805330319 0.009939004092382537 0.2166802095113048 
node 1 1 1 3
node 2 1 1 1
node 3 1 1 1
node 4 1 1 1
node 5 1 1 1
node 6 1 1 1
node 7 1 1 1
node 8 1 1 1
node 9 1 1 1
node 10 1 1 1
node 11 1 1 1
node 12 1 0 0
node 13 1 0 2
node 14 1 0 2
node 87 1 0 0
node 282 1 0 0
node 483 1 0 0
node 586 1 0 0
gene 1 1 12 -2.7367293393515535 false 1 -2.7367293393515535 true
gene 1 2 12 -1.2449386306669274 false 2 -1.2449386306669274 true
gene 1 3 12 -0.6041423216301269 false 3 -0.6041423216301269 true
gene 1 4 12 0.767549686836425 false 4 0.767549686836425 true
gene 1 5 12 1.6369957980225534 false 5 1.6369957980225534 true
gene 1 6 12 0.13313007541940072 false 6 0.13313007541940072 true
gene 1 7 12 -0.19633488785319086 false 7 -0.19633488785319086 false
gene 1 8 12 0.5714628981655651 false 8 0.5714628981655651 true
gene 1 9 12 0.27332536414419856 false 9 0.27332536414419856 true
gene 1 10 12 0.32836170335523895 false 10 0.32836170335523895 true
gene 1 11 12 -0.18796145903236225 false 11 -0.18796145903236225 true
gene 1 12 13 1.7379778862177946 false 12 1.7379778862177946 true
gene 1 12 14 0.7810943679484298 false 13 0.7810943679484298 true
gene 1 7 14 1.3980153530205737 false 24 1.3980153530205737 false
gene 1 3 87 2.1541574620220745 false 460 2.1541574620220745 true
gene 1 87 12 0.6854262202364255 false 461 0.6854262202364255 true
gene 1 9 13 -0.09847519760122159 false 891 -0.09847519760122159 true
gene 1 8 13 0.5712265944768443 false 995 0.5712265944768443 true
gene 1 6 87 -1.5302824097567453 false 1314 -1.5302824097567453 true
gene 1 13 13 -0.41167257753540276 true 1358 -0.41167257753540276 true
gene 1 3 282 0.16482997199603938 false 1423 0.16482997199603938 true
gene 1 282 12 1.1221666339318157 false 1424 1.1221666339318157 true
gene 1 1 282 -0.21637581228171765 false 1768 -0.21637581228171765 true
gene 1 87 87 -1.2069896325112484 true 1789 -1.2069896325112484 true
gene 1 4 282 -0.3802079276233239 false 2088 -0.3802079276233239 true
gene 1 5 483 -0.14775285372367633 false 2438 -0.14775285372367633 true
gene 1 483 12 -0.08424903293013203 false 2439 -0.08424903293013203 true
gene 1 5 13 0.39088997262118785 false 2454 0.39088997262118785 true
gene 1 7 586 1 false 2953 0 true
gene 1 586 14 1.3980153530205737 false 2954 0 true
genomeend 6
/* Organism #2 Fitness: 3.206 Error: 0.824 */
genomestart 2
trait 1 0 0.7295765657389145 0.1346265063112596 0 0.037734823723578 0.7911559805330319 0.009939004092382537 0.2166802095113048 
node 1 1 1 3
node 2 1 1 1
node 3 1 1 1
node 4 1 1 1
node 5 1 1 1
node 6 1 1 1
node 7 1 1 1
node 8 1 1 1
node 9 1 1 1
node 10 1 1 1
node 11 1 1 1
node 12 1 0 0
node 13 1 0 2
node 14 1 0 2
node 87 1 0 0
node 282 1 0 0
node 483 1 0 0
gene 1 1 12 -2.7135803921724753 false 1 -2.7135803921724753 true
gene 1 2 12 -1.1395913197994212 false 2 -1.1395913197994212 true
gene 1 3 12 -0.4456429806097046 false 3 -0.4456429806097046 true
gene 1 4 12 -0.16290322222452502 false 4 -0.16290322222452502 true
gene 1 5 12 1.3432637467453281 false 5 1.3432637467453281 true
gene 1 6 12 1.3860813193077886 false 6 1.3860813193077886 true
gene 1 7 12 -0.5111466730122244 false 7 -0.5111466730122244 true
gene 1 8 12 -0.3568079324922258 false 8 -0.3568079324922258 true
gene 1 9 12 -0.2585075530282898 false 9 -0.2585075530282898 true
gene 1 10 12 1.123992348173126 false 10 1.123992348173126 true
gene 1 11 12 0.19985308705081484 false 11 0.19985308705081484 true
gene 1 12 13 1.9838491412650225 false 12 1.9838491412650225 true
gene 1 12 14 1.396685797229066 false 13 1.396685797229066 true
gene 1 7 14 0.4123074667074229 false 24 0.4123074667074229 true
gene 1 3 87 1.4384663454071642 false 460 1.4384663454071642 true
gene 1 87 12 -0.050053577676193145 false 461 -0.050053577676193145 true
gene 1 9 13 0.7569136272090218 false 891 0.7569136272090218 true
gene 1 8 13 0.7834202743308182 false 995 0.7834202743308182 true
gene 1 6 87 -1.5756594789187035 false 1314 -1.5756594789187035 true
gene 1 13 13 0.35965179427021954 true 1358 0.35965179427021954 true
gene 1 3 282 0.7739652111873565 false 1423 0.7739652111873565 true
gene 1 282 12 0.3856311166738966 false 1424 0.3856311166738966 true
gene 1 1 282 0.002582596077356447 false 1768 0.002582596077356447 true
gene 1 87 87 -0.7125595054458953 true 1789 -0.7125595054458953 true
gene 1 4 282 -0.3802079276233239 false 2088 -0.3802079276233239 true
gene 1 5 483 0.3438162194126532 false 2438 0.3438162194126532 true
gene 1 483 12 0.29570370183776884 false 2439 0.29570370183776884 true
gene 1 5 13 -0.6344741737791633 false 2454 -0.6344741737791633 true
genomeend 2
/* Organism #5 Fitness: 1.442 Error: 0.839 */
genomestart 5
trait 1 0 0.7295765657389145 0.1346265063112596 0 0.037734823723578 0.7911559805330319 0.009939004092382537 0.2166802095113048 
node 1 1 1 3
node 2 1 1 1
node 3 1 1 1
node 4 1 1 1
node 5 1 1 1
node 6 1 1 1
node 7 1 1 1
node 8 1 1 1
node 9 1 1 1
node 10 1 1 1
node 11 1 1 1
node 12 1 0 0
node 13 1 0 2
node 14 1 0 2
node 87 1 0 0
node 282 1 0 0
node 483 1 0 0
gene 1 1 12 -3.3584892893681593 false 1 -3.3584892893681593 true
gene 1 2 12 -1.1374492114479156 false 2 -1.1374492114479156 true
gene 1 3 12 -0.8683937366742787 false 3 -0.8683937366742787 true
gene 1 4 12 0.6756362944502254 false 4 0.6756362944502254 true
gene 1 5 12 1.901345592952028 false 5 1.901345592952028 true
gene 1 6 12 0.9985852261415588 false 6 0.9985852261415588 true
gene 1 7 12 0.045448932400048964 false 7 0.045448932400048964 false
gene 1 8 12 -0.156049628757814 false 8 -0.156049628757814 true
gene 1 9 12 -0.4032312750845178 false 9 -0.4032312750845178 true
gene 1 10 12 0.24913169824885778 false 10 0.24913169824885778 true
gene 1 11 12 0.1201834156934061 false 11 0.1201834156934061 true
gene 1 12 13 1.3567224621315062 false 12 1.3567224621315062 true
gene 1 12 14 1.2341023361279417 false 13 1.2341023361279417 true
gene 1 7 14 1.1100970519352338 false 24 1.1100970519352338 true
gene 1 3 87 1.966724560512406 false 460 1.966724560512406 true
gene 1 87 12 -0.24561377644880422 false 461 -0.24561377644880422 true
gene 1 9 13 -0.2139232429282244 false 891 -0.2139232429282244 true
gene 1 8 13 -0.06831086818654708 false 995 -0.06831086818654708 true
gene 1 6 87 -2.2905590908330673 false 1314 -2.2905590908330673 true
gene 1 13 13 0.09914806967214096 true 1358 0.09914806967214096 true
gene 1 3 282 -0.22224805318429836 false 1423 -0.22224805318429836 true
gene 1 282 12 1.135305411739757 false 1424 1.135305411739757 true
gene 1 1 282 -0.43658489507482695 false 1768 -0.43658489507482695 true
gene 1 87 87 -1.9443250513948895 true 1789 -1.9443250513948895 true
gene 1 4 282 -0.33258565536932927 false 2088 -0.33258565536932927 true
gene 1 5 483 -0.2310826621922207 false 2438 -0.2310826621922207 true
gene 1 483 12 -0.001093725125238143 false 2439 -0.001093725125238143 true
gene 1 5 13 -0.8319391044829181 false 2454 -0.8319391044829181 true
genomeend 5
/* Species #2 : (Size 6) (AF 5.531) (Age 96)  */
/* Organism #7 Fitness: 8.398 Error: 0.990 */
genomestart 7
trait 1 0.9979157059619441 0 0.06556372261382556 0.6315817371955394 0.2577588046109057 1.063321208553515 0.4078879209940137 0 
node 1 1 1 3
node 2 1 1 1
node 3 1 1 1
node 4 1 1 1
node 5 1 1 1
node 6 1 1 1
node 7 1 1 1
node 8 1 1 1
node 9 1 1 1
node 10 1 1 1
node 11 1 1 1
node 12 1 0 0
node 13 1 0 2
node 14 1 0 2
node 85 1 0 0
node 139 1 0 0
node 266 1 0 0
node 320 1 0 0
gene 1 1 12 -0.37483468101592565 false 1 -0.37483468101592565 true
gene 1 2 12 0.8172629658529753 false 2 0.8172629658529753 true
gene 1 3 12 1.4347219881492372 false 3 1.4347219881492372 true
gene 1 4 12 -0.5489394654133245 false 4 -0.5489394654133245 true
gene 1 5 12 2.0669064416144187 false 5 2.0669064416144187 true
gene 1 6 12 -1.103635073480626 false 6 -1.103635073480626 true
gene 1 7 12 -5.974696756370205 false 7 -5.974696756370205 true
gene 1 8 12 -2.263004874740347 false 8 -2.263004874740347 true
gene 1 9 12 -0.8269105987432122 false 9 -0.8269105987432122 true
gene 1 10 12 0.6047188471454659 false 10 0.6047188471454659 true
gene 1 11 12 -0.04360686755525611 false 11 -0.04360686755525611 true
gene 1 12 13 -0.33444465590147554 false 12 -0.33444465590147554 true
gene 1 12 14 3.4548398359340373 false 13 3.4548398359340373 true
gene 1 7 14 -1.9070147101484416 false 24 -1.9070147101484416 true
gene 1 7 13 -0.2575328141732013 false 54 -0.2575328141732013 true
gene 1 2 13 0.7430444063685773 false 105 0.7430444063685773 true
gene 1 2 85 0.7757618129429646 false 451 0.7757618129429646 true
gene 1 85 13 -0.9703297195771652 false 452 -0.9703297195771652 true
gene 1 2 139 -1.6887918430655096 false 718 -1.6887918430655096 true
gene 1 139 13 -0.6171898893288168 false 719 -0.6171898893288168 true
gene 1 4 139 0.3395565364352561 false 782 0.3395565364352561 true
gene 1 11 85 -0.9928867422024676 false 909 -0.9928867422024676 true
gene 1 10 85 -0.7224220227261293 false 944 -0.7224220227261293 true
gene 1 12 85 0.21670187263648644 false 1190 0.21670187263648644 true
gene 1 1 85 0.45255524873788433 false 1270 0.45255524873788433 true
gene 1 9 13 1.3498721455060352 false 1323 1.3498721455060352 true
gene 1 7 266 1.2454001505682406 false 1356 1.2454001505682406 true
gene 1 266 13 -0.5380968023533604 false 1357 -0.5380968023533604 true
gene 1 11 320 -0.5674648120061485 false 1594 -0.5674648120061485 true
gene 1 320 85 -1.1935669224803553 false 1595 -1.1935669224803553 true
gene 1 3 320 -0.8042005647120372 false 1894 -0.8042005647120372 true
gene 1 320 14 -1.1337392631208818 false 2053 -1.1337392631208818 true
gene 1 139 266 0.7739504842842914 false 2150 0.7739504842842914 true
gene 1 320 266 0.40374370064279597 false 2159 0.40374370064279597 true
gene 1 10 13 0.49773698980122955 false 2548 0.49773698980122955 true
genomeend 7
/* Organism #8 Fitness: 7.467 Error: 0.990 */
genomestart 8
trait 1 0.9979157059619441 0 0.06556372261382556 0.6315817371955394 0.2577588046109057 1.063321208553515 0.4078879209940137 0 
node 1 1 1 3
node 2 1 1 1
node 3 1 1 1
node 4 1 1 1
node 5 1 1 1
node 6 1 1 1
node 7 1 1 1
node 8 1 1 1
node 9 1 1 1
node 10 1 1 1
node 11 1 1 1
node 12 1 0 0
node 13 1 0 2
node 14 1 0 2
node 85 1 0 0
node 139 1 0 0
node 266 1 0 0
node 320 1 0 0
gene 1 1 12 -0.37483468101592565 false 1 -0.37483468101592565 true
gene 1 2 12 0.8172629658529753 false 2 0.8172629658529753 true
gene 1 3 12 1.4347219881492372 false 3 1.4347219881492372 true
gene 1 4 12 -0.5489394654133245 false 4 -0.5489394654133245 true
gene 1 5 12 2.0669064416144187 false 5 2.0669064416144187 true
gene 1 6 12 -1.103635073480626 false 6 -1.103635073480626 true
gene 1 7 12 -5.974696756370205 false 7 -5.974696756370205 true
gene 1 8 12 -2.263004874740347 false 8 -2.263004874740347 true
gene 1 9 12 -0.8269105987432122 false 9 -0.8269105987432122 true
gene 1 10 12 0.6047188471454659 false 10 0.6047188471454659 true
gene 1 11 12 -0.04360686755525611 false 11 -0.04360686755525611 true
gene 1 12 13 -0.33444465590147554 false 12 -0.33444465590147554 true
gene 1 12 14 3.4548398359340373 false 13 3.4548398359340373 true
gene 1 7 14 -1.9070147101484416 false 24 -1.9070147101484416 true
gene 1 7 13 -0.2575328141732013 false 54 -0.2575328141732013 true
gene 1 2 13 0.7430444063685773 false 105 0.7430444063685773 true
gene 1 2 85 0.7757618129429646 false 451 0.7757618129429646 true
gene 1 85 13 -0.9703297195771652 false 452 -0.9703297195771652 true
gene 1 2 139 -1.6887918430655096 false 718 -1.6887918430655096 true
gene 1 139 13 -0.6171898893288168 false 719 -0.6171898893288168 true
gene 1 4 139 0.3395565364352561 false 782 0.3395565364352561 true
gene 1 11 85 -0.9928867422024676 false 909 -0.9928867422024676 true
gene 1 10 85 -0.7224220227261293 false 944 -0.7224220227261293 true
gene 1 12 85 0.21670187263648644 false 1190 0.21670187263648644 true
gene 1 1 85 0.45255524873788433 false 1270 0.45255524873788433 true
gene 1 9 13 1.3498721455060352 false 1323 1.3498721455060352 true
gene 1 7 266 1.2454001505682406 false 1356 1.2454001505682406 true
gene 1 266 13 -0.5380968023533604 false 1357 -0.5380968023533604 true
gene 1 11 320 -0.5674648120061485 false 1594 -0.5674648120061485 true
gene 1 320 85 -1.1935669224803553 false 1595 -1.1935669224803553 true
gene 1 3 320 -0.8042005647120372 false 1894 -0.8042005647120372 true
gene 1 320 14 -1.1337392631208818 false 2053 -1.1337392631208818 true
gene 1 139 266 0.7739504842842914 false 2150 0.7739504842842914 true
gene 1 320 266 0.40374370064279597 false 2159 0.40374370064279597 true
gene 1 10 13 0.49773698980122955 false 2548 0.49773698980122955 true
gene 1 320 13 1.1477318681252764 false 2963 1.1477318681252764 true
genomeend 8
/* Organism #9 Fitness: 7.093 Error: 0.939 */
genomestart 9
trait 1 0.9979157059619441 0 0.06556372261382556 0.6315817371955394 0.2577588046109057 1.063321208553515 0.4078879209940137 0 
node 1 1 1 3
node 2 1 1 1
node 3 1 1 1
node 4 1 1 1
node 5 1 1 1
node 6 1 1 1
node 7 1 1 1
node 8 1 1 1
node 9 1 1 1
node 10 1 1 1
node 11 1 1 1
node 12 1 0 0
node 13 1 0 2
node 14 1 0 2
node 85 1 0 0
node 139 1 0 0
node 266 1 0 0
node 320 1 0 0
gene 1 1 12 -0.3666412986140143 false 1 -0.3666412986140143 true
gene 1 2 12 0.7008883908328486 false 2 0.7008883908328486 true
gene 1 3 12 1.7957908467550974 false 3 1.7957908467550974 true
gene 1 4 12 0.17752858658629872 false 4 0.17752858658629872 true
gene 1 5 12 0.6250483750720137 false 5 0.6250483750720137 true
gene 1 6 12 -1.0546154859553352 false 6 -1.0546154859553352 true
gene 1 7 12 -5.174558567919634 false 7 -5.174558567919634 true
gene 1 8 12 -2.4429210104428822 false 8 -2.4429210104428822 true
gene 1 9 12 -0.5898614900601366 false 9 -0.5898614900601366 true
gene 1 10 12 0.44697987320737276 false 10 0.44697987320737276 true
gene 1 11 12 -0.5561404302453847 false 11 -0.5561404302453847 true
gene 1 12 13 -0.2213588221392549 false 12 -0.2213588221392549 true
gene 1 12 14 2.6558564723962483 false 13 2.6558564723962483 true
gene 1 7 14 -0.12399545626239142 false 24 -0.12399545626239142 true
gene 1 7 13 -1.2471419856744903 false 54 -1.2471419856744903 true
gene 1 2 13 0.4317527985779009 false 105 0.4317527985779009 true
gene 1 2 85 -0.7092570567826462 false 451 -0.7092570567826462 true
gene 1 85 13 -0.2534353407677148 false 452 -0.2534353407677148 true
gene 1 2 139 0.17102545087860438 false 718 0.17102545087860438 true
gene 1 139 13 -0.9092938253298921 false 719 -0.9092938253298921 true
gene 1 4 139 -0.4873944114866149 false 782 -0.4873944114866149 true
gene 1 11 85 0.12060159185803024 false 909 0.12060159185803024 true
gene 1 10 85 -0.0702144621965346 false 944 -0.0702144621965346 true
gene 1 12 85 0.44253018757192086 false 1190 0.44253018757192086 true
gene 1 1 85 -0.31783551544050415 false 1270 -0.31783551544050415 true
gene 1 9 13 0.8331902656056348 false 1323 0.8331902656056348 true
gene 1 7 266 1.0524487171490453 false 1356 1.0524487171490453 true
gene 1 266 13 0.33658445682402244 false 1357 0.33658445682402244 true
gene 1 11 320 -0.5117505169282013 false 1594 -0.5117505169282013 true
gene 1 320 85 -0.7625748849372104 false 1595 -0.7625748849372104 true
gene 1 3 320 0.23737005024142166 false 1894 0.23737005024142166 true
gene 1 320 14 -0.1257534279144395 false 2053 -0.1257534279144395 true
gene 1 139 266 -0.4601369316071059 false 2150 -0.4601369316071059 true
gene 1 320 266 0.40374370064279597 false 2159 0.40374370064279597 true
gene 1 10 13 0.9647916707082014 false 2548 0.9647916707082014 true
genomeend 9
/* Organism #10 Fitness: 4.532 Error: 0.990 */
genomestart 10
trait 1 0.9979157059619441 0 0.06556372261382556 0.6315817371955394 0.2577588046109057 1.063321208553515 0.4078879209940137 0 
node 1 1 1 3
node 2 1 1 1
node 3 1 1 1
node 4 1 1 1
node 5 1 1 1
node 6 1 1 1
node 7 1 1 1
node 8 1 1 1
node 9 1 1 1
node 10 1 1 1
node 11 1 1 1
node 12 1 0 0
node 13 1 0 2
node 14 1 0 2
node 85 1 0 0
node 139 1 0 0
node 266 1 0 0
node 320 1 0 0
gene 1 1 12 -0.31298197994108246 false 1 -0.31298197994108246 true
gene 1 2 12 0.8193053410063219 false 2 0.8193053410063219 true
gene 1 3 12 1.8299724767589072 false 3 1.8299724767589072 true
gene 1 4 12 0.2506742164718361 false 4 0.2506742164718361 true
gene 1 5 12 2.830061747189283 false 5 2.830061747189283 true
gene 1 6 12 -1.173256425179016 false 6 -1.173256425179016 true
gene 1 7 12 -6.353809460083852 false 7 -6.353809460083852 true
gene 1 8 12 -1.5700964252937544 false 8 -1.5700964252937544 true
gene 1 9 12 -1.228107081636797 false 9 -1.228107081636797 true
gene 1 10 12 0.04955830063016797 false 10 0.04955830063016797 true
gene 1 11 12 -0.653047971101004 false 11 -0.653047971101004 true
gene 1 12 13 -0.9873550253512303 false 12 -0.9873550253512303 true
gene 1 12 14 3.1601015047085927 false 13 3.1601015047085927 true
gene 1 7 14 -1.876585707030718 false 24 -1.876585707030718 true
gene 1 7 13 -1.036054990927447 false 54 -1.036054990927447 true
gene 1 2 13 1.084673763898748 false 105 1.084673763898748 true
gene 1 2 85 0.9410945405404282 false 451 0.9410945405404282 true
gene 1 85 13 -1.095204178322788 false 452 -1.095204178322788 true
gene 1 2 139 -1.7785244205349469 false 718 -1.7785244205349469 true
gene 1 139 13 -0.7130969063355255 false 719 -0.7130969063355255 true
gene 1 4 139 -0.3352452682569772 false 782 -0.3352452682569772 true
gene 1 11 85 -1.3389533433855196 false 909 -1.3389533433855196 true
gene 1 10 85 -1.0912207024535423 false 944 -1.0912207024535423 true
gene 1 12 85 0.389302212193622 false 1190 0.389302212193622 true
gene 1 1 85 0.5002597169571911 false 1270 0.5002597169571911 true
gene 1 9 13 2.096001885795936 false 1323 2.096001885795936 true
gene 1 7 266 1.6730730503733535 false 1356 1.6730730503733535 true
gene 1 266 13 0.09832970436667932 false 1357 0.09832970436667932 true
gene 1 11 320 -0.625679596687843 false 1594 -0.625679596687843 true
gene 1 320 85 0.619287313608091 false 1595 0.619287313608091 true
gene 1 3 320 -0.8042005647120372 false 1894 -0.8042005647120372 true
gene 1 320 14 -1.543269309270332 false 2053 -1.543269309270332 true
gene 1 139 266 1.1631269203527186 false 2150 1.1631269203527186 true
gene 1 320 266 -0.2543247790602 false 2159 -0.2543247790602 true
gene 1 10 13 -0.21452179216916886 false 2548 -0.21452179216916886 true
genomeend 10
/* Organism #12 Fitness: 4.161 Error: 0.990 */
genomestart 12
trait 1 0.9979157059619441 0 0.06556372261382556 0.6315817371955394 0.2577588046109057 1.063321208553515 0.4078879209940137 0 
node 1 1 1 3
node 2 1 1 1
node 3 1 1 1
node 4 1 1 1
node 5 1 1 1
node 6 1 1 1
node 7 1 1 1
node 8 1 1 1
node 9 1 1 1
node 10 1 1 1
node 11 1 1 1
node 12 1 0 0
node 13 1 0 2
node 14 1 0 2
node 85 1 0 0
node 139 1 0 0
node 266 1 0 0
node 320 1 0 0
gene 1 1 12 0.22449454750603526 false 1 0.22449454750603526 true
gene 1 2 12 0.43565417130993994 false 2 0.43565417130993994 true
gene 1 3 12 0.49191180839312043 false 3 0.49191180839312043 true
gene 1 4 12 -0.6369587898340252 false 4 -0.6369587898340252 true
gene 1 5 12 2.948576546777102 false 5 2.948576546777102 true
gene 1 6 12 -0.942468107923111 false 6 -0.942468107923111 true
gene 1 7 12 -5.53512157028046 false 7 -5.53512157028046 true
gene 1 8 12 0.18237078836021955 false 8 0.18237078836021955 true
gene 1 9 12 0.5775070273487668 false 9 0.5775070273487668 true
gene 1 10 12 1.0425487320233326 false 10 1.0425487320233326 true
gene 1 11 12 -0.6661874842257274 false 11 -0.6661874842257274 true
gene 1 12 13 0.29760327781664514 false 12 0.29760327781664514 true
gene 1 12 14 2.379928760280329 false 13 2.379928760280329 true
gene 1 7 14 0.2152124193535544 false 24 0.2152124193535544 true
gene 1 7 13 -0.5270968006824963 false 54 -0.5270968006824963 true
gene 1 2 13 0.656091554868376 false 105 0.656091554868376 true
gene 1 2 85 1.6544178835321122 false 451 1.6544178835321122 true
gene 1 85 13 -0.5197919931559429 false 452 -0.5197919931559429 true
gene 1 2 139 -2.225428697906125 false 718 -2.225428697906125 true
gene 1 139 13 -1.787349651828293 false 719 -1.787349651828293 true
gene 1 4 139 0.8402388459376815 false 782 0.8402388459376815 true
gene 1 11 85 0.38598781585707886 false 909 0.38598781585707886 true
gene 1 10 85 -0.9269986537656656 false 944 -0.9269986537656656 true
gene 1 12 85 0.06271818007051819 false 1190 0.06271818007051819 true
gene 1 1 85 -0.023505922895625697 false 1270 -0.023505922895625697 true
gene 1 9 13 -0.6773385947588849 false 1323 -0.6773385947588849 true
gene 1 7 266 0.8896614909745799 false 1356 0.8896614909745799 true
gene 1 266 13 0.3020718829796485 false 1357 0.3020718829796485 true
gene 1 11 320 -0.3926469103018395 false 1594 -0.3926469103018395 true
gene 1 320 85 -0.8115731138105776 false 1595 -0.8115731138105776 true
gene 1 3 320 -1.1517545212900957 false 1894 -1.1517545212900957 true
gene 1 320 14 -1.1355325726021226 false 2053 -1.1355325726021226 true
gene 1 139 266 0.5400029607261386 false 2150 0.5400029607261386 true
gene 1 320 266 0.5937841862027281 false 2159 0.5937841862027281 true
gene 1 10 13 0.5891948761594824 false 2548 0.5891948761594824 true
genomeend 12
/* Organism #11 Fitness: 1.537 Error: 0.862 */
genomestart 11
trait 1 0.9979157059619441 0 0.06556372261382556 0.6315817371955394 0.2577588046109057 1.063321208553515 0.4078879209940137 0 
node 1 1 1 3
node 2 1 1 1
node 3 1 1 1
node 4 1 1 1
node 5 1 1 1
node 6 1 1 1
node 7 1 1 1
node 8 1 1 1
node 9 1 1 1
node 10 1 1 1
node 11 1 1 1
node 12 1 0 0
node 13 1 0 2
node 14 1 0 2
node 85 1 0 0
node 139 1 0 0
node 266 1 0 0
node 320 1 0 0
gene 1 1 12 0.20548038021318504 false 1 0.20548038021318504 true
gene 1 2 12 0.5470286470545813 false 2 0.5470286470545813 true
gene 1 3 12 1.790342220400784 false 3 1.790342220400784 true
gene 1 4 12 -1.0319100992741908 false 4 -1.0319100992741908 true
gene 1 5 12 1.3342989154919616 false 5 1.3342989154919616 true
gene 1 6 12 -1.8263494379994387 false 6 -1.8263494379994387 true
gene 1 7 12 -5.5373747396659585 false 7 -5.5373747396659585 true
gene 1 8 12 -1.9308285778592458 false 8 -1.9308285778592458 true
gene 1 9 12 -0.2078127358654639 false 9 -0.2078127358654639 true
gene 1 10 12 1.0233283891373353 false 10 1.0233283891373353 true
gene 1 11 12 -0.757238751555028 false 11 -0.757238751555028 true
gene 1 12 13 -0.06228248608445041 false 12 -0.06228248608445041 true
gene 1 12 14 2.5212002538149934 false 13 2.5212002538149934 true
gene 1 7 14 -1.46209088800043 false 24 -1.46209088800043 true
gene 1 7 13 -0.9712572137078401 false 54 -0.9712572137078401 true
gene 1 2 13 0.20660074021692265 false 105 0.20660074021692265 true
gene 1 2 85 0.7471847197681004 false 451 0.7471847197681004 true
gene 1 85 13 1.17447980802658 false 452 1.17447980802658 true
gene 1 2 139 -1.7351557791924948 false 718 -1.7351557791924948 true
gene 1 139 13 -1.8170746407573115 false 719 -1.8170746407573115 true
gene 1 4 139 0.7315612725105216 false 782 0.7315612725105216 true
gene 1 11 85 1.0256805191248728 false 909 1.0256805191248728 true
gene 1 10 85 -0.887339932433221 false 944 -0.887339932433221 true
gene 1 12 85 0.7405674541419567 false 1190 0.7405674541419567 true
gene 1 1 85 -0.30272515377344134 false 1270 -0.30272515377344134 true
gene 1 9 13 0.2712875765336395 false 1323 0.2712875765336395 true
gene 1 7 266 0.8112401124990214 false 1356 0.8112401124990214 true
gene 1 266 13 0.5724978829431939 false 1357 0.5724978829431939 true
gene 1 11 320 -0.7232049389769606 false 1594 -0.7232049389769606 true
gene 1 320 85 -1.1935669224803553 false 1595 -1.1935669224803553 true
gene 1 3 320 -0.0826072969440414 false 1894 -0.0826072969440414 true
gene 1 320 14 -1.1337392631208818 false 2053 -1.1337392631208818 true
gene 1 139 266 -0.5193976850783129 false 2150 -0.5193976850783129 true
gene 1 320 266 0.40374370064279597 false 2159 0.40374370064279597 true
gene 1 10 13 0.49773698980122955 false 2548 0.49773698980122955 true
genomeend 11
/* Species #3 : (Size 11) (AF 6.012) (Age 96)  */
/* Organism #18 Fitness: 8.751 Error: 0.398 */
genomestart 18
trait 1 0.3757125493535413 1.9505517144440827 1.0104020747517057 0 0 2.4534261335396357 0 0.9877235525269176 
node 1 1 1 3
node 2 1 1 1
node 3 1 1 1
node 4 1 1 1
node 5 1 1 1
node 6 1 1 1
node 7 1 1 1
node 8 1 1 1
node 9 1 1 1
node 10 1 1 1
node 11 1 1 1
node 12 1 0 0
node 13 1 0 2
node 14 1 0 2
node 17 1 0 0
node 23 1 0 0
node 27 1 0 0
node 37 1 0 0
node 52 1 0 0
node 191 1 0 0
node 389 1 0 0
gene 1 1 12 0.15007252809193958 false 1 0.15007252809193958 true
gene 1 2 12 -1.1737940254688648 false 2 -1.1737940254688648 true
gene 1 3 12 0.5288230620936537 false 3 0.5288230620936537 true
gene 1 4 12 0.3726228435598181 false 4 0.3726228435598181 true
gene 1 5 12 -0.3817433469278611 false 5 -0.3817433469278611 true
gene 1 6 12 -1.2584297013391996 false 6 -1.2584297013391996 true
gene 1 7 12 1.579856396487833 false 7 1.579856396487833 true
gene 1 8 12 -0.7218840593083882 false 8 -0.7218840593083882 true
gene 1 9 12 0.568064856154048 false 9 0.568064856154048 true
gene 1 10 12 0.5154344357408331 false 10 0.5154344357408331 true
gene 1 11 12 -0.9872740366163579 false 11 -0.9872740366163579 true
gene 1 12 13 0.10888901313199778 false 12 0.10888901313199778 true
gene 1 12 14 0.3125213587187501 false 13 0.3125213587187501 true
gene 1 7 14 1.0679702375637554 false 24 1.0679702375637554 true
gene 1 2 17 -2.640331639915226 false 42 -2.640331639915226 true
gene 1 17 12 -1.9109284952975436 false 43 -1.9109284952975436 true
gene 1 11 23 0.48913432719862526 false 91 0.48913432719862526 true
gene 1 23 12 1.586302045707937 false 92 1.586302045707937 true
gene 1 2 27 0.1190108950875241 false 119 0.1190108950875241 true
gene 1 27 12 0.37160656261188585 false 120 0.37160656261188585 true
gene 1 2 14 -0.7526499585481388 false 161 -0.7526499585481388 true
gene 1 11 37 0.4576788547962165 false 175 0.4576788547962165 true
gene 1 37 23 1.1429018464691867 false 176 1.1429018464691867 true
gene 1 8 52 -0.0530314838169732 false 257 -0.0530314838169732 true
gene 1 52 12 -1.9231498999229175 false 258 -1.9231498999229175 true
gene 1 23 23 0.7192013522130355 true 270 0.7192013522130355 true
gene 1 5 27 -1.4479166141911148 false 643 -1.4479166141911148 true
gene 1 6 191 -0.7017134146576824 false 945 -0.7017134146576824 true
gene 1 191 12 -0.6020385764482318 false 946 -0.6020385764482318 true
gene 1 9 23 -0.8356427882963302 false 1543 -0.8356427882963302 true
gene 1 13 13 -0.7323233590344603 true 1745 -0.7323233590344603 true
gene 1 7 52 -0.37669584689415014 false 1928 -0.37669584689415014 true
gene 1 9 389 0.6669484960718223 false 1949 0.6669484960718223 true
gene 1 389 23 0.0922594067585566 false 1950 0.0922594067585566 true
gene 1 7 37 0.1451042160835989 false 2072 0.1451042160835989 true
gene 1 3 13 10.317663791980383 false 2735 10.317663791980383 true
genomeend 18
/* Organism #15 Fitness: 8.656 Error: 0.398 */
genomestart 15
trait 1 0.3757125493535413 1.9505517144440827 1.0104020747517057 0 0 2.4534261335396357 0 0.9877235525269176 
node 1 1 1 3
node 2 1 1 1
node 3 1 1 1
node 4 1 1 1
node 5 1 1 1
node 6 1 1 1
node 7 1 1 1
node 8 1 1 1
node 9 1 1 1
node 10 1 1 1
node 11 1 1 1
node 12 1 0 0
node 13 1 0 2
node 14 1 0 2
node 17 1 0 0
node 23 1 0 0
node 27 1 0 0
node 37 1 0 0
node 52 1 0 0
node 191 1 0 0
node 389 1 0 0
gene 1 1 12 0.2519727383581202 false 1 0.2519727383581202 true
gene 1 2 12 -1.6178309328926281 false 2 -1.6178309328926281 true
gene 1 3 12 0.23690292410473318 false 3 0.23690292410473318 true
gene 1 4 12 -0.10981075447197586 false 4 -0.10981075447197586 true
gene 1 5 12 -0.1258529959272982 false 5 -0.1258529959272982 true
gene 1 6 12 -1.079540534172779 false 6 -1.079540534172779 true
gene 1 7 12 1.1918520727734325 false 7 1.1918520727734325 true
gene 1 8 12 -1.439640751701143 false 8 -1.439640751701143 true
gene 1 9 12 1.1832370789992894 false 9 1.1832370789992894 true
gene 1 10 12 -0.7702210903414038 false 10 -0.7702210903414038 true
gene 1 11 12 -1.14067071052689 false 11 -1.14067071052689 true
gene 1 12 13 -0.4681063847698032 false 12 -0.4681063847698032 true
gene 1 12 14 0.4620329651829075 false 13 0.4620329651829075 true
gene 1 7 14 0.7473945265604134 false 24 0.7473945265604134 true
gene 1 2 17 0.18795250104533645 false 42 0.18795250104533645 true
gene 1 17 12 -1.7791128360567572 false 43 -1.7791128360567572 true
gene 1 11 23 -0.7910381978519465 false 91 -0.7910381978519465 true
gene 1 23 12 1.252657946296906 false 92 1.252657946296906 true
gene 1 2 27 0.7275444696518738 false 119 0.7275444696518738 true
gene 1 27 12 -0.25767794028182855 false 120 -0.25767794028182855 true
gene 1 2 14 -0.065036199135724 false 161 -0.065036199135724 true
gene 1 11 37 0.03364840376157674 false 175 0.03364840376157674 true
gene 1 37 23 0.470354368009009 false 176 0.470354368009009 true
gene 1 8 52 0.5511304204135526 false 257 0.5511304204135526 true
gene 1 52 12 -1.9482322180317673 false 258 -1.9482322180317673 true
gene 1 23 23 -1.1313956235043463 true 270 -1.1313956235043463 true
gene 1 5 27 -1.1417933084769407 false 643 -1.1417933084769407 true
gene 1 6 191 -0.6403911753796919 false 945 -0.6403911753796919 true
gene 1 191 12 -1.1321479784202046 false 946 -1.1321479784202046 true
gene 1 9 23 -0.020999074370025794 false 1543 -0.020999074370025794 true
gene 1 13 13 -0.9774152579162135 true 1745 -0.9774152579162135 true
gene 1 7 52 -0.25368864400608965 false 1928 -0.25368864400608965 true
gene 1 9 389 1.3729079985742327 false 1949 1.3729079985742327 true
gene 1 389 23 0.006675052024647814 false 1950 0.006675052024647814 true
gene 1 7 37 0.6603093179125101 false 2072 0.6603093179125101 true
gene 1 3 13 9.866325080142268 false 2735 9.866325080142268 true
genomeend 15
/* Organism #21 Fitness: 8.589 Error: 0.393 */
genomestart 21
trait 1 0.3757125493535413 1.9505517144440827 1.4017435254817459 0 0 2.6058305985509294 0.3744056852719305 0.30051957746553826 
node 1 1 1 3
node 2 1 1 1
node 3 1 1 1
node 4 1 1 1
node 5 1 1 1
node 6 1 1 1
node 7 1 1 1
node 8 1 1 1
node 9 1 1 1
node 10 1 1 1
node 11 1 1 1
node 12 1 0 0
node 13 1 0 2
node 14 1 0 2
node 17 1 0 0
node 23 1 0 0
node 27 1 0 0
node 37 1 0 0
node 52 1 0 0
node 191 1 0 0
node 389 1 0 0
gene 1 1 12 0.9376289869817589 false 1 0.9376289869817589 true
gene 1 2 12 -0.5829589987202702 false 2 -0.5829589987202702 true
gene 1 3 12 0.3628161173690114 false 3 0.3628161173690114 true
gene 1 4 12 0.5176227327871584 false 4 0.5176227327871584 true
gene 1 5 12 1.9164532664015475 false 5 1.9164532664015475 true
gene 1 6 12 -0.9377198900170388 false 6 -0.9377198900170388 true
gene 1 7 12 -0.23217839278871644 false 7 -0.23217839278871644 true
gene 1 8 12 -1.188298598731338 false 8 -1.188298598731338 true
gene 1 9 12 0.746208522487931 false 9 0.746208522487931 true
gene 1 10 12 -0.3962426504213854 false 10 -0.3962426504213854 true
gene 1 11 12 -1.518292368982576 false 11 -1.518292368982576 true
gene 1 12 13 0.28439905585724445 false 12 0.28439905585724445 true
gene 1 12 14 0.5436305975214142 false 13 0.5436305975214142 true
gene 1 7 14 0.9435266319097906 false 24 0.9435266319097906 true
gene 1 2 17 0.06515032552034872 false 42 0.06515032552034872 true
gene 1 17 12 -1.4214718319771995 false 43 -1.4214718319771995 true
gene 1 11 23 0.48913432719862526 false 91 0.48913432719862526 true
gene 1 23 12 1.586302045707937 false 92 1.586302045707937 true
gene 1 2 27 -0.671860458679704 false 119 -0.671860458679704 true
gene 1 27 12 0.24757724455322122 false 120 0.24757724455322122 true
gene 1 2 14 -0.9801617920030715 false 161 -0.9801617920030715 true
gene 1 11 37 0.21537598783286466 false 175 0.21537598783286466 true
gene 1 37 23 0.9202007810982318 false 176 0.9202007810982318 true
gene 1 8 52 0.85245548636635 false 257 0.85245548636635 true
gene 1 52 12 -0.3276455114520267 false 258 -0.3276455114520267 true
gene 1 23 23 -0.2753055529800835 true 270 -0.2753055529800835 true
gene 1 5 27 -1.4479166141911148 false 643 -1.4479166141911148 true
gene 1 6 191 -0.1070476395354592 false 945 -0.1070476395354592 true
gene 1 191 12 -0.3990236354092152 false 946 -0.3990236354092152 true
gene 1 9 23 0.12576575373101195 false 1543 0.12576575373101195 true
gene 1 13 13 -0.4003099305562534 true 1745 -0.4003099305562534 true
gene 1 7 52 0.28926188132888964 false 1928 0.28926188132888964 true
gene 1 9 389 0.667618714331388 false 1949 0.667618714331388 true
gene 1 389 23 0.15444166952568478 false 1950 0.15444166952568478 true
gene 1 7 37 0.1451042160835989 false 2072 0.1451042160835989 true
gene 1 3 13 9.857051539381983 false 2735 9.857051539381983 true
genomeend 21
/* Organism #13 Fitness: 7.671 Error: 0.266 */
genomestart 13
trait 1 0.3757125493535413 1.9505517144440827 1.0104020747517057 0 0 2.4534261335396357 0 0.9877235525269176 
node 1 1 1 3
node 2 1 1 1
node 3 1 1 1
node 4 1 1 1
node 5 1 1 1
node 6 1 1 1
node 7 1 1 1
node 8 1 1 1
node 9 1 1 1
node 10 1 1 1
node 11 1 1 1
node 12 1 0 0
node 13 1 0 2
node 14 1 0 2
node 17 1 0 0
node 23 1 0 0
node 27 1 0 0
node 37 1 0 0
node 52 1 0 0
node 191 1 0 0
node 389 1 0 0
gene 1 1 12 0.15007252809193958 false 1 0.15007252809193958 true
gene 1 2 12 -1.1737940254688648 false 2 -1.1737940254688648 true
gene 1 3 12 0.5288230620936537 false 3 0.5288230620936537 true
gene 1 4 12 0.08684462579575092 false 4 0.08684462579575092 true
gene 1 5 12 1.5209891476887418 false 5 1.5209891476887418 true
gene 1 6 12 -1.2584297013391996 false 6 -1.2584297013391996 true
gene 1 7 12 0.42425117661721645 false 7 0.42425117661721645 true
gene 1 8 12 -0.7218840593083882 false 8 -0.7218840593083882 true
gene 1 9 12 0.746208522487931 false 9 0.746208522487931 true
gene 1 10 12 -0.6931711334212234 false 10 -0.6931711334212234 true
gene 1 11 12 -1.2781726835780762 false 11 -1.2781726835780762 true
gene 1 12 13 0.10888901313199778 false 12 0.10888901313199778 true
gene 1 12 14 -0.0025564752071065566 false 13 -0.0025564752071065566 true
gene 1 7 14 1.0679702375637554 false 24 1.0679702375637554 true
gene 1 2 17 0.7792232199691557 false 42 0.7792232199691557 true
gene 1 17 12 -1.4214718319771995 false 43 -1.4214718319771995 true
gene 1 11 23 0.48913432719862526 false 91 0.48913432719862526 true
gene 1 23 12 1.586302045707937 false 92 1.586302045707937 true
gene 1 2 27 -0.030304176768715774 false 119 -0.030304176768715774 true
gene 1 27 12 0.37160656261188585 false 120 0.37160656261188585 true
gene 1 2 14 -0.7526499585481388 false 161 -0.7526499585481388 true
gene 1 11 37 0.4576788547962165 false 175 0.4576788547962165 true
gene 1 37 23 1.1429018464691867 false 176 1.1429018464691867 true
gene 1 8 52 0.9897787444181995 false 257 0.9897787444181995 true
gene 1 52 12 -1.0712527213854182 false 258 -1.0712527213854182 true
gene 1 23 23 0.7192013522130355 true 270 0.7192013522130355 true
gene 1 5 27 -1.4479166141911148 false 643 -1.4479166141911148 true
gene 1 6 191 -0.10694978461867044 false 945 -0.10694978461867044 true
gene 1 191 12 -0.6020385764482318 false 946 -0.6020385764482318 true
gene 1 9 23 -0.020999074370025794 false 1543 -0.020999074370025794 true
gene 1 13 13 -0.7323233590344603 true 1745 -0.7323233590344603 true
gene 1 7 52 -0.620941772150763 false 1928 -0.620941772150763 true
gene 1 9 389 1.3729079985742327 false 1949 1.3729079985742327 true
gene 1 389 23 0.0922594067585566 false 1950 0.0922594067585566 true
gene 1 7 37 0.1451042160835989 false 2072 0.1451042160835989 true
gene 1 3 13 10.317663791980383 false 2735 10.317663791980383 true
genomeend 13
/* Organism #19 Fitness: 7.524 Error: 0.265 */
genomestart 19
trait 1 0.3757125493535413 1.9505517144440827 1.0104020747517057 0 0 2.4534261335396357 0 0.9877235525269176 
node 1 1 1 3
node 2 1 1 1
node 3 1 1 1
node 4 1 1 1
node 5 1 1 1
node 6 1 1 1
node 7 1 1 1
node 8 1 1 1
node 9 1 1 1
node 10 1 1 1
node 11 1 1 1
node 12 1 0 0
node 13 1 0 2
node 14 1 0 2
node 17 1 0 0
node 23 1 0 0
node 27 1 0 0
node 37 1 0 0
node 52 1 0 0
node 191 1 0 0
node 389 1 0 0
gene 1 1 12 0.4568295420512545 false 1 0.4568295420512545 true
gene 1 2 12 -1.2909430846030767 false 2 -1.2909430846030767 true
gene 1 3 12 0.5297733680656245 false 3 0.5297733680656245 true
gene 1 4 12 -0.3816986085608222 false 4 -0.3816986085608222 true
gene 1 5 12 1.4363137822038312 false 5 1.4363137822038312 true
gene 1 6 12 -1.2491815911435056 false 6 -1.2491815911435056 true
gene 1 7 12 -0.03836189738047946 false 7 -0.03836189738047946 true
gene 1 8 12 -0.18098510061232986 false 8 -0.18098510061232986 true
gene 1 9 12 0.0581178090275537 false 9 0.0581178090275537 true
gene 1 10 12 -0.38670044260745373 false 10 -0.38670044260745373 true
gene 1 11 12 0.5960443922017975 false 11 0.5960443922017975 true
gene 1 12 13 0.09710109061469317 false 12 0.09710109061469317 true
gene 1 12 14 0.6659512123753377 false 13 0.6659512123753377 true
gene 1 7 14 1.7164900379538266 false 24 1.7164900379538266 true
gene 1 2 17 1.531762794038011 false 42 1.531762794038011 true
gene 1 17 12 -1.9109284952975436 false 43 -1.9109284952975436 true
gene 1 11 23 -0.5512982719739584 false 91 -0.5512982719739584 true
gene 1 23 12 1.122072006960893 false 92 1.122072006960893 true
gene 1 2 27 -0.5620707973027779 false 119 -0.5620707973027779 true
gene 1 27 12 -1.3875754779685663 false 120 -1.3875754779685663 true
gene 1 2 14 -0.9210478426829832 false 161 -0.9210478426829832 true
gene 1 11 37 -0.060111518432063804 false 175 -0.060111518432063804 true
gene 1 37 23 1.6572645862236217 false 176 1.6572645862236217 true
gene 1 8 52 1.5182183022297462 false 257 1.5182183022297462 true
gene 1 52 12 -2.553832127992564 false 258 -2.553832127992564 true
gene 1 23 23 -0.374254374431303 true 270 -0.374254374431303 true
gene 1 5 27 -1.2133129860785588 false 643 -1.2133129860785588 true
gene 1 6 191 -0.5012696822306283 false 945 -0.5012696822306283 true
gene 1 191 12 0.11564011546650799 false 946 0.11564011546650799 true
gene 1 9 23 -0.6447753940876383 false 1543 -0.6447753940876383 true
gene 1 13 13 0.09194763810924106 true 1745 0.09194763810924106 true
gene 1 7 52 0.2556175312686761 false 1928 0.2556175312686761 true
gene 1 9 389 1.6134573736534348 false 1949 1.6134573736534348 true
gene 1 389 23 0.5658706347678506 false 1950 0.5658706347678506 true
gene 1 7 37 -0.37214648416082896 false 2072 -0.37214648416082896 true
gene 1 3 13 0.11436691465695047 false 2735 0.11436691465695047 true
genomeend 19
/* Organism #16 Fitness: 7.254 Error: 0.262 */
genomestart 16
trait 1 0.3757125493535413 1.9505517144440827 1.0104020747517057 0 0 2.4534261335396357 0 0.9877235525269176 
node 1 1 1 3
node 2 1 1 1
node 3 1 1 1
node 4 1 1 1
node 5 1 1 1
node 6 1 1 1
node 7 1 1 1
node 8 1 1 1
node 9 1 1 1
node 10 1 1 1
node 11 1 1 1
node 12 1 0 0
node 13 1 0 2
node 14 1 0 2
node 17 1 0 0
node 23 1 0 0
node 27 1 0 0
node 37 1 0 0
node 52 1 0 0
node 191 1 0 0
node 389 1 0 0
gene 1 1 12 -0.44618779776016604 false 1 -0.44618779776016604 true
gene 1 2 12 -0.6874799691287834 false 2 -0.6874799691287834 true
gene 1 3 12 0.8637496330944638 false 3 0.8637496330944638 true
gene 1 4 12 1.053460732257426 false 4 1.053460732257426 true
gene 1 5 12 0.15665489867310917 false 5 0.15665489867310917 true
gene 1 6 12 -1.98209462010669 false 6 -1.98209462010669 true
gene 1 7 12 1.5516678770638312 false 7 1.5516678770638312 true
gene 1 8 12 -1.750259078749118 false 8 -1.750259078749118 true
gene 1 9 12 1.2687091086558742 false 9 1.2687091086558742 true
gene 1 10 12 0.29199689443463406 false 10 0.29199689443463406 true
gene 1 11 12 -0.8612584083011741 false 11 -0.8612584083011741 true
gene 1 12 13 -0.3457324711554603 false 12 -0.3457324711554603 true
gene 1 12 14 0.6622792926688827 false 13 0.6622792926688827 true
gene 1 7 14 1.8228099217626745 false 24 1.8228099217626745 true
gene 1 2 17 0.39477256505330494 false 42 0.39477256505330494 true
gene 1 17 12 -1.4536433707796046 false 43 -1.4536433707796046 true
gene 1 11 23 0.19926638304572036 false 91 0.19926638304572036 true
gene 1 23 12 2.174543275476114 false 92 2.174543275476114 true
gene 1 2 27 0.18025940852401884 false 119 0.18025940852401884 true
gene 1 27 12 -0.11685147538421409 false 120 -0.11685147538421409 true
gene 1 2 14 -1.1407422335638764 false 161 -1.1407422335638764 true
gene 1 11 37 0.6120838738191628 false 175 0.6120838738191628 true
gene 1 37 23 1.7505327934169372 false 176 1.7505327934169372 true
gene 1 8 52 -0.23302297778364628 false 257 -0.23302297778364628 true
gene 1 52 12 -2.3215555340131147 false 258 -2.3215555340131147 true
gene 1 23 23 0.09652725436817722 true 270 0.09652725436817722 true
gene 1 5 27 -0.6819713350536523 false 643 -0.6819713350536523 true
gene 1 6 191 -0.05697335781399615 false 945 -0.05697335781399615 true
gene 1 191 12 -0.592250453108909 false 946 -0.592250453108909 true
gene 1 9 23 -1.438346559526769 false 1543 -1.438346559526769 true
gene 1 13 13 -0.3443150746717333 true 1745 -0.3443150746717333 true
gene 1 7 52 0.42494226658184475 false 1928 0.42494226658184475 true
gene 1 9 389 0.9487918910100491 false 1949 0.9487918910100491 true
gene 1 389 23 -0.10830155782433509 false 1950 -0.10830155782433509 true
gene 1 7 37 -0.08722466291236936 false 2072 -0.08722466291236936 true
gene 1 3 13 10.054252132872477 false 2735 10.054252132872477 true
genomeend 16
/* Organism #20 Fitness: 7.122 Error: 0.256 */
genomestart 20
trait 1 0.3757125493535413 1.9505517144440827 1.0104020747517057 0 0 2.4534261335396357 0 0.9877235525269176 
node 1 1 1 3
node 2 1 1 1
node 3 1 1 1
node 4 1 1 1
node 5 1 1 1
node 6 1 1 1
node 7 1 1 1
node 8 1 1 1
node 9 1 1 1
node 10 1 1 1
node 11 1 1 1
node 12 1 0 0
node 13 1 0 2
node 14 1 0 2
node 17 1 0 0
node 23 1 0 0
node 27 1 0 0
node 37 1 0 0
node 52 1 0 0
node 191 1 0 0
node 389 1 0 0
gene 1 1 12 -0.6966228769586992 false 1 -0.6966228769586992 true
gene 1 2 12 -0.8807774514652777 false 2 -0.8807774514652777 true
gene 1 3 12 0.1908572116602718 false 3 0.1908572116602718 true
gene 1 4 12 0.2640920852740949 false 4 0.2640920852740949 true
gene 1 5 12 0.07792437712662359 false 5 0.07792437712662359 true
gene 1 6 12 -1.7028330379720007 false 6 -1.7028330379720007 true
gene 1 7 12 0.5637931313026932 false 7 0.5637931313026932 true
gene 1 8 12 -2.225054643065486 false 8 -2.225054643065486 true
gene 1 9 12 0.4839780772973054 false 9 0.4839780772973054 true
gene 1 10 12 0.5804851196897592 false 10 0.5804851196897592 true
gene 1 11 12 -1.5393072899550486 false 11 -1.5393072899550486 true
gene 1 12 13 2.117746562630453 false 12 2.117746562630453 true
gene 1 12 14 0.23764993671992507 false 13 0.23764993671992507 true
gene 1 7 14 1.6476214380944887 false 24 1.6476214380944887 true
gene 1 2 17 -0.28747976129105157 false 42 -0.28747976129105157 true
gene 1 17 12 -1.2774364208654956 false 43 -1.2774364208654956 true
gene 1 11 23 0.7807900304663247 false 91 0.7807900304663247 true
gene 1 23 12 1.7358099233286843 false 92 1.7358099233286843 true
gene 1 2 27 -0.408592906268484 false 119 -0.408592906268484 true
gene 1 27 12 -0.7333885740706856 false 120 -0.7333885740706856 true
gene 1 2 14 -1.070817526972752 false 161 -1.070817526972752 true
gene 1 11 37 -0.26970302612979624 false 175 -0.26970302612979624 true
gene 1 37 23 1.3750053088604761 false 176 1.3750053088604761 true
gene 1 8 52 0.4059684779829291 false 257 0.4059684779829291 true
gene 1 52 12 -1.0561142162548702 false 258 -1.0561142162548702 true
gene 1 23 23 -0.5524197638087498 true 270 -0.5524197638087498 true
gene 1 5 27 -0.8957101125140143 false 643 -0.8957101125140143 true
gene 1 6 191 0.055818850806863385 false 945 0.055818850806863385 true
gene 1 191 12 -1.3488373974898646 false 946 -1.3488373974898646 true
gene 1 9 23 -0.9294654230136015 false 1543 -0.9294654230136015 true
gene 1 13 13 -0.6633820403245947 true 1745 -0.6633820403245947 true
gene 1 7 52 -0.22629634513353086 false 1928 -0.22629634513353086 true
gene 1 9 389 0.5735682606161678 false 1949 0.5735682606161678 true
gene 1 389 23 0.37268998465495945 false 1950 0.37268998465495945 true
gene 1 7 37 -0.17516351544048148 false 2072 -0.17516351544048148 true
gene 1 3 13 9.80134227994201 false 2735 9.80134227994201 true
genomeend 20
/* Organism #17 Fitness: 6.198 Error: 0.711 */
genomestart 17
trait 1 0.3757125493535413 1.9505517144440827 1.0104020747517057 0 0 2.4534261335396357 0 0.9877235525269176 
node 1 1 1 3
node 2 1 1 1
node 3 1 1 1
node 4 1 1 1
node 5 1 1 1
node 6 1 1 1
node 7 1 1 1
node 8 1 1 1
node 9 1 1 1
node 10 1 1 1
node 11 1 1 1
node 12 1 0 0
node 13 1 0 2
node 14 1 0 2
node 17 1 0 0
node 23 1 0 0
node 27 1 0 0
node 37 1 0 0
node 52 1 0 0
node 191 1 0 0
node 389 1 0 0
gene 1 1 12 -0.24389148610413247 false 1 -0.24389148610413247 true
gene 1 2 12 -0.5956492866977605 false 2 -0.5956492866977605 true
gene 1 3 12 1.352794815506484 false 3 1.352794815506484 true
gene 1 4 12 -0.34675207365568766 false 4 -0.34675207365568766 true
gene 1 5 12 1.222231105593142 false 5 1.222231105593142 true
gene 1 6 12 -1.9194648271665506 false 6 -1.9194648271665506 true
gene 1 7 12 0.257921443261171 false 7 0.257921443261171 true
gene 1 8 12 0.645137159743733 false 8 0.645137159743733 true
gene 1 9 12 0.3705982808506006 false 9 0.3705982808506006 true
gene 1 10 12 -0.5038381567513801 false 10 -0.5038381567513801 true
gene 1 11 12 0.7099046595187778 false 11 0.7099046595187778 true
gene 1 12 13 1.2280947019304742 false 12 1.2280947019304742 true
gene 1 12 14 0.4226216204629685 false 13 0.4226216204629685 true
gene 1 7 14 1.5608208313631358 false 24 1.5608208313631358 true
gene 1 2 17 -1.2542335093191805 false 42 -1.2542335093191805 true
gene 1 17 12 -2.169882929444258 false 43 -2.169882929444258 true
gene 1 11 23 0.12002106070458185 false 91 0.12002106070458185 true
gene 1 23 12 1.5066895081212008 false 92 1.5066895081212008 true
gene 1 2 27 -0.4520608101939124 false 119 -0.4520608101939124 true
gene 1 27 12 -0.48887880475648854 false 120 -0.48887880475648854 true
gene 1 2 14 -0.1454456810178157 false 161 -0.1454456810178157 true
gene 1 11 37 -0.5442052795377307 false 175 -0.5442052795377307 true
gene 1 37 23 0.4069749097940192 false 176 0.4069749097940192 true
gene 1 8 52 0.8530058842620902 false 257 0.8530058842620902 true
gene 1 52 12 -0.2984776406562329 false 258 -0.2984776406562329 true
gene 1 23 23 -0.02023586020031576 true 270 -0.02023586020031576 true
gene 1 5 27 -1.382556259098313 false 643 -1.382556259098313 true
gene 1 6 191 -0.90735965844465 false 945 -0.90735965844465 true
gene 1 191 12 -0.9165145673523705 false 946 -0.9165145673523705 true
gene 1 9 23 -1.1683499709499063 false 1543 -1.1683499709499063 true
gene 1 13 13 0.7935559346048366 true 1745 0.7935559346048366 true
gene 1 7 52 -0.3683298820188237 false 1928 -0.3683298820188237 true
gene 1 9 389 -0.16657193979646925 false 1949 -0.16657193979646925 true
gene 1 389 23 -0.6401443726936722 false 1950 -0.6401443726936722 true
gene 1 7 37 -0.28099881893711554 false 2072 -0.28099881893711554 true
gene 1 3 13 9.80134227994201 false 2735 9.80134227994201 true
genomeend 17
/* Organism #14 Fitness: 2.466 Error: 0.823 */
genomestart 14
trait 1 0.3757125493535413 1.9505517144440827 1.0104020747517057 0 0 2.4534261335396357 0 0.9877235525269176 
node 1 1 1 3
node 2 1 1 1
node 3 1 1 1
node 4 1 1 1
node 5 1 1 1
node 6 1 1 1
node 7 1 1 1
node 8 1 1 1
node 9 1 1 1
node 10 1 1 1
node 11 1 1 1
node 12 1 0 0
node 13 1 0 2
node 14 1 0 2
node 17 1 0 0
node 23 1 0 0
node 27 1 0 0
node 37 1 0 0
node 52 1 0 0
node 191 1 0 0
node 389 1 0 0
gene 1 1 12 -0.15191719554764452 false 1 -0.15191719554764452 true
gene 1 2 12 -0.4801600013258607 false 2 -0.4801600013258607 true
gene 1 3 12 1.1935361470645194 false 3 1.1935361470645194 true
gene 1 4 12 0.08684462579575092 false 4 0.08684462579575092 true
gene 1 5 12 1.3007200172983666 false 5 1.3007200172983666 true
gene 1 6 12 -0.600607012088455 false 6 -0.600607012088455 true
gene 1 7 12 -0.22748472269542153 false 7 -0.22748472269542153 true
gene 1 8 12 -0.6832178924406723 false 8 -0.6832178924406723 true
gene 1 9 12 1.2453140785520123 false 9 1.2453140785520123 true
gene 1 10 12 0.5586926297234119 false 10 0.5586926297234119 true
gene 1 11 12 0.2697056448206165 false 11 0.2697056448206165 true
gene 1 12 13 0.28716176952946587 false 12 0.28716176952946587 true
gene 1 12 14 -0.6445529025557443 false 13 -0.6445529025557443 true
gene 1 7 14 0.583949725454168 false 24 0.583949725454168 true
gene 1 2 17 0.8785442640061211 false 42 0.8785442640061211 true
gene 1 17 12 -0.6997115374477834 false 43 -0.6997115374477834 true
gene 1 11 23 0.6540845232455288 false 91 0.6540845232455288 true
gene 1 23 12 2.1881934237322334 false 92 2.1881934237322334 true
gene 1 2 27 0.06135750903960009 false 119 0.06135750903960009 true
gene 1 27 12 -0.26217534548618204 false 120 -0.26217534548618204 true
gene 1 2 14 -0.7526499585481388 false 161 -0.7526499585481388 true
gene 1 11 37 1.1676482931472103 false 175 1.1676482931472103 true
gene 1 37 23 0.03547136013935442 false 176 0.03547136013935442 true
gene 1 8 52 1.193629122230011 false 257 1.193629122230011 true
gene 1 52 12 -1.0712527213854182 false 258 -1.0712527213854182 true
gene 1 23 23 -0.17437878882093508 true 270 -0.17437878882093508 true
gene 1 5 27 -1.3402178064913657 false 643 -1.3402178064913657 true
gene 1 6 191 0.700075197812472 false 945 0.700075197812472 true
gene 1 191 12 -0.4836989536873864 false 946 -0.4836989536873864 true
gene 1 9 23 0.35413213182847336 false 1543 0.35413213182847336 true
gene 1 13 13 -0.6656045371596784 true 1745 -0.6656045371596784 true
gene 1 7 52 0.08051872461144749 false 1928 0.08051872461144749 true
gene 1 9 389 0.7801115319179162 false 1949 0.7801115319179162 true
gene 1 389 23 0.6997506907125937 false 1950 0.6997506907125937 true
gene 1 7 37 0.1451042160835989 false 2072 0.1451042160835989 true
gene 1 3 13 10.593061201311336 false 2735 10.593061201311336 true
genomeend 14
/* Organism #22 Fitness: 1.100 Error: 0.847 */
genomestart 22
trait 1 0.3757125493535413 1.9505517144440827 1.0104020747517057 0 0 2.4534261335396357 0 0.9877235525269176 
node 1 1 1 3
node 2 1 1 1
node 3 1 1 1
node 4 1 1 1
node 5 1 1 1
node 6 1 1 1
node 7 1 1 1
node 8 1 1 1
node 9 1 1 1
node 10 1 1 1
node 11 1 1 1
node 12 1 0 0
node 13 1 0 2
node 14 1 0 2
node 17 1 0 0
node 23 1 0 0
node 27 1 0 0
node 37 1 0 0
node 52 1 0 0
node 191 1 0 0
node 389 1 0 0
gene 1 1 12 -0.6708151776476401 false 1 -0.6708151776476401 true
gene 1 2 12 -0.027378214714249616 false 2 -0.027378214714249616 true
gene 1 3 12 0.3634844854625119 false 3 0.3634844854625119 true
gene 1 4 12 -0.0005115892636458579 false 4 -0.0005115892636458579 true
gene 1 5 12 0.5696229003804404 false 5 0.5696229003804404 true
gene 1 6 12 -0.7994375673530913 false 6 -0.7994375673530913 true
gene 1 7 12 1.7725847092284421 false 7 1.7725847092284421 true
gene 1 8 12 -1.3510195188841478 false 8 -1.3510195188841478 true
gene 1 9 12 1.3224933347837697 false 9 1.3224933347837697 true
gene 1 10 12 -0.5667003288552844 false 10 -0.5667003288552844 true
gene 1 11 12 -1.246099252338391 false 11 -1.246099252338391 true
gene 1 12 13 1.5035592728024954 false 12 1.5035592728024954 true
gene 1 12 14 -0.44565851247990756 false 13 -0.44565851247990756 true
gene 1 7 14 -0.6556566093147124 false 24 -0.6556566093147124 true
gene 1 2 17 -0.9637595323798771 false 42 -0.9637595323798771 true
gene 1 17 12 -1.5899271879863288 false 43 -1.5899271879863288 true
gene 1 11 23 -0.1989683676678231 false 91 -0.1989683676678231 true
gene 1 23 12 1.606005941433471 false 92 1.606005941433471 true
gene 1 2 27 -0.5334417308486963 false 119 -0.5334417308486963 true
gene 1 27 12 -0.06612677503110505 false 120 -0.06612677503110505 true
gene 1 2 14 -0.47641069766470223 false 161 -0.47641069766470223 true
gene 1 11 37 -0.22438359685261922 false 175 -0.22438359685261922 true
gene 1 37 23 1.255624233118347 false 176 1.255624233118347 true
gene 1 8 52 0.24048176525911963 false 257 0.24048176525911963 true
gene 1 52 12 -1.5730729703476476 false 258 -1.5730729703476476 true
gene 1 23 23 0.006415541049054799 true 270 0.006415541049054799 true
gene 1 5 27 -0.9918205546852138 false 643 -0.9918205546852138 true
gene 1 6 191 -0.5016219939324114 false 945 -0.5016219939324114 true
gene 1 191 12 -1.064468181562005 false 946 -1.064468181562005 true
gene 1 9 23 -1.0348470490406938 false 1543 -1.0348470490406938 true
gene 1 13 13 0.5452287992500275 true 1745 0.5452287992500275 true
gene 1 7 52 -0.19616000677258996 false 1928 -0.19616000677258996 true
gene 1 9 389 0.38579051878382076 false 1949 0.38579051878382076 true
gene 1 389 23 0.493389900768323 false 1950 0.493389900768323 true
gene 1 7 37 -0.09556384430344135 false 2072 -0.09556384430344135 true
gene 1 3 13 9.756238823912332 false 2735 9.756238823912332 true
genomeend 22
/* Organism #23 Fitness: 0.804 Error: 0.266 */
genomestart 23
trait 1 0.3757125493535413 1.9505517144440827 1.0104020747517057 0 0 2.4534261335396357 0 0.9877235525269176 
node 1 1 1 3
node 2 1 1 1
node 3 1 1 1
node 4 1 1 1
node 5 1 1 1
node 6 1 1 1
node 7 1 1 1
node 8 1 1 1
node 9 1 1 1
node 10 1 1 1
node 11 1 1 1
node 12 1 0 0
node 13 1 0 2
node 14 1 0 2
node 17 1 0 0
node 23 1 0 0
node 27 1 0 0
node 37 1 0 0
node 52 1 0 0
node 191 1 0 0
node 389 1 0 0
gene 1 1 12 -0.5083095907839391 false 1 -0.5083095907839391 true
gene 1 2 12 -0.21400604904424148 false 2 -0.21400604904424148 true
gene 1 3 12 0.5288230620936537 false 3 0.5288230620936537 true
gene 1 4 12 -0.6259203620937971 false 4 -0.6259203620937971 true
gene 1 5 12 1.808362198899504 false 5 1.808362198899504 true
gene 1 6 12 -0.21173282961970263 false 6 -0.21173282961970263 true
gene 1 7 12 2.2885967597466235 false 7 2.2885967597466235 true
gene 1 8 12 -0.7218840593083882 false 8 -0.7218840593083882 true
gene 1 9 12 0.34476970410322033 false 9 0.34476970410322033 true
gene 1 10 12 0.35725029552509274 false 10 0.35725029552509274 true
gene 1 11 12 -0.6260635163421766 false 11 -0.6260635163421766 true
gene 1 12 13 -0.43477247916554423 false 12 -0.43477247916554423 true
gene 1 12 14 -0.2680029962494078 false 13 -0.2680029962494078 true
gene 1 7 14 0.960047969290746 false 24 0.960047969290746 true
gene 1 2 17 1.0599324473957614 false 42 1.0599324473957614 false
gene 1 17 12 -1.4214718319771995 false 43 -1.4214718319771995 true
gene 1 11 23 0.1699151573212505 false 91 0.1699151573212505 true
gene 1 23 12 0.7405591590723555 false 92 0.7405591590723555 true
gene 1 2 27 -0.5660704687380145 false 119 -0.5660704687380145 true
gene 1 27 12 -0.10026044464331337 false 120 -0.10026044464331337 true
gene 1 2 14 -0.9916935491653333 false 161 -0.9916935491653333 true
gene 1 11 37 0.6984058004963961 false 175 0.6984058004963961 true
gene 1 37 23 0.5243109339092917 false 176 0.5243109339092917 true
gene 1 8 52 -0.2567402676347789 false 257 -0.2567402676347789 true
gene 1 52 12 0.5665288262004983 false 258 0.5665288262004983 true
gene 1 23 23 -0.6752092831190509 true 270 -0.6752092831190509 true
gene 1 5 27 -1.3438308451011134 false 643 -1.3438308451011134 true
gene 1 6 191 0.6539009978057375 false 945 0.6539009978057375 true
gene 1 191 12 -0.6020385764482318 false 946 -0.6020385764482318 true
gene 1 9 23 0.4156591477915771 false 1543 0.4156591477915771 true
gene 1 13 13 -0.8821188982446916 true 1745 -0.8821188982446916 true
gene 1 7 52 -0.37669584689415014 false 1928 -0.37669584689415014 true
gene 1 9 389 0.6660932798380484 false 1949 0.6660932798380484 true
gene 1 389 23 -0.43194789791728017 false 1950 -0.43194789791728017 true
gene 1 7 37 0.0024480770698275256 false 2072 0.0024480770698275256 true
gene 1 3 13 10.081017758337005 false 2735 10.081017758337005 true
genomeend 23
/* Species #4 : (Size 4) (AF 3.588) (Age 96)  */
/* Organism #25 Fitness: 6.257 Error: 0.990 */
genomestart 25
trait 1 0.02385448414876477 0 0.6664074695706342 0.2947830336288197 1.0140824905664325 0.17167540324468444 0.4138842642649351 0.03004241314097338 
node 1 1 1 3
node 2 1 1 1
node 3 1 1 1
node 4 1 1 1
node 5 1 1 1
node 6 1 1 1
node 7 1 1 1
node 8 1 1 1
node 9 1 1 1
node 10 1 1 1
node 11 1 1 1
node 12 1 0 0
node 13 1 0 2
node 14 1 0 2
node 205 1 0 0
node 340 1 0 0
gene 1 1 12 0.35827155332543437 false 1 0.35827155332543437 true
gene 1 2 12 0.9699775204953598 false 2 0.9699775204953598 true
gene 1 3 12 -1.3976420075028233 false 3 -1.3976420075028233 true
gene 1 4 12 -1.3706182451980085 false 4 -1.3706182451980085 true
gene 1 5 12 0.8353956498940014 false 5 0.8353956498940014 true
gene 1 6 12 1.02180511788742 false 6 1.02180511788742 true
gene 1 7 12 0.6305917103527212 false 7 0.6305917103527212 true
gene 1 8 12 -1.3062195387561624 false 8 -1.3062195387561624 true
gene 1 9 12 -0.5998945590257527 false 9 -0.5998945590257527 true
gene 1 10 12 0.012157802925729726 false 10 0.012157802925729726 true
gene 1 11 12 0.696882749647806 false 11 0.696882749647806 true
gene 1 12 13 1.1934649654760912 false 12 1.1934649654760912 true
gene 1 12 14 0.1690874944749844 false 13 0.1690874944749844 true
gene 1 7 14 -0.7334610132813019 false 24 -0.7334610132813019 true
gene 1 14 13 -0.7845413800904211 false 148 -0.7845413800904211 true
gene 1 10 205 0.46553550105410285 false 1046 0.46553550105410285 true
gene 1 205 12 -1.6382899481487865 false 1047 -1.6382899481487865 true
gene 1 11 13 0.7815938071588111 false 1344 0.7815938071588111 true
gene 1 5 340 -0.5771124508822022 false 1696 -0.5771124508822022 true
gene 1 340 12 -0.6299716967242004 false 1697 -0.6299716967242004 true
genomeend 25
/* Organism #27 Fitness: 4.124 Error: 0.910 */
genomestart 27
trait 1 0.02385448414876477 0 0.6664074695706342 0.2947830336288197 1.0140824905664325 0.17167540324468444 0.4138842642649351 0.03004241314097338 
node 1 1 1 3
node 2 1 1 1
node 3 1 1 1
node 4 1 1 1
node 5 1 1 1
node 6 1 1 1
node 7 1 1 1
node 8 1 1 1
node 9 1 1 1
node 10 1 1 1
node 11 1 1 1
node 12 1 0 0
node 13 1 0 2
node 14 1 0 2
node 205 1 0 0
node 340 1 0 0
gene 1 1 12 0.9601636064099417 false 1 0.9601636064099417 true
gene 1 2 12 1.4199974205788573 false 2 1.4199974205788573 true
gene 1 3 12 -1.1684111366888472 false 3 -1.1684111366888472 true
gene 1 4 12 -1.492138961118373 false 4 -1.492138961118373 true
gene 1 5 12 1.1151070581476938 false 5 1.1151070581476938 true
gene 1 6 12 1.8804458531901165 false 6 1.8804458531901165 true
gene 1 7 12 3.462114568061932 false 7 3.462114568061932 true
gene 1 8 12 -1.3112716376844062 false 8 -1.3112716376844062 true
gene 1 9 12 -1.149356830021455 false 9 -1.149356830021455 true
gene 1 10 12 -3.2433091179834097 false 10 -3.2433091179834097 true
gene 1 11 12 0.7764654165053404 false 11 0.7764654165053404 true
gene 1 12 13 0.2771956793879528 false 12 0.2771956793879528 true
gene 1 12 14 -0.282197687740205 false 13 -0.282197687740205 true
gene 1 7 14 -0.6259234512207393 false 24 -0.6259234512207393 true
gene 1 14 13 0.9383060460379178 false 148 0.9383060460379178 true
gene 1 10 205 -0.3272100149552241 false 1046 -0.3272100149552241 true
gene 1 205 12 -1.7664769994904208 false 1047 -1.7664769994904208 true
gene 1 11 13 -0.16868229053447698 false 1344 -0.16868229053447698 true
gene 1 5 340 0.054891690802274906 false 1696 0.054891690802274906 true
gene 1 340 12 -0.6027847856521223 false 1697 -0.6027847856521223 true
genomeend 27
/* Organism #24 Fitness: 2.730 Error: 0.990 */
genomestart 24
trait 1 0.02385448414876477 0 0.6664074695706342 0.2947830336288197 1.0140824905664325 0.17167540324468444 0.4138842642649351 0.03004241314097338 
node 1 1 1 3
node 2 1 1 1
node 3 1 1 1
node 4 1 1 1
node 5 1 1 1
node 6 1 1 1
node 7 1 1 1
node 8 1 1 1
node 9 1 1 1
node 10 1 1 1
node 11 1 1 1
node 12 1 0 0
node 13 1 0 2
node 14 1 0 2
node 205 1 0 0
node 340 1 0 0
gene 1 1 12 -0.11688715650542825 false 1 -0.11688715650542825 true
gene 1 2 12 1.2994866694454772 false 2 1.2994866694454772 true
gene 1 3 12 -2.1928524396848768 false 3 -2.1928524396848768 true
gene 1 4 12 -1.286063828182879 false 4 -1.286063828182879 true
gene 1 5 12 1.0336388504736642 false 5 1.0336388504736642 true
gene 1 6 12 2.0832677616707667 false 6 2.0832677616707667 true
gene 1 7 12 3.6661704311237697 false 7 3.6661704311237697 true
gene 1 8 12 -0.2718573675533547 false 8 -0.2718573675533547 true
gene 1 9 12 -0.3184837482145428 false 9 -0.3184837482145428 true
gene 1 10 12 -2.31009599003364 false 10 -2.31009599003364 true
gene 1 11 12 0.10471440241187957 false 11 0.10471440241187957 true
gene 1 12 13 0.1139796343431213 false 12 0.1139796343431213 true
gene 1 12 14 -0.6516390526662313 false 13 -0.6516390526662313 true
gene 1 7 14 -0.4259287231897294 false 24 -0.4259287231897294 true
gene 1 14 13 0.21172297304056453 false 148 0.21172297304056453 true
gene 1 10 205 -0.16796202513157416 false 1046 -0.16796202513157416 true
gene 1 205 12 -2.0326507958848126 false 1047 -2.0326507958848126 true
gene 1 11 13 0.06923281788227575 false 1344 0.06923281788227575 true
gene 1 5 340 0.16181585613136468 false 1696 0.16181585613136468 true
gene 1 340 12 -0.08481298278953586 false 1697 -0.08481298278953586 true
genomeend 24
/* Organism #26 Fitness: 1.239 Error: 0.856 */
genomestart 26
trait 1 0.02385448414876477 0 0.6664074695706342 0.2947830336288197 1.0140824905664325 0.17167540324468444 0.4138842642649351 0.03004241314097338 
node 1 1 1 3
node 2 1 1 1
node 3 1 1 1
node 4 1 1 1
node 5 1 1 1
node 6 1 1 1
node 7 1 1 1
node 8 1 1 1
node 9 1 1 1
node 10 1 1 1
node 11 1 1 1
node 12 1 0 0
node 13 1 0 2
node 14 1 0 2
node 205 1 0 0
node 340 1 0 0
gene 1 1 12 1.218149751080092 false 1 1.218149751080092 true
gene 1 2 12 0.8879047711952364 false 2 0.8879047711952364 true
gene 1 3 12 -2.272887900069266 false 3 -2.272887900069266 true
gene 1 4 12 0.047518184338946834 false 4 0.047518184338946834 true
gene 1 5 12 0.7823925656463648 false 5 0.7823925656463648 true
gene 1 6 12 1.0497822267917012 false 6 1.0497822267917012 true
gene 1 7 12 3.0549947257797267 false 7 3.0549947257797267 true
gene 1 8 12 -0.8064933654334591 false 8 -0.8064933654334591 true
gene 1 9 12 0.2787566063045997 false 9 0.2787566063045997 true
gene 1 10 12 -2.393094383042416 false 10 -2.393094383042416 true
gene 1 11 12 0.1848962379334973 false 11 0.1848962379334973 true
gene 1 12 13 0.7571168274141304 false 12 0.7571168274141304 true
gene 1 12 14 -0.3782279878515352 false 13 -0.3782279878515352 true
gene 1 7 14 -0.2881734746246771 false 24 -0.2881734746246771 true
gene 1 14 13 1.386904797189628 false 148 1.386904797189628 true
gene 1 10 205 0.7816568457518114 false 1046 0.7816568457518114 true
gene 1 205 12 -1.5450972131949219 false 1047 -1.5450972131949219 true
gene 1 11 13 0.0006472483881076463 false 1344 0.0006472483881076463 true
gene 1 5 340 -0.5627498299596795 false 1696 -0.5627498299596795 true
gene 1 340 12 -1.0728099747299635 false 1697 -1.0728099747299635 true
genomeend 26
/* Species #5 : (Size 6) (AF 3.310) (Age 94)  */
/* Organism #31 Fitness: 6.344 Error: 0.543 */
genomestart 31
trait 1 0.8887841628158145 0 0.6806478272854579 0.3298556138427939 0.5649028691144268 1.737049808075628 0 0.84301556575446 
node 1 1 1 3
node 2 1 1 1
node 3 1 1 1
node 4 1 1 1
node 5 1 1 1
node 6 1 1 1
node 7 1 1 1
node 8 1 1 1
node 9 1 1 1
node 10 1 1 1
node 11 1 1 1
node 12 1 0 0
node 13 1 0 2
node 14 1 0 2
node 17 1 0 0
node 23 1 0 0
node 108 1 0 0
node 360 1 0 0
node 468 1 0 0
gene 1 1 12 0.19858379524082695 false 1 0.19858379524082695 true
gene 1 2 12 0.4945056583305874 false 2 0.4945056583305874 true
gene 1 3 12 0.06321590265400179 false 3 0.06321590265400179 true
gene 1 4 12 -0.2330527052704397 false 4 -0.2330527052704397 true
gene 1 5 12 -1.6050127755589036 false 5 -1.6050127755589036 true
gene 1 6 12 0.23380386484880586 false 6 0.23380386484880586 true
gene 1 7 12 -0.1591174636037732 false 7 -0.1591174636037732 false
gene 1 8 12 0.2109620332688223 false 8 0.2109620332688223 true
gene 1 9 12 1.7615010504804103 false 9 1.7615010504804103 true
gene 1 10 12 0.3518084934186587 false 10 0.3518084934186587 true
gene 1 11 12 -0.01976529798958715 false 11 -0.01976529798958715 true
gene 1 12 13 -0.890878768907524 false 12 -0.890878768907524 true
gene 1 12 14 -0.8147638570482594 false 13 -0.8147638570482594 true
gene 1 7 14 0.6345436970702882 false 24 0.6345436970702882 true
gene 1 2 17 -2.6365829913000596 false 42 -2.6365829913000596 true
gene 1 17 12 -1.2070832153976059 false 43 -1.2070832153976059 true
gene 1 11 23 -1.9560646920068039 false 91 -1.9560646920068039 true
gene 1 23 12 0.13774032569102368 false 92 0.13774032569102368 true
gene 1 8 108 0.26414328779167506 false 552 0.26414328779167506 true
gene 1 108 12 -2.81238422604081 false 553 -2.81238422604081 true
gene 1 9 13 0.751967794882066 false 565 0.751967794882066 true
gene 1 12 12 2.8584110974695625 true 595 2.8584110974695625 true
gene 1 3 17 -1.6396867303593166 false 639 -1.6396867303593166 true
gene 1 11 108 0.04089510998790405 false 970 0.04089510998790405 true
gene 1 11 360 0.46172111425653695 false 1811 0.46172111425653695 true
gene 1 360 12 0.18864091487657347 false 1812 0.18864091487657347 true
gene 1 13 13 -4.957375135239793 true 1845 -4.957375135239793 true
gene 1 360 360 7.09275352864739 true 1910 7.09275352864739 true
gene 1 11 468 0.8415950088342385 false 2365 0.8415950088342385 true
gene 1 468 360 0.6644467759170671 false 2366 0.6644467759170671 true
gene 1 4 468 -0.18138802244889485 false 2504 -0.18138802244889485 true
gene 1 468 17 0.47261509556422604 false 2574 0.47261509556422604 true
gene 1 468 23 7.847193660268292 false 2683 7.847193660268292 true
gene 1 360 13 0.12010647822314052 false 2819 0.12010647822314052 true
gene 1 108 108 0.39907442420698513 true 2837 0.39907442420698513 true
gene 1 360 17 -8.548627525829604 false 2879 -8.548627525829604 true
genomeend 31
/* Organism #30 Fitness: 4.513 Error: 0.717 */
genomestart 30
trait 1 0.8887841628158145 0 0.6806478272854579 0.3298556138427939 0.5649028691144268 1.737049808075628 0 0.84301556575446 
node 1 1 1 3
node 2 1 1 1
node 3 1 1 1
node 4 1 1 1
node 5 1 1 1
node 6 1 1 1
node 7 1 1 1
node 8 1 1 1
node 9 1 1 1
node 10 1 1 1
node 11 1 1 1
node 12 1 0 0
node 13 1 0 2
node 14 1 0 2
node 17 1 0 0
node 23 1 0 0
node 108 1 0 0
node 360 1 0 0
node 468 1 0 0
gene 1 1 12 -0.45036905415040207 false 1 -0.45036905415040207 true
gene 1 2 12 3.8756799799381003 false 2 3.8756799799381003 true
gene 1 3 12 -0.6045195642647045 false 3 -0.6045195642647045 true
gene 1 4 12 -0.6322972267518774 false 4 -0.6322972267518774 true
gene 1 5 12 -1.6109551906120974 false 5 -1.6109551906120974 true
gene 1 6 12 -0.016589075394633168 false 6 -0.016589075394633168 true
gene 1 7 12 -0.3349005649040237 false 7 -0.3349005649040237 true
gene 1 8 12 -0.9103299781566844 false 8 -0.9103299781566844 true
gene 1 9 12 0.16994137635816098 false 9 0.16994137635816098 true
gene 1 10 12 -0.5453950600227204 false 10 -0.5453950600227204 true
gene 1 11 12 0.6412707138732648 false 11 0.6412707138732648 true
gene 1 12 13 -0.43162772874325034 false 12 -0.43162772874325034 true
gene 1 12 14 -1.1866186915102577 false 13 -1.1866186915102577 true
gene 1 7 14 -0.4145091375219388 false 24 -0.4145091375219388 true
gene 1 2 17 -1.8784183041488927 false 42 -1.8784183041488927 true
gene 1 17 12 -0.9989289656607508 false 43 -0.9989289656607508 true
gene 1 11 23 -1.3874448242896527 false 91 -1.3874448242896527 true
gene 1 23 12 0.6979860508146362 false 92 0.6979860508146362 true
gene 1 8 108 -1.048634677420499 false 552 -1.048634677420499 true
gene 1 108 12 -2.879607416477318 false 553 -2.879607416477318 true
gene 1 9 13 1.0285984064451739 false 565 1.0285984064451739 true
gene 1 12 12 3.162005888252492 true 595 3.162005888252492 true
gene 1 3 17 -0.6858750985780799 false 639 -0.6858750985780799 true
gene 1 11 108 -2.2619167399918543 false 970 -2.2619167399918543 true
gene 1 11 360 -0.5202252733051871 false 1811 -0.5202252733051871 true
gene 1 360 12 -0.5584718663436226 false 1812 -0.5584718663436226 true
gene 1 13 13 -5.380691016216735 true 1845 -5.380691016216735 true
gene 1 360 360 6.404038389326168 true 1910 6.404038389326168 true
gene 1 11 468 1.0038156211862082 false 2365 1.0038156211862082 true
gene 1 468 360 2.331509287477742 false 2366 2.331509287477742 true
gene 1 4 468 -0.4493854591913274 false 2504 -0.4493854591913274 true
gene 1 468 17 -0.33550164029227303 false 2574 -0.33550164029227303 true
gene 1 468 23 -0.7943246852106536 false 2683 -0.7943246852106536 true
gene 1 360 13 0.024244732237704607 false 2819 0.024244732237704607 true
gene 1 108 108 -5.15344468694229 true 2837 -5.15344468694229 true
gene 1 360 17 -8.272057384122487 false 2879 -8.272057384122487 true
genomeend 30
/* Organism #29 Fitness: 2.663 Error: 0.818 */
genomestart 29
trait 1 0.8887841628158145 0 0.6806478272854579 0.3298556138427939 0.5649028691144268 1.737049808075628 0 0.84301556575446 
node 1 1 1 3
node 2 1 1 1
node 3 1 1 1
node 4 1 1 1
node 5 1 1 1
node 6 1 1 1
node 7 1 1 1
node 8 1 1 1
node 9 1 1 1
node 10 1 1 1
node 11 1 1 1
node 12 1 0 0
node 13 1 0 2
node 14 1 0 2
node 17 1 0 0
node 23 1 0 0
node 108 1 0 0
node 360 1 0 0
node 468 1 0 0
node 585 1 0 0
gene 1 1 12 0.23767475063568363 false 1 0.23767475063568363 true
gene 1 2 12 3.3199717463506406 false 2 3.3199717463506406 true
gene 1 3 12 -1.3526351970672947 false 3 -1.3526351970672947 true
gene 1 4 12 -0.06591443954971982 false 4 -0.06591443954971982 true
gene 1 5 12 -1.5247936542662208 false 5 -1.5247936542662208 true
gene 1 6 12 0.1369466604568581 false 6 0.1369466604568581 true
gene 1 7 12 -0.6896025188824373 false 7 -0.6896025188824373 true
gene 1 8 12 -1.6848953847662473 false 8 -1.6848953847662473 true
gene 1 9 12 0.4745975279710803 false 9 0.4745975279710803 true
gene 1 10 12 -0.21557712533687146 false 10 -0.21557712533687146 true
gene 1 11 12 -0.01657652665802689 false 11 -0.01657652665802689 true
gene 1 12 13 -0.3471691190647149 false 12 -0.3471691190647149 true
gene 1 12 14 -0.8703947240604184 false 13 -0.8703947240604184 true
gene 1 7 14 0.1549853643063393 false 24 0.1549853643063393 true
gene 1 2 17 -1.506210875081059 false 42 -1.506210875081059 true
gene 1 17 12 -0.9975214083898898 false 43 -0.9975214083898898 true
gene 1 11 23 -1.5267462570557488 false 91 -1.5267462570557488 true
gene 1 23 12 0.3290208049616933 false 92 0.3290208049616933 true
gene 1 8 108 -0.5183331714066838 false 552 -0.5183331714066838 true
gene 1 108 12 -2.0869835773879104 false 553 -2.0869835773879104 true
gene 1 9 13 0.39621309021980733 false 565 0.39621309021980733 true
gene 1 12 12 2.5546047796635314 true 595 2.5546047796635314 true
gene 1 3 17 -1.175005601497496 false 639 -1.175005601497496 true
gene 1 11 108 -1.525588897749575 false 970 -1.525588897749575 true
gene 1 11 360 -0.19121430146718055 false 1811 -0.19121430146718055 true
gene 1 360 12 -0.011857279996772996 false 1812 -0.011857279996772996 true
gene 1 13 13 -5.513152317025156 true 1845 -5.513152317025156 true
gene 1 360 360 7.202787361999179 true 1910 7.202787361999179 true
gene 1 11 468 1.7480861027057633 false 2365 1.7480861027057633 true
gene 1 468 360 1.8705965352315774 false 2366 1.8705965352315774 true
gene 1 4 468 0.8755157486534196 false 2504 0.8755157486534196 true
gene 1 468 17 0.05408099972172342 false 2574 0.05408099972172342 true
gene 1 468 23 7.847193660268292 false 2683 7.847193660268292 true
gene 1 360 13 0.024244732237704607 false 2819 0.024244732237704607 true
gene 1 108 108 -5.15344468694229 true 2837 -5.15344468694229 false
gene 1 360 17 -8.536820775800637 false 2879 -8.536820775800637 true
gene 1 108 585 1 true 2951 0 true
gene 1 585 108 -5.15344468694229 false 2952 0 true
genomeend 29
/* Organism #28 Fitness: 2.614 Error: 0.859 */
genomestart 28
trait 1 0.8887841628158145 0 0.6806478272854579 0.3298556138427939 0.5649028691144268 1.737049808075628 0 0.84301556575446 
node 1 1 1 3
node 2 1 1 1
node 3 1 1 1
node 4 1 1 1
node 5 1 1 1
node 6 1 1 1
node 7 1 1 1
node 8 1 1 1
node 9 1 1 1
node 10 1 1 1
node 11 1 1 1
node 12 1 0 0
node 13 1 0 2
node 14 1 0 2
node 17 1 0 0
node 23 1 0 0
node 108 1 0 0
node 360 1 0 0
node 468 1 0 0
gene 1 1 12 0.09316309901165953 false 1 0.09316309901165953 true
gene 1 2 12 -0.04586672972642585 false 2 -0.04586672972642585 true
gene 1 3 12 -0.44010445201551507 false 3 -0.44010445201551507 true
gene 1 4 12 0.22140782893583297 false 4 0.22140782893583297 true
gene 1 5 12 -1.1746504708407535 false 5 -1.1746504708407535 true
gene 1 6 12 0.4771946480593154 false 6 0.4771946480593154 true
gene 1 7 12 -0.3040734761530771 false 7 -0.3040734761530771 true
gene 1 8 12 -0.4739616368517047 false 8 -0.4739616368517047 true
gene 1 9 12 1.13819558474629 false 9 1.13819558474629 true
gene 1 10 12 -0.9131987821597443 false 10 -0.9131987821597443 true
gene 1 11 12 0.07935707363777122 false 11 0.07935707363777122 true
gene 1 12 13 -0.8834120668051838 false 12 -0.8834120668051838 true
gene 1 12 14 -0.6236425274047271 false 13 -0.6236425274047271 true
gene 1 7 14 0.2014028684437316 false 24 0.2014028684437316 true
gene 1 2 17 -2.4463081661652937 false 42 -2.4463081661652937 true
gene 1 17 12 -1.2496857804035253 false 43 -1.2496857804035253 true
gene 1 11 23 -1.3870879276101626 false 91 -1.3870879276101626 true
gene 1 23 12 -0.35188193138611873 false 92 -0.35188193138611873 true
gene 1 8 108 0.20138298819042882 false 552 0.20138298819042882 true
gene 1 108 12 0.3126588965056056 false 553 0.3126588965056056 true
gene 1 9 13 0.04995467566500461 false 565 0.04995467566500461 true
gene 1 12 12 2.2801791628179258 true 595 2.2801791628179258 true
gene 1 3 17 -1.0579909666993772 false 639 -1.0579909666993772 true
gene 1 11 108 -0.20637848196261122 false 970 -0.20637848196261122 true
gene 1 11 360 -0.3619987900042768 false 1811 -0.3619987900042768 true
gene 1 360 12 0.20492543507026717 false 1812 0.20492543507026717 true
gene 1 13 13 -4.7957819310881575 true 1845 -4.7957819310881575 true
gene 1 360 360 7.615109489042091 true 1910 7.615109489042091 true
gene 1 11 468 0.5152077743900288 false 2365 0.5152077743900288 true
gene 1 468 360 0.4153969474972827 false 2366 0.4153969474972827 true
gene 1 4 468 0.15633133297388468 false 2504 0.15633133297388468 true
gene 1 468 17 0.47261509556422604 false 2574 0.47261509556422604 true
gene 1 468 23 -0.1829748382318076 false 2683 -0.1829748382318076 true
gene 1 360 13 -7.440508411087125 false 2819 -7.440508411087125 true
gene 1 108 108 -5.715929329442341 true 2837 -5.715929329442341 true
gene 1 360 17 -8.871360673063235 false 2879 -8.871360673063235 true
genomeend 28
/* Organism #33 Fitness: 1.906 Error: 0.845 */
genomestart 33
trait 1 0.8887841628158145 0 0.6806478272854579 0.3298556138427939 0.5649028691144268 1.737049808075628 0 0.84301556575446 
node 1 1 1 3
node 2 1 1 1
node 3 1 1 1
node 4 1 1 1
node 5 1 1 1
node 6 1 1 1
node 7 1 1 1
node 8 1 1 1
node 9 1 1 1
node 10 1 1 1
node 11 1 1 1
node 12 1 0 0
node 13 1 0 2
node 14 1 0 2
node 17 1 0 0
node 23 1 0 0
node 108 1 0 0
node 360 1 0 0
node 468 1 0 0
gene 1 1 12 0.1654189248236716 false 1 0.1654189248236716 true
gene 1 2 12 1.6370525083121075 false 2 1.6370525083121075 true
gene 1 3 12 -0.8963698245414049 false 3 -0.8963698245414049 true
gene 1 4 12 0.07774669469305658 false 4 0.07774669469305658 true
gene 1 5 12 -1.3497220625534871 false 5 -1.3497220625534871 true
gene 1 6 12 0.3070706542580868 false 6 0.3070706542580868 true
gene 1 7 12 -0.4968379975177572 false 7 -0.4968379975177572 true
gene 1 8 12 -1.079428510808976 false 8 -1.079428510808976 true
gene 1 9 12 0.8063965563586851 false 9 0.8063965563586851 true
gene 1 10 12 -0.5643879537483079 false 10 -0.5643879537483079 true
gene 1 11 12 0.03139027348987217 false 11 0.03139027348987217 true
gene 1 12 13 -0.6152905929349494 false 12 -0.6152905929349494 true
gene 1 12 14 -0.7470186257325728 false 13 -0.7470186257325728 true
gene 1 7 14 0.17819411637503546 false 24 0.17819411637503546 true
gene 1 2 17 -1.9762595206231763 false 42 -1.9762595206231763 true
gene 1 17 12 -1.1236035943967075 false 43 -1.1236035943967075 true
gene 1 11 23 -1.4569170923329557 false 91 -1.4569170923329557 true
gene 1 23 12 -0.011430563212212724 false 92 -0.011430563212212724 true
gene 1 8 108 -0.15847509160812748 false 552 -0.15847509160812748 true
gene 1 108 12 -0.8871623404411524 false 553 -0.8871623404411524 true
gene 1 9 13 0.22308388294240597 false 565 0.22308388294240597 true
gene 1 12 12 2.4173919712407286 true 595 2.4173919712407286 true
gene 1 3 17 -1.1164982840984368 false 639 -1.1164982840984368 true
gene 1 11 108 -0.8659836898560931 false 970 -0.8659836898560931 true
gene 1 11 360 -0.2766065457357287 false 1811 -0.2766065457357287 true
gene 1 360 12 0.09653407753674709 false 1812 0.09653407753674709 true
gene 1 13 13 -5.154467124056657 true 1845 -5.154467124056657 true
gene 1 360 360 7.408948425520634 true 1910 7.408948425520634 true
gene 1 11 468 1.131646938547896 false 2365 1.131646938547896 true
gene 1 468 360 1.14299674136443 false 2366 1.14299674136443 true
gene 1 4 468 0.5159235408136522 false 2504 0.5159235408136522 true
gene 1 468 17 0.2633480476429747 false 2574 0.2633480476429747 true
gene 1 468 23 3.8321094110182425 false 2683 3.8321094110182425 true
gene 1 360 13 -3.70813183942471 false 2819 -3.70813183942471 true
gene 1 108 108 -5.4346870081923155 true 2837 -5.4346870081923155 true
gene 1 360 17 -8.704090724431936 false 2879 -8.704090724431936 true
gene 1 17 14 3.236768289729161 false 2973 3.236768289729161 true
genomeend 33
/* Organism #32 Fitness: 1.820 Error: 0.837 */
genomestart 32
trait 1 0.8887841628158145 0 0.6806478272854579 0.3298556138427939 0.5649028691144268 1.737049808075628 0 0.84301556575446 
node 1 1 1 3
node 2 1 1 1
node 3 1 1 1
node 4 1 1 1
node 5 1 1 1
node 6 1 1 1
node 7 1 1 1
node 8 1 1 1
node 9 1 1 1
node 10 1 1 1
node 11 1 1 1
node 12 1 0 0
node 13 1 0 2
node 14 1 0 2
node 17 1 0 0
node 23 1 0 0
node 108 1 0 0
node 360 1 0 0
node 468 1 0 0
gene 1 1 12 0.8140909820749764 false 1 0.8140909820749764 true
gene 1 2 12 0.18417209251374658 false 2 0.18417209251374658 true
gene 1 3 12 -0.9509575087173239 false 3 -0.9509575087173239 true
gene 1 4 12 0.48621179825062694 false 4 0.48621179825062694 true
gene 1 5 12 -1.1702173237115365 false 5 -1.1702173237115365 true
gene 1 6 12 0.7225559221887627 false 6 0.7225559221887627 true
gene 1 7 12 0.05803565023739127 false 7 0.05803565023739127 true
gene 1 8 12 -1.8319528443183661 false 8 -1.8319528443183661 true
gene 1 9 12 1.0943499695177021 false 9 1.0943499695177021 true
gene 1 10 12 -0.006433654380573972 false 10 -0.006433654380573972 true
gene 1 11 12 -0.4504257219670304 false 11 -0.4504257219670304 true
gene 1 12 13 -1.3970781507297003 false 12 -1.3970781507297003 true
gene 1 12 14 -0.3247433621891146 false 13 -0.3247433621891146 true
gene 1 7 14 -0.1562430284289199 false 24 -0.1562430284289199 true
gene 1 2 17 -2.0572936040840006 false 42 -2.0572936040840006 true
gene 1 17 12 -0.5374752975561878 false 43 -0.5374752975561878 true
gene 1 11 23 -1.7706761881094157 false 91 -1.7706761881094157 true
gene 1 23 12 0.7132289512700024 false 92 0.7132289512700024 true
gene 1 8 108 -0.7385542834287213 false 552 -0.7385542834287213 true
gene 1 108 12 -0.6799266842288054 false 553 -0.6799266842288054 true
gene 1 9 13 -0.43647513863612786 false 565 -0.43647513863612786 true
gene 1 12 12 -0.5129084023353174 true 595 -0.5129084023353174 true
gene 1 3 17 -1.2143827796954256 false 639 -1.2143827796954256 true
gene 1 11 108 -0.519261171184473 false 970 -0.519261171184473 true
gene 1 11 360 0.48409217628644946 false 1811 0.48409217628644946 true
gene 1 360 12 -0.46923014248551703 false 1812 -0.46923014248551703 true
gene 1 13 13 -5.761224063785841 true 1845 -5.761224063785841 true
gene 1 360 360 7.408948425520634 true 1910 7.408948425520634 true
gene 1 11 468 1.033040520570571 false 2365 1.033040520570571 true
gene 1 468 360 1.043611405120942 false 2366 1.043611405120942 true
gene 1 4 468 0.892852318903653 false 2504 0.892852318903653 true
gene 1 468 17 1.0475242349299085 false 2574 1.0475242349299085 true
gene 1 468 23 3.864277525900634 false 2683 3.864277525900634 true
gene 1 360 13 -0.1974111065198647 false 2819 -0.1974111065198647 true
gene 1 108 108 -5.8228259787756365 true 2837 -5.8228259787756365 true
gene 1 360 17 -8.111418517716535 false 2879 -8.111418517716535 true
genomeend 32
/* Species #6 : (Size 6) (AF 4.614) (Age 93)  */
/* Organism #37 Fitness: 8.198 Error: 0.567 */
genomestart 37
trait 1 0.023117579351255347 0.4331071865961371 0.8720355678891627 1.057001959362765 0.5255927420276907 0.032275682988756826 0.2889419701371956 0.9718936714099399 
node 1 1 1 3
node 2 1 1 1
node 3 1 1 1
node 4 1 1 1
node 5 1 1 1
node 6 1 1 1
node 7 1 1 1
node 8 1 1 1
node 9 1 1 1
node 10 1 1 1
node 11 1 1 1
node 12 1 0 0
node 13 1 0 2
node 14 1 0 2
node 270 1 0 0
gene 1 1 12 -1.738579830584483 false 1 -1.738579830584483 true
gene 1 2 12 -0.2104782801508187 false 2 -0.2104782801508187 true
gene 1 3 12 0.27591594766772043 false 3 0.27591594766772043 true
gene 1 4 12 -2.357325924130649 false 4 -2.357325924130649 true
gene 1 5 12 0.767341267650715 false 5 0.767341267650715 true
gene 1 6 12 -0.2411498679226265 false 6 -0.2411498679226265 true
gene 1 7 12 -4.091617790128674 false 7 -4.091617790128674 true
gene 1 8 12 -1.546866161302229 false 8 -1.546866161302229 true
gene 1 9 12 -2.5837883011010954 false 9 -2.5837883011010954 true
gene 1 10 12 0.7662405293462466 false 10 0.7662405293462466 true
gene 1 11 12 -1.344241620060177 false 11 -1.344241620060177 true
gene 1 12 13 -0.06536904285177975 false 12 -0.06536904285177975 true
gene 1 12 14 -1.5814652848829975 false 13 -1.5814652848829975 true
gene 1 7 14 5.118121741866616 false 24 5.118121741866616 true
gene 1 7 13 -11.829597524752286 false 54 -11.829597524752286 true
gene 1 2 13 1.342216548317129 false 105 1.342216548317129 true
gene 1 1 13 0.31119010223234983 false 145 0.31119010223234983 true
gene 1 2 14 -1.0948051854142309 false 193 -1.0948051854142309 true
gene 1 14 13 1.488907449409062 false 369 1.488907449409062 true
gene 1 3 13 1.9552108798117946 false 707 1.9552108798117946 true
gene 1 10 14 -1.1515849167324086 false 967 -1.1515849167324086 true
gene 1 7 270 -0.31386774637766257 false 1381 -0.31386774637766257 true
gene 1 270 12 -0.32754356233214466 false 1382 -0.32754356233214466 true
gene 1 9 14 0.5789591612823051 false 1388 0.5789591612823051 true
gene 1 6 13 -0.17365651613756206 false 1793 -0.17365651613756206 true
genomeend 37
/* Organism #36 Fitness: 8.120 Error: 0.571 */
genomestart 36
trait 1 0.023117579351255347 0.4331071865961371 0.8720355678891627 1.057001959362765 0.5255927420276907 0.032275682988756826 0.2889419701371956 0.9718936714099399 
node 1 1 1 3
node 2 1 1 1
node 3 1 1 1
node 4 1 1 1
node 5 1 1 1
node 6 1 1 1
node 7 1 1 1
node 8 1 1 1
node 9 1 1 1
node 10 1 1 1
node 11 1 1 1
node 12 1 0 0
node 13 1 0 2
node 14 1 0 2
node 270 1 0 0
gene 1 1 12 -0.9836086247143276 false 1 -0.9836086247143276 true
gene 1 2 12 -0.6032635162092741 false 2 -0.6032635162092741 true
gene 1 3 12 0.3864066343065325 false 3 0.3864066343065325 true
gene 1 4 12 -2.9248426250225275 false 4 -2.9248426250225275 true
gene 1 5 12 1.135640451961995 false 5 1.135640451961995 true
gene 1 6 12 -1.5428898043142791 false 6 -1.5428898043142791 true
gene 1 7 12 -2.670427229224486 false 7 -2.670427229224486 true
gene 1 8 12 -2.0794019486672237 false 8 -2.0794019486672237 true
gene 1 9 12 -2.5606217289236275 false 9 -2.5606217289236275 true
gene 1 10 12 -0.12999173395436747 false 10 -0.12999173395436747 true
gene 1 11 12 -0.665516542606604 false 11 -0.665516542606604 true
gene 1 12 13 -0.5271500595258997 false 12 -0.5271500595258997 true
gene 1 12 14 -1.9284476223949123 false 13 -1.9284476223949123 true
gene 1 7 14 5.177147838580391 false 24 5.177147838580391 true
gene 1 7 13 -10.536850639470153 false 54 -10.536850639470153 true
gene 1 2 13 2.0787079872639445 false 105 2.0787079872639445 true
gene 1 1 13 1.0790874806298245 false 145 1.0790874806298245 true
gene 1 2 14 -1.703224318617341 false 193 -1.703224318617341 true
gene 1 14 13 0.6607078213091202 false 369 0.6607078213091202 true
gene 1 3 13 0.5458700663205097 false 707 0.5458700663205097 true
gene 1 10 14 -0.24086315160445126 false 967 -0.24086315160445126 true
gene 1 7 270 0.3986440709685202 false 1381 0.3986440709685202 true
gene 1 270 12 0.7424326207125683 false 1382 0.7424326207125683 true
gene 1 9 14 -0.7627833579144689 false 1388 -0.7627833579144689 true
gene 1 6 13 -0.5587317145958781 false 1793 -0.5587317145958781 true
genomeend 36
/* Organism #35 Fitness: 7.773 Error: 0.635 */
genomestart 35
trait 1 0.023117579351255347 0.4331071865961371 1.2172926697239723 1.057001959362765 0.5255927420276907 0.032275682988756826 0.5770262575404177 0.7713006065314707 
node 1 1 1 3
node 2 1 1 1
node 3 1 1 1
node 4 1 1 1
node 5 1 1 1
node 6 1 1 1
node 7 1 1 1
node 8 1 1 1
node 9 1 1 1
node 10 1 1 1
node 11 1 1 1
node 12 1 0 0
node 13 1 0 2
node 14 1 0 2
node 270 1 0 0
gene 1 1 12 -0.9954875251926993 false 1 -0.9954875251926993 true
gene 1 2 12 0.5929873849143358 false 2 0.5929873849143358 true
gene 1 3 12 0.8531046012743887 false 3 0.8531046012743887 true
gene 1 4 12 -3.6122950701159717 false 4 -3.6122950701159717 true
gene 1 5 12 0.5915256197503606 false 5 0.5915256197503606 true
gene 1 6 12 -1.7198735151832372 false 6 -1.7198735151832372 true
gene 1 7 12 -3.2913833771262992 false 7 -3.2913833771262992 true
gene 1 8 12 -0.31775517077285254 false 8 -0.31775517077285254 true
gene 1 9 12 -2.486993965513266 false 9 -2.486993965513266 true
gene 1 10 12 0.03387767611387549 false 10 0.03387767611387549 true
gene 1 11 12 -1.976403095574231 false 11 -1.976403095574231 true
gene 1 12 13 -0.026261435138338562 false 12 -0.026261435138338562 true
gene 1 12 14 -1.126271063730837 false 13 -1.126271063730837 true
gene 1 7 14 6.23215038854695 false 24 6.23215038854695 true
gene 1 7 13 -11.726926739024645 false 54 -11.726926739024645 true
gene 1 2 13 1.8127723203506223 false 105 1.8127723203506223 true
gene 1 1 13 1.6681417693610578 false 145 1.6681417693610578 true
gene 1 2 14 0.18883230392335382 false 193 0.18883230392335382 true
gene 1 14 13 1.4542661699516977 false 369 1.4542661699516977 true
gene 1 3 13 3.1367703071439488 false 707 3.1367703071439488 true
gene 1 10 14 -1.4492095411385335 false 967 -1.4492095411385335 true
gene 1 7 270 0.7166706063147645 false 1381 0.7166706063147645 true
gene 1 270 12 -0.2748035379376433 false 1382 -0.2748035379376433 true
gene 1 9 14 -0.16391238001202024 false 1388 -0.16391238001202024 true
gene 1 6 13 0.5080539077297092 false 1793 0.5080539077297092 true
genomeend 35
/* Organism #38 Fitness: 2.014 Error: 0.862 */
genomestart 38
trait 1 0.023117579351255347 0.4331071865961371 1.2172926697239723 1.057001959362765 0.5255927420276907 0.032275682988756826 0.5770262575404177 0.7713006065314707 
node 1 1 1 3
node 2 1 1 1
node 3 1 1 1
node 4 1 1 1
node 5 1 1 1
node 6 1 1 1
node 7 1 1 1
node 8 1 1 1
node 9 1 1 1
node 10 1 1 1
node 11 1 1 1
node 12 1 0 0
node 13 1 0 2
node 14 1 0 2
node 270 1 0 0
gene 1 1 12 -0.7540801154160078 false 1 -0.7540801154160078 true
gene 1 2 12 -1.1436598128774524 false 2 -1.1436598128774524 true
gene 1 3 12 0.4831313604378153 false 3 0.4831313604378153 true
gene 1 4 12 -2.2595505961221463 false 4 -2.2595505961221463 true
gene 1 5 12 1.1696744792299671 false 5 1.1696744792299671 true
gene 1 6 12 -0.30245429581052596 false 6 -0.30245429581052596 true
gene 1 7 12 0.6421650388899394 false 7 0.6421650388899394 true
gene 1 8 12 -0.4319185791605205 false 8 -0.4319185791605205 true
gene 1 9 12 -1.4900063426087256 false 9 -1.4900063426087256 true
gene 1 10 12 -1.2636107528888196 false 10 -1.2636107528888196 true
gene 1 11 12 -1.3326789448562693 false 11 -1.3326789448562693 true
gene 1 12 13 0.7730419991944573 false 12 0.7730419991944573 true
gene 1 12 14 -1.826019606937363 false 13 -1.826019606937363 true
gene 1 7 14 6.1424646055856105 false 24 6.1424646055856105 true
gene 1 7 13 -10.663258366382665 false 54 -10.663258366382665 true
gene 1 2 13 1.8431106854193915 false 105 1.8431106854193915 true
gene 1 1 13 1.7820230887383883 false 145 1.7820230887383883 true
gene 1 2 14 -0.3594480206649068 false 193 -0.3594480206649068 true
gene 1 14 13 -0.403676636921512 false 369 -0.403676636921512 true
gene 1 3 13 -0.6972727362274854 false 707 -0.6972727362274854 true
gene 1 10 14 -1.535719807556616 false 967 -1.535719807556616 true
gene 1 7 270 0.41009942877594374 false 1381 0.41009942877594374 true
gene 1 270 12 -0.6488947889429767 false 1382 -0.6488947889429767 true
gene 1 9 14 0.3883886756141157 false 1388 0.3883886756141157 true
gene 1 6 13 0.6159768079280094 false 1793 0.6159768079280094 true
genomeend 38
/* Organism #34 Fitness: 0.926 Error: 0.268 */
genomestart 34
trait 1 0.023117579351255347 0.4331071865961371 0.5267784660543532 1.057001959362765 0.5255927420276907 0.032275682988756826 0.0008576827339734185 1.172486736288409 
node 1 1 1 3
node 2 1 1 1
node 3 1 1 1
node 4 1 1 1
node 5 1 1 1
node 6 1 1 1
node 7 1 1 1
node 8 1 1 1
node 9 1 1 1
node 10 1 1 1
node 11 1 1 1
node 12 1 0 0
node 13 1 0 2
node 14 1 0 2
node 270 1 0 0
gene 1 1 12 -0.9836086247143276 false 1 -0.9836086247143276 true
gene 1 2 12 0.05110504815248054 false 2 0.05110504815248054 true
gene 1 3 12 0.09740494516658803 false 3 0.09740494516658803 true
gene 1 4 12 0.45401880787307514 false 4 0.45401880787307514 true
gene 1 5 12 0.9363035965302049 false 5 0.9363035965302049 true
gene 1 6 12 -0.44892278527459323 false 6 -0.44892278527459323 true
gene 1 7 12 -2.9491291357729286 false 7 -2.9491291357729286 true
gene 1 8 12 -1.7428580172477597 false 8 -1.7428580172477597 true
gene 1 9 12 -1.408527744968613 false 9 -1.408527744968613 true
gene 1 10 12 0.8569873882783671 false 10 0.8569873882783671 true
gene 1 11 12 -0.8878801423287813 false 11 -0.8878801423287813 true
gene 1 12 13 0.3062037470447489 false 12 0.3062037470447489 true
gene 1 12 14 -1.8706108367200494 false 13 -1.8706108367200494 true
gene 1 7 14 5.205979610830407 false 24 5.205979610830407 true
gene 1 7 13 0.6129832855581707 false 54 0.6129832855581707 true
gene 1 2 13 1.6582391294514638 false 105 1.6582391294514638 true
gene 1 1 13 0.37225294178892765 false 145 0.37225294178892765 true
gene 1 2 14 -1.0960250047551467 false 193 -1.0960250047551467 true
gene 1 14 13 -0.3797099520183992 false 369 -0.3797099520183992 true
gene 1 3 13 2.304065772576942 false 707 2.304065772576942 true
gene 1 10 14 -0.39477539264779704 false 967 -0.39477539264779704 true
gene 1 7 270 -0.024231910495416297 false 1381 -0.024231910495416297 true
gene 1 270 12 0.1480567275331932 false 1382 0.1480567275331932 true
gene 1 9 14 -0.7627833579144689 false 1388 -0.7627833579144689 true
gene 1 6 13 0.17896206030160153 false 1793 0.17896206030160153 true
genomeend 34
/* Organism #39 Fitness: 0.652 Error: 0.263 */
genomestart 39
trait 1 0.023117579351255347 0.4331071865961371 0.5267784660543532 1.057001959362765 0.5255927420276907 0.032275682988756826 0.0008576827339734185 1.172486736288409 
node 1 1 1 3
node 2 1 1 1
node 3 1 1 1
node 4 1 1 1
node 5 1 1 1
node 6 1 1 1
node 7 1 1 1
node 8 1 1 1
node 9 1 1 1
node 10 1 1 1
node 11 1 1 1
node 12 1 0 0
node 13 1 0 2
node 14 1 0 2
node 270 1 0 0
gene 1 1 12 -0.6202157627998706 false 1 -0.6202157627998706 true
gene 1 2 12 0.38486982652347834 false 2 0.38486982652347834 true
gene 1 3 12 0.6486770119977932 false 3 0.6486770119977932 true
