/* Species #0 : (Size 250) (AF 1.519) (Age 1)  */
/* Organism #92 Fitness: 10.386 Error: 0.720 */
genomestart 92
trait 1 0.1 0 0 0 0 0 0 0 
node 1 0 1 3
node 2 0 1 1
node 3 0 1 1
node 4 0 1 1
node 5 0 1 1
node 6 0 1 1
node 7 0 1 1
node 8 0 1 1
node 9 0 1 1
node 10 0 1 1
node 11 0 1 1
node 12 0 0 0
node 13 0 0 2
node 14 0 0 2
gene 1 1 12 -0.23034815415394064 false 1 -0.23034815415394064 true
gene 1 2 12 -0.10028000009939839 false 2 -0.10028000009939839 true
gene 1 3 12 -0.5813819214217282 false 3 -0.5813819214217282 true
gene 1 4 12 0.33440051446494756 false 4 0.33440051446494756 true
gene 1 5 12 -0.8342521065584755 false 5 -0.8342521065584755 true
gene 1 6 12 -0.9633713002171492 false 6 -0.9633713002171492 true
gene 1 7 12 0.7721774673467906 false 7 0.7721774673467906 true
gene 1 8 12 -0.7873815718344299 false 8 -0.7873815718344299 true
gene 1 9 12 0.2672780142122358 false 9 0.2672780142122358 true
gene 1 10 12 -0.13850815634891478 false 10 -0.13850815634891478 true
gene 1 11 12 0.11026992297171909 false 11 0.11026992297171909 true
gene 1 12 13 -0.25081390139885534 false 12 -0.25081390139885534 true
gene 1 12 14 -0.12318207308789109 false 13 -0.12318207308789109 true
genomeend 92
/* Organism #206 Fitness: 8.770 Error: 0.992 */
genomestart 206
trait 1 0.1 0 0 0 0 0 0 0 
node 1 0 1 3
node 2 0 1 1
node 3 0 1 1
node 4 0 1 1
node 5 0 1 1
node 6 0 1 1
node 7 0 1 1
node 8 0 1 1
node 9 0 1 1
node 10 0 1 1
node 11 0 1 1
node 12 0 0 0
node 13 0 0 2
node 14 0 0 2
gene 1 1 12 -0.4440127995448846 false 1 -0.4440127995448846 true
gene 1 2 12 -0.90956622573342 false 2 -0.90956622573342 true
gene 1 3 12 0.2121877707199961 false 3 0.2121877707199961 true
gene 1 4 12 0.641570189063596 false 4 0.641570189063596 true
gene 1 5 12 -0.06478291730536255 false 5 -0.06478291730536255 true
gene 1 6 12 0.9997550757515924 false 6 0.9997550757515924 true
gene 1 7 12 0.32253486110208907 false 7 0.32253486110208907 true
gene 1 8 12 -0.6190422236040566 false 8 -0.6190422236040566 true
gene 1 9 12 0.7448485071624121 false 9 0.7448485071624121 true
gene 1 10 12 0.13112794008271084 false 10 0.13112794008271084 true
gene 1 11 12 0.4886992306837302 false 11 0.4886992306837302 true
gene 1 12 13 -0.7634531305523701 false 12 -0.7634531305523701 true
gene 1 12 14 0.8742022605497171 false 13 0.8742022605497171 true
genomeend 206
/* Organism #176 Fitness: 8.315 Error: 0.745 */
genomestart 176
trait 1 0.1 0 0 0 0 0 0 0 
node 1 0 1 3
node 2 0 1 1
node 3 0 1 1
node 4 0 1 1
node 5 0 1 1
node 6 0 1 1
node 7 0 1 1
node 8 0 1 1
node 9 0 1 1
node 10 0 1 1
node 11 0 1 1
node 12 0 0 0
node 13 0 0 2
node 14 0 0 2
gene 1 1 12 0.509771744777716 false 1 0.509771744777716 true
gene 1 2 12 0.6193967463329435 false 2 0.6193967463329435 true
gene 1 3 12 0.053819169394566616 false 3 0.053819169394566616 true
gene 1 4 12 -0.8075485014907602 false 4 -0.8075485014907602 true
gene 1 5 12 0.5709493828593588 false 5 0.5709493828593588 true
gene 1 6 12 0.2967876788816194 false 6 0.2967876788816194 true
gene 1 7 12 -0.6224652784365434 false 7 -0.6224652784365434 true
gene 1 8 12 0.4257635630616329 false 8 0.4257635630616329 true
gene 1 9 12 0.33037363256642255 false 9 0.33037363256642255 true
gene 1 10 12 -0.5109613101769935 false 10 -0.5109613101769935 true
gene 1 11 12 -0.9998833667213496 false 11 -0.9998833667213496 true
gene 1 12 13 -0.0511256918604842 false 12 -0.0511256918604842 true
gene 1 12 14 -0.047858631644360654 false 13 -0.047858631644360654 true
genomeend 176
/* Organism #202 Fitness: 8.295 Error: 0.910 */
genomestart 202
trait 1 0.1 0 0 0 0 0 0 0 
node 1 0 1 3
node 2 0 1 1
node 3 0 1 1
node 4 0 1 1
node 5 0 1 1
node 6 0 1 1
node 7 0 1 1
node 8 0 1 1
node 9 0 1 1
node 10 0 1 1
node 11 0 1 1
node 12 0 0 0
node 13 0 0 2
node 14 0 0 2
gene 1 1 12 -0.20477066861915258 false 1 -0.20477066861915258 true
gene 1 2 12 -0.38667656664467903 false 2 -0.38667656664467903 true
gene 1 3 12 -0.02845074515027535 false 3 -0.02845074515027535 true
gene 1 4 12 -0.33950974828365715 false 4 -0.33950974828365715 true
gene 1 5 12 -0.9693718561670736 false 5 -0.9693718561670736 true
gene 1 6 12 -0.8682478655273629 false 6 -0.8682478655273629 true
gene 1 7 12 -0.26710733308652324 false 7 -0.26710733308652324 true
gene 1 8 12 -0.5927486215460928 false 8 -0.5927486215460928 true
gene 1 9 12 0.7166002891159095 false 9 0.7166002891159095 true
gene 1 10 12 0.362284570513618 false 10 0.362284570513618 true
gene 1 11 12 0.25042766318759707 false 11 0.25042766318759707 true
gene 1 12 13 -0.6415402047251059 false 12 -0.6415402047251059 true
gene 1 12 14 0.09022508954675923 false 13 0.09022508954675923 true
genomeend 202
/* Organism #89 Fitness: 8.198 Error: 0.990 */
genomestart 89
trait 1 0.1 0 0 0 0 0 0 0 
node 1 0 1 3
node 2 0 1 1
node 3 0 1 1
node 4 0 1 1
node 5 0 1 1
node 6 0 1 1
node 7 0 1 1
node 8 0 1 1
node 9 0 1 1
node 10 0 1 1
node 11 0 1 1
node 12 0 0 0
node 13 0 0 2
node 14 0 0 2
gene 1 1 12 -0.7150757829050707 false 1 -0.7150757829050707 true
gene 1 2 12 0.738985585239777 false 2 0.738985585239777 true
gene 1 3 12 -0.6394745876953197 false 3 -0.6394745876953197 true
gene 1 4 12 -0.4507181968590984 false 4 -0.4507181968590984 true
gene 1 5 12 0 false 5 0 true
gene 1 6 12 0.3196370628415943 false 6 0.3196370628415943 true
gene 1 7 12 -0.16785552233996637 false 7 -0.16785552233996637 true
gene 1 8 12 0 false 8 0 true
gene 1 9 12 -0.5134144723375034 false 9 -0.5134144723375034 true
gene 1 10 12 -0.9025959749691637 false 10 -0.9025959749691637 true
gene 1 11 12 -0.7060734801204609 false 11 -0.7060734801204609 true
gene 1 12 13 0.6548255434497697 false 12 0.6548255434497697 true
gene 1 12 14 0.5687568507464614 false 13 0.5687568507464614 true
genomeend 89
/* Organism #150 Fitness: 7.920 Error: 0.990 */
genomestart 150
trait 1 0.1 0 0 0 0 0 0 0 
node 1 0 1 3
node 2 0 1 1
node 3 0 1 1
node 4 0 1 1
node 5 0 1 1
node 6 0 1 1
node 7 0 1 1
node 8 0 1 1
node 9 0 1 1
node 10 0 1 1
node 11 0 1 1
node 12 0 0 0
node 13 0 0 2
node 14 0 0 2
gene 1 1 12 -0.8568714954516885 false 1 -0.8568714954516885 true
gene 1 2 12 0.33716107593201783 false 2 0.33716107593201783 true
gene 1 3 12 0 false 3 0 true
gene 1 4 12 0.7473387443032772 false 4 0.7473387443032772 true
gene 1 5 12 0 false 5 0 true
gene 1 6 12 -0.8734854390079553 false 6 -0.8734854390079553 true
gene 1 7 12 0.7399053647413385 false 7 0.7399053647413385 true
gene 1 8 12 -0.5287786807299156 false 8 -0.5287786807299156 true
gene 1 9 12 -0.6208055390088899 false 9 -0.6208055390088899 true
gene 1 10 12 -0.9170591074655077 false 10 -0.9170591074655077 true
gene 1 11 12 0.2680224458670066 false 11 0.2680224458670066 true
gene 1 12 13 0.7365574011920257 false 12 0.7365574011920257 true
gene 1 12 14 0.18733966308408173 false 13 0.18733966308408173 true
genomeend 150
/* Organism #50 Fitness: 7.701 Error: 0.930 */
genomestart 50
trait 1 0.1 0 0 0 0 0 0 0 
node 1 0 1 3
node 2 0 1 1
node 3 0 1 1
node 4 0 1 1
node 5 0 1 1
node 6 0 1 1
node 7 0 1 1
node 8 0 1 1
node 9 0 1 1
node 10 0 1 1
node 11 0 1 1
node 12 0 0 0
node 13 0 0 2
node 14 0 0 2
gene 1 1 12 -0.9153442428514366 false 1 -0.9153442428514366 true
gene 1 2 12 -0.13289429430423733 false 2 -0.13289429430423733 true
gene 1 3 12 0.49202823614706714 false 3 0.49202823614706714 true
gene 1 4 12 0.46875992060186594 false 4 0.46875992060186594 true
gene 1 5 12 0.3070138408137821 false 5 0.3070138408137821 true
gene 1 6 12 0.46513378002716094 false 6 0.46513378002716094 true
gene 1 7 12 -0.9866710282629815 false 7 -0.9866710282629815 true
gene 1 8 12 -0.682874428189284 false 8 -0.682874428189284 true
gene 1 9 12 0.8688069085518879 false 9 0.8688069085518879 true
gene 1 10 12 0.12192872994685929 false 10 0.12192872994685929 true
gene 1 11 12 -0.42793906593371867 false 11 -0.42793906593371867 true
gene 1 12 13 -0.20781991045069517 false 12 -0.20781991045069517 true
gene 1 12 14 0.17159383872015466 false 13 0.17159383872015466 true
genomeend 50
/* Organism #3 Fitness: 7.285 Error: 0.891 */
genomestart 3
trait 1 0.1 0 0 0 0 0 0 0 
node 1 0 1 3
node 2 0 1 1
node 3 0 1 1
node 4 0 1 1
node 5 0 1 1
node 6 0 1 1
node 7 0 1 1
node 8 0 1 1
node 9 0 1 1
node 10 0 1 1
node 11 0 1 1
node 12 0 0 0
node 13 0 0 2
node 14 0 0 2
gene 1 1 12 0.9804073323015594 false 1 0.9804073323015594 true
gene 1 2 12 -0.8141183991056662 false 2 -0.8141183991056662 true
gene 1 3 12 -0.7770088261771784 false 3 -0.7770088261771784 true
gene 1 4 12 -0.08364840937228488 false 4 -0.08364840937228488 true
gene 1 5 12 -0.8177839356547294 false 5 -0.8177839356547294 true
gene 1 6 12 0.3534858860333263 false 6 0.3534858860333263 true
gene 1 7 12 0 false 7 0 true
gene 1 8 12 0 false 8 0 true
gene 1 9 12 -0.4513251704135918 false 9 -0.4513251704135918 true
gene 1 10 12 -0.10291352484392847 false 10 -0.10291352484392847 true
gene 1 11 12 0.18391329010789303 false 11 0.18391329010789303 true
gene 1 12 13 0.7414390815223754 false 12 0.7414390815223754 true
gene 1 12 14 -0.8885721154662412 false 13 -0.8885721154662412 true
genomeend 3
/* Organism #221 Fitness: 6.475 Error: 0.782 */
genomestart 221
trait 1 0.1 0 0 0 0 0 0 0 
node 1 0 1 3
node 2 0 1 1
node 3 0 1 1
node 4 0 1 1
node 5 0 1 1
node 6 0 1 1
node 7 0 1 1
node 8 0 1 1
node 9 0 1 1
node 10 0 1 1
node 11 0 1 1
node 12 0 0 0
node 13 0 0 2
node 14 0 0 2
gene 1 1 12 0 false 1 0 true
gene 1 2 12 0.2325720669079593 false 2 0.2325720669079593 true
gene 1 3 12 -0.8866140779932506 false 3 -0.8866140779932506 true
gene 1 4 12 -0.7480320861316034 false 4 -0.7480320861316034 true
gene 1 5 12 -0.17641103236969483 false 5 -0.17641103236969483 true
gene 1 6 12 0.6986028771296131 false 6 0.6986028771296131 true
gene 1 7 12 -0.7553630057515895 false 7 -0.7553630057515895 true
gene 1 8 12 -0.013403566256757414 false 8 -0.013403566256757414 true
gene 1 9 12 0.1904382711912986 false 9 0.1904382711912986 true
gene 1 10 12 -0.30286860816363503 false 10 -0.30286860816363503 true
gene 1 11 12 -0.9854047441369963 false 11 -0.9854047441369963 true
gene 1 12 13 0.36840416880940907 false 12 0.36840416880940907 true
gene 1 12 14 -0.058537264236532646 false 13 -0.058537264236532646 true
genomeend 221
/* Organism #160 Fitness: 6.047 Error: 0.990 */
genomestart 160
trait 1 0.1 0 0 0 0 0 0 0 
node 1 0 1 3
node 2 0 1 1
node 3 0 1 1
node 4 0 1 1
node 5 0 1 1
node 6 0 1 1
node 7 0 1 1
node 8 0 1 1
node 9 0 1 1
node 10 0 1 1
node 11 0 1 1
node 12 0 0 0
node 13 0 0 2
node 14 0 0 2
gene 1 1 12 -0.33585394623371934 false 1 -0.33585394623371934 true
gene 1 2 12 0.03173249118128392 false 2 0.03173249118128392 true
gene 1 3 12 -0.7580806598309402 false 3 -0.7580806598309402 true
gene 1 4 12 -0.5242538115316164 false 4 -0.5242538115316164 true
gene 1 5 12 -0.803534919740627 false 5 -0.803534919740627 true
gene 1 6 12 0.6363658266112592 false 6 0.6363658266112592 true
gene 1 7 12 0.2817848658042118 false 7 0.2817848658042118 true
gene 1 8 12 -0.8232085583728053 false 8 -0.8232085583728053 true
gene 1 9 12 0.16464208111169917 false 9 0.16464208111169917 true
gene 1 10 12 -0.457603491819157 false 10 -0.457603491819157 true
gene 1 11 12 0.9157087363406337 false 11 0.9157087363406337 true
gene 1 12 13 0.02035966494481549 false 12 0.02035966494481549 true
gene 1 12 14 0.7964662328767018 false 13 0.7964662328767018 true
genomeend 160
/* Organism #198 Fitness: 5.848 Error: 0.990 */
genomestart 198
trait 1 0.1 0 0 0 0 0 0 0 
node 1 0 1 3
node 2 0 1 1
node 3 0 1 1
node 4 0 1 1
node 5 0 1 1
node 6 0 1 1
node 7 0 1 1
node 8 0 1 1
node 9 0 1 1
node 10 0 1 1
node 11 0 1 1
node 12 0 0 0
node 13 0 0 2
node 14 0 0 2
gene 1 1 12 -0.7720311961574273 false 1 -0.7720311961574273 true
gene 1 2 12 -0.6801516219059177 false 2 -0.6801516219059177 true
gene 1 3 12 0.2522367137344438 false 3 0.2522367137344438 true
gene 1 4 12 -0.418730052642827 false 4 -0.418730052642827 true
gene 1 5 12 0.6023968786184516 false 5 0.6023968786184516 true
gene 1 6 12 -0.899113074741565 false 6 -0.899113074741565 true
gene 1 7 12 0.5664302634217848 false 7 0.5664302634217848 true
gene 1 8 12 -0.3427099459075382 false 8 -0.3427099459075382 true
gene 1 9 12 0.12517880694110642 false 9 0.12517880694110642 true
gene 1 10 12 0 false 10 0 true
gene 1 11 12 -0.19457857639973408 false 11 -0.19457857639973408 true
gene 1 12 13 0.5647554945082524 false 12 0.5647554945082524 true
gene 1 12 14 0.9019009577596365 false 13 0.9019009577596365 true
genomeend 198
/* Organism #243 Fitness: 5.793 Error: 0.923 */
genomestart 243
trait 1 0.1 0 0 0 0 0 0 0 
node 1 0 1 3
node 2 0 1 1
node 3 0 1 1
node 4 0 1 1
node 5 0 1 1
node 6 0 1 1
node 7 0 1 1
node 8 0 1 1
node 9 0 1 1
node 10 0 1 1
node 11 0 1 1
node 12 0 0 0
node 13 0 0 2
node 14 0 0 2
gene 1 1 12 0 false 1 0 true
gene 1 2 12 -0.8847556219497309 false 2 -0.8847556219497309 true
gene 1 3 12 -0.4823920234314471 false 3 -0.4823920234314471 true
gene 1 4 12 0.23031816091738175 false 4 0.23031816091738175 true
gene 1 5 12 -0.21795198982512098 false 5 -0.21795198982512098 true
gene 1 6 12 -0.02021395871073947 false 6 -0.02021395871073947 true
gene 1 7 12 -0.15917293836136462 false 7 -0.15917293836136462 true
gene 1 8 12 -0.32655078026011153 false 8 -0.32655078026011153 true
gene 1 9 12 0.7882237600598742 false 9 0.7882237600598742 true
gene 1 10 12 0.6672528441024922 false 10 0.6672528441024922 true
gene 1 11 12 -0.0038237648097323978 false 11 -0.0038237648097323978 true
gene 1 12 13 -0.7215841510254519 false 12 -0.7215841510254519 true
gene 1 12 14 0.35280622017101165 false 13 0.35280622017101165 true
genomeend 243
/* Organism #224 Fitness: 5.648 Error: 0.990 */
genomestart 224
trait 1 0.1 0 0 0 0 0 0 0 
node 1 0 1 3
node 2 0 1 1
node 3 0 1 1
node 4 0 1 1
node 5 0 1 1
node 6 0 1 1
node 7 0 1 1
node 8 0 1 1
node 9 0 1 1
node 10 0 1 1
node 11 0 1 1
node 12 0 0 0
node 13 0 0 2
node 14 0 0 2
gene 1 1 12 -0.9962731027530136 false 1 -0.9962731027530136 true
gene 1 2 12 -0.16312799647148862 false 2 -0.16312799647148862 true
gene 1 3 12 -0.5641174632984225 false 3 -0.5641174632984225 true
gene 1 4 12 0.10100452834687157 false 4 0.10100452834687157 true
gene 1 5 12 0.42217352892810467 false 5 0.42217352892810467 true
gene 1 6 12 -0.68579156853232 false 6 -0.68579156853232 true
gene 1 7 12 0.11895387152226262 false 7 0.11895387152226262 true
gene 1 8 12 0.6988971643948019 false 8 0.6988971643948019 true
gene 1 9 12 0 false 9 0 true
gene 1 10 12 0.8514049729017292 false 10 0.8514049729017292 true
gene 1 11 12 -0.37534600434132037 false 11 -0.37534600434132037 true
gene 1 12 13 -0.22217268726398154 false 12 -0.22217268726398154 true
gene 1 12 14 0.37379250068900866 false 13 0.37379250068900866 true
genomeend 224
/* Organism #140 Fitness: 5.432 Error: 0.966 */
genomestart 140
trait 1 0.1 0 0 0 0 0 0 0 
node 1 0 1 3
node 2 0 1 1
node 3 0 1 1
node 4 0 1 1
node 5 0 1 1
node 6 0 1 1
node 7 0 1 1
node 8 0 1 1
node 9 0 1 1
node 10 0 1 1
node 11 0 1 1
node 12 0 0 0
node 13 0 0 2
node 14 0 0 2
gene 1 1 12 -0.3729315525798219 false 1 -0.3729315525798219 true
gene 1 2 12 -0.8690336574358714 false 2 -0.8690336574358714 true
gene 1 3 12 -0.9877318564799078 false 3 -0.9877318564799078 true
gene 1 4 12 0.7957590867273484 false 4 0.7957590867273484 true
gene 1 5 12 -0.7280931263073777 false 5 -0.7280931263073777 true
gene 1 6 12 -0.7521161997242832 false 6 -0.7521161997242832 true
gene 1 7 12 0.06792519783198074 false 7 0.06792519783198074 true
gene 1 8 12 -0.3526072100954326 false 8 -0.3526072100954326 true
gene 1 9 12 -0.7344870364231575 false 9 -0.7344870364231575 true
gene 1 10 12 0.4148800849148001 false 10 0.4148800849148001 true
gene 1 11 12 -0.24097972378763194 false 11 -0.24097972378763194 true
gene 1 12 13 -0.3340902309902128 false 12 -0.3340902309902128 true
gene 1 12 14 -0.22997662491802098 false 13 -0.22997662491802098 true
genomeend 140
/* Organism #20 Fitness: 4.900 Error: 0.990 */
genomestart 20
trait 1 0.1 0 0 0 0 0 0 0 
node 1 0 1 3
node 2 0 1 1
node 3 0 1 1
node 4 0 1 1
node 5 0 1 1
node 6 0 1 1
node 7 0 1 1
node 8 0 1 1
node 9 0 1 1
node 10 0 1 1
node 11 0 1 1
node 12 0 0 0
node 13 0 0 2
node 14 0 0 2
gene 1 1 12 0.8665693805919978 false 1 0.8665693805919978 true
gene 1 2 12 -0.5837915535227514 false 2 -0.5837915535227514 true
gene 1 3 12 0.5159164497367794 false 3 0.5159164497367794 true
gene 1 4 12 -0.663704763809807 false 4 -0.663704763809807 true
gene 1 5 12 -0.8254731375492749 false 5 -0.8254731375492749 true
gene 1 6 12 -0.8530575973293318 false 6 -0.8530575973293318 true
gene 1 7 12 -0.51906401322065 false 7 -0.51906401322065 true
gene 1 8 12 -0.5317312174145834 false 8 -0.5317312174145834 true
gene 1 9 12 0 false 9 0 true
gene 1 10 12 -0.39273101574743496 false 10 -0.39273101574743496 true
gene 1 11 12 0 false 11 0 true
gene 1 12 13 -0.5417538458758684 false 12 -0.5417538458758684 true
gene 1 12 14 0.07673810580187666 false 13 0.07673810580187666 true
genomeend 20
/* Organism #239 Fitness: 4.863 Error: 0.990 */
genomestart 239
trait 1 0.1 0 0 0 0 0 0 0 
node 1 0 1 3
node 2 0 1 1
node 3 0 1 1
node 4 0 1 1
node 5 0 1 1
node 6 0 1 1
node 7 0 1 1
node 8 0 1 1
node 9 0 1 1
node 10 0 1 1
node 11 0 1 1
node 12 0 0 0
node 13 0 0 2
node 14 0 0 2
gene 1 1 12 -0.6831427226918465 false 1 -0.6831427226918465 true
gene 1 2 12 0.6763533466498863 false 2 0.6763533466498863 true
gene 1 3 12 0.5220252144477191 false 3 0.5220252144477191 true
gene 1 4 12 0 false 4 0 true
gene 1 5 12 -0.28932672888822325 false 5 -0.28932672888822325 true
gene 1 6 12 0 false 6 0 true
gene 1 7 12 -0.3805769624336168 false 7 -0.3805769624336168 true
gene 1 8 12 0.9114978805221559 false 8 0.9114978805221559 true
gene 1 9 12 0.38402121156052804 false 9 0.38402121156052804 true
gene 1 10 12 -0.13364772431029667 false 10 -0.13364772431029667 true
gene 1 11 12 0.10317411134034764 false 11 0.10317411134034764 true
gene 1 12 13 -0.10028737194822744 false 12 -0.10028737194822744 true
gene 1 12 14 0.13852353928940261 false 13 0.13852353928940261 true
genomeend 239
/* Organism #72 Fitness: 4.841 Error: 0.805 */
genomestart 72
trait 1 0.1 0 0 0 0 0 0 0 
node 1 0 1 3
node 2 0 1 1
node 3 0 1 1
node 4 0 1 1
node 5 0 1 1
node 6 0 1 1
node 7 0 1 1
node 8 0 1 1
node 9 0 1 1
node 10 0 1 1
node 11 0 1 1
node 12 0 0 0
node 13 0 0 2
node 14 0 0 2
gene 1 1 12 -0.5788591445696218 false 1 -0.5788591445696218 true
gene 1 2 12 -0.19817744002351745 false 2 -0.19817744002351745 true
gene 1 3 12 -0.20082858037644347 false 3 -0.20082858037644347 true
gene 1 4 12 -0.20216076539929842 false 4 -0.20216076539929842 true
gene 1 5 12 0 false 5 0 true
gene 1 6 12 0 false 6 0 true
gene 1 7 12 0.2523712391133892 false 7 0.2523712391133892 true
gene 1 8 12 0.13146592937964635 false 8 0.13146592937964635 true
gene 1 9 12 0.7664972826412574 false 9 0.7664972826412574 true
gene 1 10 12 0.5108440379832901 false 10 0.5108440379832901 true
gene 1 11 12 -0.7308693098971363 false 11 -0.7308693098971363 true
gene 1 12 13 -0.3368418687267157 false 12 -0.3368418687267157 true
gene 1 12 14 -0.25154716627014906 false 13 -0.25154716627014906 true
genomeend 72
/* Organism #44 Fitness: 4.679 Error: 0.903 */
genomestart 44
trait 1 0.1 0 0 0 0 0 0 0 
node 1 0 1 3
node 2 0 1 1
node 3 0 1 1
node 4 0 1 1
node 5 0 1 1
node 6 0 1 1
node 7 0 1 1
node 8 0 1 1
node 9 0 1 1
node 10 0 1 1
node 11 0 1 1
node 12 0 0 0
node 13 0 0 2
node 14 0 0 2
gene 1 1 12 -0.054557084497065964 false 1 -0.054557084497065964 true
gene 1 2 12 -0.02902470386627267 false 2 -0.02902470386627267 true
gene 1 3 12 0.9157958481650227 false 3 0.9157958481650227 true
gene 1 4 12 0.3545112818015633 false 4 0.3545112818015633 true
gene 1 5 12 0.01279491481696789 false 5 0.01279491481696789 true
gene 1 6 12 0.027476386530481414 false 6 0.027476386530481414 true
gene 1 7 12 -0.13244991048755306 false 7 -0.13244991048755306 true
gene 1 8 12 0.24732104523120796 false 8 0.24732104523120796 true
gene 1 9 12 0.4051485106903177 false 9 0.4051485106903177 true
gene 1 10 12 0.6702395015563755 false 10 0.6702395015563755 true
gene 1 11 12 -0.10790945333717755 false 11 -0.10790945333717755 true
gene 1 12 13 -0.0870537346870461 false 12 -0.0870537346870461 true
gene 1 12 14 0.7149093200278576 false 13 0.7149093200278576 true
genomeend 44
/* Organism #73 Fitness: 4.328 Error: 0.950 */
genomestart 73
trait 1 0.1 0 0 0 0 0 0 0 
node 1 0 1 3
node 2 0 1 1
node 3 0 1 1
node 4 0 1 1
node 5 0 1 1
node 6 0 1 1
node 7 0 1 1
node 8 0 1 1
node 9 0 1 1
node 10 0 1 1
node 11 0 1 1
node 12 0 0 0
node 13 0 0 2
node 14 0 0 2
gene 1 1 12 -0.5634126966223091 false 1 -0.5634126966223091 true
gene 1 2 12 -0.9406239741276124 false 2 -0.9406239741276124 true
gene 1 3 12 0.20166317566180902 false 3 0.20166317566180902 true
gene 1 4 12 -0.26018204763544994 false 4 -0.26018204763544994 true
gene 1 5 12 -0.13189831945410949 false 5 -0.13189831945410949 true
gene 1 6 12 -0.09069111617640203 false 6 -0.09069111617640203 true
gene 1 7 12 -0.4085636081908858 false 7 -0.4085636081908858 true
gene 1 8 12 -0.5353718548909913 false 8 -0.5353718548909913 true
gene 1 9 12 0.7235289898701848 false 9 0.7235289898701848 true
gene 1 10 12 0.37741955478862466 false 10 0.37741955478862466 true
gene 1 11 12 0.42352698459422167 false 11 0.42352698459422167 true
gene 1 12 13 0.8322366218710693 false 12 0.8322366218710693 true
gene 1 12 14 -0.03612235595387144 false 13 -0.03612235595387144 true
genomeend 73
/* Organism #218 Fitness: 4.289 Error: 0.805 */
genomestart 218
trait 1 0.1 0 0 0 0 0 0 0 
node 1 0 1 3
node 2 0 1 1
node 3 0 1 1
node 4 0 1 1
node 5 0 1 1
node 6 0 1 1
node 7 0 1 1
node 8 0 1 1
node 9 0 1 1
node 10 0 1 1
node 11 0 1 1
node 12 0 0 0
node 13 0 0 2
node 14 0 0 2
gene 1 1 12 0.31828809713445105 false 1 0.31828809713445105 true
gene 1 2 12 -0.883924303674209 false 2 -0.883924303674209 true
gene 1 3 12 0.6605064818087855 false 3 0.6605064818087855 true
gene 1 4 12 -0.7692049081205755 false 4 -0.7692049081205755 true
gene 1 5 12 0.022011958732789435 false 5 0.022011958732789435 true
gene 1 6 12 0.28015145266063274 false 6 0.28015145266063274 true
gene 1 7 12 -0.8879922317197497 false 7 -0.8879922317197497 true
gene 1 8 12 0.42676016436883296 false 8 0.42676016436883296 true
gene 1 9 12 0.37480329618965363 false 9 0.37480329618965363 true
gene 1 10 12 -0.5889610195106115 false 10 -0.5889610195106115 true
gene 1 11 12 -0.8034299898521692 false 11 -0.8034299898521692 true
gene 1 12 13 0.7649570985260749 false 12 0.7649570985260749 true
gene 1 12 14 0.31011166485986197 false 13 0.31011166485986197 true
genomeend 218
/* Organism #107 Fitness: 4.143 Error: 0.775 */
genomestart 107
trait 1 0.1 0 0 0 0 0 0 0 
node 1 0 1 3
node 2 0 1 1
node 3 0 1 1
node 4 0 1 1
node 5 0 1 1
node 6 0 1 1
node 7 0 1 1
node 8 0 1 1
node 9 0 1 1
node 10 0 1 1
node 11 0 1 1
node 12 0 0 0
node 13 0 0 2
node 14 0 0 2
gene 1 1 12 -0.8087935182161967 false 1 -0.8087935182161967 true
gene 1 2 12 -0.19615147503110858 false 2 -0.19615147503110858 true
gene 1 3 12 0.7596260531907323 false 3 0.7596260531907323 true
gene 1 4 12 -0.5470584993287008 false 4 -0.5470584993287008 true
gene 1 5 12 -0.26433394410257754 false 5 -0.26433394410257754 true
gene 1 6 12 -0.21808419577597093 false 6 -0.21808419577597093 true
gene 1 7 12 0.8280948998983826 false 7 0.8280948998983826 true
gene 1 8 12 -0.5694150275817527 false 8 -0.5694150275817527 true
gene 1 9 12 0.3648232571078289 false 9 0.3648232571078289 true
gene 1 10 12 -0.07232061279434783 false 10 -0.07232061279434783 true
gene 1 11 12 0.825164282347649 false 11 0.825164282347649 true
gene 1 12 13 0.9398335837415792 false 12 0.9398335837415792 true
gene 1 12 14 0.07784225807719042 false 13 0.07784225807719042 true
genomeend 107
/* Organism #118 Fitness: 4.103 Error: 0.664 */
genomestart 118
trait 1 0.1 0 0 0 0 0 0 0 
node 1 0 1 3
node 2 0 1 1
node 3 0 1 1
node 4 0 1 1
node 5 0 1 1
node 6 0 1 1
node 7 0 1 1
node 8 0 1 1
node 9 0 1 1
node 10 0 1 1
node 11 0 1 1
node 12 0 0 0
node 13 0 0 2
node 14 0 0 2
gene 1 1 12 -0.5527965913211299 false 1 -0.5527965913211299 true
gene 1 2 12 0.4171063158740048 false 2 0.4171063158740048 true
gene 1 3 12 -0.6307402727475202 false 3 -0.6307402727475202 true
gene 1 4 12 -0.16229541481573068 false 4 -0.16229541481573068 true
gene 1 5 12 0.7740543141795252 false 5 0.7740543141795252 true
gene 1 6 12 0.6047503633501224 false 6 0.6047503633501224 true
gene 1 7 12 -0.4258780645681078 false 7 -0.4258780645681078 true
gene 1 8 12 -0.049480586644547596 false 8 -0.049480586644547596 true
gene 1 9 12 0.07636605556162009 false 9 0.07636605556162009 true
gene 1 10 12 0.06815423844402789 false 10 0.06815423844402789 true
gene 1 11 12 0.5843180267841855 false 11 0.5843180267841855 true
gene 1 12 13 0.10961903677139954 false 12 0.10961903677139954 true
gene 1 12 14 -0.07299779135747655 false 13 -0.07299779135747655 true
genomeend 118
/* Organism #7 Fitness: 3.998 Error: 0.878 */
genomestart 7
trait 1 0.1 0 0 0 0 0 0 0 
node 1 0 1 3
node 2 0 1 1
node 3 0 1 1
node 4 0 1 1
node 5 0 1 1
node 6 0 1 1
node 7 0 1 1
node 8 0 1 1
node 9 0 1 1
node 10 0 1 1
node 11 0 1 1
node 12 0 0 0
node 13 0 0 2
node 14 0 0 2
gene 1 1 12 0.33816192727872335 false 1 0.33816192727872335 true
gene 1 2 12 -0.7959623923679653 false 2 -0.7959623923679653 true
gene 1 3 12 0.7185927023018163 false 3 0.7185927023018163 true
gene 1 4 12 0.8697088382714977 false 4 0.8697088382714977 true
gene 1 5 12 -0.57724926813713 false 5 -0.57724926813713 true
gene 1 6 12 0.6775071381642997 false 6 0.6775071381642997 true
gene 1 7 12 -0.8562565095504829 false 7 -0.8562565095504829 true
gene 1 8 12 -0.4921702239670928 false 8 -0.4921702239670928 true
gene 1 9 12 0.9191148607278132 false 9 0.9191148607278132 true
gene 1 10 12 0.21134624480148462 false 10 0.21134624480148462 true
gene 1 11 12 -0.007466575902402015 false 11 -0.007466575902402015 true
gene 1 12 13 -0.019782535099266908 false 12 -0.019782535099266908 true
gene 1 12 14 -0.333899633304705 false 13 -0.333899633304705 true
genomeend 7
/* Organism #33 Fitness: 3.444 Error: 0.990 */
genomestart 33
trait 1 0.1 0 0 0 0 0 0 0 
node 1 0 1 3
node 2 0 1 1
node 3 0 1 1
node 4 0 1 1
node 5 0 1 1
node 6 0 1 1
node 7 0 1 1
node 8 0 1 1
node 9 0 1 1
node 10 0 1 1
node 11 0 1 1
node 12 0 0 0
node 13 0 0 2
node 14 0 0 2
gene 1 1 12 -0.6784387274637144 false 1 -0.6784387274637144 true
gene 1 2 12 0 false 2 0 true
gene 1 3 12 -0.2691217202934344 false 3 -0.2691217202934344 true
gene 1 4 12 0.2737982940562577 false 4 0.2737982940562577 true
gene 1 5 12 -0.376866142022984 false 5 -0.376866142022984 true
gene 1 6 12 0.6175722989113331 false 6 0.6175722989113331 true
gene 1 7 12 -0.8062857951218315 false 7 -0.8062857951218315 true
gene 1 8 12 0.6583803119515115 false 8 0.6583803119515115 true
gene 1 9 12 0.4457419011288231 false 9 0.4457419011288231 true
gene 1 10 12 -0.05388499773217216 false 10 -0.05388499773217216 true
gene 1 11 12 -0.5752291616203434 false 11 -0.5752291616203434 true
gene 1 12 13 -0.02451221346822001 false 12 -0.02451221346822001 true
gene 1 12 14 0.19162614008187936 false 13 0.19162614008187936 true
genomeend 33
/* Organism #208 Fitness: 3.197 Error: 0.896 */
genomestart 208
trait 1 0.1 0 0 0 0 0 0 0 
node 1 0 1 3
node 2 0 1 1
node 3 0 1 1
node 4 0 1 1
node 5 0 1 1
node 6 0 1 1
node 7 0 1 1
node 8 0 1 1
node 9 0 1 1
node 10 0 1 1
node 11 0 1 1
node 12 0 0 0
node 13 0 0 2
node 14 0 0 2
gene 1 1 12 -0.762573834987151 false 1 -0.762573834987151 true
gene 1 2 12 -0.9056265839154519 false 2 -0.9056265839154519 true
gene 1 3 12 0.7996652090647088 false 3 0.7996652090647088 true
gene 1 4 12 -0.9851834768225378 false 4 -0.9851834768225378 true
gene 1 5 12 -0.6175176852088975 false 5 -0.6175176852088975 true
gene 1 6 12 0.9806360385531869 false 6 0.9806360385531869 true
gene 1 7 12 -0.4661703535697233 false 7 -0.4661703535697233 true
gene 1 8 12 0.31490661211952575 false 8 0.31490661211952575 true
gene 1 9 12 -0.9758814328203889 false 9 -0.9758814328203889 true
gene 1 10 12 0.42044551480027104 false 10 0.42044551480027104 true
gene 1 11 12 0 false 11 0 true
gene 1 12 13 0.576671201513431 false 12 0.576671201513431 true
gene 1 12 14 -0.16027206342490227 false 13 -0.16027206342490227 true
genomeend 208
/* Organism #95 Fitness: 3.097 Error: 0.765 */
genomestart 95
trait 1 0.1 0 0 0 0 0 0 0 
node 1 0 1 3
node 2 0 1 1
node 3 0 1 1
node 4 0 1 1
node 5 0 1 1
node 6 0 1 1
node 7 0 1 1
node 8 0 1 1
node 9 0 1 1
node 10 0 1 1
node 11 0 1 1
node 12 0 0 0
node 13 0 0 2
node 14 0 0 2
gene 1 1 12 -0.4643402469532622 false 1 -0.4643402469532622 true
gene 1 2 12 0.17421622143180607 false 2 0.17421622143180607 true
gene 1 3 12 -0.0995831442273604 false 3 -0.0995831442273604 true
gene 1 4 12 -0.8921348807233199 false 4 -0.8921348807233199 true
gene 1 5 12 -0.9022945781690294 false 5 -0.9022945781690294 true
gene 1 6 12 -0.9350324836567518 false 6 -0.9350324836567518 true
gene 1 7 12 -0.8733829717234517 false 7 -0.8733829717234517 true
gene 1 8 12 0.49492840517614045 false 8 0.49492840517614045 true
gene 1 9 12 -0.47530342700978484 false 9 -0.47530342700978484 true
gene 1 10 12 0.3836357471063959 false 10 0.3836357471063959 true
gene 1 11 12 0.7285398588779516 false 11 0.7285398588779516 true
gene 1 12 13 0.6732264012116409 false 12 0.6732264012116409 true
gene 1 12 14 -0.6493635497280789 false 13 -0.6493635497280789 true
genomeend 95
/* Organism #219 Fitness: 2.866 Error: 0.860 */
genomestart 219
trait 1 0.1 0 0 0 0 0 0 0 
node 1 0 1 3
node 2 0 1 1
node 3 0 1 1
node 4 0 1 1
node 5 0 1 1
node 6 0 1 1
node 7 0 1 1
node 8 0 1 1
node 9 0 1 1
node 10 0 1 1
node 11 0 1 1
node 12 0 0 0
node 13 0 0 2
node 14 0 0 2
gene 1 1 12 0.5793942753060907 false 1 0.5793942753060907 true
gene 1 2 12 -0.8304095968700411 false 2 -0.8304095968700411 true
gene 1 3 12 0 false 3 0 true
gene 1 4 12 0.07741838187639755 false 4 0.07741838187639755 true
gene 1 5 12 -0.3748539677079821 false 5 -0.3748539677079821 true
gene 1 6 12 0.6571982613835712 false 6 0.6571982613835712 true
gene 1 7 12 -0.7263285812368857 false 7 -0.7263285812368857 true
gene 1 8 12 0.19455618305174768 false 8 0.19455618305174768 true
gene 1 9 12 0.23913057417977016 false 9 0.23913057417977016 true
gene 1 10 12 -0.7375421267978173 false 10 -0.7375421267978173 true
gene 1 11 12 0.6480141130750059 false 11 0.6480141130750059 true
gene 1 12 13 0.7006857852043031 false 12 0.7006857852043031 true
gene 1 12 14 0.5214744398081242 false 13 0.5214744398081242 true
genomeend 219
/* Organism #103 Fitness: 2.833 Error: 0.782 */
genomestart 103
trait 1 0.1 0 0 0 0 0 0 0 
node 1 0 1 3
node 2 0 1 1
node 3 0 1 1
node 4 0 1 1
node 5 0 1 1
node 6 0 1 1
node 7 0 1 1
node 8 0 1 1
node 9 0 1 1
node 10 0 1 1
node 11 0 1 1
node 12 0 0 0
node 13 0 0 2
node 14 0 0 2
gene 1 1 12 -0.13888027684356388 false 1 -0.13888027684356388 true
gene 1 2 12 0.2727782331161762 false 2 0.2727782331161762 true
gene 1 3 12 0.9633108792255163 false 3 0.9633108792255163 true
gene 1 4 12 -0.40590518137182036 false 4 -0.40590518137182036 true
gene 1 5 12 -0.17563136468328427 false 5 -0.17563136468328427 true
gene 1 6 12 0.39785019009702244 false 6 0.39785019009702244 true
gene 1 7 12 0.3079621039171703 false 7 0.3079621039171703 true
gene 1 8 12 0.7904032531666254 false 8 0.7904032531666254 true
gene 1 9 12 -0.920682180793537 false 9 -0.920682180793537 true
gene 1 10 12 -0.47478023468112057 false 10 -0.47478023468112057 true
gene 1 11 12 0.15572362707976897 false 11 0.15572362707976897 true
gene 1 12 13 -0.38946217407895034 false 12 -0.38946217407895034 true
gene 1 12 14 -0.9996525441878782 false 13 -0.9996525441878782 true
genomeend 103
/* Organism #133 Fitness: 2.822 Error: 0.990 */
genomestart 133
trait 1 0.1 0 0 0 0 0 0 0 
node 1 0 1 3
node 2 0 1 1
node 3 0 1 1
node 4 0 1 1
node 5 0 1 1
node 6 0 1 1
node 7 0 1 1
node 8 0 1 1
node 9 0 1 1
node 10 0 1 1
node 11 0 1 1
node 12 0 0 0
node 13 0 0 2
node 14 0 0 2
gene 1 1 12 -0.7538971707130221 false 1 -0.7538971707130221 true
gene 1 2 12 -0.22946934434265964 false 2 -0.22946934434265964 true
gene 1 3 12 -0.453890540290144 false 3 -0.453890540290144 true
gene 1 4 12 -0.3355191449828737 false 4 -0.3355191449828737 true
gene 1 5 12 -0.17706134071263638 false 5 -0.17706134071263638 true
gene 1 6 12 0.6096746422456637 false 6 0.6096746422456637 true
gene 1 7 12 -0.02452740358568484 false 7 -0.02452740358568484 true
gene 1 8 12 0.8222399592088226 false 8 0.8222399592088226 true
gene 1 9 12 0.26438561268443134 false 9 0.26438561268443134 true
gene 1 10 12 -0.07402940441634132 false 10 -0.07402940441634132 true
gene 1 11 12 0.9155456989843026 false 11 0.9155456989843026 true
gene 1 12 13 0 false 12 0 true
gene 1 12 14 0.14462253023168767 false 13 0.14462253023168767 true
genomeend 133
/* Organism #179 Fitness: 2.801 Error: 0.772 */
genomestart 179
trait 1 0.1 0 0 0 0 0 0 0 
node 1 0 1 3
node 2 0 1 1
node 3 0 1 1
node 4 0 1 1
node 5 0 1 1
node 6 0 1 1
node 7 0 1 1
node 8 0 1 1
node 9 0 1 1
node 10 0 1 1
node 11 0 1 1
node 12 0 0 0
node 13 0 0 2
node 14 0 0 2
gene 1 1 12 -0.13895030292720761 false 1 -0.13895030292720761 true
gene 1 2 12 -0.388019571358221 false 2 -0.388019571358221 true
gene 1 3 12 -0.6022501184048276 false 3 -0.6022501184048276 true
gene 1 4 12 0.08524554578053155 false 4 0.08524554578053155 true
gene 1 5 12 0.5811979812968038 false 5 0.5811979812968038 true
gene 1 6 12 -0.17088824805037897 false 6 -0.17088824805037897 true
gene 1 7 12 -0.4068761369695938 false 7 -0.4068761369695938 true
gene 1 8 12 0.4874610619577183 false 8 0.4874610619577183 true
gene 1 9 12 -0.5467599567613126 false 9 -0.5467599567613126 true
gene 1 10 12 0.6965406952009907 false 10 0.6965406952009907 true
gene 1 11 12 0.4750178647281722 false 11 0.4750178647281722 true
gene 1 12 13 -0.41377399360144357 false 12 -0.41377399360144357 true
gene 1 12 14 -0.8143600511398402 false 13 -0.8143600511398402 true
genomeend 179
/* Organism #82 Fitness: 2.773 Error: 0.859 */
genomestart 82
trait 1 0.1 0 0 0 0 0 0 0 
node 1 0 1 3
node 2 0 1 1
node 3 0 1 1
node 4 0 1 1
node 5 0 1 1
node 6 0 1 1
node 7 0 1 1
node 8 0 1 1
node 9 0 1 1
node 10 0 1 1
node 11 0 1 1
node 12 0 0 0
node 13 0 0 2
node 14 0 0 2
gene 1 1 12 -0.5421543368103147 false 1 -0.5421543368103147 true
gene 1 2 12 0 false 2 0 true
gene 1 3 12 0.10145809443771539 false 3 0.10145809443771539 true
gene 1 4 12 -0.8229181448739616 false 4 -0.8229181448739616 true
gene 1 5 12 -0.25367916861090944 false 5 -0.25367916861090944 true
gene 1 6 12 0.2055107878711052 false 6 0.2055107878711052 true
gene 1 7 12 0.1574774593403659 false 7 0.1574774593403659 true
gene 1 8 12 0.4920977092066315 false 8 0.4920977092066315 true
gene 1 9 12 0 false 9 0 true
gene 1 10 12 0.626508157844978 false 10 0.626508157844978 true
gene 1 11 12 -0.9338820499502154 false 11 -0.9338820499502154 true
gene 1 12 13 -0.826671640657345 false 12 -0.826671640657345 true
gene 1 12 14 0.26717656395328787 false 13 0.26717656395328787 true
genomeend 82
/* Organism #111 Fitness: 2.743 Error: 0.908 */
genomestart 111
trait 1 0.1 0 0 0 0 0 0 0 
node 1 0 1 3
node 2 0 1 1
node 3 0 1 1
node 4 0 1 1
node 5 0 1 1
node 6 0 1 1
node 7 0 1 1
node 8 0 1 1
node 9 0 1 1
node 10 0 1 1
node 11 0 1 1
node 12 0 0 0
node 13 0 0 2
node 14 0 0 2
gene 1 1 12 -0.6953957920542 false 1 -0.6953957920542 true
gene 1 2 12 -0.8457201816497466 false 2 -0.8457201816497466 true
gene 1 3 12 0.6039675313970233 false 3 0.6039675313970233 true
gene 1 4 12 0.7707845909404186 false 4 0.7707845909404186 true
gene 1 5 12 0.06441460362877319 false 5 0.06441460362877319 true
gene 1 6 12 0.9575010762945414 false 6 0.9575010762945414 true
gene 1 7 12 0.6616489030339111 false 7 0.6616489030339111 true
gene 1 8 12 0.06019848660694465 false 8 0.06019848660694465 true
gene 1 9 12 0.883882160166075 false 9 0.883882160166075 true
gene 1 10 12 -0.8454412841350696 false 10 -0.8454412841350696 true
gene 1 11 12 0.4323053471241015 false 11 0.4323053471241015 true
gene 1 12 13 0.799859446094107 false 12 0.799859446094107 true
gene 1 12 14 0.7515420412383611 false 13 0.7515420412383611 true
genomeend 111
/* Organism #51 Fitness: 2.739 Error: 0.930 */
genomestart 51
trait 1 0.1 0 0 0 0 0 0 0 
node 1 0 1 3
node 2 0 1 1
node 3 0 1 1
node 4 0 1 1
node 5 0 1 1
node 6 0 1 1
node 7 0 1 1
node 8 0 1 1
node 9 0 1 1
node 10 0 1 1
node 11 0 1 1
node 12 0 0 0
node 13 0 0 2
node 14 0 0 2
gene 1 1 12 -0.42377786765690884 false 1 -0.42377786765690884 true
gene 1 2 12 0 false 2 0 true
gene 1 3 12 0.2911587374257447 false 3 0.2911587374257447 true
gene 1 4 12 0 false 4 0 true
gene 1 5 12 0.33364966708683186 false 5 0.33364966708683186 true
gene 1 6 12 0.192736194850509 false 6 0.192736194850509 true
gene 1 7 12 -0.938216418698334 false 7 -0.938216418698334 true
gene 1 8 12 0.705774476401541 false 8 0.705774476401541 true
gene 1 9 12 -0.4663573198186036 false 9 -0.4663573198186036 true
gene 1 10 12 0.0050615230954098875 false 10 0.0050615230954098875 true
gene 1 11 12 -0.5465999006356576 false 11 -0.5465999006356576 true
gene 1 12 13 0.6782371932539819 false 12 0.6782371932539819 true
gene 1 12 14 -0.25682738553295564 false 13 -0.25682738553295564 true
genomeend 51
/* Organism #15 Fitness: 2.660 Error: 0.824 */
genomestart 15
trait 1 0.1 0 0 0 0 0 0 0 
node 1 0 1 3
node 2 0 1 1
node 3 0 1 1
node 4 0 1 1
node 5 0 1 1
node 6 0 1 1
node 7 0 1 1
node 8 0 1 1
node 9 0 1 1
node 10 0 1 1
node 11 0 1 1
node 12 0 0 0
node 13 0 0 2
node 14 0 0 2
gene 1 1 12 0.5960049660714049 false 1 0.5960049660714049 true
gene 1 2 12 0.443016749711547 false 2 0.443016749711547 true
gene 1 3 12 -0.6917085879555488 false 3 -0.6917085879555488 true
gene 1 4 12 0.20534601650190096 false 4 0.20534601650190096 true
gene 1 5 12 -0.2818801967413488 false 5 -0.2818801967413488 true
gene 1 6 12 -0.2340961213273961 false 6 -0.2340961213273961 true
gene 1 7 12 -0.3043742870556926 false 7 -0.3043742870556926 true
gene 1 8 12 0.4714029003789635 false 8 0.4714029003789635 true
gene 1 9 12 0 false 9 0 true
gene 1 10 12 0.7668538362329239 false 10 0.7668538362329239 true
gene 1 11 12 0.2715765271573098 false 11 0.2715765271573098 true
gene 1 12 13 -0.3113299382585531 false 12 -0.3113299382585531 true
gene 1 12 14 0.2986140791919208 false 13 0.2986140791919208 true
genomeend 15
/* Organism #19 Fitness: 2.557 Error: 0.778 */
genomestart 19
trait 1 0.1 0 0 0 0 0 0 0 
node 1 0 1 3
node 2 0 1 1
node 3 0 1 1
node 4 0 1 1
node 5 0 1 1
node 6 0 1 1
node 7 0 1 1
node 8 0 1 1
node 9 0 1 1
node 10 0 1 1
node 11 0 1 1
node 12 0 0 0
node 13 0 0 2
node 14 0 0 2
gene 1 1 12 0 false 1 0 true
gene 1 2 12 0.6745384561104396 false 2 0.6745384561104396 true
gene 1 3 12 -0.002165184241254816 false 3 -0.002165184241254816 true
gene 1 4 12 -0.5090642994594258 false 4 -0.5090642994594258 true
gene 1 5 12 0.5856275982755782 false 5 0.5856275982755782 true
gene 1 6 12 0.8010200143064038 false 6 0.8010200143064038 true
gene 1 7 12 -0.8509815499161344 false 7 -0.8509815499161344 true
gene 1 8 12 -0.20963937705275296 false 8 -0.20963937705275296 true
gene 1 9 12 -0.9007419202083203 false 9 -0.9007419202083203 true
gene 1 10 12 0.40846566584654315 false 10 0.40846566584654315 true
gene 1 11 12 0.8628096524056488 false 11 0.8628096524056488 true
gene 1 12 13 0.930505199362793 false 12 0.930505199362793 true
gene 1 12 14 0.034791405572646907 false 13 0.034791405572646907 true
genomeend 19
/* Organism #30 Fitness: 2.536 Error: 0.791 */
genomestart 30
trait 1 0.1 0 0 0 0 0 0 0 
node 1 0 1 3
node 2 0 1 1
node 3 0 1 1
node 4 0 1 1
node 5 0 1 1
node 6 0 1 1
node 7 0 1 1
node 8 0 1 1
node 9 0 1 1
node 10 0 1 1
node 11 0 1 1
node 12 0 0 0
node 13 0 0 2
node 14 0 0 2
gene 1 1 12 0.9259666222672375 false 1 0.9259666222672375 true
gene 1 2 12 -0.8278880425711626 false 2 -0.8278880425711626 true
gene 1 3 12 0.7692963528090243 false 3 0.7692963528090243 true
gene 1 4 12 0.9759725319232249 false 4 0.9759725319232249 true
gene 1 5 12 -0.3487941662504422 false 5 -0.3487941662504422 true
gene 1 6 12 0.7973482628339827 false 6 0.7973482628339827 true
gene 1 7 12 -0.7681879962818405 false 7 -0.7681879962818405 true
gene 1 8 12 -0.3260625223718349 false 8 -0.3260625223718349 true
gene 1 9 12 0.11899436785977582 false 9 0.11899436785977582 true
gene 1 10 12 0.3502460554638385 false 10 0.3502460554638385 true
gene 1 11 12 -0.8270980381310205 false 11 -0.8270980381310205 true
gene 1 12 13 -0.24294265885610597 false 12 -0.24294265885610597 true
gene 1 12 14 -0.5383489371269345 false 13 -0.5383489371269345 true
genomeend 30
/* Organism #235 Fitness: 2.533 Error: 0.881 */
genomestart 235
trait 1 0.1 0 0 0 0 0 0 0 
node 1 0 1 3
node 2 0 1 1
node 3 0 1 1
node 4 0 1 1
node 5 0 1 1
node 6 0 1 1
node 7 0 1 1
node 8 0 1 1
node 9 0 1 1
node 10 0 1 1
node 11 0 1 1
node 12 0 0 0
node 13 0 0 2
node 14 0 0 2
gene 1 1 12 0.9997232265170366 false 1 0.9997232265170366 true
gene 1 2 12 0 false 2 0 true
gene 1 3 12 -0.7212602338276204 false 3 -0.7212602338276204 true
gene 1 4 12 -0.763909905932764 false 4 -0.763909905932764 true
gene 1 5 12 0.9674956137845591 false 5 0.9674956137845591 true
gene 1 6 12 -0.6807627056643561 false 6 -0.6807627056643561 true
gene 1 7 12 0.8100700265389353 false 7 0.8100700265389353 true
gene 1 8 12 -0.8612855295063173 false 8 -0.8612855295063173 true
gene 1 9 12 0.5648975369210585 false 9 0.5648975369210585 true
gene 1 10 12 -0.07947959869563517 false 10 -0.07947959869563517 true
gene 1 11 12 -0.851660645887035 false 11 -0.851660645887035 true
gene 1 12 13 0.5102731015196548 false 12 0.5102731015196548 true
gene 1 12 14 -0.6888153748676337 false 13 -0.6888153748676337 true
genomeend 235
/* Organism #9 Fitness: 2.490 Error: 0.990 */
genomestart 9
trait 1 0.1 0 0 0 0 0 0 0 
node 1 0 1 3
node 2 0 1 1
node 3 0 1 1
node 4 0 1 1
node 5 0 1 1
node 6 0 1 1
node 7 0 1 1
node 8 0 1 1
node 9 0 1 1
node 10 0 1 1
node 11 0 1 1
node 12 0 0 0
node 13 0 0 2
node 14 0 0 2
gene 1 1 12 0.13937072160031133 false 1 0.13937072160031133 true
gene 1 2 12 0.659156391394543 false 2 0.659156391394543 true
gene 1 3 12 0.5062386712301893 false 3 0.5062386712301893 true
gene 1 4 12 -0.07263471394579327 false 4 -0.07263471394579327 true
gene 1 5 12 -0.06912936457256427 false 5 -0.06912936457256427 true
gene 1 6 12 -0.049585379540014844 false 6 -0.049585379540014844 true
gene 1 7 12 0.34708170417531814 false 7 0.34708170417531814 true
gene 1 8 12 -0.007289741113323958 false 8 -0.007289741113323958 true
gene 1 9 12 -0.7602704517698238 false 9 -0.7602704517698238 true
gene 1 10 12 0.8114828508033325 false 10 0.8114828508033325 true
gene 1 11 12 -0.5386429673410945 false 11 -0.5386429673410945 true
gene 1 12 13 0.023169647335776707 false 12 0.023169647335776707 true
gene 1 12 14 0.8391825284284786 false 13 0.8391825284284786 true
genomeend 9
/* Organism #165 Fitness: 2.471 Error: 0.941 */
genomestart 165
trait 1 0.1 0 0 0 0 0 0 0 
node 1 0 1 3
node 2 0 1 1
node 3 0 1 1
node 4 0 1 1
node 5 0 1 1
node 6 0 1 1
node 7 0 1 1
node 8 0 1 1
node 9 0 1 1
node 10 0 1 1
node 11 0 1 1
node 12 0 0 0
node 13 0 0 2
node 14 0 0 2
gene 1 1 12 -0.24636555799716636 false 1 -0.24636555799716636 true
gene 1 2 12 0.8208841026602631 false 2 0.8208841026602631 true
gene 1 3 12 0.8672676795114005 false 3 0.8672676795114005 true
gene 1 4 12 0 false 4 0 true
gene 1 5 12 0.2721546276227275 false 5 0.2721546276227275 true
gene 1 6 12 0.5511212977490154 false 6 0.5511212977490154 true
gene 1 7 12 0.9336810813049523 false 7 0.9336810813049523 true
gene 1 8 12 0.795367938687937 false 8 0.795367938687937 true
gene 1 9 12 -0.08120617377893136 false 9 -0.08120617377893136 true
gene 1 10 12 -0.9628802311970653 false 10 -0.9628802311970653 true
gene 1 11 12 0.21970954666222575 false 11 0.21970954666222575 true
gene 1 12 13 0.18046546259801133 false 12 0.18046546259801133 true
gene 1 12 14 -0.3964501833600385 false 13 -0.3964501833600385 true
genomeend 165
/* Organism #143 Fitness: 2.436 Error: 0.691 */
genomestart 143
trait 1 0.1 0 0 0 0 0 0 0 
node 1 0 1 3
node 2 0 1 1
node 3 0 1 1
node 4 0 1 1
node 5 0 1 1
node 6 0 1 1
node 7 0 1 1
node 8 0 1 1
node 9 0 1 1
node 10 0 1 1
node 11 0 1 1
node 12 0 0 0
node 13 0 0 2
node 14 0 0 2
gene 1 1 12 -0.33864285473211636 false 1 -0.33864285473211636 true
gene 1 2 12 0.7926520503146435 false 2 0.7926520503146435 true
gene 1 3 12 0.08997546891469486 false 3 0.08997546891469486 true
gene 1 4 12 0.843689044676967 false 4 0.843689044676967 true
gene 1 5 12 0.08113494783696738 false 5 0.08113494783696738 true
gene 1 6 12 -0.993187832832735 false 6 -0.993187832832735 true
gene 1 7 12 -0.2883362792804691 false 7 -0.2883362792804691 true
gene 1 8 12 0.2232230492791328 false 8 0.2232230492791328 true
gene 1 9 12 0.22027786323885765 false 9 0.22027786323885765 true
gene 1 10 12 0.946842789431996 false 10 0.946842789431996 true
gene 1 11 12 -0.5126813629641265 false 11 -0.5126813629641265 true
gene 1 12 13 -0.06389872079524911 false 12 -0.06389872079524911 true
gene 1 12 14 -0.11733389684039044 false 13 -0.11733389684039044 true
genomeend 143
/* Organism #157 Fitness: 2.433 Error: 0.915 */
genomestart 157
trait 1 0.1 0 0 0 0 0 0 0 
node 1 0 1 3
node 2 0 1 1
node 3 0 1 1
node 4 0 1 1
node 5 0 1 1
node 6 0 1 1
node 7 0 1 1
node 8 0 1 1
node 9 0 1 1
node 10 0 1 1
node 11 0 1 1
node 12 0 0 0
node 13 0 0 2
node 14 0 0 2
gene 1 1 12 0.3224329150849348 false 1 0.3224329150849348 true
gene 1 2 12 0.32600178407643726 false 2 0.32600178407643726 true
gene 1 3 12 -0.4358962051648423 false 3 -0.4358962051648423 true
gene 1 4 12 0.24103525621636537 false 4 0.24103525621636537 true
gene 1 5 12 0 false 5 0 true
gene 1 6 12 0 false 6 0 true
gene 1 7 12 0.9882371155662835 false 7 0.9882371155662835 true
gene 1 8 12 0.9647410155442885 false 8 0.9647410155442885 true
gene 1 9 12 -0.4004005351761925 false 9 -0.4004005351761925 true
gene 1 10 12 0.8704791929134256 false 10 0.8704791929134256 true
gene 1 11 12 -0.8354526163925674 false 11 -0.8354526163925674 true
gene 1 12 13 0.1584735097940609 false 12 0.1584735097940609 true
gene 1 12 14 -0.17975522813279404 false 13 -0.17975522813279404 true
genomeend 157
/* Organism #13 Fitness: 2.368 Error: 0.921 */
genomestart 13
trait 1 0.1 0 0 0 0 0 0 0 
node 1 0 1 3
node 2 0 1 1
node 3 0 1 1
node 4 0 1 1
node 5 0 1 1
node 6 0 1 1
node 7 0 1 1
node 8 0 1 1
node 9 0 1 1
node 10 0 1 1
node 11 0 1 1
node 12 0 0 0
node 13 0 0 2
node 14 0 0 2
gene 1 1 12 -0.3565202478296719 false 1 -0.3565202478296719 true
gene 1 2 12 -0.14381601038023228 false 2 -0.14381601038023228 true
gene 1 3 12 -0.3817344642374224 false 3 -0.3817344642374224 true
gene 1 4 12 0.963067310829066 false 4 0.963067310829066 true
gene 1 5 12 0.6847277744603726 false 5 0.6847277744603726 true
gene 1 6 12 0.19836513415690618 false 6 0.19836513415690618 true
gene 1 7 12 0.06293201277271168 false 7 0.06293201277271168 true
gene 1 8 12 0.8621462384029033 false 8 0.8621462384029033 true
gene 1 9 12 0.84558939010098 false 9 0.84558939010098 true
gene 1 10 12 0.4320687567337064 false 10 0.4320687567337064 true
gene 1 11 12 -0.8024413975880035 false 11 -0.8024413975880035 true
gene 1 12 13 0.1989214291568277 false 12 0.1989214291568277 true
gene 1 12 14 -0.44844465418072904 false 13 -0.44844465418072904 true
genomeend 13
/* Organism #174 Fitness: 2.367 Error: 0.919 */
genomestart 174
trait 1 0.1 0 0 0 0 0 0 0 
node 1 0 1 3
node 2 0 1 1
node 3 0 1 1
node 4 0 1 1
node 5 0 1 1
node 6 0 1 1
node 7 0 1 1
node 8 0 1 1
node 9 0 1 1
node 10 0 1 1
node 11 0 1 1
node 12 0 0 0
node 13 0 0 2
node 14 0 0 2
gene 1 1 12 0.8616512050740186 false 1 0.8616512050740186 true
gene 1 2 12 0.3285559713672762 false 2 0.3285559713672762 true
gene 1 3 12 -0.947311469158739 false 3 -0.947311469158739 true
gene 1 4 12 0.9391800793586731 false 4 0.9391800793586731 true
gene 1 5 12 0.3449454625327532 false 5 0.3449454625327532 true
gene 1 6 12 0.44289189075699736 false 6 0.44289189075699736 true
gene 1 7 12 -0.7418084024921533 false 7 -0.7418084024921533 true
gene 1 8 12 0.46776477365974867 false 8 0.46776477365974867 true
gene 1 9 12 -0.739848044671565 false 9 -0.739848044671565 true
gene 1 10 12 -0.5244641280517446 false 10 -0.5244641280517446 true
gene 1 11 12 -0.1877794791461824 false 11 -0.1877794791461824 true
gene 1 12 13 0.19223206472594295 false 12 0.19223206472594295 true
gene 1 12 14 -0.4343407873011706 false 13 -0.4343407873011706 true
genomeend 174
/* Organism #249 Fitness: 2.309 Error: 0.793 */
genomestart 249
trait 1 0.1 0 0 0 0 0 0 0 
node 1 0 1 3
node 2 0 1 1
node 3 0 1 1
node 4 0 1 1
node 5 0 1 1
node 6 0 1 1
node 7 0 1 1
node 8 0 1 1
node 9 0 1 1
node 10 0 1 1
node 11 0 1 1
node 12 0 0 0
node 13 0 0 2
node 14 0 0 2
gene 1 1 12 -0.7468522559931728 false 1 -0.7468522559931728 true
gene 1 2 12 0.3950287234693857 false 2 0.3950287234693857 true
gene 1 3 12 0 false 3 0 true
gene 1 4 12 0.8260462427763607 false 4 0.8260462427763607 true
gene 1 5 12 -0.27861178142473486 false 5 -0.27861178142473486 true
gene 1 6 12 0.660729598300565 false 6 0.660729598300565 true
gene 1 7 12 0.5656763877903579 false 7 0.5656763877903579 true
gene 1 8 12 0 false 8 0 true
gene 1 9 12 -0.3076302442052496 false 9 -0.3076302442052496 true
gene 1 10 12 -0.26749279731791153 false 10 -0.26749279731791153 true
gene 1 11 12 0.5228639570561122 false 11 0.5228639570561122 true
gene 1 12 13 0.5721913075528896 false 12 0.5721913075528896 true
gene 1 12 14 0.024217547890788362 false 13 0.024217547890788362 true
genomeend 249
/* Organism #38 Fitness: 2.245 Error: 0.906 */
genomestart 38
trait 1 0.1 0 0 0 0 0 0 0 
node 1 0 1 3
node 2 0 1 1
node 3 0 1 1
node 4 0 1 1
node 5 0 1 1
node 6 0 1 1
node 7 0 1 1
node 8 0 1 1
node 9 0 1 1
node 10 0 1 1
node 11 0 1 1
node 12 0 0 0
node 13 0 0 2
node 14 0 0 2
gene 1 1 12 0.7307975460508005 false 1 0.7307975460508005 true
gene 1 2 12 0.2469126560102023 false 2 0.2469126560102023 true
gene 1 3 12 -0.3550776886463412 false 3 -0.3550776886463412 true
gene 1 4 12 0.8135644139507318 false 4 0.8135644139507318 true
gene 1 5 12 0.9133662700089487 false 5 0.9133662700089487 true
gene 1 6 12 0.8060624144407358 false 6 0.8060624144407358 true
gene 1 7 12 0.42709913306110225 false 7 0.42709913306110225 true
gene 1 8 12 -0.9290898722922273 false 8 -0.9290898722922273 true
gene 1 9 12 0.6442873100890938 false 9 0.6442873100890938 true
gene 1 10 12 -0.7463972530198205 false 10 -0.7463972530198205 true
gene 1 11 12 0.9468483033153612 false 11 0.9468483033153612 true
gene 1 12 13 0.22416586195222518 false 12 0.22416586195222518 true
gene 1 12 14 -0.5764908146356331 false 13 -0.5764908146356331 true
genomeend 38
/* Organism #28 Fitness: 2.235 Error: 0.990 */
genomestart 28
trait 1 0.1 0 0 0 0 0 0 0 
node 1 0 1 3
node 2 0 1 1
node 3 0 1 1
node 4 0 1 1
node 5 0 1 1
node 6 0 1 1
node 7 0 1 1
node 8 0 1 1
node 9 0 1 1
node 10 0 1 1
node 11 0 1 1
node 12 0 0 0
node 13 0 0 2
node 14 0 0 2
gene 1 1 12 0.4138683944524101 false 1 0.4138683944524101 true
gene 1 2 12 -0.6316757711886465 false 2 -0.6316757711886465 true
gene 1 3 12 -0.2522832095551747 false 3 -0.2522832095551747 true
gene 1 4 12 -0.6605445840557761 false 4 -0.6605445840557761 true
gene 1 5 12 0.8584260930456754 false 5 0.8584260930456754 true
gene 1 6 12 -0.7370321612971711 false 6 -0.7370321612971711 true
gene 1 7 12 -0.49083435109475293 false 7 -0.49083435109475293 true
gene 1 8 12 0.4069145993671476 false 8 0.4069145993671476 true
gene 1 9 12 0.14671774937783819 false 9 0.14671774937783819 true
gene 1 10 12 -0.7419030157048034 false 10 -0.7419030157048034 true
gene 1 11 12 -0.2873290629949247 false 11 -0.2873290629949247 true
gene 1 12 13 0 false 12 0 true
gene 1 12 14 0.0700173719332247 false 13 0.0700173719332247 true
genomeend 28
/* Organism #24 Fitness: 2.220 Error: 0.905 */
genomestart 24
trait 1 0.1 0 0 0 0 0 0 0 
node 1 0 1 3
node 2 0 1 1
node 3 0 1 1
node 4 0 1 1
node 5 0 1 1
node 6 0 1 1
node 7 0 1 1
node 8 0 1 1
node 9 0 1 1
node 10 0 1 1
node 11 0 1 1
node 12 0 0 0
node 13 0 0 2
node 14 0 0 2
gene 1 1 12 -0.30775636547460217 false 1 -0.30775636547460217 true
gene 1 2 12 0.6042296525148424 false 2 0.6042296525148424 true
gene 1 3 12 0.6666318090761264 false 3 0.6666318090761264 true
gene 1 4 12 -0.571518196155031 false 4 -0.571518196155031 true
gene 1 5 12 -0.8531355161235512 false 5 -0.8531355161235512 true
gene 1 6 12 -0.8704070902583306 false 6 -0.8704070902583306 true
gene 1 7 12 0.9022637017369012 false 7 0.9022637017369012 true
gene 1 8 12 -0.20891309237502473 false 8 -0.20891309237502473 true
gene 1 9 12 -0.45225452389346094 false 9 -0.45225452389346094 true
gene 1 10 12 -0.3026215348318044 false 10 -0.3026215348318044 true
gene 1 11 12 0.5794988149583782 false 11 0.5794988149583782 true
gene 1 12 13 0.8178179928930419 false 12 0.8178179928930419 true
gene 1 12 14 -0.27317799297923967 false 13 -0.27317799297923967 true
genomeend 24
/* Organism #101 Fitness: 2.213 Error: 0.799 */
genomestart 101
trait 1 0.1 0 0 0 0 0 0 0 
node 1 0 1 3
node 2 0 1 1
node 3 0 1 1
node 4 0 1 1
node 5 0 1 1
node 6 0 1 1
node 7 0 1 1
node 8 0 1 1
node 9 0 1 1
node 10 0 1 1
node 11 0 1 1
node 12 0 0 0
node 13 0 0 2
node 14 0 0 2
gene 1 1 12 0.3188345264230228 false 1 0.3188345264230228 true
gene 1 2 12 0.06274892903576822 false 2 0.06274892903576822 true
gene 1 3 12 0.30770794121357603 false 3 0.30770794121357603 true
gene 1 4 12 -0.4784710932871627 false 4 -0.4784710932871627 true
gene 1 5 12 0.38953865658014103 false 5 0.38953865658014103 true
gene 1 6 12 -0.94197712827012 false 6 -0.94197712827012 true
gene 1 7 12 -0.2223292867478546 false 7 -0.2223292867478546 true
gene 1 8 12 0.5023028479368705 false 8 0.5023028479368705 true
gene 1 9 12 0.6368489327821631 false 9 0.6368489327821631 true
gene 1 10 12 -0.22335347332765823 false 10 -0.22335347332765823 true
gene 1 11 12 -0.5003861500994554 false 11 -0.5003861500994554 true
gene 1 12 13 -0.5017586373993805 false 12 -0.5017586373993805 true
gene 1 12 14 -0.9198030261347104 false 13 -0.9198030261347104 true
genomeend 101
/* Organism #94 Fitness: 2.172 Error: 0.692 */
genomestart 94
trait 1 0.1 0 0 0 0 0 0 0 
node 1 0 1 3
node 2 0 1 1
node 3 0 1 1
node 4 0 1 1
node 5 0 1 1
node 6 0 1 1
node 7 0 1 1
node 8 0 1 1
node 9 0 1 1
node 10 0 1 1
node 11 0 1 1
node 12 0 0 0
node 13 0 0 2
node 14 0 0 2
gene 1 1 12 0.23866275788791297 false 1 0.23866275788791297 true
gene 1 2 12 -0.9380460236387075 false 2 -0.9380460236387075 true
gene 1 3 12 0.012141066618782621 false 3 0.012141066618782621 true
gene 1 4 12 -0.7102180222374341 false 4 -0.7102180222374341 true
gene 1 5 12 0.24391579136743127 false 5 0.24391579136743127 true
gene 1 6 12 0.32464520246440454 false 6 0.32464520246440454 true
gene 1 7 12 -0.5066797828282513 false 7 -0.5066797828282513 true
gene 1 8 12 0 false 8 0 true
gene 1 9 12 -0.5257809843873976 false 9 -0.5257809843873976 true
gene 1 10 12 -0.25213424112163746 false 10 -0.25213424112163746 true
gene 1 11 12 0.5914064022660916 false 11 0.5914064022660916 true
gene 1 12 13 0.8505856315249121 false 12 0.8505856315249121 true
gene 1 12 14 0.16182787456533365 false 13 0.16182787456533365 true
genomeend 94
/* Organism #88 Fitness: 2.144 Error: 0.802 */
genomestart 88
trait 1 0.1 0 0 0 0 0 0 0 
node 1 0 1 3
node 2 0 1 1
node 3 0 1 1
node 4 0 1 1
node 5 0 1 1
node 6 0 1 1
node 7 0 1 1
node 8 0 1 1
node 9 0 1 1
node 10 0 1 1
node 11 0 1 1
node 12 0 0 0
node 13 0 0 2
node 14 0 0 2
gene 1 1 12 -0.4844930327119175 false 1 -0.4844930327119175 true
gene 1 2 12 -0.35247430943536673 false 2 -0.35247430943536673 true
gene 1 3 12 0 false 3 0 true
gene 1 4 12 -0.702692240661478 false 4 -0.702692240661478 true
gene 1 5 12 0.4476810645287567 false 5 0.4476810645287567 true
gene 1 6 12 0 false 6 0 true
gene 1 7 12 -0.592960774275958 false 7 -0.592960774275958 true
gene 1 8 12 -0.9569803101798321 false 8 -0.9569803101798321 true
gene 1 9 12 0.22690384304912917 false 9 0.22690384304912917 true
gene 1 10 12 0.9907922645548786 false 10 0.9907922645548786 true
gene 1 11 12 -0.8756233605169302 false 11 -0.8756233605169302 true
gene 1 12 13 -0.7254510547429412 false 12 -0.7254510547429412 true
gene 1 12 14 -0.5095414548413634 false 13 -0.5095414548413634 true
genomeend 88
/* Organism #172 Fitness: 2.112 Error: 0.807 */
genomestart 172
trait 1 0.1 0 0 0 0 0 0 0 
node 1 0 1 3
node 2 0 1 1
node 3 0 1 1
node 4 0 1 1
node 5 0 1 1
node 6 0 1 1
node 7 0 1 1
node 8 0 1 1
node 9 0 1 1
node 10 0 1 1
node 11 0 1 1
node 12 0 0 0
node 13 0 0 2
node 14 0 0 2
gene 1 1 12 0 false 1 0 true
gene 1 2 12 -0.6455431642835647 false 2 -0.6455431642835647 true
gene 1 3 12 -0.39931692720864226 false 3 -0.39931692720864226 true
gene 1 4 12 0.6081291677361719 false 4 0.6081291677361719 true
gene 1 5 12 0 false 5 0 true
gene 1 6 12 -0.5972801568457025 false 6 -0.5972801568457025 true
gene 1 7 12 -0.07104220223948336 false 7 -0.07104220223948336 true
gene 1 8 12 0 false 8 0 true
gene 1 9 12 0.7486294373098545 false 9 0.7486294373098545 true
gene 1 10 12 0.47173607507863696 false 10 0.47173607507863696 true
gene 1 11 12 0.3346688767729787 false 11 0.3346688767729787 true
gene 1 12 13 -0.8428420542509605 false 12 -0.8428420542509605 true
gene 1 12 14 -0.5059441024967564 false 13 -0.5059441024967564 true
genomeend 172
/* Organism #168 Fitness: 2.101 Error: 0.871 */
genomestart 168
trait 1 0.1 0 0 0 0 0 0 0 
node 1 0 1 3
node 2 0 1 1
node 3 0 1 1
node 4 0 1 1
node 5 0 1 1
node 6 0 1 1
node 7 0 1 1
node 8 0 1 1
node 9 0 1 1
node 10 0 1 1
node 11 0 1 1
node 12 0 0 0
node 13 0 0 2
node 14 0 0 2
gene 1 1 12 0.12705513997289233 false 1 0.12705513997289233 true
gene 1 2 12 0.7214487375473377 false 2 0.7214487375473377 true
gene 1 3 12 -0.1569247928913301 false 3 -0.1569247928913301 true
gene 1 4 12 0.4722156977683397 false 4 0.4722156977683397 true
gene 1 5 12 -0.8648383421465222 false 5 -0.8648383421465222 true
gene 1 6 12 0 false 6 0 true
gene 1 7 12 0.25613534712169966 false 7 0.25613534712169966 true
gene 1 8 12 -0.763223427625233 false 8 -0.763223427625233 true
gene 1 9 12 -0.1157966578358987 false 9 -0.1157966578358987 true
gene 1 10 12 0.49133706553889306 false 10 0.49133706553889306 true
gene 1 11 12 -0.26106963071032774 false 11 -0.26106963071032774 true
gene 1 12 13 0.3235239283044627 false 12 0.3235239283044627 true
gene 1 12 14 -0.1532815900792652 false 13 -0.1532815900792652 true
genomeend 168
/* Organism #69 Fitness: 2.092 Error: 0.727 */
genomestart 69
trait 1 0.1 0 0 0 0 0 0 0 
node 1 0 1 3
node 2 0 1 1
node 3 0 1 1
node 4 0 1 1
node 5 0 1 1
node 6 0 1 1
node 7 0 1 1
node 8 0 1 1
node 9 0 1 1
node 10 0 1 1
node 11 0 1 1
node 12 0 0 0
node 13 0 0 2
node 14 0 0 2
gene 1 1 12 -0.9735375676295451 false 1 -0.9735375676295451 true
gene 1 2 12 -0.8704366885865461 false 2 -0.8704366885865461 true
gene 1 3 12 0 false 3 0 true
gene 1 4 12 0.654365929917345 false 4 0.654365929917345 true
gene 1 5 12 0.24823413675838502 false 5 0.24823413675838502 true
gene 1 6 12 0.781239505235107 false 6 0.781239505235107 true
gene 1 7 12 0 false 7 0 true
gene 1 8 12 -0.784537028635531 false 8 -0.784537028635531 true
gene 1 9 12 0 false 9 0 true
gene 1 10 12 0 false 10 0 true
gene 1 11 12 0.6877437717989294 false 11 0.6877437717989294 true
gene 1 12 13 -0.23591970930055273 false 12 -0.23591970930055273 true
gene 1 12 14 -0.9967274873665385 false 13 -0.9967274873665385 true
genomeend 69
/* Organism #151 Fitness: 2.087 Error: 0.747 */
genomestart 151
trait 1 0.1 0 0 0 0 0 0 0 
node 1 0 1 3
node 2 0 1 1
node 3 0 1 1
node 4 0 1 1
node 5 0 1 1
node 6 0 1 1
node 7 0 1 1
node 8 0 1 1
node 9 0 1 1
node 10 0 1 1
node 11 0 1 1
node 12 0 0 0
node 13 0 0 2
node 14 0 0 2
gene 1 1 12 -0.7875177898520437 false 1 -0.7875177898520437 true
gene 1 2 12 0.37366500407863007 false 2 0.37366500407863007 true
gene 1 3 12 0.7539077532334648 false 3 0.7539077532334648 true
gene 1 4 12 -0.3670749491940866 false 4 -0.3670749491940866 true
gene 1 5 12 -0.653931980799057 false 5 -0.653931980799057 true
gene 1 6 12 -0.6785645763200066 false 6 -0.6785645763200066 true
gene 1 7 12 -0.10572392083757963 false 7 -0.10572392083757963 true
gene 1 8 12 0.6395113628192621 false 8 0.6395113628192621 true
gene 1 9 12 0.06798824714408822 false 9 0.06798824714408822 true
gene 1 10 12 0.7572454045149192 false 10 0.7572454045149192 true
gene 1 11 12 -0.5956979808791508 false 11 -0.5956979808791508 true
gene 1 12 13 -0.2001020524093142 false 12 -0.2001020524093142 true
gene 1 12 14 -0.3701430020887108 false 13 -0.3701430020887108 true
genomeend 151
/* Organism #191 Fitness: 2.079 Error: 0.990 */
genomestart 191
trait 1 0.1 0 0 0 0 0 0 0 
node 1 0 1 3
node 2 0 1 1
node 3 0 1 1
node 4 0 1 1
node 5 0 1 1
node 6 0 1 1
node 7 0 1 1
node 8 0 1 1
node 9 0 1 1
node 10 0 1 1
node 11 0 1 1
node 12 0 0 0
node 13 0 0 2
node 14 0 0 2
gene 1 1 12 -0.5540385051272473 false 1 -0.5540385051272473 true
gene 1 2 12 -0.8924151770469149 false 2 -0.8924151770469149 true
gene 1 3 12 -0.8511414426043499 false 3 -0.8511414426043499 true
gene 1 4 12 0.26118319817925245 false 4 0.26118319817925245 true
gene 1 5 12 0.5378647114096826 false 5 0.5378647114096826 true
gene 1 6 12 0.33954649032832285 false 6 0.33954649032832285 true
gene 1 7 12 -0.261313950156821 false 7 -0.261313950156821 true
gene 1 8 12 0.10569865208624368 false 8 0.10569865208624368 true
gene 1 9 12 -0.8782942209574244 false 9 -0.8782942209574244 true
gene 1 10 12 -0.1086398236758447 false 10 -0.1086398236758447 true
gene 1 11 12 -0.541549637663866 false 11 -0.541549637663866 true
gene 1 12 13 0.4592888747781559 false 12 0.4592888747781559 true
gene 1 12 14 0.7009004964411967 false 13 0.7009004964411967 true
genomeend 191
/* Organism #136 Fitness: 2.078 Error: 0.843 */
genomestart 136
trait 1 0.1 0 0 0 0 0 0 0 
node 1 0 1 3
node 2 0 1 1
node 3 0 1 1
node 4 0 1 1
node 5 0 1 1
node 6 0 1 1
node 7 0 1 1
node 8 0 1 1
node 9 0 1 1
node 10 0 1 1
node 11 0 1 1
node 12 0 0 0
node 13 0 0 2
node 14 0 0 2
gene 1 1 12 -0.3801407172927951 false 1 -0.3801407172927951 true
gene 1 2 12 -0.8532475741167759 false 2 -0.8532475741167759 true
gene 1 3 12 0.9737228478185453 false 3 0.9737228478185453 true
gene 1 4 12 0.5220430373822581 false 4 0.5220430373822581 true
gene 1 5 12 -0.08689956931033205 false 5 -0.08689956931033205 true
gene 1 6 12 0.8567729179567312 false 6 0.8567729179567312 true
gene 1 7 12 0.5738348533550521 false 7 0.5738348533550521 true
gene 1 8 12 -0.4834008323258707 false 8 -0.4834008323258707 true
gene 1 9 12 -0.9776581180397469 false 9 -0.9776581180397469 true
gene 1 10 12 0.5873434222003916 false 10 0.5873434222003916 true
gene 1 11 12 0.6336484461725557 false 11 0.6336484461725557 true
gene 1 12 13 -0.2794791159279473 false 12 -0.2794791159279473 true
gene 1 12 14 -0.004481033932228661 false 13 -0.004481033932228661 true
genomeend 136
/* Organism #0 Fitness: 2.065 Error: 0.990 */
genomestart 0
trait 1 0.1 0 0 0 0 0 0 0 
node 1 0 1 3
node 2 0 1 1
node 3 0 1 1
node 4 0 1 1
node 5 0 1 1
node 6 0 1 1
node 7 0 1 1
node 8 0 1 1
node 9 0 1 1
node 10 0 1 1
node 11 0 1 1
node 12 0 0 0
node 13 0 0 2
node 14 0 0 2
gene 1 1 12 0.4318707724081077 false 1 0.4318707724081077 true
gene 1 2 12 0.4647473201310435 false 2 0.4647473201310435 true
gene 1 3 12 0.5224604677374188 false 3 0.5224604677374188 true
gene 1 4 12 0 false 4 0 true
gene 1 5 12 0.7273576647494585 false 5 0.7273576647494585 true
gene 1 6 12 0.5834664008636774 false 6 0.5834664008636774 true
gene 1 7 12 -0.8848702620094658 false 7 -0.8848702620094658 true
gene 1 8 12 -0.1234161713199014 false 8 -0.1234161713199014 true
gene 1 9 12 -0.3004359400690881 false 9 -0.3004359400690881 true
gene 1 10 12 0.7071424599058768 false 10 0.7071424599058768 true
gene 1 11 12 0.08410841235272092 false 11 0.08410841235272092 true
gene 1 12 13 0.014698414840907184 false 12 0.014698414840907184 true
gene 1 12 14 0.7790712070917921 false 13 0.7790712070917921 true
genomeend 0
/* Organism #64 Fitness: 2.054 Error: 0.799 */
genomestart 64
trait 1 0.1 0 0 0 0 0 0 0 
node 1 0 1 3
node 2 0 1 1
node 3 0 1 1
node 4 0 1 1
node 5 0 1 1
node 6 0 1 1
node 7 0 1 1
node 8 0 1 1
node 9 0 1 1
node 10 0 1 1
node 11 0 1 1
node 12 0 0 0
node 13 0 0 2
node 14 0 0 2
gene 1 1 12 0.45118691112527437 false 1 0.45118691112527437 true
gene 1 2 12 0.4631775519390003 false 2 0.4631775519390003 true
gene 1 3 12 -0.3274324855093631 false 3 -0.3274324855093631 true
gene 1 4 12 0.8670502069611479 false 4 0.8670502069611479 true
gene 1 5 12 0.3410454992608622 false 5 0.3410454992608622 true
gene 1 6 12 -0.7923794901661033 false 6 -0.7923794901661033 true
gene 1 7 12 -0.5221271079300014 false 7 -0.5221271079300014 true
gene 1 8 12 0.2563114030977411 false 8 0.2563114030977411 true
gene 1 9 12 -0.6917530628142431 false 9 -0.6917530628142431 true
gene 1 10 12 -0.7987686576712063 false 10 -0.7987686576712063 true
gene 1 11 12 0.27216217484618604 false 11 0.27216217484618604 true
gene 1 12 13 0.2960485743941725 false 12 0.2960485743941725 true
gene 1 12 14 0.5216259523855694 false 13 0.5216259523855694 true
genomeend 64
/* Organism #135 Fitness: 2.031 Error: 0.807 */
genomestart 135
trait 1 0.1 0 0 0 0 0 0 0 
node 1 0 1 3
node 2 0 1 1
node 3 0 1 1
node 4 0 1 1
node 5 0 1 1
node 6 0 1 1
node 7 0 1 1
node 8 0 1 1
node 9 0 1 1
node 10 0 1 1
node 11 0 1 1
node 12 0 0 0
node 13 0 0 2
node 14 0 0 2
gene 1 1 12 -0.21192811299099887 false 1 -0.21192811299099887 true
gene 1 2 12 0 false 2 0 true
gene 1 3 12 0.788280244748306 false 3 0.788280244748306 true
gene 1 4 12 0.2685426955832036 false 4 0.2685426955832036 true
gene 1 5 12 0.6105065616849543 false 5 0.6105065616849543 true
gene 1 6 12 -0.16663170505682193 false 6 -0.16663170505682193 true
gene 1 7 12 0.8165858409956497 false 7 0.8165858409956497 true
gene 1 8 12 0.5348768226701355 false 8 0.5348768226701355 true
gene 1 9 12 -0.9718952421922361 false 9 -0.9718952421922361 true
gene 1 10 12 0 false 10 0 true
gene 1 11 12 -0.21540133512180842 false 11 -0.21540133512180842 true
gene 1 12 13 -0.3070690240754095 false 12 -0.3070690240754095 true
gene 1 12 14 -0.49745283729119916 false 13 -0.49745283729119916 true
genomeend 135
/* Organism #147 Fitness: 2.028 Error: 0.990 */
genomestart 147
trait 1 0.1 0 0 0 0 0 0 0 
node 1 0 1 3
node 2 0 1 1
node 3 0 1 1
node 4 0 1 1
node 5 0 1 1
node 6 0 1 1
node 7 0 1 1
node 8 0 1 1
node 9 0 1 1
node 10 0 1 1
node 11 0 1 1
node 12 0 0 0
node 13 0 0 2
node 14 0 0 2
gene 1 1 12 -0.8355979279608567 false 1 -0.8355979279608567 true
gene 1 2 12 0.23040394775669693 false 2 0.23040394775669693 true
gene 1 3 12 0.3372772729334806 false 3 0.3372772729334806 true
gene 1 4 12 0.7369781002893235 false 4 0.7369781002893235 true
gene 1 5 12 -0.21050461013403274 false 5 -0.21050461013403274 true
gene 1 6 12 -0.9062547557958684 false 6 -0.9062547557958684 true
gene 1 7 12 -0.3039619644470112 false 7 -0.3039619644470112 true
gene 1 8 12 0.6466566034739247 false 8 0.6466566034739247 true
gene 1 9 12 0.2856677665202316 false 9 0.2856677665202316 true
gene 1 10 12 -0.33760824732947436 false 10 -0.33760824732947436 true
gene 1 11 12 0.6410778013625779 false 11 0.6410778013625779 true
gene 1 12 13 0.9205780788046363 false 12 0.9205780788046363 true
gene 1 12 14 -0.06329953363910527 false 13 -0.06329953363910527 true
genomeend 147
/* Organism #188 Fitness: 2.027 Error: 0.962 */
genomestart 188
trait 1 0.1 0 0 0 0 0 0 0 
node 1 0 1 3
node 2 0 1 1
node 3 0 1 1
node 4 0 1 1
node 5 0 1 1
node 6 0 1 1
node 7 0 1 1
node 8 0 1 1
node 9 0 1 1
node 10 0 1 1
node 11 0 1 1
node 12 0 0 0
node 13 0 0 2
node 14 0 0 2
gene 1 1 12 0.6713174257961642 false 1 0.6713174257961642 true
gene 1 2 12 -0.710097715375793 false 2 -0.710097715375793 true
gene 1 3 12 -0.005623901369849379 false 3 -0.005623901369849379 true
gene 1 4 12 -0.48850541793374125 false 4 -0.48850541793374125 true
gene 1 5 12 0.3942769730215124 false 5 0.3942769730215124 true
gene 1 6 12 0 false 6 0 true
gene 1 7 12 0.13258045879648792 false 7 0.13258045879648792 true
gene 1 8 12 0.011238787548262897 false 8 0.011238787548262897 true
gene 1 9 12 -0.9644976052665004 false 9 -0.9644976052665004 true
gene 1 10 12 -0.3744519470678645 false 10 -0.3744519470678645 true
gene 1 11 12 -0.7971229623100505 false 11 -0.7971229623100505 true
gene 1 12 13 0.8696115823283852 false 12 0.8696115823283852 true
gene 1 12 14 -0.8735241536003967 false 13 -0.8735241536003967 true
genomeend 188
/* Organism #142 Fitness: 1.913 Error: 0.730 */
genomestart 142
trait 1 0.1 0 0 0 0 0 0 0 
node 1 0 1 3
node 2 0 1 1
node 3 0 1 1
node 4 0 1 1
node 5 0 1 1
node 6 0 1 1
node 7 0 1 1
node 8 0 1 1
node 9 0 1 1
node 10 0 1 1
node 11 0 1 1
node 12 0 0 0
node 13 0 0 2
node 14 0 0 2
gene 1 1 12 -0.6548904539161724 false 1 -0.6548904539161724 true
gene 1 2 12 0.479006071242956 false 2 0.479006071242956 true
gene 1 3 12 0.40203647005258464 false 3 0.40203647005258464 true
gene 1 4 12 -0.5521938453734774 false 4 -0.5521938453734774 true
gene 1 5 12 0.08051793915448413 false 5 0.08051793915448413 true
gene 1 6 12 0.10267031793405235 false 6 0.10267031793405235 true
gene 1 7 12 -0.5731278814806091 false 7 -0.5731278814806091 true
gene 1 8 12 -0.09353005748426785 false 8 -0.09353005748426785 true
gene 1 9 12 0.04680871076116672 false 9 0.04680871076116672 true
gene 1 10 12 0.34239190504859884 false 10 0.34239190504859884 true
gene 1 11 12 -0.7871175965670791 false 11 -0.7871175965670791 true
gene 1 12 13 0.15279484752174505 false 12 0.15279484752174505 true
gene 1 12 14 0.2510064924315858 false 13 0.2510064924315858 true
genomeend 142
/* Organism #22 Fitness: 1.890 Error: 0.869 */
genomestart 22
trait 1 0.1 0 0 0 0 0 0 0 
node 1 0 1 3
node 2 0 1 1
node 3 0 1 1
node 4 0 1 1
node 5 0 1 1
node 6 0 1 1
node 7 0 1 1
node 8 0 1 1
node 9 0 1 1
node 10 0 1 1
node 11 0 1 1
node 12 0 0 0
node 13 0 0 2
node 14 0 0 2
gene 1 1 12 0.5881670541026434 false 1 0.5881670541026434 true
gene 1 2 12 -0.03642382921085016 false 2 -0.03642382921085016 true
gene 1 3 12 0.14576562235956483 false 3 0.14576562235956483 true
gene 1 4 12 -0.9649047257358498 false 4 -0.9649047257358498 true
gene 1 5 12 -0.07187150397849286 false 5 -0.07187150397849286 true
gene 1 6 12 -0.11364449197583906 false 6 -0.11364449197583906 true
gene 1 7 12 0.7829139623240908 false 7 0.7829139623240908 true
gene 1 8 12 0.003071272629490665 false 8 0.003071272629490665 true
gene 1 9 12 0 false 9 0 true
gene 1 10 12 0.8720410861656168 false 10 0.8720410861656168 true
gene 1 11 12 -0.5631780580734675 false 11 -0.5631780580734675 true
gene 1 12 13 0.4414465802761629 false 12 0.4414465802761629 true
gene 1 12 14 -0.4937897934266942 false 13 -0.4937897934266942 true
genomeend 22
/* Organism #114 Fitness: 1.889 Error: 0.837 */
genomestart 114
trait 1 0.1 0 0 0 0 0 0 0 
node 1 0 1 3
node 2 0 1 1
node 3 0 1 1
node 4 0 1 1
node 5 0 1 1
node 6 0 1 1
node 7 0 1 1
node 8 0 1 1
node 9 0 1 1
node 10 0 1 1
node 11 0 1 1
node 12 0 0 0
node 13 0 0 2
node 14 0 0 2
gene 1 1 12 -0.22658677348653883 false 1 -0.22658677348653883 true
gene 1 2 12 0.7836075493041202 false 2 0.7836075493041202 true
gene 1 3 12 -0.3235867531665491 false 3 -0.3235867531665491 true
gene 1 4 12 0.09740355697653678 false 4 0.09740355697653678 true
gene 1 5 12 -0.5912479425668062 false 5 -0.5912479425668062 true
gene 1 6 12 -0.10427609247603097 false 6 -0.10427609247603097 true
gene 1 7 12 -0.9178452694148044 false 7 -0.9178452694148044 true
gene 1 8 12 -0.4316545239014428 false 8 -0.4316545239014428 true
gene 1 9 12 -0.42457345578596517 false 9 -0.42457345578596517 true
gene 1 10 12 0.4545469855536336 false 10 0.4545469855536336 true
gene 1 11 12 0.3714989264073602 false 11 0.3714989264073602 true
gene 1 12 13 0.3083125965845576 false 12 0.3083125965845576 true
gene 1 12 14 0.013386926737102851 false 13 0.013386926737102851 true
genomeend 114
/* Organism #39 Fitness: 1.860 Error: 0.792 */
genomestart 39
trait 1 0.1 0 0 0 0 0 0 0 
node 1 0 1 3
node 2 0 1 1
node 3 0 1 1
node 4 0 1 1
node 5 0 1 1
node 6 0 1 1
node 7 0 1 1
node 8 0 1 1
node 9 0 1 1
node 10 0 1 1
node 11 0 1 1
node 12 0 0 0
node 13 0 0 2
node 14 0 0 2
gene 1 1 12 0 false 1 0 true
gene 1 2 12 0.42261213481756454 false 2 0.42261213481756454 true
gene 1 3 12 0.8435309876459172 false 3 0.8435309876459172 true
gene 1 4 12 0.6977740050788054 false 4 0.6977740050788054 true
gene 1 5 12 -0.8341268306496457 false 5 -0.8341268306496457 true
gene 1 6 12 0.2812962620712444 false 6 0.2812962620712444 true
gene 1 7 12 -0.7012357352120431 false 7 -0.7012357352120431 true
gene 1 8 12 0.7347879040110586 false 8 0.7347879040110586 true
gene 1 9 12 0.22215493533168498 false 9 0.22215493533168498 true
gene 1 10 12 -0.4876772693594028 false 10 -0.4876772693594028 true
gene 1 11 12 0.7444111090975774 false 11 0.7444111090975774 true
gene 1 12 13 0.3990922913096926 false 12 0.3990922913096926 true
gene 1 12 14 0.030292626284439874 false 13 0.030292626284439874 true
genomeend 39
/* Organism #99 Fitness: 1.853 Error: 0.871 */
genomestart 99
trait 1 0.1 0 0 0 0 0 0 0 
node 1 0 1 3
node 2 0 1 1
node 3 0 1 1
node 4 0 1 1
node 5 0 1 1
node 6 0 1 1
node 7 0 1 1
node 8 0 1 1
node 9 0 1 1
node 10 0 1 1
node 11 0 1 1
node 12 0 0 0
node 13 0 0 2
node 14 0 0 2
gene 1 1 12 0.6296695202502303 false 1 0.6296695202502303 true
gene 1 2 12 0.7275689387745892 false 2 0.7275689387745892 true
gene 1 3 12 -0.12191334432214994 false 3 -0.12191334432214994 true
gene 1 4 12 0.09953223787678575 false 4 0.09953223787678575 true
gene 1 5 12 0.79984094791516 false 5 0.79984094791516 true
gene 1 6 12 -0.11908291283306939 false 6 -0.11908291283306939 true
gene 1 7 12 0.9603150234944657 false 7 0.9603150234944657 true
gene 1 8 12 0.08514995818596974 false 8 0.08514995818596974 true
gene 1 9 12 -0.7849991520610612 false 9 -0.7849991520610612 true
gene 1 10 12 -0.9929627431874787 false 10 -0.9929627431874787 true
gene 1 11 12 -0.05415504487645359 false 11 -0.05415504487645359 true
gene 1 12 13 0.7584324839385512 false 12 0.7584324839385512 true
gene 1 12 14 0.7554442541914195 false 13 0.7554442541914195 true
genomeend 99
/* Organism #200 Fitness: 1.851 Error: 0.743 */
genomestart 200
trait 1 0.1 0 0 0 0 0 0 0 
node 1 0 1 3
node 2 0 1 1
node 3 0 1 1
node 4 0 1 1
node 5 0 1 1
node 6 0 1 1
node 7 0 1 1
node 8 0 1 1
node 9 0 1 1
node 10 0 1 1
node 11 0 1 1
node 12 0 0 0
node 13 0 0 2
node 14 0 0 2
gene 1 1 12 0.31854115334185396 false 1 0.31854115334185396 true
gene 1 2 12 -0.010738625345912321 false 2 -0.010738625345912321 true
gene 1 3 12 -0.03922936924933217 false 3 -0.03922936924933217 true
gene 1 4 12 -0.2531998421796928 false 4 -0.2531998421796928 true
gene 1 5 12 0.8932880669393117 false 5 0.8932880669393117 true
gene 1 6 12 0.002528026926511232 false 6 0.002528026926511232 true
gene 1 7 12 -0.8724960112529532 false 7 -0.8724960112529532 true
gene 1 8 12 0.9434102672579204 false 8 0.9434102672579204 true
gene 1 9 12 0.554470740402017 false 9 0.554470740402017 true
gene 1 10 12 0.5137496504433383 false 10 0.5137496504433383 true
gene 1 11 12 -0.2667817634183625 false 11 -0.2667817634183625 true
gene 1 12 13 -0.14293043264855432 false 12 -0.14293043264855432 true
gene 1 12 14 -0.27306272141995 false 13 -0.27306272141995 true
genomeend 200
/* Organism #62 Fitness: 1.811 Error: 0.729 */
genomestart 62
trait 1 0.1 0 0 0 0 0 0 0 
node 1 0 1 3
node 2 0 1 1
node 3 0 1 1
node 4 0 1 1
node 5 0 1 1
node 6 0 1 1
node 7 0 1 1
node 8 0 1 1
node 9 0 1 1
node 10 0 1 1
node 11 0 1 1
node 12 0 0 0
node 13 0 0 2
node 14 0 0 2
gene 1 1 12 0.6788837587624416 false 1 0.6788837587624416 true
gene 1 2 12 -0.5943258849134546 false 2 -0.5943258849134546 true
gene 1 3 12 0.7762760746262284 false 3 0.7762760746262284 true
gene 1 4 12 -0.4723431582037026 false 4 -0.4723431582037026 true
gene 1 5 12 -0.880836951803527 false 5 -0.880836951803527 true
gene 1 6 12 0.2654713976941053 false 6 0.2654713976941053 true
gene 1 7 12 0.8480151969384838 false 7 0.8480151969384838 true
gene 1 8 12 0 false 8 0 true
gene 1 9 12 0.2372224110061234 false 9 0.2372224110061234 true
gene 1 10 12 0 false 10 0 true
gene 1 11 12 -0.16272765091868682 false 11 -0.16272765091868682 true
gene 1 12 13 0.09926282206583305 false 12 0.09926282206583305 true
gene 1 12 14 0.26335178387964364 false 13 0.26335178387964364 true
genomeend 62
/* Organism #120 Fitness: 1.796 Error: 0.712 */
genomestart 120
trait 1 0.1 0 0 0 0 0 0 0 
node 1 0 1 3
node 2 0 1 1
node 3 0 1 1
node 4 0 1 1
node 5 0 1 1
node 6 0 1 1
node 7 0 1 1
node 8 0 1 1
node 9 0 1 1
node 10 0 1 1
node 11 0 1 1
node 12 0 0 0
node 13 0 0 2
node 14 0 0 2
gene 1 1 12 -0.6670516403601727 false 1 -0.6670516403601727 true
gene 1 2 12 -0.2701825564646235 false 2 -0.2701825564646235 true
gene 1 3 12 0.8897072032941122 false 3 0.8897072032941122 true
gene 1 4 12 -0.4677018905196893 false 4 -0.4677018905196893 true
gene 1 5 12 0.12527456664772138 false 5 0.12527456664772138 true
gene 1 6 12 0.31232107053601676 false 6 0.31232107053601676 true
gene 1 7 12 0.5731046456783064 false 7 0.5731046456783064 true
gene 1 8 12 0 false 8 0 true
gene 1 9 12 0.25307389588456447 false 9 0.25307389588456447 true
gene 1 10 12 0.9642667755488392 false 10 0.9642667755488392 true
gene 1 11 12 0.40609705208623204 false 11 0.40609705208623204 true
gene 1 12 13 0.04630202040302865 false 12 0.04630202040302865 true
gene 1 12 14 0.37986232223085303 false 13 0.37986232223085303 true
genomeend 120
/* Organism #67 Fitness: 1.775 Error: 0.795 */
genomestart 67
trait 1 0.1 0 0 0 0 0 0 0 
node 1 0 1 3
node 2 0 1 1
node 3 0 1 1
node 4 0 1 1
node 5 0 1 1
node 6 0 1 1
node 7 0 1 1
node 8 0 1 1
node 9 0 1 1
node 10 0 1 1
node 11 0 1 1
node 12 0 0 0
node 13 0 0 2
node 14 0 0 2
gene 1 1 12 0.351019591438417 false 1 0.351019591438417 true
gene 1 2 12 -0.5306433047016701 false 2 -0.5306433047016701 true
gene 1 3 12 0.5037788603914464 false 3 0.5037788603914464 true
gene 1 4 12 -0.3548241487511369 false 4 -0.3548241487511369 true
gene 1 5 12 -0.19498635944025536 false 5 -0.19498635944025536 true
gene 1 6 12 -0.37574623214696884 false 6 -0.37574623214696884 true
gene 1 7 12 0.32729991967196886 false 7 0.32729991967196886 true
gene 1 8 12 0.36695452007178897 false 8 0.36695452007178897 true
gene 1 9 12 -0.07057377146840273 false 9 -0.07057377146840273 true
gene 1 10 12 0.3243350257742082 false 10 0.3243350257742082 true
gene 1 11 12 0.7602146602176594 false 11 0.7602146602176594 true
gene 1 12 13 0.39575244934237214 false 12 0.39575244934237214 true
gene 1 12 14 0.36869627283508094 false 13 0.36869627283508094 true
genomeend 67
/* Organism #12 Fitness: 1.766 Error: 0.863 */
genomestart 12
trait 1 0.1 0 0 0 0 0 0 0 
node 1 0 1 3
node 2 0 1 1
node 3 0 1 1
node 4 0 1 1
node 5 0 1 1
node 6 0 1 1
node 7 0 1 1
node 8 0 1 1
node 9 0 1 1
node 10 0 1 1
node 11 0 1 1
node 12 0 0 0
node 13 0 0 2
node 14 0 0 2
gene 1 1 12 -0.5849903917886832 false 1 -0.5849903917886832 true
gene 1 2 12 0.12882778803234435 false 2 0.12882778803234435 true
gene 1 3 12 0.8800216835438098 false 3 0.8800216835438098 true
gene 1 4 12 0.9543349182439769 false 4 0.9543349182439769 true
gene 1 5 12 0.6871611246430298 false 5 0.6871611246430298 true
gene 1 6 12 0.3447648782195218 false 6 0.3447648782195218 true
gene 1 7 12 -0.22643532277898146 false 7 -0.22643532277898146 true
gene 1 8 12 -0.008964705803866244 false 8 -0.008964705803866244 true
gene 1 9 12 0.7752721052562914 false 9 0.7752721052562914 true
gene 1 10 12 0.2022434667874993 false 10 0.2022434667874993 true
gene 1 11 12 0.45663363800032675 false 11 0.45663363800032675 true
gene 1 12 13 0.29874196788821344 false 12 0.29874196788821344 true
gene 1 12 14 -0.9902144455869315 false 13 -0.9902144455869315 true
genomeend 12
/* Organism #194 Fitness: 1.741 Error: 0.800 */
genomestart 194
trait 1 0.1 0 0 0 0 0 0 0 
node 1 0 1 3
node 2 0 1 1
node 3 0 1 1
node 4 0 1 1
node 5 0 1 1
node 6 0 1 1
node 7 0 1 1
node 8 0 1 1
node 9 0 1 1
node 10 0 1 1
node 11 0 1 1
node 12 0 0 0
node 13 0 0 2
node 14 0 0 2
gene 1 1 12 0.35661880088478326 false 1 0.35661880088478326 true
gene 1 2 12 0.7947436835090567 false 2 0.7947436835090567 true
gene 1 3 12 0.004377787433617647 false 3 0.004377787433617647 true
gene 1 4 12 0.03325359526057779 false 4 0.03325359526057779 true
gene 1 5 12 0.958660288357663 false 5 0.958660288357663 true
gene 1 6 12 0.24064398207126417 false 6 0.24064398207126417 true
gene 1 7 12 -0.9022812873060854 false 7 -0.9022812873060854 true
gene 1 8 12 0.6627079733919863 false 8 0.6627079733919863 true
gene 1 9 12 0.3577649841006789 false 9 0.3577649841006789 true
gene 1 10 12 -0.4835322412247609 false 10 -0.4835322412247609 true
gene 1 11 12 -0.6643373116592821 false 11 -0.6643373116592821 true
gene 1 12 13 0.2820002999920785 false 12 0.2820002999920785 true
gene 1 12 14 0.6866268751301704 false 13 0.6866268751301704 true
genomeend 194
/* Organism #184 Fitness: 1.716 Error: 0.726 */
genomestart 184
trait 1 0.1 0 0 0 0 0 0 0 
node 1 0 1 3
node 2 0 1 1
node 3 0 1 1
node 4 0 1 1
node 5 0 1 1
node 6 0 1 1
node 7 0 1 1
node 8 0 1 1
node 9 0 1 1
node 10 0 1 1
node 11 0 1 1
node 12 0 0 0
node 13 0 0 2
node 14 0 0 2
gene 1 1 12 0.73704084410285 false 1 0.73704084410285 true
gene 1 2 12 -0.9741931388544833 false 2 -0.9741931388544833 true
gene 1 3 12 -0.5727507818492941 false 3 -0.5727507818492941 true
gene 1 4 12 -0.6341918578413758 false 4 -0.6341918578413758 true
gene 1 5 12 0.47006536351302963 false 5 0.47006536351302963 true
gene 1 6 12 -0.6719618986471284 false 6 -0.6719618986471284 true
gene 1 7 12 -0.4764210407078627 false 7 -0.4764210407078627 true
gene 1 8 12 -0.7567670989605423 false 8 -0.7567670989605423 true
gene 1 9 12 0.09387394037144421 false 9 0.09387394037144421 true
gene 1 10 12 0.9293625402794173 false 10 0.9293625402794173 true
gene 1 11 12 0.8326605386301826 false 11 0.8326605386301826 true
gene 1 12 13 0.27582642557450754 false 12 0.27582642557450754 true
gene 1 12 14 0.29698023592960265 false 13 0.29698023592960265 true
genomeend 184
/* Organism #18 Fitness: 1.692 Error: 0.726 */
genomestart 18
trait 1 0.1 0 0 0 0 0 0 0 
node 1 0 1 3
node 2 0 1 1
node 3 0 1 1
node 4 0 1 1
node 5 0 1 1
node 6 0 1 1
node 7 0 1 1
node 8 0 1 1
node 9 0 1 1
node 10 0 1 1
node 11 0 1 1
node 12 0 0 0
node 13 0 0 2
node 14 0 0 2
gene 1 1 12 0.010124925468500648 false 1 0.010124925468500648 true
gene 1 2 12 0 false 2 0 true
gene 1 3 12 0.025348609115947066 false 3 0.025348609115947066 true
gene 1 4 12 0.5633659431606023 false 4 0.5633659431606023 true
gene 1 5 12 0.09916644480369745 false 5 0.09916644480369745 true
gene 1 6 12 -0.06981490300867597 false 6 -0.06981490300867597 true
gene 1 7 12 0.46908374727248514 false 7 0.46908374727248514 true
gene 1 8 12 0.6203601822675914 false 8 0.6203601822675914 true
gene 1 9 12 -0.923595488899253 false 9 -0.923595488899253 true
gene 1 10 12 -0.7791701715257823 false 10 -0.7791701715257823 true
gene 1 11 12 -0.4938221067329488 false 11 -0.4938221067329488 true
gene 1 12 13 0.1394754826561721 false 12 0.1394754826561721 true
gene 1 12 14 0.5398152362528503 false 13 0.5398152362528503 true
genomeend 18
/* Organism #14 Fitness: 1.682 Error: 0.861 */
genomestart 14
trait 1 0.1 0 0 0 0 0 0 0 
node 1 0 1 3
node 2 0 1 1
node 3 0 1 1
node 4 0 1 1
node 5 0 1 1
node 6 0 1 1
node 7 0 1 1
node 8 0 1 1
node 9 0 1 1
node 10 0 1 1
node 11 0 1 1
node 12 0 0 0
node 13 0 0 2
node 14 0 0 2
gene 1 1 12 -0.28746218203972207 false 1 -0.28746218203972207 true
gene 1 2 12 0.8315062699996332 false 2 0.8315062699996332 true
gene 1 3 12 0.3419968904739172 false 3 0.3419968904739172 true
gene 1 4 12 0.6483143624914451 false 4 0.6483143624914451 true
gene 1 5 12 -0.13225029020702142 false 5 -0.13225029020702142 true
gene 1 6 12 -0.1753448846421081 false 6 -0.1753448846421081 true
gene 1 7 12 0.2781984125652717 false 7 0.2781984125652717 true
gene 1 8 12 0.8125356043468914 false 8 0.8125356043468914 true
gene 1 9 12 -0.9970445576680588 false 9 -0.9970445576680588 true
gene 1 10 12 -0.10021846952771987 false 10 -0.10021846952771987 true
gene 1 11 12 0.9109364534260725 false 11 0.9109364534260725 true
gene 1 12 13 0.30737413114083983 false 12 0.30737413114083983 true
gene 1 12 14 -0.3624216180029448 false 13 -0.3624216180029448 true
genomeend 14
/* Organism #29 Fitness: 1.681 Error: 0.834 */
genomestart 29
trait 1 0.1 0 0 0 0 0 0 0 
node 1 0 1 3
node 2 0 1 1
node 3 0 1 1
node 4 0 1 1
node 5 0 1 1
node 6 0 1 1
node 7 0 1 1
node 8 0 1 1
node 9 0 1 1
node 10 0 1 1
node 11 0 1 1
node 12 0 0 0
node 13 0 0 2
node 14 0 0 2
gene 1 1 12 0.1588707604980191 false 1 0.1588707604980191 true
gene 1 2 12 0.5752211725849822 false 2 0.5752211725849822 true
gene 1 3 12 0.39154207479933695 false 3 0.39154207479933695 true
gene 1 4 12 -0.21699202824232908 false 4 -0.21699202824232908 true
gene 1 5 12 0.2080434064547224 false 5 0.2080434064547224 true
gene 1 6 12 0.2872205042977443 false 6 0.2872205042977443 true
gene 1 7 12 0.7849049238683506 false 7 0.7849049238683506 true
gene 1 8 12 -0.5728707214793862 false 8 -0.5728707214793862 true
gene 1 9 12 0 false 9 0 true
gene 1 10 12 -0.6754052860374447 false 10 -0.6754052860374447 true
gene 1 11 12 0.9162531908610043 false 11 0.9162531908610043 true
gene 1 12 13 0.6901546266809614 false 12 0.6901546266809614 true
gene 1 12 14 -0.4960362763300411 false 13 -0.4960362763300411 true
genomeend 29
/* Organism #11 Fitness: 1.652 Error: 0.834 */
genomestart 11
trait 1 0.1 0 0 0 0 0 0 0 
node 1 0 1 3
node 2 0 1 1
node 3 0 1 1
node 4 0 1 1
node 5 0 1 1
node 6 0 1 1
node 7 0 1 1
node 8 0 1 1
node 9 0 1 1
node 10 0 1 1
node 11 0 1 1
node 12 0 0 0
node 13 0 0 2
node 14 0 0 2
gene 1 1 12 0.7248361071232515 false 1 0.7248361071232515 true
gene 1 2 12 0.9334513208195765 false 2 0.9334513208195765 true
gene 1 3 12 -0.011764530122061499 false 3 -0.011764530122061499 true
gene 1 4 12 0.6980481682588751 false 4 0.6980481682588751 true
gene 1 5 12 0.30561236786334733 false 5 0.30561236786334733 true
gene 1 6 12 -0.15896552887507762 false 6 -0.15896552887507762 true
gene 1 7 12 0.3102286105829251 false 7 0.3102286105829251 true
gene 1 8 12 0.3063247890473593 false 8 0.3063247890473593 true
gene 1 9 12 0.1982781665868915 false 9 0.1982781665868915 true
gene 1 10 12 -0.386903852091702 false 10 -0.386903852091702 true
gene 1 11 12 0.8980035512552588 false 11 0.8980035512552588 true
gene 1 12 13 0.650713442480423 false 12 0.650713442480423 true
gene 1 12 14 -0.3970609363148085 false 13 -0.3970609363148085 true
genomeend 11
/* Organism #21 Fitness: 1.645 Error: 0.808 */
genomestart 21
trait 1 0.1 0 0 0 0 0 0 0 
node 1 0 1 3
node 2 0 1 1
node 3 0 1 1
node 4 0 1 1
node 5 0 1 1
node 6 0 1 1
node 7 0 1 1
node 8 0 1 1
node 9 0 1 1
node 10 0 1 1
node 11 0 1 1
node 12 0 0 0
node 13 0 0 2
node 14 0 0 2
gene 1 1 12 -0.008841206472364502 false 1 -0.008841206472364502 true
gene 1 2 12 -0.23014154630535366 false 2 -0.23014154630535366 true
gene 1 3 12 0.9201613035945598 false 3 0.9201613035945598 true
gene 1 4 12 -0.4658540504484276 false 4 -0.4658540504484276 true
gene 1 5 12 0.2938892302368331 false 5 0.2938892302368331 true
gene 1 6 12 0 false 6 0 true
gene 1 7 12 -0.7300360895421628 false 7 -0.7300360895421628 true
gene 1 8 12 -0.47223471106538034 false 8 -0.47223471106538034 true
gene 1 9 12 -0.07694052697714188 false 9 -0.07694052697714188 true
gene 1 10 12 -0.31935914190716774 false 10 -0.31935914190716774 true
gene 1 11 12 -0.9772975878501982 false 11 -0.9772975878501982 true
gene 1 12 13 0.026632091358621702 false 12 0.026632091358621702 true
gene 1 12 14 0.9145805141189163 false 13 0.9145805141189163 true
genomeend 21
/* Organism #215 Fitness: 1.638 Error: 0.711 */
genomestart 215
trait 1 0.1 0 0 0 0 0 0 0 
node 1 0 1 3
node 2 0 1 1
node 3 0 1 1
node 4 0 1 1
node 5 0 1 1
node 6 0 1 1
node 7 0 1 1
node 8 0 1 1
node 9 0 1 1
node 10 0 1 1
node 11 0 1 1
node 12 0 0 0
node 13 0 0 2
node 14 0 0 2
gene 1 1 12 -0.5801114009605238 false 1 -0.5801114009605238 true
gene 1 2 12 0.4360246197213897 false 2 0.4360246197213897 true
gene 1 3 12 -0.10038376331138466 false 3 -0.10038376331138466 true
gene 1 4 12 0.5654006641704323 false 4 0.5654006641704323 true
gene 1 5 12 -0.14454361576299002 false 5 -0.14454361576299002 true
gene 1 6 12 -0.9539790425565108 false 6 -0.9539790425565108 true
gene 1 7 12 0.5633446371916491 false 7 0.5633446371916491 true
gene 1 8 12 0.8758564206940986 false 8 0.8758564206940986 true
gene 1 9 12 0.9768563288581774 false 9 0.9768563288581774 true
gene 1 10 12 -0.5318064822988728 false 10 -0.5318064822988728 true
gene 1 11 12 -0.9651217956481559 false 11 -0.9651217956481559 true
gene 1 12 13 0.7504690999187027 false 12 0.7504690999187027 true
gene 1 12 14 0.6936071200392615 false 13 0.6936071200392615 true
genomeend 215
/* Organism #175 Fitness: 1.626 Error: 0.699 */
genomestart 175
trait 1 0.1 0 0 0 0 0 0 0 
node 1 0 1 3
node 2 0 1 1
node 3 0 1 1
node 4 0 1 1
node 5 0 1 1
node 6 0 1 1
node 7 0 1 1
node 8 0 1 1
node 9 0 1 1
node 10 0 1 1
node 11 0 1 1
node 12 0 0 0
node 13 0 0 2
node 14 0 0 2
gene 1 1 12 -0.9507049898588567 false 1 -0.9507049898588567 true
gene 1 2 12 -0.07125003303060076 false 2 -0.07125003303060076 true
gene 1 3 12 -0.28314087029844903 false 3 -0.28314087029844903 true
gene 1 4 12 -0.12272084727911337 false 4 -0.12272084727911337 true
gene 1 5 12 -0.441782724013861 false 5 -0.441782724013861 true
gene 1 6 12 0.318428548742474 false 6 0.318428548742474 true
gene 1 7 12 0.15609296052067978 false 7 0.15609296052067978 true
gene 1 8 12 0.9913920189383003 false 8 0.9913920189383003 true
gene 1 9 12 0.24102253992348274 false 9 0.24102253992348274 true
gene 1 10 12 0.8170280780915108 false 10 0.8170280780915108 true
gene 1 11 12 -0.9747208602514158 false 11 -0.9747208602514158 true
gene 1 12 13 0.6790556258292672 false 12 0.6790556258292672 true
gene 1 12 14 0.5197619080628332 false 13 0.5197619080628332 true
genomeend 175
/* Organism #53 Fitness: 1.619 Error: 0.835 */
genomestart 53
trait 1 0.1 0 0 0 0 0 0 0 
node 1 0 1 3
node 2 0 1 1
node 3 0 1 1
node 4 0 1 1
node 5 0 1 1
node 6 0 1 1
node 7 0 1 1
node 8 0 1 1
node 9 0 1 1
node 10 0 1 1
node 11 0 1 1
node 12 0 0 0
node 13 0 0 2
node 14 0 0 2
gene 1 1 12 0.4731877000431666 false 1 0.4731877000431666 true
gene 1 2 12 -0.8063022871724471 false 2 -0.8063022871724471 true
gene 1 3 12 0.10615412956674079 false 3 0.10615412956674079 true
gene 1 4 12 0.14080504444820124 false 4 0.14080504444820124 true
gene 1 5 12 0.63563988450341 false 5 0.63563988450341 true
gene 1 6 12 0.021567577803744485 false 6 0.021567577803744485 true
gene 1 7 12 0.8759441857833535 false 7 0.8759441857833535 true
gene 1 8 12 -0.13515060186248956 false 8 -0.13515060186248956 true
gene 1 9 12 -0.00656725195036004 false 9 -0.00656725195036004 true
gene 1 10 12 0.6276756329293767 false 10 0.6276756329293767 true
gene 1 11 12 0.43633332706699984 false 11 0.43633332706699984 true
gene 1 12 13 0.46901163966103293 false 12 0.46901163966103293 true
gene 1 12 14 -0.4807178122999819 false 13 -0.4807178122999819 true
genomeend 53
/* Organism #153 Fitness: 1.597 Error: 0.714 */
genomestart 153
trait 1 0.1 0 0 0 0 0 0 0 
node 1 0 1 3
node 2 0 1 1
node 3 0 1 1
node 4 0 1 1
node 5 0 1 1
node 6 0 1 1
node 7 0 1 1
node 8 0 1 1
node 9 0 1 1
node 10 0 1 1
node 11 0 1 1
node 12 0 0 0
node 13 0 0 2
node 14 0 0 2
gene 1 1 12 0.272678320094887 false 1 0.272678320094887 true
gene 1 2 12 -0.6947077960339764 false 2 -0.6947077960339764 true
gene 1 3 12 -0.45082168887049096 false 3 -0.45082168887049096 true
gene 1 4 12 0.014145383647110609 false 4 0.014145383647110609 true
gene 1 5 12 0.627433412712724 false 5 0.627433412712724 true
gene 1 6 12 0.48331505882920084 false 6 0.48331505882920084 true
gene 1 7 12 0.2561974058556517 false 7 0.2561974058556517 true
gene 1 8 12 0.7607738376557642 false 8 0.7607738376557642 true
gene 1 9 12 -0.7787747364626687 false 9 -0.7787747364626687 true
gene 1 10 12 0 false 10 0 true
gene 1 11 12 -0.894187246259917 false 11 -0.894187246259917 true
gene 1 12 13 0.2125470534015349 false 12 0.2125470534015349 true
gene 1 12 14 0.9298231816186269 false 13 0.9298231816186269 true
genomeend 153
/* Organism #110 Fitness: 1.555 Error: 0.990 */
genomestart 110
trait 1 0.1 0 0 0 0 0 0 0 
node 1 0 1 3
node 2 0 1 1
node 3 0 1 1
node 4 0 1 1
node 5 0 1 1
node 6 0 1 1
node 7 0 1 1
node 8 0 1 1
node 9 0 1 1
node 10 0 1 1
node 11 0 1 1
node 12 0 0 0
node 13 0 0 2
node 14 0 0 2
gene 1 1 12 -0.9791420619934711 false 1 -0.9791420619934711 true
gene 1 2 12 0.6513201315164069 false 2 0.6513201315164069 true
gene 1 3 12 -0.8604936378468048 false 3 -0.8604936378468048 true
gene 1 4 12 0.9735724408130795 false 4 0.9735724408130795 true
gene 1 5 12 0.10567199734908361 false 5 0.10567199734908361 true
gene 1 6 12 0.5548983409532517 false 6 0.5548983409532517 true
gene 1 7 12 0.9400676127128532 false 7 0.9400676127128532 true
gene 1 8 12 0.9329490651098185 false 8 0.9329490651098185 true
gene 1 9 12 0 false 9 0 true
gene 1 10 12 0 false 10 0 true
gene 1 11 12 -0.2640934135965636 false 11 -0.2640934135965636 true
gene 1 12 13 0.20757082180142578 false 12 0.20757082180142578 true
gene 1 12 14 0.6949733159407245 false 13 0.6949733159407245 true
genomeend 110
/* Organism #245 Fitness: 1.549 Error: 0.819 */
genomestart 245
trait 1 0.1 0 0 0 0 0 0 0 
node 1 0 1 3
node 2 0 1 1
node 3 0 1 1
node 4 0 1 1
node 5 0 1 1
node 6 0 1 1
node 7 0 1 1
node 8 0 1 1
node 9 0 1 1
node 10 0 1 1
node 11 0 1 1
node 12 0 0 0
node 13 0 0 2
node 14 0 0 2
gene 1 1 12 0.546259996421138 false 1 0.546259996421138 true
gene 1 2 12 -0.7088072093677316 false 2 -0.7088072093677316 true
gene 1 3 12 0.0649429914278694 false 3 0.0649429914278694 true
gene 1 4 12 0.5351623499365417 false 4 0.5351623499365417 true
gene 1 5 12 0.733287383959782 false 5 0.733287383959782 true
gene 1 6 12 0.5996728155055352 false 6 0.5996728155055352 true
gene 1 7 12 0.725262436667985 false 7 0.725262436667985 true
gene 1 8 12 -0.14662449877078212 false 8 -0.14662449877078212 true
gene 1 9 12 0.05851939487829154 false 9 0.05851939487829154 true
gene 1 10 12 0.5606886806785171 false 10 0.5606886806785171 true
gene 1 11 12 0.5472976606896331 false 11 0.5472976606896331 true
gene 1 12 13 0.8127407587966047 false 12 0.8127407587966047 true
gene 1 12 14 0.07846957367794444 false 13 0.07846957367794444 true
genomeend 245
/* Organism #182 Fitness: 1.544 Error: 0.853 */
genomestart 182
trait 1 0.1 0 0 0 0 0 0 0 
node 1 0 1 3
node 2 0 1 1
node 3 0 1 1
node 4 0 1 1
node 5 0 1 1
node 6 0 1 1
node 7 0 1 1
node 8 0 1 1
node 9 0 1 1
node 10 0 1 1
node 11 0 1 1
node 12 0 0 0
node 13 0 0 2
node 14 0 0 2
gene 1 1 12 0.1499034398931938 false 1 0.1499034398931938 true
gene 1 2 12 0.42582071475926053 false 2 0.42582071475926053 true
gene 1 3 12 -0.5042942231862693 false 3 -0.5042942231862693 true
gene 1 4 12 -0.9524883658211905 false 4 -0.9524883658211905 true
gene 1 5 12 -0.7867651254134469 false 5 -0.7867651254134469 true
gene 1 6 12 0.7202218534550756 false 6 0.7202218534550756 true
gene 1 7 12 -0.11690649050066715 false 7 -0.11690649050066715 true
gene 1 8 12 0.08859028405955015 false 8 0.08859028405955015 true
gene 1 9 12 0.3645761719668787 false 9 0.3645761719668787 true
gene 1 10 12 0.7599127413168697 false 10 0.7599127413168697 true
gene 1 11 12 -0.6786957516380809 false 11 -0.6786957516380809 true
gene 1 12 13 -0.5177076425771496 false 12 -0.5177076425771496 true
gene 1 12 14 -0.25513895621753907 false 13 -0.25513895621753907 true
genomeend 182
/* Organism #170 Fitness: 1.542 Error: 0.699 */
genomestart 170
trait 1 0.1 0 0 0 0 0 0 0 
node 1 0 1 3
node 2 0 1 1
node 3 0 1 1
node 4 0 1 1
node 5 0 1 1
node 6 0 1 1
node 7 0 1 1
node 8 0 1 1
node 9 0 1 1
node 10 0 1 1
node 11 0 1 1
node 12 0 0 0
node 13 0 0 2
node 14 0 0 2
gene 1 1 12 0 false 1 0 true
gene 1 2 12 -0.235345252896156 false 2 -0.235345252896156 true
gene 1 3 12 0.19214835774374192 false 3 0.19214835774374192 true
gene 1 4 12 -0.2668816874208074 false 4 -0.2668816874208074 true
gene 1 5 12 0.3579185327054245 false 5 0.3579185327054245 true
gene 1 6 12 0.6561972771511823 false 6 0.6561972771511823 true
gene 1 7 12 -0.16888408686436998 false 7 -0.16888408686436998 true
gene 1 8 12 -0.4732926361688706 false 8 -0.4732926361688706 true
gene 1 9 12 -0.6128483387280437 false 9 -0.6128483387280437 true
gene 1 10 12 0.5066752636504264 false 10 0.5066752636504264 true
gene 1 11 12 -0.42473349817486306 false 11 -0.42473349817486306 true
gene 1 12 13 -0.01068511268462461 false 12 -0.01068511268462461 true
gene 1 12 14 0.8847359186840763 false 13 0.8847359186840763 true
genomeend 170
/* Organism #17 Fitness: 1.525 Error: 0.701 */
genomestart 17
trait 1 0.1 0 0 0 0 0 0 0 
node 1 0 1 3
node 2 0 1 1
node 3 0 1 1
node 4 0 1 1
node 5 0 1 1
node 6 0 1 1
node 7 0 1 1
node 8 0 1 1
node 9 0 1 1
node 10 0 1 1
node 11 0 1 1
node 12 0 0 0
node 13 0 0 2
node 14 0 0 2
gene 1 1 12 0.11072591930272146 false 1 0.11072591930272146 true
gene 1 2 12 0 false 2 0 true
gene 1 3 12 -0.2354110012873456 false 3 -0.2354110012873456 true
gene 1 4 12 0 false 4 0 true
gene 1 5 12 -0.8524010241821469 false 5 -0.8524010241821469 true
gene 1 6 12 -0.5985901749980669 false 6 -0.5985901749980669 true
gene 1 7 12 -0.42505193353845366 false 7 -0.42505193353845366 true
gene 1 8 12 0.36832655139568843 false 8 0.36832655139568843 true
gene 1 9 12 -0.26486101101003223 false 9 -0.26486101101003223 true
gene 1 10 12 0.5124637081517587 false 10 0.5124637081517587 true
gene 1 11 12 -0.8209102655435799 false 11 -0.8209102655435799 true
gene 1 12 13 0.030063713312662197 false 12 0.030063713312662197 true
gene 1 12 14 -0.518472889933272 false 13 -0.518472889933272 true
genomeend 17
/* Organism #148 Fitness: 1.515 Error: 0.861 */
genomestart 148
trait 1 0.1 0 0 0 0 0 0 0 
node 1 0 1 3
node 2 0 1 1
node 3 0 1 1
node 4 0 1 1
node 5 0 1 1
node 6 0 1 1
node 7 0 1 1
node 8 0 1 1
node 9 0 1 1
node 10 0 1 1
node 11 0 1 1
node 12 0 0 0
node 13 0 0 2
node 14 0 0 2
gene 1 1 12 0.5994326078940992 false 1 0.5994326078940992 true
gene 1 2 12 0.8340344308520181 false 2 0.8340344308520181 true
gene 1 3 12 -0.33219458800710844 false 3 -0.33219458800710844 true
gene 1 4 12 0.8717145847742883 false 4 0.8717145847742883 true
gene 1 5 12 -0.45451593799001916 false 5 -0.45451593799001916 true
gene 1 6 12 0.3147856508860549 false 6 0.3147856508860549 true
gene 1 7 12 -0.2631238095036933 false 7 -0.2631238095036933 true
gene 1 8 12 -0.8222161102821408 false 8 -0.8222161102821408 true
gene 1 9 12 -0.5392943695141073 false 9 -0.5392943695141073 true
gene 1 10 12 0.5497756072399572 false 10 0.5497756072399572 true
gene 1 11 12 0 false 11 0 true
gene 1 12 13 0.45735600114995384 false 12 0.45735600114995384 true
gene 1 12 14 -0.7252796268054642 false 13 -0.7252796268054642 true
genomeend 148
/* Organism #167 Fitness: 1.479 Error: 0.700 */
genomestart 167
trait 1 0.1 0 0 0 0 0 0 0 
node 1 0 1 3
node 2 0 1 1
node 3 0 1 1
node 4 0 1 1
node 5 0 1 1
node 6 0 1 1
node 7 0 1 1
node 8 0 1 1
node 9 0 1 1
node 10 0 1 1
node 11 0 1 1
node 12 0 0 0
node 13 0 0 2
node 14 0 0 2
gene 1 1 12 0.5748042175706577 false 1 0.5748042175706577 true
gene 1 2 12 -0.7117099102038054 false 2 -0.7117099102038054 true
gene 1 3 12 -0.9589071124410977 false 3 -0.9589071124410977 true
gene 1 4 12 0.20999288111438114 false 4 0.20999288111438114 true
gene 1 5 12 0.895077095824742 false 5 0.895077095824742 true
gene 1 6 12 -0.8343968823857507 false 6 -0.8343968823857507 true
gene 1 7 12 -0.22583546217046255 false 7 -0.22583546217046255 true
gene 1 8 12 -0.24883423571249344 false 8 -0.24883423571249344 true
gene 1 9 12 0.021634931651987342 false 9 0.021634931651987342 true
gene 1 10 12 -0.08154535261528134 false 10 -0.08154535261528134 true
gene 1 11 12 -0.036934848840680407 false 11 -0.036934848840680407 true
gene 1 12 13 -0.581134829292021 false 12 -0.581134829292021 true
gene 1 12 14 -0.8616279687809744 false 13 -0.8616279687809744 true
genomeend 167
/* Organism #130 Fitness: 1.476 Error: 0.818 */
genomestart 130
trait 1 0.1 0 0 0 0 0 0 0 
node 1 0 1 3
node 2 0 1 1
node 3 0 1 1
node 4 0 1 1
node 5 0 1 1
node 6 0 1 1
node 7 0 1 1
node 8 0 1 1
node 9 0 1 1
node 10 0 1 1
node 11 0 1 1
node 12 0 0 0
node 13 0 0 2
node 14 0 0 2
gene 1 1 12 0.08653002648182412 false 1 0.08653002648182412 true
gene 1 2 12 0.25825806463468454 false 2 0.25825806463468454 true
gene 1 3 12 0.4130429929069818 false 3 0.4130429929069818 true
gene 1 4 12 -0.7198204371476509 false 4 -0.7198204371476509 true
gene 1 5 12 -0.7255786331946109 false 5 -0.7255786331946109 true
gene 1 6 12 0.47540756068769463 false 6 0.47540756068769463 true
gene 1 7 12 -0.6422301186581902 false 7 -0.6422301186581902 true
gene 1 8 12 -0.2805482967842836 false 8 -0.2805482967842836 true
gene 1 9 12 0 false 9 0 true
gene 1 10 12 0.8144950069588939 false 10 0.8144950069588939 true
gene 1 11 12 -0.8943705797083927 false 11 -0.8943705797083927 true
