/* Species #0 : (Size 8) (AF 7.779) (Age 110)  */
/* Organism #0 Fitness: 17.814 Error: 0.839 */
genomestart 0
trait 1 0 0.7295765657389145 0.1346265063112596 0 0.037734823723578 0.7911559805330319 0.009939004092382537 0.2166802095113048 
node 1 1 1 3
node 2 1 1 1
node 3 1 1 1
node 4 1 1 1
node 5 1 1 1
node 6 1 1 1
node 7 1 1 1
node 8 1 1 1
node 9 1 1 1
node 10 1 1 1
node 11 1 1 1
node 12 1 0 0
node 13 1 0 2
node 14 1 0 2
node 87 1 0 0
node 282 1 0 0
node 483 1 0 0
gene 1 1 12 -3.2635268223671003 false 1 -3.2635268223671003 true
gene 1 2 12 -0.4580772306442586 false 2 -0.4580772306442586 true
gene 1 3 12 -0.28728957909154546 false 3 -0.28728957909154546 true
gene 1 4 12 0.767549686836425 false 4 0.767549686836425 true
gene 1 5 12 1.8071203640962363 false 5 1.8071203640962363 true
gene 1 6 12 0.13313007541940072 false 6 0.13313007541940072 true
gene 1 7 12 0.5738720753018266 false 7 0.5738720753018266 true
gene 1 8 12 0.5714628981655651 false 8 0.5714628981655651 true
gene 1 9 12 1.1714407664258137 false 9 1.1714407664258137 true
gene 1 10 12 0.3578820390074339 false 10 0.3578820390074339 true
gene 1 11 12 -0.18796145903236225 false 11 -0.18796145903236225 true
gene 1 12 13 1.7379778862177946 false 12 1.7379778862177946 true
gene 1 12 14 0.7810943679484298 false 13 0.7810943679484298 true
gene 1 7 14 1.3980153530205737 false 24 1.3980153530205737 true
gene 1 3 87 1.4668275978137169 false 460 1.4668275978137169 true
gene 1 87 12 0.6854262202364255 false 461 0.6854262202364255 true
gene 1 9 13 -0.09847519760122159 false 891 -0.09847519760122159 true
gene 1 8 13 0.5712265944768443 false 995 0.5712265944768443 true
gene 1 6 87 -1.5302824097567453 false 1314 -1.5302824097567453 true
gene 1 13 13 -0.41167257753540276 true 1358 -0.41167257753540276 true
gene 1 3 282 0.16482997199603938 false 1423 0.16482997199603938 true
gene 1 282 12 1.1221666339318157 false 1424 1.1221666339318157 true
gene 1 1 282 -0.21637581228171765 false 1768 -0.21637581228171765 true
gene 1 87 87 -1.2069896325112484 true 1789 -1.2069896325112484 true
gene 1 4 282 1.7036819466958635 false 2088 1.7036819466958635 true
gene 1 5 483 -0.14775285372367633 false 2438 -0.14775285372367633 true
gene 1 483 12 -0.38620149439874485 false 2439 -0.38620149439874485 true
gene 1 5 13 0.39088997262118785 false 2454 0.39088997262118785 true
gene 1 483 282 6.51602832194282 false 3065 6.51602832194282 true
genomeend 0
/* Organism #2 Fitness: 9.118 Error: 0.250 */
genomestart 2
trait 1 0 0.7295765657389145 0.1346265063112596 0 0.037734823723578 0.7911559805330319 0.009939004092382537 0.2166802095113048 
node 1 1 1 3
node 2 1 1 1
node 3 1 1 1
node 4 1 1 1
node 5 1 1 1
node 6 1 1 1
node 7 1 1 1
node 8 1 1 1
node 9 1 1 1
node 10 1 1 1
node 11 1 1 1
node 12 1 0 0
node 13 1 0 2
node 14 1 0 2
node 87 1 0 0
node 282 1 0 0
node 483 1 0 0
gene 1 1 12 -3.121837126107321 false 1 -3.121837126107321 true
gene 1 2 12 -0.51834266084716 false 2 -0.51834266084716 true
gene 1 3 12 -0.7366070212572033 false 3 -0.7366070212572033 true
gene 1 4 12 0.767549686836425 false 4 0.767549686836425 true
gene 1 5 12 -0.13570611551449116 false 5 -0.13570611551449116 true
gene 1 6 12 0.33189070472577137 false 6 0.33189070472577137 true
gene 1 7 12 -0.19342537023478668 false 7 -0.19342537023478668 true
gene 1 8 12 -0.49237126566535877 false 8 -0.49237126566535877 true
gene 1 9 12 1.8035631243459087 false 9 1.8035631243459087 true
gene 1 10 12 0.5578127500316177 false 10 0.5578127500316177 true
gene 1 11 12 -0.5172435638933898 false 11 -0.5172435638933898 true
gene 1 12 13 1.5935585254527327 false 12 1.5935585254527327 true
gene 1 12 14 0.7365486383027449 false 13 0.7365486383027449 true
gene 1 7 14 1.354683324217889 false 24 1.354683324217889 true
gene 1 3 87 1.7481606742553897 false 460 1.7481606742553897 true
gene 1 87 12 0.6854262202364255 false 461 0.6854262202364255 true
gene 1 9 13 0.5725965811568101 false 891 0.5725965811568101 true
gene 1 8 13 0.704927160425364 false 995 0.704927160425364 true
gene 1 6 87 -2.210882067338292 false 1314 -2.210882067338292 true
gene 1 13 13 -0.5571174177682698 true 1358 -0.5571174177682698 true
gene 1 3 282 -0.6288360918457461 false 1423 -0.6288360918457461 true
gene 1 282 12 0.7317858057830091 false 1424 0.7317858057830091 true
gene 1 1 282 0.37146188518308665 false 1768 0.37146188518308665 true
gene 1 87 87 -0.17709643350302756 true 1789 -0.17709643350302756 true
gene 1 4 282 2.1230140615592443 false 2088 2.1230140615592443 true
gene 1 5 483 -0.4505189400162042 false 2438 -0.4505189400162042 true
gene 1 483 12 -0.6241625994504557 false 2439 -0.6241625994504557 true
gene 1 5 13 0.39088997262118785 false 2454 0.39088997262118785 true
gene 1 483 282 7.011238894844356 false 3065 7.011238894844356 true
genomeend 2
/* Organism #7 Fitness: 8.135 Error: 0.652 */
genomestart 7
trait 1 0 0.7295765657389145 0.1346265063112596 0 0.037734823723578 0.7911559805330319 0.009939004092382537 0.2166802095113048 
node 1 1 1 3
node 2 1 1 1
node 3 1 1 1
node 4 1 1 1
node 5 1 1 1
node 6 1 1 1
node 7 1 1 1
node 8 1 1 1
node 9 1 1 1
node 10 1 1 1
node 11 1 1 1
node 12 1 0 0
node 13 1 0 2
node 14 1 0 2
node 87 1 0 0
node 282 1 0 0
node 483 1 0 0
gene 1 1 12 -4.0152917403516994 false 1 -4.0152917403516994 true
gene 1 2 12 -1.1700448354895945 false 2 -1.1700448354895945 true
gene 1 3 12 -0.3559914261304462 false 3 -0.3559914261304462 true
gene 1 4 12 1.4961444551009664 false 4 1.4961444551009664 true
gene 1 5 12 1.5055342908408589 false 5 1.5055342908408589 true
gene 1 6 12 0.4769941530183005 false 6 0.4769941530183005 true
gene 1 7 12 0.14381462489820718 false 7 0.14381462489820718 true
gene 1 8 12 0.03570377124807245 false 8 0.03570377124807245 true
gene 1 9 12 1.6525595249505383 false 9 1.6525595249505383 true
gene 1 10 12 0.5519138469638376 false 10 0.5519138469638376 true
gene 1 11 12 0.04578444785034266 false 11 0.04578444785034266 true
gene 1 12 13 1.5717690844068375 false 12 1.5717690844068375 true
gene 1 12 14 0.31202428975875984 false 13 0.31202428975875984 true
gene 1 7 14 0.9581492081535739 false 24 0.9581492081535739 true
gene 1 3 87 1.5529267965066997 false 460 1.5529267965066997 true
gene 1 87 12 0.31393985679729075 false 461 0.31393985679729075 true
gene 1 9 13 0.0015911601449688784 false 891 0.0015911601449688784 true
gene 1 8 13 0.5325823732321079 false 995 0.5325823732321079 true
gene 1 6 87 -1.0833463135499473 false 1314 -1.0833463135499473 true
gene 1 13 13 -0.05336787216889155 true 1358 -0.05336787216889155 true
gene 1 3 282 0.5566361845670842 false 1423 0.5566361845670842 true
gene 1 282 12 1.6072573378650372 false 1424 1.6072573378650372 true
gene 1 1 282 0.06790642762716881 false 1768 0.06790642762716881 true
gene 1 87 87 -0.5825283596631401 true 1789 -0.5825283596631401 true
gene 1 4 282 1.58614329567205 false 2088 1.58614329567205 true
gene 1 5 483 -0.2085083738213755 false 2438 -0.2085083738213755 true
gene 1 483 12 0.10228008878257722 false 2439 0.10228008878257722 true
gene 1 5 13 0.07522610417280667 false 2454 0.07522610417280667 true
gene 1 483 282 -0.24062875478195395 false 3065 -0.24062875478195395 true
genomeend 7
/* Organism #6 Fitness: 5.963 Error: 0.990 */
genomestart 6
trait 1 0 1.4943430144896883 0 0 0.037734823723578 0.7911559805330319 0.009939004092382537 0 
node 1 1 1 3
node 2 1 1 1
node 3 1 1 1
node 4 1 1 1
node 5 1 1 1
node 6 1 1 1
node 7 1 1 1
node 8 1 1 1
node 9 1 1 1
node 10 1 1 1
node 11 1 1 1
node 12 1 0 0
node 13 1 0 2
node 14 1 0 2
node 87 1 0 0
node 282 1 0 0
node 483 1 0 0
gene 1 1 12 -3.6918983654429507 false 1 -3.6918983654429507 true
gene 1 2 12 0.6339643730989956 false 2 0.6339643730989956 true
gene 1 3 12 0.2867245291367589 false 3 0.2867245291367589 true
gene 1 4 12 -0.7774505952444587 false 4 -0.7774505952444587 true
gene 1 5 12 1.9105370860830482 false 5 1.9105370860830482 true
gene 1 6 12 0.2939661879157369 false 6 0.2939661879157369 true
gene 1 7 12 0.49217314525781586 false 7 0.49217314525781586 true
gene 1 8 12 0.002132328237173242 false 8 0.002132328237173242 true
gene 1 9 12 1.1714407664258137 false 9 1.1714407664258137 true
gene 1 10 12 -0.5895265078517499 false 10 -0.5895265078517499 true
gene 1 11 12 0.26457869914717747 false 11 0.26457869914717747 true
gene 1 12 13 0.527178554914746 false 12 0.527178554914746 true
gene 1 12 14 0.8466798324987905 false 13 0.8466798324987905 true
gene 1 7 14 0.4148408670333139 false 24 0.4148408670333139 true
gene 1 3 87 1.4668275978137169 false 460 1.4668275978137169 true
gene 1 87 12 0.6758650936488659 false 461 0.6758650936488659 true
gene 1 9 13 0.43479077985086256 false 891 0.43479077985086256 true
gene 1 8 13 -0.06806913668371162 false 995 -0.06806913668371162 true
gene 1 6 87 -2.0129729894427513 false 1314 -2.0129729894427513 true
gene 1 13 13 -0.20209269016716266 true 1358 -0.20209269016716266 true
gene 1 3 282 0.16482997199603938 false 1423 0.16482997199603938 true
gene 1 282 12 1.4714124692444872 false 1424 1.4714124692444872 true
gene 1 1 282 -0.839361381246897 false 1768 -0.839361381246897 true
gene 1 87 87 -0.6611257280397399 true 1789 -0.6611257280397399 true
gene 1 4 282 2.071516509520339 false 2088 2.071516509520339 true
gene 1 5 483 -0.7054285573232194 false 2438 -0.7054285573232194 true
gene 1 483 12 -0.13063153833999347 false 2439 -0.13063153833999347 true
gene 1 5 13 0.2877050037765315 false 2454 0.2877050037765315 true
gene 1 483 282 5.8428275964744465 false 3065 5.8428275964744465 true
genomeend 6
/* Organism #1 Fitness: 5.949 Error: 0.657 */
genomestart 1
trait 1 0 0.7295765657389145 0.1346265063112596 0 0.037734823723578 0.7911559805330319 0.009939004092382537 0.2166802095113048 
node 1 1 1 3
node 2 1 1 1
node 3 1 1 1
node 4 1 1 1
node 5 1 1 1
node 6 1 1 1
node 7 1 1 1
node 8 1 1 1
node 9 1 1 1
node 10 1 1 1
node 11 1 1 1
node 12 1 0 0
node 13 1 0 2
node 14 1 0 2
node 87 1 0 0
node 282 1 0 0
node 483 1 0 0
gene 1 1 12 -3.9111709233871013 false 1 -3.9111709233871013 true
gene 1 2 12 0.20318799770346324 false 2 0.20318799770346324 true
gene 1 3 12 -0.28728957909154546 false 3 -0.28728957909154546 true
gene 1 4 12 -0.7200966354792636 false 4 -0.7200966354792636 true
gene 1 5 12 1.1566060946103744 false 5 1.1566060946103744 true
gene 1 6 12 -0.1559944770369132 false 6 -0.1559944770369132 true
gene 1 7 12 0.6089376483650096 false 7 0.6089376483650096 true
gene 1 8 12 0.03549663701228423 false 8 0.03549663701228423 true
gene 1 9 12 0.8641654153668938 false 9 0.8641654153668938 true
gene 1 10 12 -0.5897517049809082 false 10 -0.5897517049809082 true
gene 1 11 12 0.554767632959062 false 11 0.554767632959062 true
gene 1 12 13 -0.16185909888722863 false 12 -0.16185909888722863 true
gene 1 12 14 0.7810943679484298 false 13 0.7810943679484298 true
gene 1 7 14 1.3980153530205737 false 24 1.3980153530205737 true
gene 1 3 87 1.1366621610134993 false 460 1.1366621610134993 true
gene 1 87 12 1.1499042688908319 false 461 1.1499042688908319 true
gene 1 9 13 -0.37398127405629694 false 891 -0.37398127405629694 true
gene 1 8 13 0.21889072848083227 false 995 0.21889072848083227 true
gene 1 6 87 -1.641909520322506 false 1314 -1.641909520322506 true
gene 1 13 13 -0.41167257753540276 true 1358 -0.41167257753540276 true
gene 1 3 282 0.16482997199603938 false 1423 0.16482997199603938 true
gene 1 282 12 1.1221666339318157 false 1424 1.1221666339318157 true
gene 1 1 282 0.30350220727961497 false 1768 0.30350220727961497 true
gene 1 87 87 -1.1598459336892273 true 1789 -1.1598459336892273 true
gene 1 4 282 2.360065976479124 false 2088 2.360065976479124 true
gene 1 5 483 -0.5172744387761554 false 2438 -0.5172744387761554 true
gene 1 483 12 -0.987337276585484 false 2439 -0.987337276585484 true
gene 1 5 13 0.3407070531760085 false 2454 0.3407070531760085 true
gene 1 483 282 6.624765335418361 false 3065 6.624765335418361 true
genomeend 1
/* Organism #5 Fitness: 5.824 Error: 0.662 */
genomestart 5
trait 1 0 0.7295765657389145 0.1346265063112596 0 0.037734823723578 0.7911559805330319 0.009939004092382537 0.2166802095113048 
node 1 1 1 3
node 2 1 1 1
node 3 1 1 1
node 4 1 1 1
node 5 1 1 1
node 6 1 1 1
node 7 1 1 1
node 8 1 1 1
node 9 1 1 1
node 10 1 1 1
node 11 1 1 1
node 12 1 0 0
node 13 1 0 2
node 14 1 0 2
node 87 1 0 0
node 282 1 0 0
node 483 1 0 0
gene 1 1 12 -4.010166535409979 false 1 -4.010166535409979 true
gene 1 2 12 -0.21436560886616543 false 2 -0.21436560886616543 true
gene 1 3 12 -0.06186699235407306 false 3 -0.06186699235407306 true
gene 1 4 12 0.18598535149235418 false 4 0.18598535149235418 true
gene 1 5 12 2.0738783359886663 false 5 2.0738783359886663 true
gene 1 6 12 0.49659710922656375 false 6 0.49659710922656375 true
gene 1 7 12 0.5067291442166025 false 7 0.5067291442166025 true
gene 1 8 12 0.05161585040982175 false 8 0.05161585040982175 true
gene 1 9 12 0.37714495028291384 false 9 0.37714495028291384 true
gene 1 10 12 0.3844288287417391 false 10 0.3844288287417391 true
gene 1 11 12 -0.9719567979465865 false 11 -0.9719567979465865 true
gene 1 12 13 1.1749802919322847 false 12 1.1749802919322847 true
gene 1 12 14 1.3775033712150682 false 13 1.3775033712150682 true
gene 1 7 14 0.8232916693249392 false 24 0.8232916693249392 true
gene 1 3 87 0.9598279836838695 false 460 0.9598279836838695 true
gene 1 87 12 1.1399578809953512 false 461 1.1399578809953512 true
gene 1 9 13 -0.6633862955085197 false 891 -0.6633862955085197 true
gene 1 8 13 0.6865524120388308 false 995 0.6865524120388308 true
gene 1 6 87 -1.8973560676410024 false 1314 -1.8973560676410024 true
gene 1 13 13 -0.6483820011692261 true 1358 -0.6483820011692261 true
gene 1 3 282 0.27970926888097236 false 1423 0.27970926888097236 true
gene 1 282 12 1.2483394872252052 false 1424 1.2483394872252052 true
gene 1 1 282 -0.7650844550933672 false 1768 -0.7650844550933672 true
gene 1 87 87 -0.7388758651565419 true 1789 -0.7388758651565419 true
gene 1 4 282 1.859725619207879 false 2088 1.859725619207879 true
gene 1 5 483 -0.14775285372367633 false 2438 -0.14775285372367633 true
gene 1 483 12 -0.495701421628779 false 2439 -0.495701421628779 true
gene 1 5 13 0.39088997262118785 false 2454 0.39088997262118785 true
gene 1 483 282 6.191275264310933 false 3065 6.191275264310933 true
genomeend 5
/* Organism #4 Fitness: 5.661 Error: 0.607 */
genomestart 4
trait 1 0 0.7295765657389145 0.1346265063112596 0 0.037734823723578 0.7911559805330319 0.009939004092382537 0.2166802095113048 
node 1 1 1 3
node 2 1 1 1
node 3 1 1 1
node 4 1 1 1
node 5 1 1 1
node 6 1 1 1
node 7 1 1 1
node 8 1 1 1
node 9 1 1 1
node 10 1 1 1
node 11 1 1 1
node 12 1 0 0
node 13 1 0 2
node 14 1 0 2
node 87 1 0 0
node 282 1 0 0
node 483 1 0 0
gene 1 1 12 -3.6585730582695275 false 1 -3.6585730582695275 true
gene 1 2 12 -0.1214950380283783 false 2 -0.1214950380283783 true
gene 1 3 12 -0.06083255411238195 false 3 -0.06083255411238195 true
gene 1 4 12 1.0801321270266033 false 4 1.0801321270266033 true
gene 1 5 12 1.8170596011653728 false 5 1.8170596011653728 true
gene 1 6 12 -0.15842989178388314 false 6 -0.15842989178388314 true
gene 1 7 12 1.3153992356606214 false 7 1.3153992356606214 true
gene 1 8 12 -0.1251867128585905 false 8 -0.1251867128585905 true
gene 1 9 12 1.6750559343576539 false 9 1.6750559343576539 true
gene 1 10 12 -0.3625938942352874 false 10 -0.3625938942352874 true
gene 1 11 12 -0.632652620999775 false 11 -0.632652620999775 true
gene 1 12 13 1.6427679862448907 false 12 1.6427679862448907 true
gene 1 12 14 1.0275221443873759 false 13 1.0275221443873759 true
gene 1 7 14 0.8434134675024376 false 24 0.8434134675024376 true
gene 1 3 87 0.7075376655145584 false 460 0.7075376655145584 true
gene 1 87 12 1.268928479132765 false 461 1.268928479132765 true
gene 1 9 13 0.3423766730835631 false 891 0.3423766730835631 true
gene 1 8 13 1.298522944885327 false 995 1.298522944885327 true
gene 1 6 87 -0.7344989376544603 false 1314 -0.7344989376544603 true
gene 1 13 13 -0.9337849083877534 true 1358 -0.9337849083877534 true
gene 1 3 282 0.6776159582777193 false 1423 0.6776159582777193 true
gene 1 282 12 0.6288170658071057 false 1424 0.6288170658071057 true
gene 1 1 282 -0.7335140384014501 false 1768 -0.7335140384014501 true
gene 1 87 87 -0.966150087747158 true 1789 -0.966150087747158 true
gene 1 4 282 1.0507436653830404 false 2088 1.0507436653830404 true
gene 1 5 483 -0.42577244719606366 false 2438 -0.42577244719606366 true
gene 1 483 12 -0.38620149439874485 false 2439 -0.38620149439874485 true
gene 1 5 13 0.39088997262118785 false 2454 0.39088997262118785 true
gene 1 483 282 -0.27171043462598443 false 3065 -0.27171043462598443 true
genomeend 4
/* Organism #3 Fitness: 3.766 Error: 0.977 */
genomestart 3
trait 1 0 0.7295765657389145 0.1346265063112596 0 0.037734823723578 0.7911559805330319 0.009939004092382537 0.2166802095113048 
node 1 1 1 3
node 2 1 1 1
node 3 1 1 1
node 4 1 1 1
node 5 1 1 1
node 6 1 1 1
node 7 1 1 1
node 8 1 1 1
node 9 1 1 1
node 10 1 1 1
node 11 1 1 1
node 12 1 0 0
node 13 1 0 2
node 14 1 0 2
node 87 1 0 0
node 282 1 0 0
node 483 1 0 0
gene 1 1 12 -3.2635268223671003 false 1 -3.2635268223671003 true
gene 1 2 12 -0.9973928150243885 false 2 -0.9973928150243885 true
gene 1 3 12 -0.23240367254555622 false 3 -0.23240367254555622 true
gene 1 4 12 1.3919997783767613 false 4 1.3919997783767613 true
gene 1 5 12 0.2512667151033278 false 5 0.2512667151033278 true
gene 1 6 12 0.8724993773356123 false 6 0.8724993773356123 true
gene 1 7 12 0.9890300249337065 false 7 0.9890300249337065 true
gene 1 8 12 0.8785102892246217 false 8 0.8785102892246217 true
gene 1 9 12 0.38607272347603105 false 9 0.38607272347603105 true
gene 1 10 12 -0.3073572820755997 false 10 -0.3073572820755997 true
gene 1 11 12 -0.18796145903236225 false 11 -0.18796145903236225 true
gene 1 12 13 1.2997565987658377 false 12 1.2997565987658377 true
gene 1 12 14 0.4124969769898749 false 13 0.4124969769898749 true
gene 1 7 14 1.4525982830550264 false 24 1.4525982830550264 true
gene 1 3 87 1.6711134569487134 false 460 1.6711134569487134 true
gene 1 87 12 0.9973161714529134 false 461 0.9973161714529134 true
gene 1 9 13 0.6854309798619054 false 891 0.6854309798619054 true
gene 1 8 13 -0.07865451255343958 false 995 -0.07865451255343958 true
gene 1 6 87 -1.3454501618947976 false 1314 -1.3454501618947976 true
gene 1 13 13 -0.05792770884518894 true 1358 -0.05792770884518894 true
gene 1 3 282 -0.4177508232439742 false 1423 -0.4177508232439742 true
gene 1 282 12 1.1221666339318157 false 1424 1.1221666339318157 true
gene 1 1 282 -0.639590725631044 false 1768 -0.639590725631044 true
gene 1 87 87 -1.5398866774577344 true 1789 -1.5398866774577344 true
gene 1 4 282 1.302382479750723 false 2088 1.302382479750723 true
gene 1 5 483 -0.51650745988352 false 2438 -0.51650745988352 true
gene 1 483 12 -0.2373165302302941 false 2439 -0.2373165302302941 true
gene 1 5 13 0.20621797229522013 false 2454 0.20621797229522013 true
gene 1 483 282 6.51602832194282 false 3065 6.51602832194282 true
genomeend 3
/* Species #2 : (Size 9) (AF 7.247) (Age 105)  */
/* Organism #8 Fitness: 9.108 Error: 0.971 */
genomestart 8
trait 1 0.9979157059619441 0 0.06556372261382556 0.6315817371955394 0.2577588046109057 1.063321208553515 0.4078879209940137 0 
node 1 1 1 3
node 2 1 1 1
node 3 1 1 1
node 4 1 1 1
node 5 1 1 1
node 6 1 1 1
node 7 1 1 1
node 8 1 1 1
node 9 1 1 1
node 10 1 1 1
node 11 1 1 1
node 12 1 0 0
node 13 1 0 2
node 14 1 0 2
node 85 1 0 0
node 139 1 0 0
node 266 1 0 0
node 320 1 0 0
gene 1 1 12 -0.5164711947370204 false 1 -0.5164711947370204 true
gene 1 2 12 0.08786493047546162 false 2 0.08786493047546162 true
gene 1 3 12 2.1710662115723554 false 3 2.1710662115723554 true
gene 1 4 12 1.119836312844508 false 4 1.119836312844508 true
gene 1 5 12 2.343105748488174 false 5 2.343105748488174 true
gene 1 6 12 -1.7004576233080595 false 6 -1.7004576233080595 true
gene 1 7 12 -4.917936836349995 false 7 -4.917936836349995 true
gene 1 8 12 -2.5475509001468706 false 8 -2.5475509001468706 true
gene 1 9 12 -1.686750632974921 false 9 -1.686750632974921 true
gene 1 10 12 1.4955490546523813 false 10 1.4955490546523813 true
gene 1 11 12 -1.207049621198398 false 11 -1.207049621198398 true
gene 1 12 13 -1.3798931233332796 false 12 -1.3798931233332796 true
gene 1 12 14 2.081158817060999 false 13 2.081158817060999 true
gene 1 7 14 -2.0281390424028123 false 24 -2.0281390424028123 true
gene 1 7 13 -0.21846577896925023 false 54 -0.21846577896925023 true
gene 1 2 13 -0.3225237282708492 false 105 -0.3225237282708492 true
gene 1 2 85 1.9787187743180938 false 451 1.9787187743180938 true
gene 1 85 13 -2.2704848234246913 false 452 -2.2704848234246913 true
gene 1 2 139 -0.8210082687825427 false 718 -0.8210082687825427 true
gene 1 139 13 -0.41914855835235343 false 719 -0.41914855835235343 true
gene 1 4 139 0.3686029477401519 false 782 0.3686029477401519 true
gene 1 11 85 -0.6084360272384849 false 909 -0.6084360272384849 true
gene 1 10 85 1.468637450778501 false 944 1.468637450778501 true
gene 1 12 85 1.0213987099240178 false 1190 1.0213987099240178 true
gene 1 1 85 0.7551491867024283 false 1270 0.7551491867024283 true
gene 1 9 13 1.730225284563522 false 1323 1.730225284563522 true
gene 1 7 266 1.9195556759592534 false 1356 1.9195556759592534 true
gene 1 266 13 -0.9536483343387986 false 1357 -0.9536483343387986 true
gene 1 11 320 -1.9487303499569046 false 1594 -1.9487303499569046 true
gene 1 320 85 -0.3782039551990559 false 1595 -0.3782039551990559 true
gene 1 3 320 -1.1822627451176908 false 1894 -1.1822627451176908 true
gene 1 320 14 -1.6366065864261574 false 2053 -1.6366065864261574 true
gene 1 139 266 -0.31812383219222573 false 2150 -0.31812383219222573 true
gene 1 320 266 -0.11650192917632729 false 2159 -0.11650192917632729 true
gene 1 10 13 -0.015062895579979058 false 2548 -0.015062895579979058 true
gene 1 320 13 -0.3490663967731119 false 2963 -0.3490663967731119 true
genomeend 8
/* Organism #11 Fitness: 8.476 Error: 0.990 */
genomestart 11
trait 1 0.9979157059619441 0 0.06556372261382556 0.6315817371955394 0.2577588046109057 1.063321208553515 0.4078879209940137 0 
node 1 1 1 3
node 2 1 1 1
node 3 1 1 1
node 4 1 1 1
node 5 1 1 1
node 6 1 1 1
node 7 1 1 1
node 8 1 1 1
node 9 1 1 1
node 10 1 1 1
node 11 1 1 1
node 12 1 0 0
node 13 1 0 2
node 14 1 0 2
node 85 1 0 0
node 139 1 0 0
node 266 1 0 0
node 320 1 0 0
gene 1 1 12 -0.5230475522804638 false 1 -0.5230475522804638 true
gene 1 2 12 -0.47939863768988067 false 2 -0.47939863768988067 true
gene 1 3 12 2.6684051731662475 false 3 2.6684051731662475 true
gene 1 4 12 1.5034853277700742 false 4 1.5034853277700742 true
gene 1 5 12 2.496134910939972 false 5 2.496134910939972 true
gene 1 6 12 -1.2266955606984316 false 6 -1.2266955606984316 true
gene 1 7 12 -4.440459562919577 false 7 -4.440459562919577 true
gene 1 8 12 -2.9183046889955926 false 8 -2.9183046889955926 true
gene 1 9 12 -1.6317072855835413 false 9 -1.6317072855835413 true
gene 1 10 12 2.002027376495473 false 10 2.002027376495473 true
gene 1 11 12 -1.430348641360471 false 11 -1.430348641360471 true
gene 1 12 13 -0.7166305709047791 false 12 -0.7166305709047791 true
gene 1 12 14 2.807536822106191 false 13 2.807536822106191 true
gene 1 7 14 -2.695689953645207 false 24 -2.695689953645207 true
gene 1 7 13 0.02978319466560919 false 54 0.02978319466560919 true
gene 1 2 13 0.16959700607735073 false 105 0.16959700607735073 true
gene 1 2 85 2.760206464011609 false 451 2.760206464011609 true
gene 1 85 13 -1.7122683889115136 false 452 -1.7122683889115136 true
gene 1 2 139 -1.60867146752507 false 718 -1.60867146752507 true
gene 1 139 13 -0.08720703798539925 false 719 -0.08720703798539925 true
gene 1 4 139 0.6556725958008374 false 782 0.6556725958008374 true
gene 1 11 85 0.15631642650576671 false 909 0.15631642650576671 true
gene 1 10 85 1.6777555347097008 false 944 1.6777555347097008 true
gene 1 12 85 1.474937841144616 false 1190 1.474937841144616 true
gene 1 1 85 0.5407631858996695 false 1270 0.5407631858996695 true
gene 1 9 13 1.07383042210316 false 1323 1.07383042210316 true
gene 1 7 266 1.8277496091422565 false 1356 1.8277496091422565 true
gene 1 266 13 -1.2690431564400628 false 1357 -1.2690431564400628 true
gene 1 11 320 -1.5892848996975484 false 1594 -1.5892848996975484 true
gene 1 320 85 -0.3782039551990559 false 1595 -0.3782039551990559 true
gene 1 3 320 -0.4730062730638641 false 1894 -0.4730062730638641 true
gene 1 320 14 -1.6366065864261574 false 2053 -1.6366065864261574 true
gene 1 139 266 -0.22776209405120784 false 2150 -0.22776209405120784 true
gene 1 320 266 0.05154932827636985 false 2159 0.05154932827636985 true
gene 1 10 13 -0.6290003494552359 false 2548 -0.6290003494552359 true
gene 1 320 13 -0.2733650635799315 false 2963 -0.2733650635799315 true
genomeend 11
/* Organism #16 Fitness: 8.389 Error: 0.990 */
genomestart 16
trait 1 0.9979157059619441 0 0.06556372261382556 0.6315817371955394 0.2577588046109057 1.063321208553515 0.4078879209940137 0 
node 1 1 1 3
node 2 1 1 1
node 3 1 1 1
node 4 1 1 1
node 5 1 1 1
node 6 1 1 1
node 7 1 1 1
node 8 1 1 1
node 9 1 1 1
node 10 1 1 1
node 11 1 1 1
node 12 1 0 0
node 13 1 0 2
node 14 1 0 2
node 85 1 0 0
node 139 1 0 0
node 266 1 0 0
node 320 1 0 0
gene 1 1 12 -0.578424755147514 false 1 -0.578424755147514 true
gene 1 2 12 0.42704139884751946 false 2 0.42704139884751946 true
gene 1 3 12 2.390654030048421 false 3 2.390654030048421 true
gene 1 4 12 1.1973847988997512 false 4 1.1973847988997512 true
gene 1 5 12 1.9027773521808022 false 5 1.9027773521808022 true
gene 1 6 12 -1.3438207684365409 false 6 -1.3438207684365409 true
gene 1 7 12 -2.588771416124784 false 7 -2.588771416124784 true
gene 1 8 12 -2.4675211607495267 false 8 -2.4675211607495267 true
gene 1 9 12 -1.4985628405737317 false 9 -1.4985628405737317 true
gene 1 10 12 0.4926380720572512 false 10 0.4926380720572512 true
gene 1 11 12 -1.1642551913072834 false 11 -1.1642551913072834 true
gene 1 12 13 -1.3858301160785986 false 12 -1.3858301160785986 true
gene 1 12 14 2.0129930575000126 false 13 2.0129930575000126 true
gene 1 7 14 -2.0469918817925166 false 24 -2.0469918817925166 true
gene 1 7 13 0.32378714922281127 false 54 0.32378714922281127 true
gene 1 2 13 -0.4196932134287869 false 105 -0.4196932134287869 true
gene 1 2 85 1.9276781367401186 false 451 1.9276781367401186 true
gene 1 85 13 -2.1481661532459007 false 452 -2.1481661532459007 true
gene 1 2 139 -0.686754459090839 false 718 -0.686754459090839 true
gene 1 139 13 -0.4791315409100582 false 719 -0.4791315409100582 true
gene 1 4 139 0.6839296663752883 false 782 0.6839296663752883 true
gene 1 11 85 -0.6909473515730702 false 909 -0.6909473515730702 true
gene 1 10 85 1.8102539706494798 false 944 1.8102539706494798 true
gene 1 12 85 0.25742859728657363 false 1190 0.25742859728657363 true
gene 1 1 85 0.9917777693854498 false 1270 0.9917777693854498 true
gene 1 9 13 1.5297015369239215 false 1323 1.5297015369239215 true
gene 1 7 266 0.6077936486939528 false 1356 0.6077936486939528 true
gene 1 266 13 -0.4129376410384468 false 1357 -0.4129376410384468 true
gene 1 11 320 -1.06263565790102 false 1594 -1.06263565790102 true
gene 1 320 85 -0.35107450983109256 false 1595 -0.35107450983109256 true
gene 1 3 320 -0.5847768454307221 false 1894 -0.5847768454307221 true
gene 1 320 14 -1.2399337037652038 false 2053 -1.2399337037652038 true
gene 1 139 266 -0.2138722549672301 false 2150 -0.2138722549672301 true
gene 1 320 266 -0.3010139617677544 false 2159 -0.3010139617677544 true
gene 1 10 13 -0.054830563584976594 false 2548 -0.054830563584976594 true
gene 1 320 13 -0.4958914509079571 false 2963 -0.4958914509079571 true
genomeend 16
/* Organism #12 Fitness: 8.147 Error: 0.990 */
genomestart 12
trait 1 0.9979157059619441 0 0.06556372261382556 0.6315817371955394 0.2577588046109057 1.063321208553515 0.4078879209940137 0 
node 1 1 1 3
node 2 1 1 1
node 3 1 1 1
node 4 1 1 1
node 5 1 1 1
node 6 1 1 1
node 7 1 1 1
node 8 1 1 1
node 9 1 1 1
node 10 1 1 1
node 11 1 1 1
node 12 1 0 0
node 13 1 0 2
node 14 1 0 2
node 85 1 0 0
node 139 1 0 0
node 266 1 0 0
node 320 1 0 0
gene 1 1 12 -0.8708571614877129 false 1 -0.8708571614877129 true
gene 1 2 12 0.04316186876787653 false 2 0.04316186876787653 true
gene 1 3 12 3.066678145238767 false 3 3.066678145238767 true
gene 1 4 12 0.5735322070900888 false 4 0.5735322070900888 true
gene 1 5 12 1.9338343863112972 false 5 1.9338343863112972 true
gene 1 6 12 -2.0768209924900667 false 6 -2.0768209924900667 true
gene 1 7 12 -2.540034304922576 false 7 -2.540034304922576 true
gene 1 8 12 -3.0752165971742635 false 8 -3.0752165971742635 true
gene 1 9 12 -2.0000938577807332 false 9 -2.0000938577807332 true
gene 1 10 12 0.355888440707644 false 10 0.355888440707644 true
gene 1 11 12 -1.2938628055497279 false 11 -1.2938628055497279 true
gene 1 12 13 -1.0899432054478366 false 12 -1.0899432054478366 true
gene 1 12 14 1.3923322673539031 false 13 1.3923322673539031 true
gene 1 7 14 -2.2786625393657927 false 24 -2.2786625393657927 true
gene 1 7 13 -0.10323616335619801 false 54 -0.10323616335619801 true
gene 1 2 13 -1.1471953820644247 false 105 -1.1471953820644247 true
gene 1 2 85 1.3994667296203565 false 451 1.3994667296203565 true
gene 1 85 13 -2.156391053837515 false 452 -2.156391053837515 true
gene 1 2 139 -0.8520092079953179 false 718 -0.8520092079953179 true
gene 1 139 13 -1.1132895761994088 false 719 -1.1132895761994088 true
gene 1 4 139 1.3466893751797098 false 782 1.3466893751797098 true
gene 1 11 85 -0.23321461200966276 false 909 -0.23321461200966276 true
gene 1 10 85 1.511502705529613 false 944 1.511502705529613 true
gene 1 12 85 -0.22091880530003616 false 1190 -0.22091880530003616 true
gene 1 1 85 1.441954728788275 false 1270 1.441954728788275 true
gene 1 9 13 0.7456758768042108 false 1323 0.7456758768042108 true
gene 1 7 266 0.5471629547586975 false 1356 0.5471629547586975 true
gene 1 266 13 -0.2531630340654178 false 1357 -0.2531630340654178 true
gene 1 11 320 -0.6346078776982604 false 1594 -0.6346078776982604 true
gene 1 320 85 -0.26448508652396574 false 1595 -0.26448508652396574 true
gene 1 3 320 -0.5847768454307221 false 1894 -0.5847768454307221 true
gene 1 320 14 0.17161476047701865 false 2053 0.17161476047701865 true
gene 1 139 266 0.44202029337384346 false 2150 0.44202029337384346 true
gene 1 320 266 0.1185068886357928 false 2159 0.1185068886357928 true
gene 1 10 13 -0.6689005606805603 false 2548 -0.6689005606805603 true
gene 1 320 13 -0.4958914509079571 false 2963 -0.4958914509079571 true
genomeend 12
/* Organism #13 Fitness: 7.740 Error: 0.990 */
genomestart 13
trait 1 0.9979157059619441 0 0.06556372261382556 0.6315817371955394 0.2577588046109057 1.063321208553515 0.4078879209940137 0 
node 1 1 1 3
node 2 1 1 1
node 3 1 1 1
node 4 1 1 1
node 5 1 1 1
node 6 1 1 1
node 7 1 1 1
node 8 1 1 1
node 9 1 1 1
node 10 1 1 1
node 11 1 1 1
node 12 1 0 0
node 13 1 0 2
node 14 1 0 2
node 85 1 0 0
node 139 1 0 0
node 266 1 0 0
node 320 1 0 0
gene 1 1 12 -0.5164711947370204 false 1 -0.5164711947370204 true
gene 1 2 12 0.5930602217586751 false 2 0.5930602217586751 true
gene 1 3 12 2.1710662115723554 false 3 2.1710662115723554 true
gene 1 4 12 0.7836290985034042 false 4 0.7836290985034042 true
gene 1 5 12 1.7875514823079621 false 5 1.7875514823079621 true
gene 1 6 12 -0.2699217960556495 false 6 -0.2699217960556495 true
gene 1 7 12 -4.917936836349995 false 7 -4.917936836349995 true
gene 1 8 12 -2.4662160729359344 false 8 -2.4662160729359344 true
gene 1 9 12 -2.128627348849905 false 9 -2.128627348849905 true
gene 1 10 12 1.4955490546523813 false 10 1.4955490546523813 true
gene 1 11 12 -1.5212648237494402 false 11 -1.5212648237494402 true
gene 1 12 13 -1.8369508789603146 false 12 -1.8369508789603146 true
gene 1 12 14 2.769890813148929 false 13 2.769890813148929 true
gene 1 7 14 -0.5790307221236871 false 24 -0.5790307221236871 true
gene 1 7 13 0.1462586664306904 false 54 0.1462586664306904 true
gene 1 2 13 -0.9857124679422982 false 105 -0.9857124679422982 true
gene 1 2 85 1.6014342865163846 false 451 1.6014342865163846 true
gene 1 85 13 -2.5663119535908914 false 452 -2.5663119535908914 true
gene 1 2 139 -0.29722110998949836 false 718 -0.29722110998949836 true
gene 1 139 13 -0.6901626877781599 false 719 -0.6901626877781599 true
gene 1 4 139 0.6369672276782654 false 782 0.6369672276782654 true
gene 1 11 85 -0.47549645489473835 false 909 -0.47549645489473835 true
gene 1 10 85 1.31450563182494 false 944 1.31450563182494 true
gene 1 12 85 1.7976536728925439 false 1190 1.7976536728925439 true
gene 1 1 85 -0.07215439016697589 false 1270 -0.07215439016697589 true
gene 1 9 13 2.052311571362806 false 1323 2.052311571362806 true
gene 1 7 266 1.3604675474099936 false 1356 1.3604675474099936 true
gene 1 266 13 -1.2683118551604644 false 1357 -1.2683118551604644 true
gene 1 11 320 -2.2110699320919402 false 1594 -2.2110699320919402 true
gene 1 320 85 -1.0631272425722933 false 1595 -1.0631272425722933 true
gene 1 3 320 -0.6945688490223487 false 1894 -0.6945688490223487 true
gene 1 320 14 0.12376201153605088 false 2053 0.12376201153605088 true
gene 1 139 266 -0.9277585035418842 false 2150 -0.9277585035418842 true
gene 1 320 266 -0.8161598659286159 false 2159 -0.8161598659286159 true
gene 1 10 13 -0.39472015426610396 false 2548 -0.39472015426610396 true
gene 1 320 13 -0.11017544157970402 false 2963 -0.11017544157970402 true
genomeend 13
/* Organism #15 Fitness: 7.299 Error: 0.850 */
genomestart 15
trait 1 0.9979157059619441 0 0.06556372261382556 0.6315817371955394 0.2577588046109057 1.063321208553515 0.4078879209940137 0 
node 1 1 1 3
node 2 1 1 1
node 3 1 1 1
node 4 1 1 1
node 5 1 1 1
node 6 1 1 1
node 7 1 1 1
node 8 1 1 1
node 9 1 1 1
node 10 1 1 1
node 11 1 1 1
node 12 1 0 0
node 13 1 0 2
node 14 1 0 2
node 85 1 0 0
node 139 1 0 0
node 266 1 0 0
node 320 1 0 0
gene 1 1 12 -0.26453504573062586 false 1 -0.26453504573062586 true
gene 1 2 12 1.4155128553555913 false 2 1.4155128553555913 true
gene 1 3 12 -0.26014726923050674 false 3 -0.26014726923050674 true
gene 1 4 12 -0.1146915170922719 false 4 -0.1146915170922719 true
gene 1 5 12 0.14496587640510114 false 5 0.14496587640510114 true
gene 1 6 12 -0.7028623898341008 false 6 -0.7028623898341008 true
gene 1 7 12 -0.4316587316943356 false 7 -0.4316587316943356 true
gene 1 8 12 -1.6383975315870871 false 8 -1.6383975315870871 true
gene 1 9 12 -1.721162533424976 false 9 -1.721162533424976 true
gene 1 10 12 0.25831827149853825 false 10 0.25831827149853825 true
gene 1 11 12 -1.1214607614161687 false 11 -1.1214607614161687 true
gene 1 12 13 -0.7525287559253125 false 12 -0.7525287559253125 true
gene 1 12 14 2.2751948841465106 false 13 2.2751948841465106 true
gene 1 7 14 -2.114565862906394 false 24 -2.114565862906394 true
gene 1 7 13 0.24638912023154946 false 54 0.24638912023154946 true
gene 1 2 13 -0.5168626985867246 false 105 -0.5168626985867246 true
gene 1 2 85 -0.5125793889309578 false 451 -0.5125793889309578 true
gene 1 85 13 -2.5429336911756604 false 452 -2.5429336911756604 true
gene 1 2 139 -0.39410763388996384 false 718 -0.39410763388996384 true
gene 1 139 13 -1.0844425492217615 false 719 -1.0844425492217615 true
gene 1 4 139 0.63470361302681 false 782 0.63470361302681 true
gene 1 11 85 -0.3441812682524239 false 909 -0.3441812682524239 true
gene 1 10 85 1.9689891499994792 false 944 1.9689891499994792 true
gene 1 12 85 0.09396986801256324 false 1190 0.09396986801256324 true
gene 1 1 85 1.2284063520684714 false 1270 1.2284063520684714 true
gene 1 9 13 -0.4558921836958389 false 1323 -0.4558921836958389 true
gene 1 7 266 -0.7376255942443404 false 1356 -0.7376255942443404 true
gene 1 266 13 0.8069195613705569 false 1357 0.8069195613705569 true
gene 1 11 320 0.14663842602437946 false 1594 0.14663842602437946 true
gene 1 320 85 -0.8932033382943015 false 1595 -0.8932033382943015 true
gene 1 3 320 -0.6711427607769591 false 1894 -0.6711427607769591 true
gene 1 320 14 -0.9242261517201545 false 2053 -0.9242261517201545 true
gene 1 139 266 0.6824940388631562 false 2150 0.6824940388631562 true
gene 1 320 266 -0.48552599435918153 false 2159 -0.48552599435918153 true
gene 1 10 13 -0.047223696946660655 false 2548 -0.047223696946660655 true
gene 1 320 13 -0.9100289775646365 false 2963 -0.9100289775646365 true
genomeend 15
/* Organism #10 Fitness: 5.964 Error: 0.990 */
genomestart 10
trait 1 0.9979157059619441 0 0.06556372261382556 0.6315817371955394 0.2577588046109057 1.063321208553515 0.4078879209940137 0 
node 1 1 1 3
node 2 1 1 1
node 3 1 1 1
node 4 1 1 1
node 5 1 1 1
node 6 1 1 1
node 7 1 1 1
node 8 1 1 1
node 9 1 1 1
node 10 1 1 1
node 11 1 1 1
node 12 1 0 0
node 13 1 0 2
node 14 1 0 2
node 85 1 0 0
node 139 1 0 0
node 266 1 0 0
node 320 1 0 0
gene 1 1 12 -0.7396274790848432 false 1 -0.7396274790848432 true
gene 1 2 12 0.6705877033741775 false 2 0.6705877033741775 true
gene 1 3 12 2.7370476512645427 false 3 2.7370476512645427 true
gene 1 4 12 0.40922807978064746 false 4 0.40922807978064746 true
gene 1 5 12 1.2344018864399928 false 5 1.2344018864399928 true
gene 1 6 12 -1.8668040080763033 false 6 -1.8668040080763033 true
gene 1 7 12 -3.2869292907578123 false 7 -3.2869292907578123 true
gene 1 8 12 -1.967668463532944 false 8 -1.967668463532944 true
gene 1 9 12 -0.9003063002352986 false 9 -0.9003063002352986 true
gene 1 10 12 0.24339220638633463 false 10 0.24339220638633463 true
gene 1 11 12 -0.5632793252156985 false 11 -0.5632793252156985 true
gene 1 12 13 -1.3925777208771106 false 12 -1.3925777208771106 true
gene 1 12 14 2.0855643202039844 false 13 2.0855643202039844 true
gene 1 7 14 -1.9960490350163975 false 24 -1.9960490350163975 true
gene 1 7 13 0.987660619769315 false 54 0.987660619769315 true
gene 1 2 13 0.24914481732554988 false 105 0.24914481732554988 true
gene 1 2 85 2.1209734824502524 false 451 2.1209734824502524 true
gene 1 85 13 -2.1290972909202104 false 452 -2.1290972909202104 true
gene 1 2 139 -0.24367726047662508 false 718 -0.24367726047662508 true
gene 1 139 13 -0.9037764967913349 false 719 -0.9037764967913349 true
gene 1 4 139 -0.08621990935340484 false 782 -0.08621990935340484 true
gene 1 11 85 -0.4299588407307598 false 909 -0.4299588407307598 true
gene 1 10 85 2.3631691381879087 false 944 2.3631691381879087 true
gene 1 12 85 -0.54135372794714 false 1190 -0.54135372794714 true
gene 1 1 85 1.5927022756040925 false 1270 1.5927022756040925 true
gene 1 9 13 1.7496735086915751 false 1323 1.7496735086915751 true
gene 1 7 266 0.9717933008115505 false 1356 0.9717933008115505 true
gene 1 266 13 -1.0230981659148828 false 1357 -1.0230981659148828 true
gene 1 11 320 -0.49105397238273496 false 1594 -0.49105397238273496 true
gene 1 320 85 0.2547012300123378 false 1595 0.2547012300123378 true
gene 1 3 320 -0.24272591671966126 false 1894 -0.24272591671966126 true
gene 1 320 14 0.03642571008604006 false 2053 0.03642571008604006 true
gene 1 139 266 -0.3010449898939505 false 2150 -0.3010449898939505 true
gene 1 320 266 0.1902879202726129 false 2159 0.1902879202726129 true
gene 1 10 13 -0.016895189128910915 false 2548 -0.016895189128910915 true
gene 1 320 13 -1.2358835895610272 false 2963 -1.2358835895610272 true
genomeend 10
/* Organism #9 Fitness: 5.387 Error: 0.990 */
genomestart 9
trait 1 0.9979157059619441 0 0.06556372261382556 0.6315817371955394 0.2577588046109057 1.063321208553515 0.4078879209940137 0 
node 1 1 1 3
node 2 1 1 1
node 3 1 1 1
node 4 1 1 1
node 5 1 1 1
node 6 1 1 1
node 7 1 1 1
node 8 1 1 1
node 9 1 1 1
node 10 1 1 1
node 11 1 1 1
node 12 1 0 0
node 13 1 0 2
node 14 1 0 2
node 85 1 0 0
node 139 1 0 0
node 266 1 0 0
node 320 1 0 0
gene 1 1 12 -1.1165179725028647 false 1 -1.1165179725028647 true
gene 1 2 12 -0.5176876765001288 false 2 -0.5176876765001288 true
gene 1 3 12 2.3684629676934676 false 3 2.3684629676934676 true
gene 1 4 12 1.6806342607773124 false 4 1.6806342607773124 true
gene 1 5 12 1.4624489558734304 false 5 1.4624489558734304 true
gene 1 6 12 -1.4008617943043848 false 6 -1.4008617943043848 true
gene 1 7 12 -0.5886871258183933 false 7 -0.5886871258183933 true
gene 1 8 12 -0.6893295230271339 false 8 -0.6893295230271339 true
gene 1 9 12 0.5226875168719837 false 9 0.5226875168719837 true
gene 1 10 12 -1.1673323389348242 false 10 -1.1673323389348242 true
gene 1 11 12 -1.5091894412643079 false 11 -1.5091894412643079 true
gene 1 12 13 -1.890381459292531 false 12 -1.890381459292531 true
gene 1 12 14 2.338620673015013 false 13 2.338620673015013 true
gene 1 7 14 -2.4280463685525264 false 24 -2.4280463685525264 true
gene 1 7 13 1.6252284829210568 false 54 1.6252284829210568 true
gene 1 2 13 -1.2274481408580145 false 105 -1.2274481408580145 true
gene 1 2 85 2.342145041475053 false 451 2.342145041475053 true
gene 1 85 13 -1.7944001038486317 false 452 -1.7944001038486317 true
gene 1 2 139 0.15526728982253102 false 718 0.15526728982253102 true
gene 1 139 13 0.09360784846084946 false 719 0.09360784846084946 true
gene 1 4 139 -0.1993487904485356 false 782 -0.1993487904485356 true
gene 1 11 85 -0.8791149569805039 false 909 -0.8791149569805039 true
gene 1 10 85 2.1393371955948597 false 944 2.1393371955948597 true
gene 1 12 85 -0.9101528195220348 false 1190 -0.9101528195220348 true
gene 1 1 85 0.6154337532703031 false 1270 0.6154337532703031 true
gene 1 9 13 1.0792548574935725 false 1323 1.0792548574935725 true
gene 1 7 266 -1.391793617499261 false 1356 -1.391793617499261 true
gene 1 266 13 -0.35991435501136027 false 1357 -0.35991435501136027 true
gene 1 11 320 -0.7093803877852279 false 1594 -0.7093803877852279 true
gene 1 320 85 -1.1060052051656553 false 1595 -1.1060052051656553 true
gene 1 3 320 -0.22376975500953947 false 1894 -0.22376975500953947 true
gene 1 320 14 -1.2445032088720493 false 2053 -1.2445032088720493 true
gene 1 139 266 -0.09620555834043118 false 2150 -0.09620555834043118 true
gene 1 320 266 0.27422402791257205 false 2159 0.27422402791257205 true
gene 1 10 13 0.2544105948590788 false 2548 0.2544105948590788 true
gene 1 320 13 -0.8878754521267196 false 2963 -0.8878754521267196 true
genomeend 9
/* Organism #14 Fitness: 4.712 Error: 0.900 */
genomestart 14
trait 1 0.9979157059619441 0 0.06556372261382556 0.6315817371955394 0.2577588046109057 1.063321208553515 0.4078879209940137 0 
node 1 1 1 3
node 2 1 1 1
node 3 1 1 1
node 4 1 1 1
node 5 1 1 1
node 6 1 1 1
node 7 1 1 1
node 8 1 1 1
node 9 1 1 1
node 10 1 1 1
node 11 1 1 1
node 12 1 0 0
node 13 1 0 2
node 14 1 0 2
node 85 1 0 0
node 139 1 0 0
node 266 1 0 0
node 320 1 0 0
gene 1 1 12 -0.058593469872909476 false 1 -0.058593469872909476 true
gene 1 2 12 0.7080597977855451 false 2 0.7080597977855451 true
gene 1 3 12 2.94596947652043 false 3 2.94596947652043 true
gene 1 4 12 1.4828476972625337 false 4 1.4828476972625337 true
gene 1 5 12 1.4491071421576138 false 5 1.4491071421576138 true
gene 1 6 12 -1.3096700296134636 false 6 -1.3096700296134636 true
gene 1 7 12 -0.45509949787895054 false 7 -0.45509949787895054 true
gene 1 8 12 -3.0779072599364783 false 8 -3.0779072599364783 true
gene 1 9 12 -0.8939996666477762 false 9 -0.8939996666477762 true
gene 1 10 12 -0.20816111441383306 false 10 -0.20816111441383306 true
gene 1 11 12 -0.9246917275365826 false 11 -0.9246917275365826 true
gene 1 12 13 -0.9209124055979068 false 12 -0.9209124055979068 true
gene 1 12 14 2.4165257103971363 false 13 2.4165257103971363 true
gene 1 7 14 -2.254240170383121 false 24 -2.254240170383121 true
gene 1 7 13 1.077629361690284 false 54 1.077629361690284 true
gene 1 2 13 -0.6651774500796518 false 105 -0.6651774500796518 true
gene 1 2 85 1.9884027766455863 false 451 1.9884027766455863 true
gene 1 85 13 -2.6982771501729808 false 452 -2.6982771501729808 true
gene 1 2 139 -1.0639752340688302 false 718 -1.0639752340688302 true
gene 1 139 13 -0.49744280858496553 false 719 -0.49744280858496553 true
gene 1 4 139 0.5303373367783448 false 782 0.5303373367783448 true
gene 1 11 85 -0.2711081556074362 false 909 -0.2711081556074362 true
gene 1 10 85 2.6803857644772844 false 944 2.6803857644772844 true
gene 1 12 85 -1.2440880485131784 false 1190 -1.2440880485131784 true
gene 1 1 85 1.4212722557558144 false 1270 1.4212722557558144 true
gene 1 9 13 0.8219526092744168 false 1323 0.8219526092744168 true
gene 1 7 266 -1.140681103432488 false 1356 -1.140681103432488 true
gene 1 266 13 -0.606056677294303 false 1357 -0.606056677294303 true
gene 1 11 320 -0.49799702661234635 false 1594 -0.49799702661234635 true
gene 1 320 85 -0.7922682390077068 false 1595 -0.7922682390077068 true
gene 1 3 320 0.012709054256246672 false 1894 0.012709054256246672 true
gene 1 320 14 -0.8432608211042503 false 2053 -0.8432608211042503 true
gene 1 139 266 -0.1096206777422345 false 2150 -0.1096206777422345 true
gene 1 320 266 -0.48552599435918153 false 2159 -0.48552599435918153 true
gene 1 10 13 -0.09459823158997413 false 2548 -0.09459823158997413 true
gene 1 320 13 -0.07470212717894509 false 2963 -0.07470212717894509 true
genomeend 14
/* Species #3 : (Size 6) (AF 6.527) (Age 105)  */
/* Organism #18 Fitness: 8.243 Error: 0.278 */
genomestart 18
trait 1 0.3757125493535413 1.9505517144440827 1.0104020747517057 0 0 2.4534261335396357 0 0.9877235525269176 
node 1 1 1 3
node 2 1 1 1
node 3 1 1 1
node 4 1 1 1
node 5 1 1 1
node 6 1 1 1
node 7 1 1 1
node 8 1 1 1
node 9 1 1 1
node 10 1 1 1
node 11 1 1 1
node 12 1 0 0
node 13 1 0 2
node 14 1 0 2
node 17 1 0 0
node 23 1 0 0
node 27 1 0 0
node 37 1 0 0
node 52 1 0 0
node 191 1 0 0
node 389 1 0 0
node 605 1 0 0
node 616 1 0 0
gene 1 1 12 1.6647537560458225 false 1 1.6647537560458225 true
gene 1 2 12 -1.8189790372684842 false 2 -1.8189790372684842 true
gene 1 3 12 1.2118358716087978 false 3 1.2118358716087978 true
gene 1 4 12 0.4730884137785645 false 4 0.4730884137785645 true
gene 1 5 12 0.07409733318078299 false 5 0.07409733318078299 true
gene 1 6 12 -0.7645949822268883 false 6 -0.7645949822268883 true
gene 1 7 12 0.0023100338670951626 false 7 0.0023100338670951626 true
gene 1 8 12 -0.5098611180807193 false 8 -0.5098611180807193 true
gene 1 9 12 0.13289510353614048 false 9 0.13289510353614048 true
gene 1 10 12 1.0293603865136647 false 10 1.0293603865136647 true
gene 1 11 12 -2.655770933165789 false 11 -2.655770933165789 true
gene 1 12 13 0.5695507385991554 false 12 0.5695507385991554 true
gene 1 12 14 0.16483731511390587 false 13 0.16483731511390587 true
gene 1 7 14 0.935071993867178 false 24 0.935071993867178 true
gene 1 2 17 0.4091255126774923 false 42 0.4091255126774923 true
gene 1 17 12 -0.4425223362893562 false 43 -0.4425223362893562 true
gene 1 11 23 0.6155397830873434 false 91 0.6155397830873434 true
gene 1 23 12 0.1936849519123147 false 92 0.1936849519123147 true
gene 1 2 27 2.570720542413603 false 119 2.570720542413603 true
gene 1 27 12 -0.2746849252951388 false 120 -0.2746849252951388 true
gene 1 2 14 -1.408041294020994 false 161 -1.408041294020994 true
gene 1 11 37 -0.6817719294359992 false 175 -0.6817719294359992 true
gene 1 37 23 -1.9178419883368065 false 176 -1.9178419883368065 true
gene 1 8 52 1.452170903318228 false 257 1.452170903318228 true
gene 1 52 12 1.0160143507584884 false 258 1.0160143507584884 true
gene 1 23 23 0.3870744688187252 true 270 0.3870744688187252 true
gene 1 5 27 -0.16380689242918617 false 643 -0.16380689242918617 true
gene 1 6 191 0.6040226256587665 false 945 0.6040226256587665 true
gene 1 191 12 -0.10060279533781002 false 946 -0.10060279533781002 true
gene 1 9 23 0.35851739288159573 false 1543 0.35851739288159573 true
gene 1 13 13 -2.2876138535374726 true 1745 -2.2876138535374726 true
gene 1 7 52 -0.03484002213122183 false 1928 -0.03484002213122183 true
gene 1 9 389 0.18856391287303137 false 1949 0.18856391287303137 true
gene 1 389 23 0.31874041016681187 false 1950 0.31874041016681187 true
gene 1 7 37 0.5132831333037811 false 2072 0.5132831333037811 true
gene 1 3 13 10.021683083661772 false 2735 10.021683083661772 true
gene 1 37 37 0.6729386689473065 true 2978 0.6729386689473065 true
gene 1 7 605 1.3934208427468113 false 3043 1.3934208427468113 true
gene 1 605 52 -0.49874167449912493 false 3044 -0.49874167449912493 true
gene 1 10 616 0.7393976660176589 false 3108 0.7393976660176589 true
gene 1 616 12 1.2347110640648367 false 3109 1.2347110640648367 true
genomeend 18
/* Organism #22 Fitness: 7.897 Error: 0.769 */
genomestart 22
trait 1 0.3757125493535413 1.9505517144440827 1.0104020747517057 0 0 2.4534261335396357 0 0.9877235525269176 
node 1 1 1 3
node 2 1 1 1
node 3 1 1 1
node 4 1 1 1
node 5 1 1 1
node 6 1 1 1
node 7 1 1 1
node 8 1 1 1
node 9 1 1 1
node 10 1 1 1
node 11 1 1 1
node 12 1 0 0
node 13 1 0 2
node 14 1 0 2
node 17 1 0 0
node 23 1 0 0
node 27 1 0 0
node 37 1 0 0
node 52 1 0 0
node 191 1 0 0
node 389 1 0 0
node 605 1 0 0
node 616 1 0 0
gene 1 1 12 0.6087255726627283 false 1 0.6087255726627283 true
gene 1 2 12 -1.8189790372684842 false 2 -1.8189790372684842 true
gene 1 3 12 1.2118358716087978 false 3 1.2118358716087978 true
gene 1 4 12 0.48754081610807354 false 4 0.48754081610807354 true
gene 1 5 12 -0.2524336528695818 false 5 -0.2524336528695818 true
gene 1 6 12 -1.2603696396875161 false 6 -1.2603696396875161 true
gene 1 7 12 0.2538887282646944 false 7 0.2538887282646944 true
gene 1 8 12 -0.6352378887750761 false 8 -0.6352378887750761 true
gene 1 9 12 -0.6401094158928322 false 9 -0.6401094158928322 true
gene 1 10 12 1.0641071700066436 false 10 1.0641071700066436 true
gene 1 11 12 -1.795534455057458 false 11 -1.795534455057458 true
gene 1 12 13 0.42991628360896916 false 12 0.42991628360896916 true
gene 1 12 14 0.8499166019222284 false 13 0.8499166019222284 true
gene 1 7 14 0.30917115381638566 false 24 0.30917115381638566 true
gene 1 2 17 1.3698343069958479 false 42 1.3698343069958479 true
gene 1 17 12 -0.7796602817962243 false 43 -0.7796602817962243 true
gene 1 11 23 -0.09068334455401282 false 91 -0.09068334455401282 true
gene 1 23 12 0.4383830222368616 false 92 0.4383830222368616 true
gene 1 2 27 0.5818855472968941 false 119 0.5818855472968941 true
gene 1 27 12 -0.06634420734853774 false 120 -0.06634420734853774 true
gene 1 2 14 -1.408041294020994 false 161 -1.408041294020994 true
gene 1 11 37 0.5493350861042132 false 175 0.5493350861042132 true
gene 1 37 23 -1.240408182136896 false 176 -1.240408182136896 true
gene 1 8 52 1.4518086662311243 false 257 1.4518086662311243 true
gene 1 52 12 -0.24195407754287365 false 258 -0.24195407754287365 true
gene 1 23 23 0.3913038719924615 true 270 0.3913038719924615 true
gene 1 5 27 -2.254179985986972 false 643 -2.254179985986972 true
gene 1 6 191 -0.38642649695844883 false 945 -0.38642649695844883 true
gene 1 191 12 -0.5131450730503238 false 946 -0.5131450730503238 true
gene 1 9 23 0.37690185937215587 false 1543 0.37690185937215587 true
gene 1 13 13 -0.9327401640198735 true 1745 -0.9327401640198735 true
gene 1 7 52 0.7777906761274044 false 1928 0.7777906761274044 true
gene 1 9 389 1.132113802788608 false 1949 1.132113802788608 true
gene 1 389 23 -0.6403880974302243 false 1950 -0.6403880974302243 true
gene 1 7 37 1.5440156865292918 false 2072 1.5440156865292918 true
gene 1 3 13 10.053530911503506 false 2735 10.053530911503506 true
gene 1 37 37 -0.04632110002720424 true 2978 -0.04632110002720424 true
gene 1 7 605 0.8869359621753066 false 3043 0.8869359621753066 true
gene 1 605 52 -0.1879106995229659 false 3044 -0.1879106995229659 true
gene 1 10 616 1.4538533909128872 false 3108 1.4538533909128872 true
gene 1 616 12 1.2978926200688323 false 3109 1.2978926200688323 true
genomeend 22
/* Organism #19 Fitness: 6.549 Error: 0.724 */
genomestart 19
trait 1 0.2516337152586012 1.9505517144440827 1.0104020747517057 0 0.23467195988297723 1.9756739846385183 0 1.172174508721648 
node 1 1 1 3
node 2 1 1 1
node 3 1 1 1
node 4 1 1 1
node 5 1 1 1
node 6 1 1 1
node 7 1 1 1
node 8 1 1 1
node 9 1 1 1
node 10 1 1 1
node 11 1 1 1
node 12 1 0 0
node 13 1 0 2
node 14 1 0 2
node 17 1 0 0
node 23 1 0 0
node 27 1 0 0
node 37 1 0 0
node 52 1 0 0
node 191 1 0 0
node 389 1 0 0
node 605 1 0 0
node 616 1 0 0
gene 1 1 12 0.7845771364577692 false 1 0.7845771364577692 true
gene 1 2 12 -1.109401143679464 false 2 -1.109401143679464 true
gene 1 3 12 0.8605984713355478 false 3 0.8605984713355478 true
gene 1 4 12 1.5674497660886777 false 4 1.5674497660886777 true
gene 1 5 12 0.01903740061135172 false 5 0.01903740061135172 true
gene 1 6 12 0.5155702738222135 false 6 0.5155702738222135 true
gene 1 7 12 1.1481330489151713 false 7 1.1481330489151713 true
gene 1 8 12 -0.6469858460904341 false 8 -0.6469858460904341 true
gene 1 9 12 -1.0652544462256648 false 9 -1.0652544462256648 true
gene 1 10 12 0.08055638542561105 false 10 0.08055638542561105 true
gene 1 11 12 -2.5621979983132883 false 11 -2.5621979983132883 true
gene 1 12 13 -0.19772347064546064 false 12 -0.19772347064546064 true
gene 1 12 14 0.6514697908011566 false 13 0.6514697908011566 true
gene 1 7 14 1.3828270484138248 false 24 1.3828270484138248 true
gene 1 2 17 1.1185840069992643 false 42 1.1185840069992643 true
gene 1 17 12 0.7529964360919351 false 43 0.7529964360919351 true
gene 1 11 23 -0.09068334455401282 false 91 -0.09068334455401282 true
gene 1 23 12 1.6488279128476082 false 92 1.6488279128476082 true
gene 1 2 27 0.14440016243190026 false 119 0.14440016243190026 true
gene 1 27 12 -0.23681214467964995 false 120 -0.23681214467964995 true
gene 1 2 14 0.5337792371795217 false 161 0.5337792371795217 true
gene 1 11 37 0.7338230905969374 false 175 0.7338230905969374 true
gene 1 37 23 -1.0877573476001126 false 176 -1.0877573476001126 true
gene 1 8 52 0.8996855445011325 false 257 0.8996855445011325 true
gene 1 52 12 -0.06311313692061749 false 258 -0.06311313692061749 true
gene 1 23 23 0.40714333874972763 true 270 0.40714333874972763 true
gene 1 5 27 -3.0407291607474525 false 643 -3.0407291607474525 true
gene 1 6 191 0.16989135092373325 false 945 0.16989135092373325 true
gene 1 191 12 -0.758626738339603 false 946 -0.758626738339603 true
gene 1 9 23 -0.2345154440741054 false 1543 -0.2345154440741054 true
gene 1 13 13 -1.578330480555822 true 1745 -1.578330480555822 true
gene 1 7 52 0.27642471700453397 false 1928 0.27642471700453397 true
gene 1 9 389 0.3749847661021848 false 1949 0.3749847661021848 true
gene 1 389 23 -0.36050370998693076 false 1950 -0.36050370998693076 true
gene 1 7 37 0.3836561027952926 false 2072 0.3836561027952926 true
gene 1 3 13 10.384604096404146 false 2735 10.384604096404146 true
gene 1 37 37 0.551882732328301 true 2978 0.551882732328301 true
gene 1 7 605 1.4441425282296012 false 3043 1.4441425282296012 true
gene 1 605 52 0.6070944429413594 false 3044 0.6070944429413594 true
gene 1 10 616 0.7393976660176589 false 3108 0.7393976660176589 true
gene 1 616 12 1.093420694587298 false 3109 1.093420694587298 true
genomeend 19
/* Organism #17 Fitness: 6.082 Error: 0.532 */
genomestart 17
trait 1 0.3757125493535413 1.9505517144440827 1.0104020747517057 0 0 2.4534261335396357 0 0.9877235525269176 
node 1 1 1 3
node 2 1 1 1
node 3 1 1 1
node 4 1 1 1
node 5 1 1 1
node 6 1 1 1
node 7 1 1 1
node 8 1 1 1
node 9 1 1 1
node 10 1 1 1
node 11 1 1 1
node 12 1 0 0
node 13 1 0 2
node 14 1 0 2
node 17 1 0 0
node 23 1 0 0
node 27 1 0 0
node 37 1 0 0
node 52 1 0 0
node 191 1 0 0
node 389 1 0 0
node 605 1 0 0
node 616 1 0 0
gene 1 1 12 1.6550273238880897 false 1 1.6550273238880897 true
gene 1 2 12 -2.475894994230003 false 2 -2.475894994230003 true
gene 1 3 12 0.901705544688252 false 3 0.901705544688252 true
gene 1 4 12 0.3399616432651582 false 4 0.3399616432651582 true
gene 1 5 12 0.37136476077238467 false 5 0.37136476077238467 true
gene 1 6 12 -1.4205959526250178 false 6 -1.4205959526250178 true
gene 1 7 12 -0.5094561565606833 false 7 -0.5094561565606833 true
gene 1 8 12 0.5175929800298847 false 8 0.5175929800298847 true
gene 1 9 12 0.1743316431516539 false 9 0.1743316431516539 true
gene 1 10 12 -0.6329904827083116 false 10 -0.6329904827083116 true
gene 1 11 12 -2.4515619201657155 false 11 -2.4515619201657155 true
gene 1 12 13 0.9850106331122384 false 12 0.9850106331122384 true
gene 1 12 14 0.9355974427270172 false 13 0.9355974427270172 true
gene 1 7 14 0.10081512819596572 false 24 0.10081512819596572 true
gene 1 2 17 0.3927469486540273 false 42 0.3927469486540273 true
gene 1 17 12 0.21090718327596158 false 43 0.21090718327596158 true
gene 1 11 23 0.17836397145884608 false 91 0.17836397145884608 true
gene 1 23 12 0.5077623997939448 false 92 0.5077623997939448 true
gene 1 2 27 2.3086302660338265 false 119 2.3086302660338265 true
gene 1 27 12 -0.08115211798465183 false 120 -0.08115211798465183 true
gene 1 2 14 -1.473308387829205 false 161 -1.473308387829205 true
gene 1 11 37 -0.4652699784472127 false 175 -0.4652699784472127 true
gene 1 37 23 -1.666578720944349 false 176 -1.666578720944349 true
gene 1 8 52 1.3018397198895348 false 257 1.3018397198895348 true
gene 1 52 12 -0.13862783320223165 false 258 -0.13862783320223165 true
gene 1 23 23 0.3870744688187252 true 270 0.3870744688187252 true
gene 1 5 27 -1.9308084260385905 false 643 -1.9308084260385905 true
gene 1 6 191 -0.7438319290672704 false 945 -0.7438319290672704 true
gene 1 191 12 -0.24458394268591402 false 946 -0.24458394268591402 true
gene 1 9 23 -0.43732703175116394 false 1543 -0.43732703175116394 true
gene 1 13 13 -1.980670412746305 true 1745 -1.980670412746305 true
gene 1 7 52 -0.34808504013666686 false 1928 -0.34808504013666686 true
gene 1 9 389 0.7426368717742211 false 1949 0.7426368717742211 true
gene 1 389 23 0.26474715025386997 false 1950 0.26474715025386997 true
gene 1 7 37 1.4093992644977649 false 2072 1.4093992644977649 true
gene 1 3 13 9.4559419338343 false 2735 9.4559419338343 true
gene 1 37 37 0.7454850310652905 true 2978 0.7454850310652905 true
gene 1 7 605 -0.7684409985984116 false 3043 -0.7684409985984116 true
gene 1 605 52 -0.49079748629584025 false 3044 -0.49079748629584025 true
gene 1 10 616 0.5672116820401041 false 3108 0.5672116820401041 true
gene 1 616 12 1.0889352763662585 false 3109 1.0889352763662585 true
genomeend 17
/* Organism #20 Fitness: 5.252 Error: 0.990 */
genomestart 20
trait 1 0.3757125493535413 1.9505517144440827 1.0104020747517057 0 0 2.4534261335396357 0 0.9877235525269176 
node 1 1 1 3
node 2 1 1 1
node 3 1 1 1
node 4 1 1 1
node 5 1 1 1
node 6 1 1 1
node 7 1 1 1
node 8 1 1 1
node 9 1 1 1
node 10 1 1 1
node 11 1 1 1
node 12 1 0 0
node 13 1 0 2
node 14 1 0 2
node 17 1 0 0
node 23 1 0 0
node 27 1 0 0
node 37 1 0 0
node 52 1 0 0
node 191 1 0 0
node 389 1 0 0
node 605 1 0 0
node 616 1 0 0
gene 1 1 12 2.400839904006598 false 1 2.400839904006598 true
gene 1 2 12 -2.7314317899652734 false 2 -2.7314317899652734 true
gene 1 3 12 1.1208996114417626 false 3 1.1208996114417626 true
gene 1 4 12 0.8895274576737789 false 4 0.8895274576737789 true
gene 1 5 12 0.24645082583616595 false 5 0.24645082583616595 true
gene 1 6 12 -1.6454079000821111 false 6 -1.6454079000821111 true
gene 1 7 12 -0.8446274738490535 false 7 -0.8446274738490535 true
gene 1 8 12 0.9294126144555497 false 8 0.9294126144555497 true
gene 1 9 12 -0.5111802180667289 false 9 -0.5111802180667289 true
gene 1 10 12 -1.0976564217113431 false 10 -1.0976564217113431 true
gene 1 11 12 -2.422171309950627 false 11 -2.422171309950627 true
gene 1 12 13 0.7399371276711878 false 12 0.7399371276711878 true
gene 1 12 14 0.8910368328285622 false 13 0.8910368328285622 true
gene 1 7 14 0.33512759055963626 false 24 0.33512759055963626 true
gene 1 2 17 0.8895852862921951 false 42 0.8895852862921951 true
gene 1 17 12 -0.16739244472372727 false 43 -0.16739244472372727 true
gene 1 11 23 -0.21182754771052426 false 91 -0.21182754771052426 true
gene 1 23 12 0.22175582935066768 false 92 0.22175582935066768 true
gene 1 2 27 1.8041302130076287 false 119 1.8041302130076287 true
gene 1 27 12 0.05791118938794376 false 120 0.05791118938794376 true
gene 1 2 14 -0.8843568089567829 false 161 -0.8843568089567829 true
gene 1 11 37 -0.12033720710268575 false 175 -0.12033720710268575 true
gene 1 37 23 -1.2540762808645651 false 176 -1.2540762808645651 true
gene 1 8 52 2.0708985414695134 false 257 2.0708985414695134 true
gene 1 52 12 0.14554256300543106 false 258 0.14554256300543106 true
gene 1 23 23 -0.30349440052370735 true 270 -0.30349440052370735 true
gene 1 5 27 -2.3584325395919374 false 643 -2.3584325395919374 true
gene 1 6 191 -0.3846492771137676 false 945 -0.3846492771137676 true
gene 1 191 12 -0.5969319145389989 false 946 -0.5969319145389989 true
gene 1 9 23 -0.32624255391868356 false 1543 -0.32624255391868356 true
gene 1 13 13 -1.91624372676754 true 1745 -1.91624372676754 true
gene 1 7 52 0.3018452656099655 false 1928 0.3018452656099655 true
gene 1 9 389 0.8197790243783514 false 1949 0.8197790243783514 true
gene 1 389 23 -0.15738712343865932 false 1950 -0.15738712343865932 true
gene 1 7 37 1.4093992644977649 false 2072 1.4093992644977649 true
gene 1 3 13 0.12793390319666362 false 2735 0.12793390319666362 true
gene 1 37 37 0.7454850310652905 true 2978 0.7454850310652905 true
gene 1 7 605 -0.45364096581686203 false 3043 -0.45364096581686203 true
gene 1 605 52 -0.8887529915503412 false 3044 -0.8887529915503412 true
gene 1 10 616 0.5609332919257223 false 3108 0.5609332919257223 true
gene 1 616 12 1.0889352763662585 false 3109 1.0889352763662585 true
genomeend 20
/* Organism #21 Fitness: 5.140 Error: 0.795 */
genomestart 21
trait 1 0.3757125493535413 1.9505517144440827 1.0104020747517057 0 0 2.4534261335396357 0 0.9877235525269176 
node 1 1 1 3
node 2 1 1 1
node 3 1 1 1
node 4 1 1 1
node 5 1 1 1
node 6 1 1 1
node 7 1 1 1
node 8 1 1 1
node 9 1 1 1
node 10 1 1 1
node 11 1 1 1
node 12 1 0 0
node 13 1 0 2
node 14 1 0 2
node 17 1 0 0
node 23 1 0 0
node 27 1 0 0
node 37 1 0 0
node 52 1 0 0
node 191 1 0 0
node 389 1 0 0
node 605 1 0 0
node 616 1 0 0
gene 1 1 12 1.0993476224870111 false 1 1.0993476224870111 true
gene 1 2 12 -1.7717193314783009 false 2 -1.7717193314783009 true
gene 1 3 12 0.8731616573104952 false 3 0.8731616573104952 true
gene 1 4 12 0.32452177915249386 false 4 0.32452177915249386 true
gene 1 5 12 -0.0029791339803501016 false 5 -0.0029791339803501016 true
gene 1 6 12 -1.061812570060602 false 6 -1.061812570060602 true
gene 1 7 12 -1.271115600968189 false 7 -1.271115600968189 true
gene 1 8 12 0.23220028627713696 false 8 0.23220028627713696 true
gene 1 9 12 0.5947365967826472 false 9 0.5947365967826472 true
gene 1 10 12 -0.7005723285348182 false 10 -0.7005723285348182 true
gene 1 11 12 -2.05725430455697 false 11 -2.05725430455697 true
gene 1 12 13 1.3702608554648694 false 12 1.3702608554648694 true
gene 1 12 14 0.6304844306996593 false 13 0.6304844306996593 true
gene 1 7 14 0.5095593552492759 false 24 0.5095593552492759 true
gene 1 2 17 1.0623215066871567 false 42 1.0623215066871567 true
gene 1 17 12 -0.5745035541551659 false 43 -0.5745035541551659 true
gene 1 11 23 -0.3767671958425759 false 91 -0.3767671958425759 true
gene 1 23 12 0.48017750268310605 false 92 0.48017750268310605 true
gene 1 2 27 2.313213965780632 false 119 2.313213965780632 true
gene 1 27 12 -0.48700297807411547 false 120 -0.48700297807411547 true
gene 1 2 14 -1.093904677850558 false 161 -1.093904677850558 true
gene 1 11 37 -0.3956383743994625 false 175 -0.3956383743994625 true
gene 1 37 23 -1.1682500156557567 false 176 -1.1682500156557567 true
gene 1 8 52 0.6643921581270573 false 257 0.6643921581270573 true
gene 1 52 12 -0.13870289032224759 false 258 -0.13870289032224759 true
gene 1 23 23 0.47255756784335223 true 270 0.47255756784335223 true
gene 1 5 27 -2.040013685978162 false 643 -2.040013685978162 true
gene 1 6 191 -1.532760225041585 false 945 -1.532760225041585 true
gene 1 191 12 -0.7753812729805076 false 946 -0.7753812729805076 true
gene 1 9 23 -0.23692596300529653 false 1543 -0.23692596300529653 true
gene 1 13 13 -1.7298238896956133 true 1745 -1.7298238896956133 true
gene 1 7 52 -0.26575193825590177 false 1928 -0.26575193825590177 true
gene 1 9 389 0.2779479270310695 false 1949 0.2779479270310695 true
gene 1 389 23 0.26474715025386997 false 1950 0.26474715025386997 true
gene 1 7 37 -0.2709113766142334 false 2072 -0.2709113766142334 true
gene 1 3 13 9.397311653085739 false 2735 9.397311653085739 true
gene 1 37 37 0.7454850310652905 true 2978 0.7454850310652905 true
gene 1 7 605 -0.7684409985984116 false 3043 -0.7684409985984116 true
gene 1 605 52 -0.49911700080077304 false 3044 -0.49911700080077304 true
gene 1 10 616 0.2647600259280362 false 3108 0.2647600259280362 true
gene 1 616 12 1.2540391533505466 false 3109 1.2540391533505466 true
genomeend 21
/* Species #4 : (Size 4) (AF 4.824) (Age 105)  */
/* Organism #25 Fitness: 8.192 Error: 0.368 */
genomestart 25
trait 1 0.21474440400695724 0 0.42862543834295463 0.512392507672737 0.43091461820804067 1.2721851711076957 0.4138842642649351 0.03004241314097338 
node 1 1 1 3
node 2 1 1 1
node 3 1 1 1
node 4 1 1 1
node 5 1 1 1
node 6 1 1 1
node 7 1 1 1
node 8 1 1 1
node 9 1 1 1
node 10 1 1 1
node 11 1 1 1
node 12 1 0 0
node 13 1 0 2
node 14 1 0 2
node 205 1 0 0
node 340 1 0 0
gene 1 1 12 0.41007220342446926 false 1 0.41007220342446926 true
gene 1 2 12 1.1538059763630386 false 2 1.1538059763630386 true
gene 1 3 12 -0.6336024196832534 false 3 -0.6336024196832534 true
gene 1 4 12 -0.9118310322900647 false 4 -0.9118310322900647 true
gene 1 5 12 0.7598217457849707 false 5 0.7598217457849707 true
gene 1 6 12 -0.9325331201475502 false 6 -0.9325331201475502 true
gene 1 7 12 0.2400565203566165 false 7 0.2400565203566165 true
gene 1 8 12 -0.4487150950939909 false 8 -0.4487150950939909 true
gene 1 9 12 -0.45644155086821236 false 9 -0.45644155086821236 true
gene 1 10 12 0.7226238328263883 false 10 0.7226238328263883 true
gene 1 11 12 1.4178867515234188 false 11 1.4178867515234188 true
gene 1 12 13 0.6717533602725481 false 12 0.6717533602725481 false
gene 1 12 14 -0.3106148732360471 false 13 -0.3106148732360471 true
gene 1 7 14 1.2822106193526337 false 24 1.2822106193526337 true
gene 1 14 13 0.8207569679415381 false 148 0.8207569679415381 true
gene 1 10 205 0.49657679041880587 false 1046 0.49657679041880587 true
gene 1 205 12 -1.2564245749099174 false 1047 -1.2564245749099174 true
gene 1 11 13 1.4297348197015776 false 1344 1.4297348197015776 true
gene 1 5 340 -0.18458666449009042 false 1696 -0.18458666449009042 true
gene 1 340 12 -0.3474478510309887 false 1697 -0.3474478510309887 true
genomeend 25
/* Organism #23 Fitness: 5.777 Error: 0.649 */
genomestart 23
trait 1 0.02385448414876477 0 0.6664074695706342 1.2257932587675358 1.0140824905664325 0.47231963270979976 0.4138842642649351 0.03004241314097338 
node 1 1 1 3
node 2 1 1 1
node 3 1 1 1
node 4 1 1 1
node 5 1 1 1
node 6 1 1 1
node 7 1 1 1
node 8 1 1 1
node 9 1 1 1
node 10 1 1 1
node 11 1 1 1
node 12 1 0 0
node 13 1 0 2
node 14 1 0 2
node 205 1 0 0
node 340 1 0 0
gene 1 1 12 -1.087748085535701 false 1 -1.087748085535701 true
gene 1 2 12 1.2125348937277287 false 2 1.2125348937277287 true
gene 1 3 12 -0.5830378925459564 false 3 -0.5830378925459564 true
gene 1 4 12 0.2668348349002696 false 4 0.2668348349002696 true
gene 1 5 12 -0.5724763347575703 false 5 -0.5724763347575703 true
gene 1 6 12 -1.1314093835332089 false 6 -1.1314093835332089 true
gene 1 7 12 0.7991808775503899 false 7 0.7991808775503899 true
gene 1 8 12 -1.1725185166049572 false 8 -1.1725185166049572 true
gene 1 9 12 -0.06509477780271022 false 9 -0.06509477780271022 true
gene 1 10 12 -0.18948994861081836 false 10 -0.18948994861081836 true
gene 1 11 12 1.5520802414516641 false 11 1.5520802414516641 true
gene 1 12 13 -0.21744980989356488 false 12 -0.21744980989356488 true
gene 1 12 14 -0.8872176258354891 false 13 -0.8872176258354891 true
gene 1 7 14 0.3540418000041469 false 24 0.3540418000041469 true
gene 1 14 13 0.50009304598925 false 148 0.50009304598925 true
gene 1 10 205 -0.3546572870696415 false 1046 -0.3546572870696415 true
gene 1 205 12 -0.3889109402903007 false 1047 -0.3889109402903007 true
gene 1 11 13 0.37899713479555847 false 1344 0.37899713479555847 true
gene 1 5 340 0.641623112622219 false 1696 0.641623112622219 true
gene 1 340 12 0.5245977049737122 false 1697 0.5245977049737122 true
genomeend 23
/* Organism #24 Fitness: 4.404 Error: 0.801 */
genomestart 24
trait 1 0.21474440400695724 0 0.42862543834295463 0.512392507672737 0.43091461820804067 1.2721851711076957 0.4138842642649351 0.03004241314097338 
node 1 1 1 3
node 2 1 1 1
node 3 1 1 1
node 4 1 1 1
node 5 1 1 1
node 6 1 1 1
node 7 1 1 1
node 8 1 1 1
node 9 1 1 1
node 10 1 1 1
node 11 1 1 1
node 12 1 0 0
node 13 1 0 2
node 14 1 0 2
node 205 1 0 0
node 340 1 0 0
gene 1 1 12 0.34975444026329083 false 1 0.34975444026329083 true
gene 1 2 12 0.6343481752364848 false 2 0.6343481752364848 true
gene 1 3 12 -0.8272485233722233 false 3 -0.8272485233722233 true
gene 1 4 12 -0.7847842830765926 false 4 -0.7847842830765926 true
gene 1 5 12 1.4083364424587017 false 5 1.4083364424587017 true
gene 1 6 12 0.3672097872592822 false 6 0.3672097872592822 true
gene 1 7 12 0.1608761656691297 false 7 0.1608761656691297 true
gene 1 8 12 -0.5151066084521103 false 8 -0.5151066084521103 true
gene 1 9 12 -0.18540145505534242 false 9 -0.18540145505534242 true
gene 1 10 12 0.16446758624941366 false 10 0.16446758624941366 true
gene 1 11 12 0.558706953163852 false 11 0.558706953163852 true
gene 1 12 13 0.026580810948259592 false 12 0.026580810948259592 true
gene 1 12 14 0.3679840344815442 false 13 0.3679840344815442 true
gene 1 7 14 1.298241173410507 false 24 1.298241173410507 true
gene 1 14 13 1.1252859749424515 false 148 1.1252859749424515 true
gene 1 10 205 1.060333909666364 false 1046 1.060333909666364 true
gene 1 205 12 -0.6549580074043563 false 1047 -0.6549580074043563 true
gene 1 11 13 1.4297348197015776 false 1344 1.4297348197015776 true
gene 1 5 340 -0.2788602327242991 false 1696 -0.2788602327242991 true
gene 1 340 12 -0.13538880897730066 false 1697 -0.13538880897730066 true
genomeend 24
/* Organism #26 Fitness: 0.923 Error: 0.853 */
genomestart 26
trait 1 0.02385448414876477 0 0.6664074695706342 1.2257932587675358 1.0140824905664325 0.47231963270979976 0.4138842642649351 0.03004241314097338 
node 1 1 1 3
node 2 1 1 1
node 3 1 1 1
node 4 1 1 1
node 5 1 1 1
node 6 1 1 1
node 7 1 1 1
node 8 1 1 1
node 9 1 1 1
node 10 1 1 1
node 11 1 1 1
node 12 1 0 0
node 13 1 0 2
node 14 1 0 2
node 205 1 0 0
node 340 1 0 0
gene 1 1 12 -0.8506231162172662 false 1 -0.8506231162172662 true
gene 1 2 12 1.3484123660781036 false 2 1.3484123660781036 true
gene 1 3 12 -0.6034851985574252 false 3 -0.6034851985574252 true
gene 1 4 12 -0.6593467513959262 false 4 -0.6593467513959262 true
gene 1 5 12 0.1202603244701726 false 5 0.1202603244701726 true
gene 1 6 12 -1.1976790575137728 false 6 -1.1976790575137728 true
gene 1 7 12 0.644018021841536 false 7 0.644018021841536 true
gene 1 8 12 0.3131240050336351 false 8 0.3131240050336351 true
gene 1 9 12 0.21359730322910575 false 9 0.21359730322910575 true
gene 1 10 12 -0.6400079477846353 false 10 -0.6400079477846353 true
gene 1 11 12 0.9739441728250486 false 11 0.9739441728250486 true
gene 1 12 13 -1.5092684020906821 false 12 -1.5092684020906821 true
gene 1 12 14 -0.7208917282294536 false 13 -0.7208917282294536 true
gene 1 7 14 -0.3656817012273709 false 24 -0.3656817012273709 true
gene 1 14 13 -0.04820568458416974 false 148 -0.04820568458416974 true
gene 1 10 205 -1.1091217261197985 false 1046 -1.1091217261197985 true
gene 1 205 12 -0.43025106487161424 false 1047 -0.43025106487161424 true
gene 1 11 13 0.05211889083732596 false 1344 0.05211889083732596 true
gene 1 5 340 0.4944587166133824 false 1696 0.4944587166133824 true
gene 1 340 12 -0.5397999323134033 false 1697 -0.5397999323134033 true
genomeend 26
/* Species #5 : (Size 5) (AF 5.112) (Age 103)  */
/* Organism #28 Fitness: 7.031 Error: 0.715 */
genomestart 28
trait 1 0.8887841628158145 0 0.6806478272854579 1.1575049597260272 0 1.737049808075628 0 0.07997541860409396 
node 1 1 1 3
node 2 1 1 1
node 3 1 1 1
node 4 1 1 1
node 5 1 1 1
node 6 1 1 1
node 7 1 1 1
node 8 1 1 1
node 9 1 1 1
node 10 1 1 1
node 11 1 1 1
node 12 1 0 0
node 13 1 0 2
node 14 1 0 2
node 17 1 0 0
node 23 1 0 0
node 108 1 0 0
node 360 1 0 0
node 468 1 0 0
gene 1 1 12 0.5127514298975184 false 1 0.5127514298975184 true
gene 1 2 12 0.7013434332225963 false 2 0.7013434332225963 true
gene 1 3 12 0.2348714338132873 false 3 0.2348714338132873 true
gene 1 4 12 -3.412003378422802 false 4 -3.412003378422802 true
gene 1 5 12 -0.34487804386099485 false 5 -0.34487804386099485 true
gene 1 6 12 1.1066950634889032 false 6 1.1066950634889032 true
gene 1 7 12 -0.7124946607269811 false 7 -0.7124946607269811 true
gene 1 8 12 -0.8945335756730298 false 8 -0.8945335756730298 true
gene 1 9 12 2.901184233577988 false 9 2.901184233577988 true
gene 1 10 12 -1.290870117881907 false 10 -1.290870117881907 true
gene 1 11 12 0.585631670215421 false 11 0.585631670215421 true
gene 1 12 13 0.16110182958030286 false 12 0.16110182958030286 true
gene 1 12 14 -0.28637455316389904 false 13 -0.28637455316389904 true
gene 1 7 14 -2.659841938492674 false 24 -2.659841938492674 true
gene 1 2 17 1.5892217559239594 false 42 1.5892217559239594 true
gene 1 17 12 1.8677983317489883 false 43 1.8677983317489883 true
gene 1 11 23 -4.048232180870857 false 91 -4.048232180870857 true
gene 1 23 12 0.15247674546212509 false 92 0.15247674546212509 true
gene 1 8 108 -3.007149177855386 false 552 -3.007149177855386 true
gene 1 108 12 -2.8797299142685127 false 553 -2.8797299142685127 true
gene 1 9 13 -2.9570336725227317 false 565 -2.9570336725227317 true
gene 1 12 12 -0.948797794373323 true 595 -0.948797794373323 true
gene 1 3 17 -0.005168598835099007 false 639 -0.005168598835099007 true
gene 1 11 108 -0.7296940305202733 false 970 -0.7296940305202733 true
gene 1 11 360 1.7696544885906667 false 1811 1.7696544885906667 true
gene 1 360 12 -0.6986594763356232 false 1812 -0.6986594763356232 true
gene 1 13 13 -6.103146125616478 true 1845 -6.103146125616478 true
gene 1 360 360 7.9483174049811085 true 1910 7.9483174049811085 true
gene 1 11 468 0.221275149298511 false 2365 0.221275149298511 true
gene 1 468 360 -0.3717507131174859 false 2366 -0.3717507131174859 true
gene 1 4 468 -1.432412855346517 false 2504 -1.432412855346517 true
gene 1 468 17 -0.9704155969365783 false 2574 -0.9704155969365783 true
gene 1 468 23 1.3217825577083655 false 2683 1.3217825577083655 true
gene 1 360 13 0.771306194305243 false 2819 0.771306194305243 true
gene 1 108 108 -0.6131603132611485 true 2837 -0.6131603132611485 true
gene 1 360 17 -0.28361583678462726 false 2879 -0.28361583678462726 true
genomeend 28
/* Organism #31 Fitness: 6.706 Error: 0.737 */
genomestart 31
trait 1 0.8887841628158145 0 0.6806478272854579 0.3298556138427939 0.5649028691144268 1.737049808075628 0 0.84301556575446 
node 1 1 1 3
node 2 1 1 1
node 3 1 1 1
node 4 1 1 1
node 5 1 1 1
node 6 1 1 1
node 7 1 1 1
node 8 1 1 1
node 9 1 1 1
node 10 1 1 1
node 11 1 1 1
node 12 1 0 0
node 13 1 0 2
node 14 1 0 2
node 17 1 0 0
node 23 1 0 0
node 108 1 0 0
node 360 1 0 0
node 468 1 0 0
node 638 1 0 0
gene 1 1 12 -0.11949837687767718 false 1 -0.11949837687767718 true
gene 1 2 12 0.31866378759653935 false 2 0.31866378759653935 true
gene 1 3 12 -0.11488316775017826 false 3 -0.11488316775017826 true
gene 1 4 12 -3.0708645875930114 false 4 -3.0708645875930114 true
gene 1 5 12 0.06578134088786369 false 5 0.06578134088786369 true
gene 1 6 12 1.0261340765098783 false 6 1.0261340765098783 true
gene 1 7 12 -0.5853431966938692 false 7 -0.5853431966938692 true
gene 1 8 12 -1.673356390771568 false 8 -1.673356390771568 false
gene 1 9 12 2.622713934786092 false 9 2.622713934786092 true
gene 1 10 12 -1.0215545532984647 false 10 -1.0215545532984647 true
gene 1 11 12 0.7281697657519365 false 11 0.7281697657519365 true
gene 1 12 13 -0.18756198963668488 false 12 -0.18756198963668488 true
gene 1 12 14 -0.029028845551874627 false 13 -0.029028845551874627 true
gene 1 7 14 -2.161502448368905 false 24 -2.161502448368905 true
gene 1 2 17 0.9998158337867954 false 42 0.9998158337867954 true
gene 1 17 12 1.9769809051378902 false 43 1.9769809051378902 true
gene 1 11 23 -4.168085077870659 false 91 -4.168085077870659 true
gene 1 23 12 0.18515104125101423 false 92 0.18515104125101423 true
gene 1 8 108 -2.2739414530986637 false 552 -2.2739414530986637 true
gene 1 108 12 -3.4902630302482027 false 553 -3.4902630302482027 true
gene 1 9 13 -3.4120846067201285 false 565 -3.4120846067201285 true
gene 1 12 12 -0.6628904976404121 true 595 -0.6628904976404121 true
gene 1 3 17 0.0485124525771351 false 639 0.0485124525771351 true
gene 1 11 108 -0.6248309425172609 false 970 -0.6248309425172609 true
gene 1 11 360 2.2139354605242896 false 1811 2.2139354605242896 true
gene 1 360 12 -0.10291067207730742 false 1812 -0.10291067207730742 true
gene 1 13 13 -5.587476852844267 true 1845 -5.587476852844267 true
gene 1 360 360 8.195498857786 true 1910 8.195498857786 true
gene 1 11 468 -0.053804126847893485 false 2365 -0.053804126847893485 true
gene 1 468 360 0.3662728440667637 false 2366 0.3662728440667637 true
gene 1 4 468 -0.9559395016653816 false 2504 -0.9559395016653816 true
gene 1 468 17 -1.318401840987464 false 2574 -1.318401840987464 true
gene 1 468 23 0.5274877038687995 false 2683 0.5274877038687995 true
gene 1 360 13 0.771306194305243 false 2819 0.771306194305243 true
gene 1 108 108 -0.6296000285007304 true 2837 -0.6296000285007304 true
gene 1 360 17 -0.28361583678462726 false 2879 -0.28361583678462726 true
gene 1 8 638 1 false 3224 0 true
gene 1 638 12 -1.673356390771568 false 3225 0 true
genomeend 31
/* Organism #27 Fitness: 5.983 Error: 0.990 */
genomestart 27
trait 1 0.8887841628158145 0 0.6806478272854579 0.3298556138427939 0.5649028691144268 1.737049808075628 0 0.84301556575446 
node 1 1 1 3
node 2 1 1 1
node 3 1 1 1
node 4 1 1 1
node 5 1 1 1
node 6 1 1 1
node 7 1 1 1
node 8 1 1 1
node 9 1 1 1
node 10 1 1 1
node 11 1 1 1
node 12 1 0 0
node 13 1 0 2
node 14 1 0 2
node 17 1 0 0
node 23 1 0 0
node 108 1 0 0
node 360 1 0 0
node 468 1 0 0
gene 1 1 12 -0.7540312885228557 false 1 -0.7540312885228557 true
gene 1 2 12 0.028313656207554494 false 2 0.028313656207554494 true
gene 1 3 12 -0.01706325769297795 false 3 -0.01706325769297795 true
gene 1 4 12 -2.7233347128820418 false 4 -2.7233347128820418 true
gene 1 5 12 -0.7142621093249318 false 5 -0.7142621093249318 true
gene 1 6 12 0.8524688603634751 false 6 0.8524688603634751 true
gene 1 7 12 -0.3752279993182832 false 7 -0.3752279993182832 true
gene 1 8 12 -1.6050319967120374 false 8 -1.6050319967120374 true
gene 1 9 12 2.7471157324333006 false 9 2.7471157324333006 true
gene 1 10 12 -0.7129707267492715 false 10 -0.7129707267492715 true
gene 1 11 12 1.043354656407437 false 11 1.043354656407437 true
gene 1 12 13 -0.6186741349325173 false 12 -0.6186741349325173 true
gene 1 12 14 0.5675089523269692 false 13 0.5675089523269692 true
gene 1 7 14 0.23428617279962038 false 24 0.23428617279962038 true
gene 1 2 17 0.9998158337867954 false 42 0.9998158337867954 true
gene 1 17 12 -0.15769565263304072 false 43 -0.15769565263304072 true
gene 1 11 23 -4.662544833987793 false 91 -4.662544833987793 true
gene 1 23 12 0.596765895343274 false 92 0.596765895343274 true
gene 1 8 108 -2.2739414530986637 false 552 -2.2739414530986637 true
gene 1 108 12 -3.243642759867491 false 553 -3.243642759867491 true
gene 1 9 13 -3.5991508886726917 false 565 -3.5991508886726917 true
gene 1 12 12 -1.018460790917733 true 595 -1.018460790917733 true
gene 1 3 17 -0.2444779146384699 false 639 -0.2444779146384699 true
gene 1 11 108 -0.5767961747390222 false 970 -0.5767961747390222 true
gene 1 11 360 2.0609547316267918 false 1811 2.0609547316267918 true
gene 1 360 12 0.09531988236047237 false 1812 0.09531988236047237 true
gene 1 13 13 -5.7753314565140785 true 1845 -5.7753314565140785 true
gene 1 360 360 7.660273481796252 true 1910 7.660273481796252 true
gene 1 11 468 0.6351928072360205 false 2365 0.6351928072360205 true
gene 1 468 360 0.2971684199781225 false 2366 0.2971684199781225 true
gene 1 4 468 -1.6445236644792824 false 2504 -1.6445236644792824 true
gene 1 468 17 -1.4557373117843504 false 2574 -1.4557373117843504 true
gene 1 468 23 0.4087556953366071 false 2683 0.4087556953366071 true
gene 1 360 13 1.2770920207609373 false 2819 1.2770920207609373 true
gene 1 108 108 -0.6296000285007304 true 2837 -0.6296000285007304 true
gene 1 360 17 0.2880535802642444 false 2879 0.2880535802642444 true
genomeend 27
/* Organism #30 Fitness: 4.884 Error: 0.921 */
genomestart 30
trait 1 0.8887841628158145 0 0.6806478272854579 0.3298556138427939 0.5649028691144268 1.737049808075628 0 0.84301556575446 
node 1 1 1 3
node 2 1 1 1
node 3 1 1 1
node 4 1 1 1
node 5 1 1 1
node 6 1 1 1
node 7 1 1 1
node 8 1 1 1
node 9 1 1 1
node 10 1 1 1
node 11 1 1 1
node 12 1 0 0
node 13 1 0 2
node 14 1 0 2
node 17 1 0 0
node 23 1 0 0
node 108 1 0 0
node 360 1 0 0
node 468 1 0 0
gene 1 1 12 0.4908458138869426 false 1 0.4908458138869426 true
gene 1 2 12 0.47747558121983696 false 2 0.47747558121983696 true
gene 1 3 12 -0.3538003423379902 false 3 -0.3538003423379902 true
gene 1 4 12 -3.2334039056493964 false 4 -3.2334039056493964 true
gene 1 5 12 -0.19595497615642948 false 5 -0.19595497615642948 true
gene 1 6 12 0.6982546495971461 false 6 0.6982546495971461 true
gene 1 7 12 -0.7806565541051449 false 7 -0.7806565541051449 true
gene 1 8 12 -1.673356390771568 false 8 -1.673356390771568 true
gene 1 9 12 2.622713934786092 false 9 2.622713934786092 true
gene 1 10 12 0.5124302859605366 false 10 0.5124302859605366 true
gene 1 11 12 0.13398377707430764 false 11 0.13398377707430764 true
gene 1 12 13 -0.544609235011759 false 12 -0.544609235011759 true
gene 1 12 14 0.1044130430076115 false 13 0.1044130430076115 true
gene 1 7 14 -1.7086513320216177 false 24 -1.7086513320216177 true
gene 1 2 17 1.7987937073122713 false 42 1.7987937073122713 true
gene 1 17 12 1.9769809051378902 false 43 1.9769809051378902 true
gene 1 11 23 -4.205535889819864 false 91 -4.205535889819864 true
gene 1 23 12 0.6925455106892758 false 92 0.6925455106892758 true
gene 1 8 108 -1.7995361869132758 false 552 -1.7995361869132758 true
gene 1 108 12 -2.9527895530121784 false 553 -2.9527895530121784 true
gene 1 9 13 -3.7528645012360684 false 565 -3.7528645012360684 true
gene 1 12 12 -0.5995933996802102 true 595 -0.5995933996802102 true
gene 1 3 17 0.0485124525771351 false 639 0.0485124525771351 true
gene 1 11 108 -1.0766585754779658 false 970 -1.0766585754779658 true
gene 1 11 360 2.8002720948180775 false 1811 2.8002720948180775 true
gene 1 360 12 -0.26486969210139505 false 1812 -0.26486969210139505 true
gene 1 13 13 -5.87668248531543 true 1845 -5.87668248531543 true
gene 1 360 360 7.682896069838781 true 1910 7.682896069838781 true
gene 1 11 468 -0.700942425010537 false 2365 -0.700942425010537 true
gene 1 468 360 0.03534018801655592 false 2366 0.03534018801655592 true
gene 1 4 468 -0.17768998524303517 false 2504 -0.17768998524303517 true
gene 1 468 17 -1.0556210734231197 false 2574 -1.0556210734231197 true
gene 1 468 23 0.41015457315452947 false 2683 0.41015457315452947 true
gene 1 360 13 1.0844872121719793 false 2819 1.0844872121719793 true
gene 1 108 108 0.38672645545440915 true 2837 0.38672645545440915 true
gene 1 360 17 -0.2587803573823283 false 2879 -0.2587803573823283 true
genomeend 30
/* Organism #29 Fitness: 0.954 Error: 0.839 */
genomestart 29
trait 1 0.8887841628158145 0 0.6806478272854579 0.3298556138427939 0.5649028691144268 1.737049808075628 0 0.84301556575446 
node 1 1 1 3
node 2 1 1 1
node 3 1 1 1
node 4 1 1 1
node 5 1 1 1
node 6 1 1 1
node 7 1 1 1
node 8 1 1 1
node 9 1 1 1
node 10 1 1 1
node 11 1 1 1
node 12 1 0 0
node 13 1 0 2
node 14 1 0 2
node 17 1 0 0
node 23 1 0 0
node 108 1 0 0
node 360 1 0 0
node 468 1 0 0
gene 1 1 12 0.409473310439871 false 1 0.409473310439871 true
gene 1 2 12 0.9910110777031491 false 2 0.9910110777031491 true
gene 1 3 12 -0.37182605848749123 false 3 -0.37182605848749123 true
gene 1 4 12 -2.935103586337999 false 4 -2.935103586337999 true
gene 1 5 12 0.42493658358942676 false 5 0.42493658358942676 true
gene 1 6 12 0.764382888535635 false 6 0.764382888535635 true
gene 1 7 12 -0.3130119542035554 false 7 -0.3130119542035554 true
gene 1 8 12 -2.315227642011557 false 8 -2.315227642011557 true
gene 1 9 12 3.2660435712574225 false 9 3.2660435712574225 true
gene 1 10 12 -1.130000833851781 false 10 -1.130000833851781 true
gene 1 11 12 0.08522678307145104 false 11 0.08522678307145104 true
gene 1 12 13 -0.4472582011444596 false 12 -0.4472582011444596 true
gene 1 12 14 -0.7926171625670435 false 13 -0.7926171625670435 true
gene 1 7 14 -2.4781470666771104 false 24 -2.4781470666771104 true
gene 1 2 17 0.2263649380599153 false 42 0.2263649380599153 true
gene 1 17 12 2.262678239762679 false 43 2.262678239762679 true
gene 1 11 23 -4.345913754745718 false 91 -4.345913754745718 true
gene 1 23 12 0.2971842202081082 false 92 0.2971842202081082 true
gene 1 8 108 -2.7283477580483133 false 552 -2.7283477580483133 true
gene 1 108 12 -3.122174252713939 false 553 -3.122174252713939 true
gene 1 9 13 -3.2821911137841275 false 565 -3.2821911137841275 true
gene 1 12 12 -0.6750816496789552 true 595 -0.6750816496789552 true
gene 1 3 17 -0.022501662014675114 false 639 -0.022501662014675114 true
gene 1 11 108 -0.19633750334311556 false 970 -0.19633750334311556 true
gene 1 11 360 2.6666953224904426 false 1811 2.6666953224904426 true
gene 1 360 12 -0.052739065311428676 false 1812 -0.052739065311428676 true
gene 1 13 13 -4.924539898017995 true 1845 -4.924539898017995 true
gene 1 360 360 8.062887784224007 true 1910 8.062887784224007 true
gene 1 11 468 0.10741729398877836 false 2365 0.10741729398877836 true
gene 1 468 360 0.2078829614297311 false 2366 0.2078829614297311 true
gene 1 4 468 -0.5132665064354541 false 2504 -0.5132665064354541 true
gene 1 468 17 -1.8641887607240095 false 2574 -1.8641887607240095 true
gene 1 468 23 0.5274877038687995 false 2683 0.5274877038687995 true
gene 1 360 13 0.5255929818286063 false 2819 0.5255929818286063 true
gene 1 108 108 -0.47614673282096903 true 2837 -0.47614673282096903 true
gene 1 360 17 -0.4116899606930027 false 2879 -0.4116899606930027 true
genomeend 29
/* Species #6 : (Size 6) (AF 5.318) (Age 102)  */
/* Organism #37 Fitness: 8.195 Error: 0.296 */
genomestart 37
trait 1 0.023117579351255347 0.4331071865961371 0.8720355678891627 1.057001959362765 0.5255927420276907 0.032275682988756826 0.3064519179824047 1.3225050260889923 
node 1 1 1 3
node 2 1 1 1
node 3 1 1 1
node 4 1 1 1
node 5 1 1 1
node 6 1 1 1
node 7 1 1 1
node 8 1 1 1
node 9 1 1 1
node 10 1 1 1
node 11 1 1 1
node 12 1 0 0
node 13 1 0 2
node 14 1 0 2
node 270 1 0 0
gene 1 1 12 -1.014524692558893 false 1 -1.014524692558893 false
gene 1 2 12 -0.2478697460777389 false 2 -0.2478697460777389 true
gene 1 3 12 1.0063233273428405 false 3 1.0063233273428405 true
gene 1 4 12 1.967868301287152 false 4 1.967868301287152 true
gene 1 5 12 1.8464140562146625 false 5 1.8464140562146625 true
gene 1 6 12 1.911073219504831 false 6 1.911073219504831 true
gene 1 7 12 -0.5637375168810772 false 7 -0.5637375168810772 true
gene 1 8 12 -1.0964686951173503 false 8 -1.0964686951173503 true
gene 1 9 12 -3.450697296614827 false 9 -3.450697296614827 true
gene 1 10 12 0.09683803097633073 false 10 0.09683803097633073 true
gene 1 11 12 0.42414749100898685 false 11 0.42414749100898685 true
gene 1 12 13 -0.20021625283019126 false 12 -0.20021625283019126 true
gene 1 12 14 -0.6987991962760977 false 13 -0.6987991962760977 true
gene 1 7 14 5.906331502419822 false 24 5.906331502419822 true
gene 1 7 13 0.40844881332879024 false 54 0.40844881332879024 true
gene 1 2 13 -0.4865849397387535 false 105 -0.4865849397387535 true
gene 1 1 13 0.3725648255900982 false 145 0.3725648255900982 true
gene 1 2 14 -0.2573166861549274 false 193 -0.2573166861549274 true
gene 1 14 13 1.8951524607180328 false 369 1.8951524607180328 true
gene 1 3 13 2.019794945311481 false 707 2.019794945311481 true
gene 1 10 14 0.8566342158338356 false 967 0.8566342158338356 true
gene 1 7 270 0.6068041607482113 false 1381 0.6068041607482113 true
gene 1 270 12 0.9230179223680968 false 1382 0.9230179223680968 true
gene 1 9 14 0.3718281757629114 false 1388 0.3718281757629114 true
gene 1 6 13 -0.5420902330579771 false 1793 -0.5420902330579771 true
genomeend 37
/* Organism #34 Fitness: 6.301 Error: 0.556 */
genomestart 34
trait 1 0.023117579351255347 0.4331071865961371 0.8720355678891627 1.057001959362765 0.5255927420276907 0.032275682988756826 0.3064519179824047 1.3225050260889923 
node 1 1 1 3
node 2 1 1 1
node 3 1 1 1
node 4 1 1 1
node 5 1 1 1
node 6 1 1 1
node 7 1 1 1
node 8 1 1 1
node 9 1 1 1
node 10 1 1 1
node 11 1 1 1
node 12 1 0 0
node 13 1 0 2
node 14 1 0 2
node 270 1 0 0
node 631 1 0 0
gene 1 1 12 -1.7392406766588082 false 1 -1.7392406766588082 true
gene 1 2 12 -0.23244797336248502 false 2 -0.23244797336248502 true
gene 1 3 12 -0.01771432755442659 false 3 -0.01771432755442659 true
gene 1 4 12 -3.111585525797581 false 4 -3.111585525797581 true
gene 1 5 12 2.7187807095430716 false 5 2.7187807095430716 true
gene 1 6 12 1.4838540284411033 false 6 1.4838540284411033 true
gene 1 7 12 0.39247916134689703 false 7 0.39247916134689703 true
gene 1 8 12 0.10367435099259686 false 8 0.10367435099259686 true
gene 1 9 12 -3.599264341888131 false 9 -3.599264341888131 true
gene 1 10 12 1.8335579980261927 false 10 1.8335579980261927 true
gene 1 11 12 -0.12583397031105747 false 11 -0.12583397031105747 true
gene 1 12 13 0.29710842628604955 false 12 0.29710842628604955 true
gene 1 12 14 -0.9286224189300212 false 13 -0.9286224189300212 true
gene 1 7 14 4.380625372005941 false 24 4.380625372005941 true
gene 1 7 13 -0.3716209378309304 false 54 -0.3716209378309304 true
gene 1 2 13 -1.8738905501143714 false 105 -1.8738905501143714 true
gene 1 1 13 1.696255254484652 false 145 1.696255254484652 true
gene 1 2 14 -0.10951692008022235 false 193 -0.10951692008022235 true
gene 1 14 13 2.467466855471251 false 369 2.467466855471251 true
gene 1 3 13 1.5492745275807613 false 707 1.5492745275807613 true
gene 1 10 14 -1.4773434362204534 false 967 -1.4773434362204534 true
gene 1 7 270 -0.7377704415042061 false 1381 -0.7377704415042061 true
gene 1 270 12 0.4269455253598372 false 1382 0.4269455253598372 true
gene 1 9 14 0.2898963053421462 false 1388 0.2898963053421462 true
gene 1 6 13 0.20041996284552283 false 1793 0.20041996284552283 true
gene 1 8 14 0.39066814777142256 false 3103 0.39066814777142256 true
gene 1 270 631 1 false 3178 1 true
gene 1 631 12 -0.5495741236891185 false 3179 -0.5495741236891185 true
genomeend 34
/* Organism #35 Fitness: 5.613 Error: 0.592 */
genomestart 35
trait 1 0.023117579351255347 0.4331071865961371 0.8720355678891627 1.057001959362765 0.5255927420276907 0.032275682988756826 0.3064519179824047 1.3225050260889923 
node 1 1 1 3
node 2 1 1 1
node 3 1 1 1
node 4 1 1 1
node 5 1 1 1
node 6 1 1 1
node 7 1 1 1
node 8 1 1 1
node 9 1 1 1
node 10 1 1 1
node 11 1 1 1
node 12 1 0 0
node 13 1 0 2
node 14 1 0 2
node 270 1 0 0
node 631 1 0 0
gene 1 1 12 -1.975957338662718 false 1 -1.975957338662718 true
gene 1 2 12 -0.4378264623291479 false 2 -0.4378264623291479 true
gene 1 3 12 0.6023130312311803 false 3 0.6023130312311803 true
gene 1 4 12 -2.7117501516949973 false 4 -2.7117501516949973 true
gene 1 5 12 2.1713763265324357 false 5 2.1713763265324357 true
gene 1 6 12 1.6656499645027836 false 6 1.6656499645027836 true
gene 1 7 12 0.055733860811356443 false 7 0.055733860811356443 true
gene 1 8 12 -0.3735145095329284 false 8 -0.3735145095329284 true
gene 1 9 12 -2.8321091879695564 false 9 -2.8321091879695564 true
gene 1 10 12 1.2472631223927628 false 10 1.2472631223927628 true
gene 1 11 12 -0.10272075169322625 false 11 -0.10272075169322625 true
gene 1 12 13 -0.3345896784078563 false 12 -0.3345896784078563 true
gene 1 12 14 -0.394736355986353 false 13 -0.394736355986353 true
gene 1 7 14 5.163931063851886 false 24 5.163931063851886 true
gene 1 7 13 -0.1267285145270236 false 54 -0.1267285145270236 true
gene 1 2 13 -1.0828473196098318 false 105 -1.0828473196098318 true
gene 1 1 13 1.3618790202967639 false 145 1.3618790202967639 true
gene 1 2 14 0.4859357738529995 false 193 0.4859357738529995 true
gene 1 14 13 3.1116891902657207 false 369 3.1116891902657207 true
gene 1 3 13 1.4613928946032946 false 707 1.4613928946032946 true
gene 1 10 14 -0.7476255452852915 false 967 -0.7476255452852915 true
gene 1 7 270 -0.20330909904825933 false 1381 -0.20330909904825933 true
gene 1 270 12 0.7715656588306824 false 1382 0.7715656588306824 true
gene 1 9 14 0.2898963053421462 false 1388 0.2898963053421462 true
gene 1 6 13 -0.45064464064782234 false 1793 -0.45064464064782234 true
gene 1 8 14 0.39066814777142256 false 3103 0.39066814777142256 true
gene 1 270 631 1 false 3178 0 true
gene 1 631 12 0.7715656588306824 false 3179 0 true
genomeend 35
/* Organism #32 Fitness: 5.613 Error: 0.592 */
genomestart 32
trait 1 0.023117579351255347 0.4331071865961371 0.8720355678891627 1.057001959362765 0.5255927420276907 0.032275682988756826 0.3064519179824047 1.3225050260889923 
node 1 1 1 3
node 2 1 1 1
node 3 1 1 1
node 4 1 1 1
node 5 1 1 1
node 6 1 1 1
node 7 1 1 1
node 8 1 1 1
node 9 1 1 1
node 10 1 1 1
node 11 1 1 1
node 12 1 0 0
node 13 1 0 2
node 14 1 0 2
node 270 1 0 0
node 631 1 0 0
gene 1 1 12 -1.975957338662718 false 1 -1.975957338662718 true
gene 1 2 12 -0.4378264623291479 false 2 -0.4378264623291479 true
gene 1 3 12 0.6023130312311803 false 3 0.6023130312311803 true
gene 1 4 12 -2.7117501516949973 false 4 -2.7117501516949973 true
gene 1 5 12 2.1713763265324357 false 5 2.1713763265324357 true
gene 1 6 12 1.6656499645027836 false 6 1.6656499645027836 true
gene 1 7 12 0.055733860811356443 false 7 0.055733860811356443 true
gene 1 8 12 -0.3735145095329284 false 8 -0.3735145095329284 true
gene 1 9 12 -2.8321091879695564 false 9 -2.8321091879695564 true
gene 1 10 12 1.2472631223927628 false 10 1.2472631223927628 true
gene 1 11 12 -0.10272075169322625 false 11 -0.10272075169322625 true
gene 1 12 13 -0.3345896784078563 false 12 -0.3345896784078563 true
gene 1 12 14 -0.394736355986353 false 13 -0.394736355986353 true
gene 1 7 14 5.163931063851886 false 24 5.163931063851886 true
gene 1 7 13 -0.1267285145270236 false 54 -0.1267285145270236 true
gene 1 2 13 -1.0828473196098318 false 105 -1.0828473196098318 true
gene 1 1 13 1.3618790202967639 false 145 1.3618790202967639 true
gene 1 2 14 0.4859357738529995 false 193 0.4859357738529995 true
gene 1 14 13 3.1116891902657207 false 369 3.1116891902657207 true
gene 1 3 13 1.4613928946032946 false 707 1.4613928946032946 true
gene 1 10 14 -0.7476255452852915 false 967 -0.7476255452852915 true
gene 1 7 270 -0.20330909904825933 false 1381 -0.20330909904825933 true
gene 1 270 12 0.7715656588306824 false 1382 0.7715656588306824 true
gene 1 9 14 0.2898963053421462 false 1388 0.2898963053421462 true
gene 1 6 13 -0.45064464064782234 false 1793 -0.45064464064782234 true
gene 1 8 14 0.39066814777142256 false 3103 0.39066814777142256 true
gene 1 270 631 1 false 3178 0 true
gene 1 631 12 0.7715656588306824 false 3179 0 true
genomeend 32
/* Organism #36 Fitness: 3.310 Error: 0.874 */
genomestart 36
trait 1 0.023117579351255347 0.4331071865961371 0.8720355678891627 1.057001959362765 0.5255927420276907 0.032275682988756826 0.3064519179824047 1.3225050260889923 
node 1 1 1 3
node 2 1 1 1
node 3 1 1 1
node 4 1 1 1
node 5 1 1 1
node 6 1 1 1
node 7 1 1 1
node 8 1 1 1
node 9 1 1 1
node 10 1 1 1
node 11 1 1 1
node 12 1 0 0
node 13 1 0 2
node 14 1 0 2
node 270 1 0 0
node 631 1 0 0
gene 1 1 12 -1.5926181755471738 false 1 -1.5926181755471738 true
gene 1 2 12 -0.4510477537383298 false 2 -0.4510477537383298 true
gene 1 3 12 1.2011689820417684 false 3 1.2011689820417684 true
gene 1 4 12 -2.7117501516949973 false 4 -2.7117501516949973 true
gene 1 5 12 1.9066734864783201 false 5 1.9066734864783201 true
gene 1 6 12 1.6656499645027836 false 6 1.6656499645027836 true
gene 1 7 12 -0.24342764965134672 false 7 -0.24342764965134672 true
gene 1 8 12 -0.34791820582347266 false 8 -0.34791820582347266 true
gene 1 9 12 -2.8321091879695564 false 9 -2.8321091879695564 true
gene 1 10 12 1.2472631223927628 false 10 1.2472631223927628 true
gene 1 11 12 -0.10272075169322625 false 11 -0.10272075169322625 true
gene 1 12 13 -0.3345896784078563 false 12 -0.3345896784078563 true
gene 1 12 14 -0.394736355986353 false 13 -0.394736355986353 true
gene 1 7 14 5.163931063851886 false 24 5.163931063851886 true
gene 1 7 13 -0.1267285145270236 false 54 -0.1267285145270236 true
gene 1 2 13 -1.0828473196098318 false 105 -1.0828473196098318 true
gene 1 1 13 1.3618790202967639 false 145 1.3618790202967639 true
gene 1 2 14 0.4859357738529995 false 193 0.4859357738529995 true
gene 1 14 13 2.659233318755616 false 369 2.659233318755616 true
gene 1 3 13 1.4613928946032946 false 707 1.4613928946032946 true
gene 1 10 14 0.5896744677591452 false 967 0.5896744677591452 true
gene 1 7 270 0.6068041607482113 false 1381 0.6068041607482113 true
gene 1 270 12 0.7715656588306824 false 1382 0.7715656588306824 true
gene 1 9 14 0.3718281757629114 false 1388 0.3718281757629114 true
gene 1 6 13 -0.45064464064782234 false 1793 -0.45064464064782234 true
gene 1 8 14 0.39066814777142256 false 3103 0.39066814777142256 true
gene 1 270 631 1 false 3178 0 true
gene 1 631 12 0.7715656588306824 false 3179 0 true
genomeend 36
/* Organism #33 Fitness: 2.874 Error: 0.850 */
genomestart 33
trait 1 0.023117579351255347 0.4331071865961371 0.8720355678891627 1.057001959362765 0.5255927420276907 0.032275682988756826 0.3064519179824047 1.3225050260889923 
node 1 1 1 3
node 2 1 1 1
node 3 1 1 1
node 4 1 1 1
node 5 1 1 1
node 6 1 1 1
node 7 1 1 1
node 8 1 1 1
node 9 1 1 1
node 10 1 1 1
node 11 1 1 1
node 12 1 0 0
node 13 1 0 2
node 14 1 0 2
node 270 1 0 0
node 631 1 0 0
node 636 1 0 0
gene 1 1 12 -1.5926181755471738 false 1 -1.5926181755471738 true
gene 1 2 12 -0.4510477537383298 false 2 -0.4510477537383298 true
gene 1 3 12 0.6023130312311803 false 3 0.6023130312311803 true
gene 1 4 12 -2.7117501516949973 false 4 -2.7117501516949973 true
gene 1 5 12 1.9066734864783201 false 5 1.9066734864783201 true
gene 1 6 12 2.4194879173535866 false 6 2.4194879173535866 true
gene 1 7 12 -0.24342764965134672 false 7 -0.24342764965134672 true
gene 1 8 12 -0.34791820582347266 false 8 -0.34791820582347266 true
gene 1 9 12 -3.948336590766834 false 9 -3.948336590766834 true
gene 1 10 12 0.3313455405864715 false 10 0.3313455405864715 true
gene 1 11 12 -0.10272075169322625 false 11 -0.10272075169322625 true
gene 1 12 13 -0.3345896784078563 false 12 -0.3345896784078563 true
gene 1 12 14 -0.394736355986353 false 13 -0.394736355986353 true
gene 1 7 14 5.19516569050358 false 24 5.19516569050358 true
gene 1 7 13 -0.25384763417714806 false 54 -0.25384763417714806 true
gene 1 2 13 -1.0828473196098318 false 105 -1.0828473196098318 true
gene 1 1 13 0.06868625238661574 false 145 0.06868625238661574 true
gene 1 2 14 0.4859357738529995 false 193 0.4859357738529995 true
gene 1 14 13 2.659233318755616 false 369 2.659233318755616 false
gene 1 3 13 1.4613928946032946 false 707 1.4613928946032946 true
gene 1 10 14 0.5896744677591452 false 967 0.5896744677591452 true
gene 1 7 270 -0.20330909904825933 false 1381 -0.20330909904825933 true
gene 1 270 12 1.2205159493103146 false 1382 1.2205159493103146 true
gene 1 9 14 0.3718281757629114 false 1388 0.3718281757629114 true
gene 1 6 13 -0.5420902330579771 false 1793 -0.5420902330579771 true
gene 1 8 14 0.39066814777142256 false 3103 0.39066814777142256 true
gene 1 270 631 1 false 3178 0 true
gene 1 631 12 0.7715656588306824 false 3179 0 true
gene 1 14 636 1 false 3215 0 true
gene 1 636 13 2.659233318755616 false 3216 0 true
genomeend 33
/* Species #7 : (Size 7) (AF 4.945) (Age 102)  */
/* Organism #38 Fitness: 6.813 Error: 0.618 */
genomestart 38
trait 1 0.3742058684396521 0.18945020592541267 1.3253915198753474 1.2350034550764168 0.2595897484751041 0.16836003456530146 0.23947612519038916 0.06496404332932276 
node 1 1 1 3
node 2 1 1 1
node 3 1 1 1
node 4 1 1 1
node 5 1 1 1
node 6 1 1 1
node 7 1 1 1
node 8 1 1 1
node 9 1 1 1
node 10 1 1 1
node 11 1 1 1
node 12 1 0 0
node 13 1 0 2
node 14 1 0 2
node 34 1 0 0
gene 1 1 12 -0.39641821982553926 false 1 -0.39641821982553926 true
gene 1 2 12 -0.4035398994215075 false 2 -0.4035398994215075 true
gene 1 3 12 -0.6900744330523941 false 3 -0.6900744330523941 true
gene 1 4 12 -0.5581361080668477 false 4 -0.5581361080668477 true
gene 1 5 12 1.4789459403500165 false 5 1.4789459403500165 true
gene 1 6 12 0.7261492381727639 false 6 0.7261492381727639 true
gene 1 7 12 -0.19621718451232362 false 7 -0.19621718451232362 true
gene 1 8 12 -1.0690988006780995 false 8 -1.0690988006780995 true
