genomestart 249
trait 1 0.38011614350917017 0.8070784102620533 0.5210667559483982 0.05990485418437884 1.4388725881501259 0.6391181404443489 0.48101643217764073 0 
node 1 1 1 3
node 2 1 1 1
node 3 1 1 1
node 4 1 1 1
node 5 1 1 1
node 6 1 1 1
node 7 1 1 1
node 8 1 1 1
node 9 1 1 1
node 10 1 1 1
node 11 1 1 1
node 12 1 0 0
node 13 1 0 2
node 14 1 0 2
node 42 1 0 0
node 297 1 0 0
node 643 1 0 0
gene 1 1 12 -1.4538872246429164 false 1 -1.4538872246429164 true
gene 1 2 12 -1.1268853746202236 false 2 -1.1268853746202236 true
gene 1 3 12 -0.19955452405276197 false 3 -0.19955452405276197 true
gene 1 4 12 1.2575323572001358 false 4 1.2575323572001358 true
gene 1 5 12 1.3976127552935151 false 5 1.3976127552935151 true
gene 1 6 12 0.2492094109256953 false 6 0.2492094109256953 true
gene 1 7 12 -0.05724901705910751 false 7 -0.05724901705910751 true
gene 1 8 12 1.3315912848912874 false 8 1.3315912848912874 true
gene 1 9 12 -0.8477690099738668 false 9 -0.8477690099738668 true
gene 1 10 12 3.1607530278133056 false 10 3.1607530278133056 true
gene 1 11 12 0.7318964520995755 false 11 0.7318964520995755 true
gene 1 12 13 1.749712423142642 false 12 1.749712423142642 true
gene 1 12 14 1.2158082596818929 false 13 1.2158082596818929 true
gene 1 7 14 -0.5099669188446486 false 24 -0.5099669188446486 true
gene 1 7 13 0.47562746559610636 false 54 0.47562746559610636 true
gene 1 2 13 -3.105100292029488 false 105 -3.105100292029488 true
gene 1 10 42 -2.2385431385002414 false 196 -2.2385431385002414 true
gene 1 42 12 1.3771862248690712 false 197 1.3771862248690712 true
gene 1 6 42 3.512531546965255 false 1002 3.512531546965255 false
gene 1 13 42 -0.31721814023421185 true 1043 -0.31721814023421185 true
gene 1 42 14 1.2499008337008342 false 1158 1.2499008337008342 true
gene 1 2 297 0.47969204135917476 false 1508 0.47969204135917476 true
gene 1 297 12 -0.7752335531964198 false 1509 -0.7752335531964198 true
gene 1 3 297 4.553281283677395 false 2116 4.553281283677395 true
gene 1 6 643 1 false 3243 0 true
gene 1 643 42 3.512531546965255 false 3244 0 true
genomeend 249
